~o
<STREAMINFO> 1 39
<VECSIZE> 39<NULLD><MFCC_D_A_0><DIAGC>
~s "silst"
<MEAN> 39
 -7.916183e+00 -1.226104e+00 -2.458613e+00 -1.593542e-01 -6.083584e+00 -1.150459e+00 -6.709651e+00 -2.042183e+00 -3.422704e+00 -2.458716e+00 -1.381021e+00 -2.499347e+00 4.792424e+01 1.992777e-01 -1.088917e-01 6.686023e-03 -1.116762e-01 -5.173899e-02 -2.526046e-01 -1.440082e-01 -6.387280e-02 -1.300282e-01 1.477450e-03 -5.122709e-02 -3.620681e-02 6.919327e-01 1.041006e-02 -9.251479e-03 2.974641e-02 1.978931e-03 -1.487394e-02 7.828061e-03 6.820414e-03 1.348385e-02 5.711587e-03 4.932295e-03 -9.874168e-04 8.358096e-03 -2.234053e-02
<VARIANCE> 39
 1.117079e+02 7.488481e+01 7.403584e+01 5.608076e+01 6.925521e+01 6.621948e+01 5.946605e+01 5.724334e+01 6.100200e+01 4.324938e+01 3.972667e+01 3.400711e+01 1.920679e+02 5.189656e+00 4.346717e+00 3.621099e+00 4.020773e+00 4.245424e+00 4.340992e+00 4.430731e+00 4.457003e+00 4.375912e+00 3.331863e+00 3.082523e+00 2.309889e+00 7.465520e+00 7.007806e-01 7.106440e-01 5.827311e-01 7.263709e-01 7.474238e-01 7.673788e-01 7.988153e-01 8.137672e-01 7.937372e-01 6.171158e-01 5.766087e-01 4.326668e-01 1.022788e+00
<GCONST> 1.396695e+02
~h "a"
<BEGINHMM>
<NUMSTATES> 5
<STATE> 2
<MEAN> 39
 -2.833477e+00 -7.766064e+00 -2.740444e+00 -9.396757e+00 -6.759884e+00 -7.419379e+00 -8.298796e+00 1.646733e+00 -1.499837e+00 7.460899e-01 -4.592700e+00 -6.337600e+00 7.046145e+01 2.343950e-01 -9.000159e-01 -4.457749e-01 -5.332386e-01 3.315896e-01 2.623044e-02 4.733731e-01 5.558680e-01 5.413808e-01 -4.002196e-01 -6.321769e-01 -8.156230e-01 8.364462e-01 -1.695374e-01 5.122745e-01 2.123088e-01 5.210552e-01 2.210905e-01 1.239558e-01 5.181222e-02 -3.616172e-01 -2.272059e-01 -5.356985e-02 3.020976e-02 3.085860e-01 -6.408498e-01
<VARIANCE> 39
 3.245608e+01 4.311114e+01 5.089766e+01 5.323821e+01 9.730612e+01 8.161581e+01 7.723964e+01 1.080532e+02 9.560760e+01 5.999988e+01 8.174200e+01 1.160069e+02 1.068796e+02 1.352766e+00 1.890039e+00 2.326758e+00 2.534991e+00 3.567546e+00 3.834517e+00 3.582276e+00 4.500257e+00 3.048767e+00 3.381478e+00 3.260449e+00 3.255956e+00 1.955755e+00 2.725950e-01 3.445418e-01 4.053836e-01 4.859193e-01 7.364646e-01 6.480583e-01 7.161359e-01 8.557809e-01 6.291540e-01 6.711965e-01 6.455762e-01 7.325651e-01 3.416846e-01
<GCONST> 1.328900e+02
<STATE> 3
<MEAN> 39
 -2.635624e+00 -8.665566e+00 -3.178219e+00 -1.023183e+01 -4.028820e+00 -7.694654e+00 -6.555887e+00 1.930020e+00 -1.192924e+00 -4.062387e-01 -6.678520e+00 -5.918727e+00 7.203317e+01 1.626637e-01 4.314577e-01 1.818204e-01 3.427758e-01 3.366563e-01 1.187709e-01 7.179946e-02 -3.880209e-01 -6.289850e-02 -1.873482e-02 -1.849545e-01 2.138166e-01 -6.402099e-01 3.448810e-02 3.439693e-01 1.533465e-01 2.695592e-01 -8.322348e-03 6.606487e-02 -1.368845e-01 -2.314843e-01 -1.165292e-01 9.742708e-02 4.625035e-02 1.835425e-01 -3.993119e-01
<VARIANCE> 39
 2.200964e+01 4.445100e+01 3.810840e+01 4.951615e+01 9.581237e+01 8.064392e+01 8.050378e+01 1.031676e+02 9.177465e+01 5.793666e+01 7.810383e+01 1.214403e+02 6.366443e+01 5.251541e-01 1.034294e+00 1.292446e+00 1.421973e+00 2.076038e+00 2.045289e+00 2.142684e+00 2.543066e+00 1.991767e+00 2.263797e+00 2.017182e+00 2.163383e+00 9.615582e-01 1.069429e-01 1.674618e-01 2.147685e-01 2.706488e-01 3.629360e-01 3.964672e-01 4.538380e-01 5.215095e-01 3.971114e-01 4.188289e-01 3.976668e-01 4.090216e-01 1.342395e-01
<GCONST> 1.161872e+02
<STATE> 4
<MEAN> 39
 -3.899442e+00 -3.237212e+00 -2.681923e+00 -3.473569e+00 -3.064809e+00 -3.392236e+00 -5.211228e+00 -8.706870e-01 -1.073662e+00 -1.140862e+00 -5.452151e+00 -4.044698e+00 6.037554e+01 -1.034774e-01 9.166788e-01 2.359707e-01 1.015700e+00 3.551519e-01 4.824914e-01 5.444305e-02 -4.488812e-01 -8.324243e-02 1.029020e-02 -8.451866e-02 3.501167e-01 -1.554994e+00 -1.204285e-01 -1.214394e-03 1.357897e-02 1.160996e-02 -7.945097e-02 -1.541713e-02 1.363739e-02 8.106376e-02 -4.982358e-02 -1.602533e-02 5.116810e-02 -2.270565e-02 3.663017e-02
<VARIANCE> 39
 4.667283e+01 4.399134e+01 4.340463e+01 6.217671e+01 7.655272e+01 8.045301e+01 6.013846e+01 6.897479e+01 7.160078e+01 5.368502e+01 6.405537e+01 5.619499e+01 1.432928e+02 9.138626e-01 1.521241e+00 1.642799e+00 2.430200e+00 2.562856e+00 2.869189e+00 3.431510e+00 3.966890e+00 3.109506e+00 2.863085e+00 2.901469e+00 3.034469e+00 1.452349e+00 1.348700e-01 1.920424e-01 2.522314e-01 3.667970e-01 3.832853e-01 4.733788e-01 4.794143e-01 5.472836e-01 5.070758e-01 4.851735e-01 4.928575e-01 4.437819e-01 1.478755e-01
<GCONST> 1.228111e+02
<TRANSP> 5
 0.000000e+00 1.000000e+00 0.000000e+00 0.000000e+00 0.000000e+00
 0.000000e+00 4.706728e-01 5.293272e-01 0.000000e+00 0.000000e+00
 0.000000e+00 0.000000e+00 7.030734e-01 2.969267e-01 0.000000e+00
 0.000000e+00 0.000000e+00 0.000000e+00 6.259304e-01 3.740696e-01
 0.000000e+00 0.000000e+00 0.000000e+00 0.000000e+00 0.000000e+00
<ENDHMM>
~h "b"
<BEGINHMM>
<NUMSTATES> 5
<STATE> 2
<MEAN> 39
 -5.192342e-01 4.561370e+00 9.340969e-01 5.481096e-01 -4.485445e+00 -2.456694e+00 -7.295901e+00 -6.707047e+00 -5.204669e+00 -1.609255e+00 -3.309632e+00 -4.585295e+00 5.682616e+01 -1.231263e-01 6.622503e-01 1.415830e-01 5.549105e-01 4.499752e-01 1.375473e-01 4.161736e-01 9.174760e-02 -2.558669e-01 -5.026368e-01 -9.690776e-03 2.309350e-02 -5.183605e-01 -9.952995e-02 -3.499161e-01 -1.566723e-01 -5.227602e-01 -4.384973e-01 -2.885989e-01 -3.497079e-01 1.169782e-01 2.492268e-03 2.105034e-01 3.674052e-01 1.282839e-01 6.694169e-01
<VARIANCE> 39
 4.852938e+01 3.153518e+01 3.638956e+01 3.573743e+01 3.254858e+01 3.557511e+01 3.326108e+01 4.012605e+01 4.086007e+01 3.316485e+01 3.897626e+01 2.703971e+01 8.303485e+01 1.289205e+00 1.232106e+00 1.746866e+00 2.652082e+00 2.601195e+00 2.979414e+00 2.786563e+00 3.110126e+00 2.529658e+00 2.853971e+00 3.196927e+00 2.099522e+00 1.580758e+00 2.350154e-01 2.845036e-01 4.078248e-01 4.694042e-01 5.176064e-01 6.183848e-01 7.700666e-01 7.170321e-01 6.943555e-01 5.878420e-01 5.840324e-01 6.126244e-01 2.398380e-01
<GCONST> 1.201215e+02
<STATE> 3
<MEAN> 39
 -1.696505e+00 5.124964e+00 1.252297e+00 1.437342e+00 -4.493667e+00 -2.201807e+00 -7.533855e+00 -6.898876e+00 -7.446307e+00 -2.688112e+00 -2.955764e+00 -3.008532e+00 5.410854e+01 -1.682775e-02 -6.489502e-01 -9.532743e-01 -1.151546e+00 -6.453945e-01 -6.293821e-01 -1.025163e+00 2.225038e-01 -1.291875e-01 5.649638e-01 1.282632e+00 7.463474e-01 1.738386e+00 2.822391e-02 -6.526245e-01 -1.373207e-01 -9.353653e-01 -5.031069e-01 -1.209234e-01 -6.257545e-01 3.639750e-01 8.113161e-02 7.039561e-01 9.755612e-02 8.663692e-02 9.239134e-01
<VARIANCE> 39
 4.761655e+01 3.375435e+01 4.581100e+01 4.766991e+01 3.597118e+01 4.263595e+01 3.922459e+01 4.698623e+01 5.119947e+01 4.372873e+01 4.074369e+01 3.363744e+01 9.141018e+01 2.952339e+00 3.682554e+00 5.932854e+00 7.252905e+00 5.231786e+00 6.031126e+00 6.144608e+00 5.898388e+00 5.968052e+00 7.472386e+00 5.887477e+00 4.899164e+00 3.310252e+00 4.493957e-01 6.466854e-01 8.105068e-01 9.263631e-01 8.866180e-01 1.040196e+00 9.897200e-01 1.211974e+00 1.196632e+00 1.339723e+00 1.040974e+00 9.669941e-01 4.288859e-01
<GCONST> 1.408122e+02
<STATE> 4
<MEAN> 39
 -1.475233e+00 2.102661e-01 -2.529502e+00 -4.992768e+00 -6.948014e+00 -3.859483e+00 -1.179756e+01 -6.038262e+00 -6.844327e+00 2.262749e+00 9.356105e-01 -1.698843e+00 6.124780e+01 1.586805e-01 -1.709641e+00 -4.647589e-01 -2.475033e+00 -1.511296e+00 -5.650225e-01 -1.638763e+00 1.136686e+00 4.036015e-01 1.639094e+00 5.371483e-01 -9.149374e-02 2.797547e+00 -5.885954e-02 3.634976e-02 4.559244e-01 1.678638e-01 -1.336836e-01 5.315247e-02 1.814430e-01 2.899061e-01 1.448602e-01 -2.117804e-01 -5.350392e-01 -2.438346e-01 -1.248137e-01
<VARIANCE> 39
 5.146164e+01 4.067893e+01 4.646344e+01 8.899538e+01 5.049247e+01 6.450953e+01 6.158743e+01 5.394788e+01 6.874081e+01 7.712267e+01 5.516473e+01 5.344836e+01 1.089471e+02 3.666517e+00 4.338646e+00 6.268260e+00 6.586540e+00 6.046588e+00 7.064254e+00 7.123528e+00 8.353010e+00 8.669791e+00 8.651979e+00 6.958412e+00 5.448025e+00 3.221627e+00 4.811079e-01 5.201653e-01 6.893349e-01 1.153082e+00 8.615597e-01 9.451674e-01 9.977911e-01 9.800058e-01 8.963168e-01 1.345193e+00 1.108389e+00 7.298709e-01 4.539805e-01
<GCONST> 1.458971e+02
<TRANSP> 5
 0.000000e+00 1.000000e+00 0.000000e+00 0.000000e+00 0.000000e+00
 0.000000e+00 5.781364e-01 4.218636e-01 0.000000e+00 0.000000e+00
 0.000000e+00 0.000000e+00 3.660140e-01 6.339861e-01 0.000000e+00
 0.000000e+00 0.000000e+00 0.000000e+00 3.256656e-01 6.743344e-01
 0.000000e+00 0.000000e+00 0.000000e+00 0.000000e+00 0.000000e+00
<ENDHMM>
~h "c"
<BEGINHMM>
<NUMSTATES> 5
<STATE> 2
<MEAN> 39
 -8.239946e+00 3.339113e+00 1.156934e+00 -8.025543e-01 -2.943150e+00 -7.426960e+00 -5.597891e+00 -1.020471e+00 -1.895982e+00 -1.086524e+00 -3.551871e+00 -8.547004e-01 5.714897e+01 -2.235541e+00 7.739443e-01 -5.843688e-01 -3.707338e-01 7.709568e-01 5.250474e-01 4.977215e-01 9.162722e-02 -3.178656e-02 8.223385e-02 7.762122e-01 -6.455127e-02 1.120538e-01 -6.378757e-01 -2.967688e-02 5.039260e-02 -4.987536e-01 -1.965037e-01 -1.420382e-01 -5.942996e-02 3.929072e-02 -1.870251e-01 1.820473e-02 1.834031e-01 1.876609e-01 8.874362e-01
<VARIANCE> 39
 3.840198e+01 3.644182e+01 4.084572e+01 3.682674e+01 3.682238e+01 6.978912e+01 4.974540e+01 4.503385e+01 5.927110e+01 3.913006e+01 5.529867e+01 3.829793e+01 7.400363e+01 6.244632e+00 3.671454e+00 2.807260e+00 4.463306e+00 3.340778e+00 5.166080e+00 4.597616e+00 4.618751e+00 4.955595e+00 4.939270e+00 3.787945e+00 3.410175e+00 6.140876e+00 8.449474e-01 6.524730e-01 5.290633e-01 6.123003e-01 6.110418e-01 8.840333e-01 8.046072e-01 8.182072e-01 8.943684e-01 9.289857e-01 7.437416e-01 7.265482e-01 6.071047e-01
<GCONST> 1.365935e+02
<STATE> 3
<MEAN> 39
 -2.319271e+01 5.991344e+00 3.892126e-01 -6.751691e+00 -1.584659e+00 -5.992325e+00 -3.770610e+00 -4.264664e-01 -4.913548e+00 -5.868508e-01 3.816117e-01 6.620445e-01 6.473254e+01 -1.102368e+00 -1.404651e-01 8.463370e-01 -7.022193e-01 -1.023477e+00 -6.996930e-01 3.583318e-02 3.193368e-01 -4.819114e-01 -2.653975e-01 3.066189e-01 6.333600e-01 1.667795e+00 1.950623e+00 -6.371670e-01 3.183169e-01 4.931441e-01 -7.621373e-01 -5.499823e-01 -4.204901e-01 -1.080270e-01 1.045176e-01 -1.938173e-01 -3.905953e-01 -1.471804e-01 -2.813993e-01
<VARIANCE> 39
 4.851556e+01 4.983600e+01 3.975820e+01 4.011521e+01 3.630515e+01 4.181334e+01 7.100789e+01 5.600360e+01 8.119531e+01 6.786676e+01 4.863006e+01 4.126563e+01 6.014099e+01 1.162847e+01 3.292863e+00 3.473380e+00 3.631216e+00 4.090764e+00 4.511952e+00 4.534940e+00 4.859593e+00 3.472855e+00 4.162920e+00 3.148436e+00 3.340409e+00 3.437961e+00 1.036036e+00 7.400706e-01 6.201215e-01 6.722435e-01 8.081584e-01 9.904422e-01 1.156876e+00 1.134532e+00 8.996177e-01 1.136783e+00 7.259514e-01 7.443976e-01 4.179384e-01
<GCONST> 1.386617e+02
<STATE> 4
<MEAN> 39
 -1.234278e+01 1.198973e+00 2.854509e+00 -5.103608e+00 -8.757661e+00 -1.269505e+01 -7.151271e+00 2.977304e-01 -3.691678e+00 -3.730523e+00 -1.722624e+00 1.116713e+00 6.737914e+01 4.323063e+00 -2.001739e+00 1.312162e-01 -1.005266e-01 -1.909917e+00 -1.590602e+00 -9.965484e-01 -2.016811e-01 2.936238e-01 -2.020415e-01 -7.781488e-01 -6.328938e-01 1.483155e+00 -3.736987e-02 -5.968242e-02 -3.966750e-01 -1.345485e-01 5.196176e-01 5.611074e-01 1.788598e-01 -1.127731e-01 -1.244893e-02 3.093476e-01 1.990916e-02 -3.099183e-01 -1.518118e-01
<VARIANCE> 39
 6.645128e+01 4.226431e+01 4.097519e+01 2.827114e+01 4.505790e+01 5.519208e+01 6.412418e+01 6.167960e+01 5.703556e+01 4.478563e+01 3.791043e+01 6.753101e+01 7.006897e+01 3.564325e+00 3.735328e+00 3.680573e+00 2.866052e+00 6.360770e+00 5.988072e+00 7.291426e+00 6.718933e+00 4.061689e+00 5.143561e+00 3.271180e+00 4.539273e+00 1.801613e+00 1.493427e+00 4.947049e-01 3.968335e-01 3.974625e-01 8.210756e-01 8.117064e-01 8.725784e-01 8.251236e-01 4.994096e-01 6.257403e-01 5.515459e-01 5.978895e-01 3.059060e-01
<GCONST> 1.351782e+02
<TRANSP> 5
 0.000000e+00 1.000000e+00 0.000000e+00 0.000000e+00 0.000000e+00
 0.000000e+00 7.190107e-01 2.809893e-01 0.000000e+00 0.000000e+00
 0.000000e+00 0.000000e+00 6.654014e-01 3.345986e-01 0.000000e+00
 0.000000e+00 0.000000e+00 0.000000e+00 5.740839e-01 4.259160e-01
 0.000000e+00 0.000000e+00 0.000000e+00 0.000000e+00 0.000000e+00
<ENDHMM>
~h "d"
<BEGINHMM>
<NUMSTATES> 5
<STATE> 2
<MEAN> 39
 -8.784577e-01 3.524297e+00 4.054916e+00 2.019592e+00 -5.416499e+00 -5.924902e+00 -8.063886e+00 -2.714052e+00 -3.325282e+00 -3.270571e+00 -6.301397e+00 -3.550779e+00 5.715843e+01 -5.052712e-01 1.249634e-03 9.759290e-01 -1.776433e-01 -6.227661e-02 -9.476425e-02 1.233519e-02 2.893086e-01 -5.580768e-01 -4.472387e-01 4.761032e-01 2.185018e-01 4.392955e-01 -3.815795e-01 -7.283047e-01 1.832168e-01 -8.232937e-01 -8.935537e-01 -4.944353e-01 -3.964651e-01 2.955946e-01 -1.683057e-01 3.096441e-01 6.191692e-01 2.805783e-01 1.158830e+00
<VARIANCE> 39
 3.847517e+01 4.261178e+01 4.255424e+01 3.733683e+01 3.650259e+01 4.547686e+01 3.801595e+01 4.810908e+01 4.523281e+01 3.366023e+01 5.314804e+01 3.286583e+01 8.210116e+01 2.520573e+00 4.110302e+00 3.178746e+00 5.206753e+00 4.499780e+00 5.319595e+00 4.354075e+00 5.299446e+00 3.937653e+00 3.458852e+00 4.776380e+00 3.444858e+00 4.459512e+00 3.471202e-01 5.475442e-01 5.725714e-01 6.315384e-01 8.497453e-01 9.234968e-01 9.244776e-01 1.167135e+00 1.076417e+00 7.332490e-01 8.462388e-01 8.501979e-01 3.450274e-01
<GCONST> 1.344695e+02
<STATE> 3
<MEAN> 39
 -4.974671e+00 -9.589682e-01 7.226598e+00 -2.014712e+00 -7.074840e+00 -7.148606e+00 -1.049041e+01 -4.773084e-01 -5.657675e+00 -3.681450e+00 -3.850642e+00 -1.058748e-02 6.103307e+01 -1.017875e+00 -1.666926e+00 1.041845e+00 -1.961948e+00 -2.374788e+00 -1.667338e+00 -1.205949e+00 1.338472e+00 -9.410662e-01 7.219577e-01 1.625286e+00 1.102633e+00 3.029113e+00 1.663619e-01 -3.764909e-02 -2.628510e-01 -1.289318e-01 -5.947167e-01 -1.498579e-01 -1.122342e-01 1.025618e-01 -6.452173e-03 4.834697e-01 9.848343e-03 -2.081668e-01 3.639384e-01
<VARIANCE> 39
 3.436417e+01 3.657933e+01 6.685069e+01 5.047966e+01 4.787834e+01 7.165574e+01 7.869801e+01 5.342402e+01 6.398297e+01 4.374279e+01 6.167857e+01 6.076500e+01 1.164886e+02 2.356187e+00 4.443957e+00 6.115977e+00 5.166512e+00 5.704619e+00 5.651994e+00 6.121254e+00 1.047293e+01 7.806573e+00 5.794323e+00 6.376129e+00 6.051065e+00 3.716191e+00 2.953129e-01 5.127918e-01 6.750469e-01 8.403048e-01 1.166676e+00 1.384166e+00 1.200257e+00 1.037710e+00 9.596829e-01 1.122891e+00 1.133348e+00 8.943975e-01 4.378887e-01
<GCONST> 1.440655e+02
<STATE> 4
<MEAN> 39
 -3.630074e+00 -4.801486e+00 9.309967e+00 -4.534467e+00 -1.534965e+01 -9.808945e+00 -1.386114e+01 1.803294e+00 -6.977923e+00 -1.541321e+00 1.010469e+00 -1.304226e+00 6.646194e+01 -2.096284e-01 -7.549106e-01 1.126214e-01 -9.599507e-01 -2.046575e+00 -8.878916e-01 -5.463778e-01 8.312354e-01 -1.702183e-01 7.237656e-01 9.081877e-01 -1.064651e-01 1.907168e+00 2.375125e-01 4.381769e-01 -4.064614e-01 4.303073e-01 4.416867e-01 4.276746e-01 3.232974e-01 -3.045095e-01 1.876656e-01 -2.151137e-02 -4.238997e-01 -3.560343e-01 -5.439702e-01
<VARIANCE> 39
 4.394962e+01 5.053103e+01 1.140033e+02 5.638430e+01 7.786995e+01 8.357537e+01 8.699813e+01 8.816077e+01 9.952686e+01 4.482197e+01 7.695467e+01 6.654211e+01 1.106428e+02 2.220105e+00 3.427522e+00 6.594768e+00 4.080462e+00 7.756442e+00 6.541278e+00 6.117603e+00 7.315059e+00 7.588966e+00 4.584363e+00 5.206239e+00 3.592287e+00 3.293291e+00 3.296727e-01 6.006140e-01 7.604281e-01 8.187080e-01 1.074693e+00 1.019780e+00 1.120940e+00 1.100556e+00 8.629756e-01 7.605218e-01 7.889112e-01 7.304057e-01 4.598554e-01
<GCONST> 1.447061e+02
<TRANSP> 5
 0.000000e+00 1.000000e+00 0.000000e+00 0.000000e+00 0.000000e+00
 0.000000e+00 5.491926e-01 4.508075e-01 0.000000e+00 0.000000e+00
 0.000000e+00 0.000000e+00 1.970930e-01 8.029070e-01 0.000000e+00
 0.000000e+00 0.000000e+00 0.000000e+00 3.907964e-01 6.092035e-01
 0.000000e+00 0.000000e+00 0.000000e+00 0.000000e+00 0.000000e+00
<ENDHMM>
~h "e"
<BEGINHMM>
<NUMSTATES> 5
<STATE> 2
<MEAN> 39
 -4.959292e+00 -1.964982e+00 -2.372599e+00 -5.130071e+00 -6.050257e+00 -6.995034e+00 -1.084508e+01 -2.937598e+00 -3.129114e+00 1.138782e+00 -2.062343e+00 -3.174564e+00 6.296595e+01 1.744883e+00 -1.133368e+00 3.121922e-01 -1.513266e+00 -1.110460e+00 -4.425166e-01 -1.192789e+00 -1.626918e-01 3.029842e-01 8.564603e-01 -1.334217e-01 -6.617962e-01 1.925279e+00 -7.833160e-02 2.468682e-01 2.941635e-01 4.536673e-01 1.399538e-01 2.737091e-01 2.235310e-01 -2.294786e-02 -8.316493e-02 -1.032959e-01 -2.165741e-01 5.282414e-02 -4.768871e-01
<VARIANCE> 39
 7.233989e+01 4.945480e+01 4.736773e+01 6.304865e+01 6.893954e+01 7.799490e+01 7.225684e+01 7.843947e+01 8.575974e+01 6.170602e+01 5.796105e+01 6.097410e+01 1.402015e+02 5.280763e+00 4.040692e+00 4.279251e+00 5.022213e+00 6.433487e+00 6.296541e+00 6.809583e+00 8.522308e+00 5.661995e+00 6.423377e+00 4.760274e+00 4.443691e+00 4.682936e+00 6.715867e-01 5.541762e-01 6.262493e-01 8.849872e-01 9.186948e-01 1.017787e+00 9.799649e-01 1.132462e+00 8.557367e-01 8.884052e-01 7.839462e-01 6.751931e-01 8.061712e-01
<GCONST> 1.461939e+02
<STATE> 3
<MEAN> 39
 -2.318503e+00 -3.575556e+00 -1.089192e+00 -7.957982e+00 -6.574950e+00 -7.674896e+00 -1.337186e+01 -2.578591e+00 -2.535304e+00 3.576879e+00 -3.722210e+00 -2.923115e+00 6.701612e+01 9.033512e-01 -3.373009e-01 6.167532e-01 -1.683506e-01 -5.744510e-01 1.886957e-01 -4.536428e-01 -8.939134e-02 1.711500e-01 3.010992e-01 -4.812470e-01 -4.849890e-01 2.614906e-01 -4.665445e-01 5.743185e-01 1.519283e-01 9.072553e-01 3.895696e-01 2.686737e-01 5.018374e-01 -9.559229e-02 -1.972003e-01 -4.354972e-01 -1.303210e-01 2.156250e-01 -9.117847e-01
<VARIANCE> 39
 4.509229e+01 5.189319e+01 4.563620e+01 6.328074e+01 8.618088e+01 9.037880e+01 7.958600e+01 1.028555e+02 1.071578e+02 7.973052e+01 9.179501e+01 9.843526e+01 1.081958e+02 2.511138e+00 2.962836e+00 2.602589e+00 4.033846e+00 4.036108e+00 4.673102e+00 4.014703e+00 6.083615e+00 4.139270e+00 5.023734e+00 4.560682e+00 4.011786e+00 3.113513e+00 4.880829e-01 5.439234e-01 6.346307e-01 8.150802e-01 1.088554e+00 1.122885e+00 1.254872e+00 1.637887e+00 1.088251e+00 1.214813e+00 9.529306e-01 1.065235e+00 5.094325e-01
<GCONST> 1.443433e+02
<STATE> 4
<MEAN> 39
 4.849832e-01 -5.111340e+00 7.933998e-01 -5.599911e+00 -9.845829e+00 -3.986100e+00 -1.304264e+01 -2.277458e+00 -2.693244e+00 8.144759e-01 -1.717275e+00 -5.418068e+00 6.496876e+01 7.801310e-02 7.544065e-01 3.366326e-01 1.031357e+00 4.492888e-01 2.465166e-01 3.853017e-01 -3.691772e-01 -2.209992e-01 -2.358501e-01 -4.444770e-01 2.279386e-01 -9.732000e-01 -3.073459e-01 3.398301e-01 -5.520176e-02 3.694534e-01 2.999432e-01 2.900836e-02 3.057614e-01 -9.640238e-02 -1.377128e-01 -9.845646e-02 -5.111948e-02 1.951803e-01 -4.010789e-01
<VARIANCE> 39
 5.279661e+01 8.792091e+01 7.092657e+01 6.983102e+01 7.479182e+01 1.073657e+02 6.843754e+01 9.895687e+01 8.407120e+01 5.605597e+01 6.893655e+01 5.533230e+01 9.307320e+01 1.734244e+00 3.781647e+00 2.899150e+00 4.495744e+00 3.668404e+00 4.283259e+00 4.065364e+00 5.445550e+00 3.972653e+00 3.581979e+00 3.786249e+00 2.800604e+00 2.841015e+00 4.064544e-01 7.080936e-01 5.423409e-01 7.795448e-01 8.201829e-01 8.342428e-01 8.979307e-01 1.237144e+00 8.211246e-01 6.890033e-01 6.764069e-01 6.007491e-01 4.733700e-01
<GCONST> 1.394393e+02
<TRANSP> 5
 0.000000e+00 1.000000e+00 0.000000e+00 0.000000e+00 0.000000e+00
 0.000000e+00 1.857949e-01 8.142051e-01 0.000000e+00 0.000000e+00
 0.000000e+00 0.000000e+00 2.142180e-01 7.857820e-01 0.000000e+00
 0.000000e+00 0.000000e+00 0.000000e+00 4.707495e-01 5.292506e-01
 0.000000e+00 0.000000e+00 0.000000e+00 0.000000e+00 0.000000e+00
<ENDHMM>
~h "f"
<BEGINHMM>
<NUMSTATES> 5
<STATE> 2
<MEAN> 39
 -9.737679e+00 5.448822e-01 -1.439621e+00 -2.047921e-01 -2.316296e+00 -1.599252e+00 -2.239741e+00 1.095122e+00 -2.555282e+00 -2.689345e-01 -1.451251e+00 -1.563191e+00 6.010696e+01 -7.479299e-01 -5.723327e-02 -2.001483e-01 2.918705e-01 6.233072e-02 2.001775e-01 3.230011e-01 3.122658e-01 1.827599e-01 1.847172e-01 3.484641e-01 3.567611e-01 -4.883699e-01 1.185966e-01 -1.512849e-01 6.905913e-02 -8.252424e-02 -1.090214e-01 -9.652881e-02 -9.950367e-02 -6.369129e-05 -6.288169e-02 2.941430e-02 3.397974e-02 -4.509154e-03 7.362751e-02
<VARIANCE> 39
 4.748707e+01 2.520750e+01 2.386030e+01 4.114470e+01 3.521877e+01 2.584730e+01 4.067242e+01 3.016765e+01 4.605414e+01 3.059770e+01 3.461448e+01 2.910090e+01 7.932279e+01 2.842607e+00 1.404752e+00 1.415026e+00 2.284385e+00 1.976579e+00 1.856088e+00 2.586810e+00 2.082041e+00 2.796495e+00 2.644217e+00 2.138424e+00 1.996992e+00 8.354487e-01 3.470757e-01 2.439685e-01 2.304832e-01 3.376141e-01 3.133453e-01 3.413904e-01 4.833083e-01 3.766775e-01 5.153490e-01 4.394988e-01 4.256790e-01 3.340957e-01 1.357445e-01
<GCONST> 1.125402e+02
<STATE> 3
<MEAN> 39
 -1.580946e+01 -2.726805e+00 -2.831214e+00 1.863602e+00 -2.792961e+00 -2.883198e+00 -2.633622e+00 3.059623e+00 -1.781185e+00 8.874732e-01 -3.545466e-01 -1.143830e+00 5.697342e+01 -3.934243e-02 -7.199719e-02 7.181323e-02 3.461769e-01 -1.082613e-01 -1.070026e-01 -1.193796e-01 -1.468393e-01 2.323284e-01 -1.694727e-01 -2.535076e-01 1.434423e-01 -7.320215e-01 5.796680e-01 1.444089e-01 2.152738e-01 -1.348042e-01 -2.122505e-01 -3.222730e-01 -2.055665e-01 -2.637565e-01 -2.329195e-01 -2.253289e-01 -1.262002e-01 -1.644662e-01 1.428670e-01
<VARIANCE> 39
 3.592301e+01 2.734554e+01 3.808094e+01 3.329351e+01 3.969067e+01 4.061698e+01 3.524257e+01 3.114095e+01 7.352898e+01 5.275515e+01 5.269437e+01 2.839265e+01 1.119597e+02 2.998787e+00 2.346978e+00 1.925514e+00 2.462544e+00 2.198027e+00 2.712324e+00 2.933784e+00 2.751954e+00 3.302324e+00 3.626455e+00 3.166229e+00 2.129975e+00 1.820971e+00 5.449359e-01 4.919381e-01 3.919040e-01 4.849199e-01 4.759070e-01 5.715921e-01 7.178092e-01 5.735409e-01 6.337871e-01 6.480626e-01 5.597401e-01 4.999319e-01 2.806759e-01
<GCONST> 1.241627e+02
<STATE> 4
<MEAN> 39
 -1.636779e+01 8.165294e-01 -5.660409e+00 3.138770e+00 -4.597464e+00 2.861904e-01 -4.599611e+00 -8.883206e-01 -3.274958e+00 -2.020564e+00 -2.795135e+00 -1.679062e+00 3.702743e+01 2.161693e-01 4.076314e-02 7.810701e-02 -2.961182e-02 -1.311293e-01 -1.789393e-01 -8.720881e-02 -9.049474e-02 -1.095223e-01 -1.386015e-01 -9.920957e-03 -7.758651e-02 -8.940827e-03 1.317785e-01 6.052484e-03 6.147391e-02 -7.989698e-02 -8.847196e-02 -9.125339e-02 -2.530169e-02 -1.571025e-02 -8.442046e-02 -7.282244e-03 3.987357e-02 -3.184120e-03 1.330134e-01
<VARIANCE> 39
 1.225910e+01 1.464496e+01 1.773288e+01 1.486600e+01 1.429074e+01 2.113846e+01 1.654645e+01 1.888524e+01 2.558846e+01 1.854467e+01 1.922696e+01 1.153494e+01 9.960181e+01 1.323196e+00 6.966913e-01 8.236948e-01 1.007389e+00 1.377293e+00 1.497070e+00 1.800521e+00 1.909631e+00 1.767981e+00 1.673828e+00 1.489601e+00 1.479827e+00 4.484349e-01 2.389095e-01 1.394039e-01 1.719804e-01 2.727003e-01 3.978903e-01 3.373556e-01 3.623784e-01 3.054167e-01 4.176280e-01 3.998014e-01 3.045360e-01 2.955613e-01 1.318976e-01
<GCONST> 9.593191e+01
<TRANSP> 5
 0.000000e+00 1.000000e+00 0.000000e+00 0.000000e+00 0.000000e+00
 0.000000e+00 7.664697e-01 2.335303e-01 0.000000e+00 0.000000e+00
 0.000000e+00 0.000000e+00 6.091052e-01 3.908949e-01 0.000000e+00
 0.000000e+00 0.000000e+00 0.000000e+00 8.301384e-01 1.698616e-01
 0.000000e+00 0.000000e+00 0.000000e+00 0.000000e+00 0.000000e+00
<ENDHMM>
~h "g"
<BEGINHMM>
<NUMSTATES> 5
<STATE> 2
<MEAN> 39
 -1.779468e+00 3.593854e+00 3.035795e+00 8.705885e-01 -5.207982e+00 -4.399818e+00 -8.407976e+00 -5.748800e+00 -5.215711e+00 -8.052027e-02 -3.901761e+00 -4.485625e+00 5.712997e+01 -3.674727e-01 4.181053e-01 9.846700e-02 4.340469e-01 3.808396e-01 2.104795e-02 9.090835e-02 1.450541e-01 -1.767468e-01 -2.041217e-01 -2.338820e-02 4.701269e-02 -2.848602e-01 -2.603086e-01 -4.315463e-01 4.814757e-02 -5.117373e-01 -3.157492e-01 -2.456103e-01 -3.690192e-01 2.251758e-01 -1.196109e-01 1.896201e-01 2.611483e-01 -5.215451e-03 7.767858e-01
<VARIANCE> 39
 3.768851e+01 3.602565e+01 3.999281e+01 3.497964e+01 3.920398e+01 5.198537e+01 5.157404e+01 4.669902e+01 5.943497e+01 5.214592e+01 5.591659e+01 4.052446e+01 7.742476e+01 2.004875e+00 2.150405e+00 3.781214e+00 3.467613e+00 3.963770e+00 4.424911e+00 4.965893e+00 4.712114e+00 5.145234e+00 5.257301e+00 4.239199e+00 3.233800e+00 2.525352e+00 4.507506e-01 4.345281e-01 6.158695e-01 5.012545e-01 7.815313e-01 7.512928e-01 9.179445e-01 1.018552e+00 1.104287e+00 9.108844e-01 8.254372e-01 7.734530e-01 3.580166e-01
<GCONST> 1.336733e+02
<STATE> 3
<MEAN> 39
 -4.218118e+00 2.243873e+00 1.854977e+00 1.201699e-01 -3.781558e+00 -5.727748e+00 -1.264410e+01 -3.363713e+00 -8.234075e+00 2.542664e+00 -4.579496e+00 -2.601899e+00 5.916027e+01 -7.765032e-01 -1.015984e+00 -1.826079e-02 -1.248079e+00 -8.434108e-01 -9.073102e-01 -1.054106e+00 1.145846e+00 -3.631240e-01 6.635078e-01 9.639233e-01 5.310503e-02 2.135492e+00 9.877959e-02 -2.774518e-01 2.641866e-01 -5.217132e-01 -7.480832e-01 -8.858591e-03 -4.494847e-02 1.195788e-01 9.277664e-02 9.193217e-02 2.015635e-01 -9.723178e-02 4.891035e-01
<VARIANCE> 39
 3.921767e+01 4.322717e+01 6.484430e+01 4.204250e+01 6.484099e+01 6.477824e+01 9.491901e+01 6.053975e+01 9.467089e+01 8.539658e+01 8.023723e+01 5.921951e+01 9.733180e+01 3.944812e+00 3.743218e+00 8.295884e+00 4.787048e+00 1.037340e+01 6.959681e+00 6.703396e+00 7.486394e+00 7.141685e+00 7.859424e+00 6.910320e+00 5.446810e+00 3.036530e+00 5.257562e-01 5.756080e-01 1.008285e+00 7.190604e-01 1.556497e+00 9.745459e-01 1.260838e+00 1.060390e+00 1.334176e+00 1.515743e+00 1.191939e+00 8.769525e-01 5.716664e-01
<GCONST> 1.487799e+02
<STATE> 4
<MEAN> 39
 3.808880e-02 -5.036822e+00 4.001807e+00 -2.954464e+00 -1.199280e+01 -3.278447e+00 -1.232465e+01 -9.775795e-01 -6.602483e+00 -6.394713e-01 1.365658e+00 -5.637359e+00 6.179084e+01 -8.784243e-02 -3.954532e-01 3.893718e-01 -7.427822e-01 -8.180060e-01 -2.301563e-01 -2.520292e-01 2.450541e-01 -7.150298e-02 1.460616e-01 3.397996e-01 -1.118879e-01 1.030093e+00 1.036274e-01 1.002237e-01 -1.906982e-02 6.262590e-02 -9.513175e-03 5.413346e-02 5.797686e-02 -7.363380e-02 3.634224e-02 -1.876446e-02 -1.126272e-01 -2.523432e-02 -1.337595e-01
<VARIANCE> 39
 8.347999e+01 1.026655e+02 1.270336e+02 7.266071e+01 8.692941e+01 8.587733e+01 7.993678e+01 8.742748e+01 7.860203e+01 5.046746e+01 5.046425e+01 4.192483e+01 9.006179e+01 4.202206e+00 7.604998e+00 6.040000e+00 6.443134e+00 6.577630e+00 4.729062e+00 5.095253e+00 6.299450e+00 5.290002e+00 3.577848e+00 3.971101e+00 2.821388e+00 5.917534e+00 5.811834e-01 1.344474e+00 9.164118e-01 1.077451e+00 1.177189e+00 8.047414e-01 1.029627e+00 1.016703e+00 8.601977e-01 6.958699e-01 7.637845e-01 4.910064e-01 7.918960e-01
<GCONST> 1.472487e+02
<TRANSP> 5
 0.000000e+00 1.000000e+00 0.000000e+00 0.000000e+00 0.000000e+00
 0.000000e+00 5.475292e-01 4.524708e-01 0.000000e+00 0.000000e+00
 0.000000e+00 0.000000e+00 4.127358e-01 5.872642e-01 0.000000e+00
 0.000000e+00 0.000000e+00 0.000000e+00 7.143261e-01 2.856739e-01
 0.000000e+00 0.000000e+00 0.000000e+00 0.000000e+00 0.000000e+00
<ENDHMM>
~h "h"
<BEGINHMM>
<NUMSTATES> 5
<STATE> 2
<MEAN> 39
 -7.802840e-01 -6.190044e+00 -1.106191e+00 -5.870784e+00 -9.295686e+00 -1.333524e-01 -7.916469e+00 -7.479676e-01 -4.262885e+00 -7.299516e-01 -1.987453e+00 -4.122957e+00 6.338971e+01 -1.640601e-01 3.086991e-01 -3.550612e-01 3.242670e-01 6.723105e-01 1.385076e-01 3.896997e-01 -6.369955e-02 1.373433e-01 -1.497853e-01 -2.174306e-01 1.571943e-01 -7.142970e-01 -3.834441e-02 4.041258e-02 3.785344e-02 -1.937668e-03 -2.913665e-02 -5.662240e-02 -5.011740e-02 1.071221e-02 2.804580e-02 -1.262448e-02 2.363688e-02 -3.110220e-02 -3.565064e-02
<VARIANCE> 39
 8.366051e+01 7.682364e+01 7.204966e+01 7.546334e+01 1.318216e+02 1.170376e+02 1.354125e+02 8.111962e+01 8.252477e+01 5.301331e+01 6.717162e+01 6.827342e+01 1.150825e+02 8.529397e-01 1.681541e+00 1.989338e+00 2.763166e+00 2.755958e+00 2.585263e+00 3.160227e+00 2.962444e+00 2.513280e+00 2.494220e+00 2.379488e+00 2.187820e+00 1.405106e+00 9.575220e-02 2.091551e-01 2.213614e-01 4.093408e-01 3.956144e-01 3.878807e-01 5.640506e-01 4.952934e-01 4.324136e-01 3.864067e-01 4.417187e-01 3.667826e-01 1.272235e-01
<GCONST> 1.245127e+02
<STATE> 3
<MEAN> 39
 -5.552110e+00 -3.744157e+00 -2.102471e+00 -5.966439e+00 2.554469e+00 -3.305554e+00 -4.922024e+00 -1.938563e+00 -4.294126e+00 -1.499501e+00 -6.864512e+00 6.410670e-01 6.333446e+01 -1.183737e-01 2.227857e-01 -3.248120e-02 3.590541e-01 2.688570e-01 1.216769e-01 1.509752e-01 1.182270e-02 2.256374e-01 -1.927153e-01 1.218155e-01 7.239795e-02 -7.662242e-01 2.103899e-02 -1.055831e-02 4.606010e-02 -6.867564e-02 -2.687679e-01 -6.141555e-02 -1.358491e-01 3.303034e-02 -3.092268e-02 8.269820e-02 7.962247e-02 -1.081434e-01 4.056916e-02
<VARIANCE> 39
 3.357177e+01 4.329738e+01 5.049642e+01 9.511343e+01 1.112112e+02 6.036306e+01 5.880563e+01 8.215161e+01 9.051230e+01 8.505922e+01 8.830211e+01 9.390612e+01 1.070347e+02 7.669758e-01 1.451556e+00 1.570409e+00 2.463794e+00 2.765868e+00 2.647214e+00 3.062283e+00 3.245611e+00 3.331125e+00 2.950527e+00 2.884871e+00 2.618156e+00 1.295081e+00 1.016202e-01 1.667228e-01 2.331220e-01 3.919640e-01 4.324947e-01 4.440922e-01 4.703550e-01 5.445077e-01 5.465022e-01 5.275412e-01 5.315477e-01 4.709879e-01 1.137190e-01
<GCONST> 1.234037e+02
<STATE> 4
<MEAN> 39
 -1.137181e+01 -1.667431e-01 -3.823987e+00 9.585317e-01 -3.199296e+00 -7.320645e-01 -3.204504e+00 -2.855068e-01 -1.358848e+00 -1.428660e+00 -2.930058e+00 -1.424158e+00 4.713504e+01 -9.664636e-02 8.804642e-02 -2.583088e-04 1.018654e-01 -4.136526e-02 1.380107e-02 -2.209358e-02 2.631433e-02 3.097732e-02 2.913730e-02 3.637716e-02 -1.193787e-02 -3.066473e-01 2.474817e-02 -1.047783e-02 5.319892e-03 -4.738400e-02 -3.729361e-02 -3.706742e-02 -5.323049e-02 -1.205399e-02 -4.370235e-02 5.877929e-03 5.450670e-03 -1.976834e-02 7.630379e-02
<VARIANCE> 39
 5.034632e+01 2.758238e+01 2.982314e+01 3.552463e+01 5.506178e+01 3.724362e+01 4.382552e+01 4.972804e+01 5.190763e+01 3.101689e+01 3.126291e+01 2.697006e+01 2.234200e+02 4.553793e-01 7.692905e-01 8.569273e-01 1.265889e+00 1.457884e+00 1.634125e+00 1.826446e+00 1.984710e+00 1.900866e+00 1.811253e+00 1.774365e+00 1.547786e+00 5.887758e-01 7.977269e-02 1.212745e-01 1.575862e-01 2.284948e-01 2.673998e-01 3.223414e-01 3.685814e-01 3.724371e-01 3.602951e-01 3.531397e-01 3.302634e-01 2.936446e-01 7.486406e-02
<GCONST> 1.042408e+02
<TRANSP> 5
 0.000000e+00 1.000000e+00 0.000000e+00 0.000000e+00 0.000000e+00
 0.000000e+00 5.105669e-01 4.894331e-01 0.000000e+00 0.000000e+00
 0.000000e+00 0.000000e+00 5.480643e-01 4.519357e-01 0.000000e+00
 0.000000e+00 0.000000e+00 0.000000e+00 8.132163e-01 1.867837e-01
 0.000000e+00 0.000000e+00 0.000000e+00 0.000000e+00 0.000000e+00
<ENDHMM>
~h "i"
<BEGINHMM>
<NUMSTATES> 5
<STATE> 2
<MEAN> 39
 -7.612251e+00 1.449107e+00 1.260177e+01 -3.055167e+00 -1.621348e+01 -9.404066e+00 -1.083373e+01 -3.482090e+00 -1.209000e+01 7.462758e-01 6.717429e-01 -2.051118e+00 6.494137e+01 2.508413e-01 1.149812e-01 2.133600e+00 -6.900276e-01 -2.593310e+00 4.670240e-03 -8.100294e-01 -1.256981e-01 -1.576603e+00 3.636624e-01 9.699290e-01 -3.700256e-01 1.235510e+00 6.617796e-02 9.266676e-02 -5.469499e-01 1.105199e-01 5.623618e-01 3.382493e-01 1.197644e-01 3.068457e-02 4.077641e-01 -8.856406e-03 -2.373938e-01 -7.032490e-02 -3.955534e-01
<VARIANCE> 39
 4.209054e+01 5.854677e+01 8.194483e+01 4.642372e+01 6.066116e+01 7.369112e+01 8.095484e+01 7.132438e+01 8.886008e+01 7.541852e+01 7.710052e+01 6.099735e+01 8.992090e+01 3.983326e+00 3.550084e+00 4.374153e+00 4.818762e+00 5.456717e+00 6.524850e+00 6.539270e+00 5.637724e+00 4.960338e+00 5.608048e+00 4.761146e+00 3.656100e+00 2.375191e+00 5.264728e-01 5.907664e-01 7.738304e-01 7.871352e-01 1.150234e+00 9.516658e-01 9.825450e-01 1.039070e+00 9.173362e-01 9.038055e-01 8.437794e-01 6.469663e-01 4.385672e-01
<GCONST> 1.433172e+02
<STATE> 3
<MEAN> 39
 -7.426617e+00 2.283136e+00 1.609744e+01 -5.237695e+00 -2.061292e+01 -7.087434e+00 -1.220424e+01 -4.195665e+00 -1.456280e+01 1.994067e+00 1.967288e+00 -4.176320e+00 6.779971e+01 1.620372e-01 1.532605e-01 -1.888950e-01 2.600907e-01 2.728353e-01 2.706510e-02 2.586938e-01 -9.636657e-02 1.962402e-01 2.009213e-02 -2.751082e-01 -2.751449e-02 -4.139881e-01 6.507494e-02 2.107378e-02 -4.979737e-01 2.898478e-01 7.387699e-01 -6.289205e-02 2.393872e-01 -2.767377e-02 3.981730e-01 -1.093338e-01 -3.500392e-01 1.211836e-01 -3.914328e-01
<VARIANCE> 39
 1.950179e+01 5.546623e+01 6.124189e+01 3.981895e+01 4.549604e+01 7.687724e+01 8.505302e+01 7.906627e+01 8.808194e+01 7.990987e+01 9.442627e+01 7.508282e+01 5.282590e+01 8.627726e-01 1.636503e+00 2.056059e+00 2.129067e+00 3.093404e+00 3.020754e+00 3.108855e+00 3.370727e+00 2.854475e+00 2.591965e+00 2.682142e+00 2.731095e+00 1.297606e+00 1.939610e-01 2.554114e-01 3.967239e-01 4.182064e-01 6.707101e-01 6.774898e-01 7.118965e-01 6.724474e-01 5.953841e-01 5.768889e-01 5.919903e-01 5.535600e-01 1.990803e-01
<GCONST> 1.256623e+02
<STATE> 4
<MEAN> 39
 -5.652666e+00 2.792444e+00 1.057867e+01 1.965918e-01 -1.285056e+01 -8.036787e+00 -8.371586e+00 -5.641431e+00 -9.609625e+00 -5.988513e-01 -9.783914e-01 -2.945542e+00 6.059820e+01 7.528573e-02 2.109393e-01 -1.512332e+00 9.228397e-01 2.094134e+00 5.376875e-01 6.336122e-01 -5.250580e-02 1.159948e+00 -3.343717e-01 -8.533028e-01 2.797715e-01 -1.593806e+00 -1.844925e-01 -7.187992e-02 -1.425001e-01 -1.352876e-01 5.317224e-02 1.671608e-01 -2.941871e-02 1.413960e-01 1.846598e-02 1.379888e-02 6.522299e-02 5.267958e-03 1.037040e-01
<VARIANCE> 39
 2.860023e+01 4.726749e+01 5.880582e+01 3.912424e+01 5.480378e+01 6.951456e+01 6.508101e+01 6.666055e+01 6.739134e+01 6.032752e+01 6.358169e+01 4.372247e+01 8.788898e+01 1.718379e+00 2.224851e+00 2.519516e+00 2.625500e+00 3.624750e+00 4.020666e+00 4.721117e+00 4.898267e+00 3.907831e+00 3.886326e+00 3.887135e+00 3.181148e+00 1.595092e+00 2.224474e-01 3.240112e-01 4.465323e-01 4.586892e-01 6.488221e-01 7.080182e-01 7.125804e-01 7.679764e-01 7.066361e-01 6.704195e-01 5.999593e-01 5.787370e-01 2.860028e-01
<GCONST> 1.300643e+02
<TRANSP> 5
 0.000000e+00 1.000000e+00 0.000000e+00 0.000000e+00 0.000000e+00
 0.000000e+00 5.022728e-01 4.977272e-01 0.000000e+00 0.000000e+00
 0.000000e+00 0.000000e+00 7.273512e-01 2.726488e-01 0.000000e+00
 0.000000e+00 0.000000e+00 0.000000e+00 6.111168e-01 3.888832e-01
 0.000000e+00 0.000000e+00 0.000000e+00 0.000000e+00 0.000000e+00
<ENDHMM>
~h "j"
<BEGINHMM>
<NUMSTATES> 5
<STATE> 2
<MEAN> 39
 -6.978833e+00 5.731315e+00 3.733806e+00 7.275091e-01 -2.731140e+00 -6.636197e+00 -6.443183e+00 -2.409189e+00 -5.019492e+00 -4.152491e+00 -4.680543e+00 -1.840771e+00 5.623482e+01 -1.694691e+00 1.055521e+00 3.028307e-01 -5.787885e-01 5.172076e-01 -8.467713e-02 2.181185e-01 -2.001690e-01 -2.300326e-01 -2.540968e-01 5.292468e-01 1.357763e-01 1.035188e+00 -2.948376e-01 -3.194903e-01 2.068306e-01 -2.889311e-01 -5.828521e-01 -3.969736e-01 -2.508414e-01 2.233155e-02 -1.619752e-01 1.273819e-01 4.227403e-01 2.418246e-01 7.363915e-01
<VARIANCE> 39
 5.594846e+01 4.657362e+01 4.783304e+01 4.009696e+01 3.381277e+01 7.192411e+01 5.020185e+01 5.241436e+01 5.230870e+01 4.085897e+01 5.044994e+01 3.499002e+01 9.887082e+01 7.142622e+00 3.992342e+00 3.038753e+00 4.453173e+00 3.825538e+00 6.336990e+00 5.045388e+00 4.771171e+00 4.384021e+00 4.005367e+00 4.519393e+00 3.427649e+00 4.733226e+00 1.026426e+00 7.480969e-01 5.335261e-01 7.388055e-01 8.184120e-01 9.893206e-01 9.275133e-01 1.015790e+00 7.587690e-01 7.227908e-01 7.786129e-01 6.179605e-01 4.849994e-01
<GCONST> 1.384740e+02
<STATE> 3
<MEAN> 39
 -1.622108e+01 7.792430e+00 6.993747e+00 -3.549418e+00 -5.376174e+00 -9.430824e+00 -6.835480e+00 -3.261596e+00 -7.957167e+00 -3.184146e+00 -2.890661e-01 7.902287e-01 6.539178e+01 4.058788e-01 -1.507376e+00 1.120532e+00 -3.340659e-01 -2.969435e+00 -2.055251e+00 -8.735922e-01 3.061247e-01 -6.887671e-01 1.535819e-01 1.352152e+00 1.087358e+00 2.157833e+00 1.545466e+00 -9.494916e-01 -1.961322e-01 2.363148e-01 -6.415855e-01 -1.269552e-01 -3.984285e-01 3.287992e-01 1.544777e-01 2.185040e-01 -2.219566e-01 -1.915641e-01 -1.807296e-01
<VARIANCE> 39
 4.916764e+01 5.496075e+01 5.709058e+01 3.334769e+01 4.861753e+01 6.976247e+01 4.856577e+01 4.422871e+01 6.433913e+01 3.881755e+01 4.396354e+01 5.090825e+01 5.602708e+01 8.716788e+00 4.392248e+00 3.321546e+00 4.235223e+00 4.702510e+00 5.489579e+00 4.403667e+00 5.643271e+00 3.649733e+00 3.702169e+00 3.804908e+00 3.732508e+00 2.577770e+00 8.028714e-01 8.901749e-01 7.203080e-01 7.322464e-01 1.177970e+00 1.314350e+00 1.001474e+00 1.085886e+00 9.571626e-01 9.708006e-01 8.685227e-01 6.470659e-01 3.665428e-01
<GCONST> 1.393431e+02
<STATE> 4
<MEAN> 39
 -6.441423e+00 -1.318834e+00 8.822343e+00 -3.091708e+00 -1.675716e+01 -1.580640e+01 -1.189185e+01 8.549973e-01 -7.631496e+00 -1.738982e+00 2.386275e+00 2.408193e+00 7.074174e+01 2.148259e+00 -2.569654e+00 -1.067191e+00 -6.865070e-01 -1.170393e+00 -1.576359e-01 -1.006842e+00 1.277175e+00 9.174493e-01 1.082599e+00 -2.201212e-01 -6.658837e-01 1.127089e+00 -2.453138e-01 4.669184e-01 -6.023818e-01 -1.060900e-01 1.234578e+00 9.120504e-01 3.539985e-01 -2.349074e-01 2.824912e-01 1.545914e-01 -5.373384e-01 -5.656189e-01 -5.358644e-01
<VARIANCE> 39
 2.400607e+01 3.506860e+01 4.077916e+01 3.854884e+01 3.929639e+01 5.401758e+01 6.148425e+01 7.142435e+01 7.301250e+01 3.973443e+01 5.091788e+01 7.189223e+01 5.864096e+01 2.565137e+00 3.279665e+00 3.090220e+00 2.508479e+00 6.768259e+00 4.635625e+00 5.835464e+00 6.480656e+00 4.034633e+00 3.480768e+00 4.645112e+00 2.924555e+00 1.211703e+00 4.668276e-01 4.263011e-01 4.095999e-01 4.544214e-01 5.699353e-01 6.310685e-01 7.398062e-01 9.088709e-01 5.926676e-01 5.666522e-01 6.191288e-01 4.933912e-01 1.713968e-01
<GCONST> 1.300141e+02
<TRANSP> 5
 0.000000e+00 1.000000e+00 0.000000e+00 0.000000e+00 0.000000e+00
 0.000000e+00 7.014787e-01 2.985213e-01 0.000000e+00 0.000000e+00
 0.000000e+00 0.000000e+00 6.097308e-01 3.902691e-01 0.000000e+00
 0.000000e+00 0.000000e+00 0.000000e+00 6.274662e-01 3.725337e-01
 0.000000e+00 0.000000e+00 0.000000e+00 0.000000e+00 0.000000e+00
<ENDHMM>
~h "k"
<BEGINHMM>
<NUMSTATES> 5
<STATE> 2
<MEAN> 39
 -6.546108e+00 1.084409e+00 -9.904076e-01 2.707386e-02 -3.233941e+00 -2.429797e+00 -4.573238e+00 -1.872814e+00 -2.828538e+00 -5.997571e-02 -2.631445e+00 -2.603598e+00 5.359950e+01 -8.641661e-01 -3.152245e-01 -6.313316e-01 5.297567e-02 8.416147e-01 7.530423e-02 -6.701201e-02 6.576071e-01 1.460679e-01 3.840095e-01 6.654865e-02 2.116920e-01 -1.563304e-01 -1.008629e-02 -3.474556e-01 -1.793733e-01 -6.124529e-01 -1.782882e-01 -3.197875e-01 -3.904828e-01 1.295390e-02 -2.121009e-01 1.749997e-01 9.072012e-02 -1.103006e-01 9.064719e-01
<VARIANCE> 39
 4.090481e+01 3.389443e+01 4.349382e+01 4.358123e+01 5.213624e+01 5.319463e+01 4.152853e+01 4.860221e+01 5.516038e+01 4.155332e+01 4.625386e+01 3.420325e+01 1.012122e+02 2.147752e+00 2.704148e+00 3.103776e+00 3.806881e+00 3.843224e+00 4.657015e+00 3.899546e+00 4.494245e+00 4.312407e+00 3.939992e+00 3.769488e+00 3.074212e+00 3.406480e+00 4.117852e-01 4.700217e-01 5.659549e-01 7.099986e-01 7.952125e-01 8.375199e-01 8.455378e-01 8.950790e-01 9.260799e-01 8.128718e-01 8.047510e-01 6.898417e-01 4.922915e-01
<GCONST> 1.333828e+02
<STATE> 3
<MEAN> 39
 -8.725905e+00 -1.230059e+00 -4.599902e+00 -2.653182e+00 6.381432e-01 -5.220092e+00 -1.016269e+01 -1.674620e+00 -6.549290e+00 1.580801e+00 -5.551027e+00 -2.397663e-01 5.596663e+01 -1.033568e-01 -6.200909e-01 -6.853095e-01 -1.165133e+00 1.167346e-01 -6.212605e-01 -8.450727e-01 3.149015e-01 -4.763956e-01 6.274586e-01 8.513826e-02 1.706779e-01 1.899267e+00 4.131163e-01 -7.661939e-02 4.753170e-01 -4.403181e-01 -6.007828e-01 -4.638695e-02 1.339417e-01 -1.676108e-01 -3.230348e-03 -3.070820e-02 6.611386e-02 -1.791168e-01 4.740730e-01
<VARIANCE> 39
 4.757432e+01 4.982750e+01 9.078864e+01 8.031068e+01 9.431116e+01 9.897977e+01 1.002872e+02 9.931676e+01 1.129681e+02 9.977246e+01 8.779928e+01 5.942434e+01 9.788653e+01 4.730892e+00 5.038333e+00 8.076313e+00 9.009519e+00 8.741448e+00 8.703356e+00 9.490384e+00 8.544661e+00 8.815879e+00 9.133101e+00 7.631229e+00 6.141050e+00 7.247116e+00 6.730306e-01 7.793436e-01 1.376751e+00 1.366979e+00 1.623491e+00 1.493624e+00 1.985140e+00 1.650696e+00 1.592967e+00 1.835902e+00 1.407910e+00 1.131523e+00 7.534519e-01
<GCONST> 1.588814e+02
<STATE> 4
<MEAN> 39
 -6.459506e+00 -4.124253e+00 -3.194835e+00 -7.099791e+00 -4.732373e+00 -4.416617e+00 -8.301249e+00 -1.565397e+00 -4.716571e+00 2.251916e+00 -1.295453e+00 -4.221599e+00 6.307855e+01 1.137798e+00 -4.596531e-01 6.980895e-01 -1.253055e+00 -1.507503e+00 -3.488126e-01 -5.153574e-02 -4.518264e-01 -1.783821e-01 -1.278912e-01 3.431847e-01 -8.013117e-01 1.845171e+00 2.720739e-01 1.639587e-01 1.946023e-01 2.969887e-01 -2.111630e-01 7.318480e-02 3.352803e-02 -1.459376e-01 1.284125e-03 -2.244356e-01 1.817315e-02 -1.083436e-01 -2.790172e-01
<VARIANCE> 39
 8.671986e+01 5.819654e+01 8.615067e+01 6.589484e+01 8.140258e+01 8.555073e+01 6.116177e+01 7.143376e+01 9.298471e+01 5.457174e+01 5.753958e+01 5.778635e+01 9.764716e+01 6.033201e+00 5.500480e+00 5.093848e+00 6.406772e+00 7.107408e+00 6.350031e+00 7.176718e+00 5.763290e+00 5.348532e+00 5.550718e+00 4.525989e+00 5.042663e+00 5.170333e+00 1.071155e+00 9.671172e-01 8.791447e-01 9.405429e-01 1.122522e+00 1.144932e+00 1.045642e+00 9.705945e-01 9.571554e-01 9.341919e-01 8.305066e-01 7.020547e-01 7.919845e-01
<GCONST> 1.492086e+02
<TRANSP> 5
 0.000000e+00 1.000000e+00 0.000000e+00 0.000000e+00 0.000000e+00
 0.000000e+00 5.594312e-01 4.405688e-01 0.000000e+00 0.000000e+00
 0.000000e+00 0.000000e+00 5.707306e-01 4.292694e-01 0.000000e+00
 0.000000e+00 0.000000e+00 0.000000e+00 5.491718e-01 4.508282e-01
 0.000000e+00 0.000000e+00 0.000000e+00 0.000000e+00 0.000000e+00
<ENDHMM>
~h "l"
<BEGINHMM>
<NUMSTATES> 5
<STATE> 2
<MEAN> 39
 -1.149572e-01 -3.530311e+00 -1.407992e+00 -9.078308e+00 -6.309607e+00 -5.246712e+00 -1.255415e+01 -7.614064e+00 -3.067566e+00 6.570926e+00 -2.694976e+00 -4.114998e+00 6.550808e+01 3.107350e-01 2.501894e-01 6.223285e-01 5.481803e-02 -1.754043e-02 -1.925075e-01 -6.921898e-01 -6.452467e-01 -2.011173e-01 5.592782e-01 -8.596333e-02 2.793350e-01 -4.155719e-01 -2.984307e-01 -1.028709e-02 -1.851672e-01 -7.329865e-02 3.650074e-02 1.341654e-01 2.334771e-01 4.508303e-01 3.641327e-02 -4.332746e-01 6.619585e-02 -8.548193e-02 1.430714e-01
<VARIANCE> 39
 4.330657e+01 3.900549e+01 4.603858e+01 9.388990e+01 7.051156e+01 6.625837e+01 7.582999e+01 1.039672e+02 9.888465e+01 6.933841e+01 8.216382e+01 7.536410e+01 1.219868e+02 8.569443e-01 1.670606e+00 1.880406e+00 3.291629e+00 2.571889e+00 3.231934e+00 3.836247e+00 4.201554e+00 3.436912e+00 3.406984e+00 2.923647e+00 2.926021e+00 1.314672e+00 1.682342e-01 3.022003e-01 3.144418e-01 6.351909e-01 5.650572e-01 5.741971e-01 7.319298e-01 7.764913e-01 6.705732e-01 6.328939e-01 5.991846e-01 5.091569e-01 1.627591e-01
<GCONST> 1.290902e+02
<STATE> 3
<MEAN> 39
 2.589866e-01 -3.398875e+00 -1.003201e+00 -1.122893e+01 -5.539666e+00 -5.030914e+00 -1.374217e+01 -8.950664e+00 -3.783474e+00 8.493839e+00 -3.019363e+00 -3.211439e+00 6.669241e+01 -3.252872e-01 4.626957e-02 -9.227857e-02 -2.536792e-01 5.049549e-02 1.940164e-01 -1.431990e-01 6.541413e-01 1.633589e-01 -4.619128e-01 9.434603e-02 -1.529991e-01 1.794632e-01 -2.713344e-01 -1.117683e-01 -2.961123e-01 -3.197674e-02 -2.134615e-02 1.178613e-01 3.537462e-01 5.412683e-01 1.325459e-01 -4.784454e-01 3.843777e-02 -2.252027e-01 2.535735e-01
<VARIANCE> 39
 3.158290e+01 3.253715e+01 4.235863e+01 9.515110e+01 6.922473e+01 6.459724e+01 8.490123e+01 9.972088e+01 1.024998e+02 7.202277e+01 9.173602e+01 9.121302e+01 8.821474e+01 5.841290e-01 1.291275e+00 1.738611e+00 2.746778e+00 2.416620e+00 2.814784e+00 2.977084e+00 4.053014e+00 3.096983e+00 2.645236e+00 2.679419e+00 2.576061e+00 9.996365e-01 1.247953e-01 2.607500e-01 3.373288e-01 5.834656e-01 6.102323e-01 5.537962e-01 7.441814e-01 7.823412e-01 6.823276e-01 6.456520e-01 6.952532e-01 4.990933e-01 1.609440e-01
<GCONST> 1.261244e+02
<STATE> 4
<MEAN> 39
 1.638784e-01 -4.595734e+00 -3.303643e-01 -8.593653e+00 -7.478563e+00 -3.291768e+00 -1.331925e+01 -3.952087e+00 -3.153232e+00 3.546367e+00 -1.883178e+00 -5.225104e+00 6.463354e+01 -5.624569e-01 -1.026129e-01 -2.187253e-01 -7.440625e-02 -1.858853e-01 7.488933e-02 5.231947e-01 9.708176e-01 1.501253e-01 -8.720260e-01 1.676061e-01 -2.665802e-01 3.788064e-01 -4.300089e-02 7.585059e-03 -1.180321e-02 6.433820e-02 -8.561805e-02 5.437959e-03 2.696753e-01 -3.489098e-02 -1.327417e-01 -5.571903e-02 5.111478e-02 3.782886e-02 1.843157e-02
<VARIANCE> 39
 4.952609e+01 5.781891e+01 8.691930e+01 9.198858e+01 9.282942e+01 8.494948e+01 8.334419e+01 9.192358e+01 9.046192e+01 6.095088e+01 8.276489e+01 7.724182e+01 1.170224e+02 1.431495e+00 2.884166e+00 3.755625e+00 5.277608e+00 4.725779e+00 4.095999e+00 5.127795e+00 5.698414e+00 4.545430e+00 3.873214e+00 4.237262e+00 3.212602e+00 2.366340e+00 2.035591e-01 4.235596e-01 4.535874e-01 7.414022e-01 7.293229e-01 5.766333e-01 7.814077e-01 8.003312e-01 7.123503e-01 5.926196e-01 6.303194e-01 5.329037e-01 3.287283e-01
<GCONST> 1.378218e+02
<TRANSP> 5
 0.000000e+00 1.000000e+00 0.000000e+00 0.000000e+00 0.000000e+00
 0.000000e+00 1.583929e-01 8.416070e-01 0.000000e+00 0.000000e+00
 0.000000e+00 0.000000e+00 4.482752e-01 5.517248e-01 0.000000e+00
 0.000000e+00 0.000000e+00 0.000000e+00 3.535081e-01 6.464919e-01
 0.000000e+00 0.000000e+00 0.000000e+00 0.000000e+00 0.000000e+00
<ENDHMM>
~h "m"
<BEGINHMM>
<NUMSTATES> 5
<STATE> 2
<MEAN> 39
 7.983586e-01 2.372579e-01 8.720018e-02 -2.980071e-01 -5.157584e+00 -2.163700e+00 -7.742781e+00 -7.674771e+00 -5.306443e+00 -1.057498e+00 -4.625570e+00 -6.014815e+00 6.133828e+01 7.982933e-02 7.755417e-01 9.530410e-01 1.615419e+00 3.541985e-01 -1.119538e-01 -3.619553e-02 -9.074152e-01 -8.302969e-01 -2.449798e-01 -7.050667e-01 1.229534e-01 -8.515606e-01 -1.378366e-01 -1.887154e-01 -7.460248e-02 -3.499835e-01 -1.708618e-01 -1.427124e-01 -4.804902e-02 2.829384e-01 1.319821e-01 2.734457e-02 1.208239e-01 2.248999e-02 3.247310e-01
<VARIANCE> 39
 3.180448e+01 4.232738e+01 2.948417e+01 3.853014e+01 3.436949e+01 4.707061e+01 3.450929e+01 4.554952e+01 5.322386e+01 5.386214e+01 5.381342e+01 3.414835e+01 6.664817e+01 6.879718e-01 1.252831e+00 1.736328e+00 2.785274e+00 2.102017e+00 2.904629e+00 2.678509e+00 5.024401e+00 2.568818e+00 2.683192e+00 3.166892e+00 2.299786e+00 1.227766e+00 1.187673e-01 1.589593e-01 2.475254e-01 4.218247e-01 3.549375e-01 4.075957e-01 4.556526e-01 6.957608e-01 4.534936e-01 4.036736e-01 4.381040e-01 4.183375e-01 1.175659e-01
<GCONST> 1.154539e+02
<STATE> 3
<MEAN> 39
 3.356789e-01 7.633790e-02 3.427881e+00 1.737954e+00 -4.635558e+00 -2.840582e+00 -9.730496e+00 -8.603267e+00 -8.532720e+00 -4.655701e-02 -8.350252e+00 -4.035016e+00 6.071918e+01 -2.020926e-02 1.489876e-01 -2.439893e-02 -1.601928e-01 -2.859987e-01 -5.304354e-02 9.302030e-02 2.475485e-01 2.834734e-02 -1.883987e-01 9.623542e-05 1.155767e-01 4.490313e-02 -6.493120e-02 -2.363846e-01 -4.403354e-01 -8.037958e-01 -1.757201e-01 1.340366e-01 1.415360e-01 5.027646e-01 3.119813e-01 -6.579383e-02 4.030005e-01 -4.200862e-02 3.439195e-01
<VARIANCE> 39
 2.528251e+01 4.051480e+01 3.058272e+01 3.696045e+01 3.594333e+01 5.152050e+01 4.176719e+01 5.276433e+01 5.766309e+01 1.008402e+02 1.062115e+02 5.311973e+01 5.976393e+01 6.421479e-01 1.191318e+00 1.850268e+00 3.051002e+00 2.198421e+00 2.425611e+00 2.346823e+00 3.457496e+00 2.400993e+00 2.594462e+00 2.781790e+00 2.116303e+00 1.019263e+00 1.329750e-01 2.318062e-01 4.413928e-01 5.123913e-01 4.441686e-01 6.109716e-01 5.794600e-01 1.093956e+00 5.983378e-01 6.670734e-01 7.300184e-01 5.352285e-01 1.650345e-01
<GCONST> 1.207233e+02
<STATE> 4
<MEAN> 39
 3.241983e-01 -3.185536e-01 -4.316300e-02 -1.994298e+00 -6.097857e+00 -1.973698e+00 -7.812068e+00 -6.414345e+00 -6.957885e+00 -1.713384e+00 -5.931915e+00 -4.094079e+00 6.064083e+01 -4.605390e-03 -8.150580e-01 -1.150688e+00 -2.056725e+00 -2.583534e-01 6.704262e-01 3.295297e-01 9.151276e-01 6.724921e-01 -2.748017e-01 6.633561e-01 -2.056347e-01 1.343307e+00 -2.029500e-01 -2.224239e-01 -1.558140e-03 -1.725045e-01 9.738188e-02 1.704577e-02 -7.357843e-02 1.307758e-01 1.242545e-01 7.152574e-02 5.071265e-02 -7.793686e-02 2.090403e-01
<VARIANCE> 39
 3.717968e+01 4.846231e+01 5.295011e+01 6.183290e+01 4.785024e+01 4.622873e+01 4.447236e+01 5.723739e+01 6.604101e+01 8.799095e+01 7.645416e+01 4.638009e+01 9.330128e+01 1.857748e+00 2.490575e+00 5.129086e+00 5.091934e+00 4.888049e+00 4.942480e+00 4.603927e+00 8.714719e+00 5.453815e+00 4.777655e+00 4.871737e+00 3.647324e+00 2.795914e+00 2.252438e-01 3.417315e-01 7.209612e-01 8.487142e-01 6.527610e-01 7.484520e-01 6.377915e-01 9.884638e-01 7.052175e-01 7.238158e-01 7.725272e-01 5.589052e-01 2.974111e-01
<GCONST> 1.360670e+02
<TRANSP> 5
 0.000000e+00 1.000000e+00 0.000000e+00 0.000000e+00 0.000000e+00
 0.000000e+00 5.505099e-01 4.494901e-01 0.000000e+00 0.000000e+00
 0.000000e+00 0.000000e+00 5.609953e-01 4.390047e-01 0.000000e+00
 0.000000e+00 0.000000e+00 0.000000e+00 4.303433e-01 5.696567e-01
 0.000000e+00 0.000000e+00 0.000000e+00 0.000000e+00 0.000000e+00
<ENDHMM>
~h "n"
<BEGINHMM>
<NUMSTATES> 5
<STATE> 2
<MEAN> 39
 -1.205867e-01 -6.601285e-01 3.364728e+00 9.110405e-01 -5.726794e+00 -7.187059e+00 -8.343024e+00 -4.731839e+00 -3.595674e+00 -1.157686e+00 -1.049929e+01 -4.193505e+00 6.250677e+01 3.001952e-01 1.061491e+00 6.134248e-01 1.498066e+00 8.791722e-02 1.997482e-01 -2.124559e-01 -1.061309e+00 -1.633065e-01 2.552041e-01 -8.919594e-01 4.690103e-01 -1.323009e+00 -2.337776e-01 -1.402203e-01 -1.026935e-01 -3.142266e-01 -3.608477e-02 -3.598481e-02 6.246570e-02 2.654667e-01 -4.807604e-03 -7.940245e-02 3.345388e-01 -5.334413e-02 2.528339e-01
<VARIANCE> 39
 2.084292e+01 4.196161e+01 3.090472e+01 3.610572e+01 4.400162e+01 3.891609e+01 4.357802e+01 4.712861e+01 6.352269e+01 6.196388e+01 9.180097e+01 5.320864e+01 5.665395e+01 7.050956e-01 1.243099e+00 1.778139e+00 2.307826e+00 2.500816e+00 2.694137e+00 2.731169e+00 5.032984e+00 2.832253e+00 3.407691e+00 3.438796e+00 2.309155e+00 8.854183e-01 8.580159e-02 1.622927e-01 2.297486e-01 3.174996e-01 3.699990e-01 4.002180e-01 4.313386e-01 7.031372e-01 4.655915e-01 5.308171e-01 4.683688e-01 4.204242e-01 1.224537e-01
<GCONST> 1.162581e+02
<STATE> 3
<MEAN> 39
 -7.645330e-01 1.188548e+00 5.715715e+00 3.441167e+00 -6.043064e+00 -6.826043e+00 -1.064221e+01 -5.540605e+00 -4.485803e+00 1.510502e+00 -1.321808e+01 -1.146856e+00 5.921331e+01 -2.513255e-01 5.600663e-01 9.590006e-02 4.484416e-01 2.616479e-01 2.726920e-01 -1.160256e-01 -1.447631e-01 -1.806285e-01 -3.338132e-01 4.316408e-01 -5.817271e-02 -6.620477e-01 -3.564097e-01 -3.544764e-01 -2.083466e-01 -7.290337e-01 6.193813e-02 1.357781e-01 1.557746e-01 5.208463e-01 -1.052532e-01 -3.056617e-01 6.414512e-01 -1.650138e-01 4.577538e-01
<VARIANCE> 39
 2.745638e+01 4.133783e+01 4.339939e+01 3.655449e+01 5.505532e+01 5.524328e+01 6.459309e+01 5.428898e+01 6.563598e+01 9.722649e+01 1.609138e+02 8.742044e+01 7.263313e+01 7.108710e-01 1.789384e+00 1.688301e+00 2.753580e+00 2.596467e+00 2.846123e+00 2.990400e+00 3.884631e+00 3.404324e+00 3.769887e+00 4.473335e+00 2.659775e+00 1.269318e+00 2.202387e-01 3.780063e-01 5.514833e-01 5.995035e-01 7.089459e-01 6.769776e-01 7.295272e-01 1.221730e+00 7.866880e-01 9.425497e-01 1.056995e+00 6.815181e-01 2.941729e-01
<GCONST> 1.300657e+02
<STATE> 4
<MEAN> 39
 -2.000414e+00 1.506079e+00 4.410372e+00 2.206707e+00 -5.759669e+00 -5.040760e+00 -1.043673e+01 -4.751578e+00 -5.277216e+00 -1.551347e+00 -7.439226e+00 -3.230913e+00 5.774182e+01 -8.618979e-01 -5.347837e-01 -3.752796e-01 -1.234926e+00 3.100187e-01 4.457749e-01 2.970191e-01 8.977831e-01 -2.667671e-01 -5.815266e-01 1.034877e+00 -2.608397e-01 6.015022e-01 -2.229077e-01 -3.493626e-01 -1.357678e-01 -5.164045e-01 -1.520794e-01 -6.645183e-02 1.707972e-01 2.679635e-01 2.787052e-02 4.024297e-02 1.678644e-01 3.196128e-02 4.733224e-01
<VARIANCE> 39
 4.551296e+01 5.828873e+01 6.339187e+01 5.683839e+01 7.025035e+01 6.038318e+01 6.920659e+01 5.868097e+01 7.818108e+01 7.008418e+01 9.408113e+01 5.692691e+01 1.004669e+02 2.512393e+00 4.191583e+00 4.778828e+00 5.297581e+00 4.979736e+00 4.858306e+00 5.323369e+00 7.282512e+00 4.989764e+00 5.830856e+00 6.532563e+00 3.784564e+00 3.743782e+00 4.618858e-01 6.766534e-01 7.490841e-01 8.813750e-01 8.765445e-01 9.811737e-01 1.011700e+00 1.246136e+00 9.077829e-01 8.430114e-01 9.035929e-01 6.254973e-01 4.986997e-01
<GCONST> 1.435132e+02
<TRANSP> 5
 0.000000e+00 1.000000e+00 0.000000e+00 0.000000e+00 0.000000e+00
 0.000000e+00 6.239929e-01 3.760071e-01 0.000000e+00 0.000000e+00
 0.000000e+00 0.000000e+00 4.537954e-01 5.462046e-01 0.000000e+00
 0.000000e+00 0.000000e+00 0.000000e+00 4.354410e-01 5.645590e-01
 0.000000e+00 0.000000e+00 0.000000e+00 0.000000e+00 0.000000e+00
<ENDHMM>
~h "o"
<BEGINHMM>
<NUMSTATES> 5
<STATE> 2
<MEAN> 39
 -1.995972e+00 -2.447265e+00 -5.951553e+00 -1.268247e+01 -5.273323e+00 -4.744354e-01 -9.316551e+00 -4.360419e+00 -6.061423e+00 3.844318e+00 -6.047041e-01 -2.748170e+00 6.253801e+01 1.114596e+00 -4.538191e-01 -3.924069e-01 -1.800372e+00 -1.054934e-01 6.891338e-01 -3.229087e-01 -3.006012e-01 -2.520822e-01 8.010038e-01 2.775629e-01 -5.372251e-01 1.626959e+00 -1.723402e-01 4.094971e-02 1.863544e-01 4.157525e-01 7.758459e-02 -8.466206e-02 1.067307e-01 8.728351e-03 -1.472297e-02 -1.417725e-01 -2.847395e-02 3.443345e-02 -2.261446e-01
<VARIANCE> 39
 4.904255e+01 5.436238e+01 3.376284e+01 1.273121e+02 7.681815e+01 5.494843e+01 7.046311e+01 7.879641e+01 9.588470e+01 7.766463e+01 5.678920e+01 8.049619e+01 1.361026e+02 2.844673e+00 3.576301e+00 2.814411e+00 7.322305e+00 5.036833e+00 4.101715e+00 4.676423e+00 5.338581e+00 5.399509e+00 5.693419e+00 4.013098e+00 4.349299e+00 5.228338e+00 5.543584e-01 5.563837e-01 4.606016e-01 1.555320e+00 8.231794e-01 7.072237e-01 8.129351e-01 9.715682e-01 9.497858e-01 9.729256e-01 7.448595e-01 7.603747e-01 8.886163e-01
<GCONST> 1.436360e+02
<STATE> 3
<MEAN> 39
 7.392192e-01 -2.794537e+00 -6.160377e+00 -1.740005e+01 -6.022727e+00 4.862411e-01 -1.159351e+01 -4.702931e+00 -6.552902e+00 5.491222e+00 1.831943e+00 -4.340362e+00 6.993824e+01 8.080719e-02 6.717615e-02 1.500859e-01 3.671294e-01 2.418969e-01 -6.820122e-02 2.202075e-02 -2.128984e-01 4.592380e-02 -4.679879e-03 -4.158200e-02 -6.317066e-02 -2.548873e-01 -7.842695e-02 9.712543e-02 1.564753e-01 4.061186e-01 -2.701813e-02 -1.572615e-01 6.091191e-02 -2.941489e-02 -1.055905e-02 -1.211316e-01 -1.370804e-01 1.494858e-01 -2.630074e-01
<VARIANCE> 39
 2.178269e+01 4.539329e+01 2.379031e+01 7.055863e+01 7.819781e+01 5.726844e+01 7.329120e+01 8.082825e+01 1.105311e+02 7.090759e+01 6.846838e+01 1.126477e+02 4.296164e+01 4.466157e-01 1.086988e+00 1.082983e+00 2.459343e+00 1.905236e+00 2.394160e+00 2.300211e+00 2.475765e+00 2.601369e+00 2.306144e+00 2.309130e+00 2.171463e+00 8.850389e-01 1.128979e-01 1.746707e-01 1.988749e-01 3.319992e-01 3.290263e-01 3.670965e-01 4.762241e-01 4.988744e-01 4.601728e-01 4.519486e-01 4.337104e-01 4.408635e-01 1.281615e-01
<GCONST> 1.160927e+02
<STATE> 4
<MEAN> 39
 1.233671e+00 -2.746430e+00 -4.682225e+00 -8.689620e+00 -6.212166e+00 1.044197e+00 -9.974990e+00 -5.646982e+00 -4.727425e+00 1.851134e+00 7.040154e-01 -4.334026e+00 6.195673e+01 -2.441471e-01 4.651437e-01 4.028164e-01 1.510603e+00 1.459934e-03 -4.240526e-01 4.571955e-01 -1.469858e-01 4.146015e-02 -3.470948e-01 -4.465478e-01 3.501566e-01 -1.207869e+00 -1.555165e-01 2.834823e-02 6.353857e-02 -1.143736e-02 -1.552510e-02 -6.699547e-02 8.403257e-02 1.208886e-01 -5.818044e-02 -2.289742e-03 1.143917e-02 4.705023e-02 -3.046039e-03
<VARIANCE> 39
 5.147799e+01 8.527548e+01 3.213638e+01 8.320936e+01 8.993589e+01 7.960691e+01 6.629704e+01 8.197450e+01 7.781564e+01 6.672225e+01 4.387436e+01 6.825208e+01 9.821879e+01 9.617320e-01 2.243428e+00 1.814995e+00 3.579711e+00 2.815236e+00 3.376808e+00 3.364880e+00 3.849409e+00 3.460276e+00 3.231228e+00 3.281784e+00 3.031064e+00 1.272372e+00 1.437445e-01 3.079228e-01 2.821417e-01 4.445854e-01 4.507048e-01 5.474750e-01 5.519997e-01 6.142965e-01 6.251084e-01 5.576779e-01 5.291240e-01 4.883842e-01 1.700677e-01
<GCONST> 1.271320e+02
<TRANSP> 5
 0.000000e+00 1.000000e+00 0.000000e+00 0.000000e+00 0.000000e+00
 0.000000e+00 6.325680e-01 3.674319e-01 0.000000e+00 0.000000e+00
 0.000000e+00 0.000000e+00 7.820956e-01 2.179044e-01 0.000000e+00
 0.000000e+00 0.000000e+00 0.000000e+00 5.864424e-01 4.135576e-01
 0.000000e+00 0.000000e+00 0.000000e+00 0.000000e+00 0.000000e+00
<ENDHMM>
~h "p"
<BEGINHMM>
<NUMSTATES> 5
<STATE> 2
<MEAN> 39
 -5.273156e+00 1.926050e+00 -1.164879e+00 7.748606e-01 -2.174709e+00 -1.440202e+00 -4.123513e+00 -2.626354e+00 -1.401322e+00 -1.549305e-01 -2.516785e+00 -3.192924e+00 5.435249e+01 -8.748081e-01 -1.055298e-01 -1.647868e-01 1.003070e-01 -7.152018e-02 -2.216917e-01 1.528658e-01 5.267241e-01 9.902536e-02 3.815786e-02 5.330389e-01 3.400331e-01 -1.601498e-01 2.700277e-01 -3.862231e-01 -1.493191e-01 -6.033471e-01 -5.216987e-01 -4.035294e-01 -4.663137e-01 -1.962480e-01 -2.065964e-01 4.876374e-02 2.146957e-01 -9.821038e-02 9.463500e-01
<VARIANCE> 39
 3.635854e+01 3.005976e+01 3.563646e+01 3.172531e+01 3.327839e+01 3.939508e+01 3.426477e+01 4.143330e+01 4.782790e+01 3.123947e+01 3.688132e+01 2.900114e+01 6.447359e+01 1.538320e+00 1.946396e+00 2.424341e+00 3.284992e+00 2.896836e+00 3.488847e+00 3.100025e+00 3.556699e+00 3.146739e+00 3.077701e+00 3.168859e+00 2.426755e+00 2.978175e+00 3.953073e-01 4.066869e-01 5.129610e-01 6.248015e-01 5.813616e-01 6.668430e-01 7.484088e-01 7.810311e-01 7.433933e-01 6.377423e-01 6.191306e-01 7.717775e-01 3.834951e-01
<GCONST> 1.249849e+02
<STATE> 3
<MEAN> 39
 -7.272395e+00 1.740746e-01 -2.161702e+00 -3.383510e-01 -4.147120e+00 -5.348953e+00 -8.276502e+00 -3.533170e+00 -4.432032e+00 -3.256878e+00 -2.247793e+00 -4.183910e-01 5.380890e+01 5.367036e-01 -1.063544e+00 -7.158929e-01 -1.583445e+00 -1.014443e+00 -9.855660e-01 -1.146839e+00 -1.315166e-01 -6.447755e-01 3.238438e-01 8.067282e-01 3.880057e-01 2.462175e+00 6.369335e-01 -2.615758e-01 2.564251e-01 -8.006662e-01 -1.516285e-01 1.720928e-01 -1.955380e-01 -1.181273e-01 -1.278994e-01 5.715847e-01 -2.047518e-01 -2.210771e-01 8.004984e-01
<VARIANCE> 39
 3.669743e+01 3.709014e+01 5.012717e+01 5.893042e+01 4.613800e+01 6.097069e+01 7.027337e+01 6.364539e+01 6.685446e+01 6.432426e+01 5.546056e+01 4.968398e+01 8.405277e+01 4.072493e+00 4.567907e+00 7.302373e+00 1.179054e+01 7.612264e+00 7.289033e+00 6.837549e+00 7.359286e+00 7.266921e+00 8.854042e+00 6.747535e+00 7.278882e+00 5.921254e+00 5.027253e-01 8.533226e-01 1.104905e+00 1.440100e+00 1.292311e+00 1.324548e+00 1.353184e+00 1.380304e+00 1.322709e+00 1.654245e+00 1.206452e+00 1.173743e+00 6.256196e-01
<GCONST> 1.505437e+02
<STATE> 4
<MEAN> 39
 -7.815900e-01 -4.054245e+00 -1.574653e+00 -6.436420e+00 -8.963372e+00 -2.394797e+00 -1.008665e+01 -3.550172e+00 -5.678367e+00 1.247007e-01 1.114720e+00 -4.251037e+00 6.145813e+01 9.992084e-01 -8.430822e-01 7.926492e-02 -1.469333e+00 -7.499745e-01 -4.416034e-02 -6.074792e-01 -1.195140e-01 -2.204300e-01 6.769933e-01 1.605579e-01 -5.952086e-01 1.866974e+00 -8.432648e-02 1.208283e-01 1.853224e-01 2.669145e-01 1.205020e-01 7.177337e-02 7.817230e-02 4.494232e-02 9.535147e-02 -8.497372e-02 -2.197101e-01 -8.431789e-02 -2.442515e-01
<VARIANCE> 39
 7.146611e+01 6.624152e+01 1.126109e+02 9.489848e+01 8.901349e+01 8.029795e+01 6.392188e+01 7.109853e+01 7.707468e+01 4.060632e+01 4.877204e+01 5.364059e+01 8.447683e+01 4.616264e+00 6.132881e+00 6.577704e+00 9.154974e+00 7.682986e+00 6.063298e+00 6.412670e+00 6.814336e+00 6.829428e+00 5.631634e+00 4.611000e+00 5.284828e+00 6.916205e+00 6.827853e-01 9.146347e-01 8.624855e-01 1.418694e+00 9.903461e-01 9.951335e-01 8.566763e-01 1.080134e+00 9.727419e-01 7.460004e-01 7.981020e-01 6.888012e-01 7.443362e-01
<GCONST> 1.493285e+02
<TRANSP> 5
 0.000000e+00 1.000000e+00 0.000000e+00 0.000000e+00 0.000000e+00
 0.000000e+00 6.050329e-01 3.949671e-01 0.000000e+00 0.000000e+00
 0.000000e+00 0.000000e+00 4.253271e-01 5.746730e-01 0.000000e+00
 0.000000e+00 0.000000e+00 0.000000e+00 5.801000e-01 4.199000e-01
 0.000000e+00 0.000000e+00 0.000000e+00 0.000000e+00 0.000000e+00
<ENDHMM>
~h "r"
<BEGINHMM>
<NUMSTATES> 5
<STATE> 2
<MEAN> 39
 -3.112331e+00 -4.371940e+00 -1.261175e+00 -5.758750e+00 -5.300088e+00 -1.032295e+01 -1.104884e+01 -7.271135e-01 -2.473624e+00 2.278958e+00 -5.221610e+00 -6.744239e-01 6.662681e+01 -2.134682e-01 5.424032e-01 5.240182e-01 7.322038e-01 2.659618e-01 -9.133390e-02 2.280470e-02 -2.671488e-01 -2.332797e-01 -1.191106e-01 -3.218722e-02 4.645312e-01 -9.158985e-01 -5.037245e-02 1.073897e-02 2.493802e-02 -9.905376e-02 -1.531025e-01 1.849648e-01 9.077293e-02 6.647820e-03 -1.567016e-01 -7.701691e-02 1.605281e-01 -1.866210e-01 -2.856611e-02
<VARIANCE> 39
 3.290602e+01 3.451081e+01 4.074617e+01 6.588196e+01 7.890179e+01 7.264632e+01 6.093267e+01 6.731785e+01 9.781680e+01 5.601230e+01 7.888507e+01 8.986875e+01 9.475258e+01 1.322011e+00 2.191538e+00 2.380456e+00 2.727826e+00 3.640598e+00 4.924163e+00 3.982662e+00 4.224846e+00 3.747172e+00 3.128635e+00 3.061260e+00 3.249021e+00 1.397122e+00 2.821283e-01 3.547226e-01 3.502270e-01 5.045645e-01 5.917770e-01 6.635346e-01 6.767173e-01 7.256649e-01 6.704485e-01 5.372807e-01 5.807720e-01 6.029260e-01 2.812963e-01
<GCONST> 1.303239e+02
<STATE> 3
<MEAN> 39
 -3.996939e+00 -2.435095e+00 3.360662e-02 -3.007004e+00 -5.486616e+00 -9.707666e+00 -1.004068e+01 -1.289874e+00 -3.603663e+00 1.494407e+00 -4.114813e+00 -1.161897e+00 6.341804e+01 -2.337262e-01 2.793652e-01 5.033902e-01 3.079537e-01 -3.904916e-01 3.560594e-01 1.174707e-01 -2.328908e-02 -4.628412e-01 -1.571332e-01 3.073476e-01 -1.898434e-01 -6.681767e-01 5.027303e-02 -1.927095e-01 -9.308691e-02 -3.318394e-01 -2.314576e-01 9.039868e-02 1.116816e-01 3.134371e-02 -4.526830e-02 2.272481e-02 1.140223e-01 -2.716415e-01 2.678981e-01
<VARIANCE> 39
 4.064654e+01 3.885815e+01 5.250196e+01 6.029075e+01 5.618135e+01 8.415006e+01 5.994319e+01 5.574888e+01 1.089348e+02 6.419678e+01 7.131882e+01 5.941632e+01 1.101997e+02 1.789990e+00 2.745491e+00 2.607970e+00 2.916109e+00 3.791332e+00 5.106553e+00 3.318923e+00 4.236367e+00 4.540448e+00 3.527602e+00 3.569084e+00 4.091354e+00 2.125892e+00 3.726913e-01 4.339762e-01 5.268241e-01 6.515633e-01 7.317672e-01 1.190312e+00 8.886449e-01 9.450361e-01 9.235035e-01 7.335122e-01 8.150643e-01 7.931352e-01 3.776796e-01
<GCONST> 1.360177e+02
<STATE> 4
<MEAN> 39
 1.037039e+00 -4.995992e+00 1.552069e+00 -2.969064e+00 -1.041729e+01 -2.648208e+00 -1.212921e+01 -1.934524e+00 -5.117424e+00 -6.265063e-01 8.889385e-01 -5.657952e+00 6.023643e+01 -4.683895e-03 -5.094551e-02 8.994054e-02 -1.341255e-01 -1.500670e-01 2.107981e-02 9.756175e-03 1.645250e-02 -5.874186e-02 -1.189761e-02 5.180680e-02 -8.825180e-02 8.687060e-02 8.896491e-03 -1.780470e-02 -9.459869e-03 -4.526508e-02 -1.068295e-02 -2.206771e-02 2.793504e-02 -7.473955e-03 4.721446e-03 4.744076e-03 -7.374441e-03 -9.823562e-03 4.684433e-02
<VARIANCE> 39
 8.374623e+01 9.165507e+01 1.189967e+02 8.552527e+01 8.550718e+01 9.353862e+01 7.685684e+01 8.548822e+01 8.277260e+01 4.544948e+01 5.784613e+01 4.545171e+01 8.602222e+01 4.617730e+00 7.087198e+00 5.029684e+00 6.165457e+00 5.829714e+00 4.637034e+00 5.215934e+00 5.963778e+00 5.016940e+00 3.550434e+00 3.957912e+00 2.979294e+00 5.100314e+00 7.085986e-01 1.214235e+00 7.812524e-01 1.092832e+00 1.060175e+00 8.968786e-01 9.430609e-01 1.044559e+00 8.637719e-01 6.670557e-01 7.446095e-01 5.643429e-01 7.923338e-01
<GCONST> 1.467986e+02
<TRANSP> 5
 0.000000e+00 1.000000e+00 0.000000e+00 0.000000e+00 0.000000e+00
 0.000000e+00 4.108102e-01 5.891898e-01 0.000000e+00 0.000000e+00
 0.000000e+00 0.000000e+00 2.852254e-01 7.147746e-01 0.000000e+00
 0.000000e+00 0.000000e+00 0.000000e+00 7.922429e-01 2.077571e-01
 0.000000e+00 0.000000e+00 0.000000e+00 0.000000e+00 0.000000e+00
<ENDHMM>
~h "s"
<BEGINHMM>
<NUMSTATES> 5
<STATE> 2
<MEAN> 39
 -1.225914e+01 5.938338e+00 3.632701e-01 -2.555270e+00 -1.573182e+00 -9.004873e+00 -7.116405e+00 -2.081475e+00 -4.004368e+00 -2.540617e+00 -4.646094e+00 -5.411735e-01 6.413763e+01 -3.713023e+00 2.449886e+00 -9.735881e-01 5.263988e-01 1.462154e+00 1.650706e-01 8.785083e-01 7.448936e-01 1.879202e-01 -6.664772e-01 6.615957e-01 4.889964e-01 -9.353299e-02 -2.647609e-01 -2.830210e-01 -1.315452e-01 -2.270222e-01 -2.370002e-01 2.096582e-01 -3.121843e-02 2.381658e-01 -6.763490e-02 1.734103e-01 2.566767e-01 -2.286628e-02 1.141909e-01
<VARIANCE> 39
 6.691401e+01 7.244000e+01 7.046815e+01 4.435837e+01 7.157870e+01 6.531804e+01 7.193445e+01 6.302790e+01 7.748755e+01 5.043959e+01 6.677020e+01 6.281270e+01 9.264915e+01 3.471664e+00 4.274807e+00 4.377475e+00 4.044910e+00 4.674788e+00 6.072734e+00 6.926197e+00 6.382936e+00 4.803450e+00 4.936875e+00 3.889425e+00 3.795453e+00 1.683979e+00 8.066164e-01 7.965209e-01 5.977455e-01 6.138006e-01 6.911669e-01 8.936761e-01 9.779816e-01 9.339121e-01 8.234516e-01 6.936033e-01 6.982871e-01 6.165233e-01 2.096781e-01
<GCONST> 1.403243e+02
<STATE> 3
<MEAN> 39
 -2.386443e+01 8.689054e+00 -3.150184e+00 -1.773604e+00 -1.087311e-01 -6.680634e+00 -2.703074e+00 2.807145e+00 -3.424248e+00 -1.554702e+00 1.516830e-01 -3.165365e-02 6.597551e+01 -6.810371e-01 -4.136410e-01 -1.940544e-01 1.040377e-02 -1.138651e-02 2.035390e-01 3.940432e-01 5.961797e-01 3.337590e-01 9.620477e-02 3.017035e-01 2.476284e-01 -3.866872e-01 1.041437e+00 -4.984281e-01 2.605838e-01 -6.480690e-02 -3.428426e-01 -2.163150e-01 -3.406946e-01 -3.179238e-01 -1.627810e-02 1.518836e-02 -1.990713e-01 -1.828278e-01 -6.626888e-02
<VARIANCE> 39
 3.526432e+01 3.400731e+01 4.640602e+01 6.328285e+01 3.799973e+01 4.695067e+01 5.525390e+01 4.616899e+01 9.007314e+01 4.412656e+01 4.226960e+01 3.867078e+01 5.585990e+01 4.327114e+00 2.528559e+00 2.659868e+00 2.220160e+00 2.266446e+00 2.982231e+00 2.875842e+00 3.093343e+00 2.942377e+00 2.666718e+00 2.530137e+00 2.125562e+00 9.517031e-01 4.512954e-01 4.554258e-01 4.995711e-01 4.831726e-01 5.128050e-01 6.636050e-01 6.941749e-01 7.305813e-01 6.330243e-01 5.863546e-01 5.100210e-01 4.977542e-01 1.853934e-01
<GCONST> 1.249424e+02
<STATE> 4
<MEAN> 39
 -1.751309e+01 5.039214e+00 -2.354679e+00 -2.832735e+00 -1.363052e+00 -9.094689e+00 -6.673936e+00 6.106045e-01 -2.756157e+00 -3.298841e+00 -2.346240e+00 5.665216e-01 6.215610e+01 3.442306e+00 -1.422787e+00 -6.479586e-02 -5.403266e-01 -1.213135e+00 -7.398044e-01 -1.210375e+00 -1.389589e+00 7.740389e-02 2.983569e-01 -6.658805e-01 -7.544250e-01 6.677698e-01 3.636099e-01 -1.000248e-01 4.431041e-02 -2.430507e-01 -1.519552e-01 1.231400e-01 -1.126342e-01 -2.002751e-01 -7.367855e-02 1.750239e-01 -2.200221e-02 -1.781603e-01 3.822224e-01
<VARIANCE> 39
 8.810158e+01 6.077752e+01 4.804644e+01 5.277562e+01 5.530317e+01 6.612968e+01 8.149615e+01 6.852361e+01 7.467033e+01 5.796679e+01 4.988340e+01 6.405492e+01 8.263371e+01 5.014143e+00 4.572070e+00 4.415363e+00 4.701272e+00 4.907641e+00 5.841498e+00 6.615565e+00 6.719336e+00 5.335390e+00 4.819484e+00 4.027130e+00 4.950555e+00 3.583203e+00 1.166248e+00 6.786594e-01 5.851524e-01 6.843354e-01 7.642376e-01 9.817562e-01 1.130196e+00 1.132720e+00 9.098646e-01 8.893862e-01 7.653391e-01 7.551654e-01 4.307800e-01
<GCONST> 1.438299e+02
<TRANSP> 5
 0.000000e+00 1.000000e+00 0.000000e+00 0.000000e+00 0.000000e+00
 0.000000e+00 6.178492e-01 3.821509e-01 0.000000e+00 0.000000e+00
 0.000000e+00 0.000000e+00 7.667097e-01 2.332903e-01 0.000000e+00
 0.000000e+00 0.000000e+00 0.000000e+00 6.410898e-01 3.589102e-01
 0.000000e+00 0.000000e+00 0.000000e+00 0.000000e+00 0.000000e+00
<ENDHMM>
~h "t"
<BEGINHMM>
<NUMSTATES> 5
<STATE> 2
<MEAN> 39
 -6.314722e+00 2.922003e+00 5.347062e-01 1.518117e+00 -3.562603e+00 -3.993755e+00 -5.452906e+00 -3.269310e+00 -1.909039e+00 -4.504919e-01 -2.412803e+00 -2.246621e+00 5.392245e+01 -1.201248e+00 -3.764213e-01 -5.736921e-01 -1.970768e-01 4.936294e-01 1.825497e-01 8.072572e-01 7.187673e-01 2.683013e-01 -1.777042e-01 5.204943e-01 4.242432e-01 -1.427210e-01 -1.530764e-01 -2.981441e-01 -1.280283e-01 -5.814348e-01 -4.104973e-01 -5.465240e-01 -2.851179e-01 2.769742e-02 -5.643335e-02 -1.127219e-02 1.102458e-01 -2.250218e-02 1.049487e+00
<VARIANCE> 39
 3.569543e+01 3.025485e+01 3.711190e+01 3.019503e+01 3.418219e+01 4.260576e+01 3.921370e+01 4.026309e+01 4.877757e+01 3.225903e+01 4.163432e+01 2.684324e+01 6.989504e+01 2.328336e+00 2.208824e+00 2.819513e+00 3.303423e+00 3.253460e+00 4.245508e+00 3.510137e+00 3.443326e+00 3.907980e+00 3.504839e+00 3.600981e+00 2.393559e+00 3.724198e+00 3.738433e-01 4.198389e-01 4.763180e-01 5.669674e-01 6.002939e-01 7.484109e-01 7.978060e-01 7.958567e-01 8.141663e-01 6.545441e-01 7.296303e-01 6.473004e-01 5.041188e-01
<GCONST> 1.275517e+02
<STATE> 3
<MEAN> 39
 -1.146879e+01 1.247094e+00 -1.798815e+00 -5.288665e-01 -2.971929e+00 -7.031085e+00 -5.662428e+00 -2.692771e+00 -2.954045e+00 -3.431219e+00 -2.018937e+00 1.141543e-01 5.486737e+01 -8.919399e-01 -7.506790e-01 -9.090483e-01 -1.571805e+00 -4.177274e-01 -1.689892e+00 -7.750964e-01 3.769079e-01 2.351002e-01 -3.352869e-01 5.398393e-01 5.971543e-01 2.957254e+00 7.966658e-01 -1.082478e-01 2.931972e-01 -5.364874e-01 -4.461814e-01 -1.031558e-01 -6.285058e-01 -1.853321e-01 -1.537071e-01 5.310733e-01 -2.319642e-01 -2.567024e-01 7.236661e-01
<VARIANCE> 39
 3.899652e+01 3.482266e+01 4.240461e+01 4.276223e+01 4.626166e+01 7.198453e+01 7.238680e+01 6.294479e+01 6.532375e+01 5.779451e+01 5.608753e+01 4.560663e+01 1.108150e+02 4.497550e+00 4.279737e+00 5.992149e+00 6.463718e+00 6.815996e+00 7.314428e+00 7.185545e+00 6.812244e+00 8.118142e+00 7.341811e+00 7.200943e+00 5.248384e+00 6.191007e+00 6.882821e-01 6.678157e-01 8.596896e-01 9.756285e-01 1.132106e+00 1.497806e+00 1.449787e+00 1.324842e+00 1.191537e+00 1.706781e+00 1.168489e+00 8.849860e-01 7.298568e-01
<GCONST> 1.483330e+02
<STATE> 4
<MEAN> 39
 -9.991693e+00 -1.175998e+00 -3.441635e+00 -6.007946e+00 -5.557850e+00 -9.941206e+00 -8.382913e+00 -1.861348e+00 -2.094659e+00 -7.940812e-01 -9.580219e-01 -1.472847e+00 6.455696e+01 1.856235e+00 -5.519242e-01 7.661244e-02 -1.835410e+00 -1.291807e+00 -5.646206e-01 -1.713326e+00 -4.750081e-01 -7.876590e-02 9.215243e-01 -4.346360e-03 -8.885628e-01 2.627187e+00 7.135552e-01 1.792124e-01 4.145754e-01 2.994441e-01 -9.951768e-02 6.767105e-01 -6.986581e-02 -2.803861e-01 -2.347363e-01 1.350780e-01 -1.153326e-01 -2.608918e-01 -6.498443e-01
<VARIANCE> 39
 5.637497e+01 4.228347e+01 5.002907e+01 5.393443e+01 4.824752e+01 6.826637e+01 7.271712e+01 5.170756e+01 8.396467e+01 4.061305e+01 5.364180e+01 5.136082e+01 1.057431e+02 4.999609e+00 4.333577e+00 5.600122e+00 5.345122e+00 6.268988e+00 7.467515e+00 7.479165e+00 7.627702e+00 6.197419e+00 6.438926e+00 5.328289e+00 4.841613e+00 4.875771e+00 9.597866e-01 6.689507e-01 7.193307e-01 9.208860e-01 8.490543e-01 1.315533e+00 1.149257e+00 1.018713e+00 1.086270e+00 8.764733e-01 8.551386e-01 6.809996e-01 6.769474e-01
<GCONST> 1.457219e+02
<TRANSP> 5
 0.000000e+00 1.000000e+00 0.000000e+00 0.000000e+00 0.000000e+00
 0.000000e+00 5.892960e-01 4.107039e-01 0.000000e+00 0.000000e+00
 0.000000e+00 0.000000e+00 3.836729e-01 6.163272e-01 0.000000e+00
 0.000000e+00 0.000000e+00 0.000000e+00 4.253429e-01 5.746571e-01
 0.000000e+00 0.000000e+00 0.000000e+00 0.000000e+00 0.000000e+00
<ENDHMM>
~h "u"
<BEGINHMM>
<NUMSTATES> 5
<STATE> 2
<MEAN> 39
 2.631270e-01 1.584944e+00 -3.313648e+00 -9.599303e+00 -9.657828e+00 -1.608540e+00 -1.451578e+01 -7.633657e+00 -7.504157e+00 1.535575e+00 1.310624e+00 -2.527685e+00 6.477919e+01 1.168113e+00 4.016046e-01 -2.170320e-01 -1.329766e+00 -7.460787e-01 1.266736e+00 -8.822812e-01 -8.983294e-01 -1.008209e+00 4.396448e-01 8.362194e-01 -8.687811e-02 3.040758e-01 -4.319344e-01 -3.640776e-02 2.445769e-01 5.706533e-01 4.094971e-01 -5.554055e-02 5.086729e-01 2.968315e-01 1.423889e-01 -1.789955e-01 -3.065084e-01 6.214833e-03 -4.194069e-01
<VARIANCE> 39
 3.809081e+01 4.682156e+01 3.545364e+01 7.598323e+01 5.406405e+01 6.453204e+01 9.411369e+01 8.722645e+01 9.964763e+01 7.208288e+01 6.342638e+01 6.013728e+01 8.993970e+01 2.255087e+00 2.474389e+00 2.902141e+00 4.996387e+00 4.375114e+00 5.532066e+00 5.527708e+00 6.166346e+00 5.160749e+00 5.484684e+00 3.921207e+00 3.495598e+00 2.285220e+00 3.413998e-01 4.282649e-01 4.699312e-01 9.053510e-01 7.035392e-01 8.741845e-01 1.061989e+00 1.167468e+00 9.536824e-01 9.893019e-01 7.654808e-01 7.315345e-01 3.063517e-01
<GCONST> 1.388843e+02
<STATE> 3
<MEAN> 39
 1.524532e+00 3.205187e+00 -4.256934e+00 -1.311677e+01 -8.672576e+00 1.943353e+00 -1.442407e+01 -7.024118e+00 -1.200686e+01 2.038692e+00 2.004608e+00 -8.379598e-01 6.412581e+01 -9.012745e-02 -4.537401e-02 2.525227e-01 7.618121e-01 3.090692e-01 -9.182531e-02 3.498933e-01 1.895567e-02 3.135589e-01 -6.899609e-02 -3.330255e-01 -1.254745e-01 -5.337160e-01 -2.357202e-01 -9.374192e-02 1.795209e-01 5.696524e-01 1.857378e-01 -3.305561e-01 2.306259e-01 1.091229e-01 3.339203e-01 -1.348091e-01 -2.718039e-01 -4.802833e-02 -1.863472e-01
<VARIANCE> 39
 2.579652e+01 5.085733e+01 2.778434e+01 6.723659e+01 5.198345e+01 6.223446e+01 8.927343e+01 8.350360e+01 1.121179e+02 9.587447e+01 7.399658e+01 6.722538e+01 5.715751e+01 6.519038e-01 1.877220e+00 1.532579e+00 3.644656e+00 2.758204e+00 3.221949e+00 4.157491e+00 3.909849e+00 4.565060e+00 4.374164e+00 3.509597e+00 3.169620e+00 1.676390e+00 1.553157e-01 2.327893e-01 3.010374e-01 5.648798e-01 5.040556e-01 6.510387e-01 6.800218e-01 8.592418e-01 7.857149e-01 8.170717e-01 6.882345e-01 5.847017e-01 1.625052e-01
<GCONST> 1.281294e+02
<STATE> 4
<MEAN> 39
 3.574496e-01 5.060520e-01 6.649731e-01 -3.344750e+00 -9.090732e+00 -1.703732e+00 -1.331671e+01 -6.094531e+00 -7.719809e+00 -3.254477e-01 -4.845471e-01 -2.869808e+00 5.966852e+01 -5.952503e-01 7.589938e-02 7.472346e-01 1.495456e+00 5.306469e-01 -6.634502e-01 6.653764e-01 2.158425e-01 6.173813e-01 -5.286694e-01 -7.068865e-01 -5.395208e-02 -8.699675e-01 -1.790421e-01 7.838273e-02 -5.595180e-02 -1.553843e-01 1.161848e-01 5.932495e-02 1.207820e-01 1.438419e-01 -1.083411e-01 -2.201455e-02 1.477836e-02 1.123576e-01 -8.299464e-03
<VARIANCE> 39
 4.315380e+01 7.627670e+01 8.349191e+01 7.646471e+01 8.042175e+01 7.725272e+01 9.964916e+01 9.639918e+01 8.279465e+01 8.472059e+01 6.829615e+01 5.676799e+01 9.730315e+01 1.480871e+00 3.947607e+00 4.027648e+00 5.511840e+00 5.224770e+00 5.666267e+00 5.839656e+00 6.647679e+00 5.528650e+00 5.052389e+00 4.778910e+00 3.681690e+00 2.685399e+00 2.767559e-01 6.882004e-01 6.732212e-01 9.108059e-01 9.395386e-01 9.840942e-01 1.233039e+00 1.215535e+00 9.841351e-01 1.046334e+00 8.368732e-01 7.286064e-01 4.482895e-01
<GCONST> 1.441479e+02
<TRANSP> 5
 0.000000e+00 1.000000e+00 0.000000e+00 0.000000e+00 0.000000e+00
 0.000000e+00 3.902863e-01 6.097137e-01 0.000000e+00 0.000000e+00
 0.000000e+00 0.000000e+00 6.919405e-01 3.080595e-01 0.000000e+00
 0.000000e+00 0.000000e+00 0.000000e+00 5.619630e-01 4.380371e-01
 0.000000e+00 0.000000e+00 0.000000e+00 0.000000e+00 0.000000e+00
<ENDHMM>
~h "v"
<BEGINHMM>
<NUMSTATES> 5
<STATE> 2
<MEAN> 39
 -1.293343e+01 1.444329e+00 2.975293e+00 5.143197e+00 -4.477274e+00 -6.770762e+00 -8.311216e+00 -4.486713e-01 -3.201904e+00 1.491139e+00 -4.055601e-01 -3.750055e-01 6.085314e+01 -8.956332e-01 -4.716425e-01 -1.217479e+00 -4.542556e-01 1.128120e+00 1.348571e+00 5.142217e-01 6.265846e-01 8.020186e-01 4.748154e-01 1.040430e-01 8.601367e-03 -2.474496e-01 6.813080e-01 -3.074291e-01 -1.372279e-01 -6.721535e-01 -5.228220e-01 -1.560262e-01 -2.834138e-02 -2.744237e-01 -2.103790e-01 1.033320e-02 1.920591e-01 -3.652376e-01 4.335574e-01
<VARIANCE> 39
 3.936489e+01 2.052804e+01 2.617592e+01 2.490290e+01 4.697575e+01 3.616874e+01 2.985183e+01 3.560224e+01 4.857072e+01 3.553302e+01 4.654369e+01 1.994753e+01 7.267951e+01 2.324035e+00 1.659351e+00 2.131673e+00 1.880943e+00 3.434209e+00 3.740061e+00 3.910586e+00 3.239440e+00 2.799752e+00 2.861851e+00 3.272687e+00 2.255815e+00 1.334669e+00 4.859349e-01 4.191178e-01 6.607126e-01 5.081110e-01 5.873801e-01 6.618768e-01 9.884955e-01 6.449178e-01 6.432899e-01 5.644254e-01 6.853627e-01 5.099378e-01 2.586887e-01
<GCONST> 1.225362e+02
<STATE> 3
<MEAN> 39
 -8.593186e+00 -1.598999e+00 -3.361146e+00 -9.507067e-01 -4.353352e+00 -2.616448e+00 -6.159739e+00 -1.970662e+00 -2.485523e+00 2.080797e+00 5.132119e-01 -3.592081e+00 6.079525e+01 3.402595e+00 -1.549251e+00 -2.765009e+00 -3.733583e+00 -5.400328e-01 8.096473e-01 -8.634760e-01 -1.460471e+00 2.059894e-01 3.890156e-01 5.146446e-01 -2.261464e+00 2.058859e+00 3.130417e-01 -1.428741e-01 1.692436e-01 -3.508345e-01 -2.887732e-01 -4.964584e-01 -5.218981e-01 -5.780838e-02 -6.113271e-02 2.266421e-01 -1.036685e-01 -3.625842e-01 6.623614e-01
<VARIANCE> 39
 6.699405e+01 2.619125e+01 5.310305e+01 6.269431e+01 4.914503e+01 2.390210e+01 3.171557e+01 6.684619e+01 5.284707e+01 3.908136e+01 4.431652e+01 3.806689e+01 8.404175e+01 3.774865e+00 3.322506e+00 4.670148e+00 5.758588e+00 4.542089e+00 4.037535e+00 4.547397e+00 4.410491e+00 3.313933e+00 4.310197e+00 3.929379e+00 4.457107e+00 3.013300e+00 8.922648e-01 5.028161e-01 7.542827e-01 1.045283e+00 5.271292e-01 4.579300e-01 7.307688e-01 9.400166e-01 6.889264e-01 7.145582e-01 7.786565e-01 4.983549e-01 3.202054e-01
<GCONST> 1.342042e+02
<STATE> 4
<MEAN> 39
 -6.786932e+00 1.027970e+00 3.066577e+00 -5.354611e+00 -3.737185e+00 -8.181322e+00 -1.521184e+01 -2.766061e+00 -8.501892e+00 6.541450e+00 -1.280678e+01 6.605965e+00 6.192140e+01 3.611427e-01 -3.456749e-01 -2.178418e-01 -6.601105e-01 1.668434e-01 -1.478647e-02 -1.421224e-01 2.998962e-02 1.225677e-01 3.273933e-01 -1.315946e-01 -1.103312e-01 5.293815e-01 -1.130870e-01 4.882024e-02 1.310657e-01 1.099436e-01 1.382422e-02 -4.241662e-02 9.281200e-02 1.031830e-01 3.842953e-03 -6.214730e-03 -2.102710e-02 5.230347e-02 -3.209728e-02
<VARIANCE> 39
 8.216420e+01 9.869339e+01 9.333810e+01 1.111624e+02 8.599070e+01 1.023437e+02 6.931209e+01 7.729062e+01 8.648204e+01 1.159823e+02 8.562464e+01 1.035699e+02 7.201883e+01 5.441123e+00 5.880177e+00 5.308859e+00 1.097279e+01 6.243178e+00 7.288393e+00 6.795319e+00 7.895748e+00 6.629525e+00 1.420451e+01 5.925212e+00 7.398595e+00 6.153723e+00 9.927847e-01 8.888234e-01 9.930136e-01 1.796365e+00 1.083540e+00 1.443704e+00 1.428012e+00 1.573767e+00 1.183678e+00 2.793038e+00 1.093720e+00 1.177128e+00 8.036187e-01
<GCONST> 1.585885e+02
<TRANSP> 5
 0.000000e+00 1.000000e+00 0.000000e+00 0.000000e+00 0.000000e+00
 0.000000e+00 7.291003e-01 2.708997e-01 0.000000e+00 0.000000e+00
 0.000000e+00 0.000000e+00 5.571268e-01 4.428733e-01 0.000000e+00
 0.000000e+00 0.000000e+00 0.000000e+00 8.941051e-01 1.058950e-01
 0.000000e+00 0.000000e+00 0.000000e+00 0.000000e+00 0.000000e+00
<ENDHMM>
~h "w"
<BEGINHMM>
<NUMSTATES> 5
<STATE> 2
<MEAN> 39
 -2.196409e+00 1.880455e+00 -3.542137e+00 -5.448268e+00 -7.158779e+00 -4.658599e+00 -9.563342e+00 -6.640180e+00 -6.689367e+00 2.261264e-01 -8.547231e-01 -2.533422e+00 5.909258e+01 2.161417e+00 8.858825e-01 -2.231663e-01 -1.270272e+00 -9.340734e-01 3.567436e-01 -3.080219e-01 -1.502806e+00 -9.317365e-01 2.358845e-01 5.884926e-01 4.138097e-01 7.429264e-01 -1.497992e-01 -1.775999e-01 1.021476e-01 -3.034790e-01 -2.582967e-01 1.355121e-01 1.884710e-01 3.896885e-01 1.482095e-02 -4.901545e-02 5.644789e-02 1.579638e-01 2.931331e-01
<VARIANCE> 39
 4.805469e+01 6.123477e+01 4.861262e+01 1.238779e+02 5.849914e+01 7.819678e+01 7.418372e+01 5.553849e+01 5.088011e+01 7.081541e+01 5.931193e+01 4.749558e+01 1.627356e+02 3.546494e+00 2.337870e+00 2.495008e+00 3.246995e+00 3.223428e+00 3.517364e+00 4.612494e+00 2.845909e+00 2.527162e+00 3.455071e+00 3.303782e+00 3.355431e+00 3.303460e+00 6.077975e-01 6.473153e-01 4.872113e-01 6.164846e-01 5.992259e-01 4.855662e-01 4.659269e-01 7.053805e-01 7.108570e-01 7.039055e-01 5.216026e-01 5.951549e-01 3.115529e-01
<GCONST> 1.338107e+02
<STATE> 3
<MEAN> 39
 2.531412e+00 2.401588e+00 -4.425184e+00 -1.597142e+01 -8.368850e+00 -1.175997e+00 -1.108310e+01 -8.227884e+00 -7.988020e+00 2.385194e+00 1.716820e+00 8.174287e-01 6.462019e+01 5.916267e-01 -4.432166e-01 -3.933506e-01 -1.231336e+00 -6.971353e-01 7.918257e-01 -5.970605e-02 -3.462141e-02 -3.593541e-01 5.928694e-01 1.000046e+00 2.087321e-01 6.979288e-01 -5.779985e-01 -4.466830e-01 1.573856e-01 5.096307e-01 2.746518e-01 -1.453515e-01 1.689765e-01 5.004575e-01 2.827555e-01 4.081970e-02 -2.551455e-01 -3.338006e-01 4.152655e-02
<VARIANCE> 39
 3.011777e+01 4.228322e+01 3.891983e+01 2.004730e+02 7.364979e+01 8.642794e+01 7.331949e+01 7.687907e+01 4.530198e+01 6.749404e+01 8.144389e+01 6.115067e+01 5.825528e+01 1.569674e+00 2.621117e+00 1.631364e+00 4.619989e+00 3.177724e+00 3.703235e+00 3.482121e+00 3.304532e+00 3.151833e+00 4.385856e+00 3.404099e+00 3.859175e+00 2.276746e+00 2.918383e-01 3.940616e-01 4.119202e-01 6.412554e-01 6.465917e-01 8.750374e-01 4.914024e-01 8.922222e-01 7.055891e-01 5.960708e-01 9.011166e-01 8.732932e-01 2.797558e-01
<GCONST> 1.328875e+02
<STATE> 4
<MEAN> 39
 8.960726e-01 -4.920639e+00 -7.447354e+00 -1.829684e+01 -7.917083e+00 1.783400e+00 -1.101068e+01 -6.136442e+00 -7.228551e+00 4.417000e+00 -3.322777e-01 -3.106635e+00 6.911736e+01 -2.355010e-01 -4.973933e-01 1.467369e-01 2.269206e-01 3.952990e-01 -3.094117e-01 6.146023e-02 1.720788e-01 9.407553e-02 1.646076e-01 -5.007456e-01 -4.832969e-01 2.657108e-01 -1.174233e-01 5.788628e-02 1.032708e-01 1.694229e-01 1.413140e-01 -1.569159e-01 8.748907e-02 8.955530e-02 5.187905e-02 -1.030397e-01 -1.587189e-01 -2.185737e-02 -1.001257e-01
<VARIANCE> 39
 1.746621e+01 4.893752e+01 3.175295e+01 8.023618e+01 6.439806e+01 7.894655e+01 5.626003e+01 6.380198e+01 6.007282e+01 6.476871e+01 1.167421e+02 9.478349e+01 3.253371e+01 5.024201e-01 1.451582e+00 8.364381e-01 1.544925e+00 2.568406e+00 2.148830e+00 1.770511e+00 2.548100e+00 2.428336e+00 2.277448e+00 2.600296e+00 3.251774e+00 7.238142e-01 1.098377e-01 1.832987e-01 1.717405e-01 1.987928e-01 2.942714e-01 3.553867e-01 3.338151e-01 3.355206e-01 2.728934e-01 3.344670e-01 4.604141e-01 4.449086e-01 9.884207e-02
<GCONST> 1.127049e+02
<TRANSP> 5
 0.000000e+00 1.000000e+00 0.000000e+00 0.000000e+00 0.000000e+00
 0.000000e+00 4.153551e-01 5.846448e-01 0.000000e+00 0.000000e+00
 0.000000e+00 0.000000e+00 4.837036e-01 5.162964e-01 0.000000e+00
 0.000000e+00 0.000000e+00 0.000000e+00 7.827765e-01 2.172235e-01
 0.000000e+00 0.000000e+00 0.000000e+00 0.000000e+00 0.000000e+00
<ENDHMM>
~h "y"
<BEGINHMM>
<NUMSTATES> 5
<STATE> 2
<MEAN> 39
 -6.455449e+00 -5.687791e-01 1.188540e+01 -6.387704e+00 -1.737007e+01 -1.061659e+01 -9.255310e+00 1.572643e-01 -1.136197e+01 5.953541e-01 2.533756e+00 -7.562437e-01 6.910250e+01 -1.254969e-02 -3.199843e-01 2.272579e-01 -2.109361e-01 -9.455177e-01 -5.492728e-01 3.299901e-01 4.802319e-01 -1.452619e-01 1.895744e-01 4.217846e-01 3.162371e-01 4.887206e-01 1.184063e-01 -2.293286e-01 -4.548377e-01 4.108269e-02 3.571427e-01 9.119567e-03 1.709611e-01 1.728414e-01 3.021961e-01 -6.205318e-02 -3.411558e-01 -1.272393e-01 -1.052877e-02
<VARIANCE> 39
 1.640233e+01 5.657224e+01 5.696830e+01 4.518125e+01 6.586432e+01 7.200915e+01 7.469134e+01 7.209683e+01 7.996972e+01 6.851877e+01 8.392683e+01 1.032205e+02 5.956534e+01 6.424060e-01 2.431229e+00 3.652704e+00 1.480940e+00 3.241367e+00 2.452459e+00 3.843824e+00 3.536508e+00 3.317568e+00 2.683205e+00 2.748932e+00 2.335955e+00 1.211661e+00 8.637808e-02 2.232862e-01 3.325491e-01 2.830786e-01 6.015560e-01 4.134249e-01 5.435982e-01 5.241528e-01 4.600967e-01 4.955921e-01 4.738596e-01 4.547063e-01 1.087538e-01
<GCONST> 1.220460e+02
<STATE> 3
<MEAN> 39
 -4.804899e+00 -5.998724e+00 5.239577e+00 -8.368263e+00 -1.363713e+01 -1.487758e+01 -3.167948e+00 5.564270e+00 -5.404607e+00 -2.467975e-02 -2.687372e+00 1.100310e+00 7.175091e+01 2.690929e-01 -5.571904e-01 -1.010952e+00 8.119680e-04 1.258310e+00 9.927408e-02 4.902226e-01 3.612363e-01 7.866804e-01 -4.897547e-01 -1.068573e+00 -4.449924e-01 -5.375440e-02 5.162449e-03 1.239813e-01 1.408145e-02 4.221404e-02 2.620626e-01 1.926104e-01 -1.694005e-01 -2.539861e-01 -2.730761e-02 -4.995515e-03 -8.856348e-02 -9.958561e-02 -1.370692e-01
<VARIANCE> 39
 1.455548e+01 3.772538e+01 3.523118e+01 5.006583e+01 1.040049e+02 6.009318e+01 7.926474e+01 8.175351e+01 7.253511e+01 4.271554e+01 1.066555e+02 1.213652e+02 5.182449e+01 3.335844e-01 1.047008e+00 1.636697e+00 9.048297e-01 2.079147e+00 1.539033e+00 1.859867e+00 2.352316e+00 2.288298e+00 1.931324e+00 2.364803e+00 1.807284e+00 3.561653e-01 5.292603e-02 1.225872e-01 1.644955e-01 1.753811e-01 3.496936e-01 2.721852e-01 3.115584e-01 3.924918e-01 2.865806e-01 3.234580e-01 3.440052e-01 2.881910e-01 5.113002e-02
<GCONST> 1.076186e+02
<STATE> 4
<MEAN> 39
 -4.356704e+00 -6.409295e+00 2.255856e+00 -5.394818e+00 -9.816530e+00 -9.908171e+00 -4.929812e+00 3.287464e+00 -3.981711e+00 -2.197245e+00 -4.126273e+00 -1.678038e+00 6.726430e+01 2.546644e-01 -2.100697e-01 -1.102080e+00 1.807466e-01 1.754169e+00 6.152269e-01 -9.933848e-02 -4.775881e-01 6.630594e-01 -1.749466e-01 -1.089574e+00 -6.391432e-01 -4.005810e-01 1.254949e-02 2.628598e-01 1.503106e-01 7.593977e-02 1.103422e-02 1.991062e-01 -2.288814e-01 -3.774789e-01 -9.684065e-02 2.120516e-01 1.128621e-01 -6.233603e-03 -2.613133e-01
<VARIANCE> 39
 3.970756e+01 5.058297e+01 4.583175e+01 5.828175e+01 1.050688e+02 9.057939e+01 7.849016e+01 9.190713e+01 7.638374e+01 5.780813e+01 9.682894e+01 1.261119e+02 1.463376e+02 8.709088e-01 1.799399e+00 3.193235e+00 2.004801e+00 4.283470e+00 2.590588e+00 3.034589e+00 3.460311e+00 3.338843e+00 3.005094e+00 3.589212e+00 3.218023e+00 1.520409e+00 1.246403e-01 3.657671e-01 3.323073e-01 3.725512e-01 6.122904e-01 5.237404e-01 5.919390e-01 8.182392e-01 6.136858e-01 4.852336e-01 4.845036e-01 4.987423e-01 2.112372e-01
<GCONST> 1.290158e+02
<TRANSP> 5
 0.000000e+00 1.000000e+00 0.000000e+00 0.000000e+00 0.000000e+00
 0.000000e+00 7.691898e-01 2.308103e-01 0.000000e+00 0.000000e+00
 0.000000e+00 0.000000e+00 7.429374e-01 2.570627e-01 0.000000e+00
 0.000000e+00 0.000000e+00 0.000000e+00 2.842627e-01 7.157372e-01
 0.000000e+00 0.000000e+00 0.000000e+00 0.000000e+00 0.000000e+00
<ENDHMM>
~h "ex"
<BEGINHMM>
<NUMSTATES> 5
<STATE> 2
<MEAN> 39
 -5.428068e+00 -6.893146e+00 4.357948e+00 -5.026838e+00 -1.262905e+01 -1.208252e+01 -4.573627e+00 3.477094e+00 -6.210301e+00 -4.234677e-01 -1.018727e+00 -1.990096e+00 6.721719e+01 -6.018893e-02 -3.584189e-01 8.860413e-01 -5.543086e-01 -1.342179e+00 -8.064576e-01 6.475670e-01 6.494341e-01 -1.009954e+00 -7.990003e-02 5.927287e-01 6.776293e-02 1.322603e+00 -4.237555e-03 3.563513e-01 -1.044415e-01 3.110923e-01 2.223567e-01 3.129038e-01 -1.909000e-02 -4.331245e-01 -2.819194e-02 1.884522e-01 -6.423677e-02 -9.467381e-02 -3.952720e-01
<VARIANCE> 39
 3.679847e+01 4.976073e+01 5.583312e+01 4.750294e+01 8.199731e+01 8.898697e+01 8.968378e+01 8.865231e+01 8.861057e+01 5.715429e+01 6.162545e+01 8.601507e+01 1.248895e+02 1.920984e+00 2.908998e+00 2.672971e+00 2.929071e+00 4.733899e+00 5.297929e+00 5.575881e+00 5.211373e+00 4.302302e+00 4.009663e+00 3.638624e+00 3.562005e+00 3.902525e+00 3.049782e-01 5.036256e-01 4.151344e-01 6.074237e-01 8.231466e-01 8.983852e-01 8.385715e-01 1.003590e+00 7.835823e-01 7.200528e-01 6.626499e-01 6.272666e-01 6.787794e-01
<GCONST> 1.384605e+02
<STATE> 3
<MEAN> 39
 -5.953067e+00 -4.854048e+00 8.968741e+00 -5.629806e+00 -1.861296e+01 -1.407672e+01 -4.594807e+00 2.631612e+00 -1.201305e+01 2.666815e+00 9.066929e-01 -6.043423e-01 7.132821e+01 -3.203418e-02 5.044559e-01 1.374705e-01 5.446641e-01 4.026185e-01 2.558362e-01 3.530895e-01 -5.740086e-01 -4.384977e-02 -3.534576e-02 -1.370263e-01 -3.774516e-02 -8.091029e-01 2.234394e-02 8.053007e-02 -1.473648e-01 1.657020e-01 3.375281e-01 1.711110e-01 -2.734017e-02 -9.171167e-02 2.225087e-01 -4.344203e-02 -1.475007e-01 6.558513e-04 -3.005815e-01
<VARIANCE> 39
 1.288662e+01 4.163614e+01 5.132519e+01 3.314445e+01 6.570971e+01 6.245784e+01 7.644088e+01 1.021352e+02 7.308990e+01 6.713255e+01 8.003318e+01 1.093731e+02 5.406023e+01 5.153660e-01 9.943284e-01 1.557066e+00 1.428456e+00 2.712875e+00 1.868440e+00 2.502144e+00 2.374828e+00 3.126421e+00 2.187868e+00 2.178989e+00 2.389986e+00 1.462104e+00 1.015435e-01 1.587176e-01 2.630161e-01 2.355155e-01 4.043840e-01 3.670726e-01 4.796273e-01 4.624820e-01 5.348192e-01 3.815158e-01 4.063388e-01 4.513101e-01 1.498071e-01
<GCONST> 1.162316e+02
<STATE> 4
<MEAN> 39
 -1.128531e+01 -1.151302e-01 1.050597e-01 2.043686e+00 -7.049536e+00 -3.388678e+00 -8.475442e-01 4.222841e-01 -3.730037e+00 -8.832171e-01 -9.798566e-01 -1.554214e+00 4.946125e+01 -1.098430e-01 2.045239e-01 -2.276763e-01 3.651429e-01 5.716667e-01 3.968211e-01 3.650682e-02 -8.100237e-02 3.348307e-01 -1.056659e-02 -1.601897e-01 1.026216e-01 -7.715598e-01 -1.662061e-02 -1.972493e-02 -1.546213e-02 -4.924425e-02 -4.520064e-02 -1.805260e-02 -8.694996e-02 3.415431e-02 -1.715953e-02 3.614488e-02 1.526203e-02 -3.001645e-03 6.510409e-02
<VARIANCE> 39
 4.268435e+01 2.901496e+01 6.546793e+01 2.443054e+01 4.035983e+01 6.466773e+01 5.556620e+01 4.561684e+01 4.441571e+01 4.420628e+01 3.059742e+01 2.793583e+01 2.455674e+02 5.761672e-01 8.584204e-01 1.042174e+00 1.477988e+00 2.058606e+00 2.135509e+00 2.324821e+00 2.373287e+00 2.587602e+00 2.110022e+00 2.295326e+00 2.145355e+00 1.089961e+00 1.083125e-01 1.506492e-01 1.824812e-01 2.391248e-01 2.978840e-01 3.581825e-01 3.726859e-01 4.187845e-01 4.718608e-01 4.316047e-01 3.873969e-01 3.631344e-01 8.936322e-02
<GCONST> 1.107022e+02
<TRANSP> 5
 0.000000e+00 1.000000e+00 0.000000e+00 0.000000e+00 0.000000e+00
 0.000000e+00 6.521167e-01 3.478833e-01 0.000000e+00 0.000000e+00
 0.000000e+00 0.000000e+00 8.082557e-01 1.917443e-01 0.000000e+00
 0.000000e+00 0.000000e+00 0.000000e+00 7.791795e-01 2.208205e-01
 0.000000e+00 0.000000e+00 0.000000e+00 0.000000e+00 0.000000e+00
<ENDHMM>
~h "ng"
<BEGINHMM>
<NUMSTATES> 5
<STATE> 2
<MEAN> 39
 8.610969e-01 -2.306240e-01 1.873289e+00 -1.206933e+00 -7.730896e+00 -2.228247e+00 -7.314720e+00 -6.633325e+00 -4.176383e+00 -2.223854e+00 -6.353545e+00 -6.134267e+00 6.301206e+01 1.362910e-01 5.164466e-01 4.526291e-01 8.355712e-01 2.019425e-02 -7.106286e-03 4.008564e-03 -6.748496e-01 -7.129411e-02 1.433308e-01 -4.540164e-01 3.367988e-01 -8.178086e-01 -1.531783e-01 -2.790515e-02 -5.801867e-02 -2.101111e-01 -2.262956e-02 -4.520508e-02 3.709819e-02 1.982848e-01 -8.775029e-02 1.446715e-02 1.453053e-01 -1.872911e-02 1.158311e-01
<VARIANCE> 39
 2.715349e+01 5.368839e+01 3.966825e+01 4.111308e+01 4.802580e+01 5.270127e+01 4.680747e+01 5.212569e+01 6.527985e+01 6.129353e+01 5.574337e+01 3.968448e+01 5.086110e+01 5.362768e-01 8.949336e-01 1.732900e+00 1.909964e+00 2.277206e+00 2.655754e+00 2.594569e+00 3.931786e+00 2.713760e+00 2.297264e+00 2.462325e+00 2.140450e+00 6.207154e-01 7.037295e-02 1.445969e-01 2.216334e-01 2.914692e-01 3.489853e-01 3.676848e-01 4.166257e-01 5.411795e-01 4.481771e-01 3.851199e-01 3.972930e-01 4.121960e-01 9.880963e-02
<GCONST> 1.127695e+02
<STATE> 3
<MEAN> 39
 -7.002525e-01 -7.351307e-01 5.789882e+00 -7.989339e-01 -6.836337e+00 -8.575953e-01 -1.083979e+01 -4.436454e+00 -5.694311e+00 3.071900e+00 -1.385274e+01 -9.166060e-01 6.141113e+01 -1.200098e-01 6.865941e-01 8.212810e-02 5.905039e-01 -8.992676e-02 1.452668e-01 3.210054e-02 -2.787829e-01 -2.299291e-01 7.649530e-02 -1.499320e-01 2.135805e-01 -6.770285e-01 -2.563837e-01 -5.917130e-02 -3.435338e-01 -3.555652e-01 2.094309e-01 -4.139486e-02 1.534943e-01 1.990395e-01 -7.990526e-02 -1.694367e-01 4.385577e-01 -1.245240e-01 2.124581e-01
<VARIANCE> 39
 2.509386e+01 4.941386e+01 5.105045e+01 5.099641e+01 9.120172e+01 5.792417e+01 9.478989e+01 7.987653e+01 7.080245e+01 9.514705e+01 1.454182e+02 9.048014e+01 6.644991e+01 6.445120e-01 1.411142e+00 1.777801e+00 2.320528e+00 3.280631e+00 2.515959e+00 3.198304e+00 3.649860e+00 2.917857e+00 2.686901e+00 3.217069e+00 2.812013e+00 9.081101e-01 1.622048e-01 3.322385e-01 4.522674e-01 5.014369e-01 6.596363e-01 6.332051e-01 6.532570e-01 1.051184e+00 7.513587e-01 6.549393e-01 7.997832e-01 6.148774e-01 2.048256e-01
<GCONST> 1.280632e+02
<STATE> 4
<MEAN> 39
 -1.488870e+00 1.312244e+00 2.993416e+00 -1.512699e-01 -5.605758e+00 -1.741712e+00 -8.475196e+00 -6.842919e+00 -5.719828e+00 5.731622e-01 -9.441802e+00 -3.231449e+00 5.945163e+01 -8.082679e-01 1.326733e-01 -8.482925e-01 -5.662028e-01 1.026877e+00 -2.311214e-02 4.215517e-01 3.137460e-01 -3.309905e-01 -4.355531e-01 8.966167e-01 -2.003543e-01 -1.356262e-02 -2.454226e-01 -3.941800e-01 -1.675228e-01 -4.193524e-01 8.396631e-02 -1.346325e-01 -3.290118e-02 4.292648e-01 -1.123060e-02 -6.599010e-02 2.478829e-01 4.677228e-02 4.286422e-01
<VARIANCE> 39
 3.362921e+01 5.332843e+01 5.574891e+01 5.220240e+01 9.197103e+01 6.150630e+01 7.062867e+01 6.192279e+01 7.922658e+01 9.040231e+01 1.053296e+02 6.996393e+01 9.071883e+01 1.329718e+00 3.129661e+00 3.651555e+00 4.230875e+00 5.756034e+00 4.452906e+00 4.351669e+00 6.569670e+00 5.231453e+00 4.926835e+00 5.810915e+00 3.649164e+00 2.796005e+00 3.346643e-01 4.695827e-01 6.940314e-01 5.932835e-01 1.102152e+00 8.473511e-01 8.083314e-01 1.152189e+00 9.066090e-01 8.536370e-01 9.697589e-01 5.831323e-01 3.087539e-01
<GCONST> 1.396716e+02
<TRANSP> 5
 0.000000e+00 1.000000e+00 0.000000e+00 0.000000e+00 0.000000e+00
 0.000000e+00 6.551669e-01 3.448332e-01 0.000000e+00 0.000000e+00
 0.000000e+00 0.000000e+00 4.326442e-01 5.673558e-01 0.000000e+00
 0.000000e+00 0.000000e+00 0.000000e+00 3.928193e-01 6.071807e-01
 0.000000e+00 0.000000e+00 0.000000e+00 0.000000e+00 0.000000e+00
<ENDHMM>
~h "ny"
<BEGINHMM>
<NUMSTATES> 5
<STATE> 2
<MEAN> 39
 -4.486106e+00 4.010889e+00 8.704973e+00 -5.311934e+00 -7.727577e+00 -8.015766e+00 -9.725623e+00 -2.219677e+00 -9.233426e+00 -1.009994e+00 -3.430767e+00 -1.948580e+00 6.491174e+01 -9.102601e-01 -9.595625e-01 7.272496e-01 -1.309733e+00 -1.282122e+00 3.688852e-01 9.529244e-01 7.778220e-01 -7.299305e-01 -1.489197e-01 1.008074e+00 -2.900635e-01 1.337860e+00 8.926142e-02 -5.745306e-01 -2.453166e-01 1.775432e-01 -3.140561e-01 6.412657e-03 3.083882e-01 2.093614e-01 1.591825e-01 -1.347526e-01 -1.261465e-01 -1.498023e-02 2.067245e-01
<VARIANCE> 39
 1.984189e+01 4.161095e+01 3.822916e+01 5.239792e+01 5.289095e+01 5.933117e+01 8.131791e+01 5.230149e+01 7.488869e+01 6.998844e+01 9.343810e+01 9.399457e+01 5.187640e+01 1.438702e+00 3.426975e+00 2.197444e+00 3.679490e+00 5.157313e+00 4.148297e+00 5.404046e+00 4.516413e+00 3.582543e+00 3.016912e+00 3.213558e+00 3.671635e+00 1.516674e+00 3.551904e-01 3.745709e-01 4.905341e-01 8.601177e-01 9.810628e-01 7.816558e-01 8.320989e-01 7.399312e-01 7.679191e-01 6.007552e-01 7.573703e-01 6.273133e-01 3.091295e-01
<GCONST> 1.328823e+02
<STATE> 3
<MEAN> 39
 -5.360283e+00 -4.457472e+00 7.695483e+00 -5.301886e+00 -1.272537e+01 -7.098495e+00 -3.086851e+00 2.633480e+00 -8.809483e+00 -5.261824e+00 -2.072055e+00 -3.330360e+00 7.032404e+01 1.672283e-01 -1.270844e+00 -9.865017e-01 3.227000e-01 2.290361e-01 -8.299488e-02 5.559184e-01 8.839668e-01 5.388860e-01 -9.024854e-01 -8.078424e-01 8.527402e-02 4.986976e-01 9.664169e-02 2.631905e-01 -2.050613e-01 1.019154e-01 5.020444e-01 -1.970129e-02 -3.036633e-01 -1.851076e-01 1.972356e-01 1.010781e-01 -2.563912e-01 3.103198e-03 -2.821410e-01
<VARIANCE> 39
 1.497119e+01 4.924244e+01 4.501011e+01 3.721018e+01 8.242865e+01 5.001712e+01 9.087389e+01 9.868178e+01 9.714601e+01 6.812415e+01 9.767896e+01 1.090870e+02 5.692178e+01 3.725922e-01 1.495378e+00 1.283007e+00 1.228903e+00 2.392984e+00 1.913651e+00 2.106109e+00 2.492185e+00 1.869452e+00 1.931459e+00 1.791400e+00 2.006403e+00 6.091165e-01 1.023208e-01 1.432677e-01 2.380964e-01 2.338618e-01 4.310658e-01 3.235295e-01 3.901342e-01 4.120958e-01 3.389065e-01 3.437144e-01 3.609481e-01 3.408852e-01 8.589070e-02
<GCONST> 1.127514e+02
<STATE> 4
<MEAN> 39
 -5.742891e+00 -6.713606e+00 4.367061e+00 -4.063805e+00 -6.044311e+00 -6.606525e+00 -3.900263e+00 4.013631e+00 -6.776478e+00 -8.452371e+00 -6.639479e+00 1.144841e+00 6.511464e+01 1.634636e-01 -2.694920e-01 -1.145836e+00 4.211479e-01 7.493007e-01 1.122062e-01 -2.303067e-01 -1.981451e-01 9.871532e-01 3.318231e-02 -4.041337e-01 -5.336165e-01 -6.784800e-01 4.549140e-02 4.074908e-01 2.686483e-02 -1.172796e-02 1.017859e-01 7.644705e-02 -1.650194e-01 -3.802055e-01 3.285967e-04 3.285437e-01 5.494245e-02 -1.688950e-01 -3.476987e-01
<VARIANCE> 39
 3.182487e+01 4.883308e+01 4.758712e+01 6.741887e+01 1.511661e+02 6.864533e+01 9.636052e+01 9.759878e+01 9.146344e+01 9.449545e+01 9.964684e+01 1.425720e+02 1.482837e+02 8.014141e-01 2.050847e+00 2.510043e+00 3.189273e+00 4.254504e+00 3.308600e+00 4.825258e+00 4.659329e+00 4.401285e+00 4.919221e+00 4.157013e+00 3.258906e+00 1.480085e+00 1.484790e-01 4.034669e-01 3.188866e-01 6.125926e-01 7.240337e-01 6.470386e-01 9.705319e-01 1.044011e+00 7.917813e-01 7.396604e-01 5.877441e-01 5.649970e-01 2.772309e-01
<GCONST> 1.354149e+02
<TRANSP> 5
 0.000000e+00 1.000000e+00 0.000000e+00 0.000000e+00 0.000000e+00
 0.000000e+00 7.186045e-01 2.813955e-01 0.000000e+00 0.000000e+00
 0.000000e+00 0.000000e+00 7.268741e-01 2.731259e-01 0.000000e+00
 0.000000e+00 0.000000e+00 0.000000e+00 3.851361e-01 6.148639e-01
 0.000000e+00 0.000000e+00 0.000000e+00 0.000000e+00 0.000000e+00
<ENDHMM>
~h "sp"
<BEGINHMM>
<NUMSTATES> 3
<STATE> 2
~s "silst"
<TRANSP> 3
 0.000000e+00 1.483294e-01 8.516706e-01
 0.000000e+00 9.069805e-01 9.301955e-02
 0.000000e+00 0.000000e+00 0.000000e+00
<ENDHMM>
~h "sy"
<BEGINHMM>
<NUMSTATES> 5
<STATE> 2
<MEAN> 39
 -1.532787e+01 8.801111e+00 8.347602e+00 -4.942922e+00 -5.783523e+00 -9.536865e+00 -6.785477e+00 -1.789650e+00 -8.031937e+00 -2.692248e+00 3.422912e+00 -2.628935e+00 6.732687e+01 -5.984800e-01 3.462082e-01 7.960359e-01 2.001327e-01 -2.640779e-01 8.750100e-02 4.374269e-01 1.862775e-02 -4.570464e-01 -7.112473e-02 2.113266e-01 -1.801372e-02 -2.084289e-01 2.195799e-01 -1.302363e-01 -5.296312e-02 -6.772956e-02 -5.025164e-02 3.616873e-02 -6.341128e-02 -1.845975e-01 8.896133e-02 1.413983e-01 -5.691184e-02 -2.532116e-02 -2.403546e-02
<VARIANCE> 39
 8.040842e+01 5.529075e+01 6.655389e+01 2.240009e+01 1.078167e+02 3.764255e+01 3.669292e+01 8.644138e+01 4.634725e+01 5.947307e+01 3.604760e+01 6.173511e+01 2.741698e+01 6.886404e+00 1.708303e+00 1.951329e+00 1.008753e+00 4.483740e+00 3.238966e+00 2.548182e+00 4.694737e+00 2.798300e+00 2.233855e+00 3.078912e+00 1.813249e+00 4.544449e-01 6.612872e-01 2.486387e-01 2.636918e-01 2.390565e-01 6.279847e-01 5.846249e-01 2.952393e-01 6.460971e-01 4.708526e-01 4.565562e-01 7.025768e-01 3.590745e-01 8.649614e-02
<GCONST> 1.211684e+02
<STATE> 3
<MEAN> 39
 -9.616501e+00 6.834201e+00 8.123326e+00 2.218361e-02 -4.540423e+00 -5.797375e+00 -4.052760e+00 -4.131033e+00 -5.795116e+00 -1.786623e+00 -1.346403e+00 -5.341990e+00 5.897504e+01 1.599475e-01 -5.310477e-01 -6.896173e-01 8.187193e-01 9.753257e-01 4.382488e-01 3.242449e-01 8.728494e-02 7.894154e-01 -3.550944e-01 -1.067573e+00 7.306099e-01 -1.049635e+00 2.366563e-02 -1.842432e-01 -1.001172e-01 -4.615605e-02 -3.192947e-01 -1.459936e-01 -2.029155e-01 -1.270402e-01 -2.062248e-01 -6.826800e-02 2.521933e-01 4.053622e-02 5.901964e-02
<VARIANCE> 39
 6.478168e+01 5.595065e+01 4.919695e+01 2.247582e+01 7.779595e+01 3.314810e+01 3.822091e+01 5.337288e+01 3.460856e+01 5.629665e+01 1.706134e+01 3.668941e+01 7.802311e+01 6.861056e-01 4.520827e-01 8.506637e-01 1.164203e+00 4.448246e+00 2.145251e+00 3.682624e+00 1.001320e+00 2.276905e+00 3.224936e+00 1.531002e+00 1.532445e+00 3.346087e-01 3.567448e-01 1.623384e-01 5.225657e-02 1.787752e-01 6.227497e-01 3.158678e-01 5.871691e-01 4.744430e-01 3.339733e-01 5.655587e-01 2.480843e-01 2.781847e-01 2.018164e-02
<GCONST> 1.061907e+02
<STATE> 4
<MEAN> 39
 -1.376096e+01 1.325982e+00 -9.555315e-01 1.283322e+00 -6.404351e+00 -4.409184e+00 -5.155206e+00 -2.986877e+00 -3.306149e+00 -1.063840e+00 -2.943253e+00 9.662815e-01 4.752592e+01 -3.520485e-01 -3.046070e-01 -3.410388e-01 -7.106476e-02 -6.736795e-01 -1.089758e-02 7.327870e-02 -2.331617e-01 -9.094162e-02 1.932066e-01 4.516575e-01 -2.004158e-02 -7.416195e-01 1.058995e-01 1.174329e-02 1.211670e-02 -1.555163e-01 -8.122067e-02 -1.186555e-01 4.959956e-03 -2.644513e-02 -1.999835e-01 7.218847e-02 -5.251865e-03 -9.650163e-02 1.460129e-01
<VARIANCE> 39
 3.651276e+01 4.963865e+01 5.352933e+01 2.217168e+01 7.377973e+01 3.015727e+01 2.751827e+01 2.732416e+01 3.020524e+01 9.856692e+00 1.874168e+01 1.463013e+01 1.482516e+02 1.270994e+00 7.381564e-01 1.172042e+00 1.107762e+00 1.671680e+00 1.501780e+00 2.293487e+00 2.788805e+00 2.270476e+00 1.299234e+00 7.714062e-01 2.033702e+00 1.055043e+00 3.479685e-01 1.404572e-01 1.911332e-01 2.621554e-01 7.554984e-01 4.863212e-01 4.976626e-01 4.156780e-01 6.497613e-01 3.431523e-01 1.926531e-01 3.424964e-01 7.601239e-02
