~o
<STREAMINFO> 1 39
<VECSIZE> 39<NULLD><MFCC_D_A_0><DIAGC>
~s "silst"
<MEAN> 39
 -1.560920e+01 4.070020e-01 -5.121719e+00 5.643883e-01 -6.198393e+00 -3.139454e+00 -7.312103e+00 -3.478414e+00 -4.104012e+00 -4.519406e+00 -3.045316e+00 -2.049178e+00 5.018324e+01 1.413300e-01 -1.674488e-01 -1.838068e-02 -7.083540e-02 -7.545704e-02 -3.530463e-01 -2.274919e-01 -1.191596e-01 -2.199612e-01 -1.916967e-03 -2.460126e-02 -2.143660e-02 6.734490e-01 6.903108e-02 -9.525569e-03 6.265213e-02 -2.143062e-02 -2.661141e-02 1.644649e-02 -5.896942e-03 -4.066932e-03 -1.298447e-02 -1.258115e-03 -2.125313e-02 -5.354505e-03 8.540824e-04
<VARIANCE> 39
 6.540514e+01 6.060737e+01 6.863927e+01 5.244477e+01 7.557433e+01 7.966019e+01 7.216314e+01 7.730753e+01 8.655092e+01 6.452322e+01 6.053928e+01 4.849696e+01 1.894453e+02 5.403108e+00 3.874550e+00 3.672129e+00 4.486002e+00 5.138744e+00 5.978620e+00 5.785758e+00 6.048782e+00 5.979192e+00 5.011774e+00 4.905102e+00 4.099350e+00 9.517978e+00 6.817796e-01 6.101524e-01 6.424912e-01 8.184757e-01 9.125949e-01 1.077715e+00 1.082206e+00 1.126581e+00 1.118417e+00 9.536039e-01 9.158366e-01 7.809009e-01 1.165309e+00
<GCONST> 1.473588e+02
~h "a"
<BEGINHMM>
<NUMSTATES> 5
<STATE> 2
<MEAN> 39
 -2.027654e+00 -1.289823e+01 -5.384098e+00 -1.368122e+01 -1.092752e+01 -9.134005e+00 -1.288938e+01 -1.680711e-01 -3.039474e+00 -2.322073e+00 -6.824224e+00 -1.199090e+01 8.409341e+01 4.077281e-01 -1.529645e+00 -4.934116e-01 -7.866813e-01 4.739712e-01 2.424159e-01 3.931148e-01 8.140590e-01 5.751433e-01 -7.553109e-01 -9.633757e-01 -1.225561e+00 1.257877e+00 -3.170079e-01 7.133508e-01 2.574428e-01 6.638907e-01 3.018729e-01 3.262924e-02 1.469260e-01 -4.125375e-01 -3.044659e-01 -6.436877e-03 1.192032e-01 4.733059e-01 -7.758026e-01
<VARIANCE> 39
 4.924946e+01 7.299740e+01 7.290218e+01 7.503097e+01 1.422326e+02 1.461133e+02 1.280869e+02 1.747705e+02 1.600545e+02 1.002674e+02 1.419236e+02 1.906662e+02 5.711652e+01 2.327691e+00 3.282410e+00 3.817090e+00 4.349887e+00 5.634877e+00 6.811424e+00 6.177046e+00 7.935565e+00 5.083180e+00 5.858477e+00 5.853843e+00 5.753301e+00 2.933574e+00 4.684569e-01 6.097834e-01 6.093724e-01 7.604302e-01 1.089230e+00 1.098499e+00 1.092597e+00 1.400035e+00 1.055713e+00 1.118528e+00 1.112117e+00 1.217720e+00 5.131227e-01
<GCONST> 1.511182e+02
<STATE> 3
<MEAN> 39
 -3.424723e+00 -1.432343e+01 -4.695456e+00 -1.551834e+01 -7.069047e+00 -1.094939e+01 -1.199263e+01 2.067894e+00 -4.424290e+00 -2.758485e+00 -1.059785e+01 -9.296584e+00 8.599471e+01 2.138426e-01 5.083084e-01 1.781155e-01 4.072044e-01 4.113041e-01 6.859591e-02 1.448851e-01 -5.444558e-01 -4.611868e-02 -1.004065e-01 -2.494383e-01 1.443821e-01 -7.525188e-01 2.453730e-02 5.844365e-01 1.610171e-01 4.040965e-01 -2.579848e-02 2.973632e-02 -1.584402e-01 -3.967607e-01 -1.450677e-01 1.877308e-01 1.076421e-01 2.582470e-01 -5.828339e-01
<VARIANCE> 39
 2.981538e+01 5.750230e+01 5.440998e+01 7.270373e+01 1.550835e+02 1.303749e+02 1.241774e+02 1.656824e+02 1.640598e+02 1.088822e+02 1.759979e+02 2.491766e+02 3.062822e+01 8.167240e-01 1.943648e+00 2.106193e+00 2.297423e+00 3.535414e+00 3.574305e+00 3.669701e+00 4.496320e+00 3.524772e+00 4.344438e+00 3.788897e+00 4.284967e+00 1.534447e+00 1.899830e-01 3.036099e-01 3.482196e-01 4.426658e-01 6.532435e-01 7.182532e-01 8.150477e-01 9.102814e-01 7.207716e-01 8.172747e-01 7.808335e-01 8.696540e-01 1.892928e-01
<GCONST> 1.361184e+02
<STATE> 4
<MEAN> 39
 -2.045018e+00 -8.334980e+00 -5.948313e+00 -8.273542e+00 -6.681275e+00 -5.984962e+00 -8.808387e+00 -3.653912e+00 -2.225186e+00 -4.510093e+00 -8.986267e+00 -1.046287e+01 7.693732e+01 -1.314940e-01 1.340265e+00 2.291098e-01 1.281496e+00 5.370951e-01 4.163323e-01 1.583546e-01 -6.496499e-01 -1.358306e-01 1.770503e-01 -1.492339e-01 6.362537e-01 -1.883274e+00 -1.742592e-01 9.062698e-02 7.177194e-02 6.414425e-02 -8.510237e-02 -3.698849e-02 9.663591e-03 9.310404e-02 -8.861075e-02 2.564141e-02 1.063783e-01 2.985328e-02 -4.695484e-02
<VARIANCE> 39
 4.786772e+01 8.349619e+01 6.845903e+01 8.276957e+01 1.215628e+02 1.531675e+02 1.131902e+02 1.361135e+02 1.270385e+02 9.705224e+01 1.130987e+02 1.079396e+02 7.465739e+01 1.293421e+00 2.440257e+00 2.461346e+00 3.268712e+00 3.758334e+00 4.330045e+00 5.117167e+00 5.982957e+00 4.681208e+00 4.520966e+00 4.681140e+00 4.980111e+00 1.918399e+00 1.920085e-01 3.193489e-01 3.461813e-01 4.933813e-01 5.370653e-01 6.984195e-01 7.273030e-01 8.291100e-01 7.558542e-01 7.468244e-01 7.625003e-01 7.066742e-01 2.228156e-01
<GCONST> 1.387912e+02
<TRANSP> 5
 0.000000e+00 1.000000e+00 0.000000e+00 0.000000e+00 0.000000e+00
 0.000000e+00 4.487703e-01 5.512297e-01 0.000000e+00 0.000000e+00
 0.000000e+00 0.000000e+00 6.834088e-01 3.165912e-01 0.000000e+00
 0.000000e+00 0.000000e+00 0.000000e+00 6.315580e-01 3.684420e-01
 0.000000e+00 0.000000e+00 0.000000e+00 0.000000e+00 0.000000e+00
<ENDHMM>
~h "b"
<BEGINHMM>
<NUMSTATES> 5
<STATE> 2
<MEAN> 39
 -3.188981e-01 7.067069e+00 4.346001e-01 3.849228e-01 -8.006357e+00 -4.503682e+00 -1.165517e+01 -1.210406e+01 -1.126867e+01 -6.045689e+00 -5.701533e+00 -7.984334e+00 6.345750e+01 1.399710e-01 9.139602e-01 -2.883092e-03 4.746286e-01 4.420340e-01 -1.719114e-01 2.048159e-01 -1.132097e-01 -3.714556e-01 -4.737042e-01 -9.007519e-02 -3.618191e-02 -1.063728e-01 -5.808775e-03 -9.543768e-01 -2.965941e-01 -8.842269e-01 -7.006984e-01 -2.890356e-01 -6.504741e-01 1.862269e-01 2.742013e-01 5.229077e-01 6.418803e-01 2.217464e-01 1.112059e+00
<VARIANCE> 39
 5.595471e+01 6.146303e+01 4.895388e+01 6.468520e+01 5.586468e+01 6.271579e+01 5.967161e+01 6.530555e+01 8.379539e+01 6.259616e+01 6.891756e+01 4.685083e+01 1.068067e+02 3.754404e+00 6.126021e+00 4.153545e+00 5.568091e+00 4.852185e+00 5.832668e+00 5.718071e+00 6.009064e+00 5.355595e+00 5.571654e+00 6.789181e+00 4.416416e+00 5.104472e+00 5.247684e-01 1.325328e+00 8.311254e-01 8.913203e-01 8.947522e-01 1.186044e+00 1.419399e+00 1.430597e+00 1.425804e+00 1.197889e+00 1.241879e+00 1.237494e+00 4.860239e-01
<GCONST> 1.475571e+02
<STATE> 3
<MEAN> 39
 2.186348e-01 4.843856e+00 -1.057723e+00 -2.397235e+00 -8.047007e+00 -4.956355e+00 -1.381463e+01 -1.335185e+01 -1.323552e+01 -5.038005e+00 -4.065645e+00 -5.440537e+00 6.668738e+01 9.493766e-02 -2.077299e+00 -1.511722e+00 -2.427957e+00 -1.277772e+00 -6.142217e-01 -2.026100e+00 6.127838e-01 7.561969e-01 1.737755e+00 1.986835e+00 9.987506e-01 2.910900e+00 -6.951575e-02 -7.893799e-01 4.013009e-02 -9.627161e-01 -6.793775e-01 -3.796435e-02 -6.305092e-01 6.991131e-01 2.736830e-01 7.746165e-01 -1.886152e-02 -9.577223e-02 8.878370e-01
<VARIANCE> 39
 3.616123e+01 4.518822e+01 4.945148e+01 1.020635e+02 6.003033e+01 7.066187e+01 7.391837e+01 7.333628e+01 9.087494e+01 8.986600e+01 8.461476e+01 7.581061e+01 6.329847e+01 3.715691e+00 9.458396e+00 8.369453e+00 1.311404e+01 8.097450e+00 1.077591e+01 1.145254e+01 1.113959e+01 1.230050e+01 1.574915e+01 1.173869e+01 1.080057e+01 5.727969e+00 5.819954e-01 9.666972e-01 1.085067e+00 1.592686e+00 1.337777e+00 1.536822e+00 1.574523e+00 2.016303e+00 1.904142e+00 2.411447e+00 2.224695e+00 2.040930e+00 6.545179e-01
<GCONST> 1.603663e+02
<STATE> 4
<MEAN> 39
 3.252348e-01 -1.075513e+00 -4.408392e+00 -8.895308e+00 -1.177491e+01 -7.214639e+00 -1.814315e+01 -1.103992e+01 -9.812943e+00 1.191169e+00 3.101108e-01 -5.368593e+00 7.469948e+01 1.079351e-02 -2.588928e+00 -6.175326e-01 -3.151990e+00 -2.364686e+00 -6.902396e-01 -2.081594e+00 1.810777e+00 1.114246e+00 1.970191e+00 8.871838e-01 -3.252050e-01 3.357495e+00 -1.515132e-01 2.748195e-01 6.581861e-01 3.587045e-01 -1.361717e-01 8.034714e-02 3.282019e-01 3.485992e-01 -3.206272e-02 -5.313005e-01 -7.009754e-01 -2.695147e-01 -3.110033e-01
<VARIANCE> 39
 4.693324e+01 5.978656e+01 4.660039e+01 1.263534e+02 7.323757e+01 9.800229e+01 1.036663e+02 9.386414e+01 1.099171e+02 1.279717e+02 1.054198e+02 9.595092e+01 6.477759e+01 3.928462e+00 8.299730e+00 8.326939e+00 9.062449e+00 7.601332e+00 1.068856e+01 1.120971e+01 1.453069e+01 1.492835e+01 1.240482e+01 1.340314e+01 1.077771e+01 3.689465e+00 5.336144e-01 1.028057e+00 7.286504e-01 1.784363e+00 1.293311e+00 1.440458e+00 1.611950e+00 1.528625e+00 1.391642e+00 2.209585e+00 1.935359e+00 1.267250e+00 7.105379e-01
<GCONST> 1.609666e+02
<TRANSP> 5
 0.000000e+00 1.000000e+00 0.000000e+00 0.000000e+00 0.000000e+00
 0.000000e+00 5.876224e-01 4.123776e-01 0.000000e+00 0.000000e+00
 0.000000e+00 0.000000e+00 3.040761e-01 6.959239e-01 0.000000e+00
 0.000000e+00 0.000000e+00 0.000000e+00 1.767481e-01 8.232520e-01
 0.000000e+00 0.000000e+00 0.000000e+00 0.000000e+00 0.000000e+00
<ENDHMM>
~h "c"
<BEGINHMM>
<NUMSTATES> 5
<STATE> 2
<MEAN> 39
 -1.152756e+01 2.946421e+00 2.309960e-01 -3.709931e+00 -5.419739e+00 -1.154811e+01 -9.506660e+00 -3.118463e+00 -3.721990e+00 -3.126748e+00 -5.331730e+00 -3.455814e+00 6.638139e+01 -3.079671e+00 9.652125e-01 -6.753979e-01 -5.877553e-01 1.409485e+00 7.511209e-01 1.111389e+00 2.134483e-01 7.629322e-02 3.840867e-01 1.175170e+00 1.036366e-01 3.475237e-02 -7.642375e-01 -1.919061e-01 5.849934e-02 -6.272102e-01 -2.457861e-01 -7.370902e-02 -3.982283e-02 1.190357e-01 -1.942038e-01 1.384930e-02 2.648903e-01 2.165926e-01 1.142722e+00
<VARIANCE> 39
 5.930239e+01 5.733448e+01 6.731753e+01 6.522861e+01 6.233232e+01 1.046353e+02 9.415749e+01 7.673234e+01 1.097294e+02 6.966843e+01 9.972241e+01 7.012479e+01 1.227707e+02 8.561974e+00 6.968279e+00 4.597923e+00 7.818510e+00 5.583986e+00 8.419017e+00 7.269427e+00 7.346259e+00 7.899749e+00 8.201635e+00 6.508928e+00 6.070185e+00 1.106136e+01 1.111822e+00 1.234233e+00 7.628348e-01 9.831417e-01 1.020013e+00 1.466658e+00 1.282597e+00 1.265468e+00 1.395551e+00 1.650649e+00 1.286955e+00 1.235409e+00 1.091228e+00
<GCONST> 1.565206e+02
<STATE> 3
<MEAN> 39
 -3.014469e+01 5.440082e+00 -1.846942e-01 -1.116224e+01 -2.449493e+00 -8.831829e+00 -5.943750e+00 -1.392055e+00 -6.585424e+00 -1.900468e+00 1.442184e+00 -9.882644e-01 7.601151e+01 -1.600850e+00 4.372358e-02 1.127750e+00 -7.652693e-01 -1.338451e+00 -9.252204e-01 1.130049e-02 3.411045e-01 -5.898458e-01 -4.643106e-01 4.933441e-01 8.475729e-01 2.439845e+00 2.513463e+00 -6.825316e-01 3.969609e-01 6.716344e-01 -1.151935e+00 -8.200855e-01 -6.865898e-01 -2.917963e-01 -1.278649e-02 -3.686324e-01 -6.872694e-01 -2.835393e-01 -3.815690e-01
<VARIANCE> 39
 4.421026e+01 7.778271e+01 5.408357e+01 5.977282e+01 5.038673e+01 5.937619e+01 1.065381e+02 8.378578e+01 1.307931e+02 1.038395e+02 7.883640e+01 8.128576e+01 5.114838e+01 1.598489e+01 4.873771e+00 4.760349e+00 5.395894e+00 6.762247e+00 7.875447e+00 7.218560e+00 7.574460e+00 5.653319e+00 6.683969e+00 5.709764e+00 5.987772e+00 5.362556e+00 1.468200e+00 1.288480e+00 9.123449e-01 1.077568e+00 1.145417e+00 1.484092e+00 1.561655e+00 1.676734e+00 1.384168e+00 1.690770e+00 1.254308e+00 1.245933e+00 7.137989e-01
<GCONST> 1.547126e+02
<STATE> 4
<MEAN> 39
 -1.748648e+01 6.185874e-01 3.660389e+00 -9.141267e+00 -1.265009e+01 -1.797793e+01 -1.098427e+01 -1.429634e+00 -6.087831e+00 -7.139858e+00 -2.329019e+00 -4.638268e-01 8.028600e+01 5.796728e+00 -2.796542e+00 1.349248e-01 6.984571e-02 -2.960819e+00 -2.230403e+00 -1.611863e+00 -5.070757e-01 1.180409e-01 -7.332434e-01 -1.587218e+00 -1.061930e+00 1.680444e+00 1.609360e-01 -2.376981e-01 -5.417269e-01 -1.209777e-01 6.663525e-01 7.248273e-01 2.146971e-01 -8.981647e-02 5.553944e-02 4.319270e-01 3.665645e-02 -4.398900e-01 -3.330686e-01
<VARIANCE> 39
 1.000164e+02 6.764168e+01 5.918344e+01 4.060118e+01 7.270027e+01 6.564011e+01 9.564838e+01 9.428445e+01 1.013135e+02 6.790015e+01 7.280731e+01 1.160569e+02 3.217852e+01 6.123357e+00 5.745555e+00 5.854919e+00 4.441430e+00 8.455673e+00 9.004887e+00 9.333804e+00 1.007806e+01 6.434731e+00 7.796792e+00 5.810568e+00 6.625608e+00 2.433635e+00 2.800612e+00 9.585328e-01 5.921485e-01 5.784613e-01 1.277904e+00 1.325214e+00 1.409366e+00 1.243690e+00 8.852163e-01 9.785650e-01 1.042500e+00 9.651521e-01 4.881930e-01
<GCONST> 1.515087e+02
<TRANSP> 5
 0.000000e+00 1.000000e+00 0.000000e+00 0.000000e+00 0.000000e+00
 0.000000e+00 7.516577e-01 2.483424e-01 0.000000e+00 0.000000e+00
 0.000000e+00 0.000000e+00 6.898582e-01 3.101418e-01 0.000000e+00
 0.000000e+00 0.000000e+00 0.000000e+00 6.147358e-01 3.852642e-01
 0.000000e+00 0.000000e+00 0.000000e+00 0.000000e+00 0.000000e+00
<ENDHMM>
~h "d"
<BEGINHMM>
<NUMSTATES> 5
<STATE> 2
<MEAN> 39
 -8.733584e-01 2.741500e+00 4.132317e+00 1.956254e+00 -1.008325e+01 -1.052774e+01 -1.406306e+01 -6.279627e+00 -6.055976e+00 -7.130643e+00 -1.025380e+01 -7.911178e+00 6.645380e+01 -3.202245e-01 3.746350e-01 1.129215e+00 1.320117e-01 1.997424e-01 2.643047e-02 3.063176e-02 8.353978e-02 -6.632359e-01 -8.258260e-01 1.934870e-01 1.697996e-01 1.391448e-01 -4.186393e-01 -1.134682e+00 3.253696e-01 -1.184994e+00 -1.094073e+00 -3.515649e-01 -4.905346e-01 5.208305e-01 -1.410472e-01 3.429661e-01 1.028648e+00 4.378240e-01 1.460872e+00
<VARIANCE> 39
 4.582679e+01 7.552895e+01 6.582269e+01 7.545905e+01 7.224883e+01 7.213612e+01 8.172858e+01 9.110146e+01 7.964793e+01 6.247303e+01 9.571296e+01 6.510719e+01 9.858257e+01 3.753602e+00 8.183413e+00 5.169988e+00 8.391279e+00 7.773941e+00 8.027471e+00 7.732298e+00 8.535472e+00 7.109837e+00 6.225462e+00 8.774152e+00 6.441990e+00 7.422613e+00 5.261244e-01 1.177963e+00 9.139867e-01 1.118663e+00 1.440913e+00 1.532829e+00 1.579772e+00 1.869247e+00 1.781445e+00 1.257606e+00 1.592604e+00 1.607688e+00 5.301459e-01
<GCONST> 1.555305e+02
<STATE> 3
<MEAN> 39
 -3.643575e+00 -2.380358e+00 8.225268e+00 -2.523934e+00 -1.178038e+01 -1.091318e+01 -1.656761e+01 -3.842476e+00 -7.943351e+00 -8.470398e+00 -7.132056e+00 -3.659200e+00 7.244015e+01 -1.191132e+00 -2.614564e+00 1.674008e+00 -2.843132e+00 -2.987984e+00 -1.527572e+00 -1.791764e+00 1.989566e+00 -7.821354e-01 5.687667e-01 2.762363e+00 1.606079e+00 3.791579e+00 6.316400e-02 -3.076944e-01 -2.706029e-01 -4.502996e-01 -9.348171e-01 -2.640840e-01 -2.675844e-01 3.736832e-01 -7.597446e-02 7.276005e-01 3.203203e-01 -2.782155e-01 7.212350e-01
<VARIANCE> 39
 3.529021e+01 6.362738e+01 6.984796e+01 7.453278e+01 7.726954e+01 8.643362e+01 1.275435e+02 9.041586e+01 1.036611e+02 7.028687e+01 1.036198e+02 1.013314e+02 5.263300e+01 3.184613e+00 7.767949e+00 7.924936e+00 7.861926e+00 7.779771e+00 8.657003e+00 9.659986e+00 1.628453e+01 1.357150e+01 9.034125e+00 1.075392e+01 1.009585e+01 4.644967e+00 3.879389e-01 7.814436e-01 9.471231e-01 1.278264e+00 1.908187e+00 2.177426e+00 1.848742e+00 1.759413e+00 1.675571e+00 1.827409e+00 1.880395e+00 1.545569e+00 5.537636e-01
<GCONST> 1.590641e+02
<STATE> 4
<MEAN> 39
 -4.318352e+00 -8.163754e+00 8.585196e+00 -9.105988e+00 -1.996550e+01 -1.655441e+01 -2.036245e+01 1.355118e+00 -7.268371e+00 -4.519296e+00 -1.571908e+00 -2.338921e+00 8.171374e+01 -4.969795e-01 -1.728773e+00 2.136495e-01 -2.182236e+00 -3.060150e+00 -1.316911e+00 -8.180932e-01 1.921219e+00 -2.335379e-01 1.281426e+00 1.822209e+00 -2.769050e-01 3.213511e+00 2.771614e-01 7.081983e-01 -5.924289e-01 7.257720e-01 5.439279e-01 5.521700e-01 5.857313e-01 -5.400946e-01 3.029490e-02 6.472185e-03 -7.187454e-01 -7.260730e-01 -7.580572e-01
<VARIANCE> 39
 4.188964e+01 6.511423e+01 7.610523e+01 7.227928e+01 8.140575e+01 9.314452e+01 1.556379e+02 1.502130e+02 1.779833e+02 7.660191e+01 1.350618e+02 1.363932e+02 4.437106e+01 2.570490e+00 4.600243e+00 8.289052e+00 6.478800e+00 1.030192e+01 1.094760e+01 9.709976e+00 1.303432e+01 1.288892e+01 7.892778e+00 1.044355e+01 8.087807e+00 2.834478e+00 3.212175e-01 7.520528e-01 7.239456e-01 1.095443e+00 1.720979e+00 1.769830e+00 1.847378e+00 1.653860e+00 1.377835e+00 1.337169e+00 1.324482e+00 1.298638e+00 5.493623e-01
<GCONST> 1.575814e+02
<TRANSP> 5
 0.000000e+00 1.000000e+00 0.000000e+00 0.000000e+00 0.000000e+00
 0.000000e+00 5.760705e-01 4.239295e-01 0.000000e+00 0.000000e+00
 0.000000e+00 0.000000e+00 1.868579e-01 8.131422e-01 0.000000e+00
 0.000000e+00 0.000000e+00 0.000000e+00 3.354852e-01 6.645148e-01
 0.000000e+00 0.000000e+00 0.000000e+00 0.000000e+00 0.000000e+00
<ENDHMM>
~h "e"
<BEGINHMM>
<NUMSTATES> 5
<STATE> 2
<MEAN> 39
 -5.567988e+00 -3.908749e+00 -4.392751e+00 -8.418692e+00 -9.414676e+00 -1.149582e+01 -1.688696e+01 -6.265985e+00 -5.099470e+00 -5.807354e-01 -3.339762e+00 -5.810534e+00 7.633821e+01 2.374985e+00 -1.510204e+00 8.546779e-02 -1.861111e+00 -1.615400e+00 -5.791907e-01 -1.687610e+00 -4.334861e-01 3.340482e-01 8.574898e-01 -2.414902e-01 -1.045407e+00 2.079563e+00 -1.701384e-01 3.985695e-01 3.473393e-01 5.932107e-01 2.405588e-01 3.163799e-01 3.768131e-01 -2.350421e-02 -2.077544e-01 -1.572628e-01 -3.031556e-01 9.493011e-02 -6.454542e-01
<VARIANCE> 39
 1.067950e+02 7.591518e+01 5.858040e+01 1.013106e+02 1.044659e+02 1.219838e+02 1.187845e+02 1.420613e+02 1.603740e+02 1.179565e+02 1.143826e+02 1.226562e+02 9.484017e+01 7.888372e+00 6.063514e+00 6.019903e+00 7.988338e+00 9.467818e+00 9.995015e+00 1.110191e+01 1.626456e+01 1.046125e+01 1.050542e+01 9.068540e+00 7.825440e+00 5.315269e+00 9.169985e-01 9.587597e-01 8.689305e-01 1.563320e+00 1.336575e+00 1.702992e+00 1.576269e+00 1.829767e+00 1.522868e+00 1.637522e+00 1.447153e+00 1.231195e+00 1.049375e+00
<GCONST> 1.642196e+02
<STATE> 3
<MEAN> 39
 -1.914174e+00 -6.811005e+00 -3.601483e+00 -1.182201e+01 -1.130783e+01 -1.131124e+01 -1.960695e+01 -5.914796e+00 -5.119058e+00 1.457657e+00 -4.631819e+00 -7.314232e+00 8.058093e+01 1.314488e+00 -6.134284e-01 5.991181e-01 -3.397880e-01 -8.285796e-01 9.769420e-02 -6.677288e-01 -2.656668e-01 1.278976e-01 3.535213e-01 -5.856141e-01 -6.661143e-01 4.816985e-01 -6.894310e-01 8.642431e-01 2.794205e-01 1.187163e+00 6.070550e-01 2.881610e-01 7.764621e-01 -1.055169e-01 -2.650209e-01 -4.228661e-01 -1.900621e-01 3.711216e-01 -1.142516e+00
<VARIANCE> 39
 6.843346e+01 7.866265e+01 6.177349e+01 9.360351e+01 1.226236e+02 1.335962e+02 1.298151e+02 1.746917e+02 1.983524e+02 1.249266e+02 1.556422e+02 1.692677e+02 4.919526e+01 4.283954e+00 4.487502e+00 3.901072e+00 6.136541e+00 5.811749e+00 6.954925e+00 6.591783e+00 1.065057e+01 7.016094e+00 7.891175e+00 7.080609e+00 6.452492e+00 3.866126e+00 7.911665e-01 9.463400e-01 9.300351e-01 1.287447e+00 1.546127e+00 1.738103e+00 1.892850e+00 2.674258e+00 1.880001e+00 1.898459e+00 1.543751e+00 1.735310e+00 6.616428e-01
<GCONST> 1.604727e+02
<STATE> 4
<MEAN> 39
 -9.769781e-01 -5.941814e+00 -2.582291e+00 -9.974599e+00 -1.222997e+01 -1.073644e+01 -1.880546e+01 -6.610258e+00 -4.151104e+00 5.605029e-01 -3.837712e+00 -8.756098e+00 7.977408e+01 2.220761e-01 1.078588e+00 7.387472e-01 1.603627e+00 5.525057e-01 3.755777e-01 6.388277e-01 -6.881474e-01 -4.729391e-01 -2.316070e-01 -8.297247e-01 2.988914e-01 -1.432941e+00 -5.743611e-01 6.014694e-01 6.054854e-02 7.060372e-01 5.038207e-01 1.077947e-01 5.632356e-01 -3.498547e-02 -2.635232e-01 -2.068346e-01 -9.221794e-02 3.955341e-01 -6.649104e-01
<VARIANCE> 39
 5.779254e+01 8.390218e+01 6.152409e+01 9.036973e+01 1.062972e+02 1.315713e+02 1.103871e+02 1.695997e+02 1.840642e+02 9.923453e+01 1.437513e+02 1.188037e+02 5.312337e+01 2.446394e+00 4.024961e+00 2.927325e+00 5.145234e+00 4.862565e+00 6.378377e+00 5.736935e+00 7.790355e+00 6.661208e+00 6.298913e+00 6.013708e+00 5.663204e+00 3.426241e+00 6.292732e-01 8.097035e-01 7.026052e-01 1.030639e+00 1.240335e+00 1.295829e+00 1.435154e+00 2.250978e+00 1.496343e+00 1.266512e+00 1.289509e+00 1.236126e+00 5.226550e-01
<GCONST> 1.535378e+02
<TRANSP> 5
 0.000000e+00 1.000000e+00 0.000000e+00 0.000000e+00 0.000000e+00
 0.000000e+00 1.779242e-01 8.220758e-01 0.000000e+00 0.000000e+00
 0.000000e+00 0.000000e+00 1.153319e-01 8.846681e-01 0.000000e+00
 0.000000e+00 0.000000e+00 0.000000e+00 3.172939e-01 6.827061e-01
 0.000000e+00 0.000000e+00 0.000000e+00 0.000000e+00 0.000000e+00
<ENDHMM>
~h "f"
<BEGINHMM>
<NUMSTATES> 5
<STATE> 2
<MEAN> 39
 -1.166633e+01 -3.453718e+00 -3.344619e+00 -6.810454e-01 -6.941083e+00 -6.283245e+00 -6.721179e+00 1.914293e-02 -4.370009e+00 -3.900506e+00 -5.117715e+00 -7.113177e+00 7.201298e+01 -2.634202e+00 4.302104e-01 -9.219359e-01 1.050127e+00 1.354466e+00 4.077378e-01 8.660715e-01 8.685985e-01 1.349084e+00 8.236651e-01 3.470186e-01 1.001322e+00 -9.190501e-01 -3.552593e-02 -1.930531e-01 1.748898e-01 -2.923706e-01 -3.418407e-01 -8.073570e-02 -1.463131e-01 -2.400378e-01 -2.838950e-01 -1.047575e-01 1.379389e-01 1.323542e-01 2.411721e-01
<VARIANCE> 39
 6.844863e+01 5.488316e+01 7.137685e+01 5.099848e+01 7.300531e+01 1.064332e+02 7.059776e+01 7.573239e+01 8.192408e+01 7.202650e+01 9.956479e+01 6.153346e+01 1.095192e+02 4.110082e+00 5.505127e+00 4.711861e+00 4.563624e+00 8.145219e+00 8.222062e+00 6.848418e+00 7.044605e+00 7.075443e+00 5.661464e+00 5.581521e+00 6.016566e+00 1.594038e+00 9.919071e-01 7.356766e-01 4.799282e-01 6.572767e-01 9.681027e-01 9.882453e-01 9.923010e-01 1.091213e+00 1.063566e+00 7.638647e-01 1.024479e+00 1.002481e+00 2.717932e-01
<GCONST> 1.467709e+02
<STATE> 3
<MEAN> 39
 -1.854971e+01 -1.148905e+00 -3.000313e+00 7.208407e-02 -3.324895e+00 -1.016477e+01 -1.215176e+01 -3.933207e+00 -7.855965e+00 -7.248628e+00 -4.323096e+00 -8.865934e-02 6.506824e+01 -2.898161e-01 -2.372392e-02 -1.875024e-01 7.211023e-02 7.796173e-02 2.619891e-01 6.113233e-02 -3.033371e-01 3.591749e-01 -1.757488e-02 -6.244599e-02 4.022164e-01 -7.998863e-01 5.987300e-01 -1.900222e-01 7.483970e-02 -3.088644e-01 -3.585291e-01 -1.327423e-01 -7.066714e-02 5.368589e-02 -1.815870e-01 -3.590459e-02 5.280222e-02 -1.838887e-01 1.054821e-01
<VARIANCE> 39
 6.797120e+01 4.812542e+01 7.824487e+01 7.401329e+01 1.288888e+02 1.207005e+02 1.521249e+02 9.747701e+01 1.449648e+02 1.492206e+02 1.344891e+02 8.352259e+01 1.285948e+02 5.694077e+00 4.001405e+00 4.299752e+00 4.913421e+00 5.614955e+00 7.145766e+00 1.183987e+01 9.081782e+00 1.003519e+01 8.069963e+00 8.395189e+00 5.419630e+00 2.282659e+00 1.086821e+00 8.689386e-01 9.297316e-01 1.047931e+00 1.219680e+00 1.456014e+00 2.746400e+00 2.134331e+00 2.403548e+00 1.787612e+00 1.411162e+00 1.009034e+00 3.209057e-01
<GCONST> 1.583736e+02
<STATE> 4
<MEAN> 39
 -1.784961e+01 -1.140352e+00 -5.198984e+00 6.200104e-01 -4.765168e+00 -2.086246e+00 -4.521349e+00 -3.547259e-01 -2.862302e+00 -1.724499e+00 -2.270474e+00 -1.854653e+00 5.560185e+01 9.204544e-02 -5.351154e-02 9.172656e-03 8.709079e-02 -3.944005e-02 -1.371313e-02 -8.142634e-02 1.894472e-03 5.980309e-02 7.330731e-02 7.728954e-02 3.195422e-02 -3.649540e-01 1.905289e-01 -2.056714e-02 6.044243e-02 -1.666566e-02 -6.653000e-02 -1.157281e-01 -8.346200e-02 -5.102491e-02 -5.340258e-02 -2.478767e-02 -1.603726e-02 -5.066191e-02 1.354904e-01
<VARIANCE> 39
 5.376744e+01 3.292414e+01 3.304210e+01 3.526234e+01 4.014067e+01 3.944222e+01 5.379218e+01 4.424116e+01 6.078553e+01 4.040371e+01 3.971358e+01 2.942020e+01 2.335882e+02 1.805730e+00 1.207485e+00 1.130224e+00 1.707419e+00 1.637964e+00 1.925800e+00 2.703854e+00 2.417635e+00 3.122370e+00 2.903656e+00 2.423758e+00 2.420271e+00 1.242490e+00 3.335230e-01 2.278124e-01 2.394843e-01 3.039038e-01 3.733887e-01 4.281787e-01 5.711730e-01 4.940700e-01 6.034369e-01 5.706401e-01 5.156027e-01 5.071962e-01 1.730998e-01
<GCONST> 1.178786e+02
<TRANSP> 5
 0.000000e+00 1.000000e+00 0.000000e+00 0.000000e+00 0.000000e+00
 0.000000e+00 5.925036e-01 4.074964e-01 0.000000e+00 0.000000e+00
 0.000000e+00 0.000000e+00 6.635695e-01 3.364305e-01 0.000000e+00
 0.000000e+00 0.000000e+00 0.000000e+00 8.829901e-01 1.170099e-01
 0.000000e+00 0.000000e+00 0.000000e+00 0.000000e+00 0.000000e+00
<ENDHMM>
~h "g"
<BEGINHMM>
<NUMSTATES> 5
<STATE> 2
<MEAN> 39
 -3.380462e+00 3.662991e+00 1.410355e+00 -5.776376e-03 -8.778800e+00 -7.434575e+00 -1.669268e+01 -9.413271e+00 -1.163759e+01 -1.830366e+00 -6.383794e+00 -6.443753e+00 6.534611e+01 -3.002505e-01 8.704978e-02 1.124205e-01 2.567764e-01 3.092639e-01 -8.116958e-01 -9.869245e-01 1.955836e-01 -1.118608e-01 1.225980e-01 2.396987e-01 -1.870923e-01 9.498372e-01 -8.373187e-02 -5.744280e-01 1.255855e-01 -6.665890e-01 -5.937756e-01 -5.258116e-02 -3.117109e-01 3.959922e-01 7.656746e-03 2.741656e-01 2.889906e-01 -3.016675e-02 7.683915e-01
<VARIANCE> 39
 8.097243e+01 9.577654e+01 9.346606e+01 8.270556e+01 1.060974e+02 1.018908e+02 1.228854e+02 1.088268e+02 1.305610e+02 1.196810e+02 1.446243e+02 8.968479e+01 1.249880e+02 4.950125e+00 1.056181e+01 9.430232e+00 7.804330e+00 1.141350e+01 8.720428e+00 1.125428e+01 1.077556e+01 1.057589e+01 1.199099e+01 1.182210e+01 7.354874e+00 9.238761e+00 8.808335e-01 1.760033e+00 1.642315e+00 1.154228e+00 2.330493e+00 1.574550e+00 1.893885e+00 1.990676e+00 2.047566e+00 2.053979e+00 2.038330e+00 1.563723e+00 1.003036e+00
<GCONST> 1.678198e+02
<STATE> 3
<MEAN> 39
 -3.470582e+00 -1.491583e-01 2.770627e+00 -3.260869e+00 -1.264498e+01 -1.168232e+01 -2.169359e+01 -6.538680e+00 -1.162846e+01 1.751458e+00 -2.918785e+00 -8.753582e+00 7.459054e+01 -2.540478e-01 -1.136607e+00 3.084492e-01 -1.696642e+00 -1.838516e+00 -5.993797e-01 -5.895349e-01 1.910940e+00 1.807346e-01 6.081833e-01 8.151207e-01 -4.055407e-01 1.882800e+00 -5.126290e-03 -3.697975e-01 -6.782621e-03 -5.051236e-01 -2.740225e-01 3.081792e-01 4.671080e-01 2.149895e-01 9.217119e-02 -1.002994e-01 -1.041049e-01 -3.375002e-02 2.800406e-01
<VARIANCE> 39
 4.656999e+01 7.279630e+01 6.207656e+01 6.021624e+01 8.423804e+01 9.670748e+01 1.605448e+02 1.342867e+02 1.486590e+02 1.173091e+02 1.515700e+02 1.014822e+02 7.916051e+01 2.843322e+00 6.815938e+00 7.265446e+00 7.130192e+00 1.295535e+01 9.552563e+00 8.663573e+00 1.157800e+01 1.075018e+01 9.089793e+00 9.501745e+00 7.446036e+00 4.762378e+00 5.269307e-01 8.846267e-01 1.152718e+00 8.376250e-01 2.115737e+00 1.416152e+00 1.832779e+00 1.639084e+00 1.822538e+00 1.581126e+00 2.027554e+00 1.276877e+00 9.200622e-01
<GCONST> 1.608604e+02
<STATE> 4
<MEAN> 39
 -3.472309e+00 1.166003e+00 4.203140e+00 -5.246754e+00 -1.413824e+01 -1.017947e+01 -1.576239e+01 -6.523500e+00 -9.633000e+00 -6.766171e-01 -3.039171e+00 -9.414028e+00 7.483492e+01 -6.615797e-01 -1.105076e+00 5.449446e-01 -1.820966e+00 -1.328301e+00 2.560721e-01 4.288759e-01 1.040432e+00 -3.085175e-01 1.502600e-01 3.510034e-01 -9.389471e-02 1.703355e+00 -1.896911e-02 -1.324367e-01 8.720120e-02 -8.377982e-02 -1.086544e-01 1.079695e-01 6.917761e-02 -2.611738e-01 -1.360205e-01 -7.265908e-02 1.054951e-02 1.551673e-02 1.482513e-01
<VARIANCE> 39
 5.153354e+01 9.863343e+01 7.734444e+01 7.134494e+01 8.748983e+01 7.919261e+01 1.479987e+02 1.467642e+02 1.323342e+02 1.020668e+02 9.909583e+01 9.905448e+01 9.181076e+01 4.107685e+00 6.025285e+00 7.817422e+00 6.137780e+00 7.287532e+00 7.158739e+00 6.812327e+00 8.850699e+00 1.054977e+01 6.356182e+00 7.601525e+00 6.251045e+00 3.605937e+00 4.817745e-01 6.456187e-01 7.692497e-01 8.062013e-01 1.704920e+00 1.050540e+00 1.644472e+00 1.245232e+00 1.229685e+00 1.154948e+00 1.442502e+00 8.677531e-01 7.170848e-01
<GCONST> 1.552578e+02
<TRANSP> 5
 0.000000e+00 1.000000e+00 0.000000e+00 0.000000e+00 0.000000e+00
 0.000000e+00 6.308010e-01 3.691991e-01 0.000000e+00 0.000000e+00
 0.000000e+00 0.000000e+00 3.502154e-01 6.497847e-01 0.000000e+00
 0.000000e+00 0.000000e+00 0.000000e+00 3.242389e-01 6.757610e-01
 0.000000e+00 0.000000e+00 0.000000e+00 0.000000e+00 0.000000e+00
<ENDHMM>
~h "h"
<BEGINHMM>
<NUMSTATES> 5
<STATE> 2
<MEAN> 39
 -7.179945e+00 -9.013697e+00 -4.696190e+00 -6.803464e+00 -5.282256e+00 -4.138796e+00 -8.428369e+00 -3.251808e+00 -6.707918e+00 -3.898063e+00 -6.562707e+00 -4.274713e+00 7.269894e+01 -7.439747e-02 9.336828e-02 -5.790418e-01 1.165165e-01 1.284534e+00 2.395855e-01 1.953260e-01 -2.847434e-01 1.821534e-01 -3.462233e-01 -2.927022e-01 2.650742e-01 -3.051325e-01 5.402055e-02 4.645984e-02 6.338237e-02 -1.252058e-01 -2.590179e-01 -8.054986e-02 -1.806203e-01 -2.510589e-02 -4.994534e-02 -4.331656e-03 9.578725e-02 -1.580895e-01 2.086501e-02
<VARIANCE> 39
 8.386697e+01 9.389124e+01 1.039875e+02 1.067263e+02 1.799933e+02 1.466018e+02 1.275077e+02 1.296475e+02 1.462802e+02 1.087943e+02 1.197459e+02 1.453228e+02 1.631951e+02 3.003327e+00 4.580325e+00 4.388547e+00 5.131365e+00 6.323907e+00 6.105748e+00 7.203712e+00 6.304056e+00 5.843872e+00 6.367538e+00 5.697925e+00 6.215314e+00 5.216393e+00 3.735138e-01 5.811428e-01 5.186224e-01 7.990773e-01 1.022611e+00 8.965853e-01 1.270900e+00 9.905378e-01 1.033941e+00 1.127022e+00 1.020562e+00 1.023597e+00 3.827691e-01
<GCONST> 1.534030e+02
<STATE> 3
<MEAN> 39
 -6.124547e+00 -7.119064e+00 -2.618065e+00 -9.435229e+00 -7.932228e-02 -6.503868e+00 -1.324356e+01 -5.597232e+00 -8.426020e+00 -5.505076e+00 -9.605219e+00 -8.716029e-02 7.446832e+01 3.310978e-02 3.839501e-01 -1.772181e-01 3.037976e-01 2.572710e-01 1.187463e-01 2.198281e-01 -1.495609e-01 1.565315e-01 -1.901385e-02 2.492056e-01 -1.053668e-01 -8.310242e-01 -1.211357e-02 -1.862967e-02 6.267931e-02 -5.848739e-02 -3.614191e-01 -7.599729e-02 -2.055490e-02 1.218748e-01 -2.885526e-02 9.942829e-02 1.027658e-01 -1.456422e-01 2.198406e-02
<VARIANCE> 39
 4.854631e+01 6.139415e+01 8.854374e+01 1.725455e+02 2.141197e+02 1.216161e+02 1.611031e+02 1.486607e+02 1.617803e+02 1.962136e+02 2.132651e+02 1.895520e+02 1.139735e+02 1.402014e+00 3.380445e+00 2.998843e+00 5.029111e+00 6.124104e+00 5.326398e+00 6.098701e+00 6.610314e+00 6.456622e+00 7.122224e+00 7.251280e+00 5.799027e+00 2.565571e+00 1.916708e-01 3.775315e-01 4.664361e-01 7.502534e-01 9.274288e-01 9.504166e-01 1.045556e+00 1.153195e+00 1.066579e+00 1.140152e+00 1.263445e+00 1.007907e+00 1.990790e-01
<GCONST> 1.504394e+02
<STATE> 4
<MEAN> 39
 -8.913111e+00 -3.929651e+00 -5.166747e+00 -2.703306e+00 -3.692123e+00 -3.032147e+00 -4.678046e+00 -2.943487e+00 -3.084563e+00 -3.485433e+00 -5.881799e+00 -4.456369e+00 6.612764e+01 -1.321561e-01 2.795554e-01 -2.814479e-02 1.720361e-01 -3.108608e-02 2.855929e-02 8.100103e-02 8.282198e-02 7.119204e-02 7.482273e-02 1.084521e-01 5.685597e-02 -5.719720e-01 1.607708e-02 -5.158529e-03 4.252156e-02 -3.419570e-02 -8.657861e-02 -5.969277e-02 -7.774846e-02 5.845522e-03 -5.093768e-02 -1.418654e-03 2.552156e-02 -3.567602e-02 7.236043e-02
<VARIANCE> 39
 6.849638e+01 7.002870e+01 9.027834e+01 8.699297e+01 1.161019e+02 9.088776e+01 1.084347e+02 1.326065e+02 1.355459e+02 7.385342e+01 8.923763e+01 7.675413e+01 2.600075e+02 7.712861e-01 1.643653e+00 1.568971e+00 2.035077e+00 2.512661e+00 2.662112e+00 2.963392e+00 3.490286e+00 3.284557e+00 3.215292e+00 3.233424e+00 2.809219e+00 1.163932e+00 1.150979e-01 1.849207e-01 2.535789e-01 3.337860e-01 4.080954e-01 4.804587e-01 5.445733e-01 6.226323e-01 6.031443e-01 6.066816e-01 6.084551e-01 5.274456e-01 1.095642e-01
<GCONST> 1.285305e+02
<TRANSP> 5
 0.000000e+00 1.000000e+00 0.000000e+00 0.000000e+00 0.000000e+00
 0.000000e+00 3.784292e-01 6.215708e-01 0.000000e+00 0.000000e+00
 0.000000e+00 0.000000e+00 5.194817e-01 4.805183e-01 0.000000e+00
 0.000000e+00 0.000000e+00 0.000000e+00 7.990476e-01 2.009523e-01
 0.000000e+00 0.000000e+00 0.000000e+00 0.000000e+00 0.000000e+00
<ENDHMM>
~h "i"
<BEGINHMM>
<NUMSTATES> 5
<STATE> 2
<MEAN> 39
 -8.989423e+00 -1.283722e+00 1.422406e+01 -4.450402e+00 -2.273553e+01 -1.489550e+01 -1.560222e+01 -6.381289e+00 -1.642428e+01 -3.095007e+00 1.874993e+00 -5.780369e+00 7.688486e+01 3.505485e-01 -2.905929e-01 3.176170e+00 -9.339870e-01 -3.994190e+00 -1.094729e-01 -1.271317e+00 -2.441255e-01 -2.269118e+00 1.290497e-01 1.727789e+00 -5.971795e-01 1.789297e+00 5.928297e-02 2.453241e-01 -5.741605e-01 2.574338e-02 5.624857e-01 5.968425e-01 1.062278e-01 2.998452e-02 4.325839e-01 1.338484e-01 -2.822897e-01 -1.032853e-01 -4.380795e-01
<VARIANCE> 39
 6.445105e+01 9.321605e+01 8.379030e+01 6.810886e+01 9.755076e+01 1.014535e+02 1.320074e+02 1.161879e+02 1.406420e+02 1.033993e+02 1.270492e+02 9.225779e+01 7.689960e+01 7.355925e+00 5.302043e+00 6.607999e+00 7.384756e+00 8.025141e+00 1.053531e+01 1.040717e+01 9.466291e+00 8.308018e+00 9.136126e+00 8.341392e+00 6.090722e+00 3.264856e+00 7.941374e-01 1.050983e+00 1.121327e+00 1.114308e+00 1.923326e+00 1.463304e+00 1.520547e+00 1.706588e+00 1.480486e+00 1.305597e+00 1.459247e+00 9.964449e-01 6.705922e-01
<GCONST> 1.598456e+02
<STATE> 3
<MEAN> 39
 -9.208300e+00 -1.095067e+00 2.118902e+01 -8.686773e+00 -3.084805e+01 -9.436224e+00 -2.168510e+01 -5.033419e+00 -2.318252e+01 1.014275e+00 2.803323e+00 -7.126255e+00 7.916537e+01 1.431838e-01 2.753577e-01 4.887784e-02 1.973182e-01 -3.647045e-02 2.005019e-01 1.636851e-01 -2.629010e-01 1.065508e-01 6.699428e-02 -1.242866e-01 -2.867438e-01 -3.688549e-01 3.220626e-02 2.016310e-01 -8.589220e-01 4.571584e-01 1.204515e+00 -1.742969e-01 4.579793e-01 -1.361098e-01 6.681219e-01 -1.566794e-01 -6.002923e-01 2.062194e-01 -5.938392e-01
<VARIANCE> 39
 3.815285e+01 9.538563e+01 8.053412e+01 6.991232e+01 6.766470e+01 1.257764e+02 1.214417e+02 1.030601e+02 1.362135e+02 1.724053e+02 2.105866e+02 1.420781e+02 3.673237e+01 1.681783e+00 3.381577e+00 4.080173e+00 4.370617e+00 6.233943e+00 6.176677e+00 6.009269e+00 6.681433e+00 5.814330e+00 5.520247e+00 5.636003e+00 5.586109e+00 2.443062e+00 3.726466e-01 6.000960e-01 7.946783e-01 8.120850e-01 1.195737e+00 1.315816e+00 1.234200e+00 1.262888e+00 1.205170e+00 1.263531e+00 1.297353e+00 1.165978e+00 3.536885e-01
<GCONST> 1.495010e+02
<STATE> 4
<MEAN> 39
 -7.735204e+00 1.969697e+00 1.419404e+01 -3.348527e+00 -2.257586e+01 -1.297416e+01 -1.246141e+01 -1.080974e+01 -1.431051e+01 -4.064840e+00 1.040271e+00 -8.226663e+00 7.550197e+01 1.306814e-01 4.775127e-01 -1.502360e+00 9.743217e-01 2.211813e+00 2.956966e-01 7.823493e-01 5.793471e-03 1.118142e+00 -1.595963e-01 -1.180288e+00 5.202686e-01 -1.578076e+00 -1.169088e-01 -6.368411e-02 -2.809540e-01 -1.265679e-02 3.097043e-01 1.907697e-01 1.909802e-02 1.873492e-01 1.076316e-01 2.816160e-02 -7.871749e-02 5.144304e-02 -6.376826e-02
<VARIANCE> 39
 2.617740e+01 7.166512e+01 5.786738e+01 5.850037e+01 9.348474e+01 9.860657e+01 1.111217e+02 1.243897e+02 1.065617e+02 8.358419e+01 1.198579e+02 7.746929e+01 8.094128e+01 1.973907e+00 2.942916e+00 3.284447e+00 3.187446e+00 5.580646e+00 5.029563e+00 5.851355e+00 6.028988e+00 5.064575e+00 4.726481e+00 5.363479e+00 4.355466e+00 2.397470e+00 2.779655e-01 3.497570e-01 5.011859e-01 5.445089e-01 8.990493e-01 9.067258e-01 9.158998e-01 9.611371e-01 8.817541e-01 8.322319e-01 8.928111e-01 8.152579e-01 3.367369e-01
<GCONST> 1.411586e+02
<TRANSP> 5
 0.000000e+00 1.000000e+00 0.000000e+00 0.000000e+00 0.000000e+00
 0.000000e+00 4.751098e-01 5.248902e-01 0.000000e+00 0.000000e+00
 0.000000e+00 0.000000e+00 6.798538e-01 3.201462e-01 0.000000e+00
 0.000000e+00 0.000000e+00 0.000000e+00 7.118093e-01 2.881907e-01
 0.000000e+00 0.000000e+00 0.000000e+00 0.000000e+00 0.000000e+00
<ENDHMM>
~h "j"
<BEGINHMM>
<NUMSTATES> 5
<STATE> 2
<MEAN> 39
 -8.623717e+00 6.693078e+00 5.215301e+00 -6.799713e-01 -6.772099e+00 -1.026189e+01 -1.148608e+01 -5.626445e+00 -9.202620e+00 -7.867914e+00 -7.530210e+00 -4.724257e+00 6.567043e+01 -2.049829e+00 1.275314e+00 5.810748e-01 -8.182280e-01 8.612140e-01 -5.885549e-02 4.061031e-01 -3.136000e-01 -2.340806e-01 -2.210780e-01 5.016040e-01 1.085300e-01 1.140847e+00 -3.847528e-01 -5.656669e-01 3.114498e-01 -4.104519e-01 -7.652834e-01 -4.695730e-01 -3.376152e-01 1.169396e-01 -1.709415e-01 1.554710e-01 7.080303e-01 3.753386e-01 9.836888e-01
<VARIANCE> 39
 7.328664e+01 6.956903e+01 7.267368e+01 6.763560e+01 7.103130e+01 1.118390e+02 8.825288e+01 8.459312e+01 9.088900e+01 6.438651e+01 9.048128e+01 6.786900e+01 1.412809e+02 8.980203e+00 7.351074e+00 5.207640e+00 7.225815e+00 6.654962e+00 9.519573e+00 7.774110e+00 7.513006e+00 7.127369e+00 6.751711e+00 8.824481e+00 6.096208e+00 7.768175e+00 1.352280e+00 1.419876e+00 8.955047e-01 1.124591e+00 1.532812e+00 1.483099e+00 1.449337e+00 1.527896e+00 1.246681e+00 1.182292e+00 1.378078e+00 1.114141e+00 7.241371e-01
<GCONST> 1.576726e+02
<STATE> 3
<MEAN> 39
 -1.933179e+01 7.897738e+00 9.767160e+00 -6.728280e+00 -1.013064e+01 -1.449348e+01 -1.184218e+01 -6.347162e+00 -1.292637e+01 -6.453454e+00 -5.032455e-01 -1.095640e+00 7.769767e+01 4.347238e-01 -2.229894e+00 1.569894e+00 -4.963838e-01 -4.052165e+00 -2.766069e+00 -1.295004e+00 5.420711e-01 -8.592251e-01 1.329351e-01 2.118774e+00 1.602727e+00 2.837818e+00 1.813943e+00 -1.155099e+00 -4.080324e-01 3.916392e-01 -8.149875e-01 -1.099285e-01 -5.301288e-01 4.580473e-01 3.087460e-01 1.944577e-01 -2.988437e-01 -3.234354e-01 -2.831476e-01
<VARIANCE> 39
 6.519903e+01 7.614410e+01 7.960070e+01 4.834712e+01 8.173191e+01 1.038171e+02 8.075021e+01 6.549025e+01 9.811292e+01 7.563018e+01 7.528229e+01 9.230703e+01 4.123656e+01 1.063782e+01 7.162066e+00 5.314389e+00 6.327764e+00 7.159759e+00 7.829566e+00 6.635477e+00 8.232095e+00 5.672683e+00 6.017186e+00 6.199483e+00 5.765532e+00 4.020253e+00 9.404177e-01 1.269421e+00 1.056703e+00 1.122559e+00 1.968618e+00 2.129532e+00 1.514979e+00 1.674190e+00 1.508555e+00 1.564695e+00 1.498674e+00 1.128178e+00 5.499315e-01
<GCONST> 1.554111e+02
<STATE> 4
<MEAN> 39
 -7.642197e+00 -4.669562e+00 1.258558e+01 -5.755469e+00 -2.498164e+01 -2.072602e+01 -1.897456e+01 8.984448e-02 -1.095352e+01 -5.525470e+00 4.017910e+00 2.682046e-01 8.373520e+01 2.563155e+00 -3.309201e+00 -1.624950e+00 -5.480636e-01 -1.387526e+00 1.387885e-01 -1.402305e+00 1.958138e+00 1.524031e+00 1.194543e+00 -2.591485e-01 -1.119276e+00 1.309825e+00 -2.107822e-01 7.176870e-01 -8.955156e-01 -6.910089e-02 1.691827e+00 1.166939e+00 4.825705e-01 -4.077648e-01 3.101735e-01 2.369352e-01 -8.618233e-01 -7.307137e-01 -7.288679e-01
<VARIANCE> 39
 3.135800e+01 5.774867e+01 7.219242e+01 6.199688e+01 4.900956e+01 7.002993e+01 1.107115e+02 1.140120e+02 1.194615e+02 7.576749e+01 8.741286e+01 1.062978e+02 3.086138e+01 2.721654e+00 4.561444e+00 4.912572e+00 3.445936e+00 1.083407e+01 7.131938e+00 9.184760e+00 9.680124e+00 6.391476e+00 5.530457e+00 7.747543e+00 4.495778e+00 1.818236e+00 5.889233e-01 6.116032e-01 7.401673e-01 7.068967e-01 7.956529e-01 1.018290e+00 1.184118e+00 1.431570e+00 9.392817e-01 9.304307e-01 9.515512e-01 7.843247e-01 2.662570e-01
<GCONST> 1.456406e+02
<TRANSP> 5
 0.000000e+00 1.000000e+00 0.000000e+00 0.000000e+00 0.000000e+00
 0.000000e+00 7.354996e-01 2.645004e-01 0.000000e+00 0.000000e+00
 0.000000e+00 0.000000e+00 6.333487e-01 3.666513e-01 0.000000e+00
 0.000000e+00 0.000000e+00 0.000000e+00 6.517771e-01 3.482229e-01
 0.000000e+00 0.000000e+00 0.000000e+00 0.000000e+00 0.000000e+00
<ENDHMM>
~h "k"
<BEGINHMM>
<NUMSTATES> 5
<STATE> 2
<MEAN> 39
 -8.938922e+00 1.668299e-01 -2.922593e+00 -1.694922e+00 -5.644398e+00 -5.027181e+00 -8.385933e+00 -4.975382e+00 -6.289901e+00 -2.184395e+00 -4.530533e+00 -4.771334e+00 6.121866e+01 -1.132006e+00 -5.373537e-01 -1.250411e+00 -4.727537e-02 1.313660e+00 3.073551e-01 -3.657215e-01 8.504576e-01 3.072228e-01 6.336314e-01 4.584388e-01 3.700732e-01 6.788065e-02 1.229841e-01 -4.983203e-01 -2.836084e-01 -7.912518e-01 -2.140148e-01 -3.194151e-01 -4.784452e-01 6.036391e-02 -3.016037e-01 2.537329e-01 4.034684e-02 -1.003698e-01 1.186422e+00
<VARIANCE> 39
 7.142112e+01 6.578178e+01 9.572681e+01 8.011585e+01 1.049907e+02 1.174257e+02 8.736327e+01 9.806395e+01 1.056347e+02 8.629482e+01 9.821574e+01 7.233040e+01 1.211771e+02 5.124941e+00 6.463202e+00 6.835684e+00 8.626501e+00 8.616723e+00 9.878870e+00 9.118570e+00 9.759763e+00 9.731025e+00 8.991574e+00 9.179643e+00 7.060692e+00 8.042558e+00 8.987768e-01 1.004752e+00 1.093946e+00 1.318247e+00 1.594183e+00 1.702171e+00 1.690159e+00 1.852773e+00 1.794702e+00 1.644927e+00 1.761624e+00 1.528617e+00 8.830184e-01
<GCONST> 1.619264e+02
<STATE> 3
<MEAN> 39
 -1.188025e+01 -5.511168e+00 -1.105230e+01 -6.082523e+00 1.412070e+00 -5.731600e+00 -1.506354e+01 -1.275991e+00 -8.423082e+00 4.203903e+00 -4.754083e+00 -2.781894e+00 6.929835e+01 3.842367e-01 -1.057779e+00 -8.811141e-01 -2.239781e+00 -2.420711e-01 -9.903297e-01 -1.144822e+00 3.387577e-01 -7.229428e-01 1.049405e+00 -2.085096e-01 -2.319793e-01 3.170049e+00 9.359367e-01 9.079174e-02 1.067607e+00 -4.654093e-01 -1.377797e+00 -1.929668e-01 3.565667e-01 -5.191081e-01 -1.602202e-01 -5.192800e-01 -3.116477e-02 -5.288050e-01 3.817105e-01
<VARIANCE> 39
 5.385500e+01 7.347122e+01 1.422554e+02 1.219921e+02 1.311822e+02 1.534172e+02 1.622589e+02 1.515372e+02 2.032656e+02 1.319714e+02 1.380795e+02 1.208713e+02 9.825817e+01 7.160182e+00 7.490256e+00 1.095231e+01 1.105026e+01 1.299650e+01 1.176252e+01 1.270738e+01 1.176572e+01 1.146077e+01 1.156196e+01 1.179114e+01 1.054161e+01 8.272803e+00 8.544111e-01 1.382427e+00 1.764769e+00 2.253562e+00 2.025961e+00 2.259825e+00 2.976538e+00 2.269786e+00 2.161599e+00 2.596571e+00 2.260004e+00 1.807675e+00 1.185085e+00
<GCONST> 1.731675e+02
<STATE> 4
<MEAN> 39
 -6.446793e+00 -7.235474e+00 -7.805640e+00 -1.155184e+01 -6.969246e+00 -7.376311e+00 -1.195835e+01 -3.188168e+00 -8.478837e+00 2.388542e+00 -3.405365e+00 -8.254395e+00 7.605457e+01 2.455700e+00 -9.087828e-01 1.339617e+00 -2.072605e+00 -3.206661e+00 -8.407463e-01 -4.172546e-02 -9.238676e-01 -7.413648e-01 -9.730555e-01 3.613403e-01 -1.685997e+00 2.891005e+00 2.163962e-01 6.913934e-02 3.525528e-01 4.023916e-01 -2.641296e-01 2.027075e-01 1.897128e-02 -1.946674e-01 9.129407e-02 -4.093126e-01 1.970115e-01 -1.189586e-01 -3.564026e-01
<VARIANCE> 39
 8.933760e+01 9.244601e+01 1.062303e+02 8.415457e+01 1.187858e+02 1.317365e+02 8.846832e+01 1.254957e+02 1.629033e+02 8.387331e+01 1.020983e+02 1.149587e+02 8.216483e+01 5.409156e+00 8.007036e+00 7.431207e+00 9.111740e+00 9.615145e+00 1.041009e+01 1.179563e+01 9.570937e+00 8.495137e+00 9.673584e+00 8.749683e+00 9.188637e+00 5.021183e+00 1.175329e+00 1.237384e+00 1.042885e+00 1.146408e+00 1.656281e+00 1.636819e+00 1.437500e+00 1.459531e+00 1.487490e+00 1.491138e+00 1.412265e+00 1.102165e+00 9.725245e-01
<GCONST> 1.632978e+02
<TRANSP> 5
 0.000000e+00 1.000000e+00 0.000000e+00 0.000000e+00 0.000000e+00
 0.000000e+00 6.677094e-01 3.322906e-01 0.000000e+00 0.000000e+00
 0.000000e+00 0.000000e+00 4.990110e-01 5.009890e-01 0.000000e+00
 0.000000e+00 0.000000e+00 0.000000e+00 4.369387e-01 5.630612e-01
 0.000000e+00 0.000000e+00 0.000000e+00 0.000000e+00 0.000000e+00
<ENDHMM>
~h "l"
<BEGINHMM>
<NUMSTATES> 5
<STATE> 2
<MEAN> 39
 1.152560e+00 -7.423297e+00 -3.461539e+00 -1.431133e+01 -1.148494e+01 -6.640386e+00 -1.817859e+01 -1.285158e+01 -4.292712e+00 6.233227e+00 -3.403174e+00 -9.183438e+00 7.946702e+01 5.868995e-01 7.990158e-02 8.912305e-01 8.877654e-02 -4.328128e-01 -2.464701e-01 -1.073304e+00 -1.061708e+00 -1.445421e-01 9.823070e-01 4.874188e-02 1.796525e-01 -2.862024e-01 -3.281070e-01 -2.350773e-02 -1.530876e-01 -1.136843e-01 1.289568e-01 1.636022e-01 2.627489e-01 5.759423e-01 -6.618677e-02 -5.149264e-01 1.856980e-02 -3.430450e-02 1.292451e-01
<VARIANCE> 39
 3.789170e+01 6.101041e+01 6.659914e+01 1.259311e+02 1.206020e+02 1.341947e+02 1.272932e+02 1.664111e+02 1.756920e+02 1.080523e+02 1.500619e+02 1.389218e+02 5.650221e+01 1.591810e+00 2.808067e+00 3.088102e+00 5.915349e+00 4.675811e+00 5.940571e+00 6.677562e+00 7.850152e+00 5.901711e+00 6.505463e+00 5.720312e+00 6.368823e+00 2.549161e+00 3.054548e-01 4.754302e-01 5.498769e-01 1.095577e+00 9.409558e-01 9.597471e-01 1.331760e+00 1.420345e+00 1.211976e+00 1.165244e+00 1.096925e+00 9.503878e-01 2.782715e-01
<GCONST> 1.490126e+02
<STATE> 3
<MEAN> 39
 1.563613e+00 -7.340950e+00 -2.042740e+00 -1.602125e+01 -1.008085e+01 -7.188619e+00 -2.038199e+01 -1.472577e+01 -5.600105e+00 9.679440e+00 -5.992292e+00 -6.544437e+00 7.964948e+01 -2.180517e-01 6.068725e-02 2.996339e-01 -3.683088e-01 -3.829568e-02 2.257044e-01 -4.736769e-01 5.725254e-01 5.397897e-02 -3.726125e-01 2.272966e-01 2.906161e-02 1.263138e-01 -3.985207e-01 -7.487634e-02 -3.736323e-01 -1.788567e-01 9.349442e-02 1.803463e-01 4.670221e-01 8.516098e-01 7.617341e-02 -7.227970e-01 8.856509e-02 -2.309632e-01 3.197691e-01
<VARIANCE> 39
 2.782750e+01 5.220082e+01 5.844923e+01 1.302525e+02 1.294671e+02 1.322535e+02 1.438086e+02 1.689908e+02 1.703135e+02 1.203458e+02 1.875935e+02 1.807775e+02 3.302382e+01 8.732792e-01 2.054552e+00 2.623890e+00 5.023157e+00 4.115819e+00 5.208050e+00 5.262195e+00 6.978843e+00 5.543928e+00 4.905357e+00 5.113957e+00 5.183465e+00 1.667249e+00 1.790479e-01 4.394034e-01 5.435701e-01 1.112738e+00 1.142612e+00 9.692367e-01 1.345011e+00 1.381120e+00 1.306126e+00 1.177907e+00 1.287083e+00 1.057070e+00 2.406019e-01
<GCONST> 1.455129e+02
<STATE> 4
<MEAN> 39
 8.860372e-01 -8.436903e+00 -3.554240e+00 -1.782563e+01 -1.213217e+01 -2.759696e+00 -2.094043e+01 -1.005035e+01 -3.976404e+00 5.507048e+00 -4.385701e-01 -1.122398e+01 8.131221e+01 -6.078813e-01 -1.689729e-01 -3.829234e-01 -3.535734e-01 1.683319e-01 3.061770e-01 5.862655e-01 1.491701e+00 1.220744e-01 -1.297468e+00 -1.267049e-02 -4.055888e-01 4.867620e-01 -9.634925e-02 1.893980e-02 -1.191947e-01 2.228004e-01 1.801327e-02 -3.012951e-02 4.233612e-01 2.417193e-02 -1.723575e-01 -2.305311e-01 -1.291056e-01 4.371060e-02 -2.839446e-02
<VARIANCE> 39
 3.481131e+01 6.635126e+01 6.101139e+01 9.637170e+01 1.027976e+02 1.616943e+02 1.228550e+02 1.435024e+02 1.745693e+02 8.762769e+01 1.454274e+02 1.593554e+02 3.555972e+01 9.631568e-01 2.475152e+00 3.145862e+00 5.174819e+00 5.271580e+00 4.982200e+00 5.707523e+00 6.809828e+00 5.960124e+00 4.995169e+00 5.771082e+00 5.114926e+00 1.700732e+00 1.355653e-01 3.367635e-01 3.354002e-01 5.391681e-01 7.106445e-01 6.363208e-01 8.042834e-01 9.830632e-01 8.861733e-01 7.991117e-01 8.083581e-01 8.054505e-01 2.301490e-01
<GCONST> 1.406827e+02
<TRANSP> 5
 0.000000e+00 1.000000e+00 0.000000e+00 0.000000e+00 0.000000e+00
 0.000000e+00 1.998209e-01 8.001791e-01 0.000000e+00 0.000000e+00
 0.000000e+00 0.000000e+00 3.743221e-01 6.256779e-01 0.000000e+00
 0.000000e+00 0.000000e+00 0.000000e+00 4.871111e-01 5.128888e-01
 0.000000e+00 0.000000e+00 0.000000e+00 0.000000e+00 0.000000e+00
<ENDHMM>
~h "m"
<BEGINHMM>
<NUMSTATES> 5
<STATE> 2
<MEAN> 39
 6.321126e-01 -2.216721e-01 -2.048596e+00 -3.666680e-01 -8.628842e+00 -4.370335e+00 -1.141879e+01 -1.275246e+01 -1.145652e+01 -3.839830e+00 -5.429010e+00 -8.979047e+00 6.895650e+01 4.327156e-01 1.205268e+00 1.187707e+00 2.284229e+00 4.603261e-01 -3.898549e-01 -4.310572e-02 -1.495541e+00 -2.011337e+00 -4.966344e-01 -8.111279e-01 3.313497e-02 -7.593759e-01 -8.076161e-02 -4.123779e-01 -4.832849e-02 -5.781958e-01 -3.311689e-01 -1.213545e-01 -1.017222e-01 4.615114e-01 2.911184e-01 -1.016875e-02 4.074300e-02 -4.515351e-03 5.477539e-01
<VARIANCE> 39
 5.346788e+01 5.228308e+01 4.789515e+01 7.362984e+01 5.613792e+01 7.874555e+01 6.634379e+01 6.296744e+01 1.205066e+02 8.622348e+01 1.158333e+02 5.391807e+01 1.055056e+02 2.987479e+00 2.751421e+00 3.156202e+00 4.665045e+00 3.946674e+00 5.049049e+00 5.750823e+00 7.853904e+00 5.886938e+00 4.711258e+00 6.580237e+00 4.350460e+00 4.593138e+00 3.238429e-01 4.123289e-01 4.866213e-01 7.359904e-01 6.481708e-01 6.864100e-01 8.413980e-01 1.101611e+00 1.113331e+00 7.391001e-01 9.141918e-01 8.073654e-01 2.425763e-01
<GCONST> 1.411184e+02
<STATE> 3
<MEAN> 39
 1.116144e+00 -2.504210e-01 2.047393e+00 1.142412e+00 -8.589821e+00 -6.215794e+00 -1.419979e+01 -1.460235e+01 -1.447044e+01 -3.035878e+00 -1.058432e+01 -8.277102e+00 7.142989e+01 1.069339e-01 4.964310e-02 -6.807467e-02 -3.430410e-01 -4.831713e-01 -5.293944e-02 1.680421e-01 3.517696e-01 -2.937775e-03 -3.273405e-01 -1.019016e-01 1.523015e-01 2.279872e-01 -1.077850e-01 -3.922604e-01 -5.642196e-01 -1.136296e+00 -2.284497e-01 2.556277e-01 1.787315e-01 7.558169e-01 6.440654e-01 -4.948461e-02 4.640908e-01 4.732604e-03 4.616039e-01
<VARIANCE> 39
 1.636960e+01 5.524577e+01 3.727309e+01 5.533196e+01 4.847078e+01 8.411674e+01 7.631506e+01 6.320858e+01 1.206718e+02 1.597152e+02 1.866331e+02 7.287907e+01 4.046383e+01 1.248112e+00 2.197098e+00 3.071753e+00 5.408638e+00 3.723227e+00 3.983009e+00 4.017644e+00 5.759293e+00 4.625298e+00 4.475131e+00 5.220439e+00 3.808379e+00 2.493575e+00 2.009567e-01 3.803055e-01 6.584414e-01 7.612257e-01 7.082730e-01 9.575061e-01 1.022941e+00 1.696615e+00 1.252092e+00 1.084589e+00 1.289647e+00 9.462158e-01 2.518194e-01
<GCONST> 1.386130e+02
<STATE> 4
<MEAN> 39
 2.904901e+00 -1.715731e+00 -3.687122e+00 -4.809348e+00 -1.183157e+01 -3.985561e+00 -1.075952e+01 -1.103014e+01 -1.271205e+01 -6.302089e+00 -6.843575e+00 -7.965185e+00 7.251307e+01 5.159718e-02 -1.454314e+00 -1.559291e+00 -3.131478e+00 -5.523049e-01 1.358262e+00 3.150461e-01 1.440063e+00 1.674976e+00 -3.111668e-01 5.029657e-01 -1.009537e-01 1.742504e+00 -3.216069e-01 -3.060609e-01 1.405775e-01 -1.120046e-01 2.203843e-01 1.271685e-01 -1.987085e-01 1.150259e-01 2.393566e-01 1.611721e-01 3.234138e-02 -1.513545e-01 1.844334e-01
<VARIANCE> 39
 3.280285e+01 6.866885e+01 7.398883e+01 1.092132e+02 7.020151e+01 7.892846e+01 8.008781e+01 7.772842e+01 1.315715e+02 1.418641e+02 1.297890e+02 6.004666e+01 5.927242e+01 2.001552e+00 4.276738e+00 6.767603e+00 7.699494e+00 7.511620e+00 8.157961e+00 7.604507e+00 1.269437e+01 1.015351e+01 7.378204e+00 7.720476e+00 6.316783e+00 3.296199e+00 2.661432e-01 4.977464e-01 9.422431e-01 1.470957e+00 9.911181e-01 1.265360e+00 1.025987e+00 1.518560e+00 1.458657e+00 1.067901e+00 1.132390e+00 9.534930e-01 4.063358e-01
<GCONST> 1.514043e+02
<TRANSP> 5
 0.000000e+00 1.000000e+00 0.000000e+00 0.000000e+00 0.000000e+00
 0.000000e+00 5.007873e-01 4.992127e-01 0.000000e+00 0.000000e+00
 0.000000e+00 0.000000e+00 6.085024e-01 3.914976e-01 0.000000e+00
 0.000000e+00 0.000000e+00 0.000000e+00 4.163618e-01 5.836383e-01
 0.000000e+00 0.000000e+00 0.000000e+00 0.000000e+00 0.000000e+00
<ENDHMM>
~h "n"
<BEGINHMM>
<NUMSTATES> 5
<STATE> 2
<MEAN> 39
 -1.897519e-01 -6.021665e+00 2.730644e+00 -3.836494e+00 -1.008863e+01 -1.128704e+01 -1.599583e+01 -5.092594e+00 -8.251255e+00 -1.405939e+00 -1.672933e+01 -7.241838e+00 7.572714e+01 6.653393e-01 2.030881e+00 6.965353e-01 2.956335e+00 -1.228458e-01 -2.144361e-01 -3.403216e-01 -2.138540e+00 -5.223974e-01 9.028766e-01 -1.951201e+00 7.086657e-01 -2.250787e+00 -2.502015e-01 -9.686787e-02 -9.104249e-02 -2.383367e-01 -6.569950e-02 1.810079e-02 1.715928e-01 1.076344e-01 1.643130e-02 -1.702850e-01 4.303224e-01 8.805185e-02 2.374583e-01
<VARIANCE> 39
 2.280995e+01 6.322990e+01 6.282447e+01 7.396388e+01 9.486395e+01 7.479056e+01 1.014624e+02 9.565297e+01 1.303573e+02 1.224137e+02 2.719882e+02 1.286697e+02 3.354744e+01 1.040824e+00 3.075418e+00 3.968786e+00 3.505107e+00 5.588182e+00 5.901821e+00 6.334668e+00 9.163953e+00 6.090133e+00 6.899515e+00 7.007145e+00 5.697523e+00 1.261181e+00 1.410907e-01 3.540534e-01 3.957765e-01 6.235329e-01 6.558061e-01 7.508837e-01 7.687011e-01 1.161339e+00 9.037565e-01 1.017520e+00 1.011813e+00 9.089979e-01 2.169552e-01
<GCONST> 1.411935e+02
<STATE> 3
<MEAN> 39
 2.522865e-01 -1.377403e+00 5.005947e+00 2.812149e+00 -1.168460e+01 -1.201977e+01 -1.721431e+01 -9.045528e+00 -8.594734e+00 5.905574e-01 -1.973644e+01 -4.334480e+00 7.081194e+01 4.320846e-02 1.273846e+00 1.744704e-01 1.406419e+00 2.498816e-01 9.105887e-02 -2.956320e-02 -1.001711e+00 -3.173535e-01 -4.578797e-01 4.055101e-01 1.937745e-01 -1.249118e+00 -4.105758e-01 -5.639643e-01 -1.645961e-01 -1.116740e+00 1.522440e-01 3.656637e-01 1.344119e-01 8.056470e-01 6.865939e-03 -5.397124e-01 9.185428e-01 -2.312322e-01 6.221576e-01
<VARIANCE> 39
 2.494649e+01 5.627364e+01 6.994403e+01 6.744803e+01 9.939492e+01 7.947051e+01 1.194248e+02 8.831470e+01 1.232107e+02 1.622425e+02 3.323839e+02 1.550290e+02 4.634141e+01 1.139332e+00 3.857061e+00 3.772025e+00 4.845874e+00 4.810333e+00 6.192978e+00 6.159711e+00 7.900510e+00 6.909414e+00 8.417673e+00 1.244736e+01 5.493928e+00 2.378690e+00 2.761818e-01 6.653492e-01 9.174855e-01 9.944094e-01 1.244771e+00 1.223696e+00 1.402158e+00 1.941480e+00 1.434629e+00 1.696980e+00 2.076958e+00 1.290284e+00 3.547108e-01
<GCONST> 1.515059e+02
<STATE> 4
<MEAN> 39
 -2.585747e-01 1.662828e+00 2.943197e+00 3.215432e+00 -9.965390e+00 -1.113468e+01 -1.271508e+01 -1.073262e+01 -8.117253e+00 -6.035510e+00 -1.144933e+01 -9.330056e+00 6.985797e+01 -7.510826e-01 2.396138e-01 9.277867e-02 -4.887496e-01 5.873342e-01 7.119734e-01 1.953828e-01 6.896874e-01 -2.321016e-01 -4.040610e-01 6.985602e-01 1.644434e-02 -3.050510e-01 -3.488148e-01 -4.496773e-01 -1.025344e-01 -6.808580e-01 -3.310888e-02 1.108896e-01 1.032781e-01 5.425106e-01 1.060727e-01 -3.622823e-02 3.252492e-01 -6.655611e-02 5.189630e-01
<VARIANCE> 39
 2.342117e+01 5.992073e+01 3.964913e+01 4.553535e+01 5.650361e+01 5.796492e+01 6.182489e+01 5.409896e+01 9.825325e+01 8.748845e+01 8.606301e+01 5.656966e+01 5.874942e+01 1.205567e+00 3.155998e+00 2.768271e+00 4.123020e+00 3.605052e+00 3.642896e+00 4.211086e+00 6.014974e+00 4.379396e+00 5.004977e+00 5.379965e+00 3.712516e+00 2.545430e+00 2.778711e-01 4.891229e-01 6.301762e-01 7.624153e-01 7.396832e-01 8.951395e-01 9.022160e-01 1.305377e+00 9.439880e-01 9.307831e-01 8.783192e-01 7.318349e-01 3.735391e-01
<GCONST> 1.363152e+02
<TRANSP> 5
 0.000000e+00 1.000000e+00 0.000000e+00 0.000000e+00 0.000000e+00
 0.000000e+00 4.213648e-01 5.786353e-01 0.000000e+00 0.000000e+00
 0.000000e+00 0.000000e+00 3.687131e-01 6.312870e-01 0.000000e+00
 0.000000e+00 0.000000e+00 0.000000e+00 6.529994e-01 3.470006e-01
 0.000000e+00 0.000000e+00 0.000000e+00 0.000000e+00 0.000000e+00
<ENDHMM>
~h "o"
<BEGINHMM>
<NUMSTATES> 5
<STATE> 2
<MEAN> 39
 -2.652844e+00 -3.149127e+00 -9.677215e+00 -1.575591e+01 -1.031986e+01 -7.668213e-01 -1.153827e+01 -7.613368e+00 -8.255522e+00 2.097032e+00 -9.867316e-01 -5.152254e+00 7.016753e+01 1.921332e+00 -6.834295e-01 -6.892380e-01 -2.642060e+00 -6.706504e-01 1.253489e+00 -3.657591e-01 -9.395465e-01 -5.916042e-01 1.049944e+00 2.460277e-01 -7.456536e-01 2.265072e+00 -2.465100e-01 -6.135933e-02 2.492105e-01 4.147465e-01 1.366169e-01 -4.021222e-02 6.175809e-02 1.641537e-02 -4.183817e-02 -8.965096e-02 -3.575109e-02 -4.912609e-03 -1.496921e-01
<VARIANCE> 39
 9.375453e+01 6.781431e+01 6.185024e+01 1.873800e+02 1.498654e+02 1.042032e+02 1.303528e+02 1.100385e+02 1.573146e+02 1.013970e+02 8.483143e+01 1.152046e+02 2.230286e+02 5.706247e+00 5.456386e+00 4.847246e+00 1.048969e+01 9.018497e+00 6.727986e+00 7.929335e+00 8.375642e+00 8.693551e+00 8.350835e+00 7.380732e+00 7.614518e+00 7.077053e+00 1.036211e+00 8.425980e-01 7.224349e-01 2.433499e+00 1.347380e+00 1.125058e+00 1.312110e+00 1.386888e+00 1.560634e+00 1.368023e+00 1.228867e+00 1.224023e+00 1.232241e+00
<GCONST> 1.620497e+02
<STATE> 3
<MEAN> 39
 1.604204e-01 -7.283346e+00 -9.151217e+00 -2.255810e+01 -1.050461e+01 -3.489525e-01 -1.731503e+01 -7.947104e+00 -8.841167e+00 5.360820e+00 1.765113e+00 -9.792654e+00 8.276894e+01 2.177292e-01 -2.409502e-01 1.829227e-01 3.698246e-01 2.715673e-01 5.035425e-03 -1.623395e-01 -3.313172e-01 4.917541e-02 1.524020e-01 1.440414e-01 -3.769509e-01 -6.524958e-02 -2.428029e-01 2.847713e-01 2.868484e-01 7.575197e-01 9.187030e-02 -4.393005e-01 1.888485e-01 5.965174e-02 -2.729243e-02 -2.265640e-01 -2.278413e-01 3.677988e-01 -5.208690e-01
<VARIANCE> 39
 2.795254e+01 5.073787e+01 4.294941e+01 1.013162e+02 1.151716e+02 9.723193e+01 1.196434e+02 1.484848e+02 2.100970e+02 1.286562e+02 1.493425e+02 1.826081e+02 3.040530e+01 1.046506e+00 2.706254e+00 2.184148e+00 5.241690e+00 3.893585e+00 4.852642e+00 5.675697e+00 5.118190e+00 5.703647e+00 5.041463e+00 5.096766e+00 5.332012e+00 2.216242e+00 3.006856e-01 3.808343e-01 4.018196e-01 7.522976e-01 7.497732e-01 7.908137e-01 1.073108e+00 1.078578e+00 9.973400e-01 9.619871e-01 1.001650e+00 1.029522e+00 2.588267e-01
<GCONST> 1.423955e+02
<STATE> 4
<MEAN> 39
 3.246291e+00 -4.126250e+00 -8.305327e+00 -1.940236e+01 -1.389154e+01 1.629127e+00 -1.278212e+01 -1.123274e+01 -9.393788e+00 1.404952e+00 1.543355e+00 -6.900369e+00 7.795197e+01 -1.260099e-01 2.879026e-01 3.009081e-01 9.376443e-01 3.229514e-01 -3.761108e-01 1.642586e-01 -9.800279e-02 5.876249e-02 -1.919062e-01 -4.394733e-01 3.176753e-01 -7.336646e-01 -1.071546e-01 4.884264e-02 8.101159e-02 2.084353e-01 9.647384e-05 -1.266684e-01 1.201028e-02 6.655049e-02 3.402228e-02 -5.682866e-02 -7.581088e-02 3.064805e-02 -1.050038e-01
<VARIANCE> 39
 6.295160e+01 7.898098e+01 3.981108e+01 1.223802e+02 1.975416e+02 1.194042e+02 1.252566e+02 1.197109e+02 1.608990e+02 9.745914e+01 9.166151e+01 1.239906e+02 6.372249e+01 7.716675e-01 1.773497e+00 1.520479e+00 3.800391e+00 2.855723e+00 3.664061e+00 3.455965e+00 3.686162e+00 3.832484e+00 3.270675e+00 3.568494e+00 3.276107e+00 1.351999e+00 1.231070e-01 1.969650e-01 2.415087e-01 4.354474e-01 4.175355e-01 5.121514e-01 6.067974e-01 6.146717e-01 6.216686e-01 5.902163e-01 5.919947e-01 5.922235e-01 1.047361e-01
<GCONST> 1.309589e+02
<TRANSP> 5
 0.000000e+00 1.000000e+00 0.000000e+00 0.000000e+00 0.000000e+00
 0.000000e+00 5.841146e-01 4.158854e-01 0.000000e+00 0.000000e+00
 0.000000e+00 0.000000e+00 6.702533e-01 3.297467e-01 0.000000e+00
 0.000000e+00 0.000000e+00 0.000000e+00 7.415527e-01 2.584473e-01
 0.000000e+00 0.000000e+00 0.000000e+00 0.000000e+00 0.000000e+00
<ENDHMM>
~h "p"
<BEGINHMM>
<NUMSTATES> 5
<STATE> 2
<MEAN> 39
 -5.325867e+00 2.079363e+00 -3.409183e+00 -9.694684e-01 -5.378220e+00 -3.175880e+00 -7.656312e+00 -6.152701e+00 -3.991985e+00 -1.896281e+00 -4.668303e+00 -6.606528e+00 6.190219e+01 -1.476756e+00 -6.246090e-02 -2.097592e-01 3.898277e-01 2.320262e-01 -3.685725e-01 4.095559e-01 9.328409e-01 4.112883e-01 3.019456e-02 7.827520e-01 6.125364e-01 -5.802199e-01 3.448954e-01 -8.315829e-01 -2.524768e-01 -8.258364e-01 -6.418001e-01 -4.850616e-01 -5.175935e-01 -2.069570e-01 -2.065714e-01 1.029241e-01 3.070084e-01 1.112715e-02 1.341702e+00
<VARIANCE> 39
 5.365810e+01 5.290565e+01 6.911942e+01 6.195172e+01 7.227435e+01 7.888521e+01 6.686561e+01 7.454511e+01 8.743652e+01 6.174896e+01 6.619830e+01 5.219169e+01 8.883765e+01 3.068597e+00 6.779934e+00 4.028331e+00 5.926850e+00 5.168423e+00 6.455735e+00 5.218187e+00 6.058109e+00 5.727854e+00 5.546965e+00 6.229199e+00 4.868813e+00 6.681466e+00 7.928247e-01 1.083499e+00 8.381183e-01 1.010363e+00 9.957961e-01 1.218963e+00 1.264589e+00 1.432242e+00 1.240304e+00 1.156682e+00 1.197029e+00 1.441220e+00 6.432589e-01
<GCONST> 1.492552e+02
<STATE> 3
<MEAN> 39
 -9.076744e+00 -1.755798e+00 -4.396966e+00 -2.251100e+00 -6.579621e+00 -8.115719e+00 -1.090917e+01 -5.490008e+00 -5.841763e+00 -4.459360e+00 -2.801696e+00 -1.552010e+00 6.397536e+01 8.047864e-01 -1.687685e+00 -1.240393e+00 -2.162010e+00 -1.379139e+00 -1.262578e+00 -1.375051e+00 -2.420709e-01 -5.556415e-01 6.551860e-01 1.226432e+00 6.506698e-01 3.304847e+00 9.838177e-01 -2.499315e-01 2.223759e-01 -1.039993e+00 -3.828284e-01 2.299189e-01 -4.118574e-01 -3.508274e-01 -4.279160e-01 5.574914e-01 -3.411773e-01 -5.399560e-01 9.981890e-01
<VARIANCE> 39
 3.809739e+01 5.083261e+01 6.295670e+01 7.883598e+01 6.162726e+01 7.992564e+01 1.032603e+02 9.547669e+01 1.061672e+02 1.034321e+02 8.760940e+01 9.684038e+01 8.642561e+01 5.800385e+00 7.480548e+00 8.944268e+00 1.661891e+01 1.022378e+01 1.051582e+01 9.395012e+00 1.112930e+01 1.058924e+01 1.246777e+01 1.146580e+01 1.312200e+01 7.337532e+00 7.185187e-01 1.362096e+00 1.681003e+00 2.128902e+00 1.979170e+00 1.989110e+00 1.850446e+00 2.034327e+00 1.992807e+00 2.527966e+00 2.167218e+00 2.068978e+00 7.818461e-01
<GCONST> 1.650727e+02
<STATE> 4
<MEAN> 39
 -2.302761e+00 -6.135132e+00 -8.506297e+00 -1.067138e+01 -1.094171e+01 -6.028889e+00 -1.121340e+01 -8.128628e+00 -7.337180e+00 7.233047e-02 -9.091938e-01 -5.727588e+00 7.312269e+01 2.289920e+00 -1.678643e+00 -1.708361e-01 -2.977521e+00 -1.746673e+00 -5.795362e-02 -1.403517e+00 -7.408913e-01 -7.697022e-01 1.121161e+00 2.906051e-01 -1.379081e+00 3.760312e+00 -8.701828e-02 2.803151e-01 5.968517e-01 5.181714e-01 1.347351e-01 1.563827e-01 -3.944467e-02 1.634890e-01 6.383258e-02 -2.391503e-01 -4.484591e-01 -3.080173e-01 -4.380964e-01
<VARIANCE> 39
 6.887467e+01 7.626616e+01 7.525331e+01 1.217262e+02 1.003189e+02 1.046195e+02 7.795969e+01 8.425478e+01 1.045192e+02 6.499548e+01 8.174032e+01 9.625397e+01 8.246662e+01 6.262755e+00 1.007819e+01 1.030365e+01 1.224732e+01 1.252772e+01 1.207134e+01 9.988214e+00 1.061574e+01 1.051273e+01 1.022536e+01 1.046329e+01 1.057676e+01 7.298586e+00 1.179499e+00 1.576835e+00 1.012322e+00 1.847330e+00 1.589195e+00 1.755063e+00 1.264557e+00 1.586208e+00 1.466959e+00 1.413304e+00 1.530802e+00 1.309976e+00 1.043508e+00
<GCONST> 1.640945e+02
<TRANSP> 5
 0.000000e+00 1.000000e+00 0.000000e+00 0.000000e+00 0.000000e+00
 0.000000e+00 6.336926e-01 3.663074e-01 0.000000e+00 0.000000e+00
 0.000000e+00 0.000000e+00 3.598801e-01 6.401199e-01 0.000000e+00
 0.000000e+00 0.000000e+00 0.000000e+00 3.652608e-01 6.347392e-01
 0.000000e+00 0.000000e+00 0.000000e+00 0.000000e+00 0.000000e+00
<ENDHMM>
~h "q"
<BEGINHMM>
<NUMSTATES> 5
<STATE> 2
<MEAN> 39
 -2.361255e+00 -9.581564e+00 -4.979448e+00 -1.282432e+01 -1.028699e+01 -8.371688e+00 -1.077998e+01 -2.289297e+00 -3.968714e+00 1.254596e+00 -6.689391e+00 -1.102826e+01 7.777645e+01 -1.486398e-01 8.246697e-01 -3.249581e-01 8.977968e-01 9.422444e-01 7.380751e-02 3.350085e-01 -4.662298e-01 2.298913e-01 -2.300620e-02 -1.153323e-01 2.606332e-01 -1.574679e+00 -1.993260e-01 1.910218e-01 1.599692e-01 1.935429e-01 2.704914e-02 -1.325989e-01 -2.186898e-02 5.054573e-02 -1.391320e-01 -2.939324e-01 -7.745577e-02 -7.411563e-02 -9.362962e-03
<VARIANCE> 39
 4.744418e+01 8.888743e+01 1.027697e+02 1.090473e+02 1.316086e+02 1.526160e+02 1.207621e+02 1.748162e+02 1.528832e+02 1.003033e+02 1.621313e+02 1.247720e+02 9.788366e+01 1.666667e+00 3.885264e+00 3.958438e+00 3.767522e+00 4.249794e+00 4.562641e+00 4.564165e+00 7.155658e+00 7.013378e+00 5.027074e+00 6.297020e+00 7.046134e+00 3.685893e+00 2.992424e-01 7.157282e-01 5.582140e-01 9.591659e-01 8.659392e-01 9.811835e-01 1.010629e+00 1.189731e+00 1.070025e+00 9.882154e-01 1.013334e+00 9.724087e-01 5.323461e-01
<GCONST> 1.502975e+02
<STATE> 3
<MEAN> 39
 -4.415697e+00 -8.497582e+00 -7.312675e+00 -1.137927e+01 -7.196881e+00 -9.082922e+00 -1.003464e+01 -3.290094e+00 -3.597942e+00 5.578666e-01 -8.515362e+00 -8.128407e+00 7.169074e+01 -4.437481e-01 7.172800e-01 -2.397252e-01 8.453030e-01 6.421311e-01 -1.847371e-01 4.161019e-01 -3.500833e-01 2.818764e-02 -6.180238e-01 1.374072e-01 2.069550e-01 -1.091670e+00 -7.553634e-02 5.210453e-02 2.660977e-01 3.954014e-02 -1.559191e-01 -3.273861e-02 -1.149593e-02 -3.975987e-03 -1.650076e-01 -2.182772e-01 -7.537202e-02 1.011075e-03 2.604190e-01
<VARIANCE> 39
 6.217207e+01 8.676783e+01 1.204184e+02 1.385826e+02 1.423142e+02 1.614533e+02 1.193658e+02 1.603954e+02 1.595953e+02 1.400592e+02 1.928444e+02 1.491509e+02 1.350153e+02 3.070150e+00 7.548846e+00 5.499303e+00 7.627916e+00 7.091018e+00 7.236330e+00 6.937698e+00 9.844335e+00 8.827804e+00 8.840332e+00 9.584208e+00 9.085281e+00 6.494713e+00 5.966227e-01 1.213241e+00 9.949393e-01 1.274058e+00 1.312446e+00 1.481410e+00 1.434631e+00 1.753957e+00 1.708413e+00 1.745320e+00 1.912053e+00 1.772877e+00 8.278263e-01
<GCONST> 1.644441e+02
<STATE> 4
<MEAN> 39
 -4.487546e+00 -5.702160e+00 -6.606107e+00 -8.783340e+00 -8.157539e+00 -8.293915e+00 -8.816193e+00 -3.624660e+00 -3.197446e+00 -1.075538e+00 -7.357206e+00 -1.025693e+01 7.095215e+01 -5.944775e-01 9.526904e-01 4.145964e-01 9.970881e-01 5.501114e-01 -4.779754e-02 3.315139e-01 -2.905636e-01 -3.864753e-01 -8.528574e-01 -3.953820e-01 2.912848e-01 -1.003551e+00 -7.707677e-02 -1.305875e-01 1.715299e-01 -1.231551e-01 -1.809504e-01 1.929075e-02 -2.089062e-01 5.766466e-02 -1.390292e-01 4.634980e-03 6.476465e-02 -2.479967e-03 3.912747e-01
<VARIANCE> 39
 5.297356e+01 8.493227e+01 9.881317e+01 8.769194e+01 1.028296e+02 1.201730e+02 9.057348e+01 1.338496e+02 1.245956e+02 7.642864e+01 1.127768e+02 9.592576e+01 1.715829e+02 3.476971e+00 5.532749e+00 4.118912e+00 5.720642e+00 5.616953e+00 5.826440e+00 6.409162e+00 7.183917e+00 6.720385e+00 6.380290e+00 5.840291e+00 5.754301e+00 4.595348e+00 4.362855e-01 5.905727e-01 4.809546e-01 7.867113e-01 6.366570e-01 1.001435e+00 9.408651e-01 1.064745e+00 1.071854e+00 1.020690e+00 9.704008e-01 9.834462e-01 5.700467e-01
<GCONST> 1.505135e+02
<TRANSP> 5
 0.000000e+00 1.000000e+00 0.000000e+00 0.000000e+00 0.000000e+00
 0.000000e+00 4.932250e-02 9.506775e-01 0.000000e+00 0.000000e+00
 0.000000e+00 0.000000e+00 3.549158e-01 6.450842e-01 0.000000e+00
 0.000000e+00 0.000000e+00 0.000000e+00 2.464219e-01 7.535781e-01
 0.000000e+00 0.000000e+00 0.000000e+00 0.000000e+00 0.000000e+00
<ENDHMM>
~h "r"
<BEGINHMM>
<NUMSTATES> 5
<STATE> 2
<MEAN> 39
 -2.345922e+00 -8.410405e+00 -3.940949e+00 -1.034466e+01 -8.624890e+00 -1.438526e+01 -1.678517e+01 -3.413965e+00 -4.286142e+00 1.620353e+00 -8.377001e+00 -4.271169e+00 8.081506e+01 -4.310763e-01 7.338871e-01 7.919217e-01 1.033726e+00 4.214729e-01 -3.473525e-01 -5.626008e-02 -1.760940e-01 -6.379105e-03 -7.673275e-02 -4.552403e-02 1.007999e+00 -9.722321e-01 -1.358921e-01 5.345507e-02 1.250009e-01 -9.185828e-02 -2.146007e-01 2.447867e-01 2.087260e-01 2.269325e-02 -3.138550e-01 -2.017176e-01 3.017630e-01 -9.940448e-02 -1.042810e-01
<VARIANCE> 39
 4.437989e+01 6.088811e+01 6.354885e+01 1.020740e+02 1.248986e+02 9.367537e+01 1.186143e+02 1.341770e+02 1.697734e+02 9.936996e+01 1.609968e+02 1.883407e+02 3.959812e+01 2.448028e+00 3.624584e+00 3.893151e+00 4.787601e+00 5.932670e+00 8.982049e+00 6.806931e+00 7.175665e+00 6.424297e+00 5.966928e+00 5.462108e+00 6.292472e+00 1.872373e+00 4.331548e-01 6.043699e-01 5.471555e-01 8.628768e-01 9.615203e-01 1.070906e+00 1.093415e+00 1.123090e+00 1.129773e+00 1.001390e+00 1.040380e+00 1.128807e+00 3.730662e-01
<GCONST> 1.493561e+02
<STATE> 3
<MEAN> 39
 -4.106730e+00 -6.596179e+00 -1.544583e+00 -7.138218e+00 -9.253673e+00 -1.431003e+01 -1.534558e+01 -3.363775e+00 -5.085702e+00 4.554945e-02 -5.526522e+00 -4.480740e+00 7.883450e+01 -3.996906e-01 2.576143e-01 7.722627e-01 4.508155e-01 -4.520791e-01 4.802834e-02 2.109798e-01 7.789697e-02 -5.425721e-01 -3.074260e-01 5.160986e-01 3.290287e-01 -5.791883e-01 2.218737e-01 -1.921206e-01 -1.319477e-01 -3.390253e-01 -4.216774e-01 8.836570e-02 1.445448e-01 -3.742942e-02 -2.130512e-01 -3.228967e-02 1.605089e-01 -5.436377e-01 1.985345e-01
<VARIANCE> 39
 5.009476e+01 5.862015e+01 6.805949e+01 8.984612e+01 8.363812e+01 1.168938e+02 9.727005e+01 1.033602e+02 1.823136e+02 9.722573e+01 1.151209e+02 1.103072e+02 3.989245e+01 3.140079e+00 4.118382e+00 3.891854e+00 4.354069e+00 5.573035e+00 9.483557e+00 5.399522e+00 6.760400e+00 6.532479e+00 5.843365e+00 5.990880e+00 7.436384e+00 2.510235e+00 6.758186e-01 7.504975e-01 8.363224e-01 1.166193e+00 1.130763e+00 2.155191e+00 1.429019e+00 1.469972e+00 1.443245e+00 1.231411e+00 1.289842e+00 1.475538e+00 5.296913e-01
<GCONST> 1.525284e+02
<STATE> 4
<MEAN> 39
 -1.893482e+00 -7.673514e+00 -1.667431e+00 -5.535319e+00 -1.292695e+01 -1.383841e+01 -1.626998e+01 -4.208503e+00 -4.463262e+00 8.460315e-02 -3.268809e+00 -6.297493e+00 7.870161e+01 8.553305e-02 2.200420e-01 4.104133e-01 8.038937e-02 -6.017886e-01 3.702378e-01 4.478514e-01 -8.845296e-02 -6.628074e-01 -2.328402e-01 4.417436e-01 -4.416146e-01 -4.832079e-01 -9.385923e-02 3.383817e-02 -2.518118e-02 -2.056747e-01 4.386581e-02 2.017158e-01 1.299228e-01 8.525924e-02 -5.635087e-02 -7.229219e-02 2.057230e-02 -1.698588e-01 4.981533e-02
<VARIANCE> 39
 5.283076e+01 7.371051e+01 7.314246e+01 9.321697e+01 9.838533e+01 1.035237e+02 9.130605e+01 1.164439e+02 1.759926e+02 8.709570e+01 1.010029e+02 8.763583e+01 5.145074e+01 2.660875e+00 4.702018e+00 3.995544e+00 4.571140e+00 7.015185e+00 6.886804e+00 5.904464e+00 6.857890e+00 6.409366e+00 5.752955e+00 5.967335e+00 5.853585e+00 3.460224e+00 4.276324e-01 5.985460e-01 5.759012e-01 7.187577e-01 9.995067e-01 1.458427e+00 9.511841e-01 1.187987e+00 1.029120e+00 1.021693e+00 1.011327e+00 1.014218e+00 3.833610e-01
<GCONST> 1.487221e+02
<TRANSP> 5
 0.000000e+00 1.000000e+00 0.000000e+00 0.000000e+00 0.000000e+00
 0.000000e+00 3.044707e-01 6.955293e-01 0.000000e+00 0.000000e+00
 0.000000e+00 0.000000e+00 2.979981e-01 7.020019e-01 0.000000e+00
 0.000000e+00 0.000000e+00 0.000000e+00 3.937813e-01 6.062187e-01
 0.000000e+00 0.000000e+00 0.000000e+00 0.000000e+00 0.000000e+00
<ENDHMM>
~h "s"
<BEGINHMM>
<NUMSTATES> 5
<STATE> 2
<MEAN> 39
 -1.308028e+01 2.241994e+00 -6.746716e-01 -5.425597e+00 -4.745112e+00 -1.231768e+01 -1.089305e+01 -3.990281e+00 -6.068256e+00 -5.008368e+00 -6.988529e+00 -4.196961e+00 7.537160e+01 -4.815488e+00 3.248697e+00 -6.958350e-01 5.667815e-01 2.445923e+00 -1.012624e-01 1.327921e+00 1.242281e+00 6.474780e-01 -6.962080e-01 7.648809e-01 1.015521e+00 3.286499e-01 -6.701979e-01 -7.224287e-02 -2.154609e-01 -2.400891e-01 -1.643556e-01 3.234007e-01 1.288321e-02 3.848729e-01 -4.725336e-02 1.705029e-01 4.954782e-01 3.612500e-02 1.595052e-01
<VARIANCE> 39
 9.234983e+01 1.128708e+02 9.369629e+01 6.590835e+01 1.125011e+02 1.122280e+02 1.138211e+02 1.056228e+02 1.247758e+02 7.484605e+01 1.152919e+02 1.123102e+02 1.156606e+02 5.566305e+00 7.293293e+00 7.219891e+00 6.938960e+00 7.365642e+00 9.820330e+00 1.063223e+01 1.015673e+01 7.698502e+00 7.973096e+00 6.741871e+00 6.617975e+00 3.511048e+00 9.971544e-01 1.128142e+00 7.814151e-01 9.022362e-01 1.087325e+00 1.308792e+00 1.529764e+00 1.368906e+00 1.239464e+00 1.054749e+00 1.074514e+00 1.010841e+00 3.644797e-01
<GCONST> 1.578103e+02
<STATE> 3
<MEAN> 39
 -3.042113e+01 1.103314e+01 -3.155617e+00 -4.490371e+00 8.473077e-02 -1.076931e+01 -6.624841e+00 1.590011e+00 -6.058918e+00 -5.524178e+00 -1.280169e+00 -1.158691e+00 7.830220e+01 -2.082745e+00 9.191777e-02 -4.386624e-01 6.461079e-02 4.523767e-01 5.386525e-01 7.953930e-01 1.241161e+00 5.721887e-01 1.473824e-01 8.075615e-01 6.698084e-01 -2.925464e-01 1.354602e+00 -8.549806e-01 2.141705e-01 -1.465325e-01 -5.819880e-01 -2.290515e-01 -3.590404e-01 -3.609855e-01 -9.648181e-03 1.423509e-01 -2.232670e-01 -2.253933e-01 -1.397014e-01
<VARIANCE> 39
 3.865918e+01 6.714519e+01 7.694826e+01 9.216895e+01 6.083159e+01 7.885450e+01 1.157132e+02 8.344817e+01 1.538992e+02 8.876980e+01 8.913844e+01 8.788416e+01 3.980216e+01 6.813746e+00 4.734918e+00 4.351815e+00 3.723130e+00 4.048660e+00 5.212518e+00 5.416833e+00 5.548145e+00 5.365972e+00 5.158469e+00 4.876480e+00 4.191119e+00 1.306550e+00 6.269413e-01 6.499664e-01 8.537800e-01 7.753577e-01 8.701289e-01 1.167005e+00 1.210017e+00 1.286786e+00 1.139435e+00 1.117369e+00 9.552875e-01 9.437005e-01 2.266203e-01
<GCONST> 1.453473e+02
<STATE> 4
<MEAN> 39
 -2.602173e+01 4.108356e+00 -3.420086e+00 -6.377910e+00 -1.998039e+00 -1.094261e+01 -7.235976e+00 2.815623e+00 -1.884124e+00 -4.323594e+00 -1.392838e+00 -1.363008e+00 7.578219e+01 3.984323e+00 -1.595674e+00 -1.321289e-01 -5.004495e-01 -1.573146e+00 -1.054487e+00 -1.461305e+00 -1.770060e+00 -1.195021e-02 9.027142e-02 -1.055570e+00 -1.129661e+00 1.547592e-01 9.318339e-01 -1.526164e-01 5.862349e-02 -1.466617e-01 -3.299176e-01 -4.194577e-02 -4.061626e-01 -6.003859e-01 -2.942293e-01 -5.884469e-03 -2.286101e-01 -4.193915e-01 3.105246e-01
<VARIANCE> 39
 9.847212e+01 6.925758e+01 5.731819e+01 8.067992e+01 6.012791e+01 8.008368e+01 1.198856e+02 8.085902e+01 1.236748e+02 7.578157e+01 7.412630e+01 9.008709e+01 4.755578e+01 8.373168e+00 5.100017e+00 5.363721e+00 5.183954e+00 5.813350e+00 7.149923e+00 7.935265e+00 8.312373e+00 6.726290e+00 6.147394e+00 6.082938e+00 6.991520e+00 3.657955e+00 1.736261e+00 7.533328e-01 7.329605e-01 8.613805e-01 9.525976e-01 1.347965e+00 1.515475e+00 1.498882e+00 1.056094e+00 1.150381e+00 1.192731e+00 1.106757e+00 4.433626e-01
<GCONST> 1.527197e+02
<TRANSP> 5
 0.000000e+00 1.000000e+00 0.000000e+00 0.000000e+00 0.000000e+00
 0.000000e+00 5.991096e-01 4.008904e-01 0.000000e+00 0.000000e+00
 0.000000e+00 0.000000e+00 7.652792e-01 2.347208e-01 0.000000e+00
 0.000000e+00 0.000000e+00 0.000000e+00 7.038597e-01 2.961402e-01
 0.000000e+00 0.000000e+00 0.000000e+00 0.000000e+00 0.000000e+00
<ENDHMM>
~h "t"
<BEGINHMM>
<NUMSTATES> 5
<STATE> 2
<MEAN> 39
 -8.226738e+00 3.344265e+00 5.222628e-02 1.990112e-01 -6.298043e+00 -8.103054e+00 -9.995530e+00 -6.720572e+00 -4.227169e+00 -2.532577e+00 -4.600294e+00 -5.005508e+00 6.222859e+01 -1.715025e+00 -3.275520e-01 -8.950374e-01 -2.247146e-01 8.649437e-01 1.866480e-01 1.242204e+00 9.233852e-01 4.980260e-01 -2.390140e-01 8.212489e-01 7.303580e-01 -3.030304e-01 -1.546603e-01 -6.013003e-01 -1.557149e-01 -9.029532e-01 -5.457227e-01 -6.705856e-01 -3.274340e-01 1.031866e-01 -3.258974e-02 -3.163181e-02 2.583655e-01 2.284878e-02 1.515390e+00
<VARIANCE> 39
 5.299636e+01 4.789679e+01 6.888518e+01 5.713191e+01 6.773907e+01 7.616060e+01 8.185493e+01 7.739237e+01 8.717718e+01 6.260976e+01 8.758385e+01 5.718142e+01 9.134718e+01 3.876960e+00 5.019558e+00 5.192113e+00 6.836419e+00 6.350392e+00 7.897182e+00 6.317464e+00 6.771973e+00 7.116353e+00 7.156299e+00 8.079711e+00 5.126462e+00 7.899152e+00 6.645346e-01 9.084638e-01 8.538640e-01 9.552715e-01 1.118850e+00 1.374754e+00 1.436070e+00 1.427151e+00 1.393740e+00 1.264100e+00 1.587123e+00 1.373231e+00 7.831635e-01
<GCONST> 1.522056e+02
<STATE> 3
<MEAN> 39
 -1.589413e+01 -9.977269e-02 -3.775966e+00 -3.870620e+00 -4.500084e+00 -1.167387e+01 -7.969555e+00 -4.121373e+00 -3.360562e+00 -4.824416e+00 -1.823198e+00 -6.419487e-01 6.736900e+01 -6.556413e-01 -1.246077e+00 -9.599841e-01 -2.517423e+00 -6.537098e-01 -2.280395e+00 -1.021223e+00 4.406554e-01 4.837576e-01 -2.387076e-01 6.048559e-01 4.528672e-01 4.310685e+00 1.324497e+00 -1.594554e-01 4.529545e-01 -5.378475e-01 -7.869244e-01 2.091499e-02 -1.052342e+00 -4.248631e-01 -3.127731e-01 5.157731e-01 -3.879503e-01 -7.104651e-01 7.032269e-01
<VARIANCE> 39
 4.730806e+01 5.248895e+01 5.866843e+01 6.825618e+01 6.670809e+01 1.112909e+02 1.224554e+02 9.796127e+01 1.107571e+02 8.975291e+01 9.727380e+01 1.017939e+02 1.231059e+02 6.812180e+00 6.235027e+00 8.830561e+00 9.131792e+00 9.794766e+00 1.062744e+01 1.121151e+01 1.024197e+01 1.204107e+01 1.016785e+01 1.217334e+01 9.962015e+00 8.109706e+00 9.201722e-01 1.140510e+00 1.364540e+00 1.533175e+00 1.636594e+00 2.616013e+00 2.007161e+00 2.143066e+00 1.901749e+00 2.522760e+00 2.153952e+00 1.437734e+00 1.187623e+00
<GCONST> 1.651087e+02
<STATE> 4
<MEAN> 39
 -1.153802e+01 -2.722650e+00 -5.022161e+00 -1.044563e+01 -8.649303e+00 -1.574911e+01 -1.282284e+01 -4.937854e+00 -2.067019e+00 -2.503229e+00 -2.000422e+00 -5.042299e+00 7.839651e+01 2.881955e+00 -1.176795e+00 2.390307e-01 -2.426992e+00 -2.202873e+00 -4.668169e-01 -2.836926e+00 -1.004727e+00 -1.616882e-01 8.599406e-01 -1.014224e-01 -1.839046e+00 3.307218e+00 7.964411e-01 1.494392e-01 4.876042e-01 5.373365e-01 -1.460614e-01 1.068551e+00 -1.115086e-01 -2.951435e-01 -4.580233e-01 1.056509e-01 -1.265966e-01 -2.367795e-01 -1.017259e+00
<VARIANCE> 39
 5.134082e+01 5.662661e+01 5.802771e+01 7.209779e+01 6.467487e+01 7.467355e+01 1.263112e+02 8.684444e+01 1.359966e+02 6.268706e+01 8.974842e+01 1.001141e+02 7.233818e+01 6.264161e+00 7.191572e+00 8.409233e+00 7.924458e+00 8.941833e+00 1.382180e+01 1.066867e+01 1.285400e+01 1.060163e+01 1.003846e+01 1.047445e+01 8.179070e+00 6.759318e+00 1.048879e+00 8.452072e-01 9.143516e-01 1.307521e+00 1.210674e+00 1.874688e+00 1.831205e+00 1.734107e+00 1.582623e+00 1.342215e+00 1.409586e+00 1.223960e+00 9.544514e-01
<GCONST> 1.602712e+02
<TRANSP> 5
 0.000000e+00 1.000000e+00 0.000000e+00 0.000000e+00 0.000000e+00
 0.000000e+00 6.276549e-01 3.723451e-01 0.000000e+00 0.000000e+00
 0.000000e+00 0.000000e+00 4.126717e-01 5.873283e-01 0.000000e+00
 0.000000e+00 0.000000e+00 0.000000e+00 3.812152e-01 6.187848e-01
 0.000000e+00 0.000000e+00 0.000000e+00 0.000000e+00 0.000000e+00
<ENDHMM>
~h "u"
<BEGINHMM>
<NUMSTATES> 5
<STATE> 2
<MEAN> 39
 1.456256e+00 3.524713e-01 -5.429091e+00 -1.435837e+01 -1.514808e+01 -3.621021e+00 -2.066220e+01 -1.281743e+01 -1.130717e+01 -1.559395e+00 1.539009e+00 -5.325997e+00 7.678433e+01 1.555777e+00 5.333810e-01 -4.781261e-01 -1.883092e+00 -1.086463e+00 1.786358e+00 -1.005951e+00 -1.380384e+00 -1.439665e+00 4.054467e-01 1.245303e+00 1.558115e-01 3.330364e-01 -5.473518e-01 3.756476e-02 3.166066e-01 7.065767e-01 5.416079e-01 -1.105565e-02 6.248988e-01 3.622572e-01 1.236518e-01 -1.206060e-01 -3.626302e-01 1.567905e-02 -5.022852e-01
<VARIANCE> 39
 4.180157e+01 6.966688e+01 6.109574e+01 1.102830e+02 8.935568e+01 1.030875e+02 1.651486e+02 1.290050e+02 1.570539e+02 1.177227e+02 1.215334e+02 1.013239e+02 5.383259e+01 3.243345e+00 4.118257e+00 5.306953e+00 7.305722e+00 7.169839e+00 9.375544e+00 9.249290e+00 1.014641e+01 8.108562e+00 8.722189e+00 6.947241e+00 6.586181e+00 3.435204e+00 4.728526e-01 8.058086e-01 7.548211e-01 1.290313e+00 1.109271e+00 1.343580e+00 1.905169e+00 1.802421e+00 1.569182e+00 1.536236e+00 1.316708e+00 1.355036e+00 4.583327e-01
<GCONST> 1.564293e+02
<STATE> 3
<MEAN> 39
 2.081235e+00 2.630224e+00 -6.626143e+00 -1.865522e+01 -1.406259e+01 2.740608e+00 -2.496174e+01 -1.041144e+01 -1.955082e+01 2.751886e+00 6.325427e-01 -9.805011e-01 7.490933e+01 -8.630185e-03 -1.311262e-01 4.934969e-01 8.739390e-01 1.369699e-01 -2.312270e-01 5.998775e-03 -2.384216e-01 4.429605e-01 -2.294387e-02 -2.137597e-01 -5.131559e-01 -3.776359e-01 -4.096166e-01 -5.281935e-02 3.018759e-01 9.266121e-01 3.609809e-01 -7.009374e-01 5.449744e-01 2.621727e-01 5.684485e-01 -3.588643e-01 -5.908247e-01 -9.693895e-02 -3.641753e-01
<VARIANCE> 39
 3.462834e+01 7.916407e+01 5.616446e+01 1.190822e+02 1.124209e+02 1.219392e+02 1.871620e+02 1.685813e+02 2.157668e+02 1.925122e+02 1.845921e+02 1.450277e+02 4.911167e+01 1.383883e+00 5.631022e+00 3.718603e+00 7.949747e+00 6.195344e+00 8.184339e+00 1.148606e+01 8.757494e+00 1.115251e+01 1.115565e+01 9.057710e+00 7.794100e+00 3.702361e+00 3.713017e-01 6.872551e-01 7.644050e-01 1.238264e+00 1.208156e+00 1.531648e+00 1.763777e+00 2.111438e+00 1.850604e+00 1.944267e+00 1.767252e+00 1.556610e+00 3.571513e-01
<GCONST> 1.591487e+02
<STATE> 4
<MEAN> 39
 1.919027e+00 3.275912e+00 -4.920802e+00 -1.152720e+01 -1.366477e+01 -3.222963e+00 -1.497867e+01 -1.345181e+01 -1.186367e+01 -4.444530e+00 2.835263e-01 -4.921576e+00 7.234500e+01 -6.589661e-01 2.213275e-01 6.121238e-01 1.730740e+00 9.039937e-01 -5.175123e-01 8.885100e-01 5.117264e-01 5.868465e-01 -2.712782e-01 -1.023884e+00 -1.185540e-02 -1.219873e+00 -2.722724e-01 -8.378268e-02 6.031550e-02 1.131438e-01 1.346236e-01 -2.615263e-02 2.946618e-02 2.008971e-01 2.453273e-02 6.574224e-02 -6.419807e-04 5.154348e-03 -2.366304e-05
<VARIANCE> 39
 3.981811e+01 6.918561e+01 4.745520e+01 9.210928e+01 8.790749e+01 8.054154e+01 1.186109e+02 1.076631e+02 1.135004e+02 1.073120e+02 9.694190e+01 6.787268e+01 7.163926e+01 1.360019e+00 2.699359e+00 2.694861e+00 4.521096e+00 4.168564e+00 5.075755e+00 5.214653e+00 6.188131e+00 5.396056e+00 5.306123e+00 5.449814e+00 4.501992e+00 1.987910e+00 2.296338e-01 4.079552e-01 4.250797e-01 7.660869e-01 7.222515e-01 7.973220e-01 1.013107e+00 1.085758e+00 1.004939e+00 9.978032e-01 9.107184e-01 8.811287e-01 2.847424e-01
<GCONST> 1.409205e+02
<TRANSP> 5
 0.000000e+00 1.000000e+00 0.000000e+00 0.000000e+00 0.000000e+00
 0.000000e+00 3.767959e-01 6.232040e-01 0.000000e+00 0.000000e+00
 0.000000e+00 0.000000e+00 5.501394e-01 4.498606e-01 0.000000e+00
 0.000000e+00 0.000000e+00 0.000000e+00 7.010611e-01 2.989389e-01
 0.000000e+00 0.000000e+00 0.000000e+00 0.000000e+00 0.000000e+00
<ENDHMM>
~h "v"
<BEGINHMM>
<NUMSTATES> 5
<STATE> 2
<MEAN> 39
 -1.496315e+01 1.642629e+00 4.354777e+00 6.837503e+00 -8.718944e+00 -1.563109e+01 -1.426089e+01 -4.799515e+00 -6.200309e+00 1.259434e+00 -2.746117e+00 -3.199075e+00 7.356412e+01 -1.574203e+00 -4.160464e-02 -1.962192e+00 1.398931e-02 2.390740e+00 2.669492e+00 7.280952e-01 8.341867e-01 1.474833e+00 3.466874e-01 3.125979e-02 1.112408e-01 -9.662690e-01 6.170222e-01 -4.081373e-01 -1.643752e-01 -1.040806e+00 -7.032761e-01 2.185601e-01 3.094382e-01 -1.239246e-01 -5.677505e-01 -1.747389e-02 4.632086e-01 -1.474051e-01 5.257435e-01
<VARIANCE> 39
 5.525928e+01 2.885033e+01 3.761990e+01 3.890981e+01 7.029747e+01 7.626008e+01 4.898733e+01 5.526173e+01 8.176154e+01 7.020833e+01 8.862267e+01 4.035794e+01 4.495182e+01 3.018201e+00 2.259931e+00 3.907871e+00 4.696823e+00 6.106122e+00 7.003824e+00 6.159042e+00 5.934688e+00 7.683772e+00 8.465979e+00 6.589181e+00 4.489671e+00 1.665845e+00 1.050510e+00 5.805812e-01 1.024856e+00 7.886811e-01 1.030612e+00 1.509014e+00 1.185186e+00 1.021611e+00 1.414729e+00 1.449878e+00 1.259934e+00 1.071904e+00 3.383513e-01
<GCONST> 1.435916e+02
<STATE> 3
<MEAN> 39
 -1.133310e+01 -1.882631e+00 -4.709284e+00 -1.426649e+00 -6.195459e+00 -5.129471e+00 -7.903769e+00 -3.358028e+00 -5.201145e+00 2.033710e+00 1.345153e+00 -4.286595e+00 7.316740e+01 3.959403e+00 -1.519676e+00 -3.198966e+00 -4.356906e+00 -1.154049e+00 1.885422e+00 1.472930e-01 -1.704289e+00 -3.457765e-01 7.406252e-02 9.249595e-01 -2.050597e+00 1.544576e+00 7.941957e-01 -4.492941e-01 -7.012859e-03 -6.908617e-01 -6.457025e-01 -4.803489e-01 -7.076786e-01 -4.898364e-01 2.338896e-02 2.196718e-01 -1.784677e-01 -7.807981e-01 8.088701e-01
<VARIANCE> 39
 9.315771e+01 2.844646e+01 4.560254e+01 7.630489e+01 6.036917e+01 4.371843e+01 4.580307e+01 1.178717e+02 1.210427e+02 5.807546e+01 4.600341e+01 5.227740e+01 4.584357e+01 6.395333e+00 3.677980e+00 5.503387e+00 6.419748e+00 6.695019e+00 7.396616e+00 6.677100e+00 7.294475e+00 5.799086e+00 8.316214e+00 4.466762e+00 9.733156e+00 2.421418e+00 1.336923e+00 7.859862e-01 8.060393e-01 1.467013e+00 6.959109e-01 8.276597e-01 9.711062e-01 1.606421e+00 1.278615e+00 1.506403e+00 9.172739e-01 1.095149e+00 3.196855e-01
<GCONST> 1.473280e+02
<STATE> 4
<MEAN> 39
 -5.599499e-02 -6.390353e+00 -1.174520e+01 -1.484897e+01 -9.365911e+00 -3.090473e+00 -1.634385e+01 -1.221336e+01 -9.708922e+00 4.692025e+00 -3.351341e+00 -5.925526e+00 7.721432e+01 2.537241e+00 -3.439785e+00 -1.508950e+00 -4.936220e+00 -6.534046e-02 7.849200e-01 -1.559204e+00 9.380914e-02 7.277932e-01 2.555059e+00 -1.501666e+00 -1.875562e+00 3.599546e+00 -1.056823e+00 8.690377e-02 1.253742e+00 1.020091e+00 2.705300e-01 -6.970319e-01 6.290579e-02 8.620111e-01 2.356226e-01 1.795706e-01 -6.298440e-01 1.843731e-01 -7.546249e-02
<VARIANCE> 39
 5.043056e+01 4.604417e+01 6.753222e+01 1.396808e+02 1.078169e+02 6.077358e+01 1.145105e+02 9.015018e+01 1.215491e+02 1.137558e+02 1.519613e+02 2.158221e+02 7.243539e+01 4.032166e+00 3.230710e+00 7.292843e+00 1.689086e+01 8.964537e+00 7.891720e+00 5.229482e+00 9.731876e+00 7.985738e+00 1.542816e+01 1.004278e+01 1.540295e+01 2.442575e+00 9.355059e-01 7.316862e-01 9.032983e-01 3.242011e+00 1.162489e+00 1.009308e+00 1.117348e+00 1.278494e+00 1.424359e+00 3.821524e+00 1.222525e+00 1.519840e+00 6.682511e-01
<GCONST> 1.602648e+02
<TRANSP> 5
 0.000000e+00 1.000000e+00 0.000000e+00 0.000000e+00 0.000000e+00
 0.000000e+00 7.609323e-01 2.390677e-01 0.000000e+00 0.000000e+00
 0.000000e+00 0.000000e+00 6.174559e-01 3.825441e-01 0.000000e+00
 0.000000e+00 0.000000e+00 0.000000e+00 5.296358e-01 4.703642e-01
 0.000000e+00 0.000000e+00 0.000000e+00 0.000000e+00 0.000000e+00
<ENDHMM>
~h "w"
<BEGINHMM>
<NUMSTATES> 5
<STATE> 2
<MEAN> 39
 -2.346846e+00 3.470644e+00 -5.977768e+00 -7.993016e+00 -1.140037e+01 -8.358215e+00 -1.463344e+01 -8.279645e+00 -8.306688e+00 -1.752183e+00 -3.055802e+00 -5.575241e+00 6.757291e+01 2.813627e+00 1.193267e+00 -7.884990e-01 -1.585394e+00 -1.220094e+00 1.710328e-01 -6.259320e-01 -2.294440e+00 -1.689955e+00 3.627665e-01 5.556096e-01 5.097111e-01 5.126511e-01 -1.371445e-01 -2.587882e-01 5.084790e-02 -3.995001e-01 -3.934240e-01 3.021207e-01 2.687983e-01 4.003817e-01 -1.955401e-01 -1.021188e-01 2.545172e-01 4.100347e-01 3.756337e-01
<VARIANCE> 39
 9.538049e+01 1.213414e+02 6.972003e+01 1.589071e+02 1.097682e+02 1.427788e+02 1.417413e+02 7.108764e+01 9.376329e+01 1.032057e+02 9.837771e+01 6.414645e+01 1.879746e+02 8.450598e+00 4.274728e+00 4.404475e+00 6.541556e+00 6.139994e+00 6.482343e+00 7.690666e+00 7.554667e+00 5.354529e+00 5.605715e+00 5.540425e+00 5.585043e+00 4.453374e+00 1.001740e+00 9.348137e-01 6.828962e-01 1.120448e+00 9.628484e-01 8.059196e-01 9.373233e-01 1.137444e+00 1.137006e+00 1.125051e+00 9.324818e-01 8.787860e-01 4.967068e-01
<GCONST> 1.542337e+02
<STATE> 3
<MEAN> 39
 4.023877e+00 2.016159e+00 -8.087526e+00 -2.285456e+01 -1.365720e+01 -2.372544e+00 -1.657441e+01 -1.167234e+01 -1.305788e+01 1.624459e+00 -8.047267e-01 -1.015880e+00 7.490620e+01 1.083601e+00 -3.878419e-01 -5.499111e-01 -1.670119e+00 -1.158573e+00 1.138948e+00 2.427579e-01 -7.526903e-01 -6.764642e-01 4.931944e-01 1.210840e+00 9.242945e-01 5.820234e-01 -7.633318e-01 -6.157231e-01 3.588847e-01 6.919382e-01 3.161160e-01 -1.048200e-01 2.255595e-01 7.462350e-01 5.139527e-01 3.931593e-02 -2.388555e-01 -3.390419e-01 9.370053e-02
<VARIANCE> 39
 4.809930e+01 6.053735e+01 5.933976e+01 2.671247e+02 1.410788e+02 1.449517e+02 1.330962e+02 8.611184e+01 8.700144e+01 1.139002e+02 1.320085e+02 8.252867e+01 4.706413e+01 2.479045e+00 6.057139e+00 2.255791e+00 7.383862e+00 5.289560e+00 5.738336e+00 6.829986e+00 5.386690e+00 5.630794e+00 7.783128e+00 7.364797e+00 5.643860e+00 3.530033e+00 4.421003e-01 6.790896e-01 6.654488e-01 9.042695e-01 8.323997e-01 1.208180e+00 9.467556e-01 1.782595e+00 1.396988e+00 8.923083e-01 1.443450e+00 1.321655e+00 2.993548e-01
<GCONST> 1.507329e+02
<STATE> 4
<MEAN> 39
 4.005437e+00 -5.073183e+00 -1.174807e+01 -2.459938e+01 -1.542729e+01 3.533134e+00 -1.300281e+01 -1.297458e+01 -1.115705e+01 3.369551e+00 1.584094e+00 -3.877454e+00 7.921054e+01 -3.645583e-01 -8.753532e-01 1.129729e-01 2.357216e-01 6.517450e-01 -3.724129e-02 7.102472e-02 8.328488e-02 1.524438e-01 2.893366e-01 -1.930130e-01 -8.863990e-01 4.230492e-01 -2.449985e-01 -3.014559e-02 1.666762e-01 3.317566e-01 2.477057e-01 -3.034042e-01 3.349126e-02 2.887257e-01 7.810262e-02 -1.427690e-01 -2.932902e-01 -2.769709e-01 -6.794193e-02
<VARIANCE> 39
 3.533788e+01 5.213505e+01 4.380662e+01 1.309726e+02 1.127850e+02 1.384351e+02 1.158359e+02 9.222903e+01 9.616573e+01 9.217609e+01 1.379237e+02 1.291512e+02 2.254757e+01 9.196780e-01 2.915545e+00 1.958058e+00 2.844151e+00 4.591169e+00 3.710200e+00 4.295139e+00 4.518844e+00 4.815193e+00 3.947025e+00 4.422471e+00 6.766569e+00 1.552597e+00 1.761428e-01 3.380315e-01 3.345270e-01 4.230343e-01 4.959852e-01 5.564357e-01 6.362107e-01 5.837983e-01 5.579945e-01 6.439994e-01 6.653225e-01 8.403034e-01 1.848951e-01
<GCONST> 1.337169e+02
<TRANSP> 5
 0.000000e+00 1.000000e+00 0.000000e+00 0.000000e+00 0.000000e+00
 0.000000e+00 5.083199e-01 4.916802e-01 0.000000e+00 0.000000e+00
 0.000000e+00 0.000000e+00 4.673833e-01 5.326167e-01 0.000000e+00
 0.000000e+00 0.000000e+00 0.000000e+00 7.497637e-01 2.502363e-01
 0.000000e+00 0.000000e+00 0.000000e+00 0.000000e+00 0.000000e+00
<ENDHMM>
~h "y"
<BEGINHMM>
<NUMSTATES> 5
<STATE> 2
<MEAN> 39
 -8.256933e+00 -1.847770e+00 1.200909e+01 -6.907204e+00 -1.960365e+01 -9.227699e+00 -1.577959e+01 -3.407564e+00 -1.461224e+01 -4.460388e+00 -2.779287e-02 -5.803480e+00 7.364874e+01 1.258156e-01 -3.311803e-01 1.590016e+00 -7.281710e-01 -1.936066e+00 -6.501032e-01 -2.160431e-01 4.594343e-01 -8.924854e-01 3.795817e-02 1.055771e+00 1.542035e-01 1.518000e+00 1.279955e-01 -2.378770e-01 -4.739138e-01 3.933806e-02 1.594990e-01 3.770664e-02 1.689160e-01 7.923474e-02 2.449572e-01 4.795107e-02 -2.020233e-01 -2.970167e-03 2.417377e-02
<VARIANCE> 39
 6.846835e+01 1.312916e+02 1.635461e+02 9.224783e+01 1.635167e+02 1.370655e+02 1.568524e+02 1.295840e+02 1.431960e+02 1.219988e+02 1.402838e+02 1.309148e+02 1.613455e+02 3.626998e+00 6.351681e+00 9.830617e+00 4.276140e+00 8.425215e+00 6.446652e+00 9.269371e+00 7.246499e+00 7.664361e+00 6.497054e+00 6.363444e+00 5.587647e+00 4.496727e+00 4.288589e-01 7.710661e-01 1.505067e+00 8.396595e-01 1.693841e+00 1.189502e+00 1.448097e+00 1.242249e+00 1.383221e+00 1.055864e+00 1.157409e+00 9.828969e-01 4.703588e-01
<GCONST> 1.592383e+02
<STATE> 3
<MEAN> 39
 -7.256476e+00 -7.215142e+00 1.188838e+01 -1.056638e+01 -2.726726e+01 -1.665294e+01 -1.224017e+01 3.779887e+00 -1.456057e+01 -8.240018e-01 3.438871e+00 -3.164817e+00 8.474602e+01 2.836628e-01 -8.513379e-01 -1.001325e+00 -5.746015e-02 3.316758e-01 -4.130872e-01 8.041015e-01 1.078177e+00 6.990528e-01 -1.101232e-01 -7.821189e-01 1.137597e-02 2.966259e-01 1.090021e-01 -7.764305e-02 -4.026786e-01 6.605827e-02 6.659452e-01 1.511187e-01 -2.684959e-02 -6.016882e-02 2.564923e-01 -1.843470e-01 -5.389891e-01 -2.509094e-01 -1.171247e-01
<VARIANCE> 39
 2.180306e+01 7.492181e+01 4.983973e+01 5.899116e+01 7.059908e+01 8.464333e+01 1.134466e+02 1.385880e+02 1.261322e+02 1.072137e+02 1.876435e+02 1.937324e+02 1.844085e+01 6.199203e-01 2.562158e+00 4.541825e+00 1.671071e+00 4.976500e+00 2.711111e+00 3.977294e+00 5.192893e+00 4.610370e+00 3.968931e+00 5.647148e+00 3.375919e+00 6.865195e-01 8.167811e-02 2.644142e-01 3.118040e-01 3.056880e-01 5.483477e-01 4.998915e-01 6.985031e-01 9.310340e-01 5.353509e-01 6.387164e-01 6.222966e-01 5.382052e-01 1.047860e-01
<GCONST> 1.296129e+02
<STATE> 4
<MEAN> 39
 -4.616254e+00 -1.030243e+01 2.041133e+00 -1.058762e+01 -1.290746e+01 -1.656723e+01 -3.903249e+00 5.419398e+00 -3.812149e+00 -5.567583e+00 -8.373971e+00 -4.891978e+00 8.363880e+01 2.312977e-01 -2.645852e-01 -1.095486e+00 1.343369e-01 1.987806e+00 7.900203e-01 1.109800e-02 -4.456500e-01 7.635384e-01 -3.921770e-01 -1.285850e+00 -5.519013e-01 -4.399218e-01 -3.296805e-02 2.488742e-01 1.506130e-01 4.521018e-02 -1.743115e-02 1.559245e-01 -2.161564e-01 -3.812270e-01 -1.686850e-01 1.733802e-01 1.920951e-01 1.830866e-02 -1.968495e-01
<VARIANCE> 39
 2.457822e+01 7.587415e+01 3.909702e+01 9.788158e+01 1.690638e+02 1.263001e+02 1.771637e+02 1.756406e+02 1.300075e+02 8.241540e+01 1.380729e+02 2.026953e+02 4.084186e+01 5.639565e-01 1.299006e+00 2.669432e+00 1.627845e+00 3.602890e+00 2.503584e+00 3.128196e+00 2.930874e+00 3.397715e+00 3.092509e+00 3.974604e+00 3.427605e+00 5.124277e-01 7.395003e-02 2.011401e-01 2.318404e-01 2.608995e-01 3.942835e-01 4.331694e-01 5.485376e-01 6.698590e-01 5.139649e-01 5.174246e-01 4.992225e-01 4.836231e-01 9.497545e-02
<GCONST> 1.259877e+02
<TRANSP> 5
 0.000000e+00 1.000000e+00 0.000000e+00 0.000000e+00 0.000000e+00
 0.000000e+00 6.904482e-01 3.095518e-01 0.000000e+00 0.000000e+00
 0.000000e+00 0.000000e+00 7.965197e-01 2.034803e-01 0.000000e+00
 0.000000e+00 0.000000e+00 0.000000e+00 7.201821e-01 2.798179e-01
 0.000000e+00 0.000000e+00 0.000000e+00 0.000000e+00 0.000000e+00
<ENDHMM>
~h "ex"
<BEGINHMM>
<NUMSTATES> 5
<STATE> 2
<MEAN> 39
 -5.980002e+00 -1.125665e+01 3.323263e+00 -5.687656e+00 -1.917731e+01 -1.473007e+01 -8.154279e+00 2.922492e+00 -8.517681e+00 -4.114890e+00 -2.461266e+00 -4.488515e+00 7.636999e+01 4.102310e-01 -1.398044e+00 1.533753e+00 -1.142732e+00 -2.291049e+00 -1.211665e+00 4.681782e-01 1.594332e+00 -1.343783e+00 -5.800900e-01 8.857183e-01 5.764358e-02 2.563375e+00 -1.103760e-01 4.036787e-01 -1.008810e-01 1.839879e-01 2.505738e-01 2.403772e-01 9.178473e-02 -4.024014e-01 -1.715358e-01 3.266543e-01 3.499149e-02 -1.258494e-01 -2.951698e-01
<VARIANCE> 39
 7.625780e+01 9.427080e+01 8.025051e+01 8.546609e+01 1.280819e+02 1.354212e+02 1.569749e+02 1.328089e+02 1.571824e+02 1.026629e+02 1.109092e+02 1.320181e+02 1.636332e+02 4.483721e+00 5.305741e+00 4.597423e+00 5.465664e+00 7.793062e+00 8.532485e+00 1.030163e+01 1.022239e+01 7.933892e+00 8.810395e+00 7.787543e+00 8.160243e+00 5.732416e+00 5.938841e-01 1.086252e+00 7.917424e-01 1.047054e+00 1.322580e+00 1.428210e+00 1.565155e+00 1.441216e+00 1.379070e+00 1.334818e+00 1.237899e+00 1.209085e+00 1.184935e+00
<GCONST> 1.608740e+02
<STATE> 3
<MEAN> 39
 -4.916762e+00 -1.340898e+01 7.903705e+00 -9.026250e+00 -2.424137e+01 -1.919008e+01 -1.063671e+01 7.899077e+00 -1.429787e+01 -1.860603e+00 2.453940e+00 -6.905274e+00 8.568052e+01 -1.656627e-01 7.946012e-01 5.527046e-01 5.672758e-01 -1.504454e-01 -1.956660e-03 5.725192e-01 -6.688535e-01 -1.060870e+00 5.131966e-01 2.562464e-01 -1.609883e-01 -6.352345e-01 1.083658e-03 4.811262e-01 -3.278759e-01 4.540497e-01 7.034844e-01 3.391571e-01 -2.119609e-02 -5.765556e-01 3.608450e-01 1.181606e-01 -4.062228e-01 4.680314e-02 -7.537854e-01
<VARIANCE> 39
 3.568030e+01 7.224118e+01 5.205576e+01 6.132729e+01 8.663298e+01 9.299919e+01 1.165508e+02 1.449902e+02 1.454875e+02 9.901598e+01 1.448936e+02 1.608450e+02 2.500892e+01 1.034466e+00 2.158867e+00 2.307112e+00 2.703557e+00 4.635283e+00 3.455524e+00 4.736041e+00 4.331569e+00 6.071818e+00 3.938434e+00 4.532130e+00 4.551149e+00 2.626097e+00 2.421554e-01 4.163404e-01 4.210597e-01 4.537179e-01 7.797090e-01 8.128327e-01 9.589313e-01 1.050232e+00 1.173104e+00 8.997399e-01 8.211961e-01 9.947096e-01 2.208568e-01
<GCONST> 1.387188e+02
<STATE> 4
<MEAN> 39
 -7.267036e+00 -6.614660e+00 9.234171e+00 -6.018663e+00 -2.302398e+01 -1.644782e+01 -3.734350e+00 -7.676706e-01 -1.461072e+01 -5.795439e-01 -9.584496e-01 -2.512633e+00 7.996010e+01 -1.669298e-01 6.083469e-01 -2.887080e-01 7.859979e-01 1.079107e+00 4.915897e-01 3.969675e-01 -4.699009e-01 5.768824e-01 -2.005472e-01 -4.004529e-01 2.057322e-01 -1.354198e+00 -7.289873e-02 1.324399e-02 -9.530268e-02 2.579514e-02 1.204363e-01 7.418650e-02 -1.303992e-01 7.092175e-02 1.108603e-01 -4.223319e-03 -2.439186e-02 -1.418703e-02 -6.918523e-02
<VARIANCE> 39
 3.272948e+01 7.667393e+01 6.287363e+01 7.546901e+01 1.149879e+02 1.043923e+02 1.333867e+02 1.592122e+02 1.495953e+02 1.377598e+02 1.382945e+02 1.468717e+02 6.038048e+01 9.619248e-01 1.778079e+00 2.032113e+00 2.452027e+00 3.614596e+00 3.551453e+00 4.539356e+00 4.173674e+00 4.644234e+00 3.816732e+00 3.885257e+00 4.392283e+00 1.988622e+00 1.644762e-01 2.567245e-01 3.481181e-01 3.964600e-01 5.121838e-01 5.716056e-01 6.834373e-01 6.288022e-01 8.467660e-01 6.867963e-01 5.938526e-01 6.854099e-01 1.834189e-01
<GCONST> 1.349606e+02
<TRANSP> 5
 0.000000e+00 1.000000e+00 0.000000e+00 0.000000e+00 0.000000e+00
 0.000000e+00 5.793972e-01 4.206027e-01 0.000000e+00 0.000000e+00
 0.000000e+00 0.000000e+00 7.058330e-01 2.941670e-01 0.000000e+00
 0.000000e+00 0.000000e+00 0.000000e+00 8.033782e-01 1.966218e-01
 0.000000e+00 0.000000e+00 0.000000e+00 0.000000e+00 0.000000e+00
<ENDHMM>
~h "ng"
<BEGINHMM>
<NUMSTATES> 5
<STATE> 2
<MEAN> 39
 1.313454e-01 -3.063411e+00 1.602635e+00 -3.366589e+00 -1.172936e+01 -6.173193e+00 -1.177343e+01 -9.854755e+00 -8.830878e+00 -4.494108e+00 -1.060075e+01 -1.079857e+01 7.515736e+01 2.478393e-01 8.441164e-01 5.879352e-01 1.455701e+00 -9.501275e-02 -1.894122e-01 1.066513e-01 -1.179352e+00 -2.763487e-01 4.099301e-01 -6.990060e-01 5.658492e-01 -1.191354e+00 -1.714669e-01 -2.397510e-02 -5.344241e-02 -2.364037e-01 -4.412150e-02 -1.089914e-02 2.671703e-02 2.470959e-01 -8.512678e-02 1.380986e-02 1.814309e-01 3.083298e-02 1.380799e-01
<VARIANCE> 39
 1.931898e+01 6.512799e+01 5.055388e+01 5.781377e+01 9.337775e+01 7.944299e+01 8.200893e+01 8.647428e+01 1.314140e+02 1.167201e+02 1.371064e+02 8.507852e+01 2.862059e+01 7.726110e-01 1.493894e+00 2.704130e+00 2.760055e+00 3.996025e+00 4.470149e+00 4.892805e+00 6.556445e+00 4.993160e+00 3.989308e+00 4.425147e+00 4.124387e+00 8.026562e-01 8.893705e-02 2.134355e-01 3.385131e-01 4.299662e-01 5.649161e-01 6.040416e-01 7.026323e-01 9.171944e-01 7.907959e-01 6.653269e-01 7.317112e-01 7.940468e-01 1.248008e-01
<GCONST> 1.304381e+02
<STATE> 3
<MEAN> 39
 -5.683811e-02 -1.763811e+00 4.513447e+00 -1.866071e+00 -1.248275e+01 -3.287632e+00 -1.638147e+01 -8.935855e+00 -1.090903e+01 1.338504e+00 -2.013169e+01 -4.479826e+00 7.224306e+01 -1.038016e-01 1.089973e+00 -6.553777e-02 8.930176e-01 6.881551e-02 1.190035e-02 2.637636e-01 -6.621732e-01 -4.007332e-01 1.101930e-01 6.344944e-02 2.768607e-01 -9.628575e-01 -3.336393e-01 -1.270494e-01 -2.842480e-01 -5.405942e-01 3.946205e-01 -2.249794e-02 1.052130e-01 3.934852e-01 -2.869475e-02 -2.611845e-01 6.163603e-01 -1.493128e-01 2.979116e-01
<VARIANCE> 39
 1.978086e+01 6.820759e+01 6.644493e+01 7.447308e+01 1.489468e+02 9.239182e+01 1.697551e+02 1.110754e+02 1.223931e+02 1.661725e+02 2.952118e+02 1.550012e+02 3.636355e+01 8.907449e-01 2.526371e+00 3.054427e+00 4.080260e+00 5.989364e+00 4.248631e+00 5.597030e+00 6.540340e+00 5.683517e+00 4.884816e+00 6.958619e+00 4.963992e+00 1.406943e+00 2.225277e-01 4.606448e-01 6.824853e-01 7.860968e-01 1.145164e+00 1.018139e+00 1.215028e+00 1.548411e+00 1.218490e+00 1.162789e+00 1.472669e+00 1.124244e+00 2.519764e-01
<GCONST> 1.457476e+02
<STATE> 4
<MEAN> 39
 5.822312e-01 3.754004e-01 5.473690e-02 -7.494848e-01 -1.088917e+01 -5.949468e+00 -9.880892e+00 -1.148859e+01 -1.091295e+01 -3.854561e+00 -9.586344e+00 -1.045850e+01 7.106680e+01 -9.244853e-01 9.177275e-02 -6.062517e-01 -6.466407e-01 1.469438e+00 3.504510e-01 7.592484e-02 6.454818e-01 -1.831460e-01 -2.888749e-01 7.962387e-01 -2.170043e-01 6.419974e-02 -3.722624e-01 -6.325980e-01 -1.296868e-01 -6.473501e-01 1.138310e-01 4.035469e-02 -2.738623e-01 6.140104e-01 2.766137e-01 -5.969718e-02 2.125752e-01 3.061255e-02 6.429615e-01
<VARIANCE> 39
 3.310336e+01 7.757047e+01 6.974724e+01 7.021042e+01 1.020102e+02 7.965096e+01 8.779562e+01 7.311956e+01 1.256932e+02 1.076212e+02 1.473695e+02 8.745556e+01 6.068790e+01 1.571073e+00 4.353357e+00 4.073219e+00 5.021187e+00 6.137813e+00 5.536724e+00 6.272955e+00 8.279154e+00 6.420290e+00 5.835892e+00 7.922712e+00 5.638785e+00 2.955110e+00 3.755442e-01 6.615843e-01 8.009450e-01 7.385272e-01 1.103355e+00 1.164047e+00 1.284315e+00 1.729198e+00 1.280453e+00 1.106902e+00 1.295773e+00 9.054970e-01 3.422431e-01
<GCONST> 1.483666e+02
<TRANSP> 5
 0.000000e+00 1.000000e+00 0.000000e+00 0.000000e+00 0.000000e+00
 0.000000e+00 6.156110e-01 3.843890e-01 0.000000e+00 0.000000e+00
 0.000000e+00 0.000000e+00 4.310015e-01 5.689985e-01 0.000000e+00
 0.000000e+00 0.000000e+00 0.000000e+00 4.050679e-01 5.949321e-01
 0.000000e+00 0.000000e+00 0.000000e+00 0.000000e+00 0.000000e+00
<ENDHMM>
~h "ny"
<BEGINHMM>
<NUMSTATES> 5
<STATE> 2
<MEAN> 39
 -2.864455e+00 3.264975e+00 8.361377e+00 -4.837229e+00 -1.248582e+01 -1.210814e+01 -1.795006e+01 -5.378306e+00 -1.366971e+01 -4.406829e+00 -6.746477e+00 -4.586405e+00 7.338027e+01 -1.017306e+00 3.397875e-02 1.308594e+00 -1.556895e+00 -5.707831e-01 5.049517e-01 2.741247e-01 7.381583e-01 -8.205740e-01 -2.528865e-01 9.252203e-01 -2.232222e-01 7.370820e-01 -1.731078e-01 -7.848943e-01 6.611571e-04 -4.621765e-01 -5.567425e-01 2.304695e-01 4.166702e-01 3.555094e-01 2.339118e-02 1.623951e-02 1.797611e-01 -1.043778e-01 5.839375e-01
<VARIANCE> 39
 3.179202e+01 6.800466e+01 5.243407e+01 8.019012e+01 8.179481e+01 8.892466e+01 1.215864e+02 9.463763e+01 1.194892e+02 1.095888e+02 1.737891e+02 1.199164e+02 3.876685e+01 2.644379e+00 6.202284e+00 5.772586e+00 8.518892e+00 8.223222e+00 6.809432e+00 8.778771e+00 1.028942e+01 7.538706e+00 5.694658e+00 7.230908e+00 6.724473e+00 3.888043e+00 4.969075e-01 9.565936e-01 1.035309e+00 1.453847e+00 1.471407e+00 1.200678e+00 1.496543e+00 1.968531e+00 1.515537e+00 1.060353e+00 1.272301e+00 1.223691e+00 4.773888e-01
<GCONST> 1.547403e+02
<STATE> 3
<MEAN> 39
 -7.270414e+00 -3.666157e+00 1.281893e+01 -1.182003e+01 -2.070645e+01 -8.507990e+00 -1.155103e+01 -4.083940e-01 -1.513317e+01 -6.038908e+00 2.363503e-01 -8.650157e+00 8.109789e+01 -1.768395e-01 -2.930536e+00 -2.691550e-01 -3.098248e-01 -1.944302e+00 2.480066e-01 1.907166e+00 1.749700e+00 2.149533e-01 -1.056795e+00 -4.806127e-02 -3.054362e-01 1.753800e+00 4.341190e-01 1.229433e-03 -8.850471e-01 7.656345e-01 7.709648e-01 -3.651789e-01 -8.317104e-02 -8.813071e-02 5.203516e-01 -2.131551e-01 -8.421966e-01 2.118319e-01 -3.571463e-01
<VARIANCE> 39
 2.285676e+01 7.726794e+01 4.904899e+01 5.428811e+01 9.322262e+01 1.075020e+02 1.528859e+02 1.326712e+02 1.325067e+02 1.275376e+02 1.746384e+02 1.576515e+02 3.022762e+01 9.629930e-01 2.222983e+00 3.189631e+00 3.845597e+00 5.202510e+00 5.252757e+00 4.386301e+00 6.015117e+00 4.995813e+00 4.159595e+00 5.294945e+00 4.504713e+00 9.474291e-01 1.921013e-01 4.749166e-01 5.133539e-01 6.348302e-01 9.811371e-01 8.905387e-01 1.045769e+00 1.015224e+00 7.199288e-01 9.125873e-01 7.095466e-01 8.881673e-01 1.806218e-01
<GCONST> 1.393546e+02
<STATE> 4
<MEAN> 39
 -4.958469e+00 -1.364125e+01 5.736793e+00 -9.400646e+00 -1.720048e+01 -8.009262e+00 -9.023101e+00 5.460211e+00 -1.149222e+01 -1.276947e+01 -7.629917e+00 -6.909241e+00 8.386597e+01 3.196335e-01 -9.049485e-01 -1.548806e+00 4.417921e-01 1.281421e+00 -4.007966e-02 8.189362e-03 2.914359e-01 1.070289e+00 -6.563583e-01 -1.370200e+00 9.558449e-02 1.215259e-01 3.464482e-02 4.880298e-01 -1.159832e-02 3.344543e-02 3.459631e-01 3.633146e-02 -2.829870e-01 -4.382401e-01 5.598551e-02 3.247322e-01 4.405534e-02 -8.299283e-02 -3.790227e-01
<VARIANCE> 39
 3.098986e+01 9.262524e+01 5.444484e+01 5.213708e+01 1.360282e+02 9.872666e+01 1.539366e+02 1.521885e+02 1.622426e+02 1.128738e+02 1.793036e+02 2.040423e+02 2.462631e+01 4.983332e-01 1.529741e+00 2.067047e+00 1.623803e+00 2.419492e+00 2.347207e+00 2.751947e+00 3.469011e+00 2.736248e+00 3.636021e+00 2.951709e+00 3.169369e+00 6.013289e-01 9.654125e-02 2.717226e-01 2.765711e-01 3.437679e-01 5.813360e-01 4.180229e-01 5.504308e-01 6.646986e-01 4.605571e-01 4.732378e-01 4.651760e-01 4.968162e-01 1.536908e-01
<GCONST> 1.263661e+02
<TRANSP> 5
 0.000000e+00 1.000000e+00 0.000000e+00 0.000000e+00 0.000000e+00
 0.000000e+00 7.318382e-01 2.681618e-01 0.000000e+00 0.000000e+00
