~o
<STREAMINFO> 1 39
<VECSIZE> 39<NULLD><MFCC_D_A_0><DIAGC>
~s "silst"
<MEAN> 39
 -7.240115e+00 -1.761658e+00 -2.479011e+00 -6.016449e-01 -6.628166e+00 -1.526364e+00 -7.319281e+00 -2.300731e+00 -3.939872e+00 -2.681225e+00 -1.447626e+00 -2.764932e+00 5.021863e+01 2.162436e-01 -7.094888e-02 4.811867e-02 -7.926888e-02 -4.551839e-02 -2.377789e-01 -1.494030e-01 -8.074541e-02 -1.581530e-01 -1.755795e-02 -4.580073e-02 -4.118995e-02 6.067069e-01 1.378307e-02 -2.234404e-03 3.579284e-02 9.651683e-03 -8.135283e-03 3.829357e-02 2.170784e-02 2.521485e-02 1.646408e-02 1.526463e-02 5.572748e-03 8.662555e-03 -8.472511e-02
<VARIANCE> 39
 1.188097e+02 8.179220e+01 8.304685e+01 6.122195e+01 7.442091e+01 6.899740e+01 6.064318e+01 5.989886e+01 6.522846e+01 4.394565e+01 4.182977e+01 3.536392e+01 1.591958e+02 5.376399e+00 4.867234e+00 3.871505e+00 4.356754e+00 4.561157e+00 4.439429e+00 4.443963e+00 4.546228e+00 4.536286e+00 3.395554e+00 3.174492e+00 2.404852e+00 7.568573e+00 7.130671e-01 7.925562e-01 6.254889e-01 7.779499e-01 8.095096e-01 7.732676e-01 8.099833e-01 8.317775e-01 8.207536e-01 6.287628e-01 5.952223e-01 4.517417e-01 9.064783e-01
<GCONST> 1.411321e+02
~h "a"
<BEGINHMM>
<NUMSTATES> 5
<STATE> 2
<MEAN> 39
 -3.016119e+00 -8.075364e+00 -2.825773e+00 -9.719748e+00 -6.734222e+00 -7.633448e+00 -8.519737e+00 1.673222e+00 -1.588935e+00 7.940835e-01 -4.940757e+00 -6.221672e+00 7.115794e+01 1.854996e-01 -9.015338e-01 -4.310598e-01 -4.793507e-01 3.888705e-01 3.808140e-02 5.100304e-01 5.466015e-01 5.344763e-01 -4.399713e-01 -6.556056e-01 -8.015484e-01 7.765746e-01 -1.538942e-01 5.101463e-01 2.094671e-01 5.067056e-01 1.941107e-01 1.232582e-01 4.390720e-02 -3.705981e-01 -2.272505e-01 -5.846246e-02 5.096400e-02 2.928557e-01 -6.155879e-01
<VARIANCE> 39
 3.092527e+01 4.283974e+01 4.908512e+01 5.259855e+01 9.797800e+01 8.149180e+01 7.414664e+01 1.091740e+02 9.379015e+01 6.075172e+01 8.346428e+01 1.195397e+02 1.011905e+02 1.215697e+00 1.745618e+00 2.208925e+00 2.328350e+00 3.397219e+00 3.627795e+00 3.337602e+00 4.248610e+00 2.868123e+00 3.222808e+00 3.117419e+00 3.076075e+00 1.739868e+00 2.486891e-01 3.203337e-01 3.747336e-01 4.468390e-01 6.931553e-01 6.092522e-01 6.599331e-01 8.060248e-01 5.889628e-01 6.463231e-01 6.140196e-01 7.008999e-01 3.096814e-01
<GCONST> 1.309800e+02
<STATE> 3
<MEAN> 39
 -2.985092e+00 -8.776603e+00 -3.247916e+00 -1.047180e+01 -3.749933e+00 -7.952270e+00 -6.644139e+00 1.718969e+00 -1.337607e+00 -4.682395e-01 -7.088595e+00 -5.666109e+00 7.249471e+01 1.800316e-01 4.451821e-01 1.800345e-01 3.467657e-01 3.262182e-01 1.242810e-01 5.881456e-02 -4.002703e-01 -5.305116e-02 -3.475531e-02 -1.695709e-01 1.958297e-01 -6.620771e-01 4.001375e-02 3.379820e-01 1.429705e-01 2.620299e-01 -2.361446e-02 7.061940e-02 -1.414071e-01 -2.193929e-01 -1.125062e-01 9.769046e-02 4.814199e-02 1.691418e-01 -3.873748e-01
<VARIANCE> 39
 2.023950e+01 4.289498e+01 3.680141e+01 5.024776e+01 9.682039e+01 7.940260e+01 7.861938e+01 1.027475e+02 9.117615e+01 5.897078e+01 8.160153e+01 1.247228e+02 6.054653e+01 5.172118e-01 9.885651e-01 1.219847e+00 1.352847e+00 2.032726e+00 1.977533e+00 2.066733e+00 2.464091e+00 1.922409e+00 2.213737e+00 1.965845e+00 2.154020e+00 9.486793e-01 1.025239e-01 1.642061e-01 2.059364e-01 2.593806e-01 3.566892e-01 3.840977e-01 4.394208e-01 5.002920e-01 3.836190e-01 4.117995e-01 3.909092e-01 4.039873e-01 1.275347e-01
<GCONST> 1.152527e+02
<STATE> 4
<MEAN> 39
 -3.456430e+00 -3.626118e+00 -2.798357e+00 -3.811383e+00 -3.420928e+00 -3.296939e+00 -5.497910e+00 -1.098577e+00 -1.136400e+00 -1.232973e+00 -5.368677e+00 -4.279098e+00 6.156850e+01 -9.159710e-02 9.197514e-01 2.273831e-01 1.001592e+00 3.386202e-01 4.613543e-01 8.839136e-02 -4.405079e-01 -9.242117e-02 2.167562e-02 -7.937254e-02 3.650894e-01 -1.503873e+00 -1.285134e-01 4.796624e-03 1.842443e-02 8.178808e-03 -7.083453e-02 -1.871393e-02 1.216881e-02 8.173122e-02 -5.211411e-02 -5.211644e-04 5.032666e-02 -2.127305e-02 3.968570e-02
<VARIANCE> 39
 4.538702e+01 4.695496e+01 4.102074e+01 6.180132e+01 7.621510e+01 8.258227e+01 5.792283e+01 6.860548e+01 7.058077e+01 5.162723e+01 6.319456e+01 5.588527e+01 1.243401e+02 8.777680e-01 1.485344e+00 1.541340e+00 2.303791e+00 2.452203e+00 2.745776e+00 3.247653e+00 3.795471e+00 2.908375e+00 2.658519e+00 2.707386e+00 2.878852e+00 1.417377e+00 1.326934e-01 1.977913e-01 2.350817e-01 3.562869e-01 3.644521e-01 4.483597e-01 4.562179e-01 5.160121e-01 4.750755e-01 4.502065e-01 4.616630e-01 4.122943e-01 1.528227e-01
<GCONST> 1.213489e+02
<TRANSP> 5
 0.000000e+00 1.000000e+00 0.000000e+00 0.000000e+00 0.000000e+00
 0.000000e+00 4.708959e-01 5.291041e-01 0.000000e+00 0.000000e+00
 0.000000e+00 0.000000e+00 7.052273e-01 2.947727e-01 0.000000e+00
 0.000000e+00 0.000000e+00 0.000000e+00 6.194134e-01 3.805865e-01
 0.000000e+00 0.000000e+00 0.000000e+00 0.000000e+00 0.000000e+00
<ENDHMM>
~h "b"
<BEGINHMM>
<NUMSTATES> 5
<STATE> 2
<MEAN> 39
 -2.152888e-01 4.207642e+00 9.143865e-01 2.535211e-01 -4.675289e+00 -2.617496e+00 -7.647161e+00 -7.180811e+00 -5.720550e+00 -1.735454e+00 -3.324528e+00 -4.640061e+00 5.794069e+01 -9.872669e-02 6.846811e-01 1.185206e-01 6.090455e-01 4.868788e-01 1.375591e-01 4.402537e-01 9.460471e-02 -2.620433e-01 -4.911280e-01 2.045078e-02 2.341902e-02 -4.966789e-01 -1.144506e-01 -3.848290e-01 -1.733555e-01 -5.615878e-01 -4.573874e-01 -3.103335e-01 -4.116789e-01 1.588244e-01 1.574423e-02 2.596056e-01 3.809952e-01 1.431460e-01 7.171043e-01
<VARIANCE> 39
 3.944147e+01 2.988495e+01 3.441055e+01 3.613224e+01 3.347087e+01 3.587416e+01 3.442748e+01 4.013186e+01 4.224775e+01 3.411189e+01 4.019820e+01 2.739038e+01 6.766946e+01 1.363682e+00 1.292407e+00 2.084055e+00 3.006040e+00 2.680050e+00 3.195477e+00 3.057163e+00 3.231709e+00 2.572999e+00 3.089674e+00 3.626637e+00 2.232184e+00 1.762750e+00 2.434989e-01 3.131460e-01 4.270005e-01 4.776978e-01 5.340489e-01 6.457390e-01 7.998031e-01 7.600263e-01 7.324038e-01 6.465918e-01 5.899665e-01 6.579042e-01 2.521459e-01
<GCONST> 1.214620e+02
<STATE> 3
<MEAN> 39
 -1.265648e+00 4.586846e+00 7.456222e-01 6.825851e-01 -4.534152e+00 -2.347443e+00 -8.221033e+00 -7.317257e+00 -7.767025e+00 -2.431134e+00 -2.836054e+00 -2.941718e+00 5.558378e+01 -1.508697e-01 -7.510220e-01 -1.017860e+00 -1.211931e+00 -6.068501e-01 -6.913340e-01 -1.169387e+00 4.252081e-01 -3.373628e-02 7.060345e-01 1.269966e+00 7.828971e-01 1.749450e+00 -2.488215e-02 -6.595557e-01 -9.175520e-02 -9.302768e-01 -5.128134e-01 -1.453082e-01 -6.159602e-01 4.144458e-01 8.847194e-02 6.857045e-01 2.858408e-02 9.783442e-02 8.978842e-01
<VARIANCE> 39
 4.264819e+01 3.149961e+01 4.284687e+01 5.423372e+01 3.482385e+01 4.329533e+01 4.581015e+01 4.682465e+01 5.299953e+01 4.957030e+01 4.282417e+01 3.714994e+01 8.039125e+01 2.618969e+00 3.559422e+00 5.943440e+00 7.594614e+00 5.138169e+00 6.411276e+00 6.203821e+00 5.931870e+00 6.238523e+00 8.549103e+00 5.873147e+00 5.048240e+00 3.340073e+00 3.909624e-01 5.352960e-01 8.080204e-01 9.383823e-01 8.464922e-01 1.040947e+00 1.039878e+00 1.187773e+00 1.199625e+00 1.474400e+00 1.129792e+00 1.001272e+00 3.926185e-01
<GCONST> 1.409698e+02
<STATE> 4
<MEAN> 39
 -1.618516e+00 3.867810e-01 -2.300894e+00 -4.408560e+00 -7.277051e+00 -4.213555e+00 -1.137707e+01 -5.760170e+00 -6.697807e+00 1.502722e+00 5.748228e-01 -2.122034e+00 6.174309e+01 7.319628e-02 -1.591819e+00 -4.923422e-01 -2.413815e+00 -1.599676e+00 -5.870263e-01 -1.498047e+00 1.104170e+00 3.119916e-01 1.421045e+00 6.474450e-01 3.450784e-02 2.622004e+00 -1.924073e-02 1.170824e-02 4.170352e-01 6.567696e-02 -1.490840e-01 1.072786e-01 1.204244e-01 2.274247e-01 8.275850e-02 -1.664157e-01 -4.576344e-01 -2.153664e-01 -6.962712e-02
<VARIANCE> 39
 4.974140e+01 4.125046e+01 5.091249e+01 8.412907e+01 4.734176e+01 6.316653e+01 5.763187e+01 5.180909e+01 6.533054e+01 7.161265e+01 5.015762e+01 5.007957e+01 1.061424e+02 3.311097e+00 4.344863e+00 6.299459e+00 5.917889e+00 5.474194e+00 6.806629e+00 6.953719e+00 8.215357e+00 8.567243e+00 8.074325e+00 6.337843e+00 5.283160e+00 3.099002e+00 4.631402e-01 5.377764e-01 6.915761e-01 1.128767e+00 8.283817e-01 9.450276e-01 9.561214e-01 9.141470e-01 8.426660e-01 1.268375e+00 1.020755e+00 6.807869e-01 4.289919e-01
<GCONST> 1.442811e+02
<TRANSP> 5
 0.000000e+00 1.000000e+00 0.000000e+00 0.000000e+00 0.000000e+00
 0.000000e+00 5.539081e-01 4.460920e-01 0.000000e+00 0.000000e+00
 0.000000e+00 0.000000e+00 3.191650e-01 6.808349e-01 0.000000e+00
 0.000000e+00 0.000000e+00 0.000000e+00 2.816624e-01 7.183376e-01
 0.000000e+00 0.000000e+00 0.000000e+00 0.000000e+00 0.000000e+00
<ENDHMM>
~h "c"
<BEGINHMM>
<NUMSTATES> 5
<STATE> 2
<MEAN> 39
 -8.929370e+00 3.573499e+00 6.905155e-01 -1.100518e+00 -2.885935e+00 -7.941303e+00 -5.599039e+00 -1.374652e+00 -2.427308e+00 -1.622318e+00 -4.213752e+00 -8.059461e-01 5.751384e+01 -2.325785e+00 8.311737e-01 -6.636490e-01 -4.129944e-01 8.588294e-01 5.886903e-01 4.663785e-01 3.056706e-02 -5.140953e-02 7.808478e-02 8.558621e-01 -7.876451e-02 1.815919e-01 -6.119598e-01 -5.970296e-02 6.366321e-02 -5.143519e-01 -2.017304e-01 -1.545334e-01 -9.374198e-02 6.584033e-02 -1.692400e-01 1.760165e-02 1.891326e-01 2.308498e-01 9.182505e-01
<VARIANCE> 39
 3.979478e+01 3.719435e+01 4.387188e+01 3.628956e+01 3.659762e+01 6.657077e+01 4.717696e+01 4.590260e+01 6.163662e+01 3.804990e+01 6.007075e+01 3.528539e+01 8.251894e+01 6.371901e+00 4.030887e+00 3.094827e+00 4.678164e+00 3.516103e+00 5.271225e+00 4.894799e+00 4.841140e+00 5.202546e+00 5.068908e+00 3.868493e+00 3.614787e+00 6.288492e+00 8.967612e-01 7.051498e-01 5.666278e-01 5.951920e-01 6.360610e-01 8.810292e-01 8.442956e-01 8.704562e-01 9.498051e-01 8.998163e-01 7.801792e-01 7.876402e-01 6.084400e-01
<GCONST> 1.378399e+02
<STATE> 3
<MEAN> 39
 -2.340439e+01 6.145566e+00 -3.729734e-02 -6.938227e+00 -1.468065e+00 -6.419124e+00 -4.346216e+00 -7.273489e-01 -5.076141e+00 -1.193571e+00 1.954997e-01 9.758328e-01 6.511736e+01 -1.120646e+00 -1.313769e-01 8.203737e-01 -7.510210e-01 -1.079105e+00 -7.802408e-01 -1.507349e-01 3.355938e-01 -4.676896e-01 -2.769825e-01 3.779942e-01 7.241625e-01 1.844554e+00 1.944069e+00 -6.666290e-01 3.459131e-01 4.930469e-01 -7.790706e-01 -5.223122e-01 -3.762446e-01 -8.467232e-02 8.400296e-02 -1.395013e-01 -4.121442e-01 -1.688048e-01 -2.683661e-01
<VARIANCE> 39
 4.409126e+01 5.186133e+01 3.950222e+01 3.877047e+01 3.242923e+01 4.067859e+01 7.067578e+01 5.570030e+01 7.853603e+01 7.419200e+01 5.230622e+01 4.316241e+01 6.063010e+01 1.115242e+01 3.570974e+00 3.441496e+00 3.462396e+00 3.976195e+00 4.497844e+00 4.394795e+00 4.949838e+00 3.409566e+00 3.940660e+00 3.116960e+00 3.507348e+00 3.570743e+00 1.007680e+00 8.162178e-01 6.363296e-01 6.888791e-01 7.793613e-01 9.990135e-01 1.139872e+00 1.196789e+00 8.992181e-01 1.257659e+00 7.043551e-01 6.959550e-01 4.225230e-01
<GCONST> 1.386832e+02
<STATE> 4
<MEAN> 39
 -1.261998e+01 8.097631e-01 2.321773e+00 -5.617789e+00 -8.632499e+00 -1.269941e+01 -7.662083e+00 2.545913e-01 -3.974153e+00 -3.892000e+00 -1.854458e+00 1.384717e+00 6.818957e+01 4.134503e+00 -2.067124e+00 2.476662e-01 -8.775496e-02 -1.773331e+00 -1.362197e+00 -7.590860e-01 -1.130589e-01 2.995701e-01 -8.801696e-02 -7.809418e-01 -6.387641e-01 1.435351e+00 2.472401e-04 -4.182561e-02 -3.407666e-01 -9.817414e-02 4.951507e-01 5.511509e-01 2.133752e-01 -1.236735e-01 -1.778925e-02 2.835082e-01 4.060778e-03 -3.206882e-01 -2.282275e-01
<VARIANCE> 39
 7.371759e+01 5.050600e+01 4.249961e+01 2.583146e+01 4.655712e+01 5.634667e+01 5.989968e+01 6.269799e+01 5.574639e+01 4.637410e+01 4.008271e+01 7.545082e+01 6.442397e+01 3.480742e+00 3.848065e+00 3.801296e+00 2.661705e+00 6.108071e+00 5.850601e+00 6.717724e+00 6.789678e+00 3.885447e+00 5.478151e+00 3.243660e+00 4.399533e+00 1.671643e+00 1.566151e+00 5.259039e-01 4.134507e-01 4.100848e-01 8.590189e-01 8.534630e-01 8.135930e-01 8.187310e-01 4.830130e-01 6.246121e-01 5.435507e-01 6.155397e-01 3.148230e-01
<GCONST> 1.354424e+02
<TRANSP> 5
 0.000000e+00 1.000000e+00 0.000000e+00 0.000000e+00 0.000000e+00
 0.000000e+00 7.121496e-01 2.878505e-01 0.000000e+00 0.000000e+00
 0.000000e+00 0.000000e+00 6.549911e-01 3.450089e-01 0.000000e+00
 0.000000e+00 0.000000e+00 0.000000e+00 5.986521e-01 4.013479e-01
 0.000000e+00 0.000000e+00 0.000000e+00 0.000000e+00 0.000000e+00
<ENDHMM>
~h "d"
<BEGINHMM>
<NUMSTATES> 5
<STATE> 2
<MEAN> 39
 -1.144294e+00 3.078427e+00 3.974252e+00 1.632358e+00 -5.502801e+00 -6.170895e+00 -8.351447e+00 -2.993123e+00 -3.560946e+00 -3.314903e+00 -6.486992e+00 -3.532477e+00 5.776811e+01 -5.054286e-01 -7.695424e-02 1.016775e+00 -1.758789e-01 -1.219766e-01 -1.612167e-01 -5.120233e-02 3.548642e-01 -5.672856e-01 -4.777059e-01 5.074967e-01 2.685142e-01 4.845765e-01 -3.664620e-01 -7.345251e-01 1.784082e-01 -8.167972e-01 -8.868625e-01 -4.830657e-01 -4.103909e-01 3.372638e-01 -1.716064e-01 3.188193e-01 6.106430e-01 3.295380e-01 1.166705e+00
<VARIANCE> 39
 3.755807e+01 4.189670e+01 4.417323e+01 3.940572e+01 3.832193e+01 4.649541e+01 3.786995e+01 4.894697e+01 4.585687e+01 3.308146e+01 5.501738e+01 3.321481e+01 8.041994e+01 2.404016e+00 4.213769e+00 3.479745e+00 5.277903e+00 4.698887e+00 5.585559e+00 4.618984e+00 5.574864e+00 4.124065e+00 3.611865e+00 4.901322e+00 3.824225e+00 4.739542e+00 3.570702e-01 5.385925e-01 5.758865e-01 6.185327e-01 8.478573e-01 9.291309e-01 9.428850e-01 1.142944e+00 1.070990e+00 7.406169e-01 8.829037e-01 8.984284e-01 3.641349e-01
<GCONST> 1.353447e+02
<STATE> 3
<MEAN> 39
 -4.732328e+00 -1.696061e+00 7.350125e+00 -2.665120e+00 -7.941407e+00 -8.069045e+00 -1.153203e+01 -1.342726e-01 -5.608699e+00 -3.692408e+00 -3.843305e+00 6.931464e-01 6.255264e+01 -9.687356e-01 -1.713551e+00 9.277028e-01 -2.006697e+00 -2.325511e+00 -1.687852e+00 -1.182880e+00 1.455485e+00 -8.840140e-01 8.160555e-01 1.599653e+00 1.168591e+00 3.054668e+00 1.483604e-01 2.814681e-02 -3.182333e-01 -8.870599e-02 -4.778439e-01 -7.538804e-02 3.681842e-03 3.877566e-02 -8.701616e-03 4.827531e-01 -4.417770e-02 -2.892999e-01 2.739999e-01
<VARIANCE> 39
 3.169220e+01 3.625260e+01 6.325060e+01 5.179590e+01 4.982816e+01 7.210690e+01 8.319611e+01 5.626768e+01 6.550064e+01 4.500689e+01 6.775713e+01 6.479768e+01 1.033602e+02 2.384555e+00 4.124131e+00 5.819469e+00 4.863136e+00 5.854847e+00 5.778545e+00 5.904361e+00 1.028549e+01 7.615160e+00 5.744365e+00 6.237963e+00 5.951256e+00 3.636027e+00 2.699989e-01 4.861829e-01 6.534975e-01 8.726251e-01 1.215558e+00 1.439736e+00 1.282928e+00 9.933194e-01 9.970397e-01 1.168144e+00 1.105168e+00 8.996697e-01 4.587436e-01
<GCONST> 1.439880e+02
<STATE> 4
<MEAN> 39
 -3.445708e+00 -5.037574e+00 8.968880e+00 -4.536776e+00 -1.526246e+01 -9.303274e+00 -1.417902e+01 1.199567e+00 -7.241260e+00 -1.482872e+00 1.066723e+00 -1.587333e+00 6.668005e+01 -1.682493e-01 -6.202626e-01 8.139062e-02 -8.245578e-01 -1.811014e+00 -6.669421e-01 -3.744082e-01 6.758457e-01 -1.838937e-01 6.426951e-01 7.653109e-01 -2.044875e-01 1.681648e+00 1.899568e-01 4.132479e-01 -3.573193e-01 4.155040e-01 3.927956e-01 4.042275e-01 2.993090e-01 -2.892767e-01 1.759382e-01 -3.942552e-02 -3.978854e-01 -3.284265e-01 -5.129279e-01
<VARIANCE> 39
 4.302110e+01 5.224787e+01 1.226670e+02 6.061527e+01 8.601334e+01 8.856471e+01 8.406944e+01 9.146809e+01 9.640777e+01 4.345235e+01 7.550254e+01 6.631854e+01 1.028956e+02 2.495375e+00 3.390988e+00 6.646822e+00 3.992731e+00 7.802999e+00 6.211585e+00 6.042593e+00 6.540124e+00 7.177120e+00 4.365350e+00 4.864134e+00 3.357258e+00 3.393287e+00 3.625790e-01 6.370955e-01 7.983620e-01 8.395702e-01 1.162079e+00 1.020396e+00 1.095877e+00 1.119318e+00 8.315905e-01 7.246037e-01 7.782786e-01 7.138151e-01 5.106395e-01
<GCONST> 1.448615e+02
<TRANSP> 5
 0.000000e+00 1.000000e+00 0.000000e+00 0.000000e+00 0.000000e+00
 0.000000e+00 5.409453e-01 4.590547e-01 0.000000e+00 0.000000e+00
 0.000000e+00 0.000000e+00 2.315139e-01 7.684861e-01 0.000000e+00
 0.000000e+00 0.000000e+00 0.000000e+00 4.055506e-01 5.944494e-01
 0.000000e+00 0.000000e+00 0.000000e+00 0.000000e+00 0.000000e+00
<ENDHMM>
~h "e"
<BEGINHMM>
<NUMSTATES> 5
<STATE> 2
<MEAN> 39
 -5.660646e+00 -1.463353e+00 -2.704965e+00 -4.950247e+00 -5.769916e+00 -7.225607e+00 -1.121462e+01 -3.372056e+00 -3.292529e+00 8.563204e-01 -2.353807e+00 -2.869139e+00 6.324596e+01 1.738492e+00 -1.086388e+00 2.515633e-01 -1.490169e+00 -1.116681e+00 -5.021295e-01 -1.192934e+00 -2.749408e-01 2.278076e-01 8.391289e-01 -1.150269e-01 -5.599167e-01 1.798247e+00 -1.578100e-02 1.659723e-01 3.203394e-01 3.814064e-01 1.099561e-01 2.778167e-01 1.953609e-01 -8.909542e-03 -7.679562e-02 -5.472753e-02 -2.342884e-01 3.941979e-02 -3.904591e-01
<VARIANCE> 39
 7.044829e+01 4.914737e+01 4.434819e+01 6.696581e+01 6.665826e+01 7.908630e+01 6.990879e+01 7.794592e+01 8.429130e+01 6.404626e+01 6.068117e+01 5.999075e+01 1.355103e+02 5.283891e+00 4.315164e+00 4.290299e+00 5.378415e+00 6.159794e+00 6.428213e+00 7.022409e+00 8.817170e+00 5.636310e+00 6.477881e+00 4.768835e+00 4.553330e+00 4.451434e+00 6.348400e-01 5.590118e-01 6.026003e-01 9.514455e-01 9.347326e-01 1.079470e+00 9.739859e-01 1.134254e+00 8.715794e-01 9.980401e-01 8.058803e-01 6.700267e-01 7.695798e-01
<GCONST> 1.464369e+02
<STATE> 3
<MEAN> 39
 -2.657095e+00 -3.158940e+00 -1.235169e+00 -8.116417e+00 -5.928237e+00 -7.978382e+00 -1.380241e+01 -3.031435e+00 -3.325228e+00 3.657220e+00 -4.690730e+00 -1.933033e+00 6.706897e+01 9.676535e-01 -4.530070e-01 6.672599e-01 -3.326651e-01 -6.047089e-01 1.606527e-01 -4.398273e-01 -7.143013e-02 1.609387e-01 4.193676e-01 -4.906379e-01 -4.315442e-01 3.932508e-01 -4.593982e-01 4.983637e-01 1.731340e-01 8.612115e-01 3.088485e-01 2.785809e-01 4.735525e-01 -3.836394e-02 -1.319672e-01 -4.507278e-01 -9.583055e-02 1.409368e-01 -8.320476e-01
<VARIANCE> 39
 4.368180e+01 5.227248e+01 4.438350e+01 6.842524e+01 8.712093e+01 9.062605e+01 7.954245e+01 9.906290e+01 1.081653e+02 9.010409e+01 1.001763e+02 1.059476e+02 1.011609e+02 2.808561e+00 3.433187e+00 2.682291e+00 4.531006e+00 4.617330e+00 4.801462e+00 4.261921e+00 6.410145e+00 4.289219e+00 5.910884e+00 4.853292e+00 4.522937e+00 3.777583e+00 4.724773e-01 5.675985e-01 6.191863e-01 9.339893e-01 1.055663e+00 1.101849e+00 1.240744e+00 1.568216e+00 1.109154e+00 1.316787e+00 1.015170e+00 1.104214e+00 5.101514e-01
<GCONST> 1.460404e+02
<STATE> 4
<MEAN> 39
 3.320706e-01 -5.385165e+00 8.385538e-01 -5.846302e+00 -1.021796e+01 -4.317193e+00 -1.323982e+01 -2.407039e+00 -3.057513e+00 8.403069e-01 -1.417586e+00 -5.465816e+00 6.544336e+01 9.005078e-02 5.479812e-01 4.005190e-01 8.392916e-01 3.129969e-01 2.362433e-01 3.179490e-01 -2.164642e-01 -1.643813e-01 -2.295628e-01 -3.555915e-01 1.581537e-01 -7.406509e-01 -3.186980e-01 3.518293e-01 -6.938875e-02 3.860618e-01 3.201858e-01 3.683402e-02 3.114643e-01 -8.107702e-02 -1.257109e-01 -1.115356e-01 -6.517126e-02 1.964874e-01 -4.063254e-01
<VARIANCE> 39
 5.246383e+01 8.636744e+01 7.626104e+01 6.671898e+01 7.834659e+01 1.043985e+02 6.709424e+01 9.938561e+01 8.318061e+01 5.331775e+01 7.186873e+01 5.589976e+01 9.098928e+01 1.955698e+00 4.415775e+00 3.076679e+00 4.549426e+00 3.786391e+00 4.261155e+00 4.058627e+00 5.377499e+00 3.989821e+00 3.725957e+00 3.714938e+00 2.763051e+00 3.267242e+00 4.442912e-01 8.593186e-01 5.995667e-01 8.235652e-01 8.602687e-01 8.185120e-01 9.198397e-01 1.227294e+00 8.227573e-01 6.819723e-01 6.746593e-01 6.168667e-01 5.499879e-01
<GCONST> 1.405715e+02
<TRANSP> 5
 0.000000e+00 1.000000e+00 0.000000e+00 0.000000e+00 0.000000e+00
 0.000000e+00 1.761414e-01 8.238586e-01 0.000000e+00 0.000000e+00
 0.000000e+00 0.000000e+00 2.372213e-01 7.627787e-01 0.000000e+00
 0.000000e+00 0.000000e+00 0.000000e+00 4.833540e-01 5.166460e-01
 0.000000e+00 0.000000e+00 0.000000e+00 0.000000e+00 0.000000e+00
<ENDHMM>
~h "f"
<BEGINHMM>
<NUMSTATES> 5
<STATE> 2
<MEAN> 39
 -1.144730e+01 -6.636339e-01 -2.247257e+00 9.272214e-01 -2.677349e+00 -2.950056e+00 -2.811571e+00 6.995351e-01 -4.502501e+00 -1.864257e+00 -3.544507e+00 -3.891429e+00 6.009247e+01 -1.760595e+00 -8.623669e-02 -6.118408e-01 5.493922e-01 2.254780e-01 2.234996e-01 6.917606e-01 7.813579e-01 5.148872e-01 1.957847e-01 5.905108e-01 6.974187e-01 -7.264677e-01 9.533498e-02 -3.161312e-01 1.121262e-01 -2.058789e-01 -1.806030e-01 -1.155187e-01 -1.789800e-01 -8.170288e-03 -7.259543e-02 7.997036e-02 1.574830e-01 1.113753e-01 1.482864e-01
<VARIANCE> 39
 4.079984e+01 2.429849e+01 4.618595e+01 3.008768e+01 4.370082e+01 3.638637e+01 4.999581e+01 3.965676e+01 5.287947e+01 3.693642e+01 3.907315e+01 3.199663e+01 1.239868e+02 2.410628e+00 2.230871e+00 2.355444e+00 2.346539e+00 2.919477e+00 2.779440e+00 3.145373e+00 2.658456e+00 3.831383e+00 3.084058e+00 2.366286e+00 2.622998e+00 1.014259e+00 4.451392e-01 2.881963e-01 3.478470e-01 3.654378e-01 4.653217e-01 3.853803e-01 5.238127e-01 4.804784e-01 5.934684e-01 4.223033e-01 4.197090e-01 4.790522e-01 1.474785e-01
<GCONST> 1.201076e+02
<STATE> 3
<MEAN> 39
 -1.603716e+01 -2.840666e+00 -2.462506e+00 1.871008e+00 -1.816839e+00 -3.139132e+00 -2.753600e+00 3.287902e+00 -1.499265e+00 9.269633e-01 -6.989931e-01 -1.037444e+00 5.857210e+01 -7.075143e-02 -5.741420e-02 4.807356e-02 3.077112e-01 -8.324888e-02 1.501565e-01 -1.545059e-01 -1.733220e-01 3.201644e-01 3.564611e-03 -2.750448e-01 1.226248e-01 -7.213693e-01 5.198174e-01 9.211303e-02 1.685904e-01 -1.351465e-01 -2.686961e-01 -2.584374e-01 -2.366092e-01 -2.060400e-01 -2.251910e-01 -1.931482e-01 -1.387433e-01 -1.645404e-01 1.202154e-01
<VARIANCE> 39
 3.563192e+01 2.333103e+01 3.015561e+01 3.455527e+01 3.528387e+01 3.589991e+01 3.547248e+01 3.347345e+01 7.421741e+01 5.086941e+01 4.662294e+01 2.842798e+01 1.092538e+02 2.816902e+00 1.890673e+00 1.704501e+00 2.215724e+00 1.592191e+00 2.411875e+00 2.965034e+00 2.286921e+00 3.007421e+00 2.784459e+00 3.024264e+00 2.108934e+00 1.656106e+00 5.673794e-01 4.062010e-01 3.454374e-01 4.476648e-01 3.982202e-01 5.656976e-01 7.898585e-01 5.495505e-01 7.012332e-01 6.105825e-01 5.223187e-01 4.915417e-01 2.483557e-01
<GCONST> 1.211756e+02
<STATE> 4
<MEAN> 39
 -1.621721e+01 1.148000e-01 -5.724095e+00 2.637895e+00 -5.475810e+00 -9.734664e-01 -5.514668e+00 -1.945757e+00 -4.281543e+00 -2.382504e+00 -3.345872e+00 -1.637846e+00 3.881624e+01 1.414523e-01 -1.499319e-03 9.312144e-03 -4.048194e-02 -1.570089e-01 -2.038577e-01 -1.481821e-01 -1.294765e-01 -9.107447e-02 -1.058628e-01 2.396672e-02 -3.166916e-02 -5.090655e-02 1.517518e-01 -9.849634e-03 5.632887e-02 -7.977969e-02 -7.822266e-02 -1.156129e-01 -2.608804e-02 -2.881505e-02 -8.815642e-02 -1.129543e-02 4.834345e-02 -1.806487e-02 1.801484e-01
<VARIANCE> 39
 1.267889e+01 1.296229e+01 1.842945e+01 1.407295e+01 1.863460e+01 1.984488e+01 1.881872e+01 2.169613e+01 2.820656e+01 1.932433e+01 1.931327e+01 1.096461e+01 1.044550e+02 1.503855e+00 6.760433e-01 9.633979e-01 1.168486e+00 1.388195e+00 1.359913e+00 1.814069e+00 1.920246e+00 1.860813e+00 1.823161e+00 1.424900e+00 1.332068e+00 4.666615e-01 2.270813e-01 1.598295e-01 1.822687e-01 2.607301e-01 3.592826e-01 3.476906e-01 3.598968e-01 3.270700e-01 4.682845e-01 4.008446e-01 3.408796e-01 2.433173e-01 1.478189e-01
<GCONST> 9.702967e+01
<TRANSP> 5
 0.000000e+00 1.000000e+00 0.000000e+00 0.000000e+00 0.000000e+00
 0.000000e+00 5.782064e-01 4.217936e-01 0.000000e+00 0.000000e+00
 0.000000e+00 0.000000e+00 6.433445e-01 3.566556e-01 0.000000e+00
 0.000000e+00 0.000000e+00 0.000000e+00 8.121126e-01 1.878873e-01
 0.000000e+00 0.000000e+00 0.000000e+00 0.000000e+00 0.000000e+00
<ENDHMM>
~h "g"
<BEGINHMM>
<NUMSTATES> 5
<STATE> 2
<MEAN> 39
 -2.839705e+00 1.945810e+00 2.360743e+00 5.627429e-02 -4.383255e+00 -4.922064e+00 -1.063463e+01 -5.159090e+00 -5.626497e+00 1.205796e+00 -5.113698e+00 -3.101005e+00 5.894106e+01 -2.641335e-01 2.739474e-01 1.364571e-02 2.987836e-01 6.207937e-02 -3.815081e-01 -4.559180e-01 1.636763e-01 -1.848813e-01 4.648638e-02 2.307374e-01 -8.389205e-04 2.521484e-01 -1.117562e-01 -3.074651e-01 1.242158e-01 -5.208627e-01 -4.869993e-01 -1.723831e-01 -2.321353e-01 2.708248e-01 -9.938491e-02 1.883418e-01 2.498785e-01 -3.749088e-02 6.143130e-01
<VARIANCE> 39
 3.884656e+01 4.197775e+01 5.375055e+01 3.959451e+01 5.884609e+01 6.334880e+01 6.921733e+01 5.814320e+01 7.429700e+01 7.806924e+01 8.393852e+01 5.390239e+01 7.772213e+01 2.424340e+00 2.807044e+00 5.124221e+00 4.070944e+00 5.860251e+00 5.536019e+00 5.885086e+00 5.548307e+00 5.459072e+00 7.644981e+00 6.383524e+00 4.342010e+00 4.082100e+00 5.197598e-01 5.437248e-01 7.884871e-01 6.141043e-01 1.264491e+00 9.052410e-01 1.031211e+00 1.080523e+00 1.227227e+00 1.344429e+00 1.087144e+00 9.385973e-01 4.866150e-01
<GCONST> 1.431327e+02
<STATE> 3
<MEAN> 39
 -3.243408e+00 1.087111e+00 2.607745e+00 -1.025627e+00 -7.164778e+00 -7.243180e+00 -1.304658e+01 -3.455503e+00 -7.522964e+00 1.938660e+00 -1.709005e+00 -4.657309e+00 6.227893e+01 -4.177138e-01 -6.905732e-01 3.748883e-01 -1.211236e+00 -1.484136e+00 -6.061994e-01 -4.600657e-01 1.220667e+00 -2.025823e-01 4.654708e-01 7.732501e-01 -1.378242e-01 1.474692e+00 -5.339232e-02 -3.003289e-01 6.074922e-02 -4.362507e-01 -3.289739e-01 1.445531e-01 1.584579e-01 1.188329e-01 1.130044e-01 1.628786e-02 -3.031111e-02 -3.295919e-02 3.448968e-01
<VARIANCE> 39
 3.690442e+01 4.402971e+01 5.032894e+01 3.681143e+01 5.260683e+01 6.009022e+01 9.224808e+01 7.133457e+01 8.430264e+01 6.195201e+01 5.812590e+01 4.982633e+01 9.332180e+01 2.504864e+00 3.081184e+00 5.038260e+00 4.336376e+00 7.406344e+00 5.688308e+00 4.814584e+00 6.132069e+00 5.470726e+00 5.076625e+00 4.345924e+00 3.691893e+00 2.945980e+00 4.195360e-01 3.843351e-01 7.179136e-01 5.302007e-01 1.180089e+00 7.988926e-01 1.054945e+00 9.594805e-01 1.160596e+00 8.869981e-01 8.922792e-01 5.763053e-01 4.961242e-01
<GCONST> 1.397722e+02
<STATE> 4
<MEAN> 39
 -1.622360e+00 -1.926178e+00 4.812685e+00 -3.361775e+00 -1.130206e+01 -4.476747e+00 -1.103216e+01 -2.101959e+00 -6.396077e+00 2.525584e-01 -2.363896e-02 -5.454021e+00 6.293031e+01 -4.904342e-01 -6.291493e-01 2.400849e-01 -1.131386e+00 -8.960455e-01 -1.030473e-01 4.524307e-02 5.492987e-01 -1.001237e-01 1.857523e-01 3.183233e-01 -4.484005e-02 1.147687e+00 3.406229e-02 1.215175e-03 -1.151448e-03 5.803883e-03 2.001659e-03 4.467939e-02 2.916393e-02 -1.521683e-01 -6.239861e-03 -3.182067e-02 -1.014745e-01 -1.286941e-02 1.188765e-02
<VARIANCE> 39
 5.898465e+01 9.548627e+01 1.067865e+02 5.563208e+01 8.541443e+01 7.094170e+01 8.590965e+01 9.130769e+01 7.312247e+01 5.921647e+01 5.618623e+01 4.890364e+01 9.854036e+01 3.015345e+00 4.163099e+00 5.106962e+00 4.309630e+00 4.720690e+00 3.948096e+00 4.004468e+00 5.522012e+00 5.226480e+00 3.513595e+00 3.672976e+00 2.747511e+00 3.226117e+00 3.255685e-01 6.081166e-01 6.048517e-01 6.120598e-01 9.358226e-01 6.356896e-01 8.457320e-01 7.792838e-01 6.005825e-01 6.348439e-01 6.630204e-01 3.997533e-01 4.475607e-01
<GCONST> 1.389528e+02
<TRANSP> 5
 0.000000e+00 1.000000e+00 0.000000e+00 0.000000e+00 0.000000e+00
 0.000000e+00 5.309505e-01 4.690495e-01 0.000000e+00 0.000000e+00
 0.000000e+00 0.000000e+00 2.937626e-01 7.062374e-01 0.000000e+00
 0.000000e+00 0.000000e+00 0.000000e+00 4.513481e-01 5.486519e-01
 0.000000e+00 0.000000e+00 0.000000e+00 0.000000e+00 0.000000e+00
<ENDHMM>
~h "h"
<BEGINHMM>
<NUMSTATES> 5
<STATE> 2
<MEAN> 39
 -2.849989e+00 -6.286476e+00 -5.952618e-01 -5.564403e+00 -7.335365e+00 -2.255348e+00 -8.471381e+00 3.531379e-02 -5.214553e+00 -6.250237e-01 -2.577440e+00 -4.043985e+00 6.478377e+01 -1.267012e-01 2.515253e-01 -3.635078e-01 2.985495e-01 7.691409e-01 1.931711e-01 3.901066e-01 -8.246884e-02 2.119038e-01 -1.248904e-01 -2.411019e-01 1.628726e-01 -6.668892e-01 -2.807616e-02 3.788362e-02 2.265141e-02 -8.180710e-03 -5.744606e-02 -3.037096e-02 -7.033142e-02 -2.079625e-02 4.596271e-02 -5.394702e-03 3.801723e-02 -4.386241e-02 -4.446274e-02
<VARIANCE> 39
 6.170856e+01 6.580562e+01 6.858064e+01 7.268583e+01 1.210717e+02 1.008753e+02 1.296503e+02 8.041414e+01 8.748856e+01 5.359833e+01 7.686817e+01 7.977657e+01 1.137657e+02 7.757730e-01 1.681741e+00 2.095597e+00 2.536190e+00 2.591981e+00 2.571918e+00 3.052890e+00 2.776612e+00 2.613585e+00 2.590829e+00 2.506920e+00 2.324492e+00 1.509652e+00 9.147062e-02 2.034220e-01 2.088097e-01 3.662009e-01 3.588464e-01 3.967963e-01 5.671180e-01 5.134357e-01 4.471211e-01 4.127806e-01 4.440605e-01 3.626514e-01 1.360451e-01
<GCONST> 1.238805e+02
<STATE> 3
<MEAN> 39
 -5.794410e+00 -4.375849e+00 -1.922538e+00 -6.352797e+00 2.836225e+00 -3.767448e+00 -5.748122e+00 -2.247276e+00 -3.864652e+00 -1.852473e+00 -7.536717e+00 1.588072e+00 6.370026e+01 -8.008050e-02 2.903232e-01 -8.536136e-02 3.659039e-01 2.626375e-01 1.666376e-01 7.979910e-02 -1.170914e-01 1.733009e-01 -1.969400e-01 2.128014e-01 -1.233786e-02 -8.033955e-01 1.175479e-02 -3.218817e-03 5.391810e-02 -4.870989e-02 -2.725278e-01 -4.860857e-02 -1.063294e-01 4.255372e-02 -6.275319e-02 7.548906e-02 8.786635e-02 -1.223237e-01 2.502278e-02
<VARIANCE> 39
 3.465026e+01 4.028665e+01 4.937224e+01 9.900405e+01 1.202343e+02 6.480615e+01 5.997671e+01 8.088032e+01 8.431992e+01 9.700234e+01 9.309864e+01 9.789585e+01 1.080301e+02 8.148351e-01 1.657427e+00 1.686811e+00 2.632673e+00 3.019547e+00 2.859328e+00 3.267802e+00 3.311333e+00 3.522369e+00 3.201046e+00 3.271720e+00 2.834906e+00 1.459191e+00 1.013561e-01 1.820281e-01 2.493457e-01 4.018194e-01 4.712600e-01 4.795213e-01 5.075618e-01 5.630804e-01 5.791244e-01 5.662367e-01 5.939692e-01 5.004501e-01 1.164659e-01
<GCONST> 1.255150e+02
<STATE> 4
<MEAN> 39
 -1.040627e+01 -4.451775e-01 -3.712050e+00 3.592444e-01 -3.239917e+00 -8.726228e-01 -3.080064e+00 -8.502467e-01 -1.602002e+00 -1.477231e+00 -3.196807e+00 -1.568381e+00 4.964681e+01 -8.387557e-02 1.145644e-01 -3.070208e-03 1.331003e-01 -2.314585e-02 4.394285e-02 6.138567e-03 2.942712e-02 4.524228e-02 2.095103e-02 2.966632e-02 -2.495408e-02 -3.400296e-01 1.863960e-02 -1.187928e-02 9.199803e-03 -4.223837e-02 -4.771500e-02 -4.442284e-02 -5.412279e-02 -2.602426e-03 -4.356968e-02 7.740198e-03 3.157540e-03 -2.435784e-02 6.964985e-02
<VARIANCE> 39
 5.990835e+01 3.018439e+01 3.213649e+01 4.127536e+01 6.655470e+01 3.827595e+01 4.785656e+01 5.412798e+01 5.589463e+01 3.175990e+01 3.428251e+01 2.728176e+01 2.265112e+02 4.215198e-01 7.682451e-01 8.204393e-01 1.210025e+00 1.392697e+00 1.566914e+00 1.770664e+00 1.901210e+00 1.812792e+00 1.694720e+00 1.703632e+00 1.463365e+00 6.185400e-01 7.471249e-02 1.137099e-01 1.448237e-01 2.103557e-01 2.498576e-01 3.050525e-01 3.413254e-01 3.524208e-01 3.352716e-01 3.256604e-01 3.236519e-01 2.737252e-01 6.710885e-02
<GCONST> 1.039390e+02
<TRANSP> 5
 0.000000e+00 1.000000e+00 0.000000e+00 0.000000e+00 0.000000e+00
 0.000000e+00 4.501635e-01 5.498365e-01 0.000000e+00 0.000000e+00
 0.000000e+00 0.000000e+00 5.239232e-01 4.760768e-01 0.000000e+00
 0.000000e+00 0.000000e+00 0.000000e+00 8.142822e-01 1.857178e-01
 0.000000e+00 0.000000e+00 0.000000e+00 0.000000e+00 0.000000e+00
<ENDHMM>
~h "i"
<BEGINHMM>
<NUMSTATES> 5
<STATE> 2
<MEAN> 39
 -8.015080e+00 1.186185e+00 1.217000e+01 -3.010524e+00 -1.586579e+01 -9.694107e+00 -1.075404e+01 -3.686066e+00 -1.198465e+01 4.382603e-01 4.256725e-01 -1.949625e+00 6.549514e+01 1.746130e-01 9.774385e-02 2.215493e+00 -7.239556e-01 -2.625238e+00 -2.486333e-02 -8.137493e-01 -1.610983e-01 -1.655842e+00 3.989724e-01 9.507667e-01 -3.189535e-01 1.261291e+00 1.012360e-01 9.826791e-02 -4.997079e-01 7.896830e-02 4.902256e-01 3.586273e-01 8.138715e-02 2.984115e-02 3.687153e-01 2.391311e-02 -2.181509e-01 -8.991156e-02 -3.616229e-01
<VARIANCE> 39
 4.349102e+01 5.978481e+01 7.769613e+01 4.500622e+01 6.083303e+01 7.274971e+01 7.787270e+01 7.130471e+01 8.671648e+01 7.250352e+01 7.633744e+01 5.982516e+01 8.501986e+01 4.260045e+00 3.552567e+00 4.231289e+00 4.781320e+00 5.232791e+00 6.420440e+00 6.390911e+00 5.600343e+00 4.877882e+00 5.725914e+00 4.716666e+00 3.570077e+00 2.296846e+00 5.418918e-01 6.175820e-01 7.510167e-01 7.623600e-01 1.137916e+00 9.311547e-01 9.486707e-01 1.017700e+00 9.062392e-01 8.771775e-01 8.242616e-01 6.139204e-01 4.067578e-01
<GCONST> 1.426945e+02
<STATE> 3
<MEAN> 39
 -7.791515e+00 2.106868e+00 1.629081e+01 -5.535314e+00 -2.070445e+01 -7.217702e+00 -1.254160e+01 -4.273574e+00 -1.521064e+01 2.344274e+00 1.412305e+00 -3.834800e+00 6.821681e+01 1.760294e-01 1.484553e-01 -1.680164e-01 2.525845e-01 2.297515e-01 4.171864e-02 2.506959e-01 -1.140307e-01 1.868137e-01 1.764631e-02 -2.405249e-01 -7.587707e-02 -4.127486e-01 6.737570e-02 1.837390e-02 -5.177571e-01 2.973974e-01 7.330061e-01 -7.620262e-02 2.379546e-01 -2.466240e-02 4.229537e-01 -1.405415e-01 -3.269230e-01 1.151543e-01 -3.803879e-01
<VARIANCE> 39
 1.918482e+01 5.442384e+01 6.009203e+01 3.991306e+01 4.422360e+01 7.759652e+01 8.232526e+01 7.842326e+01 8.623750e+01 8.490430e+01 1.001242e+02 7.993331e+01 4.904132e+01 8.719091e-01 1.705831e+00 2.060010e+00 2.161171e+00 3.098138e+00 3.108887e+00 3.138921e+00 3.467662e+00 2.866369e+00 2.658047e+00 2.720464e+00 2.842097e+00 1.358296e+00 1.913892e-01 2.630768e-01 4.004315e-01 4.255842e-01 6.595489e-01 6.834884e-01 6.923636e-01 6.703364e-01 6.001993e-01 6.110855e-01 6.000751e-01 5.701289e-01 1.971992e-01
<GCONST> 1.260064e+02
<STATE> 4
<MEAN> 39
 -5.641703e+00 2.432219e+00 1.040417e+01 -2.648000e-02 -1.321798e+01 -8.319236e+00 -8.577389e+00 -5.812342e+00 -9.676528e+00 -9.384118e-01 -7.941716e-01 -3.124720e+00 6.165242e+01 9.668985e-02 2.222554e-01 -1.534797e+00 9.040270e-01 2.098417e+00 5.141316e-01 6.166498e-01 -8.998062e-03 1.179699e+00 -3.361011e-01 -8.476649e-01 3.064992e-01 -1.530172e+00 -1.894307e-01 -6.540232e-02 -1.487553e-01 -1.354072e-01 7.631138e-02 1.757101e-01 -2.198756e-02 1.403902e-01 1.985848e-02 2.753020e-02 4.668069e-02 1.051447e-02 9.982302e-02
<VARIANCE> 39
 2.852588e+01 4.969609e+01 5.432374e+01 3.783539e+01 5.331779e+01 6.871141e+01 6.482045e+01 6.951328e+01 6.456521e+01 5.598906e+01 6.316617e+01 4.264196e+01 8.339255e+01 1.674926e+00 2.201370e+00 2.464766e+00 2.572851e+00 3.491346e+00 3.930573e+00 4.490435e+00 4.628790e+00 3.694854e+00 3.705986e+00 3.672924e+00 2.906816e+00 1.594205e+00 2.184578e-01 3.307025e-01 4.228463e-01 4.511610e-01 6.396834e-01 6.831711e-01 6.912381e-01 7.450559e-01 6.678434e-01 6.352404e-01 5.767872e-01 5.527079e-01 3.040069e-01
<GCONST> 1.289860e+02
<TRANSP> 5
 0.000000e+00 1.000000e+00 0.000000e+00 0.000000e+00 0.000000e+00
 0.000000e+00 5.046812e-01 4.953188e-01 0.000000e+00 0.000000e+00
 0.000000e+00 0.000000e+00 7.355829e-01 2.644171e-01 0.000000e+00
 0.000000e+00 0.000000e+00 0.000000e+00 6.074623e-01 3.925377e-01
 0.000000e+00 0.000000e+00 0.000000e+00 0.000000e+00 0.000000e+00
<ENDHMM>
~h "j"
<BEGINHMM>
<NUMSTATES> 5
<STATE> 2
<MEAN> 39
 -7.973420e+00 5.780149e+00 3.537065e+00 -1.102026e-01 -2.672616e+00 -6.935404e+00 -6.586243e+00 -2.650436e+00 -5.382654e+00 -4.098486e+00 -4.652147e+00 -1.904276e+00 5.769828e+01 -1.794572e+00 1.070908e+00 3.401268e-01 -5.920819e-01 4.004458e-01 -1.083908e-01 2.160812e-01 -1.750473e-01 -2.521831e-01 -2.436073e-01 6.057302e-01 1.713060e-01 1.118155e+00 -1.498815e-01 -3.683023e-01 2.228371e-01 -2.250259e-01 -6.552874e-01 -4.234926e-01 -2.841831e-01 2.194938e-02 -1.681734e-01 1.106495e-01 3.924353e-01 2.654334e-01 6.729448e-01
<VARIANCE> 39
 6.303894e+01 4.691280e+01 4.480978e+01 4.137255e+01 3.416643e+01 6.754796e+01 4.956430e+01 5.091605e+01 5.507622e+01 4.054097e+01 5.239468e+01 3.512233e+01 9.348912e+01 7.065207e+00 3.532152e+00 2.775301e+00 4.191386e+00 3.868853e+00 6.209774e+00 4.680170e+00 4.433531e+00 4.147698e+00 4.093188e+00 4.546440e+00 3.438030e+00 4.444593e+00 1.234082e+00 7.438564e-01 5.263888e-01 7.714866e-01 8.822263e-01 9.828823e-01 9.033649e-01 9.773553e-01 7.436807e-01 7.147101e-01 7.861771e-01 6.381329e-01 5.290550e-01
<GCONST> 1.382813e+02
<STATE> 3
<MEAN> 39
 -1.597506e+01 7.961120e+00 7.317077e+00 -3.400919e+00 -6.362867e+00 -1.013165e+01 -7.316876e+00 -3.545683e+00 -8.316134e+00 -3.451570e+00 -1.827580e-01 1.027950e+00 6.622871e+01 7.583046e-01 -1.705481e+00 1.136553e+00 -2.312874e-01 -3.220133e+00 -2.252330e+00 -9.701383e-01 3.168428e-01 -7.108860e-01 1.291894e-01 1.383633e+00 1.189099e+00 2.093313e+00 1.501934e+00 -9.880081e-01 -2.741958e-01 1.768727e-01 -5.315458e-01 -7.063287e-02 -3.802548e-01 3.674386e-01 1.971588e-01 2.667261e-01 -2.625137e-01 -2.225049e-01 -1.746190e-01
<VARIANCE> 39
 4.920596e+01 4.942955e+01 4.951235e+01 3.133970e+01 4.765440e+01 6.952661e+01 4.464814e+01 4.191935e+01 5.976087e+01 3.943682e+01 4.375451e+01 5.025238e+01 5.773739e+01 7.447300e+00 3.878216e+00 3.213118e+00 4.046223e+00 4.142165e+00 5.079951e+00 4.145238e+00 5.398055e+00 3.525627e+00 3.483687e+00 3.578861e+00 3.739819e+00 2.325069e+00 7.745681e-01 7.825740e-01 6.333306e-01 6.703882e-01 1.148046e+00 1.241870e+00 9.803615e-01 1.059117e+00 9.309627e-01 1.051366e+00 8.392967e-01 5.940438e-01 3.202555e-01
<GCONST> 1.371854e+02
<STATE> 4
<MEAN> 39
 -6.761889e+00 -1.398245e+00 8.678696e+00 -3.225543e+00 -1.669060e+01 -1.575565e+01 -1.223039e+01 6.911081e-01 -7.812714e+00 -1.506836e+00 2.050482e+00 2.715886e+00 7.116585e+01 2.161284e+00 -2.583363e+00 -1.089542e+00 -6.652516e-01 -1.044665e+00 -7.690765e-02 -1.053444e+00 1.297504e+00 9.009346e-01 1.132117e+00 -2.672833e-01 -6.602831e-01 1.070998e+00 -2.412007e-01 4.851675e-01 -5.884575e-01 -1.017459e-01 1.225523e+00 9.109691e-01 3.472513e-01 -2.420795e-01 2.676152e-01 1.450893e-01 -5.385137e-01 -5.864230e-01 -5.468720e-01
<VARIANCE> 39
 2.499866e+01 3.396582e+01 4.071410e+01 4.075280e+01 3.885032e+01 5.728685e+01 5.978801e+01 7.169064e+01 7.311269e+01 4.015495e+01 5.093309e+01 7.725840e+01 5.818154e+01 2.487300e+00 3.301401e+00 2.981658e+00 2.638026e+00 6.677803e+00 4.550504e+00 5.845472e+00 6.552819e+00 3.949941e+00 3.761960e+00 4.509768e+00 3.030828e+00 1.240432e+00 4.580421e-01 3.943096e-01 4.121765e-01 4.603471e-01 5.662603e-01 6.524627e-01 7.462509e-01 8.991221e-01 5.589441e-01 5.828561e-01 6.365798e-01 5.128762e-01 1.728541e-01
<GCONST> 1.302248e+02
<TRANSP> 5
 0.000000e+00 1.000000e+00 0.000000e+00 0.000000e+00 0.000000e+00
 0.000000e+00 7.113696e-01 2.886304e-01 0.000000e+00 0.000000e+00
 0.000000e+00 0.000000e+00 5.725131e-01 4.274869e-01 0.000000e+00
 0.000000e+00 0.000000e+00 0.000000e+00 6.234073e-01 3.765927e-01
 0.000000e+00 0.000000e+00 0.000000e+00 0.000000e+00 0.000000e+00
<ENDHMM>
~h "k"
<BEGINHMM>
<NUMSTATES> 5
<STATE> 2
<MEAN> 39
 -6.357834e+00 9.963517e-01 -8.243678e-01 -1.210649e-01 -3.249942e+00 -2.776168e+00 -4.966189e+00 -2.338582e+00 -3.432516e+00 -2.930124e-01 -3.004567e+00 -2.603359e+00 5.449865e+01 -8.861238e-01 -3.817100e-01 -7.292206e-01 5.789381e-02 8.997267e-01 8.666424e-02 -1.591641e-01 6.850036e-01 1.618759e-01 4.053808e-01 1.282375e-01 2.299665e-01 -1.125851e-02 -1.357132e-02 -3.811144e-01 -1.994467e-01 -6.571798e-01 -1.837854e-01 -3.334275e-01 -4.132950e-01 3.621319e-02 -2.050331e-01 2.080467e-01 9.276332e-02 -8.897901e-02 9.635885e-01
<VARIANCE> 39
 3.975471e+01 3.472666e+01 4.631353e+01 4.475667e+01 5.267762e+01 5.464960e+01 4.262120e+01 5.048538e+01 5.890110e+01 4.296429e+01 4.982089e+01 3.409294e+01 9.099264e+01 2.339164e+00 3.111948e+00 3.526471e+00 4.317687e+00 4.178104e+00 5.178208e+00 4.407221e+00 4.882637e+00 4.836741e+00 4.438528e+00 4.074073e+00 3.265563e+00 3.931442e+00 4.269610e-01 5.021952e-01 5.927922e-01 7.182753e-01 8.403650e-01 8.893667e-01 8.812377e-01 9.477152e-01 9.890980e-01 8.413346e-01 8.426628e-01 7.199920e-01 4.945161e-01
<GCONST> 1.355902e+02
<STATE> 3
<MEAN> 39
 -9.000180e+00 -1.969493e+00 -5.353385e+00 -2.942269e+00 9.962567e-01 -5.465971e+00 -1.062416e+01 -1.376906e+00 -6.465910e+00 1.875688e+00 -5.688305e+00 -1.968583e-01 5.756977e+01 -8.484602e-02 -6.666951e-01 -7.029644e-01 -1.284054e+00 2.505231e-02 -6.610439e-01 -8.019215e-01 3.317066e-01 -4.300605e-01 6.587858e-01 3.669602e-02 1.669308e-01 2.017653e+00 4.590876e-01 -3.484482e-02 5.625089e-01 -4.572331e-01 -6.730609e-01 -4.106878e-02 1.841422e-01 -2.178752e-01 -1.356825e-02 -7.152968e-02 4.606554e-02 -1.984652e-01 4.223453e-01
<VARIANCE> 39
 4.433835e+01 4.749646e+01 8.794223e+01 7.880946e+01 9.273090e+01 1.000810e+02 9.715147e+01 9.622335e+01 1.141458e+02 9.926013e+01 8.951263e+01 5.833493e+01 9.283227e+01 4.455071e+00 4.750618e+00 8.068056e+00 8.971281e+00 8.723396e+00 8.606515e+00 9.335814e+00 8.049529e+00 8.576744e+00 8.731959e+00 7.598391e+00 5.936024e+00 7.033082e+00 6.429987e-01 7.604417e-01 1.345240e+00 1.390402e+00 1.584765e+00 1.481065e+00 1.962851e+00 1.559815e+00 1.554869e+00 1.821608e+00 1.392049e+00 1.076533e+00 7.315357e-01
<GCONST> 1.579424e+02
<STATE> 4
<MEAN> 39
 -6.317281e+00 -4.457668e+00 -3.270353e+00 -7.790901e+00 -4.969794e+00 -4.790967e+00 -8.802663e+00 -1.574895e+00 -4.912057e+00 2.356179e+00 -1.558150e+00 -4.264010e+00 6.443261e+01 1.201692e+00 -4.958496e-01 7.258067e-01 -1.364165e+00 -1.568096e+00 -3.590955e-01 -1.367902e-02 -4.483467e-01 -1.676956e-01 -1.321187e-01 3.021457e-01 -8.288804e-01 1.844876e+00 2.530968e-01 1.662563e-01 2.010623e-01 3.277862e-01 -1.694723e-01 8.894797e-02 2.959455e-02 -1.464529e-01 -1.483798e-02 -2.246317e-01 2.256623e-02 -9.654318e-02 -3.105285e-01
<VARIANCE> 39
 7.914542e+01 5.563769e+01 8.277705e+01 6.178872e+01 8.202177e+01 8.832369e+01 6.058374e+01 7.166645e+01 9.208604e+01 5.260569e+01 6.077941e+01 6.211756e+01 9.327087e+01 5.438274e+00 5.367473e+00 4.920011e+00 6.408303e+00 6.836399e+00 6.368437e+00 7.191723e+00 5.687462e+00 5.280408e+00 5.437959e+00 4.549343e+00 5.031907e+00 4.775804e+00 9.932063e-01 9.330344e-01 8.751796e-01 9.328207e-01 1.078550e+00 1.128384e+00 1.045491e+00 9.560359e-01 9.396039e-01 8.941907e-01 8.292663e-01 6.799604e-01 7.803077e-01
<GCONST> 1.484117e+02
<TRANSP> 5
 0.000000e+00 1.000000e+00 0.000000e+00 0.000000e+00 0.000000e+00
 0.000000e+00 5.509779e-01 4.490220e-01 0.000000e+00 0.000000e+00
 0.000000e+00 0.000000e+00 5.469776e-01 4.530224e-01 0.000000e+00
 0.000000e+00 0.000000e+00 0.000000e+00 5.148367e-01 4.851633e-01
 0.000000e+00 0.000000e+00 0.000000e+00 0.000000e+00 0.000000e+00
<ENDHMM>
~h "l"
<BEGINHMM>
<NUMSTATES> 5
<STATE> 2
<MEAN> 39
 -2.787774e-01 -3.863339e+00 -1.450149e+00 -9.306032e+00 -6.586840e+00 -5.352267e+00 -1.252641e+01 -7.927686e+00 -3.185999e+00 6.566416e+00 -2.725191e+00 -4.161096e+00 6.638449e+01 3.401582e-01 1.453824e-01 6.632701e-01 -2.757813e-02 -3.472658e-02 -1.829563e-01 -7.402597e-01 -6.313318e-01 -2.002997e-01 6.298982e-01 -1.122124e-01 2.404079e-01 -3.436348e-01 -2.893825e-01 7.947219e-03 -1.719584e-01 -8.481885e-02 5.771946e-02 1.334308e-01 1.956540e-01 4.696755e-01 2.972694e-02 -4.217611e-01 4.698168e-02 -7.335410e-02 1.263708e-01
<VARIANCE> 39
 4.095882e+01 3.797583e+01 4.409111e+01 9.448337e+01 7.171240e+01 6.758787e+01 7.502948e+01 1.063391e+02 9.901635e+01 6.718405e+01 8.177006e+01 7.434910e+01 1.115529e+02 8.665333e-01 1.702442e+00 1.856157e+00 3.278421e+00 2.506460e+00 3.248612e+00 3.750908e+00 4.119096e+00 3.329739e+00 3.509977e+00 2.928688e+00 2.855686e+00 1.322217e+00 1.684716e-01 2.973056e-01 3.164415e-01 6.189105e-01 5.372671e-01 5.756592e-01 7.341152e-01 7.788169e-01 6.603342e-01 5.944488e-01 5.645411e-01 5.079502e-01 1.698249e-01
<GCONST> 1.286388e+02
<STATE> 3
<MEAN> 39
 -4.676046e-02 -3.855156e+00 -8.432583e-01 -1.206337e+01 -5.356361e+00 -4.931957e+00 -1.442276e+01 -8.876847e+00 -4.058973e+00 8.824378e+00 -3.665252e+00 -2.609363e+00 6.733087e+01 -2.952340e-01 6.225878e-02 -6.998202e-02 -2.376454e-01 6.989732e-02 1.663226e-01 -1.884692e-01 6.650411e-01 1.477959e-01 -4.728756e-01 9.647836e-02 -1.589007e-01 1.547015e-01 -2.673699e-01 -8.095363e-02 -2.949805e-01 1.317763e-02 -2.236886e-02 8.184686e-02 3.699472e-01 5.188805e-01 1.129186e-01 -4.870569e-01 5.620572e-02 -2.140088e-01 2.272354e-01
<VARIANCE> 39
 2.944045e+01 3.170987e+01 4.113639e+01 9.618278e+01 7.234830e+01 6.729944e+01 8.486723e+01 9.754296e+01 1.006399e+02 7.232853e+01 1.044941e+02 9.591677e+01 7.955170e+01 5.888337e-01 1.314688e+00 1.769149e+00 2.865699e+00 2.448534e+00 2.887131e+00 2.951411e+00 4.133724e+00 3.169658e+00 2.691453e+00 2.683142e+00 2.683823e+00 1.064318e+00 1.232218e-01 2.605550e-01 3.386742e-01 5.644134e-01 6.083898e-01 5.446059e-01 7.297556e-01 7.626015e-01 6.718869e-01 6.243987e-01 7.027366e-01 4.920226e-01 1.607215e-01
<GCONST> 1.262551e+02
<STATE> 4
<MEAN> 39
 2.726300e-02 -5.061620e+00 5.034608e-02 -9.006996e+00 -7.872960e+00 -3.608574e+00 -1.399674e+01 -3.957623e+00 -3.451209e+00 3.277232e+00 -1.715507e+00 -5.595839e+00 6.554317e+01 -4.993258e-01 -1.022288e-01 -2.062107e-01 -6.856798e-02 -1.571192e-01 2.534328e-02 4.743076e-01 9.603111e-01 1.587334e-01 -8.571231e-01 1.266471e-01 -2.791086e-01 3.750819e-01 -5.513020e-02 1.450032e-02 -2.336335e-02 7.240889e-02 -6.288025e-02 6.347265e-03 2.756143e-01 -2.697064e-02 -1.170116e-01 -5.868884e-02 2.682032e-02 4.489077e-02 1.437521e-02
<VARIANCE> 39
 4.615775e+01 6.107050e+01 9.265044e+01 9.161543e+01 9.359805e+01 8.732590e+01 8.405643e+01 9.490046e+01 8.880510e+01 6.169250e+01 8.422330e+01 7.758743e+01 1.059841e+02 1.338228e+00 2.748878e+00 3.445313e+00 5.068398e+00 4.705536e+00 4.209194e+00 5.205891e+00 5.472521e+00 4.490489e+00 3.733349e+00 4.280118e+00 3.176658e+00 2.287879e+00 2.009029e-01 4.136786e-01 4.019665e-01 7.356520e-01 7.018116e-01 6.176089e-01 8.018216e-01 8.092310e-01 6.998788e-01 5.905198e-01 6.706418e-01 5.268260e-01 3.460740e-01
<GCONST> 1.375127e+02
<TRANSP> 5
 0.000000e+00 1.000000e+00 0.000000e+00 0.000000e+00 0.000000e+00
 0.000000e+00 1.833698e-01 8.166302e-01 0.000000e+00 0.000000e+00
 0.000000e+00 0.000000e+00 4.583718e-01 5.416282e-01 0.000000e+00
 0.000000e+00 0.000000e+00 0.000000e+00 3.710631e-01 6.289369e-01
 0.000000e+00 0.000000e+00 0.000000e+00 0.000000e+00 0.000000e+00
<ENDHMM>
~h "m"
<BEGINHMM>
<NUMSTATES> 5
<STATE> 2
<MEAN> 39
 4.721976e-01 1.313982e-01 2.069482e-01 -4.979043e-01 -5.303437e+00 -2.500002e+00 -8.063589e+00 -7.856083e+00 -5.448534e+00 -1.232347e+00 -4.753093e+00 -6.040014e+00 6.179226e+01 1.084025e-01 7.261953e-01 9.246256e-01 1.530478e+00 3.187655e-01 -4.285522e-02 -2.808250e-02 -8.305342e-01 -7.940998e-01 -1.950824e-01 -7.387868e-01 6.024600e-02 -7.748667e-01 -1.234813e-01 -1.775179e-01 -8.077131e-02 -3.448808e-01 -1.611478e-01 -1.236639e-01 -3.464101e-02 2.671677e-01 1.122800e-01 3.321111e-02 9.676950e-02 3.569791e-02 3.230301e-01
<VARIANCE> 39
 2.948211e+01 4.126255e+01 2.790729e+01 4.046930e+01 3.404301e+01 4.698891e+01 3.313287e+01 4.403072e+01 5.150373e+01 5.194303e+01 5.346172e+01 3.274419e+01 6.304311e+01 7.699608e-01 1.233087e+00 1.728189e+00 2.838406e+00 2.080834e+00 2.751468e+00 2.612853e+00 4.747126e+00 2.465577e+00 2.575230e+00 3.160745e+00 2.231373e+00 1.386369e+00 1.313804e-01 1.608745e-01 2.603294e-01 4.366707e-01 3.489725e-01 4.075486e-01 4.440095e-01 6.693958e-01 4.384894e-01 3.817583e-01 4.362110e-01 4.002635e-01 1.318462e-01
<GCONST> 1.151528e+02
<STATE> 3
<MEAN> 39
 1.609588e-01 -7.647176e-01 4.080988e+00 7.267345e-01 -4.252008e+00 -2.107570e+00 -1.096537e+01 -8.326627e+00 -9.589627e+00 1.990871e+00 -1.113237e+01 -2.649200e+00 6.127234e+01 1.952828e-02 1.137833e-01 -4.961815e-02 -1.548562e-01 -3.293557e-01 -7.390458e-02 1.169171e-01 2.188727e-01 6.170584e-03 -2.689583e-01 3.194504e-02 9.744209e-02 9.756724e-02 -9.026696e-02 -2.404909e-01 -4.726183e-01 -8.464812e-01 -1.503023e-01 8.868100e-02 1.706593e-01 5.354320e-01 3.434601e-01 -1.437749e-01 5.243233e-01 -4.006201e-02 3.379773e-01
<VARIANCE> 39
 2.246141e+01 3.995128e+01 3.271809e+01 4.377394e+01 4.511724e+01 5.605178e+01 4.834079e+01 5.888550e+01 6.266787e+01 1.189892e+02 1.365310e+02 6.502096e+01 5.525975e+01 7.541444e-01 1.532887e+00 2.115616e+00 3.822221e+00 2.681103e+00 2.660583e+00 2.706811e+00 3.913443e+00 2.799095e+00 3.082791e+00 3.804564e+00 2.527428e+00 1.454378e+00 1.301278e-01 2.510467e-01 4.743969e-01 5.416254e-01 4.928741e-01 6.749114e-01 6.130754e-01 1.102718e+00 6.394511e-01 7.374250e-01 8.171413e-01 6.348179e-01 1.718429e-01
<GCONST> 1.254648e+02
<STATE> 4
<MEAN> 39
 5.497601e-01 -7.105765e-01 -6.031463e-01 -2.659256e+00 -6.670979e+00 -1.944984e+00 -7.773675e+00 -6.470948e+00 -6.699463e+00 -2.293906e+00 -5.371033e+00 -4.983053e+00 6.223226e+01 -1.498302e-01 -7.849075e-01 -1.244084e+00 -2.103109e+00 -2.524144e-01 7.006359e-01 3.426068e-01 1.049062e+00 7.243814e-01 -2.366623e-01 7.123091e-01 -1.914324e-01 1.187711e+00 -2.133773e-01 -1.942362e-01 3.708199e-02 -1.114910e-01 1.250565e-01 6.495418e-03 -1.004514e-01 9.559432e-02 9.765232e-02 9.713313e-02 -2.026613e-03 -4.325654e-02 1.789559e-01
<VARIANCE> 39
 3.257939e+01 4.943688e+01 4.703062e+01 6.023442e+01 4.514230e+01 4.419436e+01 4.101397e+01 5.663773e+01 6.355317e+01 8.002417e+01 6.774310e+01 4.042735e+01 8.353094e+01 1.284519e+00 2.236423e+00 4.471041e+00 4.679206e+00 4.338384e+00 4.653104e+00 4.298958e+00 8.194684e+00 5.039233e+00 4.402697e+00 4.397192e+00 3.473181e+00 2.377202e+00 1.739309e-01 2.976900e-01 6.397432e-01 8.355282e-01 5.692607e-01 7.047736e-01 5.728307e-01 9.509262e-01 6.633217e-01 6.221848e-01 6.511290e-01 5.242071e-01 2.667762e-01
<GCONST> 1.321994e+02
<TRANSP> 5
 0.000000e+00 1.000000e+00 0.000000e+00 0.000000e+00 0.000000e+00
 0.000000e+00 5.926175e-01 4.073825e-01 0.000000e+00 0.000000e+00
 0.000000e+00 0.000000e+00 5.349025e-01 4.650975e-01 0.000000e+00
 0.000000e+00 0.000000e+00 0.000000e+00 4.088418e-01 5.911582e-01
 0.000000e+00 0.000000e+00 0.000000e+00 0.000000e+00 0.000000e+00
<ENDHMM>
~h "n"
<BEGINHMM>
<NUMSTATES> 5
<STATE> 2
<MEAN> 39
 -3.821276e-01 -1.623772e+00 3.295823e+00 -9.498525e-02 -5.884395e+00 -7.430814e+00 -9.015959e+00 -4.240474e+00 -3.850838e+00 -5.540907e-01 -1.122370e+01 -3.916248e+00 6.356865e+01 3.718747e-01 1.098361e+00 6.506153e-01 1.634515e+00 5.630091e-02 2.165920e-01 -2.588739e-01 -1.142883e+00 -1.730945e-01 3.418642e-01 -1.069600e+00 4.929532e-01 -1.397767e+00 -2.359664e-01 -1.104138e-01 -1.005601e-01 -2.808398e-01 -2.543077e-02 -3.343468e-02 7.452466e-02 2.295586e-01 1.469371e-03 -9.400879e-02 3.475664e-01 -2.406503e-02 2.376543e-01
<VARIANCE> 39
 2.003593e+01 4.172316e+01 3.315712e+01 3.964888e+01 4.793111e+01 4.044909e+01 4.640769e+01 4.938806e+01 6.531795e+01 6.409224e+01 1.097001e+02 6.032954e+01 5.483684e+01 6.963184e-01 1.295180e+00 1.893791e+00 2.216044e+00 2.623969e+00 2.807287e+00 2.871183e+00 5.071313e+00 2.931346e+00 3.550457e+00 3.677696e+00 2.348624e+00 9.122791e-01 8.957626e-02 1.706744e-01 2.317330e-01 3.326694e-01 3.701929e-01 4.020200e-01 4.223448e-01 7.051280e-01 4.597057e-01 5.396920e-01 4.964687e-01 4.333645e-01 1.297985e-01
<GCONST> 1.176169e+02
<STATE> 3
<MEAN> 39
 -7.158730e-01 9.528226e-01 5.566822e+00 3.304116e+00 -6.074952e+00 -7.086161e+00 -1.072385e+01 -5.855213e+00 -4.538524e+00 1.070204e+00 -1.334272e+01 -1.398286e+00 6.006011e+01 -2.413913e-01 5.913302e-01 7.968542e-02 4.553480e-01 2.890660e-01 2.923902e-01 -7.190120e-02 -1.290194e-01 -1.831780e-01 -4.082919e-01 5.040203e-01 -6.467785e-02 -6.868371e-01 -3.557864e-01 -3.285351e-01 -2.108461e-01 -7.242270e-01 8.168769e-02 1.211837e-01 1.520565e-01 5.279912e-01 -9.941056e-02 -2.837822e-01 6.352898e-01 -1.716833e-01 4.420597e-01
<VARIANCE> 39
 2.311685e+01 4.024396e+01 4.149783e+01 3.536073e+01 5.334331e+01 5.114881e+01 6.273064e+01 5.186026e+01 6.454883e+01 9.528423e+01 1.574251e+02 8.434993e+01 6.292517e+01 6.709417e-01 1.808765e+00 1.680991e+00 2.755083e+00 2.588801e+00 2.776685e+00 2.826031e+00 3.884813e+00 3.241469e+00 3.955306e+00 4.807097e+00 2.605529e+00 1.311009e+00 2.043017e-01 3.434252e-01 5.194216e-01 5.669769e-01 6.763085e-01 6.426511e-01 7.010064e-01 1.172023e+00 7.503006e-01 9.425560e-01 1.033127e+00 6.464328e-01 2.698513e-01
<GCONST> 1.286382e+02
<STATE> 4
<MEAN> 39
 -1.707854e+00 1.053076e+00 4.313709e+00 1.869874e+00 -6.103380e+00 -5.139288e+00 -1.069876e+01 -4.761976e+00 -5.403620e+00 -1.923646e+00 -7.345551e+00 -3.717685e+00 5.877009e+01 -8.881634e-01 -4.642909e-01 -3.500645e-01 -1.201171e+00 3.857741e-01 4.346233e-01 3.114740e-01 8.940909e-01 -2.728431e-01 -5.262575e-01 1.011036e+00 -2.204114e-01 5.658191e-01 -2.471647e-01 -3.550175e-01 -1.247509e-01 -5.240020e-01 -1.507709e-01 -8.781819e-02 1.671273e-01 2.618284e-01 2.822822e-02 5.009014e-02 1.702495e-01 3.675556e-02 4.976825e-01
<VARIANCE> 39
 3.980613e+01 6.003083e+01 5.974135e+01 5.596903e+01 6.752016e+01 5.884130e+01 6.966966e+01 5.595955e+01 7.535251e+01 6.483655e+01 9.270482e+01 5.549626e+01 9.428139e+01 2.209283e+00 4.216358e+00 4.670525e+00 5.020083e+00 4.916702e+00 4.565927e+00 5.207705e+00 6.946935e+00 4.680712e+00 5.407009e+00 6.079336e+00 3.613422e+00 3.552954e+00 4.078946e-01 7.078732e-01 7.379220e-01 8.566115e-01 8.511720e-01 9.275104e-01 9.767759e-01 1.172690e+00 8.404103e-01 7.805622e-01 8.359478e-01 5.944405e-01 4.846298e-01
<GCONST> 1.417404e+02
<TRANSP> 5
 0.000000e+00 1.000000e+00 0.000000e+00 0.000000e+00 0.000000e+00
 0.000000e+00 5.912844e-01 4.087156e-01 0.000000e+00 0.000000e+00
 0.000000e+00 0.000000e+00 4.920022e-01 5.079978e-01 0.000000e+00
 0.000000e+00 0.000000e+00 0.000000e+00 4.133457e-01 5.866543e-01
 0.000000e+00 0.000000e+00 0.000000e+00 0.000000e+00 0.000000e+00
<ENDHMM>
~h "o"
<BEGINHMM>
<NUMSTATES> 5
<STATE> 2
<MEAN> 39
 -2.510536e+00 -2.258258e+00 -5.969705e+00 -1.320515e+01 -5.310550e+00 -7.033358e-01 -9.407079e+00 -4.400341e+00 -5.988379e+00 3.933060e+00 -4.420591e-01 -2.731230e+00 6.313988e+01 1.140727e+00 -4.339815e-01 -3.791379e-01 -1.948410e+00 -8.062255e-02 7.263119e-01 -3.846149e-01 -3.561701e-01 -2.714261e-01 8.953162e-01 2.208596e-01 -5.367281e-01 1.702002e+00 -1.751761e-01 3.299230e-02 1.817354e-01 4.562065e-01 7.503898e-02 -8.181362e-02 1.150189e-01 1.396684e-02 -1.373178e-02 -1.618885e-01 -3.705173e-02 4.000187e-02 -2.278488e-01
<VARIANCE> 39
 4.444750e+01 4.766978e+01 3.332922e+01 1.190078e+02 7.662286e+01 5.315030e+01 7.034910e+01 7.787921e+01 9.231864e+01 7.374710e+01 5.459934e+01 7.870753e+01 1.396448e+02 2.633014e+00 3.281522e+00 2.495147e+00 6.779733e+00 4.787172e+00 3.821107e+00 4.368455e+00 5.165688e+00 5.240160e+00 5.342782e+00 3.927174e+00 4.311600e+00 4.998600e+00 5.384634e-01 5.207739e-01 4.256178e-01 1.544333e+00 7.741362e-01 6.703963e-01 7.539745e-01 9.268897e-01 9.082826e-01 9.361978e-01 7.130852e-01 7.319152e-01 8.752186e-01
<GCONST> 1.418000e+02
<STATE> 3
<MEAN> 39
 9.060762e-02 -2.890805e+00 -6.256276e+00 -1.747858e+01 -5.622662e+00 2.174524e-01 -1.190660e+01 -4.710715e+00 -6.955658e+00 5.831000e+00 1.699728e+00 -4.167082e+00 7.037984e+01 5.456783e-02 6.826165e-02 1.400503e-01 4.249799e-01 2.375959e-01 -9.518296e-02 6.530067e-02 -2.247099e-01 7.196222e-02 -1.780930e-02 -4.728852e-02 -5.262849e-02 -2.909088e-01 -7.504924e-02 8.673812e-02 1.515555e-01 4.064386e-01 -3.841615e-02 -1.580773e-01 6.497408e-02 -1.665741e-02 -5.238906e-03 -1.357069e-01 -1.277874e-01 1.419979e-01 -2.529035e-01
<VARIANCE> 39
 1.839868e+01 3.967805e+01 2.519664e+01 7.142410e+01 7.316231e+01 5.364697e+01 7.159199e+01 8.023598e+01 1.122894e+02 6.742532e+01 7.033611e+01 1.136073e+02 4.218723e+01 4.667324e-01 1.134492e+00 1.079017e+00 2.543310e+00 1.873857e+00 2.360049e+00 2.290241e+00 2.403608e+00 2.712200e+00 2.283536e+00 2.317623e+00 2.190641e+00 9.710936e-01 1.129351e-01 1.732242e-01 1.957805e-01 3.345387e-01 3.248513e-01 3.675906e-01 4.648758e-01 4.843490e-01 4.639415e-01 4.415917e-01 4.298876e-01 4.374349e-01 1.243733e-01
<GCONST> 1.157250e+02
<STATE> 4
<MEAN> 39
 3.300170e-01 -2.066606e+00 -5.087649e+00 -9.080987e+00 -7.355597e+00 1.240685e+00 -9.398504e+00 -5.736627e+00 -4.549847e+00 8.272200e-01 2.075464e-01 -4.064434e+00 6.117942e+01 -2.367372e-01 3.692164e-01 3.670255e-01 1.266207e+00 3.979316e-03 -3.667458e-01 3.464669e-01 -9.303483e-02 5.396663e-02 -3.318323e-01 -3.678673e-01 2.868288e-01 -9.939476e-01 -1.264961e-01 1.214011e-02 7.918990e-02 -3.533782e-03 -6.748959e-03 -6.791201e-02 4.006100e-02 9.182084e-02 -5.304498e-02 1.386588e-02 1.015960e-02 4.533241e-02 5.973675e-03
<VARIANCE> 39
 6.582434e+01 8.007622e+01 3.450281e+01 8.535062e+01 9.876494e+01 7.961768e+01 6.250111e+01 7.751637e+01 7.118285e+01 6.662141e+01 3.873460e+01 6.214985e+01 1.346697e+02 9.560490e-01 1.963967e+00 1.591010e+00 3.445227e+00 2.420128e+00 3.020579e+00 3.010749e+00 3.278315e+00 3.128969e+00 3.108470e+00 2.763990e+00 2.601432e+00 1.240838e+00 1.437642e-01 2.890046e-01 2.551830e-01 4.088476e-01 3.820650e-01 4.709360e-01 4.653484e-01 5.720635e-01 5.403444e-01 5.127284e-01 4.653901e-01 4.527820e-01 1.630290e-01
<GCONST> 1.247832e+02
<TRANSP> 5
 0.000000e+00 1.000000e+00 0.000000e+00 0.000000e+00 0.000000e+00
 0.000000e+00 6.111536e-01 3.888464e-01 0.000000e+00 0.000000e+00
 0.000000e+00 0.000000e+00 7.829560e-01 2.170440e-01 0.000000e+00
 0.000000e+00 0.000000e+00 0.000000e+00 5.888525e-01 4.111475e-01
 0.000000e+00 0.000000e+00 0.000000e+00 0.000000e+00 0.000000e+00
<ENDHMM>
~h "p"
<BEGINHMM>
<NUMSTATES> 5
<STATE> 2
<MEAN> 39
 -5.337671e+00 1.868142e+00 -1.088517e+00 7.580290e-01 -2.253831e+00 -1.703802e+00 -4.550112e+00 -3.049721e+00 -1.891363e+00 -4.040598e-01 -2.667806e+00 -3.217464e+00 5.482681e+01 -9.020747e-01 -1.555748e-01 -3.045301e-01 3.881321e-02 -1.103490e-01 -3.259467e-01 1.455677e-01 5.291991e-01 8.547826e-02 3.699733e-02 6.176327e-01 3.239658e-01 1.317741e-02 3.000561e-01 -4.618694e-01 -1.808387e-01 -6.847225e-01 -5.322096e-01 -4.316275e-01 -5.016479e-01 -1.790607e-01 -2.056564e-01 8.831383e-02 2.114848e-01 -8.117989e-02 1.042423e+00
<VARIANCE> 39
 3.582452e+01 3.060693e+01 3.687271e+01 3.504309e+01 3.570856e+01 4.254056e+01 3.469075e+01 4.119211e+01 4.835756e+01 3.137658e+01 3.739808e+01 2.767342e+01 6.460101e+01 1.777568e+00 2.337394e+00 2.729546e+00 3.986426e+00 3.146919e+00 3.873079e+00 3.515736e+00 3.649352e+00 3.352751e+00 3.409851e+00 3.493716e+00 2.645139e+00 3.389732e+00 4.252244e-01 4.690220e-01 5.510756e-01 6.685898e-01 5.943955e-01 7.405932e-01 7.684280e-01 8.228321e-01 8.010007e-01 6.585555e-01 6.504310e-01 8.590899e-01 3.859633e-01
<GCONST> 1.275479e+02
<STATE> 3
<MEAN> 39
 -7.214416e+00 -5.157340e-01 -2.926784e+00 -1.159692e+00 -4.405571e+00 -5.565299e+00 -8.363877e+00 -3.485034e+00 -4.463049e+00 -3.083965e+00 -2.152783e+00 -2.935803e-01 5.544187e+01 6.268115e-01 -1.151736e+00 -8.323412e-01 -1.833146e+00 -9.338045e-01 -9.766272e-01 -1.159555e+00 -1.416132e-01 -5.920331e-01 5.161003e-01 7.846088e-01 3.611392e-01 2.671765e+00 6.329168e-01 -2.161376e-01 3.255832e-01 -7.453839e-01 -1.171849e-01 1.927183e-01 -2.022931e-01 -1.303764e-01 -1.453755e-01 5.647621e-01 -2.609675e-01 -2.554359e-01 6.973881e-01
<VARIANCE> 39
 3.314594e+01 3.304318e+01 4.589774e+01 6.116993e+01 4.272432e+01 5.637107e+01 6.534498e+01 6.062078e+01 6.697918e+01 6.648157e+01 5.654626e+01 5.014677e+01 8.483105e+01 3.883794e+00 4.402554e+00 7.087207e+00 1.164728e+01 7.400803e+00 7.113406e+00 6.450739e+00 7.279475e+00 7.143670e+00 8.621273e+00 6.655714e+00 7.616984e+00 5.609830e+00 4.829291e-01 8.102078e-01 1.038515e+00 1.450086e+00 1.207621e+00 1.279098e+00 1.267469e+00 1.402939e+00 1.274879e+00 1.628084e+00 1.219101e+00 1.129650e+00 6.252338e-01
<GCONST> 1.493772e+02
<STATE> 4
<MEAN> 39
 -5.292419e-01 -4.409566e+00 -2.021418e+00 -6.321531e+00 -8.991987e+00 -2.511798e+00 -1.052230e+01 -3.924453e+00 -5.901490e+00 2.315291e-01 1.291973e+00 -4.853775e+00 6.205345e+01 8.380125e-01 -7.148948e-01 1.190130e-01 -1.208263e+00 -6.488754e-01 -9.583942e-02 -5.999651e-01 -9.892678e-02 -2.034454e-01 5.510129e-01 9.732077e-02 -5.079228e-01 1.565801e+00 -7.072741e-02 1.217432e-01 1.863172e-01 2.347286e-01 8.972327e-02 8.231929e-02 7.298414e-02 5.277946e-02 5.044483e-02 -9.426533e-02 -1.955254e-01 -2.503094e-02 -2.377996e-01
<VARIANCE> 39
 7.018920e+01 6.926896e+01 1.132417e+02 9.201448e+01 8.255984e+01 8.107097e+01 6.459036e+01 7.262854e+01 7.384495e+01 4.144400e+01 4.604003e+01 5.147130e+01 8.092542e+01 4.487217e+00 6.463460e+00 6.206242e+00 8.835825e+00 7.215383e+00 6.063406e+00 6.221876e+00 6.978719e+00 6.548434e+00 5.498126e+00 4.270391e+00 4.926534e+00 6.671240e+00 6.634679e-01 9.988860e-01 8.572918e-01 1.441070e+00 9.793333e-01 9.890061e-01 8.980290e-01 1.103923e+00 9.589617e-01 8.110339e-01 7.510791e-01 6.898457e-01 7.876609e-01
<GCONST> 1.489314e+02
<TRANSP> 5
 0.000000e+00 1.000000e+00 0.000000e+00 0.000000e+00 0.000000e+00
 0.000000e+00 5.892515e-01 4.107485e-01 0.000000e+00 0.000000e+00
 0.000000e+00 0.000000e+00 3.928571e-01 6.071429e-01 0.000000e+00
 0.000000e+00 0.000000e+00 0.000000e+00 6.177111e-01 3.822888e-01
 0.000000e+00 0.000000e+00 0.000000e+00 0.000000e+00 0.000000e+00
<ENDHMM>
~h "r"
<BEGINHMM>
<NUMSTATES> 5
<STATE> 2
<MEAN> 39
 -3.289469e+00 -4.895754e+00 -1.406585e+00 -6.542065e+00 -5.446161e+00 -1.049835e+01 -1.135274e+01 -6.857249e-01 -2.474291e+00 2.537889e+00 -5.435765e+00 -6.380281e-01 6.789256e+01 -1.777199e-01 4.276529e-01 5.694010e-01 6.905809e-01 1.496844e-01 -1.555730e-01 -5.982248e-02 -1.746167e-01 -2.106849e-01 -1.088115e-01 -4.656500e-02 5.085291e-01 -7.937922e-01 -6.501438e-02 6.202501e-02 4.186589e-02 -3.332735e-02 -1.363825e-01 1.912452e-01 9.877643e-02 -2.687261e-02 -1.875266e-01 -1.021301e-01 1.546422e-01 -1.618980e-01 -9.670575e-02
<VARIANCE> 39
 3.103238e+01 3.512350e+01 3.952059e+01 6.497095e+01 8.136765e+01 7.069347e+01 6.213026e+01 6.992816e+01 1.015577e+02 5.616457e+01 8.610998e+01 9.545859e+01 8.721944e+01 1.293101e+00 2.123300e+00 2.340363e+00 2.840284e+00 3.488674e+00 4.844306e+00 3.972828e+00 4.144746e+00 3.600799e+00 3.158262e+00 2.981048e+00 3.152405e+00 1.374383e+00 2.791534e-01 3.832408e-01 3.410254e-01 5.221632e-01 5.848108e-01 6.547505e-01 6.742439e-01 7.198526e-01 6.532028e-01 5.536729e-01 5.637728e-01 6.159663e-01 2.769764e-01
<GCONST> 1.302080e+02
<STATE> 3
<MEAN> 39
 -3.900984e+00 -3.180547e+00 9.352526e-02 -3.842063e+00 -5.993211e+00 -1.010232e+01 -1.066170e+01 -1.304829e+00 -3.650860e+00 1.755868e+00 -4.170956e+00 -1.233843e+00 6.511113e+01 -2.306129e-01 3.286621e-01 5.491472e-01 4.017864e-01 -3.753248e-01 3.826859e-01 1.117848e-01 -1.833907e-02 -4.393440e-01 -2.393857e-01 3.034118e-01 -1.602216e-01 -7.156992e-01 1.152538e-02 -1.082380e-01 -1.051179e-01 -2.706768e-01 -1.769832e-01 1.021930e-01 1.536967e-01 1.036419e-02 -6.152723e-02 -2.917726e-03 1.142533e-01 -2.768885e-01 1.809461e-01
<VARIANCE> 39
 3.844482e+01 3.667290e+01 4.878977e+01 5.969855e+01 5.807265e+01 8.162788e+01 5.886217e+01 5.732286e+01 1.094439e+02 6.070816e+01 7.189985e+01 5.955337e+01 9.775124e+01 1.610673e+00 2.565639e+00 2.607566e+00 2.810307e+00 3.795365e+00 5.070998e+00 3.416295e+00 4.129600e+00 4.391472e+00 3.278085e+00 3.501037e+00 4.096861e+00 2.050414e+00 3.499982e-01 3.974541e-01 5.099324e-01 6.059164e-01 6.725638e-01 1.120550e+00 8.258614e-01 8.669737e-01 8.719325e-01 7.074382e-01 7.560974e-01 7.769481e-01 3.381139e-01
<GCONST> 1.344386e+02
<STATE> 4
<MEAN> 39
 5.300155e-01 -5.300845e+00 1.845976e+00 -3.163895e+00 -1.039330e+01 -3.521980e+00 -1.255730e+01 -1.716306e+00 -5.033780e+00 -5.934361e-01 4.343720e-01 -5.525171e+00 6.172194e+01 -3.913346e-02 1.514228e-02 1.052279e-01 -7.852995e-02 -1.646950e-01 2.957526e-02 3.548248e-02 1.214238e-03 -1.095214e-01 -5.699228e-02 8.010585e-02 -1.332122e-01 7.380433e-04 6.040310e-03 -1.257545e-02 -2.340853e-02 -6.558274e-02 3.253331e-03 -2.543859e-02 4.941086e-02 -2.446954e-02 2.188250e-03 2.034607e-02 -1.135180e-02 -1.713928e-02 6.079221e-02
<VARIANCE> 39
 7.462625e+01 8.508540e+01 1.182165e+02 7.989607e+01 8.789527e+01 9.284138e+01 7.103902e+01 8.875443e+01 8.274931e+01 4.774076e+01 5.997939e+01 4.742052e+01 8.437715e+01 3.684103e+00 6.417142e+00 4.869148e+00 5.704917e+00 5.552526e+00 4.658196e+00 4.919302e+00 6.042866e+00 4.649337e+00 3.519444e+00 3.817775e+00 3.004727e+00 4.485714e+00 5.745860e-01 1.100085e+00 7.468005e-01 1.028689e+00 9.911177e-01 9.167429e-01 8.996351e-01 1.049558e+00 7.971358e-01 6.615787e-01 7.238545e-01 5.722276e-01 7.175340e-01
<GCONST> 1.451518e+02
<TRANSP> 5
 0.000000e+00 1.000000e+00 0.000000e+00 0.000000e+00 0.000000e+00
 0.000000e+00 4.023986e-01 5.976014e-01 0.000000e+00 0.000000e+00
 0.000000e+00 0.000000e+00 3.024776e-01 6.975223e-01 0.000000e+00
 0.000000e+00 0.000000e+00 0.000000e+00 7.117251e-01 2.882749e-01
 0.000000e+00 0.000000e+00 0.000000e+00 0.000000e+00 0.000000e+00
<ENDHMM>
~h "s"
<BEGINHMM>
<NUMSTATES> 5
<STATE> 2
<MEAN> 39
 -1.201821e+01 5.457280e+00 1.512007e-01 -2.786542e+00 -1.849421e+00 -9.220941e+00 -7.182859e+00 -2.220630e+00 -4.119833e+00 -2.417232e+00 -4.969598e+00 -5.163330e-01 6.501644e+01 -3.666247e+00 2.603158e+00 -9.671423e-01 6.132655e-01 1.500061e+00 1.250511e-01 8.210610e-01 7.194307e-01 2.228659e-01 -7.528152e-01 6.334063e-01 4.900744e-01 -7.310203e-02 -3.182750e-01 -2.509885e-01 -1.038378e-01 -2.269706e-01 -2.023727e-01 2.158896e-01 -4.089490e-02 2.521159e-01 -7.635056e-02 1.515295e-01 2.620936e-01 -1.606201e-02 1.008155e-01
<VARIANCE> 39
 6.146159e+01 7.234244e+01 6.916432e+01 4.398360e+01 7.174979e+01 6.380463e+01 7.258188e+01 6.072662e+01 7.735410e+01 4.841471e+01 6.633895e+01 6.424984e+01 8.987579e+01 3.269925e+00 4.224479e+00 4.266872e+00 4.107255e+00 4.604612e+00 6.024863e+00 7.081472e+00 6.212416e+00 4.587950e+00 4.925373e+00 3.877226e+00 3.742251e+00 1.614433e+00 7.092093e-01 7.980450e-01 5.653641e-01 6.168532e-01 6.544310e-01 8.852049e-01 9.912179e-01 8.840190e-01 8.026317e-01 6.643776e-01 6.617586e-01 6.078845e-01 2.079646e-01
<GCONST> 1.394592e+02
<STATE> 3
<MEAN> 39
 -2.411871e+01 9.232650e+00 -2.841567e+00 -2.171089e+00 1.320335e-01 -7.028572e+00 -3.429014e+00 2.561620e+00 -3.885046e+00 -2.265729e+00 -2.836081e-01 2.295353e-01 6.651930e+01 -7.976168e-01 -3.440584e-01 -1.965407e-01 -5.136812e-04 2.227986e-02 2.014088e-01 3.620626e-01 6.061126e-01 3.286201e-01 9.287889e-02 3.543596e-01 2.711684e-01 -3.848861e-01 1.060156e+00 -5.401050e-01 2.262604e-01 -8.326288e-02 -3.667576e-01 -2.214223e-01 -3.274232e-01 -3.272045e-01 -9.608217e-03 6.080985e-02 -1.887088e-01 -1.747882e-01 -5.090902e-02
<VARIANCE> 39
 3.563794e+01 3.744911e+01 4.924013e+01 6.174136e+01 3.980874e+01 4.780241e+01 6.150063e+01 4.831910e+01 9.071357e+01 4.934187e+01 4.551344e+01 4.125116e+01 5.351029e+01 4.448774e+00 2.608573e+00 2.728151e+00 2.239199e+00 2.335881e+00 3.088664e+00 3.048334e+00 3.225435e+00 3.053117e+00 2.767533e+00 2.576193e+00 2.156688e+00 9.164043e-01 4.294038e-01 4.618164e-01 5.243505e-01 4.904536e-01 5.183023e-01 6.797008e-01 7.136067e-01 7.533609e-01 6.557772e-01 6.333619e-01 5.343552e-01 5.077293e-01 1.801590e-01
<GCONST> 1.261131e+02
<STATE> 4
<MEAN> 39
 -1.740403e+01 4.780172e+00 -2.584330e+00 -3.185966e+00 -1.645656e+00 -9.273727e+00 -6.945631e+00 5.625729e-01 -2.634728e+00 -3.100769e+00 -2.366147e+00 3.755377e-01 6.337630e+01 3.494979e+00 -1.497910e+00 -9.243985e-02 -5.695150e-01 -1.255250e+00 -7.518463e-01 -1.205886e+00 -1.426027e+00 9.572420e-02 3.099831e-01 -6.834095e-01 -8.076897e-01 6.495599e-01 3.291489e-01 -1.041143e-01 6.056566e-02 -2.181108e-01 -1.377351e-01 1.317879e-01 -8.248159e-02 -2.001479e-01 -9.730253e-02 1.323777e-01 -3.545980e-02 -1.762289e-01 3.441891e-01
<VARIANCE> 39
 8.641661e+01 5.755481e+01 4.732598e+01 5.192078e+01 5.548672e+01 6.375033e+01 8.114124e+01 6.496804e+01 7.247182e+01 5.233586e+01 4.819039e+01 6.194543e+01 8.058906e+01 4.688663e+00 4.432145e+00 4.366191e+00 4.546417e+00 4.724426e+00 5.719082e+00 6.523714e+00 6.607254e+00 5.012561e+00 4.626578e+00 3.954985e+00 4.777847e+00 3.357485e+00 1.155243e+00 6.447781e-01 5.725349e-01 6.599661e-01 7.390541e-01 9.383075e-01 1.100796e+00 1.085655e+00 8.338698e-01 8.272871e-01 7.375578e-01 7.142995e-01 4.059199e-01
<GCONST> 1.423758e+02
<TRANSP> 5
 0.000000e+00 1.000000e+00 0.000000e+00 0.000000e+00 0.000000e+00
 0.000000e+00 6.033865e-01 3.966135e-01 0.000000e+00 0.000000e+00
 0.000000e+00 0.000000e+00 7.716681e-01 2.283319e-01 0.000000e+00
 0.000000e+00 0.000000e+00 0.000000e+00 6.315919e-01 3.684081e-01
 0.000000e+00 0.000000e+00 0.000000e+00 0.000000e+00 0.000000e+00
<ENDHMM>
~h "t"
<BEGINHMM>
<NUMSTATES> 5
<STATE> 2
<MEAN> 39
 -6.425817e+00 2.744746e+00 3.166355e-01 1.247455e+00 -3.544981e+00 -4.223154e+00 -5.768918e+00 -3.469348e+00 -2.143959e+00 -7.039874e-01 -2.710016e+00 -2.324759e+00 5.436918e+01 -1.202709e+00 -3.510132e-01 -5.779493e-01 -1.700574e-01 4.780875e-01 1.331881e-01 7.821180e-01 7.136961e-01 2.956018e-01 -2.296010e-01 5.900912e-01 4.691692e-01 -7.229091e-02 -1.564634e-01 -3.036069e-01 -1.116549e-01 -5.900770e-01 -4.184964e-01 -5.690225e-01 -3.078423e-01 2.416521e-02 -6.698175e-02 7.421649e-03 1.067988e-01 2.074689e-04 1.080189e+00
<VARIANCE> 39
 3.616315e+01 3.135894e+01 3.728242e+01 3.099158e+01 3.515739e+01 4.275670e+01 3.902526e+01 3.932275e+01 4.646883e+01 3.234122e+01 4.273973e+01 2.592496e+01 7.285172e+01 2.429398e+00 2.429522e+00 2.949077e+00 3.589719e+00 3.452709e+00 4.397692e+00 3.666593e+00 3.559637e+00 3.980360e+00 3.783202e+00 3.932641e+00 2.441247e+00 3.881300e+00 3.880362e-01 4.560134e-01 4.962244e-01 5.735382e-01 6.262852e-01 7.654180e-01 8.238636e-01 7.976950e-01 8.129748e-01 6.741514e-01 7.649566e-01 6.793284e-01 5.179194e-01
<GCONST> 1.287247e+02
<STATE> 3
<MEAN> 39
 -1.174345e+01 1.043970e+00 -2.040314e+00 -8.665109e-01 -3.030499e+00 -7.787807e+00 -6.035734e+00 -2.647258e+00 -2.637254e+00 -3.636535e+00 -1.976442e+00 6.180244e-01 5.693732e+01 -8.301844e-01 -7.550783e-01 -9.081467e-01 -1.658449e+00 -4.253800e-01 -1.765883e+00 -8.796368e-01 4.122604e-01 2.710690e-01 -1.742579e-01 4.562519e-01 6.031991e-01 3.131455e+00 8.443640e-01 -1.098180e-01 3.220789e-01 -5.343605e-01 -4.456758e-01 -2.780795e-02 -6.202542e-01 -2.027378e-01 -2.087865e-01 5.915741e-01 -2.849049e-01 -3.269318e-01 6.015627e-01
<VARIANCE> 39
 3.851778e+01 3.531507e+01 3.954785e+01 4.503230e+01 4.439812e+01 7.434467e+01 7.395641e+01 6.123231e+01 6.638616e+01 5.881754e+01 6.024191e+01 4.693379e+01 1.054747e+02 4.245716e+00 4.159539e+00 5.807947e+00 6.319917e+00 6.621880e+00 7.059363e+00 7.202209e+00 6.486128e+00 8.074247e+00 7.284880e+00 7.096780e+00 5.304479e+00 5.808904e+00 6.565441e-01 6.866028e-01 8.399472e-01 9.745930e-01 1.102255e+00 1.522951e+00 1.408790e+00 1.283799e+00 1.194338e+00 1.701051e+00 1.200091e+00 8.247616e-01 7.424035e-01
<GCONST> 1.479126e+02
<STATE> 4
<MEAN> 39
 -9.665177e+00 -1.325473e+00 -3.518299e+00 -6.313272e+00 -5.892466e+00 -1.015380e+01 -8.758458e+00 -2.178102e+00 -2.296939e+00 -6.713840e-01 -1.345894e+00 -1.694292e+00 6.549998e+01 1.859044e+00 -6.051557e-01 7.846655e-02 -1.798042e+00 -1.339489e+00 -4.832663e-01 -1.712785e+00 -5.315099e-01 -1.758572e-01 9.148505e-01 -9.100739e-02 -9.451590e-01 2.462729e+00 6.556225e-01 1.741028e-01 4.028430e-01 3.355688e-01 -7.305819e-02 6.716845e-01 -3.992500e-02 -2.660329e-01 -2.304214e-01 8.895560e-02 -1.057333e-01 -2.309747e-01 -6.828147e-01
<VARIANCE> 39
 5.606330e+01 4.371651e+01 4.684646e+01 5.212638e+01 4.686378e+01 6.943517e+01 7.321501e+01 5.393476e+01 8.442597e+01 3.827175e+01 5.254256e+01 5.283001e+01 1.031747e+02 4.614585e+00 4.511207e+00 5.405150e+00 5.342286e+00 5.862765e+00 7.513795e+00 7.157542e+00 7.517261e+00 6.088513e+00 6.420450e+00 5.258538e+00 4.639520e+00 4.577651e+00 8.894633e-01 6.530534e-01 6.701462e-01 9.002898e-01 8.166831e-01 1.353581e+00 1.116311e+00 9.915934e-01 1.047489e+00 8.313031e-01 8.259937e-01 6.675029e-01 6.769837e-01
<GCONST> 1.448770e+02
<TRANSP> 5
 0.000000e+00 1.000000e+00 0.000000e+00 0.000000e+00 0.000000e+00
 0.000000e+00 5.905064e-01 4.094936e-01 0.000000e+00 0.000000e+00
 0.000000e+00 0.000000e+00 3.816339e-01 6.183661e-01 0.000000e+00
 0.000000e+00 0.000000e+00 0.000000e+00 4.108295e-01 5.891706e-01
 0.000000e+00 0.000000e+00 0.000000e+00 0.000000e+00 0.000000e+00
<ENDHMM>
~h "u"
<BEGINHMM>
<NUMSTATES> 5
<STATE> 2
<MEAN> 39
 9.451041e-02 1.467383e+00 -3.546621e+00 -9.678364e+00 -9.515191e+00 -2.065205e+00 -1.438015e+01 -7.735438e+00 -7.587543e+00 1.186735e+00 1.259546e+00 -2.675883e+00 6.547469e+01 1.071563e+00 4.092659e-01 -2.373024e-01 -1.376776e+00 -6.446840e-01 1.321729e+00 -7.667652e-01 -8.374293e-01 -1.094198e+00 3.429914e-01 8.255055e-01 2.168064e-02 2.313577e-01 -3.943365e-01 -4.825442e-02 2.460597e-01 5.202306e-01 3.653720e-01 -3.116463e-02 4.273663e-01 2.637537e-01 1.399297e-01 -1.248614e-01 -2.701273e-01 2.309953e-03 -3.527341e-01
<VARIANCE> 39
 3.397018e+01 4.505623e+01 3.293609e+01 7.065369e+01 5.183995e+01 5.862189e+01 8.978818e+01 8.480073e+01 9.291519e+01 6.829047e+01 6.337782e+01 5.727526e+01 8.173341e+01 2.036077e+00 2.212789e+00 2.906408e+00 4.700151e+00 4.166865e+00 5.262456e+00 5.202953e+00 5.712764e+00 4.711100e+00 5.223908e+00 3.638381e+00 3.325350e+00 2.244074e+00 3.097656e-01 4.003912e-01 4.332051e-01 7.966483e-01 6.606279e-01 7.789207e-01 1.023607e+00 1.083703e+00 8.491021e-01 9.141714e-01 7.041690e-01 6.779305e-01 2.896719e-01
<GCONST> 1.362363e+02
<STATE> 3
<MEAN> 39
 1.175725e+00 3.304306e+00 -4.484962e+00 -1.379970e+01 -8.483655e+00 2.377060e+00 -1.559828e+01 -6.672354e+00 -1.336116e+01 2.577950e+00 1.321544e+00 6.890211e-02 6.440881e+01 -7.475018e-02 -1.104993e-01 3.034973e-01 7.905354e-01 2.528786e-01 -1.470853e-01 2.649542e-01 -6.148840e-02 3.936021e-01 -3.670812e-02 -2.997189e-01 -2.128780e-01 -4.746535e-01 -2.476152e-01 -1.030662e-01 1.963628e-01 6.241357e-01 1.774870e-01 -4.020167e-01 2.715885e-01 1.003322e-01 3.974382e-01 -1.744659e-01 -2.871077e-01 -7.257880e-02 -1.932603e-01
<VARIANCE> 39
 2.415190e+01 4.964466e+01 2.790544e+01 6.909978e+01 5.586789e+01 6.474718e+01 9.335082e+01 8.807217e+01 1.162779e+02 1.055648e+02 8.242362e+01 7.543578e+01 5.540754e+01 7.008107e-01 2.119335e+00 1.702117e+00 3.884062e+00 3.012809e+00 3.618636e+00 4.771468e+00 4.227693e+00 5.105430e+00 5.140880e+00 3.820520e+00 3.405063e+00 1.933417e+00 1.631120e-01 2.653422e-01 3.395868e-01 5.920362e-01 5.493982e-01 7.156466e-01 7.532036e-01 9.365032e-01 8.647488e-01 9.382594e-01 7.598951e-01 6.484448e-01 1.762884e-01
<GCONST> 1.311949e+02
<STATE> 4
<MEAN> 39
 2.270098e-01 3.215874e-01 6.342515e-01 -3.701025e+00 -9.348531e+00 -2.056169e+00 -1.350832e+01 -6.359037e+00 -8.045416e+00 -7.548505e-01 -2.849165e-01 -3.152897e+00 6.038343e+01 -5.897973e-01 2.191215e-02 6.841825e-01 1.399368e+00 5.380419e-01 -6.463651e-01 6.226811e-01 2.646783e-01 6.039855e-01 -4.639137e-01 -7.107538e-01 -5.362746e-02 -7.633854e-01 -1.860493e-01 6.320436e-02 -6.271113e-02 -1.566062e-01 1.193603e-01 6.705546e-02 9.406836e-02 1.798163e-01 -1.034393e-01 5.940821e-03 2.764369e-03 1.142945e-01 1.487007e-02
<VARIANCE> 39
 4.076890e+01 7.477702e+01 8.583118e+01 7.389584e+01 7.714559e+01 7.323813e+01 9.288214e+01 9.181208e+01 8.011665e+01 7.765749e+01 6.491025e+01 5.381960e+01 9.187708e+01 1.477869e+00 3.942471e+00 4.148881e+00 5.570295e+00 5.214461e+00 5.517435e+00 5.757429e+00 6.345149e+00 5.249320e+00 4.747837e+00 4.651948e+00 3.582541e+00 2.834168e+00 2.785201e-01 6.930907e-01 7.079313e-01 9.335914e-01 9.385127e-01 9.457005e-01 1.194315e+00 1.180480e+00 9.656419e-01 1.008275e+00 8.261812e-01 7.086352e-01 4.753384e-01
<GCONST> 1.433506e+02
<TRANSP> 5
 0.000000e+00 1.000000e+00 0.000000e+00 0.000000e+00 0.000000e+00
 0.000000e+00 4.235401e-01 5.764599e-01 0.000000e+00 0.000000e+00
 0.000000e+00 0.000000e+00 6.696412e-01 3.303588e-01 0.000000e+00
 0.000000e+00 0.000000e+00 0.000000e+00 5.701107e-01 4.298894e-01
 0.000000e+00 0.000000e+00 0.000000e+00 0.000000e+00 0.000000e+00
<ENDHMM>
~h "v"
<BEGINHMM>
<NUMSTATES> 5
<STATE> 2
<MEAN> 39
 -1.280847e+01 2.288457e+00 3.487838e+00 6.350658e+00 -4.628827e+00 -7.831236e+00 -8.901682e+00 -9.079161e-01 -3.562190e+00 1.937159e+00 -1.089293e+00 -3.682215e-01 6.174802e+01 -9.923803e-01 -3.269198e-01 -1.266157e+00 -3.296105e-01 1.265776e+00 1.532006e+00 4.493408e-01 4.775365e-01 6.545729e-01 2.162078e-01 2.588282e-01 9.292261e-02 -3.955772e-01 6.210115e-01 -3.567963e-01 -1.678468e-01 -7.800758e-01 -4.798974e-01 -8.145361e-02 1.272001e-02 -2.701632e-01 -2.496380e-01 6.398837e-02 2.168590e-01 -2.800317e-01 4.799360e-01
<VARIANCE> 39
 4.195076e+01 1.881490e+01 2.426453e+01 2.499966e+01 4.257306e+01 3.979450e+01 3.294392e+01 3.482159e+01 4.668857e+01 4.006471e+01 4.963790e+01 1.960118e+01 6.112539e+01 1.957036e+00 1.616558e+00 2.229104e+00 2.214926e+00 3.550479e+00 4.184689e+00 3.899230e+00 3.513103e+00 3.354980e+00 3.868275e+00 3.238444e+00 2.081531e+00 1.386826e+00 5.292216e-01 4.566315e-01 6.370507e-01 5.576266e-01 6.509869e-01 7.879200e-01 9.069224e-01 6.302454e-01 7.433316e-01 7.093100e-01 7.035946e-01 5.911942e-01 2.787239e-01
<GCONST> 1.241494e+02
<STATE> 3
<MEAN> 39
 -8.733231e+00 -6.442052e-01 -3.332004e+00 -6.463491e-01 -4.299560e+00 -3.442548e+00 -6.987955e+00 -2.651033e+00 -2.643801e+00 2.253670e+00 9.166428e-01 -3.761140e+00 6.173375e+01 3.273355e+00 -1.536790e+00 -2.861317e+00 -3.911746e+00 -5.171967e-01 8.615900e-01 -8.756326e-01 -1.680928e+00 3.332186e-01 3.115898e-01 5.910432e-01 -2.358517e+00 1.959879e+00 2.992328e-01 -2.272225e-01 1.459657e-01 -4.351503e-01 -2.469414e-01 -4.156137e-01 -4.195921e-01 -2.851776e-02 -2.149373e-02 2.664251e-01 -2.022876e-01 -3.421523e-01 6.540669e-01
<VARIANCE> 39
 6.256770e+01 2.145771e+01 3.977681e+01 6.029168e+01 4.288020e+01 3.103651e+01 3.378232e+01 6.652940e+01 5.744454e+01 3.424342e+01 3.443359e+01 4.203943e+01 9.116006e+01 3.647735e+00 3.084809e+00 4.391299e+00 5.115840e+00 5.104743e+00 4.328049e+00 4.419393e+00 4.004386e+00 2.820409e+00 5.763651e+00 3.215092e+00 4.689037e+00 2.139131e+00 8.605030e-01 4.384692e-01 7.208949e-01 1.199387e+00 4.779279e-01 5.214528e-01 7.047548e-01 9.762585e-01 6.837348e-01 8.087501e-01 6.807597e-01 5.332890e-01 2.931914e-01
<GCONST> 1.329948e+02
<STATE> 4
<MEAN> 39
 -1.703364e+00 -4.681727e+00 -6.740280e+00 -1.028195e+01 -2.715326e+00 -2.846573e+00 -1.416790e+01 -6.947636e+00 -5.345407e+00 6.258076e+00 -4.109311e+00 -2.031068e+00 6.484307e+01 1.491086e+00 -2.201928e+00 -7.905584e-01 -3.920820e+00 4.812855e-01 -2.067307e-01 -6.452454e-01 7.017854e-01 4.314612e-01 1.990158e+00 -1.090321e+00 -5.659502e-01 2.951508e+00 -6.639134e-01 3.590935e-01 8.192887e-01 8.576239e-01 -1.075099e-02 -4.145148e-01 4.523649e-01 6.217495e-01 4.640059e-02 -1.946950e-02 -2.879035e-01 2.457587e-01 -2.543156e-01
<VARIANCE> 39
 3.743158e+01 3.413943e+01 4.710672e+01 1.110076e+02 8.289478e+01 2.876954e+01 4.962292e+01 5.003552e+01 6.983158e+01 8.934191e+01 9.282638e+01 1.396476e+02 1.249204e+02 2.765992e+00 2.490736e+00 3.824359e+00 1.091382e+01 5.649936e+00 3.395619e+00 4.372693e+00 5.011374e+00 5.047912e+00 1.179185e+01 5.386256e+00 7.560616e+00 2.104257e+00 8.399962e-01 4.445640e-01 8.107558e-01 2.146870e+00 1.147196e+00 7.727156e-01 7.231004e-01 9.226434e-01 7.770509e-01 2.903667e+00 7.863176e-01 7.422956e-01 5.312788e-01
<GCONST> 1.449489e+02
<TRANSP> 5
 0.000000e+00 1.000000e+00 0.000000e+00 0.000000e+00 0.000000e+00
 0.000000e+00 7.453341e-01 2.546658e-01 0.000000e+00 0.000000e+00
 0.000000e+00 0.000000e+00 5.537606e-01 4.462394e-01 0.000000e+00
 0.000000e+00 0.000000e+00 0.000000e+00 4.781634e-01 5.218366e-01
 0.000000e+00 0.000000e+00 0.000000e+00 0.000000e+00 0.000000e+00
<ENDHMM>
~h "w"
<BEGINHMM>
<NUMSTATES> 5
<STATE> 2
<MEAN> 39
 -2.789513e+00 1.793497e+00 -2.958029e+00 -6.070250e+00 -7.161228e+00 -5.783274e+00 -1.105578e+01 -6.186985e+00 -6.493384e+00 1.576211e+00 -1.422319e+00 -2.740342e+00 6.156231e+01 1.850978e+00 5.971552e-01 -5.149921e-01 -1.395358e+00 -7.882044e-01 4.301158e-01 -6.502122e-01 -1.437190e+00 -9.394445e-01 4.665935e-01 5.584117e-01 5.277934e-01 5.224254e-01 -2.920429e-01 -2.457740e-01 1.002360e-01 -2.421088e-01 -1.658401e-01 1.584537e-01 2.541490e-01 4.119582e-01 -4.542947e-02 -1.601178e-01 1.125799e-01 2.346381e-01 2.200219e-01
<VARIANCE> 39
 5.381376e+01 4.841420e+01 4.422557e+01 1.094772e+02 4.845175e+01 7.464941e+01 8.077570e+01 6.796280e+01 5.732398e+01 7.938158e+01 7.230029e+01 3.842817e+01 1.320878e+02 2.820388e+00 2.246753e+00 1.991871e+00 3.865528e+00 3.534438e+00 3.787467e+00 4.040213e+00 2.770860e+00 2.353213e+00 3.913809e+00 3.219511e+00 2.936241e+00 2.513894e+00 5.529979e-01 4.960544e-01 4.157806e-01 6.861658e-01 5.393102e-01 6.566628e-01 4.701406e-01 9.587581e-01 7.184245e-01 8.115673e-01 6.174263e-01 6.028982e-01 2.112136e-01
<GCONST> 1.328882e+02
<STATE> 3
<MEAN> 39
 1.122822e+00 1.228611e+00 -3.386241e+00 -2.019487e+01 -5.515004e+00 8.433789e-01 -1.398748e+01 -6.139670e+00 -9.270255e+00 7.271583e+00 -2.502611e+00 3.260668e+00 6.489716e+01 4.124938e-01 -4.950769e-02 -3.846270e-01 -1.248131e+00 -4.481398e-02 7.116201e-01 4.470928e-01 -5.742566e-01 -4.114024e-01 -1.372710e-01 1.029951e+00 2.791297e-01 1.351583e-01 -4.220549e-01 -3.253772e-01 1.779570e-01 5.102385e-01 2.509117e-02 -2.590345e-01 2.292996e-01 3.479300e-01 1.937018e-01 -2.360318e-01 -1.167492e-01 -3.468167e-01 3.503491e-02
<VARIANCE> 39
 3.712733e+01 3.028390e+01 3.200137e+01 2.333929e+02 7.950936e+01 9.085839e+01 6.213217e+01 7.369380e+01 5.121709e+01 1.144272e+02 1.082413e+02 6.677730e+01 6.073898e+01 9.992438e-01 2.474534e+00 1.801555e+00 5.545118e+00 4.588099e+00 3.396980e+00 3.142926e+00 3.593112e+00 3.695235e+00 5.471276e+00 3.479359e+00 3.998192e+00 2.316696e+00 2.795769e-01 3.186384e-01 5.402747e-01 8.508812e-01 8.635423e-01 7.151021e-01 3.987504e-01 7.315463e-01 7.926782e-01 5.884160e-01 8.439547e-01 8.047451e-01 2.353863e-01
<GCONST> 1.339547e+02
<STATE> 4
<MEAN> 39
 3.053125e-01 -4.304615e+00 -7.487320e+00 -1.908722e+01 -7.476413e+00 1.520585e+00 -1.119406e+01 -6.535484e+00 -7.687343e+00 4.844550e+00 -4.158011e-01 -1.556594e+00 6.904483e+01 -2.035911e-01 -4.370230e-01 5.119277e-02 2.214145e-01 3.886064e-01 -2.851495e-01 1.844404e-01 1.370369e-01 7.223069e-02 9.488641e-02 -2.990553e-01 -4.488336e-01 1.626393e-01 -1.304050e-01 1.755271e-02 1.057303e-01 1.939034e-01 1.237532e-01 -1.463033e-01 7.890151e-02 1.141348e-01 5.601883e-02 -8.488225e-02 -1.568996e-01 -8.694020e-02 -6.546213e-02
<VARIANCE> 39
 2.249249e+01 3.587615e+01 2.981047e+01 8.776042e+01 7.126519e+01 6.389496e+01 4.695200e+01 6.286359e+01 5.752798e+01 5.553884e+01 1.193211e+02 8.803961e+01 3.790582e+01 5.411722e-01 1.600848e+00 1.096496e+00 1.634647e+00 2.875537e+00 2.340673e+00 1.768455e+00 2.108165e+00 2.522232e+00 2.796376e+00 2.737419e+00 3.559630e+00 9.377575e-01 1.022992e-01 1.781667e-01 1.714683e-01 2.023668e-01 3.077838e-01 3.249151e-01 3.036896e-01 2.912928e-01 2.895513e-01 3.475359e-01 4.219352e-01 4.459889e-01 1.030128e-01
<GCONST> 1.131130e+02
<TRANSP> 5
 0.000000e+00 1.000000e+00 0.000000e+00 0.000000e+00 0.000000e+00
 0.000000e+00 3.736695e-01 6.263305e-01 0.000000e+00 0.000000e+00
 0.000000e+00 0.000000e+00 4.832110e-01 5.167890e-01 0.000000e+00
 0.000000e+00 0.000000e+00 0.000000e+00 7.782319e-01 2.217680e-01
 0.000000e+00 0.000000e+00 0.000000e+00 0.000000e+00 0.000000e+00
<ENDHMM>
~h "y"
<BEGINHMM>
<NUMSTATES> 5
<STATE> 2
<MEAN> 39
 -6.719160e+00 -9.078578e-01 1.161164e+01 -6.603239e+00 -1.736133e+01 -1.065618e+01 -9.470348e+00 2.278888e-01 -1.142372e+01 6.862509e-01 2.351265e+00 -8.343809e-01 6.971164e+01 -6.205974e-03 -3.409714e-01 1.992225e-01 -2.137513e-01 -9.126643e-01 -5.427747e-01 3.515129e-01 5.324686e-01 -1.206332e-01 1.677576e-01 3.795858e-01 3.394489e-01 4.931705e-01 1.172983e-01 -2.115490e-01 -4.366207e-01 4.337173e-02 3.616135e-01 1.181350e-02 1.534554e-01 1.497556e-01 2.895090e-01 -7.775991e-02 -3.512486e-01 -1.204786e-01 -1.862603e-02
<VARIANCE> 39
 1.645466e+01 5.577469e+01 5.462986e+01 4.514284e+01 6.370239e+01 7.180810e+01 7.355856e+01 7.346676e+01 7.900967e+01 7.033920e+01 8.485809e+01 1.023411e+02 5.740753e+01 6.074548e-01 2.400735e+00 3.608592e+00 1.428273e+00 3.209019e+00 2.347559e+00 3.731896e+00 3.567267e+00 3.415025e+00 2.651816e+00 2.858719e+00 2.249776e+00 1.125735e+00 8.462711e-02 2.226478e-01 3.164294e-01 2.778833e-01 5.805002e-01 4.046926e-01 5.341309e-01 5.219650e-01 4.550745e-01 4.766892e-01 4.628207e-01 4.323005e-01 1.045053e-01
<GCONST> 1.213589e+02
<STATE> 3
<MEAN> 39
 -4.960254e+00 -6.068217e+00 4.794415e+00 -8.078898e+00 -1.302628e+01 -1.432109e+01 -2.902719e+00 5.385889e+00 -4.859324e+00 -2.916176e-01 -2.979453e+00 7.008157e-01 7.205450e+01 2.349805e-01 -4.143876e-01 -8.455292e-01 6.219139e-02 1.147558e+00 1.445212e-01 4.230458e-01 2.291473e-01 6.647999e-01 -4.367562e-01 -9.427903e-01 -3.703330e-01 -1.291193e-01 4.348014e-03 1.051336e-01 5.156836e-03 5.107969e-02 2.214513e-01 1.609163e-01 -1.444330e-01 -2.184419e-01 -2.009237e-02 -7.243925e-03 -7.637174e-02 -8.179295e-02 -1.226120e-01
<VARIANCE> 39
 1.413068e+01 3.970583e+01 3.499945e+01 5.267888e+01 1.088046e+02 6.556733e+01 8.429543e+01 8.565024e+01 7.620694e+01 4.246810e+01 1.028722e+02 1.196211e+02 4.882713e+01 3.045877e-01 1.031643e+00 1.566621e+00 8.966718e-01 2.046042e+00 1.437600e+00 1.732059e+00 2.196550e+00 2.122814e+00 1.736544e+00 2.226079e+00 1.660293e+00 3.514006e-01 4.881817e-02 1.163739e-01 1.529846e-01 1.620394e-01 3.208830e-01 2.452635e-01 2.975903e-01 3.568921e-01 2.694615e-01 2.894207e-01 2.997668e-01 2.673846e-01 4.993891e-02
<GCONST> 1.061111e+02
<STATE> 4
<MEAN> 39
 -4.219471e+00 -6.222764e+00 2.325302e+00 -4.353145e+00 -1.057731e+01 -9.431139e+00 -4.811391e+00 2.624531e+00 -3.998898e+00 -2.368248e+00 -3.843420e+00 -2.279876e+00 6.734012e+01 2.236735e-01 -2.069915e-01 -1.030098e+00 1.424755e-01 1.630375e+00 5.574623e-01 -5.345321e-02 -4.092695e-01 5.887490e-01 -1.998134e-01 -1.151026e+00 -4.860218e-01 -3.752221e-01 1.344903e-02 2.299373e-01 1.156591e-01 1.908484e-02 5.056115e-02 1.697669e-01 -2.386794e-01 -3.645151e-01 -5.958992e-02 1.845959e-01 9.256798e-02 -2.555120e-02 -2.251752e-01
<VARIANCE> 39
 4.162962e+01 5.483831e+01 4.831754e+01 6.430813e+01 1.009113e+02 9.066951e+01 7.503871e+01 9.819015e+01 8.298991e+01 5.195002e+01 8.807651e+01 1.106925e+02 1.415233e+02 8.356439e-01 1.846663e+00 3.325382e+00 2.279293e+00 4.391878e+00 2.669712e+00 3.248604e+00 3.319281e+00 3.088160e+00 2.720501e+00 3.289739e+00 2.985124e+00 1.529228e+00 1.120636e-01 3.689219e-01 3.425914e-01 4.410683e-01 5.907879e-01 4.822208e-01 5.996627e-01 8.369064e-01 5.729704e-01 4.367821e-01 4.526559e-01 4.719407e-01 2.147835e-01
<GCONST> 1.286337e+02
<TRANSP> 5
 0.000000e+00 1.000000e+00 0.000000e+00 0.000000e+00 0.000000e+00
 0.000000e+00 7.721440e-01 2.278560e-01 0.000000e+00 0.000000e+00
 0.000000e+00 0.000000e+00 7.626023e-01 2.373976e-01 0.000000e+00
 0.000000e+00 0.000000e+00 0.000000e+00 2.942822e-01 7.057177e-01
 0.000000e+00 0.000000e+00 0.000000e+00 0.000000e+00 0.000000e+00
<ENDHMM>
~h "ex"
<BEGINHMM>
<NUMSTATES> 5
<STATE> 2
<MEAN> 39
 -5.388732e+00 -7.036374e+00 4.614469e+00 -4.843320e+00 -1.331948e+01 -1.182353e+01 -5.070504e+00 3.563409e+00 -6.118719e+00 -7.081187e-01 -5.881948e-01 -2.427928e+00 6.788508e+01 -7.907651e-02 -3.377355e-01 8.905706e-01 -4.983426e-01 -1.370430e+00 -8.203480e-01 6.438915e-01 5.653764e-01 -1.092560e+00 -5.612281e-02 6.134324e-01 5.849228e-02 1.285675e+00 1.246100e-03 3.545569e-01 -1.121219e-01 2.925985e-01 2.245585e-01 2.943476e-01 -2.062171e-02 -4.362014e-01 -3.755930e-02 1.805126e-01 -3.906160e-02 -8.417743e-02 -3.680086e-01
<VARIANCE> 39
 3.692728e+01 5.149603e+01 5.762101e+01 4.617622e+01 7.933501e+01 9.506792e+01 9.511224e+01 8.757693e+01 8.838602e+01 5.395341e+01 5.878074e+01 8.148128e+01 1.207642e+02 1.748321e+00 2.928722e+00 2.468047e+00 2.832627e+00 4.460024e+00 4.893608e+00 5.530408e+00 5.121857e+00 4.073920e+00 3.529109e+00 3.571890e+00 3.389113e+00 3.883230e+00 2.742651e-01 5.144396e-01 3.880993e-01 5.364658e-01 7.972412e-01 8.496529e-01 8.060505e-01 9.634435e-01 7.166718e-01 6.338989e-01 6.409463e-01 5.737195e-01 6.376109e-01
<GCONST> 1.369190e+02
<STATE> 3
<MEAN> 39
 -6.354125e+00 -5.247147e+00 9.435035e+00 -6.150783e+00 -1.855814e+01 -1.413433e+01 -5.126796e+00 2.929699e+00 -1.294753e+01 3.389056e+00 5.965108e-01 -1.895060e-01 7.167158e+01 -1.359114e-02 5.092663e-01 1.584807e-01 5.221114e-01 3.490550e-01 2.318399e-01 3.725325e-01 -5.997833e-01 -4.341865e-02 -4.001443e-02 -1.095599e-01 -5.426366e-02 -8.049439e-01 2.926993e-02 8.527503e-02 -1.586022e-01 1.683056e-01 3.255804e-01 1.588291e-01 -2.494100e-02 -8.907036e-02 2.364328e-01 -6.110193e-02 -1.441089e-01 -7.839587e-03 -2.938512e-01
<VARIANCE> 39
 1.239773e+01 3.852797e+01 5.615385e+01 3.311523e+01 6.683499e+01 6.502771e+01 7.389504e+01 9.114195e+01 6.841433e+01 6.703759e+01 8.624674e+01 1.179930e+02 5.353041e+01 5.146008e-01 1.001207e+00 1.532664e+00 1.371936e+00 2.666943e+00 1.753898e+00 2.401725e+00 2.283197e+00 3.028666e+00 2.136992e+00 1.976588e+00 2.378107e+00 1.468629e+00 9.379070e-02 1.507169e-01 2.591377e-01 2.269331e-01 3.937436e-01 3.538113e-01 4.597135e-01 4.470006e-01 5.175756e-01 3.784743e-01 3.833652e-01 4.450593e-01 1.430202e-01
<GCONST> 1.153401e+02
<STATE> 4
<MEAN> 39
 -1.054779e+01 1.810260e-01 1.164657e+00 1.876607e+00 -7.690495e+00 -4.152205e+00 -4.479597e-01 -2.470042e-01 -3.705714e+00 -1.192902e+00 -7.151209e-01 -1.490919e+00 5.217527e+01 -8.954059e-02 2.091183e-01 -2.381524e-01 3.604250e-01 6.021191e-01 4.009483e-01 4.638384e-02 -5.330671e-02 3.518620e-01 -3.734267e-02 -1.448430e-01 1.022446e-01 -7.587967e-01 -2.118894e-02 -1.591450e-02 -1.703043e-02 -4.259653e-02 -3.009877e-02 -1.216378e-02 -9.209745e-02 4.317266e-02 -5.373678e-03 3.513631e-02 -4.972931e-03 -6.597009e-03 5.876465e-02
<VARIANCE> 39
 4.000884e+01 2.958061e+01 6.287372e+01 2.374865e+01 4.749417e+01 7.405819e+01 5.486665e+01 5.499527e+01 4.584455e+01 4.470555e+01 2.937630e+01 2.827796e+01 2.481577e+02 5.430839e-01 7.969077e-01 1.032385e+00 1.378924e+00 1.890813e+00 2.055669e+00 2.180711e+00 2.237589e+00 2.429502e+00 1.998850e+00 2.057975e+00 2.030013e+00 1.019613e+00 9.932292e-02 1.275887e-01 1.723102e-01 2.186466e-01 2.632499e-01 3.261613e-01 3.799060e-01 3.900107e-01 4.531875e-01 3.852341e-01 3.501048e-01 3.366040e-01 8.376564e-02
<GCONST> 1.092142e+02
<TRANSP> 5
 0.000000e+00 1.000000e+00 0.000000e+00 0.000000e+00 0.000000e+00
 0.000000e+00 6.603887e-01 3.396113e-01 0.000000e+00 0.000000e+00
 0.000000e+00 0.000000e+00 8.069347e-01 1.930653e-01 0.000000e+00
 0.000000e+00 0.000000e+00 0.000000e+00 7.899345e-01 2.100655e-01
 0.000000e+00 0.000000e+00 0.000000e+00 0.000000e+00 0.000000e+00
<ENDHMM>
~h "ng"
<BEGINHMM>
<NUMSTATES> 5
<STATE> 2
<MEAN> 39
 2.794850e-01 -6.131480e-01 2.084109e+00 -1.904208e+00 -7.715018e+00 -2.340121e+00 -7.835003e+00 -6.892729e+00 -4.266181e+00 -1.768652e+00 -6.673061e+00 -6.197700e+00 6.409893e+01 1.391134e-01 4.989953e-01 4.472275e-01 8.581563e-01 6.989293e-02 2.159956e-02 1.575213e-02 -6.899356e-01 -6.738453e-02 1.454730e-01 -4.700299e-01 3.355848e-01 -8.200281e-01 -1.514431e-01 -8.688099e-03 -7.448350e-02 -1.847188e-01 -5.718834e-03 -4.776663e-02 3.577580e-02 2.016340e-01 -8.959945e-02 1.048817e-02 1.310634e-01 -9.043813e-04 9.748428e-02
<VARIANCE> 39
 2.075890e+01 5.170825e+01 3.611736e+01 4.316808e+01 5.164495e+01 5.161745e+01 4.670196e+01 5.634791e+01 6.541271e+01 6.449293e+01 5.974406e+01 4.065833e+01 4.542109e+01 5.143011e-01 8.717976e-01 1.691565e+00 1.846690e+00 2.296862e+00 2.604145e+00 2.511953e+00 3.917363e+00 2.628160e+00 2.209734e+00 2.446121e+00 2.088333e+00 5.899007e-01 7.015727e-02 1.497655e-01 2.230127e-01 2.907526e-01 3.504571e-01 3.683130e-01 4.239495e-01 5.727291e-01 4.419137e-01 3.864600e-01 3.873867e-01 3.981079e-01 1.010796e-01
<GCONST> 1.123211e+02
<STATE> 3
<MEAN> 39
 -8.913077e-01 -9.778274e-01 6.033858e+00 -1.298284e+00 -6.623195e+00 -3.302439e-01 -1.135118e+01 -4.444727e+00 -6.282221e+00 3.466713e+00 -1.510048e+01 -2.479473e-01 6.181735e+01 -1.220725e-01 7.770854e-01 -4.717558e-02 6.459706e-01 -8.309047e-02 1.015227e-01 3.766336e-02 -3.335319e-01 -1.863853e-01 -3.319364e-02 -4.616722e-02 1.983184e-01 -7.311270e-01 -2.537548e-01 -4.851031e-02 -3.453412e-01 -3.339401e-01 2.329143e-01 -9.264517e-02 1.401810e-01 1.813117e-01 -7.026657e-02 -1.904614e-01 4.761858e-01 -1.243602e-01 1.963103e-01
<VARIANCE> 39
 2.253766e+01 4.772565e+01 5.572589e+01 5.428502e+01 1.025690e+02 5.834210e+01 9.613023e+01 7.885386e+01 7.019554e+01 9.985799e+01 1.537429e+02 9.388281e+01 5.933963e+01 5.917720e-01 1.587333e+00 1.982272e+00 2.420032e+00 3.727396e+00 2.566849e+00 3.297438e+00 3.861190e+00 3.077332e+00 2.784036e+00 3.570624e+00 2.903081e+00 9.911873e-01 1.656233e-01 3.037386e-01 4.409201e-01 4.964737e-01 7.121646e-01 6.241366e-01 6.674036e-01 1.006339e+00 7.469634e-01 6.819738e-01 8.269740e-01 6.226074e-01 1.826640e-01
<GCONST> 1.288479e+02
<STATE> 4
<MEAN> 39
 -1.554529e+00 1.210456e+00 2.296438e+00 -7.018417e-03 -5.551754e+00 -1.937001e+00 -7.874302e+00 -7.190803e+00 -5.466328e+00 -2.388924e-01 -8.612677e+00 -4.389342e+00 6.040884e+01 -8.740581e-01 1.480784e-02 -8.913585e-01 -5.991571e-01 1.112378e+00 -5.050595e-02 3.829793e-01 4.630736e-01 -2.579235e-01 -3.368450e-01 8.397303e-01 -1.642915e-01 1.067479e-01 -2.575396e-01 -4.253501e-01 -1.416525e-01 -4.413488e-01 -8.866489e-04 -1.418805e-01 -4.749285e-02 4.399892e-01 -7.121088e-03 -1.725789e-02 2.078631e-01 9.388236e-02 4.595206e-01
<VARIANCE> 39
 3.230944e+01 5.127526e+01 4.985950e+01 4.578143e+01 7.679406e+01 5.662685e+01 6.369515e+01 5.732581e+01 7.143037e+01 7.579956e+01 8.967097e+01 5.888853e+01 8.655902e+01 1.229183e+00 2.962426e+00 3.370516e+00 3.829749e+00 4.935953e+00 4.345839e+00 4.049376e+00 6.403650e+00 4.936934e+00 4.639307e+00 5.667253e+00 3.524944e+00 2.526974e+00 3.317957e-01 4.565336e-01 5.933721e-01 5.110912e-01 8.712944e-01 7.543285e-01 7.371379e-01 1.146646e+00 7.806439e-01 7.593775e-01 8.625433e-01 5.238538e-01 3.013085e-01
<GCONST> 1.360719e+02
<TRANSP> 5
 0.000000e+00 1.000000e+00 0.000000e+00 0.000000e+00 0.000000e+00
 0.000000e+00 6.542181e-01 3.457819e-01 0.000000e+00 0.000000e+00
 0.000000e+00 0.000000e+00 4.541879e-01 5.458121e-01 0.000000e+00
 0.000000e+00 0.000000e+00 0.000000e+00 3.618324e-01 6.381677e-01
 0.000000e+00 0.000000e+00 0.000000e+00 0.000000e+00 0.000000e+00
<ENDHMM>
~h "ny"
<BEGINHMM>
<NUMSTATES> 5
<STATE> 2
<MEAN> 39
 -4.606786e+00 3.559202e+00 8.649805e+00 -5.436562e+00 -7.729406e+00 -8.244572e+00 -1.001934e+01 -2.374222e+00 -9.461754e+00 -9.673012e-01 -3.985396e+00 -1.639765e+00 6.538400e+01 -8.660296e-01 -8.479518e-01 7.141763e-01 -1.200895e+00 -1.156808e+00 4.065869e-01 9.070531e-01 7.423652e-01 -6.979817e-01 -1.786413e-01 9.454411e-01 -2.820903e-01 1.214855e+00 7.191536e-02 -5.619515e-01 -2.379988e-01 1.386982e-01 -2.910657e-01 5.697838e-03 3.086899e-01 2.009933e-01 1.449533e-01 -1.377131e-01 -1.067207e-01 -2.126487e-02 2.238843e-01
<VARIANCE> 39
 1.914559e+01 4.152176e+01 3.690229e+01 5.092313e+01 5.187889e+01 5.770755e+01 7.561758e+01 5.211784e+01 7.381168e+01 6.607427e+01 9.633784e+01 9.478890e+01 4.706827e+01 1.462102e+00 3.716315e+00 2.180854e+00 3.613336e+00 5.513220e+00 3.931631e+00 5.262724e+00 4.419760e+00 3.906187e+00 3.051942e+00 3.256831e+00 3.578397e+00 1.770961e+00 3.480715e-01 3.997408e-01 4.804189e-01 8.405834e-01 9.974453e-01 7.559729e-01 8.206760e-01 7.555014e-01 8.245727e-01 5.825390e-01 7.502835e-01 6.257678e-01 3.080366e-01
<GCONST> 1.328202e+02
<STATE> 3
<MEAN> 39
 -5.597629e+00 -4.444285e+00 7.664510e+00 -5.517663e+00 -1.267542e+01 -7.480953e+00 -2.901997e+00 1.852652e+00 -8.766809e+00 -5.535704e+00 -2.545979e+00 -3.063564e+00 7.071626e+01 1.544008e-01 -1.273473e+00 -9.587976e-01 3.296826e-01 2.237548e-01 -7.342069e-02 5.781806e-01 8.672448e-01 5.422205e-01 -9.536158e-01 -7.697058e-01 8.425871e-02 5.000365e-01 1.018314e-01 2.543327e-01 -2.102929e-01 1.037416e-01 4.874393e-01 -2.760326e-02 -2.919258e-01 -1.562971e-01 1.976918e-01 1.034330e-01 -2.532584e-01 4.535121e-03 -2.750874e-01
<VARIANCE> 39
 1.461701e+01 4.972908e+01 4.500138e+01 3.804039e+01 8.379943e+01 5.098608e+01 9.201168e+01 1.018753e+02 1.010227e+02 7.069454e+01 1.002890e+02 1.114543e+02 5.026433e+01 3.772315e-01 1.516122e+00 1.257955e+00 1.199085e+00 2.425898e+00 1.856505e+00 2.116868e+00 2.477484e+00 1.900015e+00 1.904208e+00 1.795347e+00 2.068750e+00 6.380236e-01 1.026827e-01 1.493372e-01 2.310574e-01 2.241958e-01 4.356692e-01 3.117434e-01 3.760272e-01 3.924899e-01 3.266677e-01 3.487231e-01 3.542009e-01 3.364938e-01 8.187173e-02
<GCONST> 1.126430e+02
<STATE> 4
<MEAN> 39
 -5.695475e+00 -7.173306e+00 4.174356e+00 -4.284910e+00 -7.262467e+00 -6.757551e+00 -4.403832e+00 3.855193e+00 -7.102948e+00 -8.371588e+00 -6.287524e+00 6.685984e-02 6.642552e+01 1.978010e-01 -3.538154e-01 -1.158280e+00 3.562180e-01 8.105869e-01 9.526409e-02 -2.177963e-01 -1.242729e-01 9.908730e-01 6.203881e-02 -5.338492e-01 -5.147661e-01 -5.436711e-01 6.724941e-02 4.438527e-01 3.326147e-02 -3.611146e-03 1.149293e-01 5.790317e-02 -1.788092e-01 -3.989345e-01 -2.760690e-03 3.666915e-01 5.354130e-02 -1.611473e-01 -3.696442e-01
<VARIANCE> 39
 3.215459e+01 4.896888e+01 4.694614e+01 6.485620e+01 1.366767e+02 6.983567e+01 9.590681e+01 1.008029e+02 9.353037e+01 9.557816e+01 9.889896e+01 1.398710e+02 1.361044e+02 7.702501e-01 2.025432e+00 2.393807e+00 3.130578e+00 3.744584e+00 3.128691e+00 4.503989e+00 4.500590e+00 4.339889e+00 4.661326e+00 3.899485e+00 2.923766e+00 1.405851e+00 1.520459e-01 4.010618e-01 3.056064e-01 5.649353e-01 6.814378e-01 5.748861e-01 8.509076e-01 9.813321e-01 7.763071e-01 6.784731e-01 5.664112e-01 5.565146e-01 2.797353e-01
<GCONST> 1.339167e+02
<TRANSP> 5
 0.000000e+00 1.000000e+00 0.000000e+00 0.000000e+00 0.000000e+00
 0.000000e+00 7.235186e-01 2.764814e-01 0.000000e+00 0.000000e+00
 0.000000e+00 0.000000e+00 7.276993e-01 2.723007e-01 0.000000e+00
 0.000000e+00 0.000000e+00 0.000000e+00 3.497365e-01 6.502635e-01
 0.000000e+00 0.000000e+00 0.000000e+00 0.000000e+00 0.000000e+00
<ENDHMM>
~h "sp"
<BEGINHMM>
<NUMSTATES> 3
<STATE> 2
~s "silst"
<TRANSP> 3
 0.000000e+00 1.482153e-01 8.517848e-01
 0.000000e+00 9.124460e-01 8.755396e-02
 0.000000e+00 0.000000e+00 0.000000e+00
<ENDHMM>
~h "sy"
<BEGINHMM>
<NUMSTATES> 5
<STATE> 2
<MEAN> 39
 -1.511380e+01 7.983418e+00 8.247629e+00 -4.908150e+00 -6.566295e+00 -1.029912e+01 -7.053451e+00 -1.820250e+00 -8.327205e+00 -2.556677e+00 3.580369e+00 -3.178894e+00 6.806582e+01 -4.750091e-01 3.189359e-01 7.813142e-01 1.579828e-01 -2.712457e-01 9.777027e-02 3.864156e-01 -4.086453e-02 -4.665067e-01 5.326224e-03 2.333883e-01 2.742003e-02 -2.418258e-01 2.242432e-01 -1.226759e-01 -7.123462e-02 -5.550171e-02 -3.981344e-02 8.347011e-02 -4.517761e-02 -1.646638e-01 1.101079e-01 1.389614e-01 -7.500689e-02 -5.885199e-02 -2.445174e-02
<VARIANCE> 39
 7.968310e+01 4.728607e+01 6.267524e+01 2.206204e+01 1.046560e+02 3.029933e+01 3.571760e+01 8.779205e+01 4.607179e+01 5.941571e+01 3.319086e+01 5.870346e+01 2.821912e+01 6.719774e+00 1.556107e+00 1.808941e+00 8.819340e-01 4.577845e+00 3.342710e+00 2.503610e+00 4.599159e+00 2.794433e+00 1.958851e+00 2.578518e+00 1.650283e+00 4.325653e-01 6.389309e-01 2.022098e-01 2.424026e-01 2.133489e-01 6.346741e-01 6.127977e-01 3.017699e-01 6.954730e-01 4.614086e-01 4.348160e-01 5.960072e-01 3.476773e-01 7.696825e-02
<GCONST> 1.191227e+02
<STATE> 3
<MEAN> 39
 -9.584661e+00 6.714140e+00 7.636479e+00 -2.378660e-01 -4.341679e+00 -6.196115e+00 -4.064684e+00 -3.929911e+00 -5.273096e+00 -2.065021e+00 -1.463923e+00 -5.016119e+00 5.928535e+01 1.065781e-01 -5.538597e-01 -6.769063e-01 9.034005e-01 9.433228e-01 5.417177e-01 3.287519e-01 1.418961e-01 7.683648e-01 -4.346037e-01 -1.205261e+00 6.115824e-01 -1.002609e+00 -1.524612e-03 -1.660804e-01 -5.920960e-02 1.376227e-03 -2.895665e-01 -1.326393e-01 -2.213257e-01 -1.417139e-01 -2.543485e-01 -6.577836e-02 2.653842e-01 -1.364700e-03 6.388015e-02
<VARIANCE> 39
 5.732738e+01 5.912164e+01 4.883900e+01 2.602817e+01 7.389104e+01 3.075635e+01 3.725065e+01 5.660295e+01 2.134686e+01 5.368447e+01 1.510922e+01 4.998306e+01 7.770639e+01 5.586250e-01 2.993220e-01 9.094754e-01 1.134792e+00 4.174881e+00 1.839995e+00 3.331474e+00 1.327600e+00 2.438300e+00 3.306049e+00 1.216584e+00 2.033333e+00 3.110127e-01 3.722047e-01 1.963916e-01 5.822901e-02 2.054079e-01 6.415657e-01 3.041180e-01 5.563791e-01 4.199952e-01 3.146870e-01 5.624449e-01 2.321398e-01 2.852811e-01 2.037274e-02
<GCONST> 1.054832e+02
<STATE> 4
<MEAN> 39
 -1.365711e+01 1.684437e+00 -1.007435e+00 8.889866e-01 -6.711251e+00 -4.410271e+00 -5.601126e+00 -3.158665e+00 -3.510905e+00 -1.239858e+00 -3.337342e+00 9.568422e-01 4.793843e+01 -3.849737e-01 -2.625764e-01 -2.471049e-01 4.871844e-02 -6.172192e-01 2.241840e-01 2.138681e-01 -2.055454e-01 -5.830949e-02 1.667617e-01 4.375749e-01 -2.063876e-01 -7.727203e-01 6.199103e-02 -1.404004e-02 2.101660e-02 -1.340330e-01 -8.712417e-02 -1.760082e-01 2.168382e-02 -3.375006e-02 -2.351834e-01 7.832388e-02 8.906781e-02 -1.337336e-01 1.679872e-01
<VARIANCE> 39
 3.264669e+01 6.033680e+01 5.951855e+01 2.216392e+01 6.273324e+01 3.420008e+01 2.207064e+01 2.176635e+01 2.969282e+01 1.229409e+01 1.600773e+01 1.296571e+01 1.457351e+02 1.136169e+00 5.534250e-01 1.142675e+00 1.044475e+00 1.674425e+00 1.362691e+00 2.013565e+00 2.361120e+00 2.069580e+00 1.407846e+00 8.652505e-01 2.077046e+00 1.051315e+00 3.597424e-01 2.177688e-01 2.183239e-01 2.672884e-01 7.903483e-01 4.185061e-01 4.420953e-01 3.456418e-01 6.060072e-01 3.430803e-01 1.978916e-01 2.878624e-01 6.555925e-02
