~o
<STREAMINFO> 1 39
<VECSIZE> 39<NULLD><MFCC_D_A_0><DIAGC>
~s "silst"
<MEAN> 39
 -8.191908e+00 -1.052266e+00 -2.679739e+00 -4.702188e-02 -6.079740e+00 -1.122252e+00 -6.664593e+00 -2.045431e+00 -3.421268e+00 -2.479367e+00 -1.433417e+00 -2.473200e+00 4.773140e+01 2.002994e-01 -1.073557e-01 2.385775e-02 -1.084069e-01 -4.526098e-02 -2.568834e-01 -1.449364e-01 -6.634484e-02 -1.370146e-01 -4.932943e-03 -5.138899e-02 -3.700010e-02 6.907172e-01 1.928356e-02 -1.029776e-02 3.439602e-02 2.181381e-03 -1.600498e-02 1.408545e-02 5.492284e-03 1.460438e-02 6.113489e-03 7.478957e-03 2.019312e-03 7.208108e-03 -2.961931e-02
<VARIANCE> 39
 1.141497e+02 7.469756e+01 7.402309e+01 5.709844e+01 6.815816e+01 6.636276e+01 5.766214e+01 5.635896e+01 6.088686e+01 4.249799e+01 3.894249e+01 3.308942e+01 1.866579e+02 5.418919e+00 4.408231e+00 3.644565e+00 4.022822e+00 4.266168e+00 4.338248e+00 4.367949e+00 4.428883e+00 4.375891e+00 3.309262e+00 3.060837e+00 2.335165e+00 7.500941e+00 7.275970e-01 7.193030e-01 5.864624e-01 7.235934e-01 7.533354e-01 7.657674e-01 7.931862e-01 8.109428e-01 7.900894e-01 6.144246e-01 5.740765e-01 4.387515e-01 9.950922e-01
<GCONST> 1.396211e+02
~h "a"
<BEGINHMM>
<NUMSTATES> 5
<STATE> 2
<MEAN> 39
 -2.736330e+00 -7.934246e+00 -2.747412e+00 -9.446422e+00 -6.967563e+00 -7.449716e+00 -8.332911e+00 1.896673e+00 -1.433239e+00 7.696329e-01 -4.535440e+00 -6.574568e+00 7.074619e+01 2.089935e-01 -8.787583e-01 -4.518835e-01 -4.867578e-01 3.595167e-01 3.974473e-02 4.838148e-01 5.482110e-01 5.308301e-01 -4.080697e-01 -6.479003e-01 -7.986402e-01 7.805727e-01 -1.601972e-01 5.195549e-01 2.165604e-01 5.170236e-01 2.233862e-01 1.204474e-01 4.408627e-02 -3.822729e-01 -2.312515e-01 -4.874867e-02 3.823622e-02 3.180320e-01 -6.402096e-01
<VARIANCE> 39
 3.169634e+01 4.380856e+01 4.981683e+01 5.196924e+01 9.561080e+01 8.183066e+01 7.664215e+01 1.090460e+02 9.593198e+01 5.946832e+01 7.962654e+01 1.150132e+02 1.019839e+02 1.266868e+00 1.800893e+00 2.215917e+00 2.422581e+00 3.447406e+00 3.747200e+00 3.441104e+00 4.357479e+00 2.982243e+00 3.278492e+00 3.190993e+00 3.136699e+00 1.832022e+00 2.592283e-01 3.295742e-01 3.854067e-01 4.648242e-01 7.068468e-01 6.324465e-01 6.908194e-01 8.376355e-01 6.150720e-01 6.578248e-01 6.248869e-01 7.119745e-01 3.251978e-01
<GCONST> 1.317553e+02
<STATE> 3
<MEAN> 39
 -2.632380e+00 -8.554080e+00 -3.154151e+00 -1.023967e+01 -3.858047e+00 -7.740043e+00 -6.490253e+00 1.830730e+00 -1.166357e+00 -3.824076e-01 -6.734810e+00 -5.827308e+00 7.193703e+01 1.718653e-01 4.671102e-01 1.916942e-01 3.777563e-01 3.475324e-01 1.353810e-01 5.709859e-02 -4.135097e-01 -5.941608e-02 -2.343718e-02 -1.747259e-01 2.264388e-01 -6.920876e-01 3.268142e-02 3.369814e-01 1.469625e-01 2.711419e-01 -1.293319e-02 7.468332e-02 -1.375799e-01 -2.195157e-01 -1.143596e-01 9.245090e-02 4.605341e-02 1.737674e-01 -3.954791e-01
<VARIANCE> 39
 2.141020e+01 4.431117e+01 3.783432e+01 5.010403e+01 9.603604e+01 8.057411e+01 8.079930e+01 1.026403e+02 9.160344e+01 5.801369e+01 7.854623e+01 1.218505e+02 6.267036e+01 5.285352e-01 1.026464e+00 1.281824e+00 1.444832e+00 2.091545e+00 2.067329e+00 2.176415e+00 2.579422e+00 2.022093e+00 2.288195e+00 2.031455e+00 2.222115e+00 1.003797e+00 1.062954e-01 1.710409e-01 2.174946e-01 2.730190e-01 3.678170e-01 3.990589e-01 4.599797e-01 5.248237e-01 4.005170e-01 4.237827e-01 4.045287e-01 4.145558e-01 1.354539e-01
<GCONST> 1.164468e+02
<STATE> 4
<MEAN> 39
 -3.384825e+00 -3.424728e+00 -2.681834e+00 -3.497272e+00 -3.220022e+00 -3.168953e+00 -5.311776e+00 -9.793231e-01 -1.066814e+00 -1.167313e+00 -5.297254e+00 -4.181097e+00 6.080906e+01 -1.189741e-01 9.250966e-01 2.324113e-01 1.008590e+00 3.497388e-01 4.610178e-01 7.717911e-02 -4.356028e-01 -9.780506e-02 2.254925e-02 -7.108154e-02 3.706411e-01 -1.539360e+00 -1.268993e-01 -2.914547e-03 1.549686e-02 -7.016806e-03 -8.204815e-02 -2.975164e-02 1.074726e-02 8.066612e-02 -5.508558e-02 -4.264131e-03 5.018778e-02 -2.544794e-02 4.984890e-02
<VARIANCE> 39
 4.566216e+01 4.633434e+01 4.299576e+01 6.103207e+01 7.637399e+01 8.166482e+01 5.881421e+01 6.869230e+01 7.155081e+01 5.234829e+01 6.227679e+01 5.591273e+01 1.243016e+02 9.130862e-01 1.558578e+00 1.631605e+00 2.460874e+00 2.545089e+00 2.867170e+00 3.393306e+00 3.988648e+00 3.107901e+00 2.805427e+00 2.854774e+00 2.968258e+00 1.456809e+00 1.381489e-01 2.034665e-01 2.500270e-01 3.731345e-01 3.874048e-01 4.748098e-01 4.803464e-01 5.480900e-01 5.097286e-01 4.782569e-01 4.869676e-01 4.360244e-01 1.582138e-01
<GCONST> 1.226937e+02
<TRANSP> 5
 0.000000e+00 1.000000e+00 0.000000e+00 0.000000e+00 0.000000e+00
 0.000000e+00 4.756244e-01 5.243756e-01 0.000000e+00 0.000000e+00
 0.000000e+00 0.000000e+00 7.011000e-01 2.989000e-01 0.000000e+00
 0.000000e+00 0.000000e+00 0.000000e+00 6.179478e-01 3.820522e-01
 0.000000e+00 0.000000e+00 0.000000e+00 0.000000e+00 0.000000e+00
<ENDHMM>
~h "b"
<BEGINHMM>
<NUMSTATES> 5
<STATE> 2
<MEAN> 39
 3.462903e-03 4.533094e+00 1.106277e+00 4.334719e-01 -4.593152e+00 -2.594797e+00 -7.456274e+00 -6.973261e+00 -5.441231e+00 -1.670898e+00 -3.288409e+00 -4.563324e+00 5.742151e+01 -1.065898e-01 7.081214e-01 1.464823e-01 6.168798e-01 5.087145e-01 1.849688e-01 4.440537e-01 8.492144e-02 -2.695346e-01 -5.164656e-01 -3.036515e-02 1.447163e-02 -5.483966e-01 -1.102259e-01 -3.697467e-01 -1.705816e-01 -5.404863e-01 -4.423255e-01 -2.904178e-01 -3.703785e-01 1.368591e-01 1.162779e-02 2.322233e-01 3.779482e-01 1.271963e-01 6.868129e-01
<VARIANCE> 39
 4.201215e+01 3.231298e+01 3.563614e+01 3.553981e+01 3.428895e+01 3.589547e+01 3.451308e+01 4.038976e+01 4.279026e+01 3.418185e+01 3.901451e+01 2.767853e+01 6.803790e+01 1.326423e+00 1.296672e+00 1.943865e+00 2.814407e+00 2.678165e+00 3.035968e+00 2.930914e+00 3.228563e+00 2.631265e+00 2.960911e+00 3.326198e+00 2.165422e+00 1.708793e+00 2.384775e-01 3.063754e-01 4.176042e-01 4.823472e-01 5.218081e-01 6.253801e-01 7.949677e-01 7.442033e-01 7.072551e-01 6.066371e-01 5.906982e-01 6.328788e-01 2.483451e-01
<GCONST> 1.209440e+02
<STATE> 3
<MEAN> 39
 -1.108751e+00 5.013029e+00 1.288927e+00 1.107053e+00 -4.463933e+00 -2.029716e+00 -7.732744e+00 -7.293328e+00 -7.668385e+00 -2.556543e+00 -2.879644e+00 -3.018385e+00 5.475804e+01 -1.035287e-01 -7.326157e-01 -1.063640e+00 -1.232812e+00 -5.816084e-01 -6.154217e-01 -1.055156e+00 3.243024e-01 -5.335774e-02 6.712558e-01 1.282106e+00 7.480775e-01 1.722275e+00 -8.685771e-03 -6.823216e-01 -1.377233e-01 -9.556168e-01 -5.265670e-01 -1.776706e-01 -6.273396e-01 4.199916e-01 1.016036e-01 7.019465e-01 6.955589e-02 8.944736e-02 9.321497e-01
<VARIANCE> 39
 4.334284e+01 3.253758e+01 4.506096e+01 5.100620e+01 3.609404e+01 4.342976e+01 4.338560e+01 4.755471e+01 5.333702e+01 4.805283e+01 4.310464e+01 3.569411e+01 8.175624e+01 2.641453e+00 3.500853e+00 5.760689e+00 7.598896e+00 5.168853e+00 6.123850e+00 6.175139e+00 5.811409e+00 5.960522e+00 7.998407e+00 5.865198e+00 4.933972e+00 3.428768e+00 4.050068e-01 5.573907e-01 8.342623e-01 9.293103e-01 8.719433e-01 1.014325e+00 1.010039e+00 1.207471e+00 1.238741e+00 1.377359e+00 1.138068e+00 9.985700e-01 4.013691e-01
<GCONST> 1.408318e+02
<STATE> 4
<MEAN> 39
 -1.571662e+00 4.489064e-01 -2.392006e+00 -4.463291e+00 -6.789635e+00 -3.875961e+00 -1.126452e+01 -5.752603e+00 -6.559223e+00 1.791944e+00 6.834379e-01 -2.095071e+00 6.105630e+01 1.349920e-01 -1.655940e+00 -5.436660e-01 -2.468850e+00 -1.591702e+00 -6.038263e-01 -1.542952e+00 1.131204e+00 3.378202e-01 1.462885e+00 6.153426e-01 -3.990573e-02 2.705589e+00 -1.485153e-02 1.117175e-02 4.357204e-01 9.004135e-02 -1.828410e-01 6.493258e-02 1.177082e-01 2.625063e-01 1.033428e-01 -1.828995e-01 -4.520209e-01 -2.118840e-01 -6.267836e-02
<VARIANCE> 39
 5.261155e+01 4.237705e+01 4.984959e+01 8.552072e+01 4.871026e+01 6.136126e+01 5.927832e+01 5.224270e+01 6.612459e+01 7.326855e+01 5.168663e+01 5.066472e+01 1.071354e+02 3.627475e+00 4.580219e+00 6.396901e+00 6.304171e+00 5.817689e+00 6.925453e+00 7.125937e+00 8.279970e+00 8.791155e+00 8.275667e+00 6.650339e+00 5.466174e+00 3.219978e+00 5.044081e-01 5.524682e-01 7.231838e-01 1.169988e+00 8.906056e-01 9.201030e-01 9.962141e-01 9.397960e-01 8.545734e-01 1.296302e+00 1.055223e+00 7.031841e-01 4.600124e-01
<GCONST> 1.454639e+02
<TRANSP> 5
 0.000000e+00 1.000000e+00 0.000000e+00 0.000000e+00 0.000000e+00
 0.000000e+00 5.695542e-01 4.304458e-01 0.000000e+00 0.000000e+00
 0.000000e+00 0.000000e+00 3.316562e-01 6.683437e-01 0.000000e+00
 0.000000e+00 0.000000e+00 0.000000e+00 2.955211e-01 7.044789e-01
 0.000000e+00 0.000000e+00 0.000000e+00 0.000000e+00 0.000000e+00
<ENDHMM>
~h "c"
<BEGINHMM>
<NUMSTATES> 5
<STATE> 2
<MEAN> 39
 -8.260071e+00 3.265650e+00 9.969901e-01 -6.766061e-01 -2.876821e+00 -7.280083e+00 -5.417418e+00 -9.534875e-01 -1.874430e+00 -1.143646e+00 -3.428441e+00 -8.905556e-01 5.707336e+01 -2.203229e+00 7.632712e-01 -5.951103e-01 -3.665925e-01 7.847852e-01 5.358253e-01 4.745189e-01 7.987170e-02 -2.759753e-03 1.330247e-01 7.895695e-01 -5.538888e-02 1.374831e-01 -6.147133e-01 -2.622507e-02 5.053579e-02 -5.099155e-01 -2.038445e-01 -1.401256e-01 -6.189949e-02 3.314412e-02 -1.875784e-01 1.997795e-02 1.855762e-01 1.778335e-01 8.845078e-01
<VARIANCE> 39
 3.761223e+01 3.609431e+01 4.044604e+01 3.462571e+01 3.561461e+01 6.912742e+01 4.792080e+01 4.497426e+01 5.905960e+01 3.754597e+01 5.366114e+01 3.677619e+01 7.506609e+01 6.203850e+00 3.568343e+00 2.770913e+00 4.497619e+00 3.335770e+00 5.133177e+00 4.647262e+00 4.583478e+00 4.928501e+00 4.838129e+00 3.724508e+00 3.408525e+00 6.081815e+00 8.844771e-01 6.303451e-01 5.297084e-01 6.058764e-01 5.892245e-01 8.733242e-01 7.881746e-01 8.126131e-01 8.917933e-01 9.124505e-01 7.251546e-01 7.240143e-01 5.996159e-01
<GCONST> 1.360742e+02
<STATE> 3
<MEAN> 39
 -2.307488e+01 5.909285e+00 1.281633e-01 -6.727083e+00 -1.357911e+00 -6.023419e+00 -3.779499e+00 -3.997871e-01 -4.890893e+00 -5.944160e-01 4.185245e-01 5.922942e-01 6.467166e+01 -1.277952e+00 -8.760427e-02 8.150899e-01 -7.885078e-01 -9.554146e-01 -6.384649e-01 3.242787e-02 3.547088e-01 -4.878563e-01 -2.141578e-01 3.650942e-01 6.510272e-01 1.721676e+00 1.939373e+00 -6.412340e-01 3.495762e-01 4.966226e-01 -7.961313e-01 -5.379813e-01 -4.124654e-01 -1.023979e-01 1.034900e-01 -2.004213e-01 -3.933043e-01 -1.462717e-01 -2.842025e-01
<VARIANCE> 39
 4.875344e+01 5.134396e+01 4.072342e+01 3.924604e+01 3.590748e+01 4.101647e+01 7.186606e+01 5.582310e+01 8.198668e+01 6.815092e+01 4.970526e+01 4.167902e+01 6.049593e+01 1.128194e+01 3.296935e+00 3.434798e+00 3.602097e+00 3.987833e+00 4.493986e+00 4.497426e+00 4.895187e+00 3.536143e+00 4.183422e+00 3.161701e+00 3.298734e+00 3.460904e+00 1.044642e+00 7.409866e-01 6.239026e-01 6.891708e-01 7.982061e-01 1.007430e+00 1.177289e+00 1.144936e+00 9.118916e-01 1.149329e+00 7.336549e-01 7.316966e-01 4.382007e-01
<GCONST> 1.388080e+02
<STATE> 4
<MEAN> 39
 -1.268553e+01 1.015056e+00 2.613518e+00 -5.306139e+00 -8.560791e+00 -1.231195e+01 -7.173825e+00 3.445920e-01 -3.777719e+00 -3.631288e+00 -1.573724e+00 1.055179e+00 6.734781e+01 4.270345e+00 -1.961872e+00 2.146751e-01 -8.576183e-02 -1.948818e+00 -1.553156e+00 -9.331058e-01 -2.002107e-01 3.171983e-01 -2.217476e-01 -7.476462e-01 -6.331763e-01 1.487566e+00 5.671620e-02 -6.164694e-02 -3.694699e-01 -1.088568e-01 4.853358e-01 5.119125e-01 1.717633e-01 -1.250498e-01 -1.065703e-02 2.804294e-01 2.968487e-03 -3.193775e-01 -1.561147e-01
<VARIANCE> 39
 7.544331e+01 4.570061e+01 4.097191e+01 2.710549e+01 4.607654e+01 5.782554e+01 6.543126e+01 6.223470e+01 5.713443e+01 4.534015e+01 3.826036e+01 6.759233e+01 6.554999e+01 3.428686e+00 3.681946e+00 3.824910e+00 2.887012e+00 6.168104e+00 6.022028e+00 7.176123e+00 6.707895e+00 4.026359e+00 5.090473e+00 3.242103e+00 4.441353e+00 1.820386e+00 1.663060e+00 5.138378e-01 4.089765e-01 4.162596e-01 8.647953e-01 8.696982e-01 8.844518e-01 8.452832e-01 5.058335e-01 6.371089e-01 5.553403e-01 6.091800e-01 3.117966e-01
<GCONST> 1.357629e+02
<TRANSP> 5
 0.000000e+00 1.000000e+00 0.000000e+00 0.000000e+00 0.000000e+00
 0.000000e+00 7.190259e-01 2.809741e-01 0.000000e+00 0.000000e+00
 0.000000e+00 0.000000e+00 6.552935e-01 3.447065e-01 0.000000e+00
 0.000000e+00 0.000000e+00 0.000000e+00 5.908595e-01 4.091405e-01
 0.000000e+00 0.000000e+00 0.000000e+00 0.000000e+00 0.000000e+00
<ENDHMM>
~h "d"
<BEGINHMM>
<NUMSTATES> 5
<STATE> 2
<MEAN> 39
 -7.206472e-01 3.583121e+00 4.125759e+00 2.031617e+00 -5.427786e+00 -5.918471e+00 -8.037368e+00 -2.835365e+00 -3.345614e+00 -3.331759e+00 -6.403913e+00 -3.538204e+00 5.728233e+01 -5.129558e-01 -9.762546e-02 9.755936e-01 -2.179370e-01 -9.216110e-02 -1.319296e-01 -2.790600e-02 3.275841e-01 -5.334700e-01 -4.343579e-01 4.839433e-01 2.177382e-01 5.013682e-01 -3.727286e-01 -7.388849e-01 1.688919e-01 -8.243763e-01 -8.933080e-01 -4.918642e-01 -4.010100e-01 2.994507e-01 -1.622723e-01 3.224823e-01 6.261786e-01 2.747502e-01 1.156410e+00
<VARIANCE> 39
 3.627492e+01 4.305288e+01 4.087199e+01 3.812713e+01 3.658086e+01 4.508564e+01 3.790159e+01 4.910358e+01 4.515565e+01 3.369324e+01 5.210425e+01 3.346324e+01 7.748888e+01 2.531779e+00 4.287164e+00 3.339760e+00 5.274448e+00 4.695351e+00 5.447333e+00 4.448274e+00 5.380790e+00 4.021903e+00 3.486851e+00 4.822792e+00 3.553776e+00 4.746531e+00 3.572500e-01 5.488092e-01 5.849524e-01 6.360022e-01 8.520314e-01 9.358145e-01 9.327143e-01 1.165377e+00 1.083592e+00 7.302065e-01 8.606173e-01 8.496118e-01 3.568694e-01
<GCONST> 1.348315e+02
<STATE> 3
<MEAN> 39
 -4.723291e+00 -1.472019e+00 7.253609e+00 -2.401948e+00 -7.418030e+00 -7.593009e+00 -1.101255e+01 -1.215380e-01 -5.456674e+00 -3.455194e+00 -3.886307e+00 3.028533e-01 6.187233e+01 -9.562077e-01 -1.736324e+00 9.290087e-01 -2.003686e+00 -2.365366e+00 -1.718603e+00 -1.210920e+00 1.424015e+00 -8.680703e-01 8.038497e-01 1.607096e+00 1.075443e+00 3.078339e+00 1.721130e-01 1.701279e-02 -2.936246e-01 -9.230536e-02 -5.345840e-01 -9.828267e-02 -3.587843e-02 5.510504e-02 -1.290929e-02 4.587250e-01 -1.587628e-02 -2.510491e-01 2.931173e-01
<VARIANCE> 39
 3.281920e+01 3.808680e+01 6.449553e+01 5.270498e+01 4.954525e+01 7.524812e+01 8.114754e+01 5.790281e+01 6.447704e+01 4.420223e+01 6.411817e+01 6.355799e+01 1.089371e+02 2.435484e+00 4.255159e+00 6.328854e+00 5.000237e+00 6.138615e+00 5.748233e+00 6.130838e+00 1.052880e+01 7.903222e+00 5.846711e+00 6.403549e+00 6.040646e+00 3.755774e+00 3.059835e-01 5.153224e-01 7.002661e-01 8.740046e-01 1.225662e+00 1.394578e+00 1.240613e+00 1.038147e+00 9.939270e-01 1.124268e+00 1.154381e+00 9.492797e-01 4.889578e-01
<GCONST> 1.448503e+02
<STATE> 4
<MEAN> 39
 -2.994112e+00 -5.009484e+00 8.933995e+00 -4.480810e+00 -1.510123e+01 -9.004123e+00 -1.386464e+01 1.440863e+00 -7.145501e+00 -1.301304e+00 1.256322e+00 -1.988690e+00 6.601789e+01 -1.174083e-01 -6.607802e-01 1.351261e-01 -8.452402e-01 -1.870020e+00 -7.160560e-01 -4.382910e-01 6.371450e-01 -1.918380e-01 6.291939e-01 8.320993e-01 -1.726117e-01 1.732448e+00 1.898510e-01 4.282800e-01 -3.505102e-01 4.142800e-01 3.904208e-01 4.019839e-01 2.898273e-01 -2.858820e-01 1.665739e-01 -4.165613e-02 -3.824109e-01 -2.875700e-01 -5.223239e-01
<VARIANCE> 39
 4.685270e+01 5.433051e+01 1.272657e+02 6.029351e+01 8.802112e+01 9.153329e+01 8.396412e+01 9.076525e+01 9.647056e+01 4.603784e+01 7.541893e+01 6.504922e+01 1.051508e+02 2.603374e+00 3.530317e+00 6.962646e+00 4.345991e+00 8.258577e+00 6.405174e+00 6.215060e+00 6.895754e+00 7.437527e+00 4.479184e+00 5.120001e+00 3.534073e+00 3.577219e+00 3.729963e-01 6.399267e-01 8.391756e-01 8.645309e-01 1.225876e+00 1.019886e+00 1.104973e+00 1.113764e+00 8.806667e-01 7.564710e-01 7.897204e-01 7.332038e-01 5.436145e-01
<GCONST> 1.460958e+02
<TRANSP> 5
 0.000000e+00 1.000000e+00 0.000000e+00 0.000000e+00 0.000000e+00
 0.000000e+00 5.467406e-01 4.532594e-01 0.000000e+00 0.000000e+00
 0.000000e+00 0.000000e+00 2.267061e-01 7.732939e-01 0.000000e+00
 0.000000e+00 0.000000e+00 0.000000e+00 4.111236e-01 5.888764e-01
 0.000000e+00 0.000000e+00 0.000000e+00 0.000000e+00 0.000000e+00
<ENDHMM>
~h "e"
<BEGINHMM>
<NUMSTATES> 5
<STATE> 2
<MEAN> 39
 -5.267951e+00 -1.577239e+00 -2.480041e+00 -4.919843e+00 -5.939498e+00 -7.077583e+00 -1.078776e+01 -3.062195e+00 -3.134893e+00 9.675516e-01 -1.957549e+00 -3.065027e+00 6.287731e+01 1.789612e+00 -1.101216e+00 2.947525e-01 -1.498057e+00 -1.147916e+00 -4.898762e-01 -1.236637e+00 -2.336786e-01 2.846948e-01 8.499642e-01 -8.861592e-02 -6.446850e-01 1.897535e+00 -3.617637e-02 2.144018e-01 3.080177e-01 4.125816e-01 1.254316e-01 2.749005e-01 1.908190e-01 -3.660519e-02 -7.700060e-02 -7.572893e-02 -2.402956e-01 4.388429e-02 -4.345492e-01
<VARIANCE> 39
 7.034357e+01 4.814937e+01 4.532511e+01 6.326430e+01 6.682590e+01 7.800237e+01 6.997638e+01 7.683007e+01 8.578006e+01 6.152924e+01 5.769625e+01 5.996262e+01 1.386154e+02 5.201373e+00 4.237360e+00 4.414260e+00 5.310677e+00 6.371949e+00 6.457385e+00 7.142023e+00 8.723477e+00 5.718047e+00 6.562683e+00 4.816727e+00 4.606467e+00 4.650219e+00 6.196564e-01 5.466323e-01 6.211498e-01 9.341356e-01 9.175347e-01 1.055305e+00 9.611379e-01 1.131847e+00 8.881586e-01 9.266881e-01 8.043261e-01 6.803893e-01 7.872101e-01
<GCONST> 1.463129e+02
<STATE> 3
<MEAN> 39
 -2.347484e+00 -3.227156e+00 -1.112684e+00 -7.839960e+00 -6.294035e+00 -7.636443e+00 -1.348176e+01 -2.815779e+00 -2.733413e+00 3.593369e+00 -3.926444e+00 -2.631433e+00 6.671949e+01 9.973122e-01 -4.112331e-01 6.497366e-01 -2.786555e-01 -5.999166e-01 1.698131e-01 -5.081079e-01 -1.083842e-01 1.589416e-01 3.818373e-01 -4.672591e-01 -4.657348e-01 3.846593e-01 -4.656383e-01 5.277106e-01 1.598884e-01 8.706999e-01 3.632941e-01 2.664866e-01 4.981584e-01 -5.775023e-02 -1.713976e-01 -4.355646e-01 -1.283274e-01 1.958829e-01 -8.753504e-01
<VARIANCE> 39
 4.430144e+01 5.100515e+01 4.508353e+01 6.506757e+01 8.721721e+01 9.018726e+01 8.138544e+01 9.995005e+01 1.067757e+02 8.433199e+01 9.454434e+01 9.927180e+01 1.046308e+02 2.880679e+00 3.376994e+00 2.806486e+00 4.510990e+00 4.531198e+00 4.953353e+00 4.441176e+00 6.465401e+00 4.516092e+00 5.620773e+00 4.948246e+00 4.331151e+00 3.754115e+00 4.896793e-01 5.608125e-01 6.431170e-01 8.859391e-01 1.096411e+00 1.140167e+00 1.272946e+00 1.621148e+00 1.122834e+00 1.252184e+00 1.012274e+00 1.094380e+00 5.412310e-01
<GCONST> 1.460869e+02
<STATE> 4
<MEAN> 39
 6.410259e-01 -4.977089e+00 7.774140e-01 -5.501794e+00 -1.004689e+01 -4.019481e+00 -1.288265e+01 -2.601038e+00 -2.932875e+00 8.907439e-01 -1.347716e+00 -5.359884e+00 6.461909e+01 9.122340e-02 6.249821e-01 3.796863e-01 8.903422e-01 3.817324e-01 2.193285e-01 3.333556e-01 -2.598804e-01 -1.901339e-01 -2.186755e-01 -3.952680e-01 1.855780e-01 -8.010051e-01 -3.286382e-01 3.444935e-01 -6.907010e-02 3.747034e-01 3.193778e-01 3.381002e-02 3.145536e-01 -8.218645e-02 -1.235438e-01 -1.109733e-01 -6.920493e-02 1.954367e-01 -4.106024e-01
<VARIANCE> 39
 5.513317e+01 8.755182e+01 7.486700e+01 6.809368e+01 7.757664e+01 1.059110e+02 6.884983e+01 9.757994e+01 8.235059e+01 5.476971e+01 6.782442e+01 5.526580e+01 9.516904e+01 2.045747e+00 4.547173e+00 3.117280e+00 4.781463e+00 3.943375e+00 4.255224e+00 4.275108e+00 5.517741e+00 4.137573e+00 3.703707e+00 3.816139e+00 2.889476e+00 3.376074e+00 4.614938e-01 8.870181e-01 6.095701e-01 8.591734e-01 8.997225e-01 8.308234e-01 9.665856e-01 1.276634e+00 8.455541e-01 7.043459e-01 6.946256e-01 6.241436e-01 5.799934e-01
<GCONST> 1.414611e+02
<TRANSP> 5
 0.000000e+00 1.000000e+00 0.000000e+00 0.000000e+00 0.000000e+00
 0.000000e+00 1.561974e-01 8.438026e-01 0.000000e+00 0.000000e+00
 0.000000e+00 0.000000e+00 2.314835e-01 7.685165e-01 0.000000e+00
 0.000000e+00 0.000000e+00 0.000000e+00 4.744561e-01 5.255438e-01
 0.000000e+00 0.000000e+00 0.000000e+00 0.000000e+00 0.000000e+00
<ENDHMM>
~h "f"
<BEGINHMM>
<NUMSTATES> 5
<STATE> 2
<MEAN> 39
 -9.687241e+00 5.487092e-01 -1.540593e+00 -2.883893e-01 -2.676557e+00 -1.608959e+00 -2.287055e+00 1.079576e+00 -2.740710e+00 -3.584255e-01 -1.415757e+00 -1.577736e+00 6.013582e+01 -7.481246e-01 -2.572333e-02 -1.985000e-01 2.997991e-01 6.935211e-02 2.027848e-01 3.304773e-01 3.012905e-01 1.835710e-01 1.860974e-01 3.334106e-01 3.483829e-01 -4.964785e-01 1.185330e-01 -1.580071e-01 7.410371e-02 -7.792620e-02 -8.988677e-02 -8.253919e-02 -8.194844e-02 6.677046e-03 -6.516699e-02 3.337796e-02 2.964545e-02 -6.214063e-03 6.526417e-02
<VARIANCE> 39
 4.744447e+01 2.453362e+01 2.631064e+01 4.090393e+01 3.729470e+01 2.668508e+01 4.164410e+01 2.949123e+01 4.551514e+01 3.173393e+01 3.515879e+01 2.922622e+01 7.872358e+01 2.780487e+00 1.434250e+00 1.345128e+00 2.235137e+00 1.969468e+00 1.911811e+00 2.598680e+00 2.103237e+00 2.818827e+00 2.645201e+00 2.167681e+00 2.013736e+00 8.297482e-01 3.392436e-01 2.394083e-01 2.389541e-01 3.430006e-01 3.240827e-01 3.384559e-01 4.605146e-01 3.734516e-01 5.059877e-01 4.331533e-01 4.296512e-01 3.407825e-01 1.328957e-01
<GCONST> 1.126750e+02
<STATE> 3
<MEAN> 39
 -1.566531e+01 -2.768605e+00 -2.552074e+00 1.824919e+00 -2.495973e+00 -2.731089e+00 -2.668731e+00 3.355205e+00 -1.468012e+00 1.140206e+00 -3.696744e-01 -1.298351e+00 5.784380e+01 2.098478e-02 -8.449242e-02 8.492741e-02 3.460181e-01 -5.502050e-02 -7.442611e-02 -5.052038e-02 -1.571873e-01 2.558781e-01 -8.829930e-02 -2.635976e-01 1.089538e-01 -6.947868e-01 5.826921e-01 1.444201e-01 2.038881e-01 -1.219525e-01 -2.459635e-01 -3.349307e-01 -2.163439e-01 -2.523287e-01 -2.259436e-01 -2.145680e-01 -1.482227e-01 -1.627709e-01 1.336484e-01
<VARIANCE> 39
 3.415995e+01 2.635117e+01 3.617878e+01 3.440659e+01 4.151530e+01 3.948233e+01 3.701826e+01 3.151345e+01 7.342741e+01 5.283413e+01 4.993375e+01 2.863597e+01 1.065262e+02 2.926777e+00 2.228829e+00 1.648955e+00 2.224695e+00 2.111882e+00 2.675777e+00 2.881016e+00 2.662925e+00 3.322767e+00 3.406065e+00 3.115256e+00 2.120842e+00 1.725877e+00 5.356208e-01 4.694909e-01 3.657190e-01 4.700663e-01 4.566618e-01 5.846109e-01 7.184116e-01 5.775439e-01 6.523556e-01 6.372734e-01 5.610237e-01 5.009287e-01 2.914029e-01
<GCONST> 1.233506e+02
<STATE> 4
<MEAN> 39
 -1.602670e+01 -5.500998e-02 -5.471621e+00 2.479116e+00 -4.676255e+00 -5.776668e-01 -4.901287e+00 -1.316721e+00 -3.549899e+00 -1.939661e+00 -3.234221e+00 -1.647896e+00 3.881799e+01 2.644539e-01 3.930738e-02 8.510130e-02 -2.631165e-02 -1.858737e-01 -2.493159e-01 -1.170312e-01 -1.419866e-01 -1.550638e-01 -1.673107e-01 -1.161611e-02 -6.718527e-02 -4.241375e-02 1.504175e-01 5.747937e-05 6.973303e-02 -9.920810e-02 -1.146696e-01 -1.127719e-01 -1.382969e-02 -1.663154e-02 -1.093031e-01 -5.477552e-03 5.354339e-02 -9.325950e-03 1.692220e-01
<VARIANCE> 39
 1.442031e+01 1.513849e+01 2.188506e+01 1.649947e+01 1.611704e+01 2.135522e+01 1.888701e+01 1.974267e+01 2.929173e+01 2.125367e+01 2.138149e+01 1.175912e+01 1.104452e+02 1.571002e+00 8.656083e-01 1.006875e+00 1.236250e+00 1.477272e+00 1.569304e+00 1.869305e+00 2.042820e+00 1.850389e+00 1.703774e+00 1.648285e+00 1.400711e+00 6.748496e-01 2.696492e-01 1.632645e-01 2.097145e-01 3.064940e-01 4.241824e-01 3.425805e-01 3.550173e-01 3.058605e-01 4.575184e-01 4.243072e-01 3.414313e-01 2.616391e-01 1.601761e-01
<GCONST> 9.977614e+01
<TRANSP> 5
 0.000000e+00 1.000000e+00 0.000000e+00 0.000000e+00 0.000000e+00
 0.000000e+00 7.648559e-01 2.351441e-01 0.000000e+00 0.000000e+00
 0.000000e+00 0.000000e+00 6.164131e-01 3.835869e-01 0.000000e+00
 0.000000e+00 0.000000e+00 0.000000e+00 7.913543e-01 2.086457e-01
 0.000000e+00 0.000000e+00 0.000000e+00 0.000000e+00 0.000000e+00
<ENDHMM>
~h "g"
<BEGINHMM>
<NUMSTATES> 5
<STATE> 2
<MEAN> 39
 -2.069429e+00 2.583359e+00 2.684639e+00 4.566939e-01 -4.780745e+00 -4.734468e+00 -9.259893e+00 -5.517232e+00 -5.003097e+00 3.120304e-01 -4.048396e+00 -4.011759e+00 5.808247e+01 -1.754342e-01 4.422911e-01 1.161654e-01 4.440491e-01 1.576336e-01 -1.360213e-01 -1.712785e-01 1.379909e-01 -2.397933e-01 6.158650e-04 -1.551809e-02 3.434923e-02 -1.900034e-01 -1.668139e-01 -3.487736e-01 8.378881e-02 -4.820374e-01 -4.194433e-01 -1.993459e-01 -3.017998e-01 2.530019e-01 -9.926637e-02 1.932125e-01 2.531363e-01 -4.232338e-02 6.708496e-01
<VARIANCE> 39
 3.783865e+01 3.851920e+01 4.351250e+01 3.712132e+01 4.911007e+01 5.726390e+01 5.949092e+01 5.462853e+01 6.485590e+01 5.686007e+01 6.536629e+01 4.595476e+01 7.528005e+01 1.983447e+00 2.267447e+00 4.097395e+00 3.485039e+00 4.513735e+00 4.732551e+00 5.372182e+00 5.106923e+00 4.921776e+00 5.977146e+00 5.031461e+00 3.549938e+00 3.042333e+00 4.352691e-01 4.385602e-01 6.123403e-01 5.323460e-01 9.543024e-01 8.131428e-01 9.538015e-01 1.022120e+00 1.094194e+00 9.853723e-01 8.673054e-01 8.214368e-01 3.909905e-01
<GCONST> 1.365724e+02
<STATE> 3
<MEAN> 39
 -3.173914e+00 1.612870e+00 2.498593e+00 -4.261636e-01 -5.818161e+00 -6.344950e+00 -1.309761e+01 -3.330429e+00 -7.670954e+00 2.690609e+00 -3.532616e+00 -3.788956e+00 6.068839e+01 -5.851582e-01 -7.945506e-01 1.492924e-01 -1.157410e+00 -1.201917e+00 -8.095223e-01 -6.924642e-01 1.177419e+00 -2.582133e-01 4.442621e-01 1.009223e+00 -1.458245e-01 1.751497e+00 -3.797337e-02 -3.122575e-01 1.284074e-01 -5.008318e-01 -4.780778e-01 3.923837e-02 1.150921e-01 1.308133e-01 1.254206e-01 1.915736e-02 1.232448e-01 -3.743968e-02 4.276623e-01
<VARIANCE> 39
 3.746562e+01 4.347247e+01 5.539165e+01 3.783486e+01 5.893659e+01 6.393468e+01 9.361272e+01 6.711033e+01 8.574762e+01 7.975905e+01 8.070232e+01 5.584934e+01 9.080373e+01 2.771799e+00 3.103850e+00 6.336554e+00 4.306395e+00 8.580172e+00 6.348324e+00 5.627536e+00 6.771201e+00 6.283101e+00 6.781332e+00 5.512923e+00 4.449326e+00 3.077368e+00 4.827498e-01 4.756251e-01 9.092477e-01 6.199839e-01 1.375770e+00 9.075506e-01 1.133500e+00 1.023449e+00 1.258197e+00 1.247329e+00 1.135062e+00 7.409978e-01 5.518641e-01
<GCONST> 1.446344e+02
<STATE> 4
<MEAN> 39
 -5.001490e-01 -3.471284e+00 4.692533e+00 -2.666437e+00 -1.169628e+01 -4.157694e+00 -1.165541e+01 -1.469749e+00 -6.328111e+00 -5.956466e-02 6.929888e-01 -5.662920e+00 6.197531e+01 -3.715933e-01 -6.089272e-01 3.697105e-01 -1.002146e+00 -8.837507e-01 -2.115361e-01 -1.395852e-01 4.019795e-01 -3.234943e-02 1.662835e-01 4.127696e-01 -6.065802e-02 1.261649e+00 6.246113e-02 5.330599e-02 -1.246471e-02 8.522794e-04 -6.045607e-03 6.455364e-02 3.205294e-02 -1.159842e-01 1.386150e-02 -2.241120e-03 -1.172065e-01 -1.695180e-02 -4.374835e-02
<VARIANCE> 39
 6.767493e+01 1.036136e+02 1.058730e+02 6.407275e+01 8.775843e+01 7.780572e+01 7.989317e+01 8.654305e+01 7.628784e+01 5.408576e+01 5.324512e+01 4.568633e+01 9.675362e+01 3.743829e+00 6.694763e+00 5.947497e+00 5.612407e+00 5.975761e+00 4.399623e+00 4.582027e+00 6.147133e+00 5.328201e+00 3.776471e+00 4.093889e+00 2.894551e+00 4.783312e+00 4.132591e-01 1.145319e+00 7.842873e-01 8.537626e-01 1.116967e+00 7.152449e-01 9.305167e-01 9.092382e-01 7.791263e-01 7.079409e-01 7.536586e-01 4.381007e-01 6.815006e-01
<GCONST> 1.444676e+02
<TRANSP> 5
 0.000000e+00 1.000000e+00 0.000000e+00 0.000000e+00 0.000000e+00
 0.000000e+00 5.090603e-01 4.909397e-01 0.000000e+00 0.000000e+00
 0.000000e+00 0.000000e+00 3.617428e-01 6.382572e-01 0.000000e+00
 0.000000e+00 0.000000e+00 0.000000e+00 5.623938e-01 4.376061e-01
 0.000000e+00 0.000000e+00 0.000000e+00 0.000000e+00 0.000000e+00
<ENDHMM>
~h "h"
<BEGINHMM>
<NUMSTATES> 5
<STATE> 2
<MEAN> 39
 -1.332755e+00 -6.196396e+00 -1.137286e+00 -5.503844e+00 -8.477207e+00 -1.166077e+00 -8.192653e+00 -4.693843e-01 -4.549318e+00 -2.094981e-01 -2.269971e+00 -4.340276e+00 6.419366e+01 -1.103469e-01 2.787811e-01 -4.135880e-01 2.536086e-01 7.289268e-01 1.723617e-01 4.280487e-01 -1.206760e-01 1.242875e-01 -1.194044e-01 -2.436770e-01 1.481306e-01 -6.707231e-01 -3.798979e-02 4.826592e-02 4.621593e-02 1.779886e-03 -4.866204e-02 -5.361637e-02 -4.874142e-02 -8.032825e-04 4.218823e-02 -1.847855e-02 2.539434e-02 -2.994740e-02 -4.607956e-02
<VARIANCE> 39
 7.129996e+01 6.723759e+01 7.130939e+01 7.002540e+01 1.301114e+02 1.096633e+02 1.345959e+02 8.315948e+01 8.506593e+01 5.346521e+01 6.999496e+01 7.003071e+01 1.146018e+02 7.580047e-01 1.602739e+00 2.033894e+00 2.438302e+00 2.695680e+00 2.481944e+00 3.055976e+00 2.805478e+00 2.568052e+00 2.461588e+00 2.376989e+00 2.202815e+00 1.476725e+00 9.581105e-02 1.945954e-01 2.183485e-01 3.727641e-01 3.852558e-01 3.953669e-01 5.660110e-01 4.980569e-01 4.399600e-01 4.094546e-01 4.372542e-01 3.629680e-01 1.334568e-01
<GCONST> 1.237456e+02
<STATE> 3
<MEAN> 39
 -5.009041e+00 -3.995862e+00 -2.500611e+00 -7.176107e+00 2.271942e+00 -3.654128e+00 -5.278697e+00 -1.903937e+00 -4.387910e+00 -1.038264e+00 -7.129457e+00 6.591846e-01 6.441087e+01 -9.961909e-02 2.648336e-01 -3.646527e-02 3.529978e-01 2.655423e-01 1.382711e-01 1.735259e-01 -1.204872e-02 2.153445e-01 -2.066912e-01 8.162206e-02 8.180189e-02 -7.511561e-01 2.015390e-03 -4.068207e-03 5.340609e-02 -3.098191e-02 -2.439307e-01 -4.078404e-02 -1.234773e-01 3.353513e-02 -1.560788e-02 6.361068e-02 7.853178e-02 -9.706269e-02 1.902458e-02
<VARIANCE> 39
 3.326408e+01 4.691305e+01 4.792061e+01 9.752622e+01 1.080156e+02 5.866740e+01 5.792342e+01 7.956393e+01 8.821773e+01 8.468977e+01 9.603545e+01 9.529841e+01 1.001348e+02 6.942920e-01 1.406186e+00 1.464944e+00 2.300596e+00 2.571190e+00 2.425114e+00 2.901754e+00 2.959930e+00 3.138564e+00 2.896337e+00 2.726012e+00 2.464560e+00 1.262833e+00 9.249479e-02 1.584769e-01 2.241300e-01 3.642677e-01 4.037038e-01 4.064410e-01 4.478060e-01 5.097623e-01 5.102335e-01 4.978279e-01 5.173149e-01 4.435236e-01 1.036100e-01
<GCONST> 1.217113e+02
<STATE> 4
<MEAN> 39
 -1.107534e+01 -3.215526e-01 -3.829570e+00 8.098025e-01 -3.074796e+00 -7.690436e-01 -3.057526e+00 -3.280919e-01 -1.392960e+00 -1.476766e+00 -3.077446e+00 -1.460818e+00 4.773542e+01 -1.073594e-01 1.049680e-01 1.172720e-02 1.231102e-01 -3.612615e-02 2.396451e-02 -1.243201e-02 2.439996e-02 4.240254e-02 3.286302e-02 4.155941e-02 -7.794071e-04 -3.329025e-01 2.513859e-02 -1.078490e-02 7.135140e-03 -4.804478e-02 -3.945533e-02 -4.210499e-02 -5.554389e-02 -1.192780e-02 -4.366039e-02 9.197347e-03 8.472947e-03 -2.240968e-02 7.515229e-02
<VARIANCE> 39
 5.148207e+01 2.982069e+01 2.941374e+01 3.700873e+01 5.740178e+01 3.792538e+01 4.410053e+01 5.100009e+01 5.333207e+01 3.106651e+01 3.247634e+01 2.750985e+01 2.224809e+02 4.625635e-01 7.949507e-01 8.663618e-01 1.276649e+00 1.471501e+00 1.678347e+00 1.852069e+00 1.999014e+00 1.915319e+00 1.806860e+00 1.762609e+00 1.544635e+00 6.197780e-01 8.000007e-02 1.205120e-01 1.530980e-01 2.265758e-01 2.632548e-01 3.331799e-01 3.624138e-01 3.707249e-01 3.605378e-01 3.476200e-01 3.280221e-01 2.883893e-01 7.489848e-02
<GCONST> 1.046302e+02
<TRANSP> 5
 0.000000e+00 1.000000e+00 0.000000e+00 0.000000e+00 0.000000e+00
 0.000000e+00 4.711022e-01 5.288978e-01 0.000000e+00 0.000000e+00
 0.000000e+00 0.000000e+00 5.646706e-01 4.353295e-01 0.000000e+00
 0.000000e+00 0.000000e+00 0.000000e+00 8.154004e-01 1.845996e-01
 0.000000e+00 0.000000e+00 0.000000e+00 0.000000e+00 0.000000e+00
<ENDHMM>
~h "i"
<BEGINHMM>
<NUMSTATES> 5
<STATE> 2
<MEAN> 39
 -7.609026e+00 1.361252e+00 1.244678e+01 -2.876067e+00 -1.587950e+01 -9.427032e+00 -1.070532e+01 -3.587030e+00 -1.184859e+01 5.262965e-01 7.425526e-01 -2.080597e+00 6.495045e+01 2.186282e-01 1.181719e-01 2.231874e+00 -7.091305e-01 -2.677555e+00 -4.113434e-02 -8.240537e-01 -1.500158e-01 -1.655556e+00 3.652727e-01 9.998896e-01 -3.231045e-01 1.304361e+00 9.368699e-02 1.008483e-01 -5.155774e-01 8.851215e-02 5.070508e-01 3.458691e-01 9.892367e-02 3.249010e-02 3.752300e-01 1.793646e-02 -2.285583e-01 -7.955492e-02 -3.791017e-01
<VARIANCE> 39
 4.414632e+01 6.055202e+01 7.894243e+01 4.624369e+01 6.179164e+01 7.322491e+01 8.121925e+01 7.129497e+01 8.705975e+01 7.393006e+01 7.578768e+01 5.946739e+01 8.523039e+01 4.290111e+00 3.578306e+00 4.316633e+00 4.908649e+00 5.379414e+00 6.570114e+00 6.689557e+00 5.727783e+00 4.943068e+00 5.741381e+00 4.744953e+00 3.698242e+00 2.399666e+00 5.542094e-01 6.125116e-01 7.799477e-01 7.908812e-01 1.178330e+00 9.523685e-01 9.959208e-01 1.039930e+00 9.335824e-01 9.126413e-01 8.512817e-01 6.381274e-01 4.355799e-01
<GCONST> 1.435476e+02
<STATE> 3
<MEAN> 39
 -7.375435e+00 2.277260e+00 1.632730e+01 -5.271040e+00 -2.065976e+01 -7.123269e+00 -1.226263e+01 -4.185343e+00 -1.478335e+01 2.215999e+00 1.843891e+00 -4.023443e+00 6.776989e+01 1.712556e-01 1.551565e-01 -1.867385e-01 2.644252e-01 2.681439e-01 3.584898e-02 2.595993e-01 -1.084549e-01 1.970755e-01 1.761904e-02 -2.718300e-01 -4.144056e-02 -4.276903e-01 5.995168e-02 1.853555e-02 -5.148516e-01 2.933447e-01 7.457271e-01 -5.943078e-02 2.392241e-01 -2.452713e-02 4.175456e-01 -1.261622e-01 -3.467323e-01 1.195114e-01 -3.926112e-01
<VARIANCE> 39
 1.947635e+01 5.533291e+01 5.982487e+01 4.006119e+01 4.486466e+01 7.754639e+01 8.461801e+01 7.877919e+01 8.647922e+01 8.198452e+01 9.615385e+01 7.681660e+01 4.931015e+01 8.807605e-01 1.685570e+00 2.126162e+00 2.209585e+00 3.245251e+00 3.098191e+00 3.205527e+00 3.505075e+00 2.944768e+00 2.668567e+00 2.768330e+00 2.857097e+00 1.393092e+00 1.976787e-01 2.608121e-01 4.088898e-01 4.309298e-01 6.807005e-01 6.894410e-01 7.232217e-01 6.864731e-01 6.103359e-01 6.025411e-01 6.095314e-01 5.757067e-01 2.062443e-01
<GCONST> 1.264192e+02
<STATE> 4
<MEAN> 39
 -5.443164e+00 2.670130e+00 1.053115e+01 3.082935e-01 -1.280323e+01 -7.959552e+00 -8.465598e+00 -5.671996e+00 -9.483060e+00 -8.153711e-01 -7.824566e-01 -2.949900e+00 6.061837e+01 5.598866e-02 2.131706e-01 -1.558913e+00 9.081469e-01 2.096649e+00 5.271887e-01 6.398319e-01 -2.226123e-02 1.159853e+00 -3.405871e-01 -8.584221e-01 2.999215e-01 -1.562354e+00 -1.875323e-01 -7.259093e-02 -1.402016e-01 -1.466110e-01 4.509269e-02 1.607292e-01 -3.019766e-02 1.473378e-01 7.536105e-03 2.811377e-02 5.795861e-02 -4.147268e-04 1.142403e-01
<VARIANCE> 39
 2.992637e+01 4.941299e+01 5.623456e+01 3.976579e+01 5.545486e+01 6.987365e+01 6.628344e+01 6.916862e+01 6.538535e+01 5.812306e+01 6.322480e+01 4.285455e+01 8.495719e+01 1.730173e+00 2.310861e+00 2.585211e+00 2.711563e+00 3.677767e+00 4.107966e+00 4.728128e+00 4.845263e+00 3.921693e+00 3.898469e+00 3.850534e+00 3.052636e+00 1.656225e+00 2.277266e-01 3.443299e-01 4.529018e-01 4.817074e-01 6.672263e-01 7.139899e-01 7.308832e-01 7.832891e-01 7.118340e-01 6.634606e-01 5.985367e-01 5.747439e-01 3.088365e-01
<GCONST> 1.304870e+02
<TRANSP> 5
 0.000000e+00 1.000000e+00 0.000000e+00 0.000000e+00 0.000000e+00
 0.000000e+00 5.054339e-01 4.945661e-01 0.000000e+00 0.000000e+00
 0.000000e+00 0.000000e+00 7.369668e-01 2.630332e-01 0.000000e+00
 0.000000e+00 0.000000e+00 0.000000e+00 6.106710e-01 3.893290e-01
 0.000000e+00 0.000000e+00 0.000000e+00 0.000000e+00 0.000000e+00
<ENDHMM>
~h "j"
<BEGINHMM>
<NUMSTATES> 5
<STATE> 2
<MEAN> 39
 -7.204310e+00 5.782512e+00 3.744285e+00 3.953339e-01 -2.676838e+00 -6.739728e+00 -6.339352e+00 -2.394259e+00 -5.027582e+00 -3.975124e+00 -4.531791e+00 -1.887098e+00 5.685181e+01 -1.791567e+00 1.101217e+00 3.420275e-01 -5.871600e-01 4.980062e-01 -7.892917e-02 2.225289e-01 -1.990135e-01 -2.357177e-01 -2.353405e-01 5.481433e-01 1.427015e-01 1.046099e+00 -2.426547e-01 -3.355480e-01 2.165230e-01 -2.631569e-01 -6.160935e-01 -4.127932e-01 -2.676804e-01 9.182790e-03 -1.740519e-01 1.042977e-01 4.111997e-01 2.426352e-01 7.148280e-01
<VARIANCE> 39
 5.940447e+01 4.534611e+01 4.459902e+01 4.061803e+01 3.407639e+01 7.007059e+01 4.905452e+01 5.204777e+01 5.349164e+01 4.076621e+01 5.102641e+01 3.421140e+01 9.369818e+01 7.108363e+00 3.570644e+00 2.887522e+00 4.310680e+00 3.810867e+00 6.344852e+00 4.983810e+00 4.739649e+00 4.367227e+00 3.975888e+00 4.492463e+00 3.375772e+00 4.485248e+00 1.125074e+00 7.322538e-01 5.160644e-01 7.505595e-01 8.321234e-01 9.984568e-01 9.194950e-01 9.929578e-01 7.548018e-01 7.047227e-01 7.745396e-01 6.126086e-01 4.988864e-01
<GCONST> 1.380801e+02
<STATE> 3
<MEAN> 39
 -1.613995e+01 7.936054e+00 7.132193e+00 -3.461368e+00 -5.436758e+00 -9.450909e+00 -6.964371e+00 -3.406042e+00 -7.967705e+00 -3.184066e+00 -2.380392e-01 8.463538e-01 6.537853e+01 5.165619e-01 -1.560356e+00 1.156026e+00 -3.026662e-01 -3.097794e+00 -2.119929e+00 -8.983256e-01 2.851201e-01 -6.965191e-01 1.078438e-01 1.387917e+00 1.122694e+00 2.141684e+00 1.552700e+00 -9.773353e-01 -2.197704e-01 2.195882e-01 -6.438969e-01 -1.308784e-01 -3.935642e-01 3.660576e-01 1.692228e-01 2.288233e-01 -2.272335e-01 -1.917041e-01 -1.603653e-01
<VARIANCE> 39
 5.171923e+01 5.409851e+01 5.350903e+01 3.356193e+01 4.892346e+01 7.127257e+01 4.910408e+01 4.542618e+01 6.364774e+01 3.997639e+01 4.398889e+01 5.080222e+01 5.626423e+01 8.542234e+00 4.229970e+00 3.291088e+00 4.222482e+00 4.560118e+00 5.395692e+00 4.469079e+00 5.632555e+00 3.669596e+00 3.617343e+00 3.803912e+00 3.704154e+00 2.551147e+00 8.038852e-01 8.612260e-01 7.039133e-01 7.165210e-01 1.171055e+00 1.300512e+00 1.014905e+00 1.107895e+00 9.782352e-01 9.912909e-01 8.644878e-01 6.437138e-01 3.584122e-01
<GCONST> 1.392157e+02
<STATE> 4
<MEAN> 39
 -6.354930e+00 -1.255682e+00 8.907267e+00 -3.054272e+00 -1.666123e+01 -1.554741e+01 -1.194001e+01 6.845490e-01 -7.680985e+00 -1.717138e+00 2.393147e+00 2.341304e+00 7.060365e+01 2.206271e+00 -2.588534e+00 -1.067549e+00 -6.771792e-01 -1.207807e+00 -1.741026e-01 -1.065978e+00 1.288890e+00 8.930293e-01 1.075844e+00 -2.023951e-01 -6.492981e-01 1.149198e+00 -2.428161e-01 4.629535e-01 -6.173747e-01 -1.077176e-01 1.237384e+00 9.102991e-01 3.481845e-01 -2.228400e-01 2.819469e-01 1.607411e-01 -5.458683e-01 -5.715961e-01 -5.431935e-01
<VARIANCE> 39
 2.629740e+01 3.555918e+01 4.049723e+01 4.016391e+01 3.984051e+01 5.748144e+01 6.213872e+01 7.080739e+01 7.288966e+01 3.992683e+01 5.015688e+01 7.273457e+01 5.687358e+01 2.671353e+00 3.361782e+00 3.123053e+00 2.585096e+00 6.812927e+00 4.760004e+00 5.859188e+00 6.686646e+00 4.091462e+00 3.581344e+00 4.617899e+00 2.994844e+00 1.279547e+00 5.021808e-01 4.360986e-01 4.186022e-01 4.677272e-01 5.938626e-01 6.416301e-01 7.692320e-01 9.319380e-01 5.995662e-01 5.845419e-01 6.331285e-01 5.034737e-01 1.764631e-01
<GCONST> 1.308718e+02
<TRANSP> 5
 0.000000e+00 1.000000e+00 0.000000e+00 0.000000e+00 0.000000e+00
 0.000000e+00 6.998019e-01 3.001981e-01 0.000000e+00 0.000000e+00
 0.000000e+00 0.000000e+00 5.919648e-01 4.080352e-01 0.000000e+00
 0.000000e+00 0.000000e+00 0.000000e+00 6.275812e-01 3.724188e-01
 0.000000e+00 0.000000e+00 0.000000e+00 0.000000e+00 0.000000e+00
<ENDHMM>
~h "k"
<BEGINHMM>
<NUMSTATES> 5
<STATE> 2
<MEAN> 39
 -6.273041e+00 1.013574e+00 -8.840650e-01 -2.174177e-02 -3.142558e+00 -2.479567e+00 -4.631961e+00 -2.037010e+00 -2.956852e+00 -8.296989e-02 -2.755161e+00 -2.597989e+00 5.397752e+01 -8.846402e-01 -3.617889e-01 -6.811752e-01 4.091749e-02 8.611850e-01 6.699200e-02 -1.167626e-01 6.782866e-01 1.500225e-01 4.139991e-01 9.454370e-02 2.217515e-01 -7.412893e-02 -7.635678e-03 -3.594552e-01 -1.875801e-01 -6.426267e-01 -1.839095e-01 -3.319178e-01 -4.030308e-01 2.097360e-02 -2.107521e-01 1.872786e-01 9.283117e-02 -1.105592e-01 9.361518e-01
<VARIANCE> 39
 3.931304e+01 3.418344e+01 4.372106e+01 4.398879e+01 5.221719e+01 5.425784e+01 4.272136e+01 4.968225e+01 5.624152e+01 4.259462e+01 4.834356e+01 3.493056e+01 9.123605e+01 2.196950e+00 2.867975e+00 3.347188e+00 4.084710e+00 3.973660e+00 4.911749e+00 4.216757e+00 4.702080e+00 4.593934e+00 4.146649e+00 3.966650e+00 3.181202e+00 3.638994e+00 4.145895e-01 4.804260e-01 5.814832e-01 7.133954e-01 8.192740e-01 8.656960e-01 8.762492e-01 9.338713e-01 9.692945e-01 8.456811e-01 8.456350e-01 7.039635e-01 4.921612e-01
<GCONST> 1.345027e+02
<STATE> 3
<MEAN> 39
 -8.868806e+00 -1.590404e+00 -4.903805e+00 -2.696881e+00 9.983723e-01 -5.323439e+00 -1.012338e+01 -1.244368e+00 -6.202727e+00 1.966659e+00 -5.572714e+00 -2.790676e-01 5.654591e+01 -9.337761e-02 -6.574147e-01 -6.754149e-01 -1.254598e+00 4.284525e-02 -6.483205e-01 -8.236829e-01 3.442873e-01 -4.336998e-01 6.223279e-01 7.452052e-02 1.080996e-01 1.961807e+00 4.525188e-01 -6.063660e-02 5.173853e-01 -4.452369e-01 -6.592728e-01 -3.530586e-02 1.552946e-01 -2.015537e-01 -1.469392e-02 -8.117245e-02 7.818938e-02 -2.031526e-01 4.603669e-01
<VARIANCE> 39
 4.532050e+01 4.788860e+01 8.700516e+01 7.861859e+01 9.133453e+01 9.953247e+01 9.903949e+01 9.776714e+01 1.123451e+02 9.944772e+01 8.827715e+01 5.834244e+01 9.636073e+01 4.550078e+00 4.828169e+00 7.866040e+00 8.821412e+00 8.800145e+00 8.718002e+00 9.560101e+00 8.418537e+00 8.625673e+00 9.018157e+00 7.607828e+00 6.182570e+00 7.107836e+00 6.511595e-01 7.590120e-01 1.316967e+00 1.351094e+00 1.587029e+00 1.508684e+00 1.985144e+00 1.619887e+00 1.551525e+00 1.830112e+00 1.397201e+00 1.121539e+00 7.302389e-01
<GCONST> 1.582344e+02
<STATE> 4
<MEAN> 39
 -5.909868e+00 -4.265048e+00 -2.814996e+00 -7.317040e+00 -5.098029e+00 -4.401946e+00 -8.720362e+00 -1.496771e+00 -4.870159e+00 2.108771e+00 -1.141019e+00 -4.364854e+00 6.331354e+01 1.152685e+00 -4.817068e-01 6.857877e-01 -1.270264e+00 -1.499602e+00 -3.267659e-01 -5.226167e-02 -4.394793e-01 -1.768906e-01 -1.308934e-01 3.427216e-01 -8.025252e-01 1.835241e+00 2.566856e-01 1.750614e-01 1.938026e-01 3.130213e-01 -1.788109e-01 7.497393e-02 2.690026e-02 -1.441919e-01 -1.203998e-02 -2.067332e-01 8.604238e-03 -9.022765e-02 -2.846108e-01
<VARIANCE> 39
 8.514426e+01 6.029885e+01 8.745960e+01 6.668044e+01 8.302962e+01 8.681367e+01 6.336669e+01 7.432336e+01 9.228332e+01 5.373381e+01 5.889771e+01 5.967803e+01 9.638609e+01 5.687035e+00 5.587516e+00 5.180154e+00 6.673236e+00 7.136931e+00 6.388795e+00 7.269913e+00 5.931576e+00 5.463156e+00 5.524210e+00 4.651414e+00 5.039914e+00 5.272551e+00 1.019919e+00 9.695970e-01 9.186895e-01 9.921527e-01 1.129643e+00 1.128735e+00 1.086051e+00 1.005084e+00 9.760058e-01 9.398062e-01 8.371141e-01 6.914780e-01 8.287002e-01
<GCONST> 1.496899e+02
<TRANSP> 5
 0.000000e+00 1.000000e+00 0.000000e+00 0.000000e+00 0.000000e+00
 0.000000e+00 5.474857e-01 4.525143e-01 0.000000e+00 0.000000e+00
 0.000000e+00 0.000000e+00 5.518209e-01 4.481790e-01 0.000000e+00
 0.000000e+00 0.000000e+00 0.000000e+00 5.368333e-01 4.631667e-01
 0.000000e+00 0.000000e+00 0.000000e+00 0.000000e+00 0.000000e+00
<ENDHMM>
~h "l"
<BEGINHMM>
<NUMSTATES> 5
<STATE> 2
<MEAN> 39
 -6.590088e-02 -3.641612e+00 -1.403010e+00 -8.955864e+00 -6.514989e+00 -5.302045e+00 -1.230753e+01 -7.604225e+00 -3.147162e+00 6.501761e+00 -2.530999e+00 -4.227359e+00 6.574347e+01 3.375565e-01 1.747909e-01 6.387794e-01 -8.980975e-03 -1.824128e-02 -2.196970e-01 -7.506233e-01 -6.594592e-01 -2.043948e-01 6.350616e-01 -1.099410e-01 2.438993e-01 -3.463242e-01 -2.890805e-01 2.912751e-03 -1.687693e-01 -8.382098e-02 5.212902e-02 1.358993e-01 2.118457e-01 4.508312e-01 3.895085e-02 -4.273041e-01 5.430663e-02 -7.155381e-02 1.262526e-01
<VARIANCE> 39
 4.238580e+01 3.963395e+01 4.568929e+01 9.248099e+01 7.246807e+01 6.742893e+01 7.688800e+01 1.061900e+02 1.004091e+02 6.685469e+01 7.945724e+01 7.467191e+01 1.145318e+02 9.029226e-01 1.776548e+00 1.912277e+00 3.359912e+00 2.630467e+00 3.361744e+00 3.868805e+00 4.244591e+00 3.390172e+00 3.524034e+00 3.122672e+00 2.883932e+00 1.366268e+00 1.819064e-01 3.002960e-01 3.185826e-01 6.369004e-01 5.618641e-01 6.036984e-01 7.556388e-01 7.954860e-01 6.722854e-01 6.219181e-01 5.861683e-01 5.273829e-01 1.760160e-01
<GCONST> 1.296211e+02
<STATE> 3
<MEAN> 39
 2.766805e-01 -3.586307e+00 -8.604974e-01 -1.159543e+01 -5.446678e+00 -4.964947e+00 -1.403324e+01 -8.876445e+00 -3.907046e+00 8.771482e+00 -3.285628e+00 -2.958131e+00 6.685800e+01 -2.977060e-01 5.808471e-02 -7.034416e-02 -2.353167e-01 6.724972e-02 1.792252e-01 -1.658413e-01 6.388356e-01 1.507589e-01 -4.603828e-01 1.093587e-01 -1.478254e-01 1.569575e-01 -2.684946e-01 -9.060621e-02 -2.864141e-01 3.038570e-03 -2.502185e-02 1.090587e-01 3.709898e-01 5.324867e-01 1.158888e-01 -4.953244e-01 6.008012e-02 -2.118989e-01 2.289150e-01
<VARIANCE> 39
 3.036318e+01 3.311592e+01 4.254871e+01 9.462143e+01 7.278793e+01 6.640324e+01 8.547558e+01 9.922746e+01 1.025295e+02 7.277802e+01 9.679333e+01 9.350266e+01 8.112600e+01 6.102549e-01 1.354736e+00 1.768876e+00 2.869292e+00 2.502335e+00 2.907551e+00 3.037510e+00 4.277573e+00 3.212793e+00 2.742671e+00 2.734725e+00 2.639670e+00 1.073074e+00 1.280009e-01 2.641319e-01 3.442304e-01 5.825696e-01 6.234003e-01 5.642111e-01 7.430833e-01 7.872702e-01 6.882666e-01 6.483859e-01 7.111349e-01 5.056534e-01 1.680387e-01
<GCONST> 1.268624e+02
<STATE> 4
<MEAN> 39
 2.130213e-01 -4.607947e+00 1.720137e-01 -8.627976e+00 -7.738543e+00 -3.434030e+00 -1.353550e+01 -3.867418e+00 -3.535479e+00 3.157957e+00 -1.523397e+00 -5.539479e+00 6.481760e+01 -5.076904e-01 -1.154890e-01 -1.738404e-01 -9.153762e-02 -1.856486e-01 6.476754e-02 4.838524e-01 9.863133e-01 1.415100e-01 -8.570690e-01 1.882722e-01 -2.901379e-01 3.787112e-01 -5.128624e-02 -8.561797e-04 -1.639664e-02 6.062404e-02 -7.415713e-02 9.915577e-03 2.726828e-01 -1.990217e-02 -1.120721e-01 -5.465601e-02 2.736693e-02 3.809920e-02 2.189866e-02
<VARIANCE> 39
 4.681498e+01 6.264753e+01 9.363038e+01 9.356628e+01 9.280776e+01 8.769503e+01 8.426887e+01 9.595893e+01 8.974053e+01 6.264396e+01 8.350185e+01 7.446188e+01 1.087799e+02 1.540448e+00 3.065060e+00 3.653014e+00 5.498983e+00 4.799586e+00 4.397200e+00 5.352325e+00 5.853126e+00 4.489511e+00 3.865093e+00 4.266749e+00 3.274714e+00 2.594740e+00 2.345829e-01 4.695200e-01 4.455048e-01 8.102988e-01 7.735643e-01 6.270339e-01 8.256301e-01 8.558810e-01 7.258246e-01 6.076650e-01 6.782070e-01 5.514846e-01 3.923722e-01
<GCONST> 1.392575e+02
<TRANSP> 5
 0.000000e+00 1.000000e+00 0.000000e+00 0.000000e+00 0.000000e+00
 0.000000e+00 1.705817e-01 8.294182e-01 0.000000e+00 0.000000e+00
 0.000000e+00 0.000000e+00 4.629455e-01 5.370545e-01 0.000000e+00
 0.000000e+00 0.000000e+00 0.000000e+00 3.727896e-01 6.272104e-01
 0.000000e+00 0.000000e+00 0.000000e+00 0.000000e+00 0.000000e+00
<ENDHMM>
~h "m"
<BEGINHMM>
<NUMSTATES> 5
<STATE> 2
<MEAN> 39
 7.736022e-01 -7.370135e-02 8.456747e-02 -6.646718e-01 -5.254077e+00 -2.126750e+00 -7.955812e+00 -7.503985e+00 -5.309174e+00 -8.866699e-01 -4.596396e+00 -5.901348e+00 6.137323e+01 1.217899e-01 7.956867e-01 9.892756e-01 1.710663e+00 3.594908e-01 -9.844322e-02 -4.281507e-02 -9.823525e-01 -8.770775e-01 -2.426126e-01 -7.802149e-01 8.907212e-02 -8.658876e-01 -1.412476e-01 -1.840840e-01 -5.527480e-02 -3.327716e-01 -1.667068e-01 -1.520898e-01 -4.528352e-02 2.742676e-01 1.103305e-01 2.430580e-02 1.074593e-01 3.273072e-02 3.293363e-01
<VARIANCE> 39
 3.152241e+01 4.357710e+01 3.061403e+01 4.129360e+01 3.706697e+01 4.811993e+01 3.631006e+01 4.607073e+01 5.502227e+01 5.496023e+01 5.793973e+01 3.539883e+01 6.692412e+01 7.771899e-01 1.321697e+00 1.841610e+00 2.909502e+00 2.264175e+00 2.994889e+00 2.821317e+00 5.229483e+00 2.671170e+00 2.761815e+00 3.378664e+00 2.420574e+00 1.413461e+00 1.295371e-01 1.693167e-01 2.673577e-01 4.512621e-01 3.751712e-01 4.209390e-01 4.755234e-01 6.940289e-01 4.681005e-01 4.088569e-01 4.600935e-01 4.411247e-01 1.284346e-01
<GCONST> 1.173649e+02
<STATE> 3
<MEAN> 39
 5.760189e-01 1.771302e-01 3.486890e+00 1.757089e+00 -4.688192e+00 -2.889382e+00 -9.713158e+00 -8.719927e+00 -8.423326e+00 -3.983064e-02 -8.322322e+00 -4.131214e+00 6.095616e+01 -1.732478e-02 1.463801e-01 -1.753371e-02 -1.650254e-01 -2.576758e-01 -5.098101e-02 9.538243e-02 2.477718e-01 3.259715e-03 -2.180957e-01 2.073221e-02 1.076494e-01 3.484356e-02 -7.503776e-02 -2.370905e-01 -4.398401e-01 -7.960391e-01 -1.635860e-01 1.283178e-01 1.367360e-01 5.062053e-01 3.133539e-01 -6.143956e-02 4.068485e-01 -4.071786e-02 3.365448e-01
<VARIANCE> 39
 2.272419e+01 4.157383e+01 2.960440e+01 3.632343e+01 3.582774e+01 5.082932e+01 4.018838e+01 5.186747e+01 5.788942e+01 9.852780e+01 1.053016e+02 5.292203e+01 5.355924e+01 6.431956e-01 1.200993e+00 1.898310e+00 3.128279e+00 2.205576e+00 2.462828e+00 2.328405e+00 3.483742e+00 2.437824e+00 2.601048e+00 2.860850e+00 2.131407e+00 1.102989e+00 1.209249e-01 2.250998e-01 4.365363e-01 5.042527e-01 4.356687e-01 6.006516e-01 5.611029e-01 1.072048e+00 5.885486e-01 6.561064e-01 7.178959e-01 5.226105e-01 1.610419e-01
<GCONST> 1.202509e+02
<STATE> 4
<MEAN> 39
 5.645144e-01 -5.108058e-01 -3.064510e-01 -2.312026e+00 -6.321214e+00 -1.896007e+00 -7.747769e+00 -6.348998e+00 -6.784662e+00 -2.012473e+00 -5.474519e+00 -4.411817e+00 6.122474e+01 -8.470905e-02 -8.285335e-01 -1.188479e+00 -2.079340e+00 -2.482879e-01 7.099773e-01 3.488376e-01 9.934307e-01 7.183496e-01 -2.468475e-01 6.719612e-01 -1.966709e-01 1.287632e+00 -2.091621e-01 -2.025452e-01 3.615007e-02 -1.187604e-01 9.830055e-02 -4.818667e-03 -7.567160e-02 1.144840e-01 1.163841e-01 7.735471e-02 2.040683e-02 -7.068153e-02 1.898241e-01
<VARIANCE> 39
 3.591075e+01 5.155456e+01 5.282923e+01 6.074657e+01 4.796172e+01 4.516992e+01 4.356206e+01 5.823227e+01 6.659156e+01 8.442313e+01 7.221809e+01 4.440496e+01 9.002365e+01 1.593375e+00 2.356999e+00 4.876640e+00 4.929710e+00 4.669123e+00 4.825883e+00 4.454077e+00 8.497728e+00 5.258640e+00 4.550945e+00 4.632151e+00 3.633883e+00 2.664851e+00 2.045832e-01 3.277627e-01 7.068490e-01 8.401696e-01 6.233433e-01 7.452642e-01 6.216303e-01 9.555983e-01 6.923636e-01 6.832169e-01 7.290745e-01 5.525333e-01 2.962271e-01
<GCONST> 1.348466e+02
<TRANSP> 5
 0.000000e+00 1.000000e+00 0.000000e+00 0.000000e+00 0.000000e+00
 0.000000e+00 5.311425e-01 4.688574e-01 0.000000e+00 0.000000e+00
 0.000000e+00 0.000000e+00 5.923046e-01 4.076954e-01 0.000000e+00
 0.000000e+00 0.000000e+00 0.000000e+00 4.098628e-01 5.901372e-01
 0.000000e+00 0.000000e+00 0.000000e+00 0.000000e+00 0.000000e+00
<ENDHMM>
~h "n"
<BEGINHMM>
<NUMSTATES> 5
<STATE> 2
<MEAN> 39
 -7.045691e-02 -1.227786e+00 3.460798e+00 2.992592e-01 -5.810204e+00 -7.262201e+00 -8.716619e+00 -4.303391e+00 -3.669467e+00 -5.853280e-01 -1.091577e+01 -3.878846e+00 6.297599e+01 3.661115e-01 1.119958e+00 6.572013e-01 1.633942e+00 4.789376e-02 1.814945e-01 -2.525457e-01 -1.169705e+00 -1.492722e-01 3.224030e-01 -1.057245e+00 4.935322e-01 -1.387345e+00 -2.367451e-01 -1.238369e-01 -9.906963e-02 -2.962521e-01 -3.730662e-02 -3.896450e-02 6.545909e-02 2.394620e-01 -1.898758e-03 -9.380154e-02 3.544500e-01 -3.804608e-02 2.465794e-01
<VARIANCE> 39
 2.052979e+01 4.243661e+01 3.281595e+01 3.837039e+01 4.788990e+01 4.073631e+01 4.664859e+01 5.018221e+01 6.544613e+01 6.472263e+01 1.052616e+02 5.933231e+01 5.452569e+01 7.038994e-01 1.328307e+00 1.912840e+00 2.314112e+00 2.678534e+00 2.880018e+00 2.932602e+00 5.222228e+00 2.974939e+00 3.593071e+00 3.608176e+00 2.434570e+00 9.339851e-01 8.906908e-02 1.753167e-01 2.427136e-01 3.421678e-01 3.886241e-01 4.193853e-01 4.424914e-01 7.266057e-01 4.830510e-01 5.520051e-01 5.025675e-01 4.466160e-01 1.341238e-01
<GCONST> 1.182539e+02
<STATE> 3
<MEAN> 39
 -4.675174e-01 1.279067e+00 5.700007e+00 3.635696e+00 -6.107049e+00 -6.929592e+00 -1.050755e+01 -5.915115e+00 -4.381798e+00 9.787897e-01 -1.276145e+01 -1.577697e+00 5.956904e+01 -2.699878e-01 5.460901e-01 7.206070e-02 3.769811e-01 2.941976e-01 2.940952e-01 -8.125655e-02 -7.927732e-02 -1.901984e-01 -3.806111e-01 4.931051e-01 -7.546411e-02 -6.487973e-01 -3.492260e-01 -3.416347e-01 -2.157426e-01 -7.104332e-01 7.457692e-02 1.401053e-01 1.593959e-01 5.382409e-01 -1.003275e-01 -2.766204e-01 6.069743e-01 -1.693873e-01 4.331098e-01
<VARIANCE> 39
 2.397188e+01 4.117896e+01 4.047886e+01 3.462540e+01 5.208466e+01 5.273780e+01 6.251876e+01 5.200755e+01 6.473854e+01 9.651473e+01 1.485566e+02 8.324390e+01 6.327076e+01 6.839724e-01 1.801885e+00 1.653710e+00 2.719255e+00 2.580541e+00 2.836372e+00 2.945957e+00 3.967833e+00 3.321105e+00 3.861119e+00 4.550084e+00 2.621438e+00 1.325639e+00 2.019339e-01 3.539816e-01 5.173531e-01 5.756055e-01 6.702502e-01 6.558153e-01 7.059433e-01 1.180731e+00 7.614663e-01 9.198080e-01 1.002957e+00 6.477886e-01 2.805245e-01
<GCONST> 1.286941e+02
<STATE> 4
<MEAN> 39
 -1.660871e+00 1.289143e+00 4.443101e+00 1.992117e+00 -5.849327e+00 -4.851274e+00 -1.043513e+01 -4.595303e+00 -5.101151e+00 -1.854425e+00 -7.196891e+00 -3.563895e+00 5.816504e+01 -8.772385e-01 -5.114967e-01 -4.038443e-01 -1.225557e+00 3.535697e-01 4.461892e-01 3.419303e-01 8.984495e-01 -2.341397e-01 -5.490271e-01 9.905542e-01 -2.263940e-01 5.678080e-01 -2.227799e-01 -3.373294e-01 -1.205615e-01 -4.887692e-01 -1.510618e-01 -8.202731e-02 1.635038e-01 2.389441e-01 3.130957e-02 5.667455e-02 1.515516e-01 4.517345e-02 4.618482e-01
<VARIANCE> 39
 4.154559e+01 6.269682e+01 6.243097e+01 5.813912e+01 7.240913e+01 6.006570e+01 6.981928e+01 6.102148e+01 7.686460e+01 6.748036e+01 8.971431e+01 5.585549e+01 9.626203e+01 2.360536e+00 4.323098e+00 4.819449e+00 5.294733e+00 4.975346e+00 4.732157e+00 5.317025e+00 7.403876e+00 4.898393e+00 5.723644e+00 6.197007e+00 3.714684e+00 3.784607e+00 4.438168e-01 7.484774e-01 7.587150e-01 8.995838e-01 8.732460e-01 9.578318e-01 1.023975e+00 1.252086e+00 8.841421e-01 8.290735e-01 8.739445e-01 6.158035e-01 5.137945e-01
<GCONST> 1.432991e+02
<TRANSP> 5
 0.000000e+00 1.000000e+00 0.000000e+00 0.000000e+00 0.000000e+00
 0.000000e+00 5.976067e-01 4.023933e-01 0.000000e+00 0.000000e+00
 0.000000e+00 0.000000e+00 5.069892e-01 4.930108e-01 0.000000e+00
 0.000000e+00 0.000000e+00 0.000000e+00 4.313001e-01 5.686999e-01
 0.000000e+00 0.000000e+00 0.000000e+00 0.000000e+00 0.000000e+00
<ENDHMM>
~h "o"
<BEGINHMM>
<NUMSTATES> 5
<STATE> 2
<MEAN> 39
 -2.234937e+00 -2.419031e+00 -6.041924e+00 -1.296039e+01 -5.391154e+00 -5.124071e-01 -9.417330e+00 -4.252697e+00 -5.797133e+00 4.000141e+00 -2.123764e-01 -2.919274e+00 6.281865e+01 1.195601e+00 -4.426335e-01 -4.242289e-01 -1.878730e+00 -1.206356e-01 7.041959e-01 -3.338169e-01 -3.773007e-01 -2.647282e-01 8.325571e-01 3.130869e-01 -5.814822e-01 1.693590e+00 -1.777823e-01 4.299322e-02 1.978910e-01 4.716029e-01 8.516891e-02 -8.262272e-02 1.317660e-01 1.045940e-02 -7.792512e-03 -1.607645e-01 -4.788147e-02 4.719790e-02 -2.503519e-01
<VARIANCE> 39
 4.633909e+01 5.010874e+01 3.323088e+01 1.192273e+02 7.292367e+01 5.359574e+01 7.049971e+01 7.956921e+01 9.577322e+01 7.546957e+01 5.624015e+01 7.762794e+01 1.391906e+02 2.728266e+00 3.396874e+00 2.637224e+00 7.059041e+00 4.928914e+00 3.957557e+00 4.474374e+00 5.161761e+00 5.354692e+00 5.609958e+00 4.016975e+00 4.332187e+00 5.164301e+00 5.622239e-01 5.367199e-01 4.443562e-01 1.547077e+00 8.069108e-01 6.929727e-01 7.882516e-01 9.407261e-01 9.421173e-01 9.651976e-01 7.547272e-01 7.538406e-01 8.851189e-01
<GCONST> 1.427457e+02
<STATE> 3
<MEAN> 39
 5.872271e-01 -2.734920e+00 -6.148919e+00 -1.736376e+01 -5.679835e+00 3.398613e-01 -1.165112e+01 -4.609653e+00 -6.737663e+00 5.745144e+00 1.940883e+00 -4.276513e+00 6.985152e+01 6.208136e-02 6.780958e-02 1.565994e-01 4.449533e-01 2.437006e-01 -8.622585e-02 6.275412e-02 -2.247403e-01 8.395619e-02 -1.607079e-02 -7.366638e-02 -4.112916e-02 -3.022406e-01 -8.297750e-02 8.710109e-02 1.552396e-01 4.068990e-01 -3.285419e-02 -1.553988e-01 6.053501e-02 -2.071234e-02 -5.018981e-03 -1.311720e-01 -1.389572e-01 1.462037e-01 -2.563838e-01
<VARIANCE> 39
 1.988091e+01 4.266808e+01 2.498141e+01 7.109792e+01 7.654308e+01 5.539743e+01 7.345636e+01 8.144746e+01 1.106949e+02 6.891778e+01 6.811291e+01 1.138818e+02 4.206968e+01 4.700388e-01 1.151396e+00 1.109156e+00 2.601480e+00 1.936025e+00 2.426269e+00 2.390015e+00 2.541595e+00 2.689627e+00 2.406239e+00 2.409973e+00 2.296179e+00 9.873248e-01 1.176324e-01 1.758180e-01 2.048430e-01 3.453619e-01 3.346797e-01 3.875189e-01 4.701407e-01 5.041440e-01 4.736004e-01 4.638510e-01 4.481332e-01 4.513664e-01 1.304850e-01
<GCONST> 1.167898e+02
<STATE> 4
<MEAN> 39
 9.275448e-01 -2.463035e+00 -4.830692e+00 -8.535051e+00 -7.104436e+00 1.465759e+00 -9.265207e+00 -5.551800e+00 -4.120199e+00 1.233930e+00 4.263222e-01 -4.233267e+00 6.098215e+01 -3.009651e-01 3.910206e-01 3.743306e-01 1.320809e+00 1.045873e-02 -4.009066e-01 3.701069e-01 -1.153599e-01 3.498347e-02 -3.082131e-01 -4.049543e-01 3.266231e-01 -1.083100e+00 -1.374319e-01 1.124833e-02 6.462248e-02 -2.364177e-02 4.325411e-04 -7.305582e-02 4.108807e-02 1.074757e-01 -6.040072e-02 2.275958e-02 2.261819e-02 3.980310e-02 9.000258e-03
<VARIANCE> 39
 6.229252e+01 8.527301e+01 3.522480e+01 8.094809e+01 9.899512e+01 8.243259e+01 6.481705e+01 7.678899e+01 6.599577e+01 6.332907e+01 4.003469e+01 6.183868e+01 1.192291e+02 1.035830e+00 2.148547e+00 1.796555e+00 3.588692e+00 2.609445e+00 3.172750e+00 3.216959e+00 3.534781e+00 3.075222e+00 3.120894e+00 2.881342e+00 2.688768e+00 1.320780e+00 1.602200e-01 3.093778e-01 2.764635e-01 4.498369e-01 4.392301e-01 5.071487e-01 5.170659e-01 6.197951e-01 5.623721e-01 5.297174e-01 4.815857e-01 4.645746e-01 1.728738e-01
<GCONST> 1.262669e+02
<TRANSP> 5
 0.000000e+00 1.000000e+00 0.000000e+00 0.000000e+00 0.000000e+00
 0.000000e+00 6.184183e-01 3.815817e-01 0.000000e+00 0.000000e+00
 0.000000e+00 0.000000e+00 7.827879e-01 2.172121e-01 0.000000e+00
 0.000000e+00 0.000000e+00 0.000000e+00 5.887935e-01 4.112065e-01
 0.000000e+00 0.000000e+00 0.000000e+00 0.000000e+00 0.000000e+00
<ENDHMM>
~h "p"
<BEGINHMM>
<NUMSTATES> 5
<STATE> 2
<MEAN> 39
 -5.336055e+00 1.999734e+00 -1.066557e+00 8.998479e-01 -2.112471e+00 -1.530159e+00 -4.215867e+00 -2.820471e+00 -1.742641e+00 -2.983138e-01 -2.585393e+00 -3.148695e+00 5.423666e+01 -8.507131e-01 -2.025265e-01 -2.934019e-01 -4.486196e-02 -1.361144e-01 -3.165790e-01 1.045552e-01 4.978045e-01 5.858242e-02 2.644780e-02 5.948477e-01 2.926676e-01 5.288284e-02 3.218979e-01 -4.475848e-01 -1.669764e-01 -6.769731e-01 -5.377695e-01 -4.060437e-01 -5.075586e-01 -1.994612e-01 -2.058378e-01 6.845341e-02 2.170596e-01 -1.155100e-01 1.028646e+00
<VARIANCE> 39
 3.707058e+01 3.142409e+01 3.673557e+01 3.432541e+01 3.533119e+01 4.209949e+01 3.579611e+01 4.104886e+01 5.036017e+01 3.238226e+01 3.845097e+01 2.874308e+01 6.281130e+01 1.841697e+00 2.326700e+00 2.813464e+00 3.899312e+00 3.253839e+00 3.745875e+00 3.412726e+00 3.763858e+00 3.384026e+00 3.335939e+00 3.414937e+00 2.705466e+00 3.487014e+00 4.284190e-01 4.863237e-01 5.550069e-01 6.810682e-01 6.182304e-01 7.276095e-01 7.713203e-01 8.024297e-01 7.856137e-01 6.668106e-01 6.540944e-01 8.314933e-01 4.051367e-01
<GCONST> 1.278403e+02
<STATE> 3
<MEAN> 39
 -6.979458e+00 -2.952387e-01 -2.626296e+00 -1.040521e+00 -4.201610e+00 -5.527420e+00 -8.456341e+00 -3.621484e+00 -4.439300e+00 -3.084167e+00 -2.227810e+00 -3.583480e-01 5.461494e+01 6.261992e-01 -1.122538e+00 -7.147743e-01 -1.739402e+00 -9.843712e-01 -9.464733e-01 -1.145484e+00 -1.251591e-01 -5.998538e-01 4.353628e-01 7.682277e-01 3.067152e-01 2.607006e+00 6.063861e-01 -2.120627e-01 3.119966e-01 -7.090611e-01 -1.206171e-01 1.968534e-01 -1.664531e-01 -9.965681e-02 -1.161089e-01 5.577705e-01 -2.282160e-01 -2.245250e-01 7.035067e-01
<VARIANCE> 39
 3.620795e+01 3.693634e+01 4.919348e+01 6.511273e+01 4.910316e+01 6.019855e+01 7.078933e+01 6.449121e+01 6.734460e+01 6.817430e+01 5.846196e+01 5.247969e+01 8.297751e+01 4.099552e+00 4.868582e+00 7.223577e+00 1.246050e+01 7.828951e+00 7.490010e+00 7.032076e+00 7.557956e+00 7.284068e+00 9.005770e+00 6.862667e+00 7.755851e+00 6.290276e+00 5.222203e-01 8.497477e-01 1.057847e+00 1.532006e+00 1.327132e+00 1.330971e+00 1.342556e+00 1.409514e+00 1.327515e+00 1.688563e+00 1.227134e+00 1.184012e+00 6.388949e-01
<GCONST> 1.513897e+02
<STATE> 4
<MEAN> 39
 -1.745321e-01 -4.417026e+00 -1.997077e+00 -6.468200e+00 -8.822784e+00 -2.065182e+00 -1.009326e+01 -3.662921e+00 -5.841558e+00 3.451271e-01 1.352477e+00 -4.862648e+00 6.147847e+01 8.498324e-01 -7.506240e-01 1.574036e-01 -1.224241e+00 -6.721259e-01 -9.858334e-02 -6.059765e-01 -6.188132e-02 -1.873270e-01 5.576705e-01 1.418252e-01 -5.239753e-01 1.627748e+00 -7.667566e-02 1.335893e-01 1.729521e-01 2.422993e-01 1.026327e-01 6.082657e-02 6.863335e-02 3.957936e-02 5.756307e-02 -8.652195e-02 -1.984010e-01 -3.737979e-02 -2.363141e-01
<VARIANCE> 39
 6.887631e+01 6.993286e+01 1.058195e+02 9.466648e+01 8.365390e+01 8.184020e+01 6.433826e+01 7.609345e+01 7.386047e+01 4.088741e+01 4.864379e+01 5.232331e+01 8.208647e+01 4.465659e+00 6.568577e+00 6.325434e+00 8.923285e+00 7.308392e+00 6.024083e+00 6.354363e+00 7.070074e+00 6.803020e+00 5.496668e+00 4.456264e+00 5.026811e+00 6.770027e+00 6.569903e-01 1.012195e+00 8.633869e-01 1.476010e+00 9.722533e-01 1.003349e+00 8.918465e-01 1.148126e+00 9.824209e-01 7.824501e-01 7.779333e-01 6.908380e-01 7.797523e-01
<GCONST> 1.493049e+02
<TRANSP> 5
 0.000000e+00 1.000000e+00 0.000000e+00 0.000000e+00 0.000000e+00
 0.000000e+00 5.878522e-01 4.121478e-01 0.000000e+00 0.000000e+00
 0.000000e+00 0.000000e+00 4.057958e-01 5.942042e-01 0.000000e+00
 0.000000e+00 0.000000e+00 0.000000e+00 6.130313e-01 3.869687e-01
 0.000000e+00 0.000000e+00 0.000000e+00 0.000000e+00 0.000000e+00
<ENDHMM>
~h "r"
<BEGINHMM>
<NUMSTATES> 5
<STATE> 2
<MEAN> 39
 -3.037606e+00 -4.719358e+00 -1.317821e+00 -6.176257e+00 -5.283196e+00 -1.023179e+01 -1.108622e+01 -6.060424e-01 -2.489680e+00 2.422668e+00 -5.187021e+00 -7.982505e-01 6.699954e+01 -1.983698e-01 4.625778e-01 5.539331e-01 7.023808e-01 2.268413e-01 -1.380343e-01 -4.835109e-02 -1.977454e-01 -2.103946e-01 -1.107775e-01 -5.969422e-02 5.073868e-01 -8.537562e-01 -5.584768e-02 4.066129e-02 3.737511e-02 -6.042287e-02 -1.578623e-01 1.862539e-01 9.489512e-02 -6.719191e-03 -1.683903e-01 -1.005051e-01 1.592374e-01 -1.865220e-01 -6.387518e-02
<VARIANCE> 39
 3.363737e+01 3.672013e+01 4.070224e+01 6.606342e+01 8.097313e+01 7.200168e+01 6.221891e+01 7.075333e+01 9.987103e+01 5.597300e+01 8.169544e+01 9.400216e+01 9.126617e+01 1.351528e+00 2.186217e+00 2.383301e+00 2.882525e+00 3.600806e+00 4.936220e+00 3.974467e+00 4.290196e+00 3.743293e+00 3.232937e+00 3.050991e+00 3.164365e+00 1.466611e+00 2.919815e-01 3.804754e-01 3.522111e-01 5.490499e-01 5.989353e-01 6.790459e-01 7.063014e-01 7.628196e-01 6.753139e-01 5.598491e-01 5.959028e-01 6.186627e-01 3.069634e-01
<GCONST> 1.312007e+02
<STATE> 3
<MEAN> 39
 -3.753138e+00 -2.824872e+00 2.341894e-01 -3.431208e+00 -5.591433e+00 -9.993026e+00 -1.045543e+01 -1.165670e+00 -3.421563e+00 1.818504e+00 -4.159875e+00 -1.095983e+00 6.419920e+01 -2.024658e-01 3.125595e-01 5.185127e-01 3.748832e-01 -3.746202e-01 3.575779e-01 8.487429e-02 -3.875371e-02 -4.183256e-01 -2.053865e-01 3.026767e-01 -2.149904e-01 -7.053309e-01 3.182842e-02 -1.358753e-01 -9.785285e-02 -2.844771e-01 -2.095670e-01 1.052366e-01 1.460277e-01 1.685460e-02 -6.469288e-02 -9.871848e-03 1.267683e-01 -2.789156e-01 2.160055e-01
<VARIANCE> 39
 3.991685e+01 3.939965e+01 5.086913e+01 6.017792e+01 5.895719e+01 8.006966e+01 6.088425e+01 5.661071e+01 1.091333e+02 6.377638e+01 7.501467e+01 6.153046e+01 9.667339e+01 1.718938e+00 2.652135e+00 2.538881e+00 2.969324e+00 3.850099e+00 5.066535e+00 3.385136e+00 4.251348e+00 4.528527e+00 3.539053e+00 3.627379e+00 4.190477e+00 2.177915e+00 3.579823e-01 4.186798e-01 5.115970e-01 6.382317e-01 7.098553e-01 1.137737e+00 8.643878e-01 9.285827e-01 9.241372e-01 7.549748e-01 8.056679e-01 8.147181e-01 3.783568e-01
<GCONST> 1.357706e+02
<STATE> 4
<MEAN> 39
 1.175485e+00 -4.984476e+00 1.637062e+00 -2.897622e+00 -1.026694e+01 -2.839792e+00 -1.232353e+01 -1.871367e+00 -5.204368e+00 -7.649670e-01 8.461894e-01 -5.537909e+00 6.055363e+01 -2.881720e-02 -9.379908e-03 8.215886e-02 -1.070174e-01 -1.589996e-01 2.542787e-02 1.836793e-02 3.754545e-03 -7.812637e-02 -4.681921e-02 5.472131e-02 -1.125780e-01 2.998632e-02 5.377172e-03 -1.299350e-02 -1.497215e-02 -5.659718e-02 -6.730774e-03 -2.379876e-02 4.559430e-02 -1.861720e-02 9.661866e-04 1.688296e-02 -6.140763e-03 -1.106919e-02 5.653229e-02
<VARIANCE> 39
 7.873027e+01 9.146364e+01 1.181703e+02 8.333827e+01 8.571014e+01 9.420014e+01 7.476298e+01 8.749687e+01 8.337167e+01 4.791389e+01 5.854104e+01 4.667315e+01 8.542961e+01 3.977532e+00 6.695722e+00 4.868990e+00 5.954099e+00 5.656887e+00 4.658990e+00 5.128093e+00 6.065459e+00 4.850792e+00 3.593943e+00 3.870425e+00 3.054199e+00 4.705105e+00 6.250998e-01 1.135073e+00 7.590960e-01 1.052879e+00 1.037888e+00 9.175715e-01 9.191063e-01 1.052780e+00 8.271332e-01 6.739080e-01 7.259580e-01 5.792330e-01 7.365063e-01
<GCONST> 1.460193e+02
<TRANSP> 5
 0.000000e+00 1.000000e+00 0.000000e+00 0.000000e+00 0.000000e+00
 0.000000e+00 3.839470e-01 6.160529e-01 0.000000e+00 0.000000e+00
 0.000000e+00 0.000000e+00 3.192176e-01 6.807824e-01 0.000000e+00
 0.000000e+00 0.000000e+00 0.000000e+00 7.532363e-01 2.467637e-01
 0.000000e+00 0.000000e+00 0.000000e+00 0.000000e+00 0.000000e+00
<ENDHMM>
~h "s"
<BEGINHMM>
<NUMSTATES> 5
<STATE> 2
<MEAN> 39
 -1.192057e+01 5.605014e+00 4.132577e-01 -2.570292e+00 -1.735503e+00 -9.059592e+00 -7.078916e+00 -2.099253e+00 -3.925195e+00 -2.395760e+00 -4.737351e+00 -6.458437e-01 6.421942e+01 -3.737794e+00 2.496745e+00 -9.935304e-01 5.425450e-01 1.509923e+00 1.489508e-01 8.793446e-01 7.412816e-01 1.987369e-01 -6.851869e-01 6.338368e-01 4.974860e-01 -7.099105e-02 -3.044893e-01 -2.556266e-01 -1.369432e-01 -2.266821e-01 -2.327070e-01 2.177501e-01 -3.459744e-02 2.492257e-01 -6.830584e-02 1.660884e-01 2.737563e-01 -1.954024e-02 1.224943e-01
<VARIANCE> 39
 6.452654e+01 7.200967e+01 6.908414e+01 4.410587e+01 7.161906e+01 6.472131e+01 7.230931e+01 6.251318e+01 7.817657e+01 4.943335e+01 6.613911e+01 6.260200e+01 9.229719e+01 3.455977e+00 4.237922e+00 4.384368e+00 4.060585e+00 4.728485e+00 6.041424e+00 7.040132e+00 6.370469e+00 4.770239e+00 4.906757e+00 3.957583e+00 3.809003e+00 1.686941e+00 7.850798e-01 8.010312e-01 5.914055e-01 6.184913e-01 6.942739e-01 8.880024e-01 9.791082e-01 9.231261e-01 8.201782e-01 6.903718e-01 6.925700e-01 6.131601e-01 2.127641e-01
<GCONST> 1.401948e+02
<STATE> 3
<MEAN> 39
 -2.397420e+01 8.936400e+00 -3.030524e+00 -1.870771e+00 2.730671e-02 -6.811719e+00 -2.891866e+00 2.737875e+00 -3.590458e+00 -1.778950e+00 -3.765276e-02 4.678376e-02 6.597224e+01 -7.419594e-01 -3.855891e-01 -1.993762e-01 9.273374e-03 2.889173e-03 2.004442e-01 3.812971e-01 6.096951e-01 3.350736e-01 8.759628e-02 3.183503e-01 2.590400e-01 -3.765145e-01 1.060521e+00 -5.247623e-01 2.557490e-01 -7.304069e-02 -3.540324e-01 -2.133473e-01 -3.371058e-01 -3.173968e-01 -8.449184e-03 3.478544e-02 -1.934949e-01 -1.761167e-01 -6.232043e-02
<VARIANCE> 39
 3.462273e+01 3.456174e+01 4.751061e+01 6.224081e+01 3.916780e+01 4.738531e+01 5.752423e+01 4.786060e+01 9.061410e+01 4.603457e+01 4.374006e+01 3.979593e+01 5.417196e+01 4.485175e+00 2.641882e+00 2.742850e+00 2.291434e+00 2.330307e+00 3.077491e+00 3.008600e+00 3.198767e+00 3.022121e+00 2.739772e+00 2.570913e+00 2.179382e+00 9.501505e-01 4.515610e-01 4.570968e-01 5.180132e-01 4.947807e-01 5.230317e-01 6.810690e-01 7.197356e-01 7.581888e-01 6.514640e-01 6.082639e-01 5.261921e-01 5.088994e-01 1.876088e-01
<GCONST> 1.258302e+02
<STATE> 4
<MEAN> 39
 -1.726351e+01 4.700075e+00 -2.392815e+00 -3.006839e+00 -1.468074e+00 -9.093496e+00 -6.697091e+00 6.962138e-01 -2.606675e+00 -3.043929e+00 -2.435749e+00 4.050659e-01 6.250245e+01 3.456118e+00 -1.446949e+00 -5.905915e-02 -5.578611e-01 -1.198971e+00 -7.131902e-01 -1.187553e+00 -1.386211e+00 9.544728e-02 3.004456e-01 -6.698548e-01 -7.830520e-01 6.698388e-01 3.309001e-01 -7.711422e-02 5.294657e-02 -2.196620e-01 -1.416886e-01 1.224392e-01 -9.826748e-02 -1.959499e-01 -8.679262e-02 1.480151e-01 -1.129856e-02 -1.790352e-01 3.603303e-01
<VARIANCE> 39
 8.638519e+01 5.923067e+01 4.835124e+01 5.232847e+01 5.479816e+01 6.500819e+01 8.252700e+01 6.748755e+01 7.426955e+01 5.630693e+01 4.941846e+01 6.399920e+01 8.137561e+01 4.948098e+00 4.557708e+00 4.342906e+00 4.719489e+00 4.865231e+00 5.797147e+00 6.573557e+00 6.655482e+00 5.237749e+00 4.719893e+00 3.985092e+00 4.879371e+00 3.595489e+00 1.182363e+00 6.703504e-01 5.849258e-01 6.816472e-01 7.628653e-01 9.584131e-01 1.125456e+00 1.112741e+00 8.865147e-01 8.734102e-01 7.597213e-01 7.536893e-01 4.431143e-01
<GCONST> 1.434951e+02
<TRANSP> 5
 0.000000e+00 1.000000e+00 0.000000e+00 0.000000e+00 0.000000e+00
 0.000000e+00 6.061034e-01 3.938965e-01 0.000000e+00 0.000000e+00
 0.000000e+00 0.000000e+00 7.708626e-01 2.291373e-01 0.000000e+00
 0.000000e+00 0.000000e+00 0.000000e+00 6.402478e-01 3.597523e-01
 0.000000e+00 0.000000e+00 0.000000e+00 0.000000e+00 0.000000e+00
<ENDHMM>
~h "t"
<BEGINHMM>
<NUMSTATES> 5
<STATE> 2
<MEAN> 39
 -6.214171e+00 2.937812e+00 5.674693e-01 1.535280e+00 -3.486419e+00 -4.103681e+00 -5.656825e+00 -3.334121e+00 -1.968539e+00 -5.043679e-01 -2.545291e+00 -2.312565e+00 5.394185e+01 -1.233027e+00 -3.715386e-01 -5.940683e-01 -1.921477e-01 4.781078e-01 1.772625e-01 8.125466e-01 7.235346e-01 2.726302e-01 -2.086759e-01 5.467211e-01 4.378299e-01 -1.249673e-01 -1.475140e-01 -3.159312e-01 -1.280249e-01 -6.010035e-01 -4.227706e-01 -5.561848e-01 -2.948273e-01 2.281932e-02 -6.301679e-02 -1.543449e-03 1.161795e-01 -1.709014e-02 1.077896e+00
<VARIANCE> 39
 3.534459e+01 3.049357e+01 3.739484e+01 3.081302e+01 3.543750e+01 4.374358e+01 4.020821e+01 4.025085e+01 4.826058e+01 3.284441e+01 4.316587e+01 2.693436e+01 6.941710e+01 2.365634e+00 2.272661e+00 2.916220e+00 3.479879e+00 3.326800e+00 4.350052e+00 3.554477e+00 3.550049e+00 4.012450e+00 3.687046e+00 3.816920e+00 2.489344e+00 3.889709e+00 3.832054e-01 4.392972e-01 4.967861e-01 5.781792e-01 6.186934e-01 7.770327e-01 8.258200e-01 8.103912e-01 8.300402e-01 6.761712e-01 7.685937e-01 6.646513e-01 5.048210e-01
<GCONST> 1.285262e+02
<STATE> 3
<MEAN> 39
 -1.151581e+01 1.066567e+00 -1.973006e+00 -6.015613e-01 -3.018314e+00 -7.193263e+00 -5.609018e+00 -2.494852e+00 -2.689476e+00 -3.443588e+00 -1.856951e+00 2.156692e-01 5.560262e+01 -8.162767e-01 -7.821781e-01 -9.518080e-01 -1.679249e+00 -4.562232e-01 -1.741471e+00 -8.623137e-01 3.505694e-01 2.656038e-01 -2.486910e-01 4.667954e-01 5.164917e-01 3.060901e+00 8.350580e-01 -1.059222e-01 3.193780e-01 -5.262396e-01 -4.521328e-01 -6.844112e-02 -6.490834e-01 -2.049536e-01 -1.681637e-01 5.474330e-01 -2.418747e-01 -2.993793e-01 6.681644e-01
<VARIANCE> 39
 3.854267e+01 3.431701e+01 3.925141e+01 4.268674e+01 4.424218e+01 7.209777e+01 7.222223e+01 6.165902e+01 6.567826e+01 5.671813e+01 5.534857e+01 4.570577e+01 1.124006e+02 4.398165e+00 4.156833e+00 5.713666e+00 6.239210e+00 6.649618e+00 7.281826e+00 7.349951e+00 6.756520e+00 8.075933e+00 7.267078e+00 7.066406e+00 5.313184e+00 5.916746e+00 6.628245e-01 6.551434e-01 8.366583e-01 9.561383e-01 1.096534e+00 1.506755e+00 1.427338e+00 1.294587e+00 1.183601e+00 1.676943e+00 1.131987e+00 8.674965e-01 7.493709e-01
<GCONST> 1.477164e+02
<STATE> 4
<MEAN> 39
 -9.488748e+00 -1.385986e+00 -3.373856e+00 -6.132539e+00 -5.773911e+00 -9.732694e+00 -8.752621e+00 -2.228545e+00 -2.302595e+00 -7.997794e-01 -1.069768e+00 -1.693040e+00 6.442769e+01 1.833479e+00 -5.874818e-01 1.234967e-01 -1.790263e+00 -1.288994e+00 -4.706931e-01 -1.624517e+00 -4.699300e-01 -1.130717e-01 9.040056e-01 -3.022747e-04 -8.935572e-01 2.551188e+00 6.608804e-01 1.941749e-01 4.075322e-01 3.197760e-01 -8.112721e-02 6.591836e-01 -3.190140e-02 -2.570430e-01 -2.327369e-01 1.190955e-01 -1.014960e-01 -2.322369e-01 -6.503109e-01
<VARIANCE> 39
 6.220731e+01 4.569080e+01 5.303040e+01 5.486980e+01 5.087884e+01 7.190700e+01 7.489347e+01 5.570158e+01 8.510249e+01 4.136420e+01 5.444226e+01 5.244608e+01 1.049350e+02 5.047030e+00 4.634095e+00 5.748138e+00 5.452526e+00 6.281725e+00 7.513386e+00 7.633159e+00 7.667827e+00 6.142944e+00 6.456558e+00 5.409459e+00 4.821024e+00 4.960355e+00 9.785105e-01 7.063321e-01 7.608625e-01 9.521860e-01 8.824999e-01 1.326541e+00 1.146665e+00 1.034022e+00 1.094576e+00 8.771164e-01 8.621640e-01 6.790460e-01 7.133695e-01
<GCONST> 1.467092e+02
<TRANSP> 5
 0.000000e+00 1.000000e+00 0.000000e+00 0.000000e+00 0.000000e+00
 0.000000e+00 5.880799e-01 4.119202e-01 0.000000e+00 0.000000e+00
 0.000000e+00 0.000000e+00 3.774959e-01 6.225041e-01 0.000000e+00
 0.000000e+00 0.000000e+00 0.000000e+00 4.232764e-01 5.767236e-01
 0.000000e+00 0.000000e+00 0.000000e+00 0.000000e+00 0.000000e+00
<ENDHMM>
~h "u"
<BEGINHMM>
<NUMSTATES> 5
<STATE> 2
<MEAN> 39
 3.297723e-01 1.651966e+00 -3.335401e+00 -9.583329e+00 -9.572882e+00 -1.855117e+00 -1.421743e+01 -7.628339e+00 -7.400501e+00 1.246730e+00 1.338729e+00 -2.689752e+00 6.486517e+01 1.138987e+00 4.540727e-01 -2.319739e-01 -1.397869e+00 -7.084333e-01 1.285385e+00 -8.374166e-01 -8.734989e-01 -1.066751e+00 3.788997e-01 8.532177e-01 3.445446e-04 2.943897e-01 -4.165018e-01 -4.779791e-02 2.503704e-01 5.529051e-01 3.891468e-01 -3.842233e-02 4.645635e-01 2.838798e-01 1.328656e-01 -1.413808e-01 -2.910559e-01 8.658348e-03 -3.915564e-01
<VARIANCE> 39
 3.573800e+01 4.603280e+01 3.526551e+01 7.286443e+01 5.339700e+01 5.977208e+01 9.186924e+01 8.566554e+01 9.531824e+01 7.031506e+01 6.255426e+01 5.726543e+01 8.535427e+01 2.194096e+00 2.332241e+00 3.007822e+00 4.895735e+00 4.413297e+00 5.432523e+00 5.429372e+00 5.941291e+00 4.980912e+00 5.368625e+00 3.836606e+00 3.456611e+00 2.328956e+00 3.279397e-01 4.136945e-01 4.704781e-01 8.403835e-01 7.048393e-01 8.170113e-01 1.055681e+00 1.126360e+00 9.065459e-01 9.601763e-01 7.338981e-01 7.040836e-01 3.036022e-01
<GCONST> 1.378083e+02
<STATE> 3
<MEAN> 39
 1.432531e+00 3.333301e+00 -4.217037e+00 -1.333834e+01 -8.501445e+00 2.139500e+00 -1.501419e+01 -6.823580e+00 -1.261306e+01 2.430820e+00 1.700865e+00 -4.117527e-01 6.403452e+01 -9.272981e-02 -7.622293e-02 2.814405e-01 7.948389e-01 2.858070e-01 -1.270452e-01 3.031841e-01 -1.149807e-02 3.572937e-01 -4.809826e-02 -3.249545e-01 -1.671652e-01 -5.117574e-01 -2.465491e-01 -1.010784e-01 1.884933e-01 6.010344e-01 1.791106e-01 -3.633813e-01 2.561482e-01 1.060161e-01 3.642544e-01 -1.614114e-01 -2.772533e-01 -5.911048e-02 -1.959819e-01
<VARIANCE> 39
 2.473247e+01 4.993982e+01 2.884204e+01 6.821191e+01 5.432264e+01 6.392216e+01 9.206212e+01 8.640070e+01 1.143527e+02 1.015188e+02 8.020723e+01 7.124640e+01 5.557710e+01 6.966739e-01 2.027414e+00 1.661958e+00 3.795120e+00 2.985563e+00 3.477597e+00 4.552169e+00 4.142443e+00 4.945391e+00 4.870627e+00 3.797500e+00 3.361044e+00 1.868792e+00 1.659748e-01 2.548779e-01 3.316255e-01 6.006106e-01 5.416809e-01 7.024823e-01 7.389799e-01 9.214799e-01 8.473523e-01 8.987751e-01 7.476590e-01 6.337492e-01 1.787573e-01
<GCONST> 1.304924e+02
<STATE> 4
<MEAN> 39
 3.896767e-01 5.064480e-01 8.952184e-01 -3.353585e+00 -9.142763e+00 -1.848802e+00 -1.327363e+01 -5.992265e+00 -7.821349e+00 -7.378073e-01 -2.915679e-01 -3.011234e+00 5.954161e+01 -6.053059e-01 1.306241e-02 6.673673e-01 1.391465e+00 5.317071e-01 -6.405028e-01 6.117710e-01 2.577430e-01 6.054525e-01 -4.603146e-01 -6.963389e-01 -3.702390e-02 -7.710874e-01 -1.791744e-01 6.188444e-02 -6.104586e-02 -1.567456e-01 1.086117e-01 6.076413e-02 9.779170e-02 1.573589e-01 -1.020996e-01 6.525645e-03 1.287620e-03 1.066642e-01 1.045743e-02
<VARIANCE> 39
 4.282955e+01 7.775469e+01 8.665196e+01 7.615546e+01 8.194387e+01 7.625076e+01 9.752187e+01 9.343909e+01 8.345879e+01 8.196801e+01 6.663058e+01 5.581432e+01 9.533395e+01 1.613435e+00 4.162821e+00 4.333853e+00 5.909818e+00 5.408436e+00 5.695044e+00 6.136059e+00 6.716758e+00 5.669247e+00 5.186646e+00 4.882376e+00 3.799356e+00 2.948960e+00 2.961155e-01 7.302858e-01 7.332007e-01 9.696786e-01 9.909384e-01 1.004345e+00 1.265766e+00 1.239705e+00 1.039839e+00 1.067748e+00 8.757839e-01 7.446731e-01 4.874160e-01
<GCONST> 1.452583e+02
<TRANSP> 5
 0.000000e+00 1.000000e+00 0.000000e+00 0.000000e+00 0.000000e+00
 0.000000e+00 3.990673e-01 6.009327e-01 0.000000e+00 0.000000e+00
 0.000000e+00 0.000000e+00 6.819587e-01 3.180413e-01 0.000000e+00
 0.000000e+00 0.000000e+00 0.000000e+00 5.702805e-01 4.297195e-01
 0.000000e+00 0.000000e+00 0.000000e+00 0.000000e+00 0.000000e+00
<ENDHMM>
~h "v"
<BEGINHMM>
<NUMSTATES> 5
<STATE> 2
<MEAN> 39
 -1.307181e+01 1.568884e+00 2.717349e+00 5.202365e+00 -4.163508e+00 -6.766106e+00 -8.098455e+00 -4.928721e-01 -3.183839e+00 1.457051e+00 -6.346047e-01 -4.003968e-01 6.047863e+01 -8.564678e-01 -4.694116e-01 -1.251644e+00 -4.902517e-01 1.145446e+00 1.385197e+00 5.062223e-01 5.791228e-01 8.245626e-01 4.408824e-01 1.797801e-01 2.139309e-02 -2.611993e-01 6.773884e-01 -3.055690e-01 -1.429996e-01 -6.894454e-01 -5.321733e-01 -1.512128e-01 -5.998933e-02 -3.064248e-01 -1.954999e-01 2.517691e-02 2.026311e-01 -3.552352e-01 4.475211e-01
<VARIANCE> 39
 3.860200e+01 2.041627e+01 2.330804e+01 2.550265e+01 4.055569e+01 3.549543e+01 2.902572e+01 3.629982e+01 4.790609e+01 3.687289e+01 4.613588e+01 1.978821e+01 8.175024e+01 2.373686e+00 1.551710e+00 2.110032e+00 1.944077e+00 3.460603e+00 3.802011e+00 4.215901e+00 3.331195e+00 2.833747e+00 2.786503e+00 3.352865e+00 2.293527e+00 1.226465e+00 4.812928e-01 4.388327e-01 6.539472e-01 5.306818e-01 5.966996e-01 7.025756e-01 1.065448e+00 6.724179e-01 6.595079e-01 5.889421e-01 7.016227e-01 5.329677e-01 2.581193e-01
<GCONST> 1.228087e+02
<STATE> 3
<MEAN> 39
 -8.440454e+00 -1.317186e+00 -3.714577e+00 -1.512151e+00 -4.290515e+00 -2.338342e+00 -6.331854e+00 -2.444551e+00 -2.383998e+00 1.630566e+00 3.444988e-01 -3.612434e+00 6.032843e+01 3.324422e+00 -1.564644e+00 -2.762099e+00 -3.866922e+00 -6.804304e-01 7.878262e-01 -1.003928e+00 -1.638005e+00 2.739502e-01 4.370356e-01 5.626386e-01 -2.128177e+00 2.108548e+00 2.537104e-01 -1.209662e-01 2.214332e-01 -3.059074e-01 -3.117483e-01 -5.266259e-01 -5.239485e-01 -3.548469e-02 -1.434422e-01 2.868940e-01 -1.427882e-01 -3.226508e-01 6.739362e-01
<VARIANCE> 39
 6.679731e+01 2.523368e+01 4.001200e+01 6.225515e+01 3.952854e+01 2.885980e+01 2.835927e+01 6.890426e+01 4.880230e+01 4.174173e+01 4.421724e+01 3.962519e+01 1.017737e+02 3.337919e+00 3.272485e+00 4.743780e+00 5.518600e+00 4.309715e+00 4.186491e+00 4.491686e+00 4.269339e+00 3.199975e+00 4.447956e+00 3.827196e+00 5.099859e+00 2.413281e+00 8.708801e-01 4.789282e-01 7.209821e-01 1.053173e+00 5.204045e-01 4.509297e-01 9.284104e-01 9.582932e-01 6.582734e-01 6.972101e-01 8.446187e-01 5.588291e-01 3.598859e-01
<GCONST> 1.339976e+02
<STATE> 4
<MEAN> 39
 -6.922586e+00 1.408173e+00 2.977697e+00 -5.368553e+00 -3.507917e+00 -8.068514e+00 -1.430040e+01 -3.341747e+00 -8.244771e+00 6.542887e+00 -1.201292e+01 6.547938e+00 6.182584e+01 3.726568e-01 -3.460978e-01 -1.362626e-01 -7.155554e-01 1.576045e-01 -2.289258e-02 -1.494819e-01 4.284838e-02 7.087335e-02 4.103675e-01 -1.641271e-01 -1.274234e-01 6.154506e-01 -1.398205e-01 6.253459e-02 1.486108e-01 1.481461e-01 2.981501e-02 -5.470036e-02 1.229859e-01 1.273187e-01 5.560272e-03 -1.095243e-02 -3.947415e-02 4.615706e-02 -6.058966e-02
<VARIANCE> 39
 9.158928e+01 1.024312e+02 9.468543e+01 1.194558e+02 8.370349e+01 1.054500e+02 6.321135e+01 8.021458e+01 8.887425e+01 1.238819e+02 8.860159e+01 1.046388e+02 7.667136e+01 5.794408e+00 6.052125e+00 4.998294e+00 1.146189e+01 5.871897e+00 7.241362e+00 6.536330e+00 8.295769e+00 6.899030e+00 1.536498e+01 6.151530e+00 7.510382e+00 6.376585e+00 1.044945e+00 8.996013e-01 9.499435e-01 1.843506e+00 9.950784e-01 1.490710e+00 1.336148e+00 1.628851e+00 1.225004e+00 2.996755e+00 1.129344e+00 1.163887e+00 8.001745e-01
<GCONST> 1.592737e+02
<TRANSP> 5
 0.000000e+00 1.000000e+00 0.000000e+00 0.000000e+00 0.000000e+00
 0.000000e+00 7.359117e-01 2.640883e-01 0.000000e+00 0.000000e+00
 0.000000e+00 0.000000e+00 5.605242e-01 4.394757e-01 0.000000e+00
 0.000000e+00 0.000000e+00 0.000000e+00 8.777584e-01 1.222415e-01
 0.000000e+00 0.000000e+00 0.000000e+00 0.000000e+00 0.000000e+00
<ENDHMM>
~h "w"
<BEGINHMM>
<NUMSTATES> 5
<STATE> 2
<MEAN> 39
 -2.565316e+00 1.621098e+00 -3.464206e+00 -5.722917e+00 -6.496071e+00 -4.340466e+00 -9.521269e+00 -7.070392e+00 -6.385259e+00 8.043593e-01 -8.551617e-01 -2.352840e+00 5.991262e+01 1.865693e+00 9.235485e-01 -2.873561e-01 -1.234965e+00 -8.440540e-01 3.377326e-01 -4.193037e-01 -1.511791e+00 -8.483145e-01 2.217442e-01 5.899529e-01 6.047086e-01 4.836352e-01 -1.636572e-01 -2.111195e-01 9.787781e-02 -3.142221e-01 -2.755255e-01 1.094570e-01 1.739951e-01 3.954791e-01 -2.117787e-02 -7.153706e-02 6.164683e-02 1.163914e-01 2.912155e-01
<VARIANCE> 39
 5.634255e+01 4.360442e+01 4.264368e+01 1.362829e+02 5.027406e+01 7.613305e+01 7.574123e+01 5.909645e+01 5.152584e+01 6.704113e+01 5.929146e+01 4.681390e+01 1.591973e+02 3.095965e+00 2.179980e+00 2.462711e+00 3.555168e+00 3.147468e+00 3.527248e+00 4.345481e+00 2.580300e+00 2.565082e+00 3.404537e+00 3.489015e+00 3.580287e+00 3.300582e+00 5.317103e-01 4.978421e-01 4.811377e-01 6.090044e-01 5.455191e-01 5.035840e-01 4.546216e-01 6.908364e-01 6.707842e-01 7.444389e-01 5.250046e-01 6.261650e-01 2.659976e-01
<GCONST> 1.326055e+02
<STATE> 3
<MEAN> 39
 1.682851e+00 2.600073e+00 -4.431217e+00 -1.598620e+01 -7.908257e+00 -1.049435e+00 -1.160130e+01 -8.256975e+00 -7.776796e+00 2.862641e+00 1.600574e+00 1.052815e+00 6.433519e+01 5.424729e-01 -3.477519e-01 -4.146067e-01 -1.240063e+00 -6.303116e-01 8.416291e-01 -8.899552e-02 -8.904849e-02 -2.980835e-01 6.241326e-01 1.069243e+00 1.286290e-01 6.294197e-01 -5.615992e-01 -4.558387e-01 1.799297e-01 4.916765e-01 2.606516e-01 -1.406086e-01 2.131451e-01 5.100662e-01 2.698386e-01 -2.509004e-03 -2.365885e-01 -3.611174e-01 7.097882e-02
<VARIANCE> 39
 4.278161e+01 3.098720e+01 3.649654e+01 2.058187e+02 6.386777e+01 8.972353e+01 6.735660e+01 7.877068e+01 4.742290e+01 6.665750e+01 8.385645e+01 5.909211e+01 6.944247e+01 1.651098e+00 2.635526e+00 1.580130e+00 4.523032e+00 3.384542e+00 3.837531e+00 3.548633e+00 3.264187e+00 3.360322e+00 4.421474e+00 3.257909e+00 3.817653e+00 2.367033e+00 3.079092e-01 3.696056e-01 4.306575e-01 6.785522e-01 6.058555e-01 8.760313e-01 4.918357e-01 9.109299e-01 7.205292e-01 6.291086e-01 9.251595e-01 8.921981e-01 2.698837e-01
<GCONST> 1.332276e+02
<STATE> 4
<MEAN> 39
 3.400559e-01 -4.454404e+00 -7.308386e+00 -1.890031e+01 -7.408782e+00 1.722898e+00 -1.165834e+01 -5.937568e+00 -7.513026e+00 5.179950e+00 -5.999834e-01 -2.246619e+00 6.876367e+01 -2.410846e-01 -4.960730e-01 1.359310e-01 2.743821e-01 4.997456e-01 -3.285064e-01 1.301206e-01 1.670111e-01 1.037549e-01 1.341908e-01 -4.929227e-01 -5.221937e-01 2.253534e-01 -1.205997e-01 3.766246e-02 1.170331e-01 1.833361e-01 1.413298e-01 -1.566894e-01 1.046336e-01 9.181365e-02 5.599408e-02 -1.328542e-01 -1.658607e-01 -3.210183e-02 -9.762193e-02
<VARIANCE> 39
 2.251829e+01 3.764710e+01 3.133053e+01 8.795652e+01 6.652432e+01 6.503128e+01 4.660209e+01 6.162289e+01 6.291835e+01 6.035001e+01 1.228267e+02 9.717403e+01 4.110326e+01 5.741400e-01 1.540151e+00 8.421848e-01 1.590290e+00 2.620950e+00 2.173597e+00 1.736849e+00 2.534518e+00 2.492350e+00 2.289506e+00 2.620440e+00 3.369692e+00 7.810162e-01 1.168082e-01 1.891975e-01 1.793327e-01 2.069727e-01 2.856727e-01 3.649938e-01 3.295994e-01 3.265517e-01 2.724541e-01 3.297949e-01 4.661338e-01 4.442354e-01 1.052410e-01
<GCONST> 1.132540e+02
<TRANSP> 5
 0.000000e+00 1.000000e+00 0.000000e+00 0.000000e+00 0.000000e+00
 0.000000e+00 3.897441e-01 6.102559e-01 0.000000e+00 0.000000e+00
 0.000000e+00 0.000000e+00 4.683598e-01 5.316402e-01 0.000000e+00
 0.000000e+00 0.000000e+00 0.000000e+00 7.700149e-01 2.299851e-01
 0.000000e+00 0.000000e+00 0.000000e+00 0.000000e+00 0.000000e+00
<ENDHMM>
~h "y"
<BEGINHMM>
<NUMSTATES> 5
<STATE> 2
<MEAN> 39
 -6.385891e+00 -7.822475e-01 1.174295e+01 -6.364033e+00 -1.749878e+01 -1.063416e+01 -9.288262e+00 3.760702e-01 -1.133760e+01 6.192077e-01 2.662675e+00 -9.203561e-01 6.922976e+01 -9.218583e-03 -3.379937e-01 1.793347e-01 -2.037130e-01 -8.994948e-01 -5.433650e-01 3.503224e-01 5.215648e-01 -1.176971e-01 1.782930e-01 3.796735e-01 3.188881e-01 4.719929e-01 1.150526e-01 -2.069345e-01 -4.387641e-01 3.794431e-02 3.660398e-01 2.034583e-02 1.539299e-01 1.494701e-01 2.890270e-01 -6.849341e-02 -3.480586e-01 -1.217008e-01 -2.196825e-02
<VARIANCE> 39
 1.658871e+01 5.679591e+01 5.657807e+01 4.397934e+01 6.469219e+01 7.282042e+01 7.471507e+01 7.375315e+01 7.994907e+01 6.756622e+01 8.369453e+01 1.029117e+02 5.825653e+01 6.331549e-01 2.423690e+00 3.694093e+00 1.474312e+00 3.333711e+00 2.396118e+00 3.849834e+00 3.593922e+00 3.357189e+00 2.723716e+00 2.856620e+00 2.325543e+00 1.148808e+00 8.662114e-02 2.254800e-01 3.203584e-01 2.789917e-01 5.976101e-01 4.147843e-01 5.524983e-01 5.225437e-01 4.594128e-01 4.947307e-01 4.664293e-01 4.440067e-01 1.020973e-01
<GCONST> 1.218852e+02
<STATE> 3
<MEAN> 39
 -4.650927e+00 -5.813638e+00 4.722801e+00 -7.978895e+00 -1.274281e+01 -1.423406e+01 -2.571993e+00 5.368481e+00 -4.592099e+00 -3.222249e-01 -2.951392e+00 5.190670e-01 7.153649e+01 2.237321e-01 -4.135980e-01 -8.687900e-01 4.807331e-02 1.172673e+00 1.670023e-01 4.040170e-01 2.162852e-01 6.802825e-01 -4.295647e-01 -9.438511e-01 -3.911317e-01 -1.379365e-01 1.431589e-04 1.111721e-01 2.036195e-02 4.876994e-02 2.096138e-01 1.664948e-01 -1.492599e-01 -2.208759e-01 -2.516400e-02 -4.030797e-03 -6.634344e-02 -7.364591e-02 -1.259050e-01
<VARIANCE> 39
 1.411128e+01 4.065689e+01 3.536318e+01 5.299256e+01 1.100194e+02 6.756184e+01 8.553789e+01 8.595380e+01 7.724874e+01 4.208681e+01 1.008383e+02 1.193331e+02 5.159272e+01 3.285460e-01 1.038786e+00 1.603395e+00 9.322895e-01 2.087364e+00 1.508746e+00 1.799201e+00 2.213428e+00 2.215257e+00 1.851624e+00 2.301521e+00 1.768721e+00 3.810810e-01 5.054571e-02 1.226810e-01 1.585647e-01 1.704739e-01 3.332581e-01 2.604318e-01 3.124842e-01 3.677409e-01 2.835816e-01 3.066205e-01 3.202416e-01 2.827382e-01 5.179201e-02
<GCONST> 1.074073e+02
<STATE> 4
<MEAN> 39
 -4.304368e+00 -5.540072e+00 2.310963e+00 -3.920595e+00 -9.834643e+00 -8.833004e+00 -4.608254e+00 2.130850e+00 -3.711439e+00 -2.194420e+00 -3.590574e+00 -2.364447e+00 6.608582e+01 2.027568e-01 -2.190503e-01 -8.736992e-01 1.040158e-01 1.413276e+00 4.747409e-01 -1.071837e-01 -3.347640e-01 5.177932e-01 -1.530695e-01 -9.546276e-01 -4.485479e-01 -2.589545e-01 3.258809e-02 1.893430e-01 8.522691e-02 2.635571e-02 3.656530e-02 1.502673e-01 -2.094002e-01 -2.910243e-01 -2.943463e-02 1.630202e-01 6.735852e-02 -1.770783e-02 -2.008695e-01
<VARIANCE> 39
 4.473824e+01 6.085350e+01 5.077338e+01 6.417430e+01 1.020383e+02 9.298770e+01 7.755068e+01 9.471249e+01 8.088469e+01 5.324946e+01 8.393199e+01 1.078080e+02 1.474591e+02 1.035769e+00 2.052416e+00 3.685711e+00 2.394525e+00 4.951190e+00 3.036282e+00 3.403314e+00 3.358980e+00 3.364864e+00 2.878727e+00 3.479979e+00 3.006601e+00 2.026456e+00 1.378189e-01 4.137919e-01 4.182564e-01 4.597426e-01 6.582444e-01 5.607981e-01 6.485829e-01 8.259783e-01 6.347716e-01 4.734301e-01 4.727223e-01 4.773513e-01 2.564503e-01
<GCONST> 1.314248e+02
<TRANSP> 5
 0.000000e+00 1.000000e+00 0.000000e+00 0.000000e+00 0.000000e+00
 0.000000e+00 7.733594e-01 2.266406e-01 0.000000e+00 0.000000e+00
 0.000000e+00 0.000000e+00 7.607821e-01 2.392180e-01 0.000000e+00
 0.000000e+00 0.000000e+00 0.000000e+00 3.294640e-01 6.705360e-01
 0.000000e+00 0.000000e+00 0.000000e+00 0.000000e+00 0.000000e+00
<ENDHMM>
~h "ex"
<BEGINHMM>
<NUMSTATES> 5
<STATE> 2
<MEAN> 39
 -5.062698e+00 -6.983452e+00 4.804964e+00 -4.833289e+00 -1.336402e+01 -1.170132e+01 -4.963756e+00 3.713543e+00 -6.250880e+00 -5.785659e-01 -4.395795e-01 -2.305238e+00 6.740952e+01 -5.351447e-02 -3.509848e-01 8.601845e-01 -5.061374e-01 -1.359217e+00 -7.648791e-01 6.227583e-01 5.805358e-01 -1.039410e+00 -7.559307e-02 6.023047e-01 1.856278e-02 1.295080e+00 4.185652e-04 3.708968e-01 -1.131061e-01 3.129951e-01 2.516518e-01 3.089187e-01 -2.023965e-02 -4.412257e-01 -2.638768e-02 1.860358e-01 -6.336656e-02 -8.797064e-02 -4.016297e-01
<VARIANCE> 39
 3.800304e+01 5.142832e+01 5.847875e+01 4.831115e+01 8.238670e+01 9.221751e+01 9.367478e+01 8.623580e+01 9.283599e+01 5.478254e+01 5.942896e+01 8.166985e+01 1.195957e+02 1.829033e+00 3.050745e+00 2.510252e+00 2.884412e+00 4.783246e+00 5.194808e+00 5.535963e+00 5.095276e+00 4.280730e+00 3.438857e+00 3.600756e+00 3.152149e+00 3.938351e+00 2.962592e-01 5.288292e-01 4.102727e-01 5.693558e-01 8.529948e-01 8.661143e-01 8.227740e-01 9.884229e-01 7.598131e-01 6.467870e-01 6.537890e-01 5.629391e-01 6.671508e-01
<GCONST> 1.377482e+02
<STATE> 3
<MEAN> 39
 -5.902490e+00 -5.110872e+00 9.155054e+00 -5.745003e+00 -1.865355e+01 -1.375763e+01 -5.091045e+00 3.068067e+00 -1.243857e+01 2.958206e+00 1.165701e+00 -7.631614e-01 7.128071e+01 -2.713722e-02 5.166750e-01 1.206152e-01 5.432593e-01 4.208859e-01 2.557925e-01 3.672729e-01 -6.049296e-01 -1.649691e-02 -2.477509e-02 -1.450938e-01 -2.443939e-02 -8.354451e-01 2.126051e-02 8.252241e-02 -1.544207e-01 1.666529e-01 3.405965e-01 1.644301e-01 -1.760111e-02 -8.614603e-02 2.316259e-01 -5.070178e-02 -1.483650e-01 9.439077e-03 -3.004467e-01
<VARIANCE> 39
 1.301550e+01 4.037844e+01 5.382150e+01 3.285424e+01 6.715870e+01 6.453833e+01 7.654449e+01 9.475764e+01 6.989774e+01 6.381364e+01 8.185997e+01 1.124835e+02 5.262605e+01 5.352164e-01 9.942920e-01 1.595690e+00 1.422535e+00 2.773678e+00 1.858338e+00 2.562701e+00 2.400345e+00 3.159461e+00 2.173313e+00 2.139685e+00 2.399577e+00 1.500359e+00 9.977838e-02 1.612899e-01 2.713527e-01 2.377932e-01 4.162231e-01 3.654284e-01 4.850060e-01 4.557541e-01 5.392176e-01 3.770371e-01 4.064936e-01 4.468547e-01 1.509192e-01
<GCONST> 1.163383e+02
<STATE> 4
<MEAN> 39
 -1.089759e+01 -1.930931e-01 8.443581e-01 1.936488e+00 -7.538292e+00 -3.911472e+00 -4.904141e-01 9.868288e-02 -3.614003e+00 -1.117240e+00 -7.792109e-01 -1.448224e+00 5.068228e+01 -1.181391e-01 2.006996e-01 -2.498104e-01 3.638953e-01 6.152917e-01 3.953336e-01 2.768315e-02 -5.593204e-02 3.409794e-01 -3.250981e-02 -1.635356e-01 1.245318e-01 -7.673160e-01 -1.627956e-02 -1.396947e-02 -9.794834e-03 -4.156788e-02 -3.865562e-02 -1.419789e-02 -9.747125e-02 4.022001e-02 -1.201917e-02 3.836450e-02 3.014401e-03 -1.133394e-02 6.729805e-02
<VARIANCE> 39
 4.214575e+01 3.195163e+01 6.644771e+01 2.518604e+01 4.540440e+01 7.289834e+01 5.837325e+01 5.282925e+01 4.626955e+01 4.625258e+01 3.036294e+01 2.979029e+01 2.510329e+02 5.885911e-01 8.567673e-01 1.120971e+00 1.453871e+00 2.025884e+00 2.102144e+00 2.387582e+00 2.364194e+00 2.601385e+00 2.107417e+00 2.247902e+00 2.144269e+00 1.037713e+00 1.074577e-01 1.461612e-01 1.832400e-01 2.353158e-01 2.881936e-01 3.394026e-01 3.898002e-01 4.221236e-01 4.688848e-01 4.126544e-01 3.779133e-01 3.559673e-01 9.075523e-02
<GCONST> 1.112654e+02
<TRANSP> 5
 0.000000e+00 1.000000e+00 0.000000e+00 0.000000e+00 0.000000e+00
 0.000000e+00 6.596042e-01 3.403959e-01 0.000000e+00 0.000000e+00
 0.000000e+00 0.000000e+00 8.025634e-01 1.974367e-01 0.000000e+00
 0.000000e+00 0.000000e+00 0.000000e+00 7.899610e-01 2.100390e-01
 0.000000e+00 0.000000e+00 0.000000e+00 0.000000e+00 0.000000e+00
<ENDHMM>
~h "ng"
<BEGINHMM>
<NUMSTATES> 5
<STATE> 2
<MEAN> 39
 1.018160e+00 -6.053246e-01 1.971890e+00 -1.810203e+00 -7.837711e+00 -2.138518e+00 -7.553359e+00 -6.443258e+00 -4.353564e+00 -1.820338e+00 -6.586441e+00 -6.009421e+00 6.335985e+01 1.691749e-01 5.235543e-01 4.749557e-01 9.242016e-01 -6.057728e-03 -5.749296e-03 8.088663e-03 -7.162196e-01 -6.080753e-02 1.310668e-01 -5.182440e-01 3.679660e-01 -8.433840e-01 -1.487675e-01 -1.676351e-02 -5.022922e-02 -1.898980e-01 -3.548834e-02 -5.163730e-02 2.562590e-02 1.889732e-01 -8.642571e-02 1.888288e-02 1.355707e-01 -5.802074e-03 1.062137e-01
<VARIANCE> 39
 2.662139e+01 5.534618e+01 4.082256e+01 4.314959e+01 5.177654e+01 5.440377e+01 5.022655e+01 5.600353e+01 6.439421e+01 6.552483e+01 6.316901e+01 4.336778e+01 4.893431e+01 5.331358e-01 9.020004e-01 1.791339e+00 1.927478e+00 2.350969e+00 2.817555e+00 2.643128e+00 4.029521e+00 2.722280e+00 2.339733e+00 2.450875e+00 2.230189e+00 5.951902e-01 6.924695e-02 1.504444e-01 2.202377e-01 2.916325e-01 3.487304e-01 3.674182e-01 4.332416e-01 5.584388e-01 4.395525e-01 3.938344e-01 4.013790e-01 4.228235e-01 1.006455e-01
<GCONST> 1.136728e+02
<STATE> 3
<MEAN> 39
 -5.028249e-01 -4.869202e-01 5.367575e+00 -2.285135e-01 -7.054165e+00 -1.108242e+00 -1.037512e+01 -5.109760e+00 -5.415172e+00 2.652263e+00 -1.290521e+01 -1.594724e+00 6.138832e+01 -1.539232e-01 6.696463e-01 2.806327e-02 5.242273e-01 2.643961e-02 1.496926e-01 3.937791e-02 -2.118367e-01 -2.718578e-01 7.540316e-02 -1.309540e-01 1.822443e-01 -6.709576e-01 -2.664688e-01 -8.078223e-02 -3.335467e-01 -3.861903e-01 2.047542e-01 -4.194750e-02 1.512155e-01 2.362275e-01 -7.860062e-02 -1.685995e-01 4.302064e-01 -1.239182e-01 2.312712e-01
<VARIANCE> 39
 2.423481e+01 4.716531e+01 4.737169e+01 4.553594e+01 8.268416e+01 5.614554e+01 9.096412e+01 7.518811e+01 6.885532e+01 9.011526e+01 1.445204e+02 8.652741e+01 6.255815e+01 6.433724e-01 1.395751e+00 1.779599e+00 2.257730e+00 3.220164e+00 2.423626e+00 3.144806e+00 3.581554e+00 2.845528e+00 2.606962e+00 3.071634e+00 2.656644e+00 8.827005e-01 1.549677e-01 3.219128e-01 4.236771e-01 4.638785e-01 6.415167e-01 6.083532e-01 6.317325e-01 1.037038e+00 7.305104e-01 6.533805e-01 7.895002e-01 5.915713e-01 1.957751e-01
<GCONST> 1.265891e+02
<STATE> 4
<MEAN> 39
 -1.278138e+00 1.348018e+00 2.873989e+00 -1.325539e-01 -5.156966e+00 -1.426087e+00 -8.493279e+00 -6.512839e+00 -5.664279e+00 5.085815e-01 -9.545032e+00 -3.145226e+00 5.963158e+01 -8.028380e-01 1.114810e-01 -8.083087e-01 -5.642489e-01 9.695474e-01 -5.496176e-02 4.103255e-01 3.220532e-01 -3.187156e-01 -4.211313e-01 8.996494e-01 -1.905214e-01 1.464446e-02 -2.357131e-01 -3.963827e-01 -1.512814e-01 -4.146512e-01 3.551997e-02 -1.541609e-01 -2.195414e-02 3.804067e-01 -4.619621e-04 -4.757332e-02 2.351579e-01 5.615165e-02 4.147644e-01
<VARIANCE> 39
 3.226176e+01 5.514752e+01 5.553384e+01 5.478611e+01 9.301506e+01 6.366129e+01 7.118772e+01 6.222779e+01 7.905633e+01 9.051842e+01 1.064567e+02 7.251794e+01 8.457573e+01 1.313609e+00 3.168770e+00 3.696855e+00 4.282605e+00 5.971564e+00 4.424551e+00 4.286932e+00 6.733946e+00 5.312791e+00 4.939119e+00 5.934364e+00 3.645353e+00 2.740493e+00 3.377695e-01 4.818654e-01 6.814591e-01 6.185861e-01 1.128428e+00 8.397838e-01 8.183311e-01 1.138695e+00 9.235125e-01 8.589985e-01 9.830709e-01 6.034206e-01 3.075303e-01
<GCONST> 1.399670e+02
<TRANSP> 5
 0.000000e+00 1.000000e+00 0.000000e+00 0.000000e+00 0.000000e+00
 0.000000e+00 6.498950e-01 3.501050e-01 0.000000e+00 0.000000e+00
 0.000000e+00 0.000000e+00 4.442731e-01 5.557269e-01 0.000000e+00
 0.000000e+00 0.000000e+00 0.000000e+00 4.125523e-01 5.874477e-01
 0.000000e+00 0.000000e+00 0.000000e+00 0.000000e+00 0.000000e+00
<ENDHMM>
~h "ny"
<BEGINHMM>
<NUMSTATES> 5
<STATE> 2
<MEAN> 39
 -4.496795e+00 3.627464e+00 8.843621e+00 -5.368860e+00 -7.985681e+00 -8.012023e+00 -9.683808e+00 -2.050648e+00 -9.406457e+00 -9.436188e-01 -3.258105e+00 -1.972571e+00 6.523366e+01 -8.574288e-01 -9.644206e-01 6.988925e-01 -1.222645e+00 -1.261276e+00 3.675148e-01 9.870555e-01 7.963160e-01 -6.660691e-01 -1.913720e-01 9.375020e-01 -2.884225e-01 1.289595e+00 1.079075e-01 -5.382016e-01 -2.738910e-01 1.865688e-01 -2.682657e-01 5.482398e-04 2.776613e-01 1.935644e-01 1.786687e-01 -1.390075e-01 -1.401666e-01 -1.652979e-02 1.796204e-01
<VARIANCE> 39
 1.942190e+01 4.312133e+01 3.722504e+01 5.200200e+01 5.452570e+01 5.871534e+01 8.125811e+01 5.357727e+01 7.458487e+01 6.947350e+01 9.455729e+01 9.535077e+01 4.825940e+01 1.418024e+00 3.581821e+00 2.190555e+00 3.675283e+00 5.244701e+00 4.075875e+00 5.298238e+00 4.471435e+00 3.610495e+00 3.076207e+00 3.272767e+00 3.616375e+00 1.635814e+00 3.405563e-01 3.981466e-01 4.811616e-01 8.256339e-01 1.010700e+00 7.686414e-01 8.332337e-01 7.255284e-01 7.498153e-01 5.970387e-01 7.614725e-01 6.331515e-01 3.085656e-01
<GCONST> 1.328852e+02
<STATE> 3
<MEAN> 39
 -5.121262e+00 -4.516693e+00 7.176163e+00 -5.296416e+00 -1.202404e+01 -7.414557e+00 -2.662879e+00 2.095397e+00 -8.096425e+00 -5.860723e+00 -3.040353e+00 -2.958739e+00 7.045450e+01 1.704577e-01 -1.154570e+00 -9.652271e-01 3.324139e-01 3.319781e-01 -5.523008e-02 4.670804e-01 7.754838e-01 5.489160e-01 -8.846883e-01 -8.145429e-01 6.781013e-02 4.142914e-01 8.301608e-02 2.646013e-01 -1.713707e-01 8.754055e-02 4.508917e-01 -1.194487e-02 -2.860412e-01 -1.797666e-01 1.688885e-01 1.166501e-01 -2.051833e-01 -6.781619e-03 -2.742568e-01
<VARIANCE> 39
 1.488093e+01 5.202517e+01 4.659405e+01 3.798292e+01 8.952361e+01 4.993947e+01 8.983263e+01 1.057774e+02 1.046510e+02 7.259796e+01 1.023488e+02 1.120710e+02 5.042371e+01 3.584033e-01 1.547749e+00 1.300815e+00 1.135261e+00 2.275003e+00 1.826799e+00 2.044756e+00 2.462727e+00 1.860926e+00 1.946264e+00 1.791377e+00 2.022522e+00 6.293624e-01 9.605774e-02 1.459747e-01 2.287552e-01 2.210197e-01 4.299355e-01 3.050485e-01 3.720942e-01 4.011866e-01 3.338771e-01 3.434773e-01 3.608544e-01 3.374807e-01 8.560750e-02
<GCONST> 1.126145e+02
<STATE> 4
<MEAN> 39
 -5.473159e+00 -6.658250e+00 4.238056e+00 -3.739729e+00 -5.959074e+00 -6.469393e+00 -4.275943e+00 3.904640e+00 -6.521224e+00 -8.613474e+00 -6.409436e+00 6.707124e-01 6.488682e+01 1.691151e-01 -1.838838e-01 -1.112199e+00 4.510096e-01 6.479674e-01 1.184393e-01 -2.354344e-01 -1.997259e-01 9.077865e-01 1.203430e-01 -3.519396e-01 -5.855502e-01 -7.495351e-01 4.086954e-02 3.963256e-01 2.717625e-02 -1.520704e-02 1.030174e-01 6.254604e-02 -1.463943e-01 -3.788216e-01 -2.228597e-02 3.299346e-01 5.103402e-02 -1.583082e-01 -3.381743e-01
<VARIANCE> 39
 3.343656e+01 5.027291e+01 4.769090e+01 6.894693e+01 1.548483e+02 7.069066e+01 9.787170e+01 9.865773e+01 9.172639e+01 9.565076e+01 9.789108e+01 1.412402e+02 1.448738e+02 8.167543e-01 2.231584e+00 2.550039e+00 3.359391e+00 4.427911e+00 3.418592e+00 5.011010e+00 4.803385e+00 4.560495e+00 5.214528e+00 4.321107e+00 3.261842e+00 1.563799e+00 1.559098e-01 4.311074e-01 3.293684e-01 6.334153e-01 7.360932e-01 6.574442e-01 9.828747e-01 1.068720e+00 8.124173e-01 7.565830e-01 6.196838e-01 5.727841e-01 2.945688e-01
<GCONST> 1.364878e+02
<TRANSP> 5
 0.000000e+00 1.000000e+00 0.000000e+00 0.000000e+00 0.000000e+00
 0.000000e+00 7.246293e-01 2.753707e-01 0.000000e+00 0.000000e+00
 0.000000e+00 0.000000e+00 7.404812e-01 2.595188e-01 0.000000e+00
 0.000000e+00 0.000000e+00 0.000000e+00 3.777456e-01 6.222544e-01
 0.000000e+00 0.000000e+00 0.000000e+00 0.000000e+00 0.000000e+00
<ENDHMM>
~h "sp"
<BEGINHMM>
<NUMSTATES> 3
<STATE> 2
~s "silst"
<TRANSP> 3
 0.000000e+00 1.606383e-01 8.393617e-01
 0.000000e+00 9.069076e-01 9.309243e-02
 0.000000e+00 0.000000e+00 0.000000e+00
<ENDHMM>
~h "sy"
<BEGINHMM>
<NUMSTATES> 5
<STATE> 2
<MEAN> 39
 -1.501858e+01 7.954099e+00 8.422241e+00 -4.627086e+00 -6.501272e+00 -1.021379e+01 -6.769270e+00 -1.429152e+00 -8.282764e+00 -2.226804e+00 3.793761e+00 -3.255547e+00 6.750375e+01 -5.076265e-01 3.183766e-01 7.564762e-01 1.569740e-01 -2.633758e-01 1.000499e-01 4.322689e-01 -4.491979e-02 -5.091934e-01 1.309410e-02 2.312008e-01 2.368635e-02 -2.387425e-01 2.448130e-01 -1.233922e-01 -7.305561e-02 -6.820379e-02 -4.877326e-02 7.689998e-02 -5.765703e-02 -1.792039e-01 1.189114e-01 1.240085e-01 -8.942877e-02 -4.978677e-02 -2.342657e-02
<VARIANCE> 39
 8.200552e+01 4.664280e+01 6.490983e+01 2.153211e+01 1.037356e+02 3.011514e+01 3.670879e+01 8.730466e+01 4.634747e+01 5.944873e+01 3.534911e+01 5.713371e+01 2.836479e+01 7.034320e+00 1.583128e+00 1.790162e+00 9.837391e-01 4.696624e+00 3.240590e+00 2.576306e+00 4.686696e+00 2.657267e+00 1.759801e+00 3.058602e+00 1.750484e+00 4.766982e-01 6.575970e-01 2.239545e-01 2.384755e-01 2.440640e-01 6.388569e-01 5.802026e-01 2.961949e-01 6.670104e-01 4.385256e-01 4.064618e-01 6.827693e-01 3.524313e-01 8.852221e-02
<GCONST> 1.198877e+02
<STATE> 3
<MEAN> 39
 -9.288902e+00 6.957989e+00 7.857172e+00 1.853660e-01 -3.969290e+00 -5.961510e+00 -3.672924e+00 -4.110945e+00 -5.566920e+00 -2.445131e+00 -1.820291e+00 -4.762934e+00 5.859280e+01 1.605422e-01 -6.196997e-01 -7.378861e-01 7.812531e-01 8.517171e-01 5.417522e-01 3.711647e-01 2.708732e-01 8.497419e-01 -2.610766e-01 -1.000416e+00 7.225766e-01 -1.000341e+00 -1.821755e-03 -1.612091e-01 -8.139402e-02 -5.040178e-02 -3.088195e-01 -1.330447e-01 -1.868268e-01 -1.159331e-01 -1.959997e-01 -2.508755e-02 3.239069e-01 -1.423005e-02 6.767955e-02
<VARIANCE> 39
 5.846633e+01 5.775935e+01 4.465825e+01 2.578504e+01 6.741830e+01 3.482546e+01 3.492926e+01 5.406452e+01 3.286417e+01 5.468624e+01 1.559507e+01 4.429479e+01 7.444833e+01 6.771612e-01 4.364771e-01 7.791790e-01 1.216069e+00 4.395756e+00 2.093874e+00 3.690214e+00 1.046493e+00 2.424479e+00 3.321523e+00 1.405383e+00 1.592723e+00 3.006739e-01 3.761604e-01 1.971632e-01 5.542507e-02 1.756375e-01 6.034681e-01 3.258410e-01 6.336426e-01 5.155656e-01 3.013476e-01 5.240119e-01 2.395943e-01 2.560274e-01 2.027323e-02
<GCONST> 1.059714e+02
<STATE> 4
<MEAN> 39
 -1.170051e+01 1.761722e+00 -1.592668e-01 1.710342e+00 -6.362312e+00 -4.613372e+00 -3.669801e+00 -2.028719e+00 -2.927487e+00 -6.096367e-01 -1.661466e+00 1.362404e+00 4.912960e+01 -3.228751e-01 -2.199920e-01 -2.637798e-01 -6.018531e-02 -5.372297e-01 1.990492e-01 1.384625e-01 -1.334524e-02 2.118795e-01 3.138686e-01 5.607212e-01 -1.110379e-02 -5.747080e-01 5.149906e-02 2.617551e-02 6.073662e-02 -8.998659e-02 -3.216157e-02 -1.271240e-01 -7.005478e-02 -1.246064e-01 -1.966627e-01 4.197242e-02 2.698876e-03 -1.418619e-01 1.228937e-01
<VARIANCE> 39
