~h "a"
<BEGINHMM>
<NUMSTATES> 5
<STATE> 2
<MEAN> 39
 -7.237505e+00 -9.522734e-01 -7.239595e-01 -2.744242e+00 -6.125420e+00 -3.744653e+00 -7.392341e+00 -1.832690e+00 -4.059911e+00 -5.196792e-01 -2.639862e+00 -2.525514e+00 5.699863e+01 1.700382e-02 -5.215406e-03 2.374562e-03 -3.223888e-03 6.313559e-03 -1.454970e-02 -1.132163e-02 -8.926885e-03 -9.477547e-03 -4.594841e-03 -1.045515e-02 -6.317729e-04 5.988493e-02 -8.761588e-04 -9.383484e-05 1.257182e-03 3.458446e-04 -4.947232e-04 8.716302e-04 1.326781e-03 9.909964e-04 6.046794e-05 -2.788493e-04 -3.502069e-04 -2.982569e-04 -2.026873e-03
<VARIANCE> 39
 7.958804e+01 5.685667e+01 7.285796e+01 6.832046e+01 7.573316e+01 7.273641e+01 6.927921e+01 6.811816e+01 7.898077e+01 5.386222e+01 6.644337e+01 5.721838e+01 2.357942e+02 2.353387e+00 2.528079e+00 2.648467e+00 3.388781e+00 3.598284e+00 3.434243e+00 3.601095e+00 3.951554e+00 3.435617e+00 3.243728e+00 3.144767e+00 2.665965e+00 3.142714e+00 3.591968e-01 4.069394e-01 4.246498e-01 5.840888e-01 6.218489e-01 6.178815e-01 6.612020e-01 7.182935e-01 6.242200e-01 6.042847e-01 5.761919e-01 4.949592e-01 4.393218e-01
<GCONST> 1.345019e+02
<STATE> 3
<MEAN> 39
 -7.237505e+00 -9.522734e-01 -7.239595e-01 -2.744242e+00 -6.125420e+00 -3.744653e+00 -7.392341e+00 -1.832690e+00 -4.059911e+00 -5.196792e-01 -2.639862e+00 -2.525514e+00 5.699863e+01 1.700382e-02 -5.215406e-03 2.374562e-03 -3.223888e-03 6.313559e-03 -1.454970e-02 -1.132163e-02 -8.926885e-03 -9.477547e-03 -4.594841e-03 -1.045515e-02 -6.317729e-04 5.988493e-02 -8.761588e-04 -9.383484e-05 1.257182e-03 3.458446e-04 -4.947232e-04 8.716302e-04 1.326781e-03 9.909964e-04 6.046794e-05 -2.788493e-04 -3.502069e-04 -2.982569e-04 -2.026873e-03
<VARIANCE> 39
 7.958804e+01 5.685667e+01 7.285796e+01 6.832046e+01 7.573316e+01 7.273641e+01 6.927921e+01 6.811816e+01 7.898077e+01 5.386222e+01 6.644337e+01 5.721838e+01 2.357942e+02 2.353387e+00 2.528079e+00 2.648467e+00 3.388781e+00 3.598284e+00 3.434243e+00 3.601095e+00 3.951554e+00 3.435617e+00 3.243728e+00 3.144767e+00 2.665965e+00 3.142714e+00 3.591968e-01 4.069394e-01 4.246498e-01 5.840888e-01 6.218489e-01 6.178815e-01 6.612020e-01 7.182935e-01 6.242200e-01 6.042847e-01 5.761919e-01 4.949592e-01 4.393218e-01
<GCONST> 1.345019e+02
<STATE> 4
<MEAN> 39
 -7.237505e+00 -9.522734e-01 -7.239595e-01 -2.744242e+00 -6.125420e+00 -3.744653e+00 -7.392341e+00 -1.832690e+00 -4.059911e+00 -5.196792e-01 -2.639862e+00 -2.525514e+00 5.699863e+01 1.700382e-02 -5.215406e-03 2.374562e-03 -3.223888e-03 6.313559e-03 -1.454970e-02 -1.132163e-02 -8.926885e-03 -9.477547e-03 -4.594841e-03 -1.045515e-02 -6.317729e-04 5.988493e-02 -8.761588e-04 -9.383484e-05 1.257182e-03 3.458446e-04 -4.947232e-04 8.716302e-04 1.326781e-03 9.909964e-04 6.046794e-05 -2.788493e-04 -3.502069e-04 -2.982569e-04 -2.026873e-03
<VARIANCE> 39
 7.958804e+01 5.685667e+01 7.285796e+01 6.832046e+01 7.573316e+01 7.273641e+01 6.927921e+01 6.811816e+01 7.898077e+01 5.386222e+01 6.644337e+01 5.721838e+01 2.357942e+02 2.353387e+00 2.528079e+00 2.648467e+00 3.388781e+00 3.598284e+00 3.434243e+00 3.601095e+00 3.951554e+00 3.435617e+00 3.243728e+00 3.144767e+00 2.665965e+00 3.142714e+00 3.591968e-01 4.069394e-01 4.246498e-01 5.840888e-01 6.218489e-01 6.178815e-01 6.612020e-01 7.182935e-01 6.242200e-01 6.042847e-01 5.761919e-01 4.949592e-01 4.393218e-01
<GCONST> 1.345019e+02
<TRANSP> 5
 0.000000e+00 1.000000e+00 0.000000e+00 0.000000e+00 0.000000e+00
 0.000000e+00 6.000000e-01 4.000000e-01 0.000000e+00 0.000000e+00
 0.000000e+00 0.000000e+00 6.000000e-01 4.000000e-01 0.000000e+00
 0.000000e+00 0.000000e+00 0.000000e+00 7.000000e-01 3.000000e-01
 0.000000e+00 0.000000e+00 0.000000e+00 0.000000e+00 0.000000e+00
<ENDHMM>
~h "c"
<BEGINHMM>
<NUMSTATES> 5
<STATE> 2
<MEAN> 39
 -7.237505e+00 -9.522734e-01 -7.239595e-01 -2.744242e+00 -6.125420e+00 -3.744653e+00 -7.392341e+00 -1.832690e+00 -4.059911e+00 -5.196792e-01 -2.639862e+00 -2.525514e+00 5.699863e+01 1.700382e-02 -5.215406e-03 2.374562e-03 -3.223888e-03 6.313559e-03 -1.454970e-02 -1.132163e-02 -8.926885e-03 -9.477547e-03 -4.594841e-03 -1.045515e-02 -6.317729e-04 5.988493e-02 -8.761588e-04 -9.383484e-05 1.257182e-03 3.458446e-04 -4.947232e-04 8.716302e-04 1.326781e-03 9.909964e-04 6.046794e-05 -2.788493e-04 -3.502069e-04 -2.982569e-04 -2.026873e-03
<VARIANCE> 39
 7.958804e+01 5.685667e+01 7.285796e+01 6.832046e+01 7.573316e+01 7.273641e+01 6.927921e+01 6.811816e+01 7.898077e+01 5.386222e+01 6.644337e+01 5.721838e+01 2.357942e+02 2.353387e+00 2.528079e+00 2.648467e+00 3.388781e+00 3.598284e+00 3.434243e+00 3.601095e+00 3.951554e+00 3.435617e+00 3.243728e+00 3.144767e+00 2.665965e+00 3.142714e+00 3.591968e-01 4.069394e-01 4.246498e-01 5.840888e-01 6.218489e-01 6.178815e-01 6.612020e-01 7.182935e-01 6.242200e-01 6.042847e-01 5.761919e-01 4.949592e-01 4.393218e-01
<GCONST> 1.345019e+02
<STATE> 3
<MEAN> 39
 -7.237505e+00 -9.522734e-01 -7.239595e-01 -2.744242e+00 -6.125420e+00 -3.744653e+00 -7.392341e+00 -1.832690e+00 -4.059911e+00 -5.196792e-01 -2.639862e+00 -2.525514e+00 5.699863e+01 1.700382e-02 -5.215406e-03 2.374562e-03 -3.223888e-03 6.313559e-03 -1.454970e-02 -1.132163e-02 -8.926885e-03 -9.477547e-03 -4.594841e-03 -1.045515e-02 -6.317729e-04 5.988493e-02 -8.761588e-04 -9.383484e-05 1.257182e-03 3.458446e-04 -4.947232e-04 8.716302e-04 1.326781e-03 9.909964e-04 6.046794e-05 -2.788493e-04 -3.502069e-04 -2.982569e-04 -2.026873e-03
<VARIANCE> 39
 7.958804e+01 5.685667e+01 7.285796e+01 6.832046e+01 7.573316e+01 7.273641e+01 6.927921e+01 6.811816e+01 7.898077e+01 5.386222e+01 6.644337e+01 5.721838e+01 2.357942e+02 2.353387e+00 2.528079e+00 2.648467e+00 3.388781e+00 3.598284e+00 3.434243e+00 3.601095e+00 3.951554e+00 3.435617e+00 3.243728e+00 3.144767e+00 2.665965e+00 3.142714e+00 3.591968e-01 4.069394e-01 4.246498e-01 5.840888e-01 6.218489e-01 6.178815e-01 6.612020e-01 7.182935e-01 6.242200e-01 6.042847e-01 5.761919e-01 4.949592e-01 4.393218e-01
<GCONST> 1.345019e+02
<STATE> 4
<MEAN> 39
 -7.237505e+00 -9.522734e-01 -7.239595e-01 -2.744242e+00 -6.125420e+00 -3.744653e+00 -7.392341e+00 -1.832690e+00 -4.059911e+00 -5.196792e-01 -2.639862e+00 -2.525514e+00 5.699863e+01 1.700382e-02 -5.215406e-03 2.374562e-03 -3.223888e-03 6.313559e-03 -1.454970e-02 -1.132163e-02 -8.926885e-03 -9.477547e-03 -4.594841e-03 -1.045515e-02 -6.317729e-04 5.988493e-02 -8.761588e-04 -9.383484e-05 1.257182e-03 3.458446e-04 -4.947232e-04 8.716302e-04 1.326781e-03 9.909964e-04 6.046794e-05 -2.788493e-04 -3.502069e-04 -2.982569e-04 -2.026873e-03
<VARIANCE> 39
 7.958804e+01 5.685667e+01 7.285796e+01 6.832046e+01 7.573316e+01 7.273641e+01 6.927921e+01 6.811816e+01 7.898077e+01 5.386222e+01 6.644337e+01 5.721838e+01 2.357942e+02 2.353387e+00 2.528079e+00 2.648467e+00 3.388781e+00 3.598284e+00 3.434243e+00 3.601095e+00 3.951554e+00 3.435617e+00 3.243728e+00 3.144767e+00 2.665965e+00 3.142714e+00 3.591968e-01 4.069394e-01 4.246498e-01 5.840888e-01 6.218489e-01 6.178815e-01 6.612020e-01 7.182935e-01 6.242200e-01 6.042847e-01 5.761919e-01 4.949592e-01 4.393218e-01
<GCONST> 1.345019e+02
<TRANSP> 5
 0.000000e+00 1.000000e+00 0.000000e+00 0.000000e+00 0.000000e+00
 0.000000e+00 6.000000e-01 4.000000e-01 0.000000e+00 0.000000e+00
 0.000000e+00 0.000000e+00 6.000000e-01 4.000000e-01 0.000000e+00
 0.000000e+00 0.000000e+00 0.000000e+00 7.000000e-01 3.000000e-01
 0.000000e+00 0.000000e+00 0.000000e+00 0.000000e+00 0.000000e+00
<ENDHMM>
~h "k"
<BEGINHMM>
<NUMSTATES> 5
<STATE> 2
<MEAN> 39
 -7.237505e+00 -9.522734e-01 -7.239595e-01 -2.744242e+00 -6.125420e+00 -3.744653e+00 -7.392341e+00 -1.832690e+00 -4.059911e+00 -5.196792e-01 -2.639862e+00 -2.525514e+00 5.699863e+01 1.700382e-02 -5.215406e-03 2.374562e-03 -3.223888e-03 6.313559e-03 -1.454970e-02 -1.132163e-02 -8.926885e-03 -9.477547e-03 -4.594841e-03 -1.045515e-02 -6.317729e-04 5.988493e-02 -8.761588e-04 -9.383484e-05 1.257182e-03 3.458446e-04 -4.947232e-04 8.716302e-04 1.326781e-03 9.909964e-04 6.046794e-05 -2.788493e-04 -3.502069e-04 -2.982569e-04 -2.026873e-03
<VARIANCE> 39
 7.958804e+01 5.685667e+01 7.285796e+01 6.832046e+01 7.573316e+01 7.273641e+01 6.927921e+01 6.811816e+01 7.898077e+01 5.386222e+01 6.644337e+01 5.721838e+01 2.357942e+02 2.353387e+00 2.528079e+00 2.648467e+00 3.388781e+00 3.598284e+00 3.434243e+00 3.601095e+00 3.951554e+00 3.435617e+00 3.243728e+00 3.144767e+00 2.665965e+00 3.142714e+00 3.591968e-01 4.069394e-01 4.246498e-01 5.840888e-01 6.218489e-01 6.178815e-01 6.612020e-01 7.182935e-01 6.242200e-01 6.042847e-01 5.761919e-01 4.949592e-01 4.393218e-01
<GCONST> 1.345019e+02
<STATE> 3
<MEAN> 39
 -7.237505e+00 -9.522734e-01 -7.239595e-01 -2.744242e+00 -6.125420e+00 -3.744653e+00 -7.392341e+00 -1.832690e+00 -4.059911e+00 -5.196792e-01 -2.639862e+00 -2.525514e+00 5.699863e+01 1.700382e-02 -5.215406e-03 2.374562e-03 -3.223888e-03 6.313559e-03 -1.454970e-02 -1.132163e-02 -8.926885e-03 -9.477547e-03 -4.594841e-03 -1.045515e-02 -6.317729e-04 5.988493e-02 -8.761588e-04 -9.383484e-05 1.257182e-03 3.458446e-04 -4.947232e-04 8.716302e-04 1.326781e-03 9.909964e-04 6.046794e-05 -2.788493e-04 -3.502069e-04 -2.982569e-04 -2.026873e-03
<VARIANCE> 39
 7.958804e+01 5.685667e+01 7.285796e+01 6.832046e+01 7.573316e+01 7.273641e+01 6.927921e+01 6.811816e+01 7.898077e+01 5.386222e+01 6.644337e+01 5.721838e+01 2.357942e+02 2.353387e+00 2.528079e+00 2.648467e+00 3.388781e+00 3.598284e+00 3.434243e+00 3.601095e+00 3.951554e+00 3.435617e+00 3.243728e+00 3.144767e+00 2.665965e+00 3.142714e+00 3.591968e-01 4.069394e-01 4.246498e-01 5.840888e-01 6.218489e-01 6.178815e-01 6.612020e-01 7.182935e-01 6.242200e-01 6.042847e-01 5.761919e-01 4.949592e-01 4.393218e-01
<GCONST> 1.345019e+02
<STATE> 4
<MEAN> 39
 -7.237505e+00 -9.522734e-01 -7.239595e-01 -2.744242e+00 -6.125420e+00 -3.744653e+00 -7.392341e+00 -1.832690e+00 -4.059911e+00 -5.196792e-01 -2.639862e+00 -2.525514e+00 5.699863e+01 1.700382e-02 -5.215406e-03 2.374562e-03 -3.223888e-03 6.313559e-03 -1.454970e-02 -1.132163e-02 -8.926885e-03 -9.477547e-03 -4.594841e-03 -1.045515e-02 -6.317729e-04 5.988493e-02 -8.761588e-04 -9.383484e-05 1.257182e-03 3.458446e-04 -4.947232e-04 8.716302e-04 1.326781e-03 9.909964e-04 6.046794e-05 -2.788493e-04 -3.502069e-04 -2.982569e-04 -2.026873e-03
<VARIANCE> 39
 7.958804e+01 5.685667e+01 7.285796e+01 6.832046e+01 7.573316e+01 7.273641e+01 6.927921e+01 6.811816e+01 7.898077e+01 5.386222e+01 6.644337e+01 5.721838e+01 2.357942e+02 2.353387e+00 2.528079e+00 2.648467e+00 3.388781e+00 3.598284e+00 3.434243e+00 3.601095e+00 3.951554e+00 3.435617e+00 3.243728e+00 3.144767e+00 2.665965e+00 3.142714e+00 3.591968e-01 4.069394e-01 4.246498e-01 5.840888e-01 6.218489e-01 6.178815e-01 6.612020e-01 7.182935e-01 6.242200e-01 6.042847e-01 5.761919e-01 4.949592e-01 4.393218e-01
<GCONST> 1.345019e+02
<TRANSP> 5
 0.000000e+00 1.000000e+00 0.000000e+00 0.000000e+00 0.000000e+00
 0.000000e+00 6.000000e-01 4.000000e-01 0.000000e+00 0.000000e+00
 0.000000e+00 0.000000e+00 6.000000e-01 4.000000e-01 0.000000e+00
 0.000000e+00 0.000000e+00 0.000000e+00 7.000000e-01 3.000000e-01
 0.000000e+00 0.000000e+00 0.000000e+00 0.000000e+00 0.000000e+00
<ENDHMM>
~h "d"
<BEGINHMM>
<NUMSTATES> 5
<STATE> 2
<MEAN> 39
 -7.237505e+00 -9.522734e-01 -7.239595e-01 -2.744242e+00 -6.125420e+00 -3.744653e+00 -7.392341e+00 -1.832690e+00 -4.059911e+00 -5.196792e-01 -2.639862e+00 -2.525514e+00 5.699863e+01 1.700382e-02 -5.215406e-03 2.374562e-03 -3.223888e-03 6.313559e-03 -1.454970e-02 -1.132163e-02 -8.926885e-03 -9.477547e-03 -4.594841e-03 -1.045515e-02 -6.317729e-04 5.988493e-02 -8.761588e-04 -9.383484e-05 1.257182e-03 3.458446e-04 -4.947232e-04 8.716302e-04 1.326781e-03 9.909964e-04 6.046794e-05 -2.788493e-04 -3.502069e-04 -2.982569e-04 -2.026873e-03
<VARIANCE> 39
 7.958804e+01 5.685667e+01 7.285796e+01 6.832046e+01 7.573316e+01 7.273641e+01 6.927921e+01 6.811816e+01 7.898077e+01 5.386222e+01 6.644337e+01 5.721838e+01 2.357942e+02 2.353387e+00 2.528079e+00 2.648467e+00 3.388781e+00 3.598284e+00 3.434243e+00 3.601095e+00 3.951554e+00 3.435617e+00 3.243728e+00 3.144767e+00 2.665965e+00 3.142714e+00 3.591968e-01 4.069394e-01 4.246498e-01 5.840888e-01 6.218489e-01 6.178815e-01 6.612020e-01 7.182935e-01 6.242200e-01 6.042847e-01 5.761919e-01 4.949592e-01 4.393218e-01
<GCONST> 1.345019e+02
<STATE> 3
<MEAN> 39
 -7.237505e+00 -9.522734e-01 -7.239595e-01 -2.744242e+00 -6.125420e+00 -3.744653e+00 -7.392341e+00 -1.832690e+00 -4.059911e+00 -5.196792e-01 -2.639862e+00 -2.525514e+00 5.699863e+01 1.700382e-02 -5.215406e-03 2.374562e-03 -3.223888e-03 6.313559e-03 -1.454970e-02 -1.132163e-02 -8.926885e-03 -9.477547e-03 -4.594841e-03 -1.045515e-02 -6.317729e-04 5.988493e-02 -8.761588e-04 -9.383484e-05 1.257182e-03 3.458446e-04 -4.947232e-04 8.716302e-04 1.326781e-03 9.909964e-04 6.046794e-05 -2.788493e-04 -3.502069e-04 -2.982569e-04 -2.026873e-03
<VARIANCE> 39
 7.958804e+01 5.685667e+01 7.285796e+01 6.832046e+01 7.573316e+01 7.273641e+01 6.927921e+01 6.811816e+01 7.898077e+01 5.386222e+01 6.644337e+01 5.721838e+01 2.357942e+02 2.353387e+00 2.528079e+00 2.648467e+00 3.388781e+00 3.598284e+00 3.434243e+00 3.601095e+00 3.951554e+00 3.435617e+00 3.243728e+00 3.144767e+00 2.665965e+00 3.142714e+00 3.591968e-01 4.069394e-01 4.246498e-01 5.840888e-01 6.218489e-01 6.178815e-01 6.612020e-01 7.182935e-01 6.242200e-01 6.042847e-01 5.761919e-01 4.949592e-01 4.393218e-01
<GCONST> 1.345019e+02
<STATE> 4
<MEAN> 39
 -7.237505e+00 -9.522734e-01 -7.239595e-01 -2.744242e+00 -6.125420e+00 -3.744653e+00 -7.392341e+00 -1.832690e+00 -4.059911e+00 -5.196792e-01 -2.639862e+00 -2.525514e+00 5.699863e+01 1.700382e-02 -5.215406e-03 2.374562e-03 -3.223888e-03 6.313559e-03 -1.454970e-02 -1.132163e-02 -8.926885e-03 -9.477547e-03 -4.594841e-03 -1.045515e-02 -6.317729e-04 5.988493e-02 -8.761588e-04 -9.383484e-05 1.257182e-03 3.458446e-04 -4.947232e-04 8.716302e-04 1.326781e-03 9.909964e-04 6.046794e-05 -2.788493e-04 -3.502069e-04 -2.982569e-04 -2.026873e-03
<VARIANCE> 39
 7.958804e+01 5.685667e+01 7.285796e+01 6.832046e+01 7.573316e+01 7.273641e+01 6.927921e+01 6.811816e+01 7.898077e+01 5.386222e+01 6.644337e+01 5.721838e+01 2.357942e+02 2.353387e+00 2.528079e+00 2.648467e+00 3.388781e+00 3.598284e+00 3.434243e+00 3.601095e+00 3.951554e+00 3.435617e+00 3.243728e+00 3.144767e+00 2.665965e+00 3.142714e+00 3.591968e-01 4.069394e-01 4.246498e-01 5.840888e-01 6.218489e-01 6.178815e-01 6.612020e-01 7.182935e-01 6.242200e-01 6.042847e-01 5.761919e-01 4.949592e-01 4.393218e-01
<GCONST> 1.345019e+02
<TRANSP> 5
 0.000000e+00 1.000000e+00 0.000000e+00 0.000000e+00 0.000000e+00
 0.000000e+00 6.000000e-01 4.000000e-01 0.000000e+00 0.000000e+00
 0.000000e+00 0.000000e+00 6.000000e-01 4.000000e-01 0.000000e+00
 0.000000e+00 0.000000e+00 0.000000e+00 7.000000e-01 3.000000e-01
 0.000000e+00 0.000000e+00 0.000000e+00 0.000000e+00 0.000000e+00
<ENDHMM>
~h "l"
<BEGINHMM>
<NUMSTATES> 5
<STATE> 2
<MEAN> 39
 -7.237505e+00 -9.522734e-01 -7.239595e-01 -2.744242e+00 -6.125420e+00 -3.744653e+00 -7.392341e+00 -1.832690e+00 -4.059911e+00 -5.196792e-01 -2.639862e+00 -2.525514e+00 5.699863e+01 1.700382e-02 -5.215406e-03 2.374562e-03 -3.223888e-03 6.313559e-03 -1.454970e-02 -1.132163e-02 -8.926885e-03 -9.477547e-03 -4.594841e-03 -1.045515e-02 -6.317729e-04 5.988493e-02 -8.761588e-04 -9.383484e-05 1.257182e-03 3.458446e-04 -4.947232e-04 8.716302e-04 1.326781e-03 9.909964e-04 6.046794e-05 -2.788493e-04 -3.502069e-04 -2.982569e-04 -2.026873e-03
<VARIANCE> 39
 7.958804e+01 5.685667e+01 7.285796e+01 6.832046e+01 7.573316e+01 7.273641e+01 6.927921e+01 6.811816e+01 7.898077e+01 5.386222e+01 6.644337e+01 5.721838e+01 2.357942e+02 2.353387e+00 2.528079e+00 2.648467e+00 3.388781e+00 3.598284e+00 3.434243e+00 3.601095e+00 3.951554e+00 3.435617e+00 3.243728e+00 3.144767e+00 2.665965e+00 3.142714e+00 3.591968e-01 4.069394e-01 4.246498e-01 5.840888e-01 6.218489e-01 6.178815e-01 6.612020e-01 7.182935e-01 6.242200e-01 6.042847e-01 5.761919e-01 4.949592e-01 4.393218e-01
<GCONST> 1.345019e+02
<STATE> 3
<MEAN> 39
 -7.237505e+00 -9.522734e-01 -7.239595e-01 -2.744242e+00 -6.125420e+00 -3.744653e+00 -7.392341e+00 -1.832690e+00 -4.059911e+00 -5.196792e-01 -2.639862e+00 -2.525514e+00 5.699863e+01 1.700382e-02 -5.215406e-03 2.374562e-03 -3.223888e-03 6.313559e-03 -1.454970e-02 -1.132163e-02 -8.926885e-03 -9.477547e-03 -4.594841e-03 -1.045515e-02 -6.317729e-04 5.988493e-02 -8.761588e-04 -9.383484e-05 1.257182e-03 3.458446e-04 -4.947232e-04 8.716302e-04 1.326781e-03 9.909964e-04 6.046794e-05 -2.788493e-04 -3.502069e-04 -2.982569e-04 -2.026873e-03
<VARIANCE> 39
 7.958804e+01 5.685667e+01 7.285796e+01 6.832046e+01 7.573316e+01 7.273641e+01 6.927921e+01 6.811816e+01 7.898077e+01 5.386222e+01 6.644337e+01 5.721838e+01 2.357942e+02 2.353387e+00 2.528079e+00 2.648467e+00 3.388781e+00 3.598284e+00 3.434243e+00 3.601095e+00 3.951554e+00 3.435617e+00 3.243728e+00 3.144767e+00 2.665965e+00 3.142714e+00 3.591968e-01 4.069394e-01 4.246498e-01 5.840888e-01 6.218489e-01 6.178815e-01 6.612020e-01 7.182935e-01 6.242200e-01 6.042847e-01 5.761919e-01 4.949592e-01 4.393218e-01
<GCONST> 1.345019e+02
<STATE> 4
<MEAN> 39
 -7.237505e+00 -9.522734e-01 -7.239595e-01 -2.744242e+00 -6.125420e+00 -3.744653e+00 -7.392341e+00 -1.832690e+00 -4.059911e+00 -5.196792e-01 -2.639862e+00 -2.525514e+00 5.699863e+01 1.700382e-02 -5.215406e-03 2.374562e-03 -3.223888e-03 6.313559e-03 -1.454970e-02 -1.132163e-02 -8.926885e-03 -9.477547e-03 -4.594841e-03 -1.045515e-02 -6.317729e-04 5.988493e-02 -8.761588e-04 -9.383484e-05 1.257182e-03 3.458446e-04 -4.947232e-04 8.716302e-04 1.326781e-03 9.909964e-04 6.046794e-05 -2.788493e-04 -3.502069e-04 -2.982569e-04 -2.026873e-03
<VARIANCE> 39
 7.958804e+01 5.685667e+01 7.285796e+01 6.832046e+01 7.573316e+01 7.273641e+01 6.927921e+01 6.811816e+01 7.898077e+01 5.386222e+01 6.644337e+01 5.721838e+01 2.357942e+02 2.353387e+00 2.528079e+00 2.648467e+00 3.388781e+00 3.598284e+00 3.434243e+00 3.601095e+00 3.951554e+00 3.435617e+00 3.243728e+00 3.144767e+00 2.665965e+00 3.142714e+00 3.591968e-01 4.069394e-01 4.246498e-01 5.840888e-01 6.218489e-01 6.178815e-01 6.612020e-01 7.182935e-01 6.242200e-01 6.042847e-01 5.761919e-01 4.949592e-01 4.393218e-01
<GCONST> 1.345019e+02
<TRANSP> 5
 0.000000e+00 1.000000e+00 0.000000e+00 0.000000e+00 0.000000e+00
 0.000000e+00 6.000000e-01 4.000000e-01 0.000000e+00 0.000000e+00
 0.000000e+00 0.000000e+00 6.000000e-01 4.000000e-01 0.000000e+00
 0.000000e+00 0.000000e+00 0.000000e+00 7.000000e-01 3.000000e-01
 0.000000e+00 0.000000e+00 0.000000e+00 0.000000e+00 0.000000e+00
<ENDHMM>
~h "h"
<BEGINHMM>
<NUMSTATES> 5
<STATE> 2
<MEAN> 39
 -7.237505e+00 -9.522734e-01 -7.239595e-01 -2.744242e+00 -6.125420e+00 -3.744653e+00 -7.392341e+00 -1.832690e+00 -4.059911e+00 -5.196792e-01 -2.639862e+00 -2.525514e+00 5.699863e+01 1.700382e-02 -5.215406e-03 2.374562e-03 -3.223888e-03 6.313559e-03 -1.454970e-02 -1.132163e-02 -8.926885e-03 -9.477547e-03 -4.594841e-03 -1.045515e-02 -6.317729e-04 5.988493e-02 -8.761588e-04 -9.383484e-05 1.257182e-03 3.458446e-04 -4.947232e-04 8.716302e-04 1.326781e-03 9.909964e-04 6.046794e-05 -2.788493e-04 -3.502069e-04 -2.982569e-04 -2.026873e-03
<VARIANCE> 39
 7.958804e+01 5.685667e+01 7.285796e+01 6.832046e+01 7.573316e+01 7.273641e+01 6.927921e+01 6.811816e+01 7.898077e+01 5.386222e+01 6.644337e+01 5.721838e+01 2.357942e+02 2.353387e+00 2.528079e+00 2.648467e+00 3.388781e+00 3.598284e+00 3.434243e+00 3.601095e+00 3.951554e+00 3.435617e+00 3.243728e+00 3.144767e+00 2.665965e+00 3.142714e+00 3.591968e-01 4.069394e-01 4.246498e-01 5.840888e-01 6.218489e-01 6.178815e-01 6.612020e-01 7.182935e-01 6.242200e-01 6.042847e-01 5.761919e-01 4.949592e-01 4.393218e-01
<GCONST> 1.345019e+02
<STATE> 3
<MEAN> 39
 -7.237505e+00 -9.522734e-01 -7.239595e-01 -2.744242e+00 -6.125420e+00 -3.744653e+00 -7.392341e+00 -1.832690e+00 -4.059911e+00 -5.196792e-01 -2.639862e+00 -2.525514e+00 5.699863e+01 1.700382e-02 -5.215406e-03 2.374562e-03 -3.223888e-03 6.313559e-03 -1.454970e-02 -1.132163e-02 -8.926885e-03 -9.477547e-03 -4.594841e-03 -1.045515e-02 -6.317729e-04 5.988493e-02 -8.761588e-04 -9.383484e-05 1.257182e-03 3.458446e-04 -4.947232e-04 8.716302e-04 1.326781e-03 9.909964e-04 6.046794e-05 -2.788493e-04 -3.502069e-04 -2.982569e-04 -2.026873e-03
<VARIANCE> 39
 7.958804e+01 5.685667e+01 7.285796e+01 6.832046e+01 7.573316e+01 7.273641e+01 6.927921e+01 6.811816e+01 7.898077e+01 5.386222e+01 6.644337e+01 5.721838e+01 2.357942e+02 2.353387e+00 2.528079e+00 2.648467e+00 3.388781e+00 3.598284e+00 3.434243e+00 3.601095e+00 3.951554e+00 3.435617e+00 3.243728e+00 3.144767e+00 2.665965e+00 3.142714e+00 3.591968e-01 4.069394e-01 4.246498e-01 5.840888e-01 6.218489e-01 6.178815e-01 6.612020e-01 7.182935e-01 6.242200e-01 6.042847e-01 5.761919e-01 4.949592e-01 4.393218e-01
<GCONST> 1.345019e+02
<STATE> 4
<MEAN> 39
 -7.237505e+00 -9.522734e-01 -7.239595e-01 -2.744242e+00 -6.125420e+00 -3.744653e+00 -7.392341e+00 -1.832690e+00 -4.059911e+00 -5.196792e-01 -2.639862e+00 -2.525514e+00 5.699863e+01 1.700382e-02 -5.215406e-03 2.374562e-03 -3.223888e-03 6.313559e-03 -1.454970e-02 -1.132163e-02 -8.926885e-03 -9.477547e-03 -4.594841e-03 -1.045515e-02 -6.317729e-04 5.988493e-02 -8.761588e-04 -9.383484e-05 1.257182e-03 3.458446e-04 -4.947232e-04 8.716302e-04 1.326781e-03 9.909964e-04 6.046794e-05 -2.788493e-04 -3.502069e-04 -2.982569e-04 -2.026873e-03
<VARIANCE> 39
 7.958804e+01 5.685667e+01 7.285796e+01 6.832046e+01 7.573316e+01 7.273641e+01 6.927921e+01 6.811816e+01 7.898077e+01 5.386222e+01 6.644337e+01 5.721838e+01 2.357942e+02 2.353387e+00 2.528079e+00 2.648467e+00 3.388781e+00 3.598284e+00 3.434243e+00 3.601095e+00 3.951554e+00 3.435617e+00 3.243728e+00 3.144767e+00 2.665965e+00 3.142714e+00 3.591968e-01 4.069394e-01 4.246498e-01 5.840888e-01 6.218489e-01 6.178815e-01 6.612020e-01 7.182935e-01 6.242200e-01 6.042847e-01 5.761919e-01 4.949592e-01 4.393218e-01
<GCONST> 1.345019e+02
<TRANSP> 5
 0.000000e+00 1.000000e+00 0.000000e+00 0.000000e+00 0.000000e+00
 0.000000e+00 6.000000e-01 4.000000e-01 0.000000e+00 0.000000e+00
 0.000000e+00 0.000000e+00 6.000000e-01 4.000000e-01 0.000000e+00
 0.000000e+00 0.000000e+00 0.000000e+00 7.000000e-01 3.000000e-01
 0.000000e+00 0.000000e+00 0.000000e+00 0.000000e+00 0.000000e+00
<ENDHMM>
~h "j"
<BEGINHMM>
<NUMSTATES> 5
<STATE> 2
<MEAN> 39
 -7.237505e+00 -9.522734e-01 -7.239595e-01 -2.744242e+00 -6.125420e+00 -3.744653e+00 -7.392341e+00 -1.832690e+00 -4.059911e+00 -5.196792e-01 -2.639862e+00 -2.525514e+00 5.699863e+01 1.700382e-02 -5.215406e-03 2.374562e-03 -3.223888e-03 6.313559e-03 -1.454970e-02 -1.132163e-02 -8.926885e-03 -9.477547e-03 -4.594841e-03 -1.045515e-02 -6.317729e-04 5.988493e-02 -8.761588e-04 -9.383484e-05 1.257182e-03 3.458446e-04 -4.947232e-04 8.716302e-04 1.326781e-03 9.909964e-04 6.046794e-05 -2.788493e-04 -3.502069e-04 -2.982569e-04 -2.026873e-03
<VARIANCE> 39
 7.958804e+01 5.685667e+01 7.285796e+01 6.832046e+01 7.573316e+01 7.273641e+01 6.927921e+01 6.811816e+01 7.898077e+01 5.386222e+01 6.644337e+01 5.721838e+01 2.357942e+02 2.353387e+00 2.528079e+00 2.648467e+00 3.388781e+00 3.598284e+00 3.434243e+00 3.601095e+00 3.951554e+00 3.435617e+00 3.243728e+00 3.144767e+00 2.665965e+00 3.142714e+00 3.591968e-01 4.069394e-01 4.246498e-01 5.840888e-01 6.218489e-01 6.178815e-01 6.612020e-01 7.182935e-01 6.242200e-01 6.042847e-01 5.761919e-01 4.949592e-01 4.393218e-01
<GCONST> 1.345019e+02
<STATE> 3
<MEAN> 39
 -7.237505e+00 -9.522734e-01 -7.239595e-01 -2.744242e+00 -6.125420e+00 -3.744653e+00 -7.392341e+00 -1.832690e+00 -4.059911e+00 -5.196792e-01 -2.639862e+00 -2.525514e+00 5.699863e+01 1.700382e-02 -5.215406e-03 2.374562e-03 -3.223888e-03 6.313559e-03 -1.454970e-02 -1.132163e-02 -8.926885e-03 -9.477547e-03 -4.594841e-03 -1.045515e-02 -6.317729e-04 5.988493e-02 -8.761588e-04 -9.383484e-05 1.257182e-03 3.458446e-04 -4.947232e-04 8.716302e-04 1.326781e-03 9.909964e-04 6.046794e-05 -2.788493e-04 -3.502069e-04 -2.982569e-04 -2.026873e-03
<VARIANCE> 39
 7.958804e+01 5.685667e+01 7.285796e+01 6.832046e+01 7.573316e+01 7.273641e+01 6.927921e+01 6.811816e+01 7.898077e+01 5.386222e+01 6.644337e+01 5.721838e+01 2.357942e+02 2.353387e+00 2.528079e+00 2.648467e+00 3.388781e+00 3.598284e+00 3.434243e+00 3.601095e+00 3.951554e+00 3.435617e+00 3.243728e+00 3.144767e+00 2.665965e+00 3.142714e+00 3.591968e-01 4.069394e-01 4.246498e-01 5.840888e-01 6.218489e-01 6.178815e-01 6.612020e-01 7.182935e-01 6.242200e-01 6.042847e-01 5.761919e-01 4.949592e-01 4.393218e-01
<GCONST> 1.345019e+02
<STATE> 4
<MEAN> 39
 -7.237505e+00 -9.522734e-01 -7.239595e-01 -2.744242e+00 -6.125420e+00 -3.744653e+00 -7.392341e+00 -1.832690e+00 -4.059911e+00 -5.196792e-01 -2.639862e+00 -2.525514e+00 5.699863e+01 1.700382e-02 -5.215406e-03 2.374562e-03 -3.223888e-03 6.313559e-03 -1.454970e-02 -1.132163e-02 -8.926885e-03 -9.477547e-03 -4.594841e-03 -1.045515e-02 -6.317729e-04 5.988493e-02 -8.761588e-04 -9.383484e-05 1.257182e-03 3.458446e-04 -4.947232e-04 8.716302e-04 1.326781e-03 9.909964e-04 6.046794e-05 -2.788493e-04 -3.502069e-04 -2.982569e-04 -2.026873e-03
<VARIANCE> 39
 7.958804e+01 5.685667e+01 7.285796e+01 6.832046e+01 7.573316e+01 7.273641e+01 6.927921e+01 6.811816e+01 7.898077e+01 5.386222e+01 6.644337e+01 5.721838e+01 2.357942e+02 2.353387e+00 2.528079e+00 2.648467e+00 3.388781e+00 3.598284e+00 3.434243e+00 3.601095e+00 3.951554e+00 3.435617e+00 3.243728e+00 3.144767e+00 2.665965e+00 3.142714e+00 3.591968e-01 4.069394e-01 4.246498e-01 5.840888e-01 6.218489e-01 6.178815e-01 6.612020e-01 7.182935e-01 6.242200e-01 6.042847e-01 5.761919e-01 4.949592e-01 4.393218e-01
<GCONST> 1.345019e+02
<TRANSP> 5
 0.000000e+00 1.000000e+00 0.000000e+00 0.000000e+00 0.000000e+00
 0.000000e+00 6.000000e-01 4.000000e-01 0.000000e+00 0.000000e+00
 0.000000e+00 0.000000e+00 6.000000e-01 4.000000e-01 0.000000e+00
 0.000000e+00 0.000000e+00 0.000000e+00 7.000000e-01 3.000000e-01
 0.000000e+00 0.000000e+00 0.000000e+00 0.000000e+00 0.000000e+00
<ENDHMM>
~h "n"
<BEGINHMM>
<NUMSTATES> 5
<STATE> 2
<MEAN> 39
 -7.237505e+00 -9.522734e-01 -7.239595e-01 -2.744242e+00 -6.125420e+00 -3.744653e+00 -7.392341e+00 -1.832690e+00 -4.059911e+00 -5.196792e-01 -2.639862e+00 -2.525514e+00 5.699863e+01 1.700382e-02 -5.215406e-03 2.374562e-03 -3.223888e-03 6.313559e-03 -1.454970e-02 -1.132163e-02 -8.926885e-03 -9.477547e-03 -4.594841e-03 -1.045515e-02 -6.317729e-04 5.988493e-02 -8.761588e-04 -9.383484e-05 1.257182e-03 3.458446e-04 -4.947232e-04 8.716302e-04 1.326781e-03 9.909964e-04 6.046794e-05 -2.788493e-04 -3.502069e-04 -2.982569e-04 -2.026873e-03
<VARIANCE> 39
 7.958804e+01 5.685667e+01 7.285796e+01 6.832046e+01 7.573316e+01 7.273641e+01 6.927921e+01 6.811816e+01 7.898077e+01 5.386222e+01 6.644337e+01 5.721838e+01 2.357942e+02 2.353387e+00 2.528079e+00 2.648467e+00 3.388781e+00 3.598284e+00 3.434243e+00 3.601095e+00 3.951554e+00 3.435617e+00 3.243728e+00 3.144767e+00 2.665965e+00 3.142714e+00 3.591968e-01 4.069394e-01 4.246498e-01 5.840888e-01 6.218489e-01 6.178815e-01 6.612020e-01 7.182935e-01 6.242200e-01 6.042847e-01 5.761919e-01 4.949592e-01 4.393218e-01
<GCONST> 1.345019e+02
<STATE> 3
<MEAN> 39
 -7.237505e+00 -9.522734e-01 -7.239595e-01 -2.744242e+00 -6.125420e+00 -3.744653e+00 -7.392341e+00 -1.832690e+00 -4.059911e+00 -5.196792e-01 -2.639862e+00 -2.525514e+00 5.699863e+01 1.700382e-02 -5.215406e-03 2.374562e-03 -3.223888e-03 6.313559e-03 -1.454970e-02 -1.132163e-02 -8.926885e-03 -9.477547e-03 -4.594841e-03 -1.045515e-02 -6.317729e-04 5.988493e-02 -8.761588e-04 -9.383484e-05 1.257182e-03 3.458446e-04 -4.947232e-04 8.716302e-04 1.326781e-03 9.909964e-04 6.046794e-05 -2.788493e-04 -3.502069e-04 -2.982569e-04 -2.026873e-03
<VARIANCE> 39
 7.958804e+01 5.685667e+01 7.285796e+01 6.832046e+01 7.573316e+01 7.273641e+01 6.927921e+01 6.811816e+01 7.898077e+01 5.386222e+01 6.644337e+01 5.721838e+01 2.357942e+02 2.353387e+00 2.528079e+00 2.648467e+00 3.388781e+00 3.598284e+00 3.434243e+00 3.601095e+00 3.951554e+00 3.435617e+00 3.243728e+00 3.144767e+00 2.665965e+00 3.142714e+00 3.591968e-01 4.069394e-01 4.246498e-01 5.840888e-01 6.218489e-01 6.178815e-01 6.612020e-01 7.182935e-01 6.242200e-01 6.042847e-01 5.761919e-01 4.949592e-01 4.393218e-01
<GCONST> 1.345019e+02
<STATE> 4
<MEAN> 39
 -7.237505e+00 -9.522734e-01 -7.239595e-01 -2.744242e+00 -6.125420e+00 -3.744653e+00 -7.392341e+00 -1.832690e+00 -4.059911e+00 -5.196792e-01 -2.639862e+00 -2.525514e+00 5.699863e+01 1.700382e-02 -5.215406e-03 2.374562e-03 -3.223888e-03 6.313559e-03 -1.454970e-02 -1.132163e-02 -8.926885e-03 -9.477547e-03 -4.594841e-03 -1.045515e-02 -6.317729e-04 5.988493e-02 -8.761588e-04 -9.383484e-05 1.257182e-03 3.458446e-04 -4.947232e-04 8.716302e-04 1.326781e-03 9.909964e-04 6.046794e-05 -2.788493e-04 -3.502069e-04 -2.982569e-04 -2.026873e-03
<VARIANCE> 39
 7.958804e+01 5.685667e+01 7.285796e+01 6.832046e+01 7.573316e+01 7.273641e+01 6.927921e+01 6.811816e+01 7.898077e+01 5.386222e+01 6.644337e+01 5.721838e+01 2.357942e+02 2.353387e+00 2.528079e+00 2.648467e+00 3.388781e+00 3.598284e+00 3.434243e+00 3.601095e+00 3.951554e+00 3.435617e+00 3.243728e+00 3.144767e+00 2.665965e+00 3.142714e+00 3.591968e-01 4.069394e-01 4.246498e-01 5.840888e-01 6.218489e-01 6.178815e-01 6.612020e-01 7.182935e-01 6.242200e-01 6.042847e-01 5.761919e-01 4.949592e-01 4.393218e-01
<GCONST> 1.345019e+02
<TRANSP> 5
 0.000000e+00 1.000000e+00 0.000000e+00 0.000000e+00 0.000000e+00
 0.000000e+00 6.000000e-01 4.000000e-01 0.000000e+00 0.000000e+00
 0.000000e+00 0.000000e+00 6.000000e-01 4.000000e-01 0.000000e+00
 0.000000e+00 0.000000e+00 0.000000e+00 7.000000e-01 3.000000e-01
 0.000000e+00 0.000000e+00 0.000000e+00 0.000000e+00 0.000000e+00
<ENDHMM>
~h "r"
<BEGINHMM>
<NUMSTATES> 5
<STATE> 2
<MEAN> 39
 -7.237505e+00 -9.522734e-01 -7.239595e-01 -2.744242e+00 -6.125420e+00 -3.744653e+00 -7.392341e+00 -1.832690e+00 -4.059911e+00 -5.196792e-01 -2.639862e+00 -2.525514e+00 5.699863e+01 1.700382e-02 -5.215406e-03 2.374562e-03 -3.223888e-03 6.313559e-03 -1.454970e-02 -1.132163e-02 -8.926885e-03 -9.477547e-03 -4.594841e-03 -1.045515e-02 -6.317729e-04 5.988493e-02 -8.761588e-04 -9.383484e-05 1.257182e-03 3.458446e-04 -4.947232e-04 8.716302e-04 1.326781e-03 9.909964e-04 6.046794e-05 -2.788493e-04 -3.502069e-04 -2.982569e-04 -2.026873e-03
<VARIANCE> 39
 7.958804e+01 5.685667e+01 7.285796e+01 6.832046e+01 7.573316e+01 7.273641e+01 6.927921e+01 6.811816e+01 7.898077e+01 5.386222e+01 6.644337e+01 5.721838e+01 2.357942e+02 2.353387e+00 2.528079e+00 2.648467e+00 3.388781e+00 3.598284e+00 3.434243e+00 3.601095e+00 3.951554e+00 3.435617e+00 3.243728e+00 3.144767e+00 2.665965e+00 3.142714e+00 3.591968e-01 4.069394e-01 4.246498e-01 5.840888e-01 6.218489e-01 6.178815e-01 6.612020e-01 7.182935e-01 6.242200e-01 6.042847e-01 5.761919e-01 4.949592e-01 4.393218e-01
<GCONST> 1.345019e+02
<STATE> 3
<MEAN> 39
 -7.237505e+00 -9.522734e-01 -7.239595e-01 -2.744242e+00 -6.125420e+00 -3.744653e+00 -7.392341e+00 -1.832690e+00 -4.059911e+00 -5.196792e-01 -2.639862e+00 -2.525514e+00 5.699863e+01 1.700382e-02 -5.215406e-03 2.374562e-03 -3.223888e-03 6.313559e-03 -1.454970e-02 -1.132163e-02 -8.926885e-03 -9.477547e-03 -4.594841e-03 -1.045515e-02 -6.317729e-04 5.988493e-02 -8.761588e-04 -9.383484e-05 1.257182e-03 3.458446e-04 -4.947232e-04 8.716302e-04 1.326781e-03 9.909964e-04 6.046794e-05 -2.788493e-04 -3.502069e-04 -2.982569e-04 -2.026873e-03
<VARIANCE> 39
 7.958804e+01 5.685667e+01 7.285796e+01 6.832046e+01 7.573316e+01 7.273641e+01 6.927921e+01 6.811816e+01 7.898077e+01 5.386222e+01 6.644337e+01 5.721838e+01 2.357942e+02 2.353387e+00 2.528079e+00 2.648467e+00 3.388781e+00 3.598284e+00 3.434243e+00 3.601095e+00 3.951554e+00 3.435617e+00 3.243728e+00 3.144767e+00 2.665965e+00 3.142714e+00 3.591968e-01 4.069394e-01 4.246498e-01 5.840888e-01 6.218489e-01 6.178815e-01 6.612020e-01 7.182935e-01 6.242200e-01 6.042847e-01 5.761919e-01 4.949592e-01 4.393218e-01
<GCONST> 1.345019e+02
<STATE> 4
<MEAN> 39
 -7.237505e+00 -9.522734e-01 -7.239595e-01 -2.744242e+00 -6.125420e+00 -3.744653e+00 -7.392341e+00 -1.832690e+00 -4.059911e+00 -5.196792e-01 -2.639862e+00 -2.525514e+00 5.699863e+01 1.700382e-02 -5.215406e-03 2.374562e-03 -3.223888e-03 6.313559e-03 -1.454970e-02 -1.132163e-02 -8.926885e-03 -9.477547e-03 -4.594841e-03 -1.045515e-02 -6.317729e-04 5.988493e-02 -8.761588e-04 -9.383484e-05 1.257182e-03 3.458446e-04 -4.947232e-04 8.716302e-04 1.326781e-03 9.909964e-04 6.046794e-05 -2.788493e-04 -3.502069e-04 -2.982569e-04 -2.026873e-03
<VARIANCE> 39
 7.958804e+01 5.685667e+01 7.285796e+01 6.832046e+01 7.573316e+01 7.273641e+01 6.927921e+01 6.811816e+01 7.898077e+01 5.386222e+01 6.644337e+01 5.721838e+01 2.357942e+02 2.353387e+00 2.528079e+00 2.648467e+00 3.388781e+00 3.598284e+00 3.434243e+00 3.601095e+00 3.951554e+00 3.435617e+00 3.243728e+00 3.144767e+00 2.665965e+00 3.142714e+00 3.591968e-01 4.069394e-01 4.246498e-01 5.840888e-01 6.218489e-01 6.178815e-01 6.612020e-01 7.182935e-01 6.242200e-01 6.042847e-01 5.761919e-01 4.949592e-01 4.393218e-01
<GCONST> 1.345019e+02
<TRANSP> 5
 0.000000e+00 1.000000e+00 0.000000e+00 0.000000e+00 0.000000e+00
 0.000000e+00 6.000000e-01 4.000000e-01 0.000000e+00 0.000000e+00
 0.000000e+00 0.000000e+00 6.000000e-01 4.000000e-01 0.000000e+00
 0.000000e+00 0.000000e+00 0.000000e+00 7.000000e-01 3.000000e-01
 0.000000e+00 0.000000e+00 0.000000e+00 0.000000e+00 0.000000e+00
<ENDHMM>
~h "b"
<BEGINHMM>
<NUMSTATES> 5
<STATE> 2
<MEAN> 39
 -7.237505e+00 -9.522734e-01 -7.239595e-01 -2.744242e+00 -6.125420e+00 -3.744653e+00 -7.392341e+00 -1.832690e+00 -4.059911e+00 -5.196792e-01 -2.639862e+00 -2.525514e+00 5.699863e+01 1.700382e-02 -5.215406e-03 2.374562e-03 -3.223888e-03 6.313559e-03 -1.454970e-02 -1.132163e-02 -8.926885e-03 -9.477547e-03 -4.594841e-03 -1.045515e-02 -6.317729e-04 5.988493e-02 -8.761588e-04 -9.383484e-05 1.257182e-03 3.458446e-04 -4.947232e-04 8.716302e-04 1.326781e-03 9.909964e-04 6.046794e-05 -2.788493e-04 -3.502069e-04 -2.982569e-04 -2.026873e-03
<VARIANCE> 39
 7.958804e+01 5.685667e+01 7.285796e+01 6.832046e+01 7.573316e+01 7.273641e+01 6.927921e+01 6.811816e+01 7.898077e+01 5.386222e+01 6.644337e+01 5.721838e+01 2.357942e+02 2.353387e+00 2.528079e+00 2.648467e+00 3.388781e+00 3.598284e+00 3.434243e+00 3.601095e+00 3.951554e+00 3.435617e+00 3.243728e+00 3.144767e+00 2.665965e+00 3.142714e+00 3.591968e-01 4.069394e-01 4.246498e-01 5.840888e-01 6.218489e-01 6.178815e-01 6.612020e-01 7.182935e-01 6.242200e-01 6.042847e-01 5.761919e-01 4.949592e-01 4.393218e-01
<GCONST> 1.345019e+02
<STATE> 3
<MEAN> 39
 -7.237505e+00 -9.522734e-01 -7.239595e-01 -2.744242e+00 -6.125420e+00 -3.744653e+00 -7.392341e+00 -1.832690e+00 -4.059911e+00 -5.196792e-01 -2.639862e+00 -2.525514e+00 5.699863e+01 1.700382e-02 -5.215406e-03 2.374562e-03 -3.223888e-03 6.313559e-03 -1.454970e-02 -1.132163e-02 -8.926885e-03 -9.477547e-03 -4.594841e-03 -1.045515e-02 -6.317729e-04 5.988493e-02 -8.761588e-04 -9.383484e-05 1.257182e-03 3.458446e-04 -4.947232e-04 8.716302e-04 1.326781e-03 9.909964e-04 6.046794e-05 -2.788493e-04 -3.502069e-04 -2.982569e-04 -2.026873e-03
<VARIANCE> 39
 7.958804e+01 5.685667e+01 7.285796e+01 6.832046e+01 7.573316e+01 7.273641e+01 6.927921e+01 6.811816e+01 7.898077e+01 5.386222e+01 6.644337e+01 5.721838e+01 2.357942e+02 2.353387e+00 2.528079e+00 2.648467e+00 3.388781e+00 3.598284e+00 3.434243e+00 3.601095e+00 3.951554e+00 3.435617e+00 3.243728e+00 3.144767e+00 2.665965e+00 3.142714e+00 3.591968e-01 4.069394e-01 4.246498e-01 5.840888e-01 6.218489e-01 6.178815e-01 6.612020e-01 7.182935e-01 6.242200e-01 6.042847e-01 5.761919e-01 4.949592e-01 4.393218e-01
<GCONST> 1.345019e+02
<STATE> 4
<MEAN> 39
 -7.237505e+00 -9.522734e-01 -7.239595e-01 -2.744242e+00 -6.125420e+00 -3.744653e+00 -7.392341e+00 -1.832690e+00 -4.059911e+00 -5.196792e-01 -2.639862e+00 -2.525514e+00 5.699863e+01 1.700382e-02 -5.215406e-03 2.374562e-03 -3.223888e-03 6.313559e-03 -1.454970e-02 -1.132163e-02 -8.926885e-03 -9.477547e-03 -4.594841e-03 -1.045515e-02 -6.317729e-04 5.988493e-02 -8.761588e-04 -9.383484e-05 1.257182e-03 3.458446e-04 -4.947232e-04 8.716302e-04 1.326781e-03 9.909964e-04 6.046794e-05 -2.788493e-04 -3.502069e-04 -2.982569e-04 -2.026873e-03
<VARIANCE> 39
 7.958804e+01 5.685667e+01 7.285796e+01 6.832046e+01 7.573316e+01 7.273641e+01 6.927921e+01 6.811816e+01 7.898077e+01 5.386222e+01 6.644337e+01 5.721838e+01 2.357942e+02 2.353387e+00 2.528079e+00 2.648467e+00 3.388781e+00 3.598284e+00 3.434243e+00 3.601095e+00 3.951554e+00 3.435617e+00 3.243728e+00 3.144767e+00 2.665965e+00 3.142714e+00 3.591968e-01 4.069394e-01 4.246498e-01 5.840888e-01 6.218489e-01 6.178815e-01 6.612020e-01 7.182935e-01 6.242200e-01 6.042847e-01 5.761919e-01 4.949592e-01 4.393218e-01
<GCONST> 1.345019e+02
<TRANSP> 5
 0.000000e+00 1.000000e+00 0.000000e+00 0.000000e+00 0.000000e+00
 0.000000e+00 6.000000e-01 4.000000e-01 0.000000e+00 0.000000e+00
 0.000000e+00 0.000000e+00 6.000000e-01 4.000000e-01 0.000000e+00
 0.000000e+00 0.000000e+00 0.000000e+00 7.000000e-01 3.000000e-01
 0.000000e+00 0.000000e+00 0.000000e+00 0.000000e+00 0.000000e+00
<ENDHMM>
~h "u"
<BEGINHMM>
<NUMSTATES> 5
<STATE> 2
<MEAN> 39
 -7.237505e+00 -9.522734e-01 -7.239595e-01 -2.744242e+00 -6.125420e+00 -3.744653e+00 -7.392341e+00 -1.832690e+00 -4.059911e+00 -5.196792e-01 -2.639862e+00 -2.525514e+00 5.699863e+01 1.700382e-02 -5.215406e-03 2.374562e-03 -3.223888e-03 6.313559e-03 -1.454970e-02 -1.132163e-02 -8.926885e-03 -9.477547e-03 -4.594841e-03 -1.045515e-02 -6.317729e-04 5.988493e-02 -8.761588e-04 -9.383484e-05 1.257182e-03 3.458446e-04 -4.947232e-04 8.716302e-04 1.326781e-03 9.909964e-04 6.046794e-05 -2.788493e-04 -3.502069e-04 -2.982569e-04 -2.026873e-03
<VARIANCE> 39
 7.958804e+01 5.685667e+01 7.285796e+01 6.832046e+01 7.573316e+01 7.273641e+01 6.927921e+01 6.811816e+01 7.898077e+01 5.386222e+01 6.644337e+01 5.721838e+01 2.357942e+02 2.353387e+00 2.528079e+00 2.648467e+00 3.388781e+00 3.598284e+00 3.434243e+00 3.601095e+00 3.951554e+00 3.435617e+00 3.243728e+00 3.144767e+00 2.665965e+00 3.142714e+00 3.591968e-01 4.069394e-01 4.246498e-01 5.840888e-01 6.218489e-01 6.178815e-01 6.612020e-01 7.182935e-01 6.242200e-01 6.042847e-01 5.761919e-01 4.949592e-01 4.393218e-01
<GCONST> 1.345019e+02
<STATE> 3
<MEAN> 39
 -7.237505e+00 -9.522734e-01 -7.239595e-01 -2.744242e+00 -6.125420e+00 -3.744653e+00 -7.392341e+00 -1.832690e+00 -4.059911e+00 -5.196792e-01 -2.639862e+00 -2.525514e+00 5.699863e+01 1.700382e-02 -5.215406e-03 2.374562e-03 -3.223888e-03 6.313559e-03 -1.454970e-02 -1.132163e-02 -8.926885e-03 -9.477547e-03 -4.594841e-03 -1.045515e-02 -6.317729e-04 5.988493e-02 -8.761588e-04 -9.383484e-05 1.257182e-03 3.458446e-04 -4.947232e-04 8.716302e-04 1.326781e-03 9.909964e-04 6.046794e-05 -2.788493e-04 -3.502069e-04 -2.982569e-04 -2.026873e-03
<VARIANCE> 39
 7.958804e+01 5.685667e+01 7.285796e+01 6.832046e+01 7.573316e+01 7.273641e+01 6.927921e+01 6.811816e+01 7.898077e+01 5.386222e+01 6.644337e+01 5.721838e+01 2.357942e+02 2.353387e+00 2.528079e+00 2.648467e+00 3.388781e+00 3.598284e+00 3.434243e+00 3.601095e+00 3.951554e+00 3.435617e+00 3.243728e+00 3.144767e+00 2.665965e+00 3.142714e+00 3.591968e-01 4.069394e-01 4.246498e-01 5.840888e-01 6.218489e-01 6.178815e-01 6.612020e-01 7.182935e-01 6.242200e-01 6.042847e-01 5.761919e-01 4.949592e-01 4.393218e-01
<GCONST> 1.345019e+02
<STATE> 4
<MEAN> 39
 -7.237505e+00 -9.522734e-01 -7.239595e-01 -2.744242e+00 -6.125420e+00 -3.744653e+00 -7.392341e+00 -1.832690e+00 -4.059911e+00 -5.196792e-01 -2.639862e+00 -2.525514e+00 5.699863e+01 1.700382e-02 -5.215406e-03 2.374562e-03 -3.223888e-03 6.313559e-03 -1.454970e-02 -1.132163e-02 -8.926885e-03 -9.477547e-03 -4.594841e-03 -1.045515e-02 -6.317729e-04 5.988493e-02 -8.761588e-04 -9.383484e-05 1.257182e-03 3.458446e-04 -4.947232e-04 8.716302e-04 1.326781e-03 9.909964e-04 6.046794e-05 -2.788493e-04 -3.502069e-04 -2.982569e-04 -2.026873e-03
<VARIANCE> 39
 7.958804e+01 5.685667e+01 7.285796e+01 6.832046e+01 7.573316e+01 7.273641e+01 6.927921e+01 6.811816e+01 7.898077e+01 5.386222e+01 6.644337e+01 5.721838e+01 2.357942e+02 2.353387e+00 2.528079e+00 2.648467e+00 3.388781e+00 3.598284e+00 3.434243e+00 3.601095e+00 3.951554e+00 3.435617e+00 3.243728e+00 3.144767e+00 2.665965e+00 3.142714e+00 3.591968e-01 4.069394e-01 4.246498e-01 5.840888e-01 6.218489e-01 6.178815e-01 6.612020e-01 7.182935e-01 6.242200e-01 6.042847e-01 5.761919e-01 4.949592e-01 4.393218e-01
<GCONST> 1.345019e+02
<TRANSP> 5
 0.000000e+00 1.000000e+00 0.000000e+00 0.000000e+00 0.000000e+00
 0.000000e+00 6.000000e-01 4.000000e-01 0.000000e+00 0.000000e+00
 0.000000e+00 0.000000e+00 6.000000e-01 4.000000e-01 0.000000e+00
 0.000000e+00 0.000000e+00 0.000000e+00 7.000000e-01 3.000000e-01
 0.000000e+00 0.000000e+00 0.000000e+00 0.000000e+00 0.000000e+00
<ENDHMM>
~h "s"
<BEGINHMM>
<NUMSTATES> 5
<STATE> 2
<MEAN> 39
 -7.237505e+00 -9.522734e-01 -7.239595e-01 -2.744242e+00 -6.125420e+00 -3.744653e+00 -7.392341e+00 -1.832690e+00 -4.059911e+00 -5.196792e-01 -2.639862e+00 -2.525514e+00 5.699863e+01 1.700382e-02 -5.215406e-03 2.374562e-03 -3.223888e-03 6.313559e-03 -1.454970e-02 -1.132163e-02 -8.926885e-03 -9.477547e-03 -4.594841e-03 -1.045515e-02 -6.317729e-04 5.988493e-02 -8.761588e-04 -9.383484e-05 1.257182e-03 3.458446e-04 -4.947232e-04 8.716302e-04 1.326781e-03 9.909964e-04 6.046794e-05 -2.788493e-04 -3.502069e-04 -2.982569e-04 -2.026873e-03
<VARIANCE> 39
 7.958804e+01 5.685667e+01 7.285796e+01 6.832046e+01 7.573316e+01 7.273641e+01 6.927921e+01 6.811816e+01 7.898077e+01 5.386222e+01 6.644337e+01 5.721838e+01 2.357942e+02 2.353387e+00 2.528079e+00 2.648467e+00 3.388781e+00 3.598284e+00 3.434243e+00 3.601095e+00 3.951554e+00 3.435617e+00 3.243728e+00 3.144767e+00 2.665965e+00 3.142714e+00 3.591968e-01 4.069394e-01 4.246498e-01 5.840888e-01 6.218489e-01 6.178815e-01 6.612020e-01 7.182935e-01 6.242200e-01 6.042847e-01 5.761919e-01 4.949592e-01 4.393218e-01
<GCONST> 1.345019e+02
<STATE> 3
<MEAN> 39
 -7.237505e+00 -9.522734e-01 -7.239595e-01 -2.744242e+00 -6.125420e+00 -3.744653e+00 -7.392341e+00 -1.832690e+00 -4.059911e+00 -5.196792e-01 -2.639862e+00 -2.525514e+00 5.699863e+01 1.700382e-02 -5.215406e-03 2.374562e-03 -3.223888e-03 6.313559e-03 -1.454970e-02 -1.132163e-02 -8.926885e-03 -9.477547e-03 -4.594841e-03 -1.045515e-02 -6.317729e-04 5.988493e-02 -8.761588e-04 -9.383484e-05 1.257182e-03 3.458446e-04 -4.947232e-04 8.716302e-04 1.326781e-03 9.909964e-04 6.046794e-05 -2.788493e-04 -3.502069e-04 -2.982569e-04 -2.026873e-03
<VARIANCE> 39
 7.958804e+01 5.685667e+01 7.285796e+01 6.832046e+01 7.573316e+01 7.273641e+01 6.927921e+01 6.811816e+01 7.898077e+01 5.386222e+01 6.644337e+01 5.721838e+01 2.357942e+02 2.353387e+00 2.528079e+00 2.648467e+00 3.388781e+00 3.598284e+00 3.434243e+00 3.601095e+00 3.951554e+00 3.435617e+00 3.243728e+00 3.144767e+00 2.665965e+00 3.142714e+00 3.591968e-01 4.069394e-01 4.246498e-01 5.840888e-01 6.218489e-01 6.178815e-01 6.612020e-01 7.182935e-01 6.242200e-01 6.042847e-01 5.761919e-01 4.949592e-01 4.393218e-01
<GCONST> 1.345019e+02
<STATE> 4
<MEAN> 39
 -7.237505e+00 -9.522734e-01 -7.239595e-01 -2.744242e+00 -6.125420e+00 -3.744653e+00 -7.392341e+00 -1.832690e+00 -4.059911e+00 -5.196792e-01 -2.639862e+00 -2.525514e+00 5.699863e+01 1.700382e-02 -5.215406e-03 2.374562e-03 -3.223888e-03 6.313559e-03 -1.454970e-02 -1.132163e-02 -8.926885e-03 -9.477547e-03 -4.594841e-03 -1.045515e-02 -6.317729e-04 5.988493e-02 -8.761588e-04 -9.383484e-05 1.257182e-03 3.458446e-04 -4.947232e-04 8.716302e-04 1.326781e-03 9.909964e-04 6.046794e-05 -2.788493e-04 -3.502069e-04 -2.982569e-04 -2.026873e-03
<VARIANCE> 39
 7.958804e+01 5.685667e+01 7.285796e+01 6.832046e+01 7.573316e+01 7.273641e+01 6.927921e+01 6.811816e+01 7.898077e+01 5.386222e+01 6.644337e+01 5.721838e+01 2.357942e+02 2.353387e+00 2.528079e+00 2.648467e+00 3.388781e+00 3.598284e+00 3.434243e+00 3.601095e+00 3.951554e+00 3.435617e+00 3.243728e+00 3.144767e+00 2.665965e+00 3.142714e+00 3.591968e-01 4.069394e-01 4.246498e-01 5.840888e-01 6.218489e-01 6.178815e-01 6.612020e-01 7.182935e-01 6.242200e-01 6.042847e-01 5.761919e-01 4.949592e-01 4.393218e-01
<GCONST> 1.345019e+02
<TRANSP> 5
 0.000000e+00 1.000000e+00 0.000000e+00 0.000000e+00 0.000000e+00
 0.000000e+00 6.000000e-01 4.000000e-01 0.000000e+00 0.000000e+00
 0.000000e+00 0.000000e+00 6.000000e-01 4.000000e-01 0.000000e+00
 0.000000e+00 0.000000e+00 0.000000e+00 7.000000e-01 3.000000e-01
 0.000000e+00 0.000000e+00 0.000000e+00 0.000000e+00 0.000000e+00
<ENDHMM>
~h "ex"
<BEGINHMM>
<NUMSTATES> 5
<STATE> 2
<MEAN> 39
 -7.237505e+00 -9.522734e-01 -7.239595e-01 -2.744242e+00 -6.125420e+00 -3.744653e+00 -7.392341e+00 -1.832690e+00 -4.059911e+00 -5.196792e-01 -2.639862e+00 -2.525514e+00 5.699863e+01 1.700382e-02 -5.215406e-03 2.374562e-03 -3.223888e-03 6.313559e-03 -1.454970e-02 -1.132163e-02 -8.926885e-03 -9.477547e-03 -4.594841e-03 -1.045515e-02 -6.317729e-04 5.988493e-02 -8.761588e-04 -9.383484e-05 1.257182e-03 3.458446e-04 -4.947232e-04 8.716302e-04 1.326781e-03 9.909964e-04 6.046794e-05 -2.788493e-04 -3.502069e-04 -2.982569e-04 -2.026873e-03
<VARIANCE> 39
 7.958804e+01 5.685667e+01 7.285796e+01 6.832046e+01 7.573316e+01 7.273641e+01 6.927921e+01 6.811816e+01 7.898077e+01 5.386222e+01 6.644337e+01 5.721838e+01 2.357942e+02 2.353387e+00 2.528079e+00 2.648467e+00 3.388781e+00 3.598284e+00 3.434243e+00 3.601095e+00 3.951554e+00 3.435617e+00 3.243728e+00 3.144767e+00 2.665965e+00 3.142714e+00 3.591968e-01 4.069394e-01 4.246498e-01 5.840888e-01 6.218489e-01 6.178815e-01 6.612020e-01 7.182935e-01 6.242200e-01 6.042847e-01 5.761919e-01 4.949592e-01 4.393218e-01
<GCONST> 1.345019e+02
<STATE> 3
<MEAN> 39
 -7.237505e+00 -9.522734e-01 -7.239595e-01 -2.744242e+00 -6.125420e+00 -3.744653e+00 -7.392341e+00 -1.832690e+00 -4.059911e+00 -5.196792e-01 -2.639862e+00 -2.525514e+00 5.699863e+01 1.700382e-02 -5.215406e-03 2.374562e-03 -3.223888e-03 6.313559e-03 -1.454970e-02 -1.132163e-02 -8.926885e-03 -9.477547e-03 -4.594841e-03 -1.045515e-02 -6.317729e-04 5.988493e-02 -8.761588e-04 -9.383484e-05 1.257182e-03 3.458446e-04 -4.947232e-04 8.716302e-04 1.326781e-03 9.909964e-04 6.046794e-05 -2.788493e-04 -3.502069e-04 -2.982569e-04 -2.026873e-03
<VARIANCE> 39
 7.958804e+01 5.685667e+01 7.285796e+01 6.832046e+01 7.573316e+01 7.273641e+01 6.927921e+01 6.811816e+01 7.898077e+01 5.386222e+01 6.644337e+01 5.721838e+01 2.357942e+02 2.353387e+00 2.528079e+00 2.648467e+00 3.388781e+00 3.598284e+00 3.434243e+00 3.601095e+00 3.951554e+00 3.435617e+00 3.243728e+00 3.144767e+00 2.665965e+00 3.142714e+00 3.591968e-01 4.069394e-01 4.246498e-01 5.840888e-01 6.218489e-01 6.178815e-01 6.612020e-01 7.182935e-01 6.242200e-01 6.042847e-01 5.761919e-01 4.949592e-01 4.393218e-01
<GCONST> 1.345019e+02
<STATE> 4
<MEAN> 39
 -7.237505e+00 -9.522734e-01 -7.239595e-01 -2.744242e+00 -6.125420e+00 -3.744653e+00 -7.392341e+00 -1.832690e+00 -4.059911e+00 -5.196792e-01 -2.639862e+00 -2.525514e+00 5.699863e+01 1.700382e-02 -5.215406e-03 2.374562e-03 -3.223888e-03 6.313559e-03 -1.454970e-02 -1.132163e-02 -8.926885e-03 -9.477547e-03 -4.594841e-03 -1.045515e-02 -6.317729e-04 5.988493e-02 -8.761588e-04 -9.383484e-05 1.257182e-03 3.458446e-04 -4.947232e-04 8.716302e-04 1.326781e-03 9.909964e-04 6.046794e-05 -2.788493e-04 -3.502069e-04 -2.982569e-04 -2.026873e-03
<VARIANCE> 39
 7.958804e+01 5.685667e+01 7.285796e+01 6.832046e+01 7.573316e+01 7.273641e+01 6.927921e+01 6.811816e+01 7.898077e+01 5.386222e+01 6.644337e+01 5.721838e+01 2.357942e+02 2.353387e+00 2.528079e+00 2.648467e+00 3.388781e+00 3.598284e+00 3.434243e+00 3.601095e+00 3.951554e+00 3.435617e+00 3.243728e+00 3.144767e+00 2.665965e+00 3.142714e+00 3.591968e-01 4.069394e-01 4.246498e-01 5.840888e-01 6.218489e-01 6.178815e-01 6.612020e-01 7.182935e-01 6.242200e-01 6.042847e-01 5.761919e-01 4.949592e-01 4.393218e-01
<GCONST> 1.345019e+02
<TRANSP> 5
 0.000000e+00 1.000000e+00 0.000000e+00 0.000000e+00 0.000000e+00
 0.000000e+00 6.000000e-01 4.000000e-01 0.000000e+00 0.000000e+00
 0.000000e+00 0.000000e+00 6.000000e-01 4.000000e-01 0.000000e+00
 0.000000e+00 0.000000e+00 0.000000e+00 7.000000e-01 3.000000e-01
 0.000000e+00 0.000000e+00 0.000000e+00 0.000000e+00 0.000000e+00
<ENDHMM>
~h "ng"
<BEGINHMM>
<NUMSTATES> 5
<STATE> 2
<MEAN> 39
 -7.237505e+00 -9.522734e-01 -7.239595e-01 -2.744242e+00 -6.125420e+00 -3.744653e+00 -7.392341e+00 -1.832690e+00 -4.059911e+00 -5.196792e-01 -2.639862e+00 -2.525514e+00 5.699863e+01 1.700382e-02 -5.215406e-03 2.374562e-03 -3.223888e-03 6.313559e-03 -1.454970e-02 -1.132163e-02 -8.926885e-03 -9.477547e-03 -4.594841e-03 -1.045515e-02 -6.317729e-04 5.988493e-02 -8.761588e-04 -9.383484e-05 1.257182e-03 3.458446e-04 -4.947232e-04 8.716302e-04 1.326781e-03 9.909964e-04 6.046794e-05 -2.788493e-04 -3.502069e-04 -2.982569e-04 -2.026873e-03
<VARIANCE> 39
 7.958804e+01 5.685667e+01 7.285796e+01 6.832046e+01 7.573316e+01 7.273641e+01 6.927921e+01 6.811816e+01 7.898077e+01 5.386222e+01 6.644337e+01 5.721838e+01 2.357942e+02 2.353387e+00 2.528079e+00 2.648467e+00 3.388781e+00 3.598284e+00 3.434243e+00 3.601095e+00 3.951554e+00 3.435617e+00 3.243728e+00 3.144767e+00 2.665965e+00 3.142714e+00 3.591968e-01 4.069394e-01 4.246498e-01 5.840888e-01 6.218489e-01 6.178815e-01 6.612020e-01 7.182935e-01 6.242200e-01 6.042847e-01 5.761919e-01 4.949592e-01 4.393218e-01
<GCONST> 1.345019e+02
<STATE> 3
<MEAN> 39
 -7.237505e+00 -9.522734e-01 -7.239595e-01 -2.744242e+00 -6.125420e+00 -3.744653e+00 -7.392341e+00 -1.832690e+00 -4.059911e+00 -5.196792e-01 -2.639862e+00 -2.525514e+00 5.699863e+01 1.700382e-02 -5.215406e-03 2.374562e-03 -3.223888e-03 6.313559e-03 -1.454970e-02 -1.132163e-02 -8.926885e-03 -9.477547e-03 -4.594841e-03 -1.045515e-02 -6.317729e-04 5.988493e-02 -8.761588e-04 -9.383484e-05 1.257182e-03 3.458446e-04 -4.947232e-04 8.716302e-04 1.326781e-03 9.909964e-04 6.046794e-05 -2.788493e-04 -3.502069e-04 -2.982569e-04 -2.026873e-03
<VARIANCE> 39
 7.958804e+01 5.685667e+01 7.285796e+01 6.832046e+01 7.573316e+01 7.273641e+01 6.927921e+01 6.811816e+01 7.898077e+01 5.386222e+01 6.644337e+01 5.721838e+01 2.357942e+02 2.353387e+00 2.528079e+00 2.648467e+00 3.388781e+00 3.598284e+00 3.434243e+00 3.601095e+00 3.951554e+00 3.435617e+00 3.243728e+00 3.144767e+00 2.665965e+00 3.142714e+00 3.591968e-01 4.069394e-01 4.246498e-01 5.840888e-01 6.218489e-01 6.178815e-01 6.612020e-01 7.182935e-01 6.242200e-01 6.042847e-01 5.761919e-01 4.949592e-01 4.393218e-01
<GCONST> 1.345019e+02
<STATE> 4
<MEAN> 39
 -7.237505e+00 -9.522734e-01 -7.239595e-01 -2.744242e+00 -6.125420e+00 -3.744653e+00 -7.392341e+00 -1.832690e+00 -4.059911e+00 -5.196792e-01 -2.639862e+00 -2.525514e+00 5.699863e+01 1.700382e-02 -5.215406e-03 2.374562e-03 -3.223888e-03 6.313559e-03 -1.454970e-02 -1.132163e-02 -8.926885e-03 -9.477547e-03 -4.594841e-03 -1.045515e-02 -6.317729e-04 5.988493e-02 -8.761588e-04 -9.383484e-05 1.257182e-03 3.458446e-04 -4.947232e-04 8.716302e-04 1.326781e-03 9.909964e-04 6.046794e-05 -2.788493e-04 -3.502069e-04 -2.982569e-04 -2.026873e-03
<VARIANCE> 39
 7.958804e+01 5.685667e+01 7.285796e+01 6.832046e+01 7.573316e+01 7.273641e+01 6.927921e+01 6.811816e+01 7.898077e+01 5.386222e+01 6.644337e+01 5.721838e+01 2.357942e+02 2.353387e+00 2.528079e+00 2.648467e+00 3.388781e+00 3.598284e+00 3.434243e+00 3.601095e+00 3.951554e+00 3.435617e+00 3.243728e+00 3.144767e+00 2.665965e+00 3.142714e+00 3.591968e-01 4.069394e-01 4.246498e-01 5.840888e-01 6.218489e-01 6.178815e-01 6.612020e-01 7.182935e-01 6.242200e-01 6.042847e-01 5.761919e-01 4.949592e-01 4.393218e-01
<GCONST> 1.345019e+02
<TRANSP> 5
 0.000000e+00 1.000000e+00 0.000000e+00 0.000000e+00 0.000000e+00
 0.000000e+00 6.000000e-01 4.000000e-01 0.000000e+00 0.000000e+00
 0.000000e+00 0.000000e+00 6.000000e-01 4.000000e-01 0.000000e+00
 0.000000e+00 0.000000e+00 0.000000e+00 7.000000e-01 3.000000e-01
 0.000000e+00 0.000000e+00 0.000000e+00 0.000000e+00 0.000000e+00
<ENDHMM>
~h "g"
<BEGINHMM>
<NUMSTATES> 5
<STATE> 2
<MEAN> 39
 -7.237505e+00 -9.522734e-01 -7.239595e-01 -2.744242e+00 -6.125420e+00 -3.744653e+00 -7.392341e+00 -1.832690e+00 -4.059911e+00 -5.196792e-01 -2.639862e+00 -2.525514e+00 5.699863e+01 1.700382e-02 -5.215406e-03 2.374562e-03 -3.223888e-03 6.313559e-03 -1.454970e-02 -1.132163e-02 -8.926885e-03 -9.477547e-03 -4.594841e-03 -1.045515e-02 -6.317729e-04 5.988493e-02 -8.761588e-04 -9.383484e-05 1.257182e-03 3.458446e-04 -4.947232e-04 8.716302e-04 1.326781e-03 9.909964e-04 6.046794e-05 -2.788493e-04 -3.502069e-04 -2.982569e-04 -2.026873e-03
<VARIANCE> 39
 7.958804e+01 5.685667e+01 7.285796e+01 6.832046e+01 7.573316e+01 7.273641e+01 6.927921e+01 6.811816e+01 7.898077e+01 5.386222e+01 6.644337e+01 5.721838e+01 2.357942e+02 2.353387e+00 2.528079e+00 2.648467e+00 3.388781e+00 3.598284e+00 3.434243e+00 3.601095e+00 3.951554e+00 3.435617e+00 3.243728e+00 3.144767e+00 2.665965e+00 3.142714e+00 3.591968e-01 4.069394e-01 4.246498e-01 5.840888e-01 6.218489e-01 6.178815e-01 6.612020e-01 7.182935e-01 6.242200e-01 6.042847e-01 5.761919e-01 4.949592e-01 4.393218e-01
<GCONST> 1.345019e+02
<STATE> 3
<MEAN> 39
 -7.237505e+00 -9.522734e-01 -7.239595e-01 -2.744242e+00 -6.125420e+00 -3.744653e+00 -7.392341e+00 -1.832690e+00 -4.059911e+00 -5.196792e-01 -2.639862e+00 -2.525514e+00 5.699863e+01 1.700382e-02 -5.215406e-03 2.374562e-03 -3.223888e-03 6.313559e-03 -1.454970e-02 -1.132163e-02 -8.926885e-03 -9.477547e-03 -4.594841e-03 -1.045515e-02 -6.317729e-04 5.988493e-02 -8.761588e-04 -9.383484e-05 1.257182e-03 3.458446e-04 -4.947232e-04 8.716302e-04 1.326781e-03 9.909964e-04 6.046794e-05 -2.788493e-04 -3.502069e-04 -2.982569e-04 -2.026873e-03
<VARIANCE> 39
 7.958804e+01 5.685667e+01 7.285796e+01 6.832046e+01 7.573316e+01 7.273641e+01 6.927921e+01 6.811816e+01 7.898077e+01 5.386222e+01 6.644337e+01 5.721838e+01 2.357942e+02 2.353387e+00 2.528079e+00 2.648467e+00 3.388781e+00 3.598284e+00 3.434243e+00 3.601095e+00 3.951554e+00 3.435617e+00 3.243728e+00 3.144767e+00 2.665965e+00 3.142714e+00 3.591968e-01 4.069394e-01 4.246498e-01 5.840888e-01 6.218489e-01 6.178815e-01 6.612020e-01 7.182935e-01 6.242200e-01 6.042847e-01 5.761919e-01 4.949592e-01 4.393218e-01
<GCONST> 1.345019e+02
<STATE> 4
<MEAN> 39
 -7.237505e+00 -9.522734e-01 -7.239595e-01 -2.744242e+00 -6.125420e+00 -3.744653e+00 -7.392341e+00 -1.832690e+00 -4.059911e+00 -5.196792e-01 -2.639862e+00 -2.525514e+00 5.699863e+01 1.700382e-02 -5.215406e-03 2.374562e-03 -3.223888e-03 6.313559e-03 -1.454970e-02 -1.132163e-02 -8.926885e-03 -9.477547e-03 -4.594841e-03 -1.045515e-02 -6.317729e-04 5.988493e-02 -8.761588e-04 -9.383484e-05 1.257182e-03 3.458446e-04 -4.947232e-04 8.716302e-04 1.326781e-03 9.909964e-04 6.046794e-05 -2.788493e-04 -3.502069e-04 -2.982569e-04 -2.026873e-03
<VARIANCE> 39
 7.958804e+01 5.685667e+01 7.285796e+01 6.832046e+01 7.573316e+01 7.273641e+01 6.927921e+01 6.811816e+01 7.898077e+01 5.386222e+01 6.644337e+01 5.721838e+01 2.357942e+02 2.353387e+00 2.528079e+00 2.648467e+00 3.388781e+00 3.598284e+00 3.434243e+00 3.601095e+00 3.951554e+00 3.435617e+00 3.243728e+00 3.144767e+00 2.665965e+00 3.142714e+00 3.591968e-01 4.069394e-01 4.246498e-01 5.840888e-01 6.218489e-01 6.178815e-01 6.612020e-01 7.182935e-01 6.242200e-01 6.042847e-01 5.761919e-01 4.949592e-01 4.393218e-01
<GCONST> 1.345019e+02
<TRANSP> 5
 0.000000e+00 1.000000e+00 0.000000e+00 0.000000e+00 0.000000e+00
 0.000000e+00 6.000000e-01 4.000000e-01 0.000000e+00 0.000000e+00
 0.000000e+00 0.000000e+00 6.000000e-01 4.000000e-01 0.000000e+00
 0.000000e+00 0.000000e+00 0.000000e+00 7.000000e-01 3.000000e-01
 0.000000e+00 0.000000e+00 0.000000e+00 0.000000e+00 0.000000e+00
<ENDHMM>
~h "t"
<BEGINHMM>
<NUMSTATES> 5
<STATE> 2
<MEAN> 39
 -7.237505e+00 -9.522734e-01 -7.239595e-01 -2.744242e+00 -6.125420e+00 -3.744653e+00 -7.392341e+00 -1.832690e+00 -4.059911e+00 -5.196792e-01 -2.639862e+00 -2.525514e+00 5.699863e+01 1.700382e-02 -5.215406e-03 2.374562e-03 -3.223888e-03 6.313559e-03 -1.454970e-02 -1.132163e-02 -8.926885e-03 -9.477547e-03 -4.594841e-03 -1.045515e-02 -6.317729e-04 5.988493e-02 -8.761588e-04 -9.383484e-05 1.257182e-03 3.458446e-04 -4.947232e-04 8.716302e-04 1.326781e-03 9.909964e-04 6.046794e-05 -2.788493e-04 -3.502069e-04 -2.982569e-04 -2.026873e-03
<VARIANCE> 39
 7.958804e+01 5.685667e+01 7.285796e+01 6.832046e+01 7.573316e+01 7.273641e+01 6.927921e+01 6.811816e+01 7.898077e+01 5.386222e+01 6.644337e+01 5.721838e+01 2.357942e+02 2.353387e+00 2.528079e+00 2.648467e+00 3.388781e+00 3.598284e+00 3.434243e+00 3.601095e+00 3.951554e+00 3.435617e+00 3.243728e+00 3.144767e+00 2.665965e+00 3.142714e+00 3.591968e-01 4.069394e-01 4.246498e-01 5.840888e-01 6.218489e-01 6.178815e-01 6.612020e-01 7.182935e-01 6.242200e-01 6.042847e-01 5.761919e-01 4.949592e-01 4.393218e-01
<GCONST> 1.345019e+02
<STATE> 3
<MEAN> 39
 -7.237505e+00 -9.522734e-01 -7.239595e-01 -2.744242e+00 -6.125420e+00 -3.744653e+00 -7.392341e+00 -1.832690e+00 -4.059911e+00 -5.196792e-01 -2.639862e+00 -2.525514e+00 5.699863e+01 1.700382e-02 -5.215406e-03 2.374562e-03 -3.223888e-03 6.313559e-03 -1.454970e-02 -1.132163e-02 -8.926885e-03 -9.477547e-03 -4.594841e-03 -1.045515e-02 -6.317729e-04 5.988493e-02 -8.761588e-04 -9.383484e-05 1.257182e-03 3.458446e-04 -4.947232e-04 8.716302e-04 1.326781e-03 9.909964e-04 6.046794e-05 -2.788493e-04 -3.502069e-04 -2.982569e-04 -2.026873e-03
<VARIANCE> 39
 7.958804e+01 5.685667e+01 7.285796e+01 6.832046e+01 7.573316e+01 7.273641e+01 6.927921e+01 6.811816e+01 7.898077e+01 5.386222e+01 6.644337e+01 5.721838e+01 2.357942e+02 2.353387e+00 2.528079e+00 2.648467e+00 3.388781e+00 3.598284e+00 3.434243e+00 3.601095e+00 3.951554e+00 3.435617e+00 3.243728e+00 3.144767e+00 2.665965e+00 3.142714e+00 3.591968e-01 4.069394e-01 4.246498e-01 5.840888e-01 6.218489e-01 6.178815e-01 6.612020e-01 7.182935e-01 6.242200e-01 6.042847e-01 5.761919e-01 4.949592e-01 4.393218e-01
<GCONST> 1.345019e+02
<STATE> 4
<MEAN> 39
 -7.237505e+00 -9.522734e-01 -7.239595e-01 -2.744242e+00 -6.125420e+00 -3.744653e+00 -7.392341e+00 -1.832690e+00 -4.059911e+00 -5.196792e-01 -2.639862e+00 -2.525514e+00 5.699863e+01 1.700382e-02 -5.215406e-03 2.374562e-03 -3.223888e-03 6.313559e-03 -1.454970e-02 -1.132163e-02 -8.926885e-03 -9.477547e-03 -4.594841e-03 -1.045515e-02 -6.317729e-04 5.988493e-02 -8.761588e-04 -9.383484e-05 1.257182e-03 3.458446e-04 -4.947232e-04 8.716302e-04 1.326781e-03 9.909964e-04 6.046794e-05 -2.788493e-04 -3.502069e-04 -2.982569e-04 -2.026873e-03
<VARIANCE> 39
 7.958804e+01 5.685667e+01 7.285796e+01 6.832046e+01 7.573316e+01 7.273641e+01 6.927921e+01 6.811816e+01 7.898077e+01 5.386222e+01 6.644337e+01 5.721838e+01 2.357942e+02 2.353387e+00 2.528079e+00 2.648467e+00 3.388781e+00 3.598284e+00 3.434243e+00 3.601095e+00 3.951554e+00 3.435617e+00 3.243728e+00 3.144767e+00 2.665965e+00 3.142714e+00 3.591968e-01 4.069394e-01 4.246498e-01 5.840888e-01 6.218489e-01 6.178815e-01 6.612020e-01 7.182935e-01 6.242200e-01 6.042847e-01 5.761919e-01 4.949592e-01 4.393218e-01
<GCONST> 1.345019e+02
<TRANSP> 5
 0.000000e+00 1.000000e+00 0.000000e+00 0.000000e+00 0.000000e+00
 0.000000e+00 6.000000e-01 4.000000e-01 0.000000e+00 0.000000e+00
 0.000000e+00 0.000000e+00 6.000000e-01 4.000000e-01 0.000000e+00
 0.000000e+00 0.000000e+00 0.000000e+00 7.000000e-01 3.000000e-01
 0.000000e+00 0.000000e+00 0.000000e+00 0.000000e+00 0.000000e+00
<ENDHMM>
~h "o"
<BEGINHMM>
<NUMSTATES> 5
<STATE> 2
<MEAN> 39
 -7.237505e+00 -9.522734e-01 -7.239595e-01 -2.744242e+00 -6.125420e+00 -3.744653e+00 -7.392341e+00 -1.832690e+00 -4.059911e+00 -5.196792e-01 -2.639862e+00 -2.525514e+00 5.699863e+01 1.700382e-02 -5.215406e-03 2.374562e-03 -3.223888e-03 6.313559e-03 -1.454970e-02 -1.132163e-02 -8.926885e-03 -9.477547e-03 -4.594841e-03 -1.045515e-02 -6.317729e-04 5.988493e-02 -8.761588e-04 -9.383484e-05 1.257182e-03 3.458446e-04 -4.947232e-04 8.716302e-04 1.326781e-03 9.909964e-04 6.046794e-05 -2.788493e-04 -3.502069e-04 -2.982569e-04 -2.026873e-03
<VARIANCE> 39
 7.958804e+01 5.685667e+01 7.285796e+01 6.832046e+01 7.573316e+01 7.273641e+01 6.927921e+01 6.811816e+01 7.898077e+01 5.386222e+01 6.644337e+01 5.721838e+01 2.357942e+02 2.353387e+00 2.528079e+00 2.648467e+00 3.388781e+00 3.598284e+00 3.434243e+00 3.601095e+00 3.951554e+00 3.435617e+00 3.243728e+00 3.144767e+00 2.665965e+00 3.142714e+00 3.591968e-01 4.069394e-01 4.246498e-01 5.840888e-01 6.218489e-01 6.178815e-01 6.612020e-01 7.182935e-01 6.242200e-01 6.042847e-01 5.761919e-01 4.949592e-01 4.393218e-01
<GCONST> 1.345019e+02
<STATE> 3
<MEAN> 39
 -7.237505e+00 -9.522734e-01 -7.239595e-01 -2.744242e+00 -6.125420e+00 -3.744653e+00 -7.392341e+00 -1.832690e+00 -4.059911e+00 -5.196792e-01 -2.639862e+00 -2.525514e+00 5.699863e+01 1.700382e-02 -5.215406e-03 2.374562e-03 -3.223888e-03 6.313559e-03 -1.454970e-02 -1.132163e-02 -8.926885e-03 -9.477547e-03 -4.594841e-03 -1.045515e-02 -6.317729e-04 5.988493e-02 -8.761588e-04 -9.383484e-05 1.257182e-03 3.458446e-04 -4.947232e-04 8.716302e-04 1.326781e-03 9.909964e-04 6.046794e-05 -2.788493e-04 -3.502069e-04 -2.982569e-04 -2.026873e-03
<VARIANCE> 39
 7.958804e+01 5.685667e+01 7.285796e+01 6.832046e+01 7.573316e+01 7.273641e+01 6.927921e+01 6.811816e+01 7.898077e+01 5.386222e+01 6.644337e+01 5.721838e+01 2.357942e+02 2.353387e+00 2.528079e+00 2.648467e+00 3.388781e+00 3.598284e+00 3.434243e+00 3.601095e+00 3.951554e+00 3.435617e+00 3.243728e+00 3.144767e+00 2.665965e+00 3.142714e+00 3.591968e-01 4.069394e-01 4.246498e-01 5.840888e-01 6.218489e-01 6.178815e-01 6.612020e-01 7.182935e-01 6.242200e-01 6.042847e-01 5.761919e-01 4.949592e-01 4.393218e-01
<GCONST> 1.345019e+02
<STATE> 4
<MEAN> 39
 -7.237505e+00 -9.522734e-01 -7.239595e-01 -2.744242e+00 -6.125420e+00 -3.744653e+00 -7.392341e+00 -1.832690e+00 -4.059911e+00 -5.196792e-01 -2.639862e+00 -2.525514e+00 5.699863e+01 1.700382e-02 -5.215406e-03 2.374562e-03 -3.223888e-03 6.313559e-03 -1.454970e-02 -1.132163e-02 -8.926885e-03 -9.477547e-03 -4.594841e-03 -1.045515e-02 -6.317729e-04 5.988493e-02 -8.761588e-04 -9.383484e-05 1.257182e-03 3.458446e-04 -4.947232e-04 8.716302e-04 1.326781e-03 9.909964e-04 6.046794e-05 -2.788493e-04 -3.502069e-04 -2.982569e-04 -2.026873e-03
<VARIANCE> 39
 7.958804e+01 5.685667e+01 7.285796e+01 6.832046e+01 7.573316e+01 7.273641e+01 6.927921e+01 6.811816e+01 7.898077e+01 5.386222e+01 6.644337e+01 5.721838e+01 2.357942e+02 2.353387e+00 2.528079e+00 2.648467e+00 3.388781e+00 3.598284e+00 3.434243e+00 3.601095e+00 3.951554e+00 3.435617e+00 3.243728e+00 3.144767e+00 2.665965e+00 3.142714e+00 3.591968e-01 4.069394e-01 4.246498e-01 5.840888e-01 6.218489e-01 6.178815e-01 6.612020e-01 7.182935e-01 6.242200e-01 6.042847e-01 5.761919e-01 4.949592e-01 4.393218e-01
<GCONST> 1.345019e+02
<TRANSP> 5
 0.000000e+00 1.000000e+00 0.000000e+00 0.000000e+00 0.000000e+00
 0.000000e+00 6.000000e-01 4.000000e-01 0.000000e+00 0.000000e+00
 0.000000e+00 0.000000e+00 6.000000e-01 4.000000e-01 0.000000e+00
 0.000000e+00 0.000000e+00 0.000000e+00 7.000000e-01 3.000000e-01
 0.000000e+00 0.000000e+00 0.000000e+00 0.000000e+00 0.000000e+00
<ENDHMM>
~h "i"
<BEGINHMM>
<NUMSTATES> 5
<STATE> 2
<MEAN> 39
 -7.237505e+00 -9.522734e-01 -7.239595e-01 -2.744242e+00 -6.125420e+00 -3.744653e+00 -7.392341e+00 -1.832690e+00 -4.059911e+00 -5.196792e-01 -2.639862e+00 -2.525514e+00 5.699863e+01 1.700382e-02 -5.215406e-03 2.374562e-03 -3.223888e-03 6.313559e-03 -1.454970e-02 -1.132163e-02 -8.926885e-03 -9.477547e-03 -4.594841e-03 -1.045515e-02 -6.317729e-04 5.988493e-02 -8.761588e-04 -9.383484e-05 1.257182e-03 3.458446e-04 -4.947232e-04 8.716302e-04 1.326781e-03 9.909964e-04 6.046794e-05 -2.788493e-04 -3.502069e-04 -2.982569e-04 -2.026873e-03
<VARIANCE> 39
 7.958804e+01 5.685667e+01 7.285796e+01 6.832046e+01 7.573316e+01 7.273641e+01 6.927921e+01 6.811816e+01 7.898077e+01 5.386222e+01 6.644337e+01 5.721838e+01 2.357942e+02 2.353387e+00 2.528079e+00 2.648467e+00 3.388781e+00 3.598284e+00 3.434243e+00 3.601095e+00 3.951554e+00 3.435617e+00 3.243728e+00 3.144767e+00 2.665965e+00 3.142714e+00 3.591968e-01 4.069394e-01 4.246498e-01 5.840888e-01 6.218489e-01 6.178815e-01 6.612020e-01 7.182935e-01 6.242200e-01 6.042847e-01 5.761919e-01 4.949592e-01 4.393218e-01
<GCONST> 1.345019e+02
<STATE> 3
<MEAN> 39
 -7.237505e+00 -9.522734e-01 -7.239595e-01 -2.744242e+00 -6.125420e+00 -3.744653e+00 -7.392341e+00 -1.832690e+00 -4.059911e+00 -5.196792e-01 -2.639862e+00 -2.525514e+00 5.699863e+01 1.700382e-02 -5.215406e-03 2.374562e-03 -3.223888e-03 6.313559e-03 -1.454970e-02 -1.132163e-02 -8.926885e-03 -9.477547e-03 -4.594841e-03 -1.045515e-02 -6.317729e-04 5.988493e-02 -8.761588e-04 -9.383484e-05 1.257182e-03 3.458446e-04 -4.947232e-04 8.716302e-04 1.326781e-03 9.909964e-04 6.046794e-05 -2.788493e-04 -3.502069e-04 -2.982569e-04 -2.026873e-03
<VARIANCE> 39
 7.958804e+01 5.685667e+01 7.285796e+01 6.832046e+01 7.573316e+01 7.273641e+01 6.927921e+01 6.811816e+01 7.898077e+01 5.386222e+01 6.644337e+01 5.721838e+01 2.357942e+02 2.353387e+00 2.528079e+00 2.648467e+00 3.388781e+00 3.598284e+00 3.434243e+00 3.601095e+00 3.951554e+00 3.435617e+00 3.243728e+00 3.144767e+00 2.665965e+00 3.142714e+00 3.591968e-01 4.069394e-01 4.246498e-01 5.840888e-01 6.218489e-01 6.178815e-01 6.612020e-01 7.182935e-01 6.242200e-01 6.042847e-01 5.761919e-01 4.949592e-01 4.393218e-01
<GCONST> 1.345019e+02
<STATE> 4
<MEAN> 39
 -7.237505e+00 -9.522734e-01 -7.239595e-01 -2.744242e+00 -6.125420e+00 -3.744653e+00 -7.392341e+00 -1.832690e+00 -4.059911e+00 -5.196792e-01 -2.639862e+00 -2.525514e+00 5.699863e+01 1.700382e-02 -5.215406e-03 2.374562e-03 -3.223888e-03 6.313559e-03 -1.454970e-02 -1.132163e-02 -8.926885e-03 -9.477547e-03 -4.594841e-03 -1.045515e-02 -6.317729e-04 5.988493e-02 -8.761588e-04 -9.383484e-05 1.257182e-03 3.458446e-04 -4.947232e-04 8.716302e-04 1.326781e-03 9.909964e-04 6.046794e-05 -2.788493e-04 -3.502069e-04 -2.982569e-04 -2.026873e-03
<VARIANCE> 39
 7.958804e+01 5.685667e+01 7.285796e+01 6.832046e+01 7.573316e+01 7.273641e+01 6.927921e+01 6.811816e+01 7.898077e+01 5.386222e+01 6.644337e+01 5.721838e+01 2.357942e+02 2.353387e+00 2.528079e+00 2.648467e+00 3.388781e+00 3.598284e+00 3.434243e+00 3.601095e+00 3.951554e+00 3.435617e+00 3.243728e+00 3.144767e+00 2.665965e+00 3.142714e+00 3.591968e-01 4.069394e-01 4.246498e-01 5.840888e-01 6.218489e-01 6.178815e-01 6.612020e-01 7.182935e-01 6.242200e-01 6.042847e-01 5.761919e-01 4.949592e-01 4.393218e-01
<GCONST> 1.345019e+02
<TRANSP> 5
 0.000000e+00 1.000000e+00 0.000000e+00 0.000000e+00 0.000000e+00
 0.000000e+00 6.000000e-01 4.000000e-01 0.000000e+00 0.000000e+00
 0.000000e+00 0.000000e+00 6.000000e-01 4.000000e-01 0.000000e+00
 0.000000e+00 0.000000e+00 0.000000e+00 7.000000e-01 3.000000e-01
 0.000000e+00 0.000000e+00 0.000000e+00 0.000000e+00 0.000000e+00
<ENDHMM>
~h "p"
<BEGINHMM>
<NUMSTATES> 5
<STATE> 2
<MEAN> 39
 -7.237505e+00 -9.522734e-01 -7.239595e-01 -2.744242e+00 -6.125420e+00 -3.744653e+00 -7.392341e+00 -1.832690e+00 -4.059911e+00 -5.196792e-01 -2.639862e+00 -2.525514e+00 5.699863e+01 1.700382e-02 -5.215406e-03 2.374562e-03 -3.223888e-03 6.313559e-03 -1.454970e-02 -1.132163e-02 -8.926885e-03 -9.477547e-03 -4.594841e-03 -1.045515e-02 -6.317729e-04 5.988493e-02 -8.761588e-04 -9.383484e-05 1.257182e-03 3.458446e-04 -4.947232e-04 8.716302e-04 1.326781e-03 9.909964e-04 6.046794e-05 -2.788493e-04 -3.502069e-04 -2.982569e-04 -2.026873e-03
<VARIANCE> 39
 7.958804e+01 5.685667e+01 7.285796e+01 6.832046e+01 7.573316e+01 7.273641e+01 6.927921e+01 6.811816e+01 7.898077e+01 5.386222e+01 6.644337e+01 5.721838e+01 2.357942e+02 2.353387e+00 2.528079e+00 2.648467e+00 3.388781e+00 3.598284e+00 3.434243e+00 3.601095e+00 3.951554e+00 3.435617e+00 3.243728e+00 3.144767e+00 2.665965e+00 3.142714e+00 3.591968e-01 4.069394e-01 4.246498e-01 5.840888e-01 6.218489e-01 6.178815e-01 6.612020e-01 7.182935e-01 6.242200e-01 6.042847e-01 5.761919e-01 4.949592e-01 4.393218e-01
<GCONST> 1.345019e+02
<STATE> 3
<MEAN> 39
 -7.237505e+00 -9.522734e-01 -7.239595e-01 -2.744242e+00 -6.125420e+00 -3.744653e+00 -7.392341e+00 -1.832690e+00 -4.059911e+00 -5.196792e-01 -2.639862e+00 -2.525514e+00 5.699863e+01 1.700382e-02 -5.215406e-03 2.374562e-03 -3.223888e-03 6.313559e-03 -1.454970e-02 -1.132163e-02 -8.926885e-03 -9.477547e-03 -4.594841e-03 -1.045515e-02 -6.317729e-04 5.988493e-02 -8.761588e-04 -9.383484e-05 1.257182e-03 3.458446e-04 -4.947232e-04 8.716302e-04 1.326781e-03 9.909964e-04 6.046794e-05 -2.788493e-04 -3.502069e-04 -2.982569e-04 -2.026873e-03
<VARIANCE> 39
 7.958804e+01 5.685667e+01 7.285796e+01 6.832046e+01 7.573316e+01 7.273641e+01 6.927921e+01 6.811816e+01 7.898077e+01 5.386222e+01 6.644337e+01 5.721838e+01 2.357942e+02 2.353387e+00 2.528079e+00 2.648467e+00 3.388781e+00 3.598284e+00 3.434243e+00 3.601095e+00 3.951554e+00 3.435617e+00 3.243728e+00 3.144767e+00 2.665965e+00 3.142714e+00 3.591968e-01 4.069394e-01 4.246498e-01 5.840888e-01 6.218489e-01 6.178815e-01 6.612020e-01 7.182935e-01 6.242200e-01 6.042847e-01 5.761919e-01 4.949592e-01 4.393218e-01
<GCONST> 1.345019e+02
<STATE> 4
<MEAN> 39
 -7.237505e+00 -9.522734e-01 -7.239595e-01 -2.744242e+00 -6.125420e+00 -3.744653e+00 -7.392341e+00 -1.832690e+00 -4.059911e+00 -5.196792e-01 -2.639862e+00 -2.525514e+00 5.699863e+01 1.700382e-02 -5.215406e-03 2.374562e-03 -3.223888e-03 6.313559e-03 -1.454970e-02 -1.132163e-02 -8.926885e-03 -9.477547e-03 -4.594841e-03 -1.045515e-02 -6.317729e-04 5.988493e-02 -8.761588e-04 -9.383484e-05 1.257182e-03 3.458446e-04 -4.947232e-04 8.716302e-04 1.326781e-03 9.909964e-04 6.046794e-05 -2.788493e-04 -3.502069e-04 -2.982569e-04 -2.026873e-03
<VARIANCE> 39
 7.958804e+01 5.685667e+01 7.285796e+01 6.832046e+01 7.573316e+01 7.273641e+01 6.927921e+01 6.811816e+01 7.898077e+01 5.386222e+01 6.644337e+01 5.721838e+01 2.357942e+02 2.353387e+00 2.528079e+00 2.648467e+00 3.388781e+00 3.598284e+00 3.434243e+00 3.601095e+00 3.951554e+00 3.435617e+00 3.243728e+00 3.144767e+00 2.665965e+00 3.142714e+00 3.591968e-01 4.069394e-01 4.246498e-01 5.840888e-01 6.218489e-01 6.178815e-01 6.612020e-01 7.182935e-01 6.242200e-01 6.042847e-01 5.761919e-01 4.949592e-01 4.393218e-01
<GCONST> 1.345019e+02
<TRANSP> 5
 0.000000e+00 1.000000e+00 0.000000e+00 0.000000e+00 0.000000e+00
 0.000000e+00 6.000000e-01 4.000000e-01 0.000000e+00 0.000000e+00
 0.000000e+00 0.000000e+00 6.000000e-01 4.000000e-01 0.000000e+00
 0.000000e+00 0.000000e+00 0.000000e+00 7.000000e-01 3.000000e-01
 0.000000e+00 0.000000e+00 0.000000e+00 0.000000e+00 0.000000e+00
<ENDHMM>
~h "ny"
<BEGINHMM>
<NUMSTATES> 5
<STATE> 2
<MEAN> 39
 -7.237505e+00 -9.522734e-01 -7.239595e-01 -2.744242e+00 -6.125420e+00 -3.744653e+00 -7.392341e+00 -1.832690e+00 -4.059911e+00 -5.196792e-01 -2.639862e+00 -2.525514e+00 5.699863e+01 1.700382e-02 -5.215406e-03 2.374562e-03 -3.223888e-03 6.313559e-03 -1.454970e-02 -1.132163e-02 -8.926885e-03 -9.477547e-03 -4.594841e-03 -1.045515e-02 -6.317729e-04 5.988493e-02 -8.761588e-04 -9.383484e-05 1.257182e-03 3.458446e-04 -4.947232e-04 8.716302e-04 1.326781e-03 9.909964e-04 6.046794e-05 -2.788493e-04 -3.502069e-04 -2.982569e-04 -2.026873e-03
<VARIANCE> 39
 7.958804e+01 5.685667e+01 7.285796e+01 6.832046e+01 7.573316e+01 7.273641e+01 6.927921e+01 6.811816e+01 7.898077e+01 5.386222e+01 6.644337e+01 5.721838e+01 2.357942e+02 2.353387e+00 2.528079e+00 2.648467e+00 3.388781e+00 3.598284e+00 3.434243e+00 3.601095e+00 3.951554e+00 3.435617e+00 3.243728e+00 3.144767e+00 2.665965e+00 3.142714e+00 3.591968e-01 4.069394e-01 4.246498e-01 5.840888e-01 6.218489e-01 6.178815e-01 6.612020e-01 7.182935e-01 6.242200e-01 6.042847e-01 5.761919e-01 4.949592e-01 4.393218e-01
<GCONST> 1.345019e+02
<STATE> 3
<MEAN> 39
 -7.237505e+00 -9.522734e-01 -7.239595e-01 -2.744242e+00 -6.125420e+00 -3.744653e+00 -7.392341e+00 -1.832690e+00 -4.059911e+00 -5.196792e-01 -2.639862e+00 -2.525514e+00 5.699863e+01 1.700382e-02 -5.215406e-03 2.374562e-03 -3.223888e-03 6.313559e-03 -1.454970e-02 -1.132163e-02 -8.926885e-03 -9.477547e-03 -4.594841e-03 -1.045515e-02 -6.317729e-04 5.988493e-02 -8.761588e-04 -9.383484e-05 1.257182e-03 3.458446e-04 -4.947232e-04 8.716302e-04 1.326781e-03 9.909964e-04 6.046794e-05 -2.788493e-04 -3.502069e-04 -2.982569e-04 -2.026873e-03
<VARIANCE> 39
 7.958804e+01 5.685667e+01 7.285796e+01 6.832046e+01 7.573316e+01 7.273641e+01 6.927921e+01 6.811816e+01 7.898077e+01 5.386222e+01 6.644337e+01 5.721838e+01 2.357942e+02 2.353387e+00 2.528079e+00 2.648467e+00 3.388781e+00 3.598284e+00 3.434243e+00 3.601095e+00 3.951554e+00 3.435617e+00 3.243728e+00 3.144767e+00 2.665965e+00 3.142714e+00 3.591968e-01 4.069394e-01 4.246498e-01 5.840888e-01 6.218489e-01 6.178815e-01 6.612020e-01 7.182935e-01 6.242200e-01 6.042847e-01 5.761919e-01 4.949592e-01 4.393218e-01
<GCONST> 1.345019e+02
<STATE> 4
<MEAN> 39
 -7.237505e+00 -9.522734e-01 -7.239595e-01 -2.744242e+00 -6.125420e+00 -3.744653e+00 -7.392341e+00 -1.832690e+00 -4.059911e+00 -5.196792e-01 -2.639862e+00 -2.525514e+00 5.699863e+01 1.700382e-02 -5.215406e-03 2.374562e-03 -3.223888e-03 6.313559e-03 -1.454970e-02 -1.132163e-02 -8.926885e-03 -9.477547e-03 -4.594841e-03 -1.045515e-02 -6.317729e-04 5.988493e-02 -8.761588e-04 -9.383484e-05 1.257182e-03 3.458446e-04 -4.947232e-04 8.716302e-04 1.326781e-03 9.909964e-04 6.046794e-05 -2.788493e-04 -3.502069e-04 -2.982569e-04 -2.026873e-03
<VARIANCE> 39
 7.958804e+01 5.685667e+01 7.285796e+01 6.832046e+01 7.573316e+01 7.273641e+01 6.927921e+01 6.811816e+01 7.898077e+01 5.386222e+01 6.644337e+01 5.721838e+01 2.357942e+02 2.353387e+00 2.528079e+00 2.648467e+00 3.388781e+00 3.598284e+00 3.434243e+00 3.601095e+00 3.951554e+00 3.435617e+00 3.243728e+00 3.144767e+00 2.665965e+00 3.142714e+00 3.591968e-01 4.069394e-01 4.246498e-01 5.840888e-01 6.218489e-01 6.178815e-01 6.612020e-01 7.182935e-01 6.242200e-01 6.042847e-01 5.761919e-01 4.949592e-01 4.393218e-01
<GCONST> 1.345019e+02
<TRANSP> 5
 0.000000e+00 1.000000e+00 0.000000e+00 0.000000e+00 0.000000e+00
 0.000000e+00 6.000000e-01 4.000000e-01 0.000000e+00 0.000000e+00
 0.000000e+00 0.000000e+00 6.000000e-01 4.000000e-01 0.000000e+00
 0.000000e+00 0.000000e+00 0.000000e+00 7.000000e-01 3.000000e-01
 0.000000e+00 0.000000e+00 0.000000e+00 0.000000e+00 0.000000e+00
<ENDHMM>
~h "m"
<BEGINHMM>
<NUMSTATES> 5
<STATE> 2
<MEAN> 39
 -7.237505e+00 -9.522734e-01 -7.239595e-01 -2.744242e+00 -6.125420e+00 -3.744653e+00 -7.392341e+00 -1.832690e+00 -4.059911e+00 -5.196792e-01 -2.639862e+00 -2.525514e+00 5.699863e+01 1.700382e-02 -5.215406e-03 2.374562e-03 -3.223888e-03 6.313559e-03 -1.454970e-02 -1.132163e-02 -8.926885e-03 -9.477547e-03 -4.594841e-03 -1.045515e-02 -6.317729e-04 5.988493e-02 -8.761588e-04 -9.383484e-05 1.257182e-03 3.458446e-04 -4.947232e-04 8.716302e-04 1.326781e-03 9.909964e-04 6.046794e-05 -2.788493e-04 -3.502069e-04 -2.982569e-04 -2.026873e-03
<VARIANCE> 39
 7.958804e+01 5.685667e+01 7.285796e+01 6.832046e+01 7.573316e+01 7.273641e+01 6.927921e+01 6.811816e+01 7.898077e+01 5.386222e+01 6.644337e+01 5.721838e+01 2.357942e+02 2.353387e+00 2.528079e+00 2.648467e+00 3.388781e+00 3.598284e+00 3.434243e+00 3.601095e+00 3.951554e+00 3.435617e+00 3.243728e+00 3.144767e+00 2.665965e+00 3.142714e+00 3.591968e-01 4.069394e-01 4.246498e-01 5.840888e-01 6.218489e-01 6.178815e-01 6.612020e-01 7.182935e-01 6.242200e-01 6.042847e-01 5.761919e-01 4.949592e-01 4.393218e-01
<GCONST> 1.345019e+02
<STATE> 3
<MEAN> 39
 -7.237505e+00 -9.522734e-01 -7.239595e-01 -2.744242e+00 -6.125420e+00 -3.744653e+00 -7.392341e+00 -1.832690e+00 -4.059911e+00 -5.196792e-01 -2.639862e+00 -2.525514e+00 5.699863e+01 1.700382e-02 -5.215406e-03 2.374562e-03 -3.223888e-03 6.313559e-03 -1.454970e-02 -1.132163e-02 -8.926885e-03 -9.477547e-03 -4.594841e-03 -1.045515e-02 -6.317729e-04 5.988493e-02 -8.761588e-04 -9.383484e-05 1.257182e-03 3.458446e-04 -4.947232e-04 8.716302e-04 1.326781e-03 9.909964e-04 6.046794e-05 -2.788493e-04 -3.502069e-04 -2.982569e-04 -2.026873e-03
<VARIANCE> 39
 7.958804e+01 5.685667e+01 7.285796e+01 6.832046e+01 7.573316e+01 7.273641e+01 6.927921e+01 6.811816e+01 7.898077e+01 5.386222e+01 6.644337e+01 5.721838e+01 2.357942e+02 2.353387e+00 2.528079e+00 2.648467e+00 3.388781e+00 3.598284e+00 3.434243e+00 3.601095e+00 3.951554e+00 3.435617e+00 3.243728e+00 3.144767e+00 2.665965e+00 3.142714e+00 3.591968e-01 4.069394e-01 4.246498e-01 5.840888e-01 6.218489e-01 6.178815e-01 6.612020e-01 7.182935e-01 6.242200e-01 6.042847e-01 5.761919e-01 4.949592e-01 4.393218e-01
<GCONST> 1.345019e+02
<STATE> 4
<MEAN> 39
 -7.237505e+00 -9.522734e-01 -7.239595e-01 -2.744242e+00 -6.125420e+00 -3.744653e+00 -7.392341e+00 -1.832690e+00 -4.059911e+00 -5.196792e-01 -2.639862e+00 -2.525514e+00 5.699863e+01 1.700382e-02 -5.215406e-03 2.374562e-03 -3.223888e-03 6.313559e-03 -1.454970e-02 -1.132163e-02 -8.926885e-03 -9.477547e-03 -4.594841e-03 -1.045515e-02 -6.317729e-04 5.988493e-02 -8.761588e-04 -9.383484e-05 1.257182e-03 3.458446e-04 -4.947232e-04 8.716302e-04 1.326781e-03 9.909964e-04 6.046794e-05 -2.788493e-04 -3.502069e-04 -2.982569e-04 -2.026873e-03
<VARIANCE> 39
 7.958804e+01 5.685667e+01 7.285796e+01 6.832046e+01 7.573316e+01 7.273641e+01 6.927921e+01 6.811816e+01 7.898077e+01 5.386222e+01 6.644337e+01 5.721838e+01 2.357942e+02 2.353387e+00 2.528079e+00 2.648467e+00 3.388781e+00 3.598284e+00 3.434243e+00 3.601095e+00 3.951554e+00 3.435617e+00 3.243728e+00 3.144767e+00 2.665965e+00 3.142714e+00 3.591968e-01 4.069394e-01 4.246498e-01 5.840888e-01 6.218489e-01 6.178815e-01 6.612020e-01 7.182935e-01 6.242200e-01 6.042847e-01 5.761919e-01 4.949592e-01 4.393218e-01
<GCONST> 1.345019e+02
<TRANSP> 5
 0.000000e+00 1.000000e+00 0.000000e+00 0.000000e+00 0.000000e+00
 0.000000e+00 6.000000e-01 4.000000e-01 0.000000e+00 0.000000e+00
 0.000000e+00 0.000000e+00 6.000000e-01 4.000000e-01 0.000000e+00
 0.000000e+00 0.000000e+00 0.000000e+00 7.000000e-01 3.000000e-01
 0.000000e+00 0.000000e+00 0.000000e+00 0.000000e+00 0.000000e+00
<ENDHMM>
~h "w"
<BEGINHMM>
<NUMSTATES> 5
<STATE> 2
<MEAN> 39
 -7.237505e+00 -9.522734e-01 -7.239595e-01 -2.744242e+00 -6.125420e+00 -3.744653e+00 -7.392341e+00 -1.832690e+00 -4.059911e+00 -5.196792e-01 -2.639862e+00 -2.525514e+00 5.699863e+01 1.700382e-02 -5.215406e-03 2.374562e-03 -3.223888e-03 6.313559e-03 -1.454970e-02 -1.132163e-02 -8.926885e-03 -9.477547e-03 -4.594841e-03 -1.045515e-02 -6.317729e-04 5.988493e-02 -8.761588e-04 -9.383484e-05 1.257182e-03 3.458446e-04 -4.947232e-04 8.716302e-04 1.326781e-03 9.909964e-04 6.046794e-05 -2.788493e-04 -3.502069e-04 -2.982569e-04 -2.026873e-03
<VARIANCE> 39
 7.958804e+01 5.685667e+01 7.285796e+01 6.832046e+01 7.573316e+01 7.273641e+01 6.927921e+01 6.811816e+01 7.898077e+01 5.386222e+01 6.644337e+01 5.721838e+01 2.357942e+02 2.353387e+00 2.528079e+00 2.648467e+00 3.388781e+00 3.598284e+00 3.434243e+00 3.601095e+00 3.951554e+00 3.435617e+00 3.243728e+00 3.144767e+00 2.665965e+00 3.142714e+00 3.591968e-01 4.069394e-01 4.246498e-01 5.840888e-01 6.218489e-01 6.178815e-01 6.612020e-01 7.182935e-01 6.242200e-01 6.042847e-01 5.761919e-01 4.949592e-01 4.393218e-01
<GCONST> 1.345019e+02
<STATE> 3
<MEAN> 39
 -7.237505e+00 -9.522734e-01 -7.239595e-01 -2.744242e+00 -6.125420e+00 -3.744653e+00 -7.392341e+00 -1.832690e+00 -4.059911e+00 -5.196792e-01 -2.639862e+00 -2.525514e+00 5.699863e+01 1.700382e-02 -5.215406e-03 2.374562e-03 -3.223888e-03 6.313559e-03 -1.454970e-02 -1.132163e-02 -8.926885e-03 -9.477547e-03 -4.594841e-03 -1.045515e-02 -6.317729e-04 5.988493e-02 -8.761588e-04 -9.383484e-05 1.257182e-03 3.458446e-04 -4.947232e-04 8.716302e-04 1.326781e-03 9.909964e-04 6.046794e-05 -2.788493e-04 -3.502069e-04 -2.982569e-04 -2.026873e-03
<VARIANCE> 39
 7.958804e+01 5.685667e+01 7.285796e+01 6.832046e+01 7.573316e+01 7.273641e+01 6.927921e+01 6.811816e+01 7.898077e+01 5.386222e+01 6.644337e+01 5.721838e+01 2.357942e+02 2.353387e+00 2.528079e+00 2.648467e+00 3.388781e+00 3.598284e+00 3.434243e+00 3.601095e+00 3.951554e+00 3.435617e+00 3.243728e+00 3.144767e+00 2.665965e+00 3.142714e+00 3.591968e-01 4.069394e-01 4.246498e-01 5.840888e-01 6.218489e-01 6.178815e-01 6.612020e-01 7.182935e-01 6.242200e-01 6.042847e-01 5.761919e-01 4.949592e-01 4.393218e-01
<GCONST> 1.345019e+02
<STATE> 4
<MEAN> 39
 -7.237505e+00 -9.522734e-01 -7.239595e-01 -2.744242e+00 -6.125420e+00 -3.744653e+00 -7.392341e+00 -1.832690e+00 -4.059911e+00 -5.196792e-01 -2.639862e+00 -2.525514e+00 5.699863e+01 1.700382e-02 -5.215406e-03 2.374562e-03 -3.223888e-03 6.313559e-03 -1.454970e-02 -1.132163e-02 -8.926885e-03 -9.477547e-03 -4.594841e-03 -1.045515e-02 -6.317729e-04 5.988493e-02 -8.761588e-04 -9.383484e-05 1.257182e-03 3.458446e-04 -4.947232e-04 8.716302e-04 1.326781e-03 9.909964e-04 6.046794e-05 -2.788493e-04 -3.502069e-04 -2.982569e-04 -2.026873e-03
<VARIANCE> 39
 7.958804e+01 5.685667e+01 7.285796e+01 6.832046e+01 7.573316e+01 7.273641e+01 6.927921e+01 6.811816e+01 7.898077e+01 5.386222e+01 6.644337e+01 5.721838e+01 2.357942e+02 2.353387e+00 2.528079e+00 2.648467e+00 3.388781e+00 3.598284e+00 3.434243e+00 3.601095e+00 3.951554e+00 3.435617e+00 3.243728e+00 3.144767e+00 2.665965e+00 3.142714e+00 3.591968e-01 4.069394e-01 4.246498e-01 5.840888e-01 6.218489e-01 6.178815e-01 6.612020e-01 7.182935e-01 6.242200e-01 6.042847e-01 5.761919e-01 4.949592e-01 4.393218e-01
<GCONST> 1.345019e+02
<TRANSP> 5
 0.000000e+00 1.000000e+00 0.000000e+00 0.000000e+00 0.000000e+00
 0.000000e+00 6.000000e-01 4.000000e-01 0.000000e+00 0.000000e+00
 0.000000e+00 0.000000e+00 6.000000e-01 4.000000e-01 0.000000e+00
 0.000000e+00 0.000000e+00 0.000000e+00 7.000000e-01 3.000000e-01
 0.000000e+00 0.000000e+00 0.000000e+00 0.000000e+00 0.000000e+00
<ENDHMM>
~h "y"
<BEGINHMM>
<NUMSTATES> 5
<STATE> 2
<MEAN> 39
 -7.237505e+00 -9.522734e-01 -7.239595e-01 -2.744242e+00 -6.125420e+00 -3.744653e+00 -7.392341e+00 -1.832690e+00 -4.059911e+00 -5.196792e-01 -2.639862e+00 -2.525514e+00 5.699863e+01 1.700382e-02 -5.215406e-03 2.374562e-03 -3.223888e-03 6.313559e-03 -1.454970e-02 -1.132163e-02 -8.926885e-03 -9.477547e-03 -4.594841e-03 -1.045515e-02 -6.317729e-04 5.988493e-02 -8.761588e-04 -9.383484e-05 1.257182e-03 3.458446e-04 -4.947232e-04 8.716302e-04 1.326781e-03 9.909964e-04 6.046794e-05 -2.788493e-04 -3.502069e-04 -2.982569e-04 -2.026873e-03
<VARIANCE> 39
 7.958804e+01 5.685667e+01 7.285796e+01 6.832046e+01 7.573316e+01 7.273641e+01 6.927921e+01 6.811816e+01 7.898077e+01 5.386222e+01 6.644337e+01 5.721838e+01 2.357942e+02 2.353387e+00 2.528079e+00 2.648467e+00 3.388781e+00 3.598284e+00 3.434243e+00 3.601095e+00 3.951554e+00 3.435617e+00 3.243728e+00 3.144767e+00 2.665965e+00 3.142714e+00 3.591968e-01 4.069394e-01 4.246498e-01 5.840888e-01 6.218489e-01 6.178815e-01 6.612020e-01 7.182935e-01 6.242200e-01 6.042847e-01 5.761919e-01 4.949592e-01 4.393218e-01
<GCONST> 1.345019e+02
<STATE> 3
<MEAN> 39
 -7.237505e+00 -9.522734e-01 -7.239595e-01 -2.744242e+00 -6.125420e+00 -3.744653e+00 -7.392341e+00 -1.832690e+00 -4.059911e+00 -5.196792e-01 -2.639862e+00 -2.525514e+00 5.699863e+01 1.700382e-02 -5.215406e-03 2.374562e-03 -3.223888e-03 6.313559e-03 -1.454970e-02 -1.132163e-02 -8.926885e-03 -9.477547e-03 -4.594841e-03 -1.045515e-02 -6.317729e-04 5.988493e-02 -8.761588e-04 -9.383484e-05 1.257182e-03 3.458446e-04 -4.947232e-04 8.716302e-04 1.326781e-03 9.909964e-04 6.046794e-05 -2.788493e-04 -3.502069e-04 -2.982569e-04 -2.026873e-03
<VARIANCE> 39
 7.958804e+01 5.685667e+01 7.285796e+01 6.832046e+01 7.573316e+01 7.273641e+01 6.927921e+01 6.811816e+01 7.898077e+01 5.386222e+01 6.644337e+01 5.721838e+01 2.357942e+02 2.353387e+00 2.528079e+00 2.648467e+00 3.388781e+00 3.598284e+00 3.434243e+00 3.601095e+00 3.951554e+00 3.435617e+00 3.243728e+00 3.144767e+00 2.665965e+00 3.142714e+00 3.591968e-01 4.069394e-01 4.246498e-01 5.840888e-01 6.218489e-01 6.178815e-01 6.612020e-01 7.182935e-01 6.242200e-01 6.042847e-01 5.761919e-01 4.949592e-01 4.393218e-01
<GCONST> 1.345019e+02
<STATE> 4
<MEAN> 39
 -7.237505e+00 -9.522734e-01 -7.239595e-01 -2.744242e+00 -6.125420e+00 -3.744653e+00 -7.392341e+00 -1.832690e+00 -4.059911e+00 -5.196792e-01 -2.639862e+00 -2.525514e+00 5.699863e+01 1.700382e-02 -5.215406e-03 2.374562e-03 -3.223888e-03 6.313559e-03 -1.454970e-02 -1.132163e-02 -8.926885e-03 -9.477547e-03 -4.594841e-03 -1.045515e-02 -6.317729e-04 5.988493e-02 -8.761588e-04 -9.383484e-05 1.257182e-03 3.458446e-04 -4.947232e-04 8.716302e-04 1.326781e-03 9.909964e-04 6.046794e-05 -2.788493e-04 -3.502069e-04 -2.982569e-04 -2.026873e-03
<VARIANCE> 39
 7.958804e+01 5.685667e+01 7.285796e+01 6.832046e+01 7.573316e+01 7.273641e+01 6.927921e+01 6.811816e+01 7.898077e+01 5.386222e+01 6.644337e+01 5.721838e+01 2.357942e+02 2.353387e+00 2.528079e+00 2.648467e+00 3.388781e+00 3.598284e+00 3.434243e+00 3.601095e+00 3.951554e+00 3.435617e+00 3.243728e+00 3.144767e+00 2.665965e+00 3.142714e+00 3.591968e-01 4.069394e-01 4.246498e-01 5.840888e-01 6.218489e-01 6.178815e-01 6.612020e-01 7.182935e-01 6.242200e-01 6.042847e-01 5.761919e-01 4.949592e-01 4.393218e-01
<GCONST> 1.345019e+02
<TRANSP> 5
 0.000000e+00 1.000000e+00 0.000000e+00 0.000000e+00 0.000000e+00
 0.000000e+00 6.000000e-01 4.000000e-01 0.000000e+00 0.000000e+00
 0.000000e+00 0.000000e+00 6.000000e-01 4.000000e-01 0.000000e+00
 0.000000e+00 0.000000e+00 0.000000e+00 7.000000e-01 3.000000e-01
 0.000000e+00 0.000000e+00 0.000000e+00 0.000000e+00 0.000000e+00
<ENDHMM>
~h "e"
<BEGINHMM>
<NUMSTATES> 5
<STATE> 2
<MEAN> 39
 -7.237505e+00 -9.522734e-01 -7.239595e-01 -2.744242e+00 -6.125420e+00 -3.744653e+00 -7.392341e+00 -1.832690e+00 -4.059911e+00 -5.196792e-01 -2.639862e+00 -2.525514e+00 5.699863e+01 1.700382e-02 -5.215406e-03 2.374562e-03 -3.223888e-03 6.313559e-03 -1.454970e-02 -1.132163e-02 -8.926885e-03 -9.477547e-03 -4.594841e-03 -1.045515e-02 -6.317729e-04 5.988493e-02 -8.761588e-04 -9.383484e-05 1.257182e-03 3.458446e-04 -4.947232e-04 8.716302e-04 1.326781e-03 9.909964e-04 6.046794e-05 -2.788493e-04 -3.502069e-04 -2.982569e-04 -2.026873e-03
<VARIANCE> 39
 7.958804e+01 5.685667e+01 7.285796e+01 6.832046e+01 7.573316e+01 7.273641e+01 6.927921e+01 6.811816e+01 7.898077e+01 5.386222e+01 6.644337e+01 5.721838e+01 2.357942e+02 2.353387e+00 2.528079e+00 2.648467e+00 3.388781e+00 3.598284e+00 3.434243e+00 3.601095e+00 3.951554e+00 3.435617e+00 3.243728e+00 3.144767e+00 2.665965e+00 3.142714e+00 3.591968e-01 4.069394e-01 4.246498e-01 5.840888e-01 6.218489e-01 6.178815e-01 6.612020e-01 7.182935e-01 6.242200e-01 6.042847e-01 5.761919e-01 4.949592e-01 4.393218e-01
<GCONST> 1.345019e+02
<STATE> 3
<MEAN> 39
 -7.237505e+00 -9.522734e-01 -7.239595e-01 -2.744242e+00 -6.125420e+00 -3.744653e+00 -7.392341e+00 -1.832690e+00 -4.059911e+00 -5.196792e-01 -2.639862e+00 -2.525514e+00 5.699863e+01 1.700382e-02 -5.215406e-03 2.374562e-03 -3.223888e-03 6.313559e-03 -1.454970e-02 -1.132163e-02 -8.926885e-03 -9.477547e-03 -4.594841e-03 -1.045515e-02 -6.317729e-04 5.988493e-02 -8.761588e-04 -9.383484e-05 1.257182e-03 3.458446e-04 -4.947232e-04 8.716302e-04 1.326781e-03 9.909964e-04 6.046794e-05 -2.788493e-04 -3.502069e-04 -2.982569e-04 -2.026873e-03
<VARIANCE> 39
 7.958804e+01 5.685667e+01 7.285796e+01 6.832046e+01 7.573316e+01 7.273641e+01 6.927921e+01 6.811816e+01 7.898077e+01 5.386222e+01 6.644337e+01 5.721838e+01 2.357942e+02 2.353387e+00 2.528079e+00 2.648467e+00 3.388781e+00 3.598284e+00 3.434243e+00 3.601095e+00 3.951554e+00 3.435617e+00 3.243728e+00 3.144767e+00 2.665965e+00 3.142714e+00 3.591968e-01 4.069394e-01 4.246498e-01 5.840888e-01 6.218489e-01 6.178815e-01 6.612020e-01 7.182935e-01 6.242200e-01 6.042847e-01 5.761919e-01 4.949592e-01 4.393218e-01
<GCONST> 1.345019e+02
<STATE> 4
<MEAN> 39
 -7.237505e+00 -9.522734e-01 -7.239595e-01 -2.744242e+00 -6.125420e+00 -3.744653e+00 -7.392341e+00 -1.832690e+00 -4.059911e+00 -5.196792e-01 -2.639862e+00 -2.525514e+00 5.699863e+01 1.700382e-02 -5.215406e-03 2.374562e-03 -3.223888e-03 6.313559e-03 -1.454970e-02 -1.132163e-02 -8.926885e-03 -9.477547e-03 -4.594841e-03 -1.045515e-02 -6.317729e-04 5.988493e-02 -8.761588e-04 -9.383484e-05 1.257182e-03 3.458446e-04 -4.947232e-04 8.716302e-04 1.326781e-03 9.909964e-04 6.046794e-05 -2.788493e-04 -3.502069e-04 -2.982569e-04 -2.026873e-03
<VARIANCE> 39
 7.958804e+01 5.685667e+01 7.285796e+01 6.832046e+01 7.573316e+01 7.273641e+01 6.927921e+01 6.811816e+01 7.898077e+01 5.386222e+01 6.644337e+01 5.721838e+01 2.357942e+02 2.353387e+00 2.528079e+00 2.648467e+00 3.388781e+00 3.598284e+00 3.434243e+00 3.601095e+00 3.951554e+00 3.435617e+00 3.243728e+00 3.144767e+00 2.665965e+00 3.142714e+00 3.591968e-01 4.069394e-01 4.246498e-01 5.840888e-01 6.218489e-01 6.178815e-01 6.612020e-01 7.182935e-01 6.242200e-01 6.042847e-01 5.761919e-01 4.949592e-01 4.393218e-01
<GCONST> 1.345019e+02
<TRANSP> 5
 0.000000e+00 1.000000e+00 0.000000e+00 0.000000e+00 0.000000e+00
 0.000000e+00 6.000000e-01 4.000000e-01 0.000000e+00 0.000000e+00
 0.000000e+00 0.000000e+00 6.000000e-01 4.000000e-01 0.000000e+00
 0.000000e+00 0.000000e+00 0.000000e+00 7.000000e-01 3.000000e-01
 0.000000e+00 0.000000e+00 0.000000e+00 0.000000e+00 0.000000e+00
<ENDHMM>
~h "f"
<BEGINHMM>
<NUMSTATES> 5
<STATE> 2
<MEAN> 39
 -7.237505e+00 -9.522734e-01 -7.239595e-01 -2.744242e+00 -6.125420e+00 -3.744653e+00 -7.392341e+00 -1.832690e+00 -4.059911e+00 -5.196792e-01 -2.639862e+00 -2.525514e+00 5.699863e+01 1.700382e-02 -5.215406e-03 2.374562e-03 -3.223888e-03 6.313559e-03 -1.454970e-02 -1.132163e-02 -8.926885e-03 -9.477547e-03 -4.594841e-03 -1.045515e-02 -6.317729e-04 5.988493e-02 -8.761588e-04 -9.383484e-05 1.257182e-03 3.458446e-04 -4.947232e-04 8.716302e-04 1.326781e-03 9.909964e-04 6.046794e-05 -2.788493e-04 -3.502069e-04 -2.982569e-04 -2.026873e-03
<VARIANCE> 39
 7.958804e+01 5.685667e+01 7.285796e+01 6.832046e+01 7.573316e+01 7.273641e+01 6.927921e+01 6.811816e+01 7.898077e+01 5.386222e+01 6.644337e+01 5.721838e+01 2.357942e+02 2.353387e+00 2.528079e+00 2.648467e+00 3.388781e+00 3.598284e+00 3.434243e+00 3.601095e+00 3.951554e+00 3.435617e+00 3.243728e+00 3.144767e+00 2.665965e+00 3.142714e+00 3.591968e-01 4.069394e-01 4.246498e-01 5.840888e-01 6.218489e-01 6.178815e-01 6.612020e-01 7.182935e-01 6.242200e-01 6.042847e-01 5.761919e-01 4.949592e-01 4.393218e-01
<GCONST> 1.345019e+02
<STATE> 3
<MEAN> 39
 -7.237505e+00 -9.522734e-01 -7.239595e-01 -2.744242e+00 -6.125420e+00 -3.744653e+00 -7.392341e+00 -1.832690e+00 -4.059911e+00 -5.196792e-01 -2.639862e+00 -2.525514e+00 5.699863e+01 1.700382e-02 -5.215406e-03 2.374562e-03 -3.223888e-03 6.313559e-03 -1.454970e-02 -1.132163e-02 -8.926885e-03 -9.477547e-03 -4.594841e-03 -1.045515e-02 -6.317729e-04 5.988493e-02 -8.761588e-04 -9.383484e-05 1.257182e-03 3.458446e-04 -4.947232e-04 8.716302e-04 1.326781e-03 9.909964e-04 6.046794e-05 -2.788493e-04 -3.502069e-04 -2.982569e-04 -2.026873e-03
<VARIANCE> 39
 7.958804e+01 5.685667e+01 7.285796e+01 6.832046e+01 7.573316e+01 7.273641e+01 6.927921e+01 6.811816e+01 7.898077e+01 5.386222e+01 6.644337e+01 5.721838e+01 2.357942e+02 2.353387e+00 2.528079e+00 2.648467e+00 3.388781e+00 3.598284e+00 3.434243e+00 3.601095e+00 3.951554e+00 3.435617e+00 3.243728e+00 3.144767e+00 2.665965e+00 3.142714e+00 3.591968e-01 4.069394e-01 4.246498e-01 5.840888e-01 6.218489e-01 6.178815e-01 6.612020e-01 7.182935e-01 6.242200e-01 6.042847e-01 5.761919e-01 4.949592e-01 4.393218e-01
<GCONST> 1.345019e+02
<STATE> 4
<MEAN> 39
 -7.237505e+00 -9.522734e-01 -7.239595e-01 -2.744242e+00 -6.125420e+00 -3.744653e+00 -7.392341e+00 -1.832690e+00 -4.059911e+00 -5.196792e-01 -2.639862e+00 -2.525514e+00 5.699863e+01 1.700382e-02 -5.215406e-03 2.374562e-03 -3.223888e-03 6.313559e-03 -1.454970e-02 -1.132163e-02 -8.926885e-03 -9.477547e-03 -4.594841e-03 -1.045515e-02 -6.317729e-04 5.988493e-02 -8.761588e-04 -9.383484e-05 1.257182e-03 3.458446e-04 -4.947232e-04 8.716302e-04 1.326781e-03 9.909964e-04 6.046794e-05 -2.788493e-04 -3.502069e-04 -2.982569e-04 -2.026873e-03
<VARIANCE> 39
 7.958804e+01 5.685667e+01 7.285796e+01 6.832046e+01 7.573316e+01 7.273641e+01 6.927921e+01 6.811816e+01 7.898077e+01 5.386222e+01 6.644337e+01 5.721838e+01 2.357942e+02 2.353387e+00 2.528079e+00 2.648467e+00 3.388781e+00 3.598284e+00 3.434243e+00 3.601095e+00 3.951554e+00 3.435617e+00 3.243728e+00 3.144767e+00 2.665965e+00 3.142714e+00 3.591968e-01 4.069394e-01 4.246498e-01 5.840888e-01 6.218489e-01 6.178815e-01 6.612020e-01 7.182935e-01 6.242200e-01 6.042847e-01 5.761919e-01 4.949592e-01 4.393218e-01
<GCONST> 1.345019e+02
<TRANSP> 5
 0.000000e+00 1.000000e+00 0.000000e+00 0.000000e+00 0.000000e+00
 0.000000e+00 6.000000e-01 4.000000e-01 0.000000e+00 0.000000e+00
 0.000000e+00 0.000000e+00 6.000000e-01 4.000000e-01 0.000000e+00
 0.000000e+00 0.000000e+00 0.000000e+00 7.000000e-01 3.000000e-01
 0.000000e+00 0.000000e+00 0.000000e+00 0.000000e+00 0.000000e+00
<ENDHMM>
~h "v"
<BEGINHMM>
<NUMSTATES> 5
<STATE> 2
<MEAN> 39
 -7.237505e+00 -9.522734e-01 -7.239595e-01 -2.744242e+00 -6.125420e+00 -3.744653e+00 -7.392341e+00 -1.832690e+00 -4.059911e+00 -5.196792e-01 -2.639862e+00 -2.525514e+00 5.699863e+01 1.700382e-02 -5.215406e-03 2.374562e-03 -3.223888e-03 6.313559e-03 -1.454970e-02 -1.132163e-02 -8.926885e-03 -9.477547e-03 -4.594841e-03 -1.045515e-02 -6.317729e-04 5.988493e-02 -8.761588e-04 -9.383484e-05 1.257182e-03 3.458446e-04 -4.947232e-04 8.716302e-04 1.326781e-03 9.909964e-04 6.046794e-05 -2.788493e-04 -3.502069e-04 -2.982569e-04 -2.026873e-03
<VARIANCE> 39
 7.958804e+01 5.685667e+01 7.285796e+01 6.832046e+01 7.573316e+01 7.273641e+01 6.927921e+01 6.811816e+01 7.898077e+01 5.386222e+01 6.644337e+01 5.721838e+01 2.357942e+02 2.353387e+00 2.528079e+00 2.648467e+00 3.388781e+00 3.598284e+00 3.434243e+00 3.601095e+00 3.951554e+00 3.435617e+00 3.243728e+00 3.144767e+00 2.665965e+00 3.142714e+00 3.591968e-01 4.069394e-01 4.246498e-01 5.840888e-01 6.218489e-01 6.178815e-01 6.612020e-01 7.182935e-01 6.242200e-01 6.042847e-01 5.761919e-01 4.949592e-01 4.393218e-01
<GCONST> 1.345019e+02
<STATE> 3
<MEAN> 39
 -7.237505e+00 -9.522734e-01 -7.239595e-01 -2.744242e+00 -6.125420e+00 -3.744653e+00 -7.392341e+00 -1.832690e+00 -4.059911e+00 -5.196792e-01 -2.639862e+00 -2.525514e+00 5.699863e+01 1.700382e-02 -5.215406e-03 2.374562e-03 -3.223888e-03 6.313559e-03 -1.454970e-02 -1.132163e-02 -8.926885e-03 -9.477547e-03 -4.594841e-03 -1.045515e-02 -6.317729e-04 5.988493e-02 -8.761588e-04 -9.383484e-05 1.257182e-03 3.458446e-04 -4.947232e-04 8.716302e-04 1.326781e-03 9.909964e-04 6.046794e-05 -2.788493e-04 -3.502069e-04 -2.982569e-04 -2.026873e-03
<VARIANCE> 39
 7.958804e+01 5.685667e+01 7.285796e+01 6.832046e+01 7.573316e+01 7.273641e+01 6.927921e+01 6.811816e+01 7.898077e+01 5.386222e+01 6.644337e+01 5.721838e+01 2.357942e+02 2.353387e+00 2.528079e+00 2.648467e+00 3.388781e+00 3.598284e+00 3.434243e+00 3.601095e+00 3.951554e+00 3.435617e+00 3.243728e+00 3.144767e+00 2.665965e+00 3.142714e+00 3.591968e-01 4.069394e-01 4.246498e-01 5.840888e-01 6.218489e-01 6.178815e-01 6.612020e-01 7.182935e-01 6.242200e-01 6.042847e-01 5.761919e-01 4.949592e-01 4.393218e-01
<GCONST> 1.345019e+02
<STATE> 4
<MEAN> 39
 -7.237505e+00 -9.522734e-01 -7.239595e-01 -2.744242e+00 -6.125420e+00 -3.744653e+00 -7.392341e+00 -1.832690e+00 -4.059911e+00 -5.196792e-01 -2.639862e+00 -2.525514e+00 5.699863e+01 1.700382e-02 -5.215406e-03 2.374562e-03 -3.223888e-03 6.313559e-03 -1.454970e-02 -1.132163e-02 -8.926885e-03 -9.477547e-03 -4.594841e-03 -1.045515e-02 -6.317729e-04 5.988493e-02 -8.761588e-04 -9.383484e-05 1.257182e-03 3.458446e-04 -4.947232e-04 8.716302e-04 1.326781e-03 9.909964e-04 6.046794e-05 -2.788493e-04 -3.502069e-04 -2.982569e-04 -2.026873e-03
<VARIANCE> 39
 7.958804e+01 5.685667e+01 7.285796e+01 6.832046e+01 7.573316e+01 7.273641e+01 6.927921e+01 6.811816e+01 7.898077e+01 5.386222e+01 6.644337e+01 5.721838e+01 2.357942e+02 2.353387e+00 2.528079e+00 2.648467e+00 3.388781e+00 3.598284e+00 3.434243e+00 3.601095e+00 3.951554e+00 3.435617e+00 3.243728e+00 3.144767e+00 2.665965e+00 3.142714e+00 3.591968e-01 4.069394e-01 4.246498e-01 5.840888e-01 6.218489e-01 6.178815e-01 6.612020e-01 7.182935e-01 6.242200e-01 6.042847e-01 5.761919e-01 4.949592e-01 4.393218e-01
<GCONST> 1.345019e+02
<TRANSP> 5
 0.000000e+00 1.000000e+00 0.000000e+00 0.000000e+00 0.000000e+00
 0.000000e+00 6.000000e-01 4.000000e-01 0.000000e+00 0.000000e+00
 0.000000e+00 0.000000e+00 6.000000e-01 4.000000e-01 0.000000e+00
 0.000000e+00 0.000000e+00 0.000000e+00 7.000000e-01 3.000000e-01
 0.000000e+00 0.000000e+00 0.000000e+00 0.000000e+00 0.000000e+00
<ENDHMM>
~h "sy"
<BEGINHMM>
<NUMSTATES> 5
<STATE> 2
<MEAN> 39
 -7.237505e+00 -9.522734e-01 -7.239595e-01 -2.744242e+00 -6.125420e+00 -3.744653e+00 -7.392341e+00 -1.832690e+00 -4.059911e+00 -5.196792e-01 -2.639862e+00 -2.525514e+00 5.699863e+01 1.700382e-02 -5.215406e-03 2.374562e-03 -3.223888e-03 6.313559e-03 -1.454970e-02 -1.132163e-02 -8.926885e-03 -9.477547e-03 -4.594841e-03 -1.045515e-02 -6.317729e-04 5.988493e-02 -8.761588e-04 -9.383484e-05 1.257182e-03 3.458446e-04 -4.947232e-04 8.716302e-04 1.326781e-03 9.909964e-04 6.046794e-05 -2.788493e-04 -3.502069e-04 -2.982569e-04 -2.026873e-03
<VARIANCE> 39
 7.958804e+01 5.685667e+01 7.285796e+01 6.832046e+01 7.573316e+01 7.273641e+01 6.927921e+01 6.811816e+01 7.898077e+01 5.386222e+01 6.644337e+01 5.721838e+01 2.357942e+02 2.353387e+00 2.528079e+00 2.648467e+00 3.388781e+00 3.598284e+00 3.434243e+00 3.601095e+00 3.951554e+00 3.435617e+00 3.243728e+00 3.144767e+00 2.665965e+00 3.142714e+00 3.591968e-01 4.069394e-01 4.246498e-01 5.840888e-01 6.218489e-01 6.178815e-01 6.612020e-01 7.182935e-01 6.242200e-01 6.042847e-01 5.761919e-01 4.949592e-01 4.393218e-01
<GCONST> 1.345019e+02
<STATE> 3
<MEAN> 39
 -7.237505e+00 -9.522734e-01 -7.239595e-01 -2.744242e+00 -6.125420e+00 -3.744653e+00 -7.392341e+00 -1.832690e+00 -4.059911e+00 -5.196792e-01 -2.639862e+00 -2.525514e+00 5.699863e+01 1.700382e-02 -5.215406e-03 2.374562e-03 -3.223888e-03 6.313559e-03 -1.454970e-02 -1.132163e-02 -8.926885e-03 -9.477547e-03 -4.594841e-03 -1.045515e-02 -6.317729e-04 5.988493e-02 -8.761588e-04 -9.383484e-05 1.257182e-03 3.458446e-04 -4.947232e-04 8.716302e-04 1.326781e-03 9.909964e-04 6.046794e-05 -2.788493e-04 -3.502069e-04 -2.982569e-04 -2.026873e-03
<VARIANCE> 39
 7.958804e+01 5.685667e+01 7.285796e+01 6.832046e+01 7.573316e+01 7.273641e+01 6.927921e+01 6.811816e+01 7.898077e+01 5.386222e+01 6.644337e+01 5.721838e+01 2.357942e+02 2.353387e+00 2.528079e+00 2.648467e+00 3.388781e+00 3.598284e+00 3.434243e+00 3.601095e+00 3.951554e+00 3.435617e+00 3.243728e+00 3.144767e+00 2.665965e+00 3.142714e+00 3.591968e-01 4.069394e-01 4.246498e-01 5.840888e-01 6.218489e-01 6.178815e-01 6.612020e-01 7.182935e-01 6.242200e-01 6.042847e-01 5.761919e-01 4.949592e-01 4.393218e-01
<GCONST> 1.345019e+02
<STATE> 4
<MEAN> 39
 -7.237505e+00 -9.522734e-01 -7.239595e-01 -2.744242e+00 -6.125420e+00 -3.744653e+00 -7.392341e+00 -1.832690e+00 -4.059911e+00 -5.196792e-01 -2.639862e+00 -2.525514e+00 5.699863e+01 1.700382e-02 -5.215406e-03 2.374562e-03 -3.223888e-03 6.313559e-03 -1.454970e-02 -1.132163e-02 -8.926885e-03 -9.477547e-03 -4.594841e-03 -1.045515e-02 -6.317729e-04 5.988493e-02 -8.761588e-04 -9.383484e-05 1.257182e-03 3.458446e-04 -4.947232e-04 8.716302e-04 1.326781e-03 9.909964e-04 6.046794e-05 -2.788493e-04 -3.502069e-04 -2.982569e-04 -2.026873e-03
<VARIANCE> 39
 7.958804e+01 5.685667e+01 7.285796e+01 6.832046e+01 7.573316e+01 7.273641e+01 6.927921e+01 6.811816e+01 7.898077e+01 5.386222e+01 6.644337e+01 5.721838e+01 2.357942e+02 2.353387e+00 2.528079e+00 2.648467e+00 3.388781e+00 3.598284e+00 3.434243e+00 3.601095e+00 3.951554e+00 3.435617e+00 3.243728e+00 3.144767e+00 2.665965e+00 3.142714e+00 3.591968e-01 4.069394e-01 4.246498e-01 5.840888e-01 6.218489e-01 6.178815e-01 6.612020e-01 7.182935e-01 6.242200e-01 6.042847e-01 5.761919e-01 4.949592e-01 4.393218e-01
<GCONST> 1.345019e+02
<TRANSP> 5
 0.000000e+00 1.000000e+00 0.000000e+00 0.000000e+00 0.000000e+00
 0.000000e+00 6.000000e-01 4.000000e-01 0.000000e+00 0.000000e+00
 0.000000e+00 0.000000e+00 6.000000e-01 4.000000e-01 0.000000e+00
 0.000000e+00 0.000000e+00 0.000000e+00 7.000000e-01 3.000000e-01
 0.000000e+00 0.000000e+00 0.000000e+00 0.000000e+00 0.000000e+00
<ENDHMM>
~h "sil"
<BEGINHMM>
<NUMSTATES> 5
<STATE> 2
<MEAN> 39
