~o
<STREAMINFO> 1 39
<VECSIZE> 39<NULLD><MFCC_D_A_0><DIAGC>
~h "proto"
<BEGINHMM>
<NUMSTATES> 5
<STATE> 2
<MEAN> 39
 -9.449183e+00 -2.013447e+00 -2.087520e+00 -4.468430e+00 -9.173446e+00 -5.886952e+00 -1.052243e+01 -3.809851e+00 -6.173471e+00 -2.535167e+00 -3.939231e+00 -5.132785e+00 6.574121e+01 1.872125e-02 -1.045030e-02 -4.149277e-04 -7.574639e-03 5.238465e-03 -2.100599e-02 -1.591358e-02 -1.266472e-02 -1.332081e-02 -6.789300e-03 -1.330777e-02 -1.141769e-03 6.962804e-02 -8.884668e-04 1.776963e-04 1.765788e-03 4.714325e-04 -7.702449e-04 1.007553e-03 1.658499e-03 1.234104e-03 1.735223e-04 -2.667596e-04 -4.402065e-04 -2.259525e-04 -2.312124e-03
<VARIANCE> 39
 1.182132e+02 8.950499e+01 1.034540e+02 1.093160e+02 1.238108e+02 1.164567e+02 1.193989e+02 1.158162e+02 1.373309e+02 8.958576e+01 1.209422e+02 1.043740e+02 3.476318e+02 3.436442e+00 3.881541e+00 3.805160e+00 5.047008e+00 5.669102e+00 5.368097e+00 5.682540e+00 6.363548e+00 5.564971e+00 5.303722e+00 5.602663e+00 4.845815e+00 4.514955e+00 5.221782e-01 6.197248e-01 6.118837e-01 8.663895e-01 9.709433e-01 9.676543e-01 1.040323e+00 1.148868e+00 1.011664e+00 9.878036e-01 1.017788e+00 8.973131e-01 6.303596e-01
<GCONST> 1.526434e+02
<STATE> 3
<MEAN> 39
 -9.449183e+00 -2.013447e+00 -2.087520e+00 -4.468430e+00 -9.173446e+00 -5.886952e+00 -1.052243e+01 -3.809851e+00 -6.173471e+00 -2.535167e+00 -3.939231e+00 -5.132785e+00 6.574121e+01 1.872125e-02 -1.045030e-02 -4.149277e-04 -7.574639e-03 5.238465e-03 -2.100599e-02 -1.591358e-02 -1.266472e-02 -1.332081e-02 -6.789300e-03 -1.330777e-02 -1.141769e-03 6.962804e-02 -8.884668e-04 1.776963e-04 1.765788e-03 4.714325e-04 -7.702449e-04 1.007553e-03 1.658499e-03 1.234104e-03 1.735223e-04 -2.667596e-04 -4.402065e-04 -2.259525e-04 -2.312124e-03
<VARIANCE> 39
 1.182132e+02 8.950499e+01 1.034540e+02 1.093160e+02 1.238108e+02 1.164567e+02 1.193989e+02 1.158162e+02 1.373309e+02 8.958576e+01 1.209422e+02 1.043740e+02 3.476318e+02 3.436442e+00 3.881541e+00 3.805160e+00 5.047008e+00 5.669102e+00 5.368097e+00 5.682540e+00 6.363548e+00 5.564971e+00 5.303722e+00 5.602663e+00 4.845815e+00 4.514955e+00 5.221782e-01 6.197248e-01 6.118837e-01 8.663895e-01 9.709433e-01 9.676543e-01 1.040323e+00 1.148868e+00 1.011664e+00 9.878036e-01 1.017788e+00 8.973131e-01 6.303596e-01
<GCONST> 1.526434e+02
<STATE> 4
<MEAN> 39
 -9.449183e+00 -2.013447e+00 -2.087520e+00 -4.468430e+00 -9.173446e+00 -5.886952e+00 -1.052243e+01 -3.809851e+00 -6.173471e+00 -2.535167e+00 -3.939231e+00 -5.132785e+00 6.574121e+01 1.872125e-02 -1.045030e-02 -4.149277e-04 -7.574639e-03 5.238465e-03 -2.100599e-02 -1.591358e-02 -1.266472e-02 -1.332081e-02 -6.789300e-03 -1.330777e-02 -1.141769e-03 6.962804e-02 -8.884668e-04 1.776963e-04 1.765788e-03 4.714325e-04 -7.702449e-04 1.007553e-03 1.658499e-03 1.234104e-03 1.735223e-04 -2.667596e-04 -4.402065e-04 -2.259525e-04 -2.312124e-03
<VARIANCE> 39
 1.182132e+02 8.950499e+01 1.034540e+02 1.093160e+02 1.238108e+02 1.164567e+02 1.193989e+02 1.158162e+02 1.373309e+02 8.958576e+01 1.209422e+02 1.043740e+02 3.476318e+02 3.436442e+00 3.881541e+00 3.805160e+00 5.047008e+00 5.669102e+00 5.368097e+00 5.682540e+00 6.363548e+00 5.564971e+00 5.303722e+00 5.602663e+00 4.845815e+00 4.514955e+00 5.221782e-01 6.197248e-01 6.118837e-01 8.663895e-01 9.709433e-01 9.676543e-01 1.040323e+00 1.148868e+00 1.011664e+00 9.878036e-01 1.017788e+00 8.973131e-01 6.303596e-01
<GCONST> 1.526434e+02
<TRANSP> 5
 0.000000e+00 1.000000e+00 0.000000e+00 0.000000e+00 0.000000e+00
 0.000000e+00 6.000000e-01 4.000000e-01 0.000000e+00 0.000000e+00
 0.000000e+00 0.000000e+00 6.000000e-01 4.000000e-01 0.000000e+00
 0.000000e+00 0.000000e+00 0.000000e+00 7.000000e-01 3.000000e-01
 0.000000e+00 0.000000e+00 0.000000e+00 0.000000e+00 0.000000e+00
<ENDHMM>
