~o
<STREAMINFO> 1 39
<VECSIZE> 39<NULLD><MFCC_D_A_0><DIAGC>
~h "proto"
<BEGINHMM>
<NUMSTATES> 5
<STATE> 2
<MEAN> 39
 -9.466567e+00 -2.010419e+00 -2.073663e+00 -4.461169e+00 -9.184486e+00 -5.903370e+00 -1.052459e+01 -3.787373e+00 -6.176003e+00 -2.514364e+00 -3.940075e+00 -5.133113e+00 6.572247e+01 1.869416e-02 -1.052279e-02 -3.550787e-04 -7.474688e-03 5.504310e-03 -2.096387e-02 -1.598089e-02 -1.279895e-02 -1.335511e-02 -6.709669e-03 -1.347779e-02 -1.239425e-03 6.974664e-02 -8.667164e-04 1.943172e-04 1.724726e-03 4.004590e-04 -7.674872e-04 9.974664e-04 1.633151e-03 1.246277e-03 1.783675e-04 -2.493572e-04 -3.938448e-04 -2.407401e-04 -2.297355e-03
<VARIANCE> 39
 1.177475e+02 8.941824e+01 1.034334e+02 1.096461e+02 1.237775e+02 1.164828e+02 1.193565e+02 1.156051e+02 1.374797e+02 8.964059e+01 1.211704e+02 1.043884e+02 3.481899e+02 3.421544e+00 3.879482e+00 3.803927e+00 5.050729e+00 5.655879e+00 5.361443e+00 5.682556e+00 6.367335e+00 5.566316e+00 5.311480e+00 5.603945e+00 4.846498e+00 4.508505e+00 5.213422e-01 6.204822e-01 6.115909e-01 8.663201e-01 9.682517e-01 9.662800e-01 1.040374e+00 1.150053e+00 1.011433e+00 9.898460e-01 1.018229e+00 8.976053e-01 6.306059e-01
<GCONST> 1.526364e+02
<STATE> 3
<MEAN> 39
 -9.466567e+00 -2.010419e+00 -2.073663e+00 -4.461169e+00 -9.184486e+00 -5.903370e+00 -1.052459e+01 -3.787373e+00 -6.176003e+00 -2.514364e+00 -3.940075e+00 -5.133113e+00 6.572247e+01 1.869416e-02 -1.052279e-02 -3.550787e-04 -7.474688e-03 5.504310e-03 -2.096387e-02 -1.598089e-02 -1.279895e-02 -1.335511e-02 -6.709669e-03 -1.347779e-02 -1.239425e-03 6.974664e-02 -8.667164e-04 1.943172e-04 1.724726e-03 4.004590e-04 -7.674872e-04 9.974664e-04 1.633151e-03 1.246277e-03 1.783675e-04 -2.493572e-04 -3.938448e-04 -2.407401e-04 -2.297355e-03
<VARIANCE> 39
 1.177475e+02 8.941824e+01 1.034334e+02 1.096461e+02 1.237775e+02 1.164828e+02 1.193565e+02 1.156051e+02 1.374797e+02 8.964059e+01 1.211704e+02 1.043884e+02 3.481899e+02 3.421544e+00 3.879482e+00 3.803927e+00 5.050729e+00 5.655879e+00 5.361443e+00 5.682556e+00 6.367335e+00 5.566316e+00 5.311480e+00 5.603945e+00 4.846498e+00 4.508505e+00 5.213422e-01 6.204822e-01 6.115909e-01 8.663201e-01 9.682517e-01 9.662800e-01 1.040374e+00 1.150053e+00 1.011433e+00 9.898460e-01 1.018229e+00 8.976053e-01 6.306059e-01
<GCONST> 1.526364e+02
<STATE> 4
<MEAN> 39
 -9.466567e+00 -2.010419e+00 -2.073663e+00 -4.461169e+00 -9.184486e+00 -5.903370e+00 -1.052459e+01 -3.787373e+00 -6.176003e+00 -2.514364e+00 -3.940075e+00 -5.133113e+00 6.572247e+01 1.869416e-02 -1.052279e-02 -3.550787e-04 -7.474688e-03 5.504310e-03 -2.096387e-02 -1.598089e-02 -1.279895e-02 -1.335511e-02 -6.709669e-03 -1.347779e-02 -1.239425e-03 6.974664e-02 -8.667164e-04 1.943172e-04 1.724726e-03 4.004590e-04 -7.674872e-04 9.974664e-04 1.633151e-03 1.246277e-03 1.783675e-04 -2.493572e-04 -3.938448e-04 -2.407401e-04 -2.297355e-03
<VARIANCE> 39
 1.177475e+02 8.941824e+01 1.034334e+02 1.096461e+02 1.237775e+02 1.164828e+02 1.193565e+02 1.156051e+02 1.374797e+02 8.964059e+01 1.211704e+02 1.043884e+02 3.481899e+02 3.421544e+00 3.879482e+00 3.803927e+00 5.050729e+00 5.655879e+00 5.361443e+00 5.682556e+00 6.367335e+00 5.566316e+00 5.311480e+00 5.603945e+00 4.846498e+00 4.508505e+00 5.213422e-01 6.204822e-01 6.115909e-01 8.663201e-01 9.682517e-01 9.662800e-01 1.040374e+00 1.150053e+00 1.011433e+00 9.898460e-01 1.018229e+00 8.976053e-01 6.306059e-01
<GCONST> 1.526364e+02
<TRANSP> 5
 0.000000e+00 1.000000e+00 0.000000e+00 0.000000e+00 0.000000e+00
 0.000000e+00 6.000000e-01 4.000000e-01 0.000000e+00 0.000000e+00
 0.000000e+00 0.000000e+00 6.000000e-01 4.000000e-01 0.000000e+00
 0.000000e+00 0.000000e+00 0.000000e+00 7.000000e-01 3.000000e-01
 0.000000e+00 0.000000e+00 0.000000e+00 0.000000e+00 0.000000e+00
<ENDHMM>
