~o
<STREAMINFO> 1 39
<VECSIZE> 39<NULLD><MFCC_D_A_0><DIAGC>
~h "proto"
<BEGINHMM>
<NUMSTATES> 5
<STATE> 2
<MEAN> 39
 -7.125745e+00 -7.865936e-01 -6.592740e-01 -2.488756e+00 -6.075916e+00 -3.552311e+00 -7.205004e+00 -1.732145e+00 -3.903894e+00 -4.863979e-01 -2.453341e+00 -2.575523e+00 5.617043e+01 1.700917e-02 -5.661995e-03 1.882507e-03 -3.890016e-03 5.849798e-03 -1.496035e-02 -1.122131e-02 -8.676180e-03 -9.377310e-03 -4.631408e-03 -1.042024e-02 -2.913428e-04 5.883827e-02 -4.511161e-04 -1.117255e-04 7.218145e-04 3.282299e-04 -1.023375e-03 -3.209458e-05 5.169024e-04 9.785322e-04 3.798690e-04 -1.678105e-04 -4.321089e-04 -4.405203e-05 -1.752069e-03
<VARIANCE> 39
 8.199786e+01 5.698293e+01 7.317423e+01 6.814786e+01 7.544647e+01 7.291059e+01 6.976235e+01 6.857011e+01 7.873795e+01 5.381206e+01 6.480852e+01 5.655352e+01 2.410066e+02 2.401033e+00 2.558851e+00 2.694107e+00 3.451061e+00 3.674142e+00 3.497642e+00 3.702063e+00 4.059539e+00 3.525897e+00 3.305587e+00 3.203593e+00 2.721691e+00 3.199481e+00 3.686810e-01 4.136485e-01 4.342497e-01 5.959657e-01 6.383656e-01 6.310487e-01 6.811259e-01 7.393108e-01 6.418986e-01 6.163256e-01 5.881414e-01 5.054529e-01 4.496122e-01
<GCONST> 1.350954e+02
<STATE> 3
<MEAN> 39
 -7.125745e+00 -7.865936e-01 -6.592740e-01 -2.488756e+00 -6.075916e+00 -3.552311e+00 -7.205004e+00 -1.732145e+00 -3.903894e+00 -4.863979e-01 -2.453341e+00 -2.575523e+00 5.617043e+01 1.700917e-02 -5.661995e-03 1.882507e-03 -3.890016e-03 5.849798e-03 -1.496035e-02 -1.122131e-02 -8.676180e-03 -9.377310e-03 -4.631408e-03 -1.042024e-02 -2.913428e-04 5.883827e-02 -4.511161e-04 -1.117255e-04 7.218145e-04 3.282299e-04 -1.023375e-03 -3.209458e-05 5.169024e-04 9.785322e-04 3.798690e-04 -1.678105e-04 -4.321089e-04 -4.405203e-05 -1.752069e-03
<VARIANCE> 39
 8.199786e+01 5.698293e+01 7.317423e+01 6.814786e+01 7.544647e+01 7.291059e+01 6.976235e+01 6.857011e+01 7.873795e+01 5.381206e+01 6.480852e+01 5.655352e+01 2.410066e+02 2.401033e+00 2.558851e+00 2.694107e+00 3.451061e+00 3.674142e+00 3.497642e+00 3.702063e+00 4.059539e+00 3.525897e+00 3.305587e+00 3.203593e+00 2.721691e+00 3.199481e+00 3.686810e-01 4.136485e-01 4.342497e-01 5.959657e-01 6.383656e-01 6.310487e-01 6.811259e-01 7.393108e-01 6.418986e-01 6.163256e-01 5.881414e-01 5.054529e-01 4.496122e-01
<GCONST> 1.350954e+02
<STATE> 4
<MEAN> 39
 -7.125745e+00 -7.865936e-01 -6.592740e-01 -2.488756e+00 -6.075916e+00 -3.552311e+00 -7.205004e+00 -1.732145e+00 -3.903894e+00 -4.863979e-01 -2.453341e+00 -2.575523e+00 5.617043e+01 1.700917e-02 -5.661995e-03 1.882507e-03 -3.890016e-03 5.849798e-03 -1.496035e-02 -1.122131e-02 -8.676180e-03 -9.377310e-03 -4.631408e-03 -1.042024e-02 -2.913428e-04 5.883827e-02 -4.511161e-04 -1.117255e-04 7.218145e-04 3.282299e-04 -1.023375e-03 -3.209458e-05 5.169024e-04 9.785322e-04 3.798690e-04 -1.678105e-04 -4.321089e-04 -4.405203e-05 -1.752069e-03
<VARIANCE> 39
 8.199786e+01 5.698293e+01 7.317423e+01 6.814786e+01 7.544647e+01 7.291059e+01 6.976235e+01 6.857011e+01 7.873795e+01 5.381206e+01 6.480852e+01 5.655352e+01 2.410066e+02 2.401033e+00 2.558851e+00 2.694107e+00 3.451061e+00 3.674142e+00 3.497642e+00 3.702063e+00 4.059539e+00 3.525897e+00 3.305587e+00 3.203593e+00 2.721691e+00 3.199481e+00 3.686810e-01 4.136485e-01 4.342497e-01 5.959657e-01 6.383656e-01 6.310487e-01 6.811259e-01 7.393108e-01 6.418986e-01 6.163256e-01 5.881414e-01 5.054529e-01 4.496122e-01
<GCONST> 1.350954e+02
<TRANSP> 5
 0.000000e+00 1.000000e+00 0.000000e+00 0.000000e+00 0.000000e+00
 0.000000e+00 6.000000e-01 4.000000e-01 0.000000e+00 0.000000e+00
 0.000000e+00 0.000000e+00 6.000000e-01 4.000000e-01 0.000000e+00
 0.000000e+00 0.000000e+00 0.000000e+00 7.000000e-01 3.000000e-01
 0.000000e+00 0.000000e+00 0.000000e+00 0.000000e+00 0.000000e+00
<ENDHMM>
