~o
<STREAMINFO> 1 39
<VECSIZE> 39<NULLD><MFCC_D_A_0><DIAGC>
~h "a"
<BEGINHMM>
<NUMSTATES> 5
<STATE> 2
<MEAN> 39
 -8.711976e+00 -3.184624e+00 -2.410530e+00 -5.328974e+00 -8.654725e+00 -6.566690e+00 -1.028958e+01 -3.197697e+00 -5.849349e+00 -2.704689e+00 -4.870910e+00 -5.724421e+00 6.803513e+01 1.441951e-02 -1.059908e-02 1.505564e-04 -1.272347e-02 1.430009e-02 -6.830855e-03 -2.419549e-03 -1.062620e-02 -4.002981e-03 -1.089853e-02 -2.348669e-02 -1.109651e-02 3.470536e-02 -1.977420e-03 3.112296e-03 5.791913e-04 2.390893e-03 -1.485108e-03 1.954137e-03 -4.882354e-05 -2.040632e-03 -9.933308e-04 7.969147e-04 2.433035e-03 6.609041e-04 -6.249534e-03
<VARIANCE> 39
 1.104949e+02 9.372449e+01 1.006036e+02 1.104322e+02 1.273559e+02 1.183828e+02 1.161039e+02 1.207558e+02 1.388981e+02 9.202075e+01 1.288884e+02 1.165033e+02 3.227766e+02 3.375241e+00 4.059161e+00 3.786529e+00 5.073885e+00 5.689703e+00 5.361433e+00 5.599286e+00 6.445374e+00 5.498302e+00 5.406738e+00 5.708463e+00 5.061751e+00 4.376954e+00 5.201685e-01 6.359276e-01 6.104444e-01 8.689558e-01 9.745815e-01 9.663127e-01 1.028406e+00 1.154537e+00 9.997685e-01 1.005820e+00 1.031233e+00 9.272132e-01 6.061774e-01
<GCONST> 1.528975e+02
<STATE> 3
<MEAN> 39
 -8.673795e+00 -3.207512e+00 -2.410604e+00 -5.363149e+00 -8.614930e+00 -6.582407e+00 -1.029510e+01 -3.237225e+00 -5.863780e+00 -2.738751e+00 -4.940044e+00 -5.749729e+00 6.811901e+01 9.900412e-03 -2.484441e-03 1.489478e-03 -6.476401e-03 9.776618e-03 -2.772981e-03 -2.949305e-03 -1.576948e-02 -6.631681e-03 -8.333225e-03 -1.699764e-02 -8.880375e-03 2.097437e-02 -1.573760e-03 2.826138e-03 5.250645e-04 2.138727e-03 -1.716240e-03 1.249080e-03 -7.392315e-05 -1.883036e-03 -9.292552e-04 8.735041e-04 2.011393e-03 9.288957e-04 -4.029637e-03
<VARIANCE> 39
 1.098013e+02 9.400655e+01 1.006736e+02 1.105148e+02 1.278718e+02 1.181892e+02 1.159657e+02 1.206402e+02 1.389790e+02 9.241687e+01 1.293417e+02 1.165255e+02 3.191281e+02 3.366863e+00 4.072705e+00 3.786793e+00 5.081355e+00 5.687109e+00 5.363285e+00 5.605840e+00 6.446882e+00 5.507857e+00 5.416022e+00 5.718706e+00 5.064336e+00 4.344005e+00 5.187082e-01 6.378179e-01 6.103812e-01 8.696813e-01 9.745710e-01 9.672587e-01 1.030461e+00 1.154951e+00 1.002319e+00 1.007778e+00 1.032149e+00 9.274657e-01 6.007196e-01
<GCONST> 1.528958e+02
<STATE> 4
<MEAN> 39
 -8.912561e+00 -3.245524e+00 -2.662875e+00 -5.089851e+00 -8.494228e+00 -6.139316e+00 -1.021476e+01 -3.282728e+00 -5.847088e+00 -2.973462e+00 -5.105776e+00 -5.577841e+00 6.687642e+01 5.824331e-03 5.890597e-03 1.526153e-03 -2.004853e-04 5.247665e-03 -6.782319e-04 -3.189118e-03 -2.177594e-02 -8.325288e-03 -6.499892e-03 -1.078454e-02 -4.072634e-03 1.004734e-02 -1.272906e-03 2.258726e-03 2.534479e-04 1.913198e-03 -1.828130e-03 8.201240e-04 -3.496411e-04 -1.420969e-03 -6.909047e-04 7.306793e-04 1.924099e-03 1.141944e-03 -2.674797e-03
<VARIANCE> 39
 1.147493e+02 9.698629e+01 1.012011e+02 1.103922e+02 1.270753e+02 1.183237e+02 1.140604e+02 1.151914e+02 1.338482e+02 9.070902e+01 1.264468e+02 1.139772e+02 3.336551e+02 3.281387e+00 4.053040e+00 3.723276e+00 4.942282e+00 5.496963e+00 5.218747e+00 5.437606e+00 6.192425e+00 5.388680e+00 5.272440e+00 5.576850e+00 4.889217e+00 4.245677e+00 5.004249e-01 6.317524e-01 5.966020e-01 8.445959e-01 9.413782e-01 9.384241e-01 9.995394e-01 1.113228e+00 9.819224e-01 9.792235e-01 1.005955e+00 8.971812e-01 5.741804e-01
<GCONST> 1.521284e+02
<TRANSP> 5
 0.000000e+00 1.000000e+00 0.000000e+00 0.000000e+00 0.000000e+00
 0.000000e+00 6.401783e-01 3.598217e-01 0.000000e+00 0.000000e+00
 0.000000e+00 0.000000e+00 6.401864e-01 3.598136e-01 0.000000e+00
 0.000000e+00 0.000000e+00 0.000000e+00 7.685021e-01 2.314979e-01
 0.000000e+00 0.000000e+00 0.000000e+00 0.000000e+00 0.000000e+00
<ENDHMM>
~h "b"
<BEGINHMM>
<NUMSTATES> 5
<STATE> 2
<MEAN> 39
 -8.465133e+00 -1.742876e+00 -1.824511e+00 -5.242153e+00 -9.861645e+00 -6.375131e+00 -1.147618e+01 -4.632882e+00 -6.622432e+00 -2.307848e+00 -3.669748e+00 -5.255174e+00 6.728561e+01 3.285111e-02 8.213237e-03 1.619265e-03 -1.272519e-02 -3.633687e-03 -1.809970e-02 -2.291799e-02 -2.362948e-02 -2.208073e-02 -8.557459e-03 -1.909034e-02 -3.676593e-03 7.881025e-02 -5.315668e-03 2.401045e-03 -2.578123e-04 3.481258e-03 3.366590e-04 4.587302e-03 2.954005e-03 1.308315e-03 7.010326e-04 4.074056e-04 1.261877e-03 6.315683e-05 -1.193895e-02
<VARIANCE> 39
 1.191199e+02 8.820539e+01 1.015689e+02 1.122174e+02 1.165079e+02 1.165183e+02 1.232635e+02 1.233245e+02 1.389836e+02 9.013108e+01 1.259767e+02 1.020597e+02 3.160012e+02 3.723979e+00 4.134300e+00 4.005303e+00 5.708437e+00 6.008678e+00 5.661124e+00 6.276160e+00 6.996654e+00 5.904499e+00 5.651712e+00 6.079164e+00 5.143777e+00 4.625714e+00 5.612616e-01 6.668211e-01 6.633840e-01 9.891917e-01 1.048891e+00 1.015390e+00 1.162066e+00 1.259678e+00 1.076896e+00 1.061378e+00 1.123291e+00 9.671108e-01 6.744423e-01
<GCONST> 1.545936e+02
<STATE> 3
<MEAN> 39
 -8.395344e+00 -1.726871e+00 -1.818697e+00 -5.281035e+00 -9.874154e+00 -6.417740e+00 -1.153584e+01 -4.678548e+00 -6.679274e+00 -2.328331e+00 -3.727608e+00 -5.288674e+00 6.750185e+01 2.392537e-02 1.159212e-02 5.595186e-04 -7.118376e-03 -4.576945e-03 -9.600214e-03 -2.123220e-02 -1.928786e-02 -2.242809e-02 -6.515149e-03 -1.577659e-02 -4.558329e-03 6.122421e-02 -3.028519e-03 3.005705e-04 3.899084e-04 1.385321e-03 -5.498608e-04 2.156222e-03 -1.600662e-04 2.313474e-03 -1.010689e-04 6.725531e-04 1.532305e-03 -3.401361e-04 -4.255520e-03
<VARIANCE> 39
 1.188509e+02 8.859038e+01 1.020953e+02 1.115358e+02 1.172013e+02 1.150846e+02 1.239627e+02 1.227527e+02 1.396977e+02 9.037422e+01 1.268109e+02 1.019170e+02 3.088373e+02 3.731591e+00 4.161283e+00 4.040093e+00 5.756086e+00 6.038583e+00 5.654533e+00 6.300107e+00 6.990900e+00 5.936212e+00 5.675888e+00 6.134969e+00 5.176572e+00 4.533297e+00 5.606101e-01 6.710284e-01 6.691819e-01 9.980834e-01 1.054499e+00 1.016593e+00 1.166393e+00 1.259532e+00 1.084408e+00 1.065307e+00 1.132849e+00 9.729602e-01 6.585676e-01
<GCONST> 1.546509e+02
<STATE> 4
<MEAN> 39
 -8.947008e+00 -1.611572e+00 -2.085599e+00 -4.850617e+00 -9.757613e+00 -6.010789e+00 -1.134799e+01 -4.499191e+00 -6.581815e+00 -2.516774e+00 -3.767707e+00 -5.231665e+00 6.594913e+01 2.552309e-02 5.411416e-03 3.378309e-03 -1.057718e-02 -1.060022e-02 -1.209956e-02 -3.103899e-02 -1.439439e-02 -2.614577e-02 -4.565333e-03 -1.536419e-02 -1.054319e-02 6.582633e-02 -2.959305e-04 -1.262673e-03 6.615891e-04 -1.918396e-04 -1.410688e-03 1.186552e-04 -1.838304e-03 1.432325e-03 -2.634104e-04 5.784106e-04 1.254027e-03 -9.053337e-04 -4.180017e-04
<VARIANCE> 39
 1.231854e+02 8.874853e+01 1.024455e+02 1.089113e+02 1.159586e+02 1.113432e+02 1.212924e+02 1.167694e+02 1.349364e+02 8.715003e+01 1.218174e+02 9.808037e+01 3.299512e+02 3.622722e+00 4.053014e+00 3.948560e+00 5.519693e+00 5.792281e+00 5.423967e+00 6.045559e+00 6.650745e+00 5.782713e+00 5.497219e+00 5.966665e+00 5.012488e+00 4.367644e+00 5.389843e-01 6.502207e-01 6.532747e-01 9.594198e-01 1.009454e+00 9.746646e-01 1.115770e+00 1.200833e+00 1.059528e+00 1.032529e+00 1.101504e+00 9.413506e-01 6.245219e-01
<GCONST> 1.535377e+02
<TRANSP> 5
 0.000000e+00 1.000000e+00 0.000000e+00 0.000000e+00 0.000000e+00
 0.000000e+00 6.305265e-01 3.694735e-01 0.000000e+00 0.000000e+00
 0.000000e+00 0.000000e+00 6.305295e-01 3.694705e-01 0.000000e+00
 0.000000e+00 0.000000e+00 0.000000e+00 7.547759e-01 2.452241e-01
 0.000000e+00 0.000000e+00 0.000000e+00 0.000000e+00 0.000000e+00
<ENDHMM>
~h "c"
<BEGINHMM>
<NUMSTATES> 5
<STATE> 2
<MEAN> 39
 -1.012710e+01 -1.717066e+00 -1.435026e+00 -4.901147e+00 -9.197808e+00 -7.179854e+00 -9.924088e+00 -3.622177e+00 -5.553506e+00 -3.355772e+00 -4.401108e+00 -4.570844e+00 6.707456e+01 -7.117894e-03 -1.222784e-02 3.327293e-02 5.125166e-04 1.471313e-02 -1.940414e-02 -5.510775e-03 -8.910740e-03 6.301622e-03 -2.047430e-03 8.964500e-03 3.362850e-02 3.954969e-02 -5.937478e-04 -1.649887e-03 -5.342565e-03 9.472539e-04 -5.354434e-03 2.634414e-03 -1.249007e-03 -6.983292e-04 -1.213050e-03 1.189575e-03 4.439649e-03 -6.234042e-03 -1.133009e-02
<VARIANCE> 39
 1.167345e+02 8.474876e+01 9.374967e+01 1.039584e+02 1.191562e+02 1.251426e+02 1.242443e+02 1.156502e+02 1.367980e+02 8.553635e+01 1.210081e+02 1.041143e+02 3.331467e+02 4.949356e+00 4.176566e+00 3.808404e+00 4.996113e+00 5.929044e+00 5.560328e+00 5.273968e+00 6.290090e+00 5.590206e+00 5.080568e+00 5.567647e+00 4.802433e+00 4.635542e+00 8.366439e-01 6.725268e-01 6.419571e-01 8.786752e-01 1.041879e+00 9.929435e-01 9.589351e-01 1.161387e+00 1.035535e+00 9.721611e-01 1.017355e+00 8.922579e-01 6.932000e-01
<GCONST> 1.535371e+02
<STATE> 3
<MEAN> 39
 -1.016008e+01 -1.780503e+00 -1.362475e+00 -4.922765e+00 -9.177307e+00 -7.229380e+00 -9.930153e+00 -3.638045e+00 -5.535670e+00 -3.360140e+00 -4.391646e+00 -4.506464e+00 6.719088e+01 -5.315345e-03 -2.015745e-02 1.728401e-02 3.273608e-03 6.619757e-03 -1.279004e-02 -7.422381e-03 -7.123057e-03 1.368721e-03 2.666700e-03 1.717122e-02 1.854370e-02 2.380278e-02 1.113861e-03 -2.498601e-03 -5.781614e-03 1.871807e-03 -2.096583e-03 3.528887e-03 -3.121444e-06 1.208394e-03 -4.346322e-03 1.142613e-03 2.970845e-03 -7.259757e-03 -5.122371e-03
<VARIANCE> 39
 1.162650e+02 8.483987e+01 9.438538e+01 1.031211e+02 1.197328e+02 1.252355e+02 1.233179e+02 1.141456e+02 1.390705e+02 8.551033e+01 1.222678e+02 1.048751e+02 3.283187e+02 4.939817e+00 4.175983e+00 3.750521e+00 5.029557e+00 5.884746e+00 5.670335e+00 5.251443e+00 6.317887e+00 5.667184e+00 5.072128e+00 5.603319e+00 4.842633e+00 4.543578e+00 8.373943e-01 6.741671e-01 6.309242e-01 8.840204e-01 1.034529e+00 1.016768e+00 9.598058e-01 1.166182e+00 1.047577e+00 9.748911e-01 1.022308e+00 9.015055e-01 6.798593e-01
<GCONST> 1.535691e+02
<STATE> 4
<MEAN> 39
 -1.023013e+01 -1.923254e+00 -1.151714e+00 -4.846763e+00 -9.540117e+00 -6.999884e+00 -1.021231e+01 -3.684566e+00 -5.845611e+00 -3.371237e+00 -4.394922e+00 -4.490159e+00 6.655267e+01 1.747604e-03 -3.206463e-02 3.169024e-03 3.587049e-04 3.955548e-03 -1.001430e-02 -5.666445e-03 3.601991e-03 -8.565535e-03 6.101045e-03 1.149752e-02 3.371530e-03 2.691296e-02 1.266032e-03 -7.715049e-04 -3.848967e-03 1.410188e-03 1.721495e-04 2.096569e-03 3.496233e-04 2.629126e-03 -6.003875e-03 -6.301290e-04 4.404932e-05 -5.611380e-03 -1.699977e-03
<VARIANCE> 39
 1.211648e+02 8.829063e+01 1.001871e+02 1.019047e+02 1.222551e+02 1.251423e+02 1.223139e+02 1.092801e+02 1.412625e+02 8.417594e+01 1.207807e+02 1.044624e+02 3.340576e+02 4.989704e+00 4.279220e+00 3.732299e+00 5.058376e+00 5.780407e+00 5.789273e+00 5.146698e+00 6.235679e+00 5.780896e+00 5.020729e+00 5.597877e+00 4.846356e+00 4.559975e+00 8.399601e-01 6.890689e-01 6.232905e-01 8.858017e-01 1.011659e+00 1.042288e+00 9.449561e-01 1.147919e+00 1.063470e+00 9.697194e-01 1.015576e+00 9.022931e-01 6.771858e-01
<GCONST> 1.536713e+02
<TRANSP> 5
 0.000000e+00 1.000000e+00 0.000000e+00 0.000000e+00 0.000000e+00
 0.000000e+00 6.340438e-01 3.659562e-01 0.000000e+00 0.000000e+00
 0.000000e+00 0.000000e+00 6.340439e-01 3.659561e-01 0.000000e+00
 0.000000e+00 0.000000e+00 0.000000e+00 7.531865e-01 2.468135e-01
 0.000000e+00 0.000000e+00 0.000000e+00 0.000000e+00 0.000000e+00
<ENDHMM>
~h "d"
<BEGINHMM>
<NUMSTATES> 5
<STATE> 2
<MEAN> 39
 -8.463153e+00 -2.302565e+00 -6.004900e-01 -4.639374e+00 -1.093972e+01 -7.580330e+00 -1.153272e+01 -3.320870e+00 -6.706596e+00 -2.809752e+00 -3.784064e+00 -5.103034e+00 6.836980e+01 2.514306e-02 -2.039879e-02 4.097021e-02 -2.500832e-02 -4.025093e-02 -7.949172e-02 -2.548819e-02 2.648441e-03 -3.065500e-02 -1.068399e-02 -2.971600e-02 9.555797e-04 1.245336e-01 -3.431299e-03 -1.040485e-03 -3.522129e-03 -5.449875e-04 6.293553e-04 3.528702e-03 2.363472e-03 2.761521e-03 2.790425e-03 4.693507e-04 1.754024e-03 -1.394307e-03 -8.915137e-03
<VARIANCE> 39
 1.087885e+02 9.162749e+01 1.154053e+02 1.058094e+02 1.329260e+02 1.238711e+02 1.252191e+02 1.247076e+02 1.490032e+02 9.158415e+01 1.292419e+02 1.109520e+02 3.100474e+02 3.506546e+00 4.191097e+00 4.194884e+00 5.198820e+00 6.754554e+00 5.842981e+00 6.089747e+00 6.959541e+00 6.015006e+00 5.633912e+00 6.168286e+00 5.231546e+00 4.842333e+00 5.462300e-01 6.791051e-01 6.634122e-01 9.014575e-01 1.179753e+00 1.056553e+00 1.120633e+00 1.247905e+00 1.091197e+00 1.062016e+00 1.127393e+00 9.759275e-01 7.057912e-01
<GCONST> 1.551993e+02
<STATE> 3
<MEAN> 39
 -8.390609e+00 -2.369355e+00 -5.025612e-01 -4.722971e+00 -1.104657e+01 -7.778294e+00 -1.159864e+01 -3.307901e+00 -6.777325e+00 -2.836675e+00 -3.848606e+00 -5.111986e+00 6.870008e+01 1.960479e-02 -2.358842e-02 3.264384e-02 -2.652074e-02 -3.771780e-02 -7.097862e-02 -2.116870e-02 8.512804e-03 -2.298168e-02 -8.120047e-03 -2.511191e-02 -1.421767e-03 1.087901e-01 -1.421118e-03 -1.158241e-03 -3.245139e-03 -2.335439e-04 1.510022e-03 4.063332e-03 1.780437e-03 1.729520e-03 3.028843e-03 9.650532e-04 1.877439e-03 -9.042557e-04 -5.530913e-03
<VARIANCE> 39
 1.081789e+02 9.192027e+01 1.162091e+02 1.057084e+02 1.344077e+02 1.247611e+02 1.257995e+02 1.263289e+02 1.505444e+02 9.209524e+01 1.300715e+02 1.120883e+02 3.043780e+02 3.524173e+00 4.223497e+00 4.211777e+00 5.236149e+00 6.816045e+00 5.898492e+00 6.109416e+00 7.012587e+00 6.033290e+00 5.647133e+00 6.206817e+00 5.267136e+00 4.770112e+00 5.468104e-01 6.843277e-01 6.652973e-01 9.084251e-01 1.190266e+00 1.064542e+00 1.125502e+00 1.256959e+00 1.093231e+00 1.065110e+00 1.135139e+00 9.813402e-01 6.957216e-01
<GCONST> 1.553593e+02
<STATE> 4
<MEAN> 39
 -8.382749e+00 -2.646645e+00 -7.088590e-01 -4.633056e+00 -1.092429e+01 -7.525745e+00 -1.155836e+01 -3.192906e+00 -6.601086e+00 -3.071243e+00 -4.067153e+00 -5.025471e+00 6.821904e+01 1.736999e-02 -2.388645e-02 2.880095e-02 -3.038675e-02 -3.014941e-02 -5.302525e-02 -1.960650e-02 9.237925e-03 -1.224073e-02 -3.628831e-03 -1.608378e-02 -3.578790e-03 9.530678e-02 -9.471128e-04 -2.434215e-05 -1.892545e-03 -4.671660e-06 2.724402e-03 5.156856e-03 1.262735e-03 -4.594174e-04 2.491607e-03 1.181136e-03 1.391456e-03 -3.755692e-04 -4.548914e-03
<VARIANCE> 39
 1.132627e+02 9.603829e+01 1.162428e+02 1.056481e+02 1.354500e+02 1.269972e+02 1.273931e+02 1.257905e+02 1.484798e+02 9.062249e+01 1.282850e+02 1.122364e+02 3.092461e+02 3.533499e+00 4.312927e+00 4.174872e+00 5.230284e+00 6.653590e+00 5.830270e+00 5.988097e+00 6.854021e+00 5.925341e+00 5.531358e+00 6.133049e+00 5.159253e+00 4.771806e+00 5.392165e-01 6.934903e-01 6.588317e-01 9.062870e-01 1.161703e+00 1.045655e+00 1.101414e+00 1.230140e+00 1.069310e+00 1.041277e+00 1.120740e+00 9.597022e-01 6.785318e-01
<GCONST> 1.551168e+02
<TRANSP> 5
 0.000000e+00 1.000000e+00 0.000000e+00 0.000000e+00 0.000000e+00
 0.000000e+00 6.273783e-01 3.726216e-01 0.000000e+00 0.000000e+00
 0.000000e+00 0.000000e+00 6.273791e-01 3.726209e-01 0.000000e+00
 0.000000e+00 0.000000e+00 0.000000e+00 7.502447e-01 2.497554e-01
 0.000000e+00 0.000000e+00 0.000000e+00 0.000000e+00 0.000000e+00
<ENDHMM>
~h "e"
<BEGINHMM>
<NUMSTATES> 5
<STATE> 2
<MEAN> 39
 -8.374496e+00 -2.010572e+00 -1.974652e+00 -5.181674e+00 -9.586101e+00 -6.912057e+00 -1.168560e+01 -4.428880e+00 -6.271348e+00 -2.333929e+00 -3.957499e+00 -5.665751e+00 6.854494e+01 3.680257e-02 -1.658132e-02 -8.239081e-04 -2.619640e-02 -1.473419e-02 -2.073524e-02 -4.049544e-02 -2.308341e-02 -1.092479e-02 -6.878497e-03 -2.678207e-02 -2.094826e-02 8.301950e-02 -1.088746e-03 6.391865e-04 -9.679381e-04 -5.411000e-04 2.030313e-03 3.166488e-03 2.820642e-03 9.619271e-04 -6.489557e-04 1.098062e-03 2.768044e-04 -2.771431e-04 -2.596852e-03
<VARIANCE> 39
 1.194274e+02 8.991768e+01 1.020428e+02 1.112659e+02 1.240463e+02 1.159983e+02 1.188072e+02 1.216415e+02 1.473074e+02 9.736095e+01 1.270073e+02 1.061810e+02 2.921768e+02 4.084199e+00 4.452377e+00 4.212508e+00 5.913773e+00 6.172895e+00 5.897883e+00 6.297208e+00 7.306486e+00 6.001402e+00 5.812750e+00 6.135405e+00 5.341314e+00 4.772771e+00 6.195346e-01 7.300810e-01 6.958981e-01 1.036395e+00 1.074360e+00 1.074975e+00 1.169145e+00 1.333410e+00 1.093934e+00 1.083692e+00 1.127774e+00 1.001978e+00 7.162800e-01
<GCONST> 1.557772e+02
<STATE> 3
<MEAN> 39
 -8.262638e+00 -2.061025e+00 -1.974318e+00 -5.258648e+00 -9.620282e+00 -6.961256e+00 -1.179693e+01 -4.491066e+00 -6.308806e+00 -2.351505e+00 -4.038906e+00 -5.731194e+00 6.878428e+01 3.363702e-02 -1.397213e-02 -3.500065e-03 -2.715308e-02 -9.275650e-03 -1.519401e-02 -3.279337e-02 -2.094015e-02 -1.265958e-02 -4.566828e-03 -2.695238e-02 -2.006059e-02 7.600579e-02 -1.497865e-03 7.280903e-04 -6.934585e-04 -4.763035e-04 2.074657e-03 2.066741e-03 3.237872e-03 1.365758e-03 -9.108707e-04 1.087164e-03 2.819273e-04 4.293570e-04 -2.408616e-03
<VARIANCE> 39
 1.185388e+02 9.044196e+01 1.023511e+02 1.115139e+02 1.243335e+02 1.154219e+02 1.196230e+02 1.222120e+02 1.479698e+02 9.821837e+01 1.280172e+02 1.063005e+02 2.863364e+02 4.084466e+00 4.458071e+00 4.225746e+00 5.957180e+00 6.167619e+00 5.915688e+00 6.306637e+00 7.322656e+00 6.026895e+00 5.845840e+00 6.166701e+00 5.357364e+00 4.780542e+00 6.190367e-01 7.296506e-01 6.975396e-01 1.042832e+00 1.072616e+00 1.077177e+00 1.169524e+00 1.335268e+00 1.097956e+00 1.088078e+00 1.132563e+00 1.004659e+00 7.164326e-01
<GCONST> 1.558532e+02
<STATE> 4
<MEAN> 39
 -8.361266e+00 -2.150334e+00 -2.237939e+00 -5.062883e+00 -9.589444e+00 -6.638207e+00 -1.180166e+01 -4.472273e+00 -6.241527e+00 -2.470976e+00 -4.180389e+00 -5.707778e+00 6.776745e+01 3.309408e-02 -1.192327e-02 -4.741095e-03 -2.744920e-02 -9.819539e-04 -1.291233e-02 -2.438204e-02 -1.829517e-02 -1.427922e-02 -1.887335e-03 -2.796673e-02 -1.615043e-02 7.134757e-02 -1.573278e-03 6.099080e-04 -2.928620e-04 3.039482e-05 1.788682e-03 9.120239e-04 3.187623e-03 1.360049e-03 -7.032070e-04 8.752305e-04 5.777321e-04 1.555216e-03 -2.644750e-03
<VARIANCE> 39
 1.211038e+02 9.234360e+01 1.032011e+02 1.118837e+02 1.234429e+02 1.135484e+02 1.196169e+02 1.180638e+02 1.431934e+02 9.733759e+01 1.248511e+02 1.036888e+02 2.998016e+02 3.974186e+00 4.410503e+00 4.132135e+00 5.814868e+00 5.929461e+00 5.767609e+00 6.123133e+00 7.041557e+00 5.867775e+00 5.712972e+00 6.029227e+00 5.171535e+00 4.734727e+00 5.979865e-01 7.189794e-01 6.795923e-01 1.015911e+00 1.027873e+00 1.047746e+00 1.132188e+00 1.287106e+00 1.069657e+00 1.062293e+00 1.106106e+00 9.690508e-01 6.982394e-01
<GCONST> 1.550912e+02
<TRANSP> 5
 0.000000e+00 1.000000e+00 0.000000e+00 0.000000e+00 0.000000e+00
 0.000000e+00 6.245785e-01 3.754216e-01 0.000000e+00 0.000000e+00
 0.000000e+00 0.000000e+00 6.245819e-01 3.754180e-01 0.000000e+00
 0.000000e+00 0.000000e+00 0.000000e+00 7.467962e-01 2.532038e-01
 0.000000e+00 0.000000e+00 0.000000e+00 0.000000e+00 0.000000e+00
<ENDHMM>
~h "f"
<BEGINHMM>
<NUMSTATES> 5
<STATE> 2
<MEAN> 39
 -1.222723e+01 -2.244889e+00 -2.201636e+00 -2.924414e+00 -8.664607e+00 -5.933451e+00 -9.227932e+00 -2.135697e+00 -5.685408e+00 -1.706095e+00 -3.380603e+00 -3.921064e+00 6.440811e+01 -2.815662e-02 -1.592520e-02 3.610754e-02 -2.098974e-02 2.073449e-03 -1.136350e-01 -2.279344e-02 2.592839e-02 -3.482044e-02 -1.310168e-02 1.737665e-02 2.719917e-02 2.025522e-01 1.033001e-03 2.188336e-04 -1.628922e-03 -3.261996e-03 -3.296599e-03 1.174163e-03 -8.036464e-03 -2.188331e-03 3.681631e-03 2.102195e-03 1.159646e-03 -1.671896e-03 -9.292539e-03
<VARIANCE> 39
 1.153815e+02 8.710708e+01 9.128968e+01 9.341546e+01 1.373597e+02 1.235614e+02 1.229722e+02 1.027856e+02 1.177620e+02 7.081171e+01 1.071070e+02 8.937177e+01 3.576835e+02 4.121669e+00 3.635894e+00 3.253259e+00 4.442795e+00 5.543804e+00 5.175594e+00 5.381444e+00 5.206053e+00 5.096135e+00 4.842979e+00 5.117266e+00 4.481518e+00 4.290572e+00 6.597990e-01 5.730371e-01 5.353135e-01 7.612006e-01 9.289362e-01 9.273906e-01 9.964553e-01 9.443867e-01 9.751361e-01 9.413948e-01 9.335102e-01 8.198380e-01 5.935521e-01
<GCONST> 1.501101e+02
<STATE> 3
<MEAN> 39
 -1.234813e+01 -2.280000e+00 -2.105015e+00 -2.967132e+00 -8.659187e+00 -6.245653e+00 -9.307992e+00 -2.048810e+00 -5.758023e+00 -1.713061e+00 -3.309023e+00 -3.831334e+00 6.490877e+01 -2.066378e-02 -1.399630e-02 3.080695e-02 -2.785063e-02 -1.194893e-02 -1.102877e-01 -4.513792e-02 2.001022e-02 -3.192341e-02 -5.075318e-03 2.295252e-02 2.020168e-02 1.797999e-01 7.179539e-03 -1.512354e-03 -2.060867e-03 -5.710440e-03 -5.425354e-03 2.322936e-03 -9.404680e-03 -3.092506e-03 -9.073640e-04 2.737455e-03 -5.470029e-04 -4.216576e-03 -4.395666e-03
<VARIANCE> 39
 1.146823e+02 8.722624e+01 9.204844e+01 9.324834e+01 1.392215e+02 1.218445e+02 1.236889e+02 1.016869e+02 1.174344e+02 7.339817e+01 1.060127e+02 8.979321e+01 3.485139e+02 4.253808e+00 3.724745e+00 3.300923e+00 4.483473e+00 5.621200e+00 5.243424e+00 5.553992e+00 5.301998e+00 5.123940e+00 4.945930e+00 5.130256e+00 4.537669e+00 4.243250e+00 6.794538e-01 5.870074e-01 5.403882e-01 7.658044e-01 9.421429e-01 9.361550e-01 1.033529e+00 9.665473e-01 9.812631e-01 9.561991e-01 9.348086e-01 8.304512e-01 5.836939e-01
<GCONST> 1.504660e+02
<STATE> 4
<MEAN> 39
 -1.276293e+01 -2.809954e+00 -2.915540e+00 -3.184606e+00 -7.829299e+00 -5.711927e+00 -9.072889e+00 -2.353135e+00 -5.856762e+00 -2.120028e+00 -4.122923e+00 -3.504589e+00 6.417663e+01 -1.893361e-02 1.092702e-02 3.196282e-02 -8.559547e-03 -2.971791e-02 -8.995529e-02 -6.558928e-02 1.226725e-02 -4.254309e-02 -5.836559e-03 3.527335e-02 1.462676e-02 1.005974e-01 1.081848e-02 -2.373476e-04 -9.503242e-04 -5.162431e-03 -4.729894e-03 4.586117e-03 -5.651690e-03 -5.464287e-03 -3.805107e-03 1.038633e-03 -1.835239e-03 -4.189968e-03 -4.191150e-03
<VARIANCE> 39
 1.151635e+02 9.194930e+01 9.083906e+01 9.622414e+01 1.427054e+02 1.151776e+02 1.154533e+02 9.608658e+01 1.118783e+02 7.722500e+01 1.050440e+02 8.514468e+01 3.624805e+02 4.020445e+00 3.543391e+00 3.046644e+00 4.302905e+00 5.148464e+00 4.864957e+00 5.380257e+00 5.128932e+00 4.883200e+00 4.885471e+00 4.858988e+00 4.349161e+00 3.929502e+00 6.250776e-01 5.515733e-01 4.972620e-01 7.174276e-01 8.725783e-01 8.660785e-01 1.017536e+00 9.431834e-01 9.371793e-01 9.350222e-01 8.805537e-01 8.019906e-01 5.154861e-01
<GCONST> 1.488981e+02
<TRANSP> 5
 0.000000e+00 1.000000e+00 0.000000e+00 0.000000e+00 0.000000e+00
 0.000000e+00 6.553398e-01 3.446602e-01 0.000000e+00 0.000000e+00
 0.000000e+00 0.000000e+00 6.553404e-01 3.446596e-01 0.000000e+00
 0.000000e+00 0.000000e+00 0.000000e+00 7.932769e-01 2.067231e-01
 0.000000e+00 0.000000e+00 0.000000e+00 0.000000e+00 0.000000e+00
<ENDHMM>
~h "g"
<BEGINHMM>
<NUMSTATES> 5
<STATE> 2
<MEAN> 39
 -8.922361e+00 -1.232346e+00 -7.958539e-01 -4.468568e+00 -1.035978e+01 -6.142266e+00 -1.175073e+01 -4.728539e+00 -7.043245e+00 -2.082873e+00 -3.092837e+00 -5.356646e+00 6.601108e+01 4.007427e-03 -1.094351e-02 9.468168e-03 -7.813881e-03 -1.235274e-02 -1.986555e-02 3.673408e-03 1.870241e-02 9.316423e-03 -1.094349e-02 -7.953737e-03 -8.176901e-03 4.676735e-02 -2.837989e-03 -6.624169e-04 -3.081806e-03 1.154354e-03 2.756102e-03 4.177306e-03 3.181918e-03 3.061115e-03 5.026375e-03 1.231824e-03 8.774223e-04 -3.530394e-04 -7.579723e-03
<VARIANCE> 39
 1.096669e+02 8.054295e+01 1.112060e+02 1.078606e+02 1.220156e+02 1.133446e+02 1.294625e+02 1.282716e+02 1.516230e+02 8.876295e+01 1.183784e+02 9.761194e+01 3.241180e+02 2.967719e+00 3.522923e+00 3.881358e+00 4.923591e+00 5.963692e+00 5.450356e+00 5.984903e+00 6.285254e+00 5.828906e+00 5.389257e+00 5.889139e+00 4.694480e+00 4.179899e+00 4.727751e-01 5.652298e-01 6.092305e-01 8.281338e-01 1.027903e+00 9.698230e-01 1.102065e+00 1.122666e+00 1.044609e+00 1.006948e+00 1.053596e+00 8.716947e-01 5.773878e-01
<GCONST> 1.522765e+02
<STATE> 3
<MEAN> 39
 -8.905743e+00 -1.263973e+00 -7.721618e-01 -4.494725e+00 -1.040676e+01 -6.192324e+00 -1.174095e+01 -4.680989e+00 -7.017385e+00 -2.108571e+00 -3.123858e+00 -5.406897e+00 6.616227e+01 -1.267614e-03 -1.398642e-02 8.040130e-04 -3.936674e-03 -2.074464e-03 -8.964621e-03 1.161715e-02 2.442842e-02 2.008312e-02 -7.777595e-03 -8.481706e-03 -8.203953e-03 3.027894e-02 -1.651717e-03 -1.042367e-03 -2.805057e-03 8.789884e-04 3.682574e-03 3.103400e-03 3.227169e-03 2.205031e-03 3.482067e-03 1.273757e-03 -7.107730e-04 -1.147398e-04 -4.209125e-03
<VARIANCE> 39
 1.087601e+02 8.084843e+01 1.116988e+02 1.064741e+02 1.226248e+02 1.136183e+02 1.303837e+02 1.297892e+02 1.523476e+02 8.906243e+01 1.182829e+02 9.845496e+01 3.212360e+02 2.956307e+00 3.527826e+00 3.864827e+00 4.900970e+00 5.975657e+00 5.460761e+00 6.002290e+00 6.303644e+00 5.838608e+00 5.410378e+00 5.884842e+00 4.716787e+00 4.136327e+00 4.695913e-01 5.658452e-01 6.054957e-01 8.252972e-01 1.030641e+00 9.721274e-01 1.105138e+00 1.125475e+00 1.045832e+00 1.012167e+00 1.053234e+00 8.748572e-01 5.672110e-01
<GCONST> 1.522811e+02
<STATE> 4
<MEAN> 39
 -9.309133e+00 -1.073183e+00 -1.305618e+00 -4.140019e+00 -1.034769e+01 -5.474579e+00 -1.138787e+01 -4.518652e+00 -6.874030e+00 -2.221959e+00 -3.201796e+00 -5.295380e+00 6.438509e+01 -1.533037e-03 -1.405335e-02 -1.565552e-03 -3.068583e-03 6.681650e-03 -6.118526e-03 9.400796e-03 1.946899e-02 1.657000e-02 -5.595971e-03 -1.542499e-02 -1.034515e-02 2.685650e-02 -1.174937e-03 -7.215211e-04 -2.238622e-03 1.531667e-04 3.474817e-03 1.104082e-03 1.812536e-03 8.199910e-04 9.996147e-04 7.308416e-04 -1.457693e-03 2.585218e-04 -2.355811e-03
<VARIANCE> 39
 1.193207e+02 8.094665e+01 1.116323e+02 1.046182e+02 1.223269e+02 1.114508e+02 1.308709e+02 1.254003e+02 1.482365e+02 8.636629e+01 1.126116e+02 9.452618e+01 3.396900e+02 2.867152e+00 3.486352e+00 3.697145e+00 4.614611e+00 5.671876e+00 5.198006e+00 5.785408e+00 5.979721e+00 5.583373e+00 5.187284e+00 5.645989e+00 4.538847e+00 4.005590e+00 4.475647e-01 5.584719e-01 5.752643e-01 7.766977e-01 9.780974e-01 9.257365e-01 1.061944e+00 1.070449e+00 9.951519e-01 9.722632e-01 1.012234e+00 8.428817e-01 5.356234e-01
<GCONST> 1.510871e+02
<TRANSP> 5
 0.000000e+00 1.000000e+00 0.000000e+00 0.000000e+00 0.000000e+00
 0.000000e+00 6.608979e-01 3.391021e-01 0.000000e+00 0.000000e+00
 0.000000e+00 0.000000e+00 6.608942e-01 3.391058e-01 0.000000e+00
 0.000000e+00 0.000000e+00 0.000000e+00 7.954062e-01 2.045938e-01
 0.000000e+00 0.000000e+00 0.000000e+00 0.000000e+00 0.000000e+00
<ENDHMM>
~h "h"
<BEGINHMM>
<NUMSTATES> 5
<STATE> 2
<MEAN> 39
 -9.129804e+00 -2.815819e+00 -2.495021e+00 -5.294238e+00 -8.649147e+00 -5.370266e+00 -1.017945e+01 -3.317286e+00 -6.050655e+00 -2.307148e+00 -3.529737e+00 -4.990855e+00 6.658708e+01 3.354871e-02 -1.823016e-02 2.086141e-02 -7.617497e-03 5.719122e-03 -1.418069e-02 -5.371753e-03 -2.646780e-02 -8.752020e-03 -2.496914e-02 -2.658400e-02 1.326806e-02 6.840415e-02 -3.862570e-03 2.507894e-03 2.414859e-04 2.349088e-03 -5.846984e-04 2.883529e-03 5.402243e-04 -5.803293e-04 3.267371e-03 1.925638e-03 1.625541e-03 9.000881e-04 -1.068796e-02
<VARIANCE> 39
 1.125002e+02 8.776305e+01 9.835515e+01 1.277176e+02 1.313974e+02 1.136771e+02 1.240435e+02 1.247185e+02 1.388037e+02 9.050035e+01 1.152015e+02 1.107676e+02 3.489565e+02 2.892493e+00 3.497501e+00 3.475018e+00 4.778278e+00 5.415723e+00 5.051386e+00 5.646710e+00 5.956099e+00 5.322000e+00 5.156765e+00 5.507545e+00 4.651469e+00 3.973905e+00 4.448941e-01 5.526358e-01 5.535115e-01 8.145837e-01 9.061140e-01 9.147438e-01 1.028370e+00 1.055814e+00 9.585865e-01 9.510872e-01 1.014824e+00 8.536166e-01 5.501309e-01
<GCONST> 1.510639e+02
<STATE> 3
<MEAN> 39
 -9.024873e+00 -2.878433e+00 -2.436481e+00 -5.330081e+00 -8.637630e+00 -5.404169e+00 -1.018371e+01 -3.413713e+00 -6.078062e+00 -2.394687e+00 -3.600188e+00 -4.943939e+00 6.678552e+01 2.396086e-02 -1.379928e-02 2.035005e-02 -7.498302e-04 6.917247e-03 -7.451709e-03 -4.650205e-03 -2.541099e-02 -9.687161e-04 -2.062478e-02 -2.469797e-02 1.635554e-02 4.614695e-02 -3.352726e-03 1.832570e-03 -2.875616e-04 1.748516e-03 4.017838e-04 1.925501e-03 8.472009e-05 7.041099e-04 1.647322e-03 7.177104e-04 1.213650e-03 3.176647e-04 -6.153824e-03
<VARIANCE> 39
 1.113448e+02 8.839371e+01 9.820761e+01 1.271315e+02 1.332501e+02 1.137844e+02 1.241378e+02 1.257964e+02 1.394622e+02 9.090659e+01 1.169100e+02 1.112865e+02 3.409528e+02 2.860453e+00 3.512769e+00 3.492810e+00 4.781605e+00 5.448105e+00 5.099474e+00 5.667859e+00 6.008715e+00 5.346871e+00 5.182334e+00 5.556373e+00 4.643167e+00 3.905481e+00 4.384524e-01 5.555308e-01 5.565806e-01 8.146538e-01 9.120083e-01 9.243500e-01 1.032641e+00 1.064077e+00 9.607552e-01 9.570287e-01 1.024246e+00 8.515739e-01 5.383396e-01
<GCONST> 1.511295e+02
<STATE> 4
<MEAN> 39
 -9.640527e+00 -2.802417e+00 -2.930193e+00 -4.741980e+00 -8.761332e+00 -4.760574e+00 -9.692941e+00 -3.539396e+00 -5.920307e+00 -2.783247e+00 -3.728309e+00 -4.412848e+00 6.441984e+01 1.908837e-02 -7.778503e-03 1.489989e-02 7.537412e-04 5.490987e-03 -4.108077e-03 -6.595931e-03 -2.456301e-02 -2.668435e-03 -2.540862e-02 -2.188325e-02 1.157531e-02 3.314468e-02 -2.336124e-03 2.048122e-03 -3.761881e-04 1.647675e-03 -1.914610e-04 4.462686e-04 -8.676550e-04 9.474999e-04 -7.628601e-04 -5.968423e-05 8.544077e-04 -1.330041e-03 -3.102551e-03
<VARIANCE> 39
 1.167796e+02 8.992133e+01 9.833425e+01 1.243143e+02 1.345606e+02 1.121825e+02 1.189106e+02 1.166194e+02 1.323203e+02 8.739589e+01 1.105771e+02 1.053975e+02 3.616634e+02 2.659328e+00 3.314532e+00 3.258233e+00 4.432490e+00 5.030811e+00 4.790376e+00 5.300213e+00 5.567538e+00 5.052485e+00 4.887391e+00 5.249222e+00 4.288178e+00 3.661463e+00 4.013726e-01 5.214152e-01 5.179837e-01 7.547865e-01 8.429700e-01 8.687462e-01 9.637621e-01 9.952235e-01 9.121821e-01 9.049928e-01 9.711786e-01 7.876101e-01 4.821739e-01
<GCONST> 1.491030e+02
<TRANSP> 5
 0.000000e+00 1.000000e+00 0.000000e+00 0.000000e+00 0.000000e+00
 0.000000e+00 6.628690e-01 3.371309e-01 0.000000e+00 0.000000e+00
 0.000000e+00 0.000000e+00 6.628698e-01 3.371302e-01 0.000000e+00
 0.000000e+00 0.000000e+00 0.000000e+00 8.074896e-01 1.925105e-01
 0.000000e+00 0.000000e+00 0.000000e+00 0.000000e+00 0.000000e+00
<ENDHMM>
~h "i"
<BEGINHMM>
<NUMSTATES> 5
<STATE> 2
<MEAN> 39
 -9.365277e+00 -1.638720e+00 5.143180e-01 -4.525938e+00 -1.149850e+01 -7.375600e+00 -1.129311e+01 -4.362999e+00 -7.822471e+00 -2.229177e+00 -3.271335e+00 -5.149312e+00 6.789257e+01 5.454001e-03 -4.125773e-03 1.644093e-02 -7.449742e-03 -1.985164e-02 -3.006300e-02 -9.462571e-03 1.046677e-03 -1.836774e-02 -1.204893e-02 -9.492733e-03 -1.316148e-03 4.877749e-02 -4.431128e-05 4.623354e-05 -4.065249e-03 2.262794e-04 3.667151e-03 2.415736e-03 2.730051e-04 1.209573e-03 2.685321e-03 -1.492909e-04 -1.845496e-03 -1.151445e-03 -3.043003e-03
<VARIANCE> 39
 1.073325e+02 8.955801e+01 1.291369e+02 1.031507e+02 1.363131e+02 1.207239e+02 1.252819e+02 1.193904e+02 1.503715e+02 9.392853e+01 1.278791e+02 1.030905e+02 2.988507e+02 3.566428e+00 3.935690e+00 4.529634e+00 5.291306e+00 6.906134e+00 5.864141e+00 6.301796e+00 6.705792e+00 6.145926e+00 5.628550e+00 5.939735e+00 5.045731e+00 4.572989e+00 5.538017e-01 6.364197e-01 6.951919e-01 9.151571e-01 1.167242e+00 1.062873e+00 1.146021e+00 1.215000e+00 1.103623e+00 1.058040e+00 1.080131e+00 9.364269e-01 6.529438e-01
<GCONST> 1.549280e+02
<STATE> 3
<MEAN> 39
 -9.351459e+00 -1.649670e+00 5.525880e-01 -4.542506e+00 -1.154295e+01 -7.456086e+00 -1.132159e+01 -4.360872e+00 -7.864235e+00 -2.263869e+00 -3.307152e+00 -5.156832e+00 6.801733e+01 5.420992e-03 -4.080237e-03 6.893455e-03 -5.985974e-03 -9.018087e-03 -2.408475e-02 -8.657986e-03 3.390931e-03 -1.269727e-02 -1.148397e-02 -1.338548e-02 -3.364060e-03 4.369299e-02 -1.020336e-04 1.552459e-04 -3.781079e-03 7.956247e-04 4.584848e-03 2.149897e-03 7.464946e-04 2.192948e-04 2.151148e-03 1.716255e-04 -1.396460e-03 -5.176427e-04 -2.014468e-03
<VARIANCE> 39
 1.068133e+02 8.973849e+01 1.291168e+02 1.025125e+02 1.367808e+02 1.202055e+02 1.252287e+02 1.197505e+02 1.510894e+02 9.414845e+01 1.278576e+02 1.035979e+02 2.956761e+02 3.594810e+00 3.955857e+00 4.543406e+00 5.280150e+00 6.916306e+00 5.889614e+00 6.299278e+00 6.737833e+00 6.173376e+00 5.635132e+00 5.939999e+00 5.071578e+00 4.552959e+00 5.575489e-01 6.400625e-01 6.971993e-01 9.135826e-01 1.170816e+00 1.068045e+00 1.146241e+00 1.221584e+00 1.107681e+00 1.059232e+00 1.080310e+00 9.400090e-01 6.495387e-01
<GCONST> 1.549829e+02
<STATE> 4
<MEAN> 39
 -9.540788e+00 -1.643831e+00 3.397360e-01 -4.344892e+00 -1.153144e+01 -7.120241e+00 -1.127498e+01 -4.397432e+00 -7.826879e+00 -2.431119e+00 -3.377800e+00 -5.086429e+00 6.696894e+01 4.953716e-03 -1.953426e-03 7.119350e-04 -3.229129e-03 2.148254e-03 -2.005930e-02 -9.299242e-03 1.582029e-03 -8.846408e-03 -1.081387e-02 -1.484737e-02 -2.950876e-03 4.071268e-02 7.349846e-05 1.599462e-04 -2.748298e-03 8.595638e-04 3.765636e-03 1.736208e-03 4.609490e-04 -4.899330e-04 1.388185e-03 -4.928932e-04 -6.323270e-04 3.442298e-04 -1.740576e-03
<VARIANCE> 39
 1.116452e+02 9.133695e+01 1.308163e+02 1.019405e+02 1.366482e+02 1.193695e+02 1.232974e+02 1.178996e+02 1.481967e+02 9.349978e+01 1.241673e+02 1.021675e+02 3.095825e+02 3.582141e+00 3.983716e+00 4.512482e+00 5.160357e+00 6.715192e+00 5.769332e+00 6.105232e+00 6.580855e+00 6.082769e+00 5.518044e+00 5.816766e+00 4.984952e+00 4.525559e+00 5.506136e-01 6.456622e-01 6.880066e-01 8.916235e-01 1.135035e+00 1.046016e+00 1.110728e+00 1.192717e+00 1.089796e+00 1.035312e+00 1.057458e+00 9.225101e-01 6.360052e-01
<GCONST> 1.545293e+02
<TRANSP> 5
 0.000000e+00 1.000000e+00 0.000000e+00 0.000000e+00 0.000000e+00
 0.000000e+00 6.303972e-01 3.696028e-01 0.000000e+00 0.000000e+00
 0.000000e+00 0.000000e+00 6.303968e-01 3.696032e-01 0.000000e+00
 0.000000e+00 0.000000e+00 0.000000e+00 7.525052e-01 2.474948e-01
 0.000000e+00 0.000000e+00 0.000000e+00 0.000000e+00 0.000000e+00
<ENDHMM>
~h "j"
<BEGINHMM>
<NUMSTATES> 5
<STATE> 2
<MEAN> 39
 -9.247246e+00 -1.426091e+00 -3.124917e-01 -3.478904e+00 -9.793207e+00 -6.908694e+00 -1.127775e+01 -3.371825e+00 -6.729545e+00 -2.499659e+00 -3.457769e+00 -4.275618e+00 6.607702e+01 2.343387e-02 -1.826020e-03 3.143331e-02 -4.844641e-03 -1.522976e-02 -3.944566e-02 -3.255555e-02 -1.836130e-02 -1.513016e-02 -2.429143e-02 -2.543437e-03 3.475219e-05 9.510633e-02 -5.940863e-03 3.141905e-03 -5.015280e-03 3.045579e-03 -1.786204e-03 6.114105e-03 1.671170e-03 2.834830e-03 4.025422e-03 -1.117689e-03 -7.867070e-04 -5.244460e-03 -1.877701e-02
<VARIANCE> 39
 1.075269e+02 8.356956e+01 1.077218e+02 1.010378e+02 1.193350e+02 1.269566e+02 1.299796e+02 1.133490e+02 1.436166e+02 8.448088e+01 1.229002e+02 9.812421e+01 3.340586e+02 3.404485e+00 4.327932e+00 3.988171e+00 4.963404e+00 6.438273e+00 5.739048e+00 5.969573e+00 6.412553e+00 5.685616e+00 5.223726e+00 5.683944e+00 4.720941e+00 4.393863e+00 5.712261e-01 6.914157e-01 6.592485e-01 8.694507e-01 1.128985e+00 1.047930e+00 1.104893e+00 1.156503e+00 1.046131e+00 9.767146e-01 1.034701e+00 8.889737e-01 6.163920e-01
<GCONST> 1.533849e+02
<STATE> 3
<MEAN> 39
 -9.173071e+00 -1.437488e+00 -2.478324e-01 -3.505930e+00 -9.849217e+00 -6.990741e+00 -1.136940e+01 -3.428883e+00 -6.753372e+00 -2.566599e+00 -3.486074e+00 -4.304399e+00 6.631564e+01 1.395237e-02 1.127395e-03 1.670290e-02 1.235120e-03 -1.713073e-02 -2.606737e-02 -2.876105e-02 -9.141177e-03 -8.035762e-03 -2.667039e-02 -5.379256e-03 -1.193731e-02 6.290212e-02 -2.630555e-03 9.116321e-04 -4.624420e-03 1.351954e-03 -4.743087e-04 4.023704e-03 1.252170e-03 2.424677e-03 1.488180e-03 2.066311e-05 -6.568691e-05 -3.579388e-03 -9.311042e-03
<VARIANCE> 39
 1.071427e+02 8.293039e+01 1.079359e+02 1.001090e+02 1.203835e+02 1.262906e+02 1.315075e+02 1.148648e+02 1.439724e+02 8.459212e+01 1.230279e+02 9.869540e+01 3.278485e+02 3.392491e+00 4.360351e+00 4.013156e+00 4.986057e+00 6.500108e+00 5.773836e+00 5.975546e+00 6.491616e+00 5.691989e+00 5.235403e+00 5.733012e+00 4.755864e+00 4.294724e+00 5.679649e-01 6.966958e-01 6.652873e-01 8.707869e-01 1.142137e+00 1.052900e+00 1.103643e+00 1.167510e+00 1.048252e+00 9.772820e-01 1.039762e+00 8.936614e-01 5.964864e-01
<GCONST> 1.534439e+02
<STATE> 4
<MEAN> 39
 -9.124750e+00 -1.486678e+00 -5.033985e-01 -3.467838e+00 -9.941832e+00 -6.651048e+00 -1.152128e+01 -3.523409e+00 -6.769038e+00 -2.815523e+00 -3.629114e+00 -4.354420e+00 6.561332e+01 1.384924e-02 9.874739e-04 2.944191e-03 -2.309728e-03 -1.929593e-02 -1.408773e-02 -2.059138e-02 -6.590019e-03 -4.830039e-03 -2.081347e-02 -5.575913e-03 -1.876584e-02 4.469638e-02 -1.733972e-03 4.403314e-04 -3.146697e-03 -4.266961e-04 -3.421033e-05 2.014898e-03 2.098602e-03 9.573485e-04 2.144490e-04 1.655892e-03 1.579450e-03 -1.584756e-03 -4.969634e-03
<VARIANCE> 39
 1.129453e+02 8.441276e+01 1.096353e+02 9.929556e+01 1.202867e+02 1.245077e+02 1.335449e+02 1.146466e+02 1.407795e+02 8.378658e+01 1.193574e+02 9.776844e+01 3.309411e+02 3.410302e+00 4.488032e+00 4.059696e+00 4.952603e+00 6.402258e+00 5.753191e+00 5.947256e+00 6.454557e+00 5.675415e+00 5.218997e+00 5.735497e+00 4.740519e+00 4.331116e+00 5.636791e-01 7.138711e-01 6.676424e-01 8.610486e-01 1.123258e+00 1.047075e+00 1.094969e+00 1.154090e+00 1.041556e+00 9.700514e-01 1.034644e+00 8.898535e-01 5.887625e-01
<GCONST> 1.533985e+02
<TRANSP> 5
 0.000000e+00 1.000000e+00 0.000000e+00 0.000000e+00 0.000000e+00
 0.000000e+00 6.411589e-01 3.588411e-01 0.000000e+00 0.000000e+00
 0.000000e+00 0.000000e+00 6.411577e-01 3.588423e-01 0.000000e+00
 0.000000e+00 0.000000e+00 0.000000e+00 7.620255e-01 2.379745e-01
 0.000000e+00 0.000000e+00 0.000000e+00 0.000000e+00 0.000000e+00
<ENDHMM>
~h "k"
<BEGINHMM>
<NUMSTATES> 5
<STATE> 2
<MEAN> 39
 -8.924593e+00 -2.625618e+00 -2.340426e+00 -5.167128e+00 -9.089110e+00 -6.148973e+00 -1.043735e+01 -3.520708e+00 -6.245392e+00 -1.836607e+00 -3.854429e+00 -5.588048e+00 6.668801e+01 4.071824e-02 -2.817092e-02 1.012472e-02 -4.414070e-02 -1.281192e-02 -3.592554e-02 -1.535157e-02 -1.051411e-02 -2.470532e-02 -4.051453e-03 -2.456121e-02 -1.987620e-02 1.031280e-01 -3.061587e-03 1.932685e-03 -1.263935e-03 2.432985e-03 -1.861603e-03 3.234600e-03 4.446297e-04 1.184877e-03 2.369171e-03 -4.543259e-04 9.957511e-04 -9.385893e-04 -1.386230e-02
<VARIANCE> 39
 1.114459e+02 8.939608e+01 1.045449e+02 1.123213e+02 1.235485e+02 1.195360e+02 1.146185e+02 1.181994e+02 1.358584e+02 9.110236e+01 1.232247e+02 1.103018e+02 3.352982e+02 3.289442e+00 3.926922e+00 4.011605e+00 5.446838e+00 6.096766e+00 5.591032e+00 5.908947e+00 6.589612e+00 5.734896e+00 5.597488e+00 5.816916e+00 5.199383e+00 4.802521e+00 5.166071e-01 6.347445e-01 6.563323e-01 9.383401e-01 1.060668e+00 1.005048e+00 1.088392e+00 1.184707e+00 1.054479e+00 1.048748e+00 1.070395e+00 9.540405e-01 6.864867e-01
<GCONST> 1.538698e+02
<STATE> 3
<MEAN> 39
 -8.814106e+00 -2.704978e+00 -2.325344e+00 -5.282670e+00 -9.124640e+00 -6.235062e+00 -1.047548e+01 -3.548228e+00 -6.302307e+00 -1.848331e+00 -3.926806e+00 -5.653362e+00 6.694149e+01 3.649800e-02 -2.428450e-02 6.604294e-03 -3.780612e-02 -1.410878e-02 -2.844870e-02 -1.482903e-02 -6.894399e-03 -2.082626e-02 -5.710454e-03 -2.442762e-02 -2.276914e-02 8.251547e-02 -8.940756e-04 1.539232e-03 -6.905772e-04 2.640513e-03 -1.357050e-04 2.896463e-03 9.297649e-05 7.570366e-04 1.070062e-03 -7.638352e-04 -2.582181e-04 -9.628374e-04 -6.217583e-03
<VARIANCE> 39
 1.105587e+02 8.961117e+01 1.049575e+02 1.126002e+02 1.243360e+02 1.192943e+02 1.151073e+02 1.186268e+02 1.366925e+02 9.181520e+01 1.241104e+02 1.109291e+02 3.297284e+02 3.270327e+00 3.936591e+00 4.032174e+00 5.471011e+00 6.108500e+00 5.611079e+00 5.933803e+00 6.609828e+00 5.759618e+00 5.619388e+00 5.842905e+00 5.223411e+00 4.678910e+00 5.123725e-01 6.371614e-01 6.592248e-01 9.428045e-01 1.063269e+00 1.009257e+00 1.092108e+00 1.188836e+00 1.058619e+00 1.052042e+00 1.074043e+00 9.582632e-01 6.694883e-01
<GCONST> 1.539109e+02
<STATE> 4
<MEAN> 39
 -8.956053e+00 -2.799693e+00 -2.497470e+00 -5.124548e+00 -9.229126e+00 -5.970911e+00 -1.043857e+01 -3.567286e+00 -6.354037e+00 -2.021327e+00 -4.044133e+00 -5.649952e+00 6.598936e+01 3.557115e-02 -2.009080e-02 5.474492e-03 -2.991645e-02 -1.127081e-02 -1.994998e-02 -1.406020e-02 -8.539840e-03 -2.107859e-02 -1.135348e-02 -2.635724e-02 -2.243706e-02 7.432760e-02 -3.864152e-04 1.729290e-03 2.013911e-04 2.453544e-03 6.944744e-04 2.613125e-03 -5.524396e-05 -7.128271e-04 -5.490253e-05 -1.363329e-03 -2.834974e-04 1.117086e-04 -2.780288e-03
<VARIANCE> 39
 1.140500e+02 9.170359e+01 1.065226e+02 1.129628e+02 1.244147e+02 1.184148e+02 1.136775e+02 1.149980e+02 1.330483e+02 9.057489e+01 1.221670e+02 1.083873e+02 3.395984e+02 3.205259e+00 3.945796e+00 4.014048e+00 5.349197e+00 5.959641e+00 5.488413e+00 5.803176e+00 6.439407e+00 5.673653e+00 5.510961e+00 5.758722e+00 5.085003e+00 4.621752e+00 4.980743e-01 6.367722e-01 6.536238e-01 9.188120e-01 1.035883e+00 9.854295e-01 1.066046e+00 1.159291e+00 1.042988e+00 1.029908e+00 1.057031e+00 9.320990e-01 6.456078e-01
<GCONST> 1.533759e+02
<TRANSP> 5
 0.000000e+00 1.000000e+00 0.000000e+00 0.000000e+00 0.000000e+00
 0.000000e+00 6.367055e-01 3.632945e-01 0.000000e+00 0.000000e+00
 0.000000e+00 0.000000e+00 6.367034e-01 3.632966e-01 0.000000e+00
 0.000000e+00 0.000000e+00 0.000000e+00 7.609298e-01 2.390702e-01
 0.000000e+00 0.000000e+00 0.000000e+00 0.000000e+00 0.000000e+00
<ENDHMM>
~h "l"
<BEGINHMM>
<NUMSTATES> 5
<STATE> 2
<MEAN> 39
 -8.167783e+00 -2.698400e+00 -2.165225e+00 -6.685041e+00 -9.033068e+00 -6.207467e+00 -1.196142e+01 -4.643975e+00 -6.194004e+00 -1.533175e+00 -3.872791e+00 -6.218902e+00 6.941892e+01 1.701478e-02 -1.435836e-02 -3.810478e-03 -3.538644e-02 6.622614e-03 -1.117202e-02 -8.035084e-03 -1.750201e-02 -8.251430e-03 -4.146830e-03 -1.581436e-02 -1.285474e-02 6.246063e-02 -2.252147e-03 1.452079e-03 -7.525341e-04 2.304829e-03 -1.463844e-03 5.290529e-05 2.952873e-03 2.697019e-04 9.413763e-04 -5.250083e-04 1.604742e-03 2.952298e-03 -4.983732e-03
<VARIANCE> 39
 1.166550e+02 9.138137e+01 1.078871e+02 1.250562e+02 1.323709e+02 1.181870e+02 1.267902e+02 1.304773e+02 1.490101e+02 9.905452e+01 1.287818e+02 1.200788e+02 2.960375e+02 3.794019e+00 4.129172e+00 4.140125e+00 5.811298e+00 6.142528e+00 5.648671e+00 6.225557e+00 6.833730e+00 5.991715e+00 5.826411e+00 5.931820e+00 5.309037e+00 4.311464e+00 5.588868e-01 6.525428e-01 6.628066e-01 9.672206e-01 1.037743e+00 1.001668e+00 1.126869e+00 1.215872e+00 1.072639e+00 1.073691e+00 1.080383e+00 9.630224e-01 5.991274e-01
<GCONST> 1.550313e+02
<STATE> 3
<MEAN> 39
 -8.116661e+00 -2.734824e+00 -2.170943e+00 -6.781994e+00 -9.025891e+00 -6.237156e+00 -1.197973e+01 -4.699452e+00 -6.223187e+00 -1.546905e+00 -3.911664e+00 -6.243403e+00 6.959795e+01 1.140842e-02 -1.122736e-02 -5.242577e-03 -2.921338e-02 3.070193e-03 -1.081867e-02 -1.615345e-03 -1.701682e-02 -7.257518e-03 -5.422661e-03 -1.191453e-02 -5.441290e-03 5.239238e-02 -2.090327e-03 1.367511e-03 -1.238208e-04 2.063576e-03 -1.812907e-03 -5.369704e-04 2.224644e-03 -1.790167e-04 -4.940422e-04 -1.509316e-04 1.854316e-03 2.654867e-03 -3.189643e-03
<VARIANCE> 39
 1.158003e+02 9.204748e+01 1.072791e+02 1.250641e+02 1.325769e+02 1.182859e+02 1.273984e+02 1.311684e+02 1.482942e+02 9.943484e+01 1.288566e+02 1.204609e+02 2.910688e+02 3.815760e+00 4.133827e+00 4.134075e+00 5.841517e+00 6.141622e+00 5.668152e+00 6.253030e+00 6.854733e+00 6.002103e+00 5.871058e+00 5.949821e+00 5.330769e+00 4.266807e+00 5.614567e-01 6.520092e-01 6.619281e-01 9.720643e-01 1.035319e+00 1.004628e+00 1.132167e+00 1.221694e+00 1.075551e+00 1.083291e+00 1.083702e+00 9.673344e-01 5.934914e-01
<GCONST> 1.550785e+02
<STATE> 4
<MEAN> 39
 -8.208265e+00 -2.808792e+00 -2.289893e+00 -6.684501e+00 -9.102896e+00 -5.961234e+00 -1.188267e+01 -4.801957e+00 -6.305147e+00 -1.652954e+00 -3.970865e+00 -6.123725e+00 6.886723e+01 9.618291e-03 -8.265343e-03 -1.677227e-03 -2.381797e-02 -1.347977e-03 -1.091534e-02 -1.913104e-04 -1.945798e-02 -9.722281e-03 -6.682659e-03 -9.057689e-03 9.697165e-04 5.038053e-02 -1.727244e-03 1.593476e-03 8.420430e-04 2.149511e-03 -1.768598e-03 -9.227502e-04 1.001880e-03 -8.980994e-04 -1.088942e-03 5.170045e-05 1.280476e-03 1.959690e-03 -2.197955e-03
<VARIANCE> 39
 1.205741e+02 9.559591e+01 1.079071e+02 1.265162e+02 1.337836e+02 1.192163e+02 1.257329e+02 1.287917e+02 1.424146e+02 9.822145e+01 1.257487e+02 1.191841e+02 3.015927e+02 3.820757e+00 4.127483e+00 4.092117e+00 5.767227e+00 6.055780e+00 5.592135e+00 6.146223e+00 6.714009e+00 5.907689e+00 5.810900e+00 5.850127e+00 5.217618e+00 4.199247e+00 5.593401e-01 6.471200e-01 6.527724e-01 9.596887e-01 1.017468e+00 9.871591e-01 1.113420e+00 1.201613e+00 1.060916e+00 1.073550e+00 1.066993e+00 9.514396e-01 5.794356e-01
<GCONST> 1.547530e+02
<TRANSP> 5
 0.000000e+00 1.000000e+00 0.000000e+00 0.000000e+00 0.000000e+00
 0.000000e+00 6.249115e-01 3.750885e-01 0.000000e+00 0.000000e+00
 0.000000e+00 0.000000e+00 6.249119e-01 3.750881e-01 0.000000e+00
 0.000000e+00 0.000000e+00 0.000000e+00 7.436945e-01 2.563054e-01
 0.000000e+00 0.000000e+00 0.000000e+00 0.000000e+00 0.000000e+00
<ENDHMM>
~h "m"
<BEGINHMM>
<NUMSTATES> 5
<STATE> 2
<MEAN> 39
 -7.601963e+00 -2.139753e+00 -1.552490e+00 -5.094218e+00 -9.617084e+00 -5.815101e+00 -1.124091e+01 -4.902781e+00 -7.188810e+00 -2.494971e+00 -4.522383e+00 -5.908605e+00 6.837733e+01 3.593177e-02 -1.482548e-02 1.927248e-02 -1.988227e-02 7.009172e-03 -5.072916e-03 -1.563316e-02 -3.353870e-02 -3.234556e-02 -1.653886e-02 -3.293992e-02 -6.143483e-03 7.391921e-02 -4.670490e-03 7.519979e-04 -2.034044e-03 1.022360e-03 -9.906933e-04 2.776363e-03 1.311041e-03 3.840284e-03 1.638500e-03 5.496457e-04 1.527267e-03 -4.924570e-04 -1.267042e-02
<VARIANCE> 39
 1.153574e+02 8.992966e+01 1.048053e+02 1.129896e+02 1.265554e+02 1.141159e+02 1.204618e+02 1.209175e+02 1.458344e+02 1.014279e+02 1.289970e+02 1.039234e+02 2.922954e+02 3.506779e+00 4.185322e+00 4.252408e+00 5.895631e+00 6.063054e+00 5.661011e+00 5.867082e+00 7.369862e+00 6.033098e+00 5.597164e+00 5.947073e+00 4.973236e+00 4.426489e+00 5.266999e-01 6.689113e-01 6.905602e-01 1.010420e+00 1.041994e+00 1.018012e+00 1.076125e+00 1.318993e+00 1.093486e+00 1.028207e+00 1.077684e+00 9.192144e-01 6.286714e-01
<GCONST> 1.545054e+02
<STATE> 3
<MEAN> 39
 -7.508706e+00 -2.191701e+00 -1.505207e+00 -5.147894e+00 -9.596384e+00 -5.827555e+00 -1.127934e+01 -4.972017e+00 -7.271842e+00 -2.545991e+00 -4.617001e+00 -5.935584e+00 6.855781e+01 2.620493e-02 -1.519424e-02 1.226241e-02 -1.594299e-02 6.685700e-03 2.389308e-04 -1.198606e-02 -2.390490e-02 -2.886532e-02 -1.635573e-02 -3.105197e-02 -6.521253e-03 5.166402e-02 -3.440121e-03 -1.153460e-04 -2.099145e-03 1.625189e-03 -2.690817e-04 1.708877e-03 1.577345e-03 4.105974e-03 9.309138e-04 4.067863e-04 7.997153e-04 2.374296e-04 -7.309983e-03
<VARIANCE> 39
 1.143219e+02 9.015071e+01 1.055659e+02 1.124292e+02 1.271308e+02 1.140725e+02 1.205333e+02 1.213828e+02 1.462553e+02 1.022098e+02 1.299522e+02 1.039232e+02 2.862813e+02 3.487309e+00 4.183105e+00 4.266074e+00 5.907426e+00 6.082196e+00 5.662857e+00 5.852327e+00 7.380937e+00 6.052950e+00 5.603405e+00 5.960689e+00 4.981157e+00 4.304816e+00 5.223305e-01 6.690530e-01 6.929240e-01 1.011420e+00 1.048288e+00 1.017780e+00 1.073033e+00 1.321174e+00 1.096983e+00 1.029479e+00 1.077323e+00 9.202080e-01 6.123936e-01
<GCONST> 1.544686e+02
<STATE> 4
<MEAN> 39
 -7.630954e+00 -2.297399e+00 -1.623713e+00 -4.990185e+00 -9.556458e+00 -5.516665e+00 -1.117936e+01 -4.909558e+00 -7.311733e+00 -2.724057e+00 -4.728542e+00 -5.852601e+00 6.771082e+01 2.026059e-02 -1.764646e-02 5.660389e-03 -9.785894e-03 6.842573e-03 1.826886e-03 -6.118842e-03 -1.367757e-02 -2.520299e-02 -1.892619e-02 -2.914358e-02 -5.263441e-03 4.252353e-02 -3.056605e-03 6.125072e-04 -1.903719e-03 2.351623e-03 6.086531e-05 8.769027e-04 2.221696e-03 3.129178e-03 1.027872e-03 7.967621e-04 1.575727e-03 8.876034e-04 -4.917872e-03
<VARIANCE> 39
 1.188679e+02 9.218135e+01 1.073504e+02 1.121236e+02 1.276771e+02 1.148712e+02 1.189768e+02 1.185373e+02 1.436078e+02 1.001465e+02 1.289174e+02 1.017174e+02 2.965951e+02 3.445108e+00 4.189220e+00 4.235538e+00 5.822629e+00 5.982421e+00 5.601317e+00 5.724357e+00 7.148046e+00 6.005357e+00 5.483821e+00 5.852506e+00 4.863447e+00 4.243660e+00 5.110649e-01 6.692182e-01 6.851118e-01 9.935089e-01 1.030820e+00 1.002440e+00 1.046913e+00 1.280408e+00 1.085852e+00 1.006836e+00 1.056341e+00 8.989092e-01 5.933526e-01
<GCONST> 1.540399e+02
<TRANSP> 5
 0.000000e+00 1.000000e+00 0.000000e+00 0.000000e+00 0.000000e+00
 0.000000e+00 6.190759e-01 3.809241e-01 0.000000e+00 0.000000e+00
 0.000000e+00 0.000000e+00 6.190751e-01 3.809249e-01 0.000000e+00
 0.000000e+00 0.000000e+00 0.000000e+00 7.362354e-01 2.637646e-01
 0.000000e+00 0.000000e+00 0.000000e+00 0.000000e+00 0.000000e+00
<ENDHMM>
~h "n"
<BEGINHMM>
<NUMSTATES> 5
<STATE> 2
<MEAN> 39
 -7.629219e+00 -3.019509e+00 -9.302589e-01 -4.676886e+00 -9.840816e+00 -7.127054e+00 -1.135399e+01 -3.952226e+00 -6.674967e+00 -3.042922e+00 -5.928940e+00 -6.110389e+00 6.901076e+01 -8.888664e-03 8.342026e-03 1.339434e-02 2.310115e-02 1.248983e-02 -2.008287e-03 6.766928e-03 -9.457342e-03 -1.912809e-03 -1.169816e-02 -1.311392e-02 9.899962e-03 -1.227117e-02 -3.668483e-03 1.624310e-03 -4.570634e-03 7.330722e-05 2.378389e-03 1.962593e-03 2.707293e-03 7.093251e-04 2.094229e-03 1.828794e-03 3.845802e-03 1.858082e-03 -2.621010e-03
<VARIANCE> 39
 1.026244e+02 9.823766e+01 1.081879e+02 1.042355e+02 1.244634e+02 1.122411e+02 1.206067e+02 1.200245e+02 1.453719e+02 9.765609e+01 1.432411e+02 1.135559e+02 2.847450e+02 3.254688e+00 4.255537e+00 4.056140e+00 5.537706e+00 5.921400e+00 5.541164e+00 5.816425e+00 7.185003e+00 5.765189e+00 5.765556e+00 6.171310e+00 5.055885e+00 4.515928e+00 5.087977e-01 6.755403e-01 6.524386e-01 9.585804e-01 1.029813e+00 1.007617e+00 1.073676e+00 1.296794e+00 1.055609e+00 1.073689e+00 1.092945e+00 9.380747e-01 6.421338e-01
<GCONST> 1.542136e+02
<STATE> 3
<MEAN> 39
 -7.651922e+00 -2.998873e+00 -9.089535e-01 -4.619430e+00 -9.795249e+00 -7.123263e+00 -1.133560e+01 -3.972355e+00 -6.675348e+00 -3.072025e+00 -5.969679e+00 -6.076271e+00 6.897881e+01 -1.831463e-02 1.177758e-02 1.939191e-03 2.256143e-02 1.847161e-02 3.149716e-03 1.315633e-02 -7.464129e-03 2.997604e-03 -6.835171e-03 -1.435372e-03 1.471163e-02 -1.567660e-02 -3.551092e-03 1.881097e-03 -4.391697e-03 -5.348291e-04 1.865624e-03 1.957551e-03 1.348042e-03 1.104041e-03 1.583126e-03 1.283176e-03 3.784359e-03 1.772195e-03 -6.825858e-04
<VARIANCE> 39
 1.024379e+02 9.814178e+01 1.080931e+02 1.040304e+02 1.249769e+02 1.120276e+02 1.212148e+02 1.195595e+02 1.458478e+02 9.795287e+01 1.434209e+02 1.133536e+02 2.826332e+02 3.264859e+00 4.271492e+00 4.058124e+00 5.527278e+00 5.919980e+00 5.531228e+00 5.806540e+00 7.165597e+00 5.758037e+00 5.759642e+00 6.188841e+00 5.030386e+00 4.493371e+00 5.105105e-01 6.787364e-01 6.532824e-01 9.570798e-01 1.028891e+00 1.006725e+00 1.073094e+00 1.294714e+00 1.055187e+00 1.072037e+00 1.092810e+00 9.337214e-01 6.408321e-01
<GCONST> 1.541942e+02
<STATE> 4
<MEAN> 39
 -7.897146e+00 -2.992693e+00 -1.226275e+00 -4.242856e+00 -9.616595e+00 -6.627357e+00 -1.120092e+01 -3.854034e+00 -6.622108e+00 -3.220421e+00 -6.071501e+00 -5.808308e+00 6.769908e+01 -2.189508e-02 1.328288e-02 -7.917527e-03 1.581522e-02 2.260181e-02 8.413754e-03 1.284616e-02 -4.869097e-03 4.774631e-03 -4.045558e-03 7.290679e-03 1.992493e-02 -7.637389e-03 -2.433177e-03 1.643517e-03 -2.808743e-03 -1.126779e-03 6.431172e-04 1.017906e-03 -3.499300e-04 8.192324e-04 2.353985e-04 4.879087e-04 2.618173e-03 1.474999e-03 3.178758e-04
<VARIANCE> 39
 1.104338e+02 1.011156e+02 1.078264e+02 1.036580e+02 1.243220e+02 1.125018e+02 1.207406e+02 1.147601e+02 1.411061e+02 9.599197e+01 1.411328e+02 1.120782e+02 3.006820e+02 3.225183e+00 4.299805e+00 3.956567e+00 5.398551e+00 5.709211e+00 5.406222e+00 5.651527e+00 6.836550e+00 5.585140e+00 5.605283e+00 6.051448e+00 4.855826e+00 4.421168e+00 4.987931e-01 6.833013e-01 6.355219e-01 9.342338e-01 9.897059e-01 9.796270e-01 1.044035e+00 1.241805e+00 1.023720e+00 1.040480e+00 1.066730e+00 9.020347e-01 6.234045e-01
<GCONST> 1.535592e+02
<TRANSP> 5
 0.000000e+00 1.000000e+00 0.000000e+00 0.000000e+00 0.000000e+00
 0.000000e+00 6.371146e-01 3.628854e-01 0.000000e+00 0.000000e+00
 0.000000e+00 0.000000e+00 6.371153e-01 3.628847e-01 0.000000e+00
 0.000000e+00 0.000000e+00 0.000000e+00 7.633359e-01 2.366641e-01
 0.000000e+00 0.000000e+00 0.000000e+00 0.000000e+00 0.000000e+00
<ENDHMM>
~h "o"
<BEGINHMM>
<NUMSTATES> 5
<STATE> 2
<MEAN> 39
 -9.628959e+00 -1.740977e+00 -2.935217e+00 -5.718596e+00 -8.845080e+00 -4.302816e+00 -1.103535e+01 -4.162157e+00 -5.702329e+00 -1.039505e+00 -1.661964e+00 -5.048762e+00 6.428254e+01 2.368256e-02 -3.451406e-02 2.719070e-02 -4.329904e-02 -3.030860e-02 -4.833996e-02 -3.231682e-02 -4.435719e-02 -3.061175e-02 -1.336015e-02 -8.845646e-04 -1.560921e-02 1.241344e-01 -4.251033e-03 3.279445e-03 8.815847e-04 6.837647e-03 -9.119249e-04 4.065652e-03 6.675653e-03 1.134890e-03 3.113221e-03 -1.729598e-03 -8.036572e-04 2.157008e-03 -1.703089e-02
<VARIANCE> 39
 1.243205e+02 7.578852e+01 1.019786e+02 1.332955e+02 1.143573e+02 1.099727e+02 1.115010e+02 1.121785e+02 1.329814e+02 8.302471e+01 1.057956e+02 1.010504e+02 3.765146e+02 2.952766e+00 3.141365e+00 3.407939e+00 5.364715e+00 5.094636e+00 5.087478e+00 5.190899e+00 5.515560e+00 5.273202e+00 4.720753e+00 5.163408e+00 4.474867e+00 4.041943e+00 4.510839e-01 5.076239e-01 5.276518e-01 8.821540e-01 8.374718e-01 9.011050e-01 9.324242e-01 1.005842e+00 9.435867e-01 8.703372e-01 9.471633e-01 8.356297e-01 5.636953e-01
<GCONST> 1.496422e+02
<STATE> 3
<MEAN> 39
 -9.543356e+00 -1.830986e+00 -2.859903e+00 -5.856584e+00 -8.944181e+00 -4.430280e+00 -1.109394e+01 -4.322220e+00 -5.822314e+00 -1.086654e+00 -1.668920e+00 -5.095075e+00 6.461848e+01 1.534656e-02 -2.799339e-02 2.806290e-02 -2.739403e-02 -2.903923e-02 -3.743682e-02 -1.789281e-02 -4.119889e-02 -2.535428e-02 -1.709958e-02 -4.442891e-03 -1.301032e-02 9.205498e-02 -2.814462e-03 2.211189e-03 8.822301e-04 5.221077e-03 8.016971e-04 3.559276e-03 5.317437e-03 1.569590e-03 1.491007e-03 -6.661080e-04 -8.948313e-04 9.906963e-04 -9.910845e-03
<VARIANCE> 39
 1.214943e+02 7.558409e+01 1.041008e+02 1.338308e+02 1.161967e+02 1.081619e+02 1.123981e+02 1.124488e+02 1.345035e+02 8.315157e+01 1.064224e+02 1.009097e+02 3.679650e+02 2.951814e+00 3.127893e+00 3.427848e+00 5.379282e+00 5.128863e+00 5.069076e+00 5.189384e+00 5.526799e+00 5.344911e+00 4.751616e+00 5.203143e+00 4.503547e+00 3.914948e+00 4.511674e-01 5.072434e-01 5.307832e-01 8.833456e-01 8.415890e-01 9.002270e-01 9.345307e-01 1.008020e+00 9.548526e-01 8.795608e-01 9.536775e-01 8.444273e-01 5.461313e-01
<GCONST> 1.496794e+02
<STATE> 4
<MEAN> 39
 -1.025547e+01 -1.628791e+00 -3.405253e+00 -5.356589e+00 -9.254688e+00 -3.785624e+00 -1.045826e+01 -4.423803e+00 -6.118641e+00 -1.386993e+00 -1.545585e+00 -4.483976e+00 6.212589e+01 1.542745e-02 -1.564272e-02 2.201888e-02 -2.186201e-02 -1.730638e-02 -2.096084e-02 -2.699465e-03 -4.129006e-02 -2.856882e-02 -1.960734e-02 -9.320106e-03 -1.267168e-02 6.527385e-02 -1.629031e-03 1.600171e-03 5.777614e-04 2.825887e-03 1.563219e-03 1.860662e-03 2.549035e-03 1.261840e-03 3.976122e-04 -6.654105e-05 -3.626901e-04 5.208182e-04 -4.264649e-03
<VARIANCE> 39
 1.248147e+02 7.337833e+01 1.011782e+02 1.360951e+02 1.170054e+02 1.021551e+02 1.049292e+02 1.040162e+02 1.310743e+02 8.133846e+01 9.577141e+01 9.243240e+01 3.787747e+02 2.689350e+00 2.820845e+00 3.212285e+00 4.911552e+00 4.761490e+00 4.620007e+00 4.637743e+00 5.009115e+00 4.951084e+00 4.448700e+00 4.755486e+00 4.184070e+00 3.625830e+00 3.996884e-01 4.516987e-01 4.889093e-01 7.935139e-01 7.791358e-01 8.181329e-01 8.351621e-01 9.116131e-01 8.841626e-01 8.229820e-01 8.748531e-01 7.904706e-01 4.771608e-01
<GCONST> 1.469002e+02
<TRANSP> 5
 0.000000e+00 1.000000e+00 0.000000e+00 0.000000e+00 0.000000e+00
 0.000000e+00 6.747642e-01 3.252359e-01 0.000000e+00 0.000000e+00
 0.000000e+00 0.000000e+00 6.747633e-01 3.252366e-01 0.000000e+00
 0.000000e+00 0.000000e+00 0.000000e+00 8.289273e-01 1.710727e-01
 0.000000e+00 0.000000e+00 0.000000e+00 0.000000e+00 0.000000e+00
<ENDHMM>
~h "p"
<BEGINHMM>
<NUMSTATES> 5
<STATE> 2
<MEAN> 39
 -8.337298e+00 -2.622989e+00 -2.110134e+00 -5.388528e+00 -9.289085e+00 -7.171262e+00 -1.102875e+01 -4.290719e+00 -6.347144e+00 -2.432894e+00 -3.747442e+00 -5.813248e+00 6.860719e+01 1.769663e-02 1.222226e-02 -2.564603e-03 -2.488617e-03 2.037512e-02 -2.626147e-03 -1.425278e-02 -4.884483e-02 1.568957e-02 8.618928e-03 -1.599475e-02 -7.700902e-03 1.583034e-02 -3.436460e-03 3.092434e-03 1.289462e-03 2.982856e-03 -1.164373e-03 1.461032e-03 3.053957e-04 1.623867e-03 -1.162353e-03 -1.906732e-03 4.330540e-04 1.255039e-03 -6.124970e-03
<VARIANCE> 39
 1.133564e+02 9.391422e+01 1.103991e+02 1.107325e+02 1.291501e+02 1.223658e+02 1.099386e+02 1.168906e+02 1.426643e+02 9.371194e+01 1.206657e+02 1.114942e+02 2.960128e+02 3.900277e+00 4.687765e+00 4.338513e+00 6.209702e+00 6.567516e+00 6.137018e+00 6.183692e+00 6.971642e+00 6.227553e+00 6.033676e+00 6.237986e+00 5.664253e+00 5.402863e+00 6.275851e-01 7.773455e-01 7.192800e-01 1.094774e+00 1.155939e+00 1.129949e+00 1.156510e+00 1.294816e+00 1.145422e+00 1.141862e+00 1.158848e+00 1.071882e+00 8.064165e-01
<GCONST> 1.567109e+02
<STATE> 3
<MEAN> 39
 -8.318136e+00 -2.570253e+00 -2.114815e+00 -5.379667e+00 -9.234950e+00 -7.177763e+00 -1.106379e+01 -4.415099e+00 -6.310898e+00 -2.429628e+00 -3.780974e+00 -5.823690e+00 6.861244e+01 1.141471e-02 1.908737e-02 1.204829e-03 5.432148e-03 1.760821e-02 2.060831e-04 -1.414257e-02 -4.574377e-02 1.227422e-02 2.701052e-03 -1.445447e-02 -3.219372e-03 1.738347e-03 -2.095311e-03 2.377582e-03 1.495883e-03 1.851830e-03 -1.356607e-03 1.098437e-03 4.252740e-04 1.429034e-03 -1.999978e-03 -1.743380e-03 6.321452e-04 1.577585e-03 -3.775576e-03
<VARIANCE> 39
 1.123194e+02 9.307942e+01 1.109920e+02 1.106203e+02 1.292101e+02 1.209437e+02 1.094733e+02 1.173695e+02 1.427821e+02 9.391277e+01 1.207199e+02 1.111911e+02 2.920135e+02 3.895227e+00 4.673203e+00 4.356655e+00 6.245932e+00 6.575019e+00 6.165440e+00 6.186130e+00 6.978710e+00 6.253842e+00 6.058216e+00 6.269383e+00 5.699816e+00 5.390414e+00 6.263571e-01 7.759099e-01 7.219007e-01 1.099788e+00 1.157952e+00 1.138394e+00 1.158237e+00 1.295681e+00 1.150434e+00 1.146844e+00 1.163312e+00 1.078313e+00 8.038795e-01
<GCONST> 1.567339e+02
<STATE> 4
<MEAN> 39
 -8.520225e+00 -2.619419e+00 -2.450336e+00 -5.148605e+00 -8.993281e+00 -6.752077e+00 -1.098693e+01 -4.581522e+00 -6.206975e+00 -2.735156e+00 -3.935647e+00 -5.753613e+00 6.758669e+01 -5.087256e-04 2.947645e-02 7.259760e-03 1.410585e-02 1.389424e-02 5.010642e-03 -9.048801e-03 -4.043686e-02 7.171337e-03 -5.008288e-03 -1.122461e-02 3.810654e-03 -1.782486e-02 -1.539752e-03 1.557399e-03 1.384867e-03 6.707880e-04 -1.626355e-03 1.216553e-03 1.087036e-03 1.235299e-03 -2.157905e-03 -1.044901e-03 -3.830646e-05 9.869710e-04 -1.742737e-03
<VARIANCE> 39
 1.145703e+02 9.362333e+01 1.123411e+02 1.111835e+02 1.291056e+02 1.199010e+02 1.067934e+02 1.155799e+02 1.383231e+02 9.351566e+01 1.180128e+02 1.089879e+02 3.040136e+02 3.822534e+00 4.667336e+00 4.324874e+00 6.152568e+00 6.394323e+00 6.076708e+00 6.007949e+00 6.799550e+00 6.150450e+00 5.924826e+00 6.211169e+00 5.610163e+00 5.356885e+00 6.105577e-01 7.757683e-01 7.138733e-01 1.082901e+00 1.127313e+00 1.122245e+00 1.127460e+00 1.262562e+00 1.130722e+00 1.117605e+00 1.150074e+00 1.062464e+00 7.884947e-01
<GCONST> 1.562434e+02
<TRANSP> 5
 0.000000e+00 1.000000e+00 0.000000e+00 0.000000e+00 0.000000e+00
 0.000000e+00 6.241690e-01 3.758310e-01 0.000000e+00 0.000000e+00
 0.000000e+00 0.000000e+00 6.241709e-01 3.758291e-01 0.000000e+00
 0.000000e+00 0.000000e+00 0.000000e+00 7.429084e-01 2.570916e-01
 0.000000e+00 0.000000e+00 0.000000e+00 0.000000e+00 0.000000e+00
<ENDHMM>
~h "r"
<BEGINHMM>
<NUMSTATES> 5
<STATE> 2
<MEAN> 39
 -7.836395e+00 -3.205542e+00 -1.638513e+00 -5.539057e+00 -1.010390e+01 -7.900167e+00 -1.186820e+01 -4.211965e+00 -6.499956e+00 -2.418562e+00 -3.917679e+00 -5.711840e+00 6.970677e+01 9.454298e-03 1.560966e-03 1.093636e-02 -4.351524e-03 -1.029948e-02 7.789792e-03 6.972106e-03 -1.729425e-02 -1.949034e-02 -9.339415e-04 -1.357905e-02 5.960459e-04 1.045142e-02 -1.955309e-03 2.811573e-03 -9.719610e-04 8.069215e-04 1.946020e-03 4.041133e-03 2.118109e-03 5.405109e-04 -6.572357e-05 -6.423403e-04 -1.411559e-05 1.672538e-03 -6.089232e-03
<VARIANCE> 39
 1.094547e+02 9.488792e+01 1.090006e+02 1.080807e+02 1.264017e+02 1.182956e+02 1.189822e+02 1.263446e+02 1.530817e+02 9.424943e+01 1.300862e+02 1.147853e+02 2.872009e+02 3.612869e+00 4.353718e+00 4.163654e+00 5.569160e+00 6.094049e+00 6.002436e+00 6.042419e+00 6.880000e+00 6.183543e+00 5.739801e+00 6.103381e+00 5.514547e+00 4.711785e+00 5.745969e-01 7.171553e-01 6.693327e-01 9.697920e-01 1.041562e+00 1.097290e+00 1.119070e+00 1.235146e+00 1.120651e+00 1.071674e+00 1.109377e+00 1.036560e+00 6.896554e-01
<GCONST> 1.553301e+02
<STATE> 3
<MEAN> 39
 -7.804314e+00 -3.194657e+00 -1.616515e+00 -5.562095e+00 -1.013512e+01 -7.869946e+00 -1.185801e+01 -4.280588e+00 -6.556883e+00 -2.419208e+00 -3.960852e+00 -5.716908e+00 6.974258e+01 3.586954e-03 9.037197e-03 8.231941e-03 -1.545469e-03 -5.631063e-03 1.668358e-02 1.045114e-02 -1.703434e-02 -1.803843e-02 -2.738748e-03 -1.363441e-02 5.478916e-03 -5.296849e-03 -2.086814e-03 2.335623e-03 -1.448878e-03 5.532148e-04 2.381765e-03 2.532852e-03 1.175509e-03 2.451806e-04 3.844193e-04 -6.682533e-05 1.414121e-04 2.091698e-03 -4.428724e-03
<VARIANCE> 39
 1.089146e+02 9.494387e+01 1.094194e+02 1.080470e+02 1.260488e+02 1.179248e+02 1.193562e+02 1.271648e+02 1.527439e+02 9.412934e+01 1.303716e+02 1.137026e+02 2.837570e+02 3.590498e+00 4.348296e+00 4.152284e+00 5.573543e+00 6.093545e+00 6.007990e+00 6.033506e+00 6.892261e+00 6.189117e+00 5.736786e+00 6.119821e+00 5.508745e+00 4.692256e+00 5.704368e-01 7.160926e-01 6.666480e-01 9.665520e-01 1.038805e+00 1.099587e+00 1.116640e+00 1.234366e+00 1.120824e+00 1.071413e+00 1.111043e+00 1.036089e+00 6.836871e-01
<GCONST> 1.552726e+02
<STATE> 4
<MEAN> 39
 -7.849679e+00 -3.233598e+00 -1.804345e+00 -5.427489e+00 -1.013424e+01 -7.416553e+00 -1.187034e+01 -4.409384e+00 -6.659674e+00 -2.642692e+00 -4.128629e+00 -5.689549e+00 6.884949e+01 -3.937554e-03 1.680320e-02 6.761067e-03 8.824752e-04 -2.717108e-03 2.187473e-02 8.074794e-03 -2.255695e-02 -1.530262e-02 -1.724115e-03 -1.249558e-02 1.093821e-02 -1.624957e-02 -2.311516e-03 1.947454e-03 -1.204642e-03 6.121700e-04 2.512795e-03 1.268619e-03 4.663154e-04 4.765171e-04 4.665856e-04 2.388299e-04 2.661957e-04 2.426592e-03 -3.033039e-03
<VARIANCE> 39
 1.155040e+02 9.818702e+01 1.107794e+02 1.088187e+02 1.256944e+02 1.183797e+02 1.195031e+02 1.245647e+02 1.490219e+02 9.354045e+01 1.287150e+02 1.117020e+02 2.952991e+02 3.576597e+00 4.397244e+00 4.111666e+00 5.505440e+00 5.967818e+00 5.913746e+00 5.910518e+00 6.727121e+00 6.113377e+00 5.616851e+00 5.981349e+00 5.374384e+00 4.602411e+00 5.604299e-01 7.213256e-01 6.566036e-01 9.490783e-01 1.014507e+00 1.078336e+00 1.090865e+00 1.201807e+00 1.104538e+00 1.045582e+00 1.084758e+00 1.010945e+00 6.595650e-01
<GCONST> 1.548871e+02
<TRANSP> 5
 0.000000e+00 1.000000e+00 0.000000e+00 0.000000e+00 0.000000e+00
 0.000000e+00 6.312487e-01 3.687512e-01 0.000000e+00 0.000000e+00
 0.000000e+00 0.000000e+00 6.312498e-01 3.687501e-01 0.000000e+00
 0.000000e+00 0.000000e+00 0.000000e+00 7.530247e-01 2.469753e-01
 0.000000e+00 0.000000e+00 0.000000e+00 0.000000e+00 0.000000e+00
<ENDHMM>
~h "s"
<BEGINHMM>
<NUMSTATES> 5
<STATE> 2
<MEAN> 39
 -1.054207e+01 -1.421045e+00 -2.198119e+00 -5.266704e+00 -8.678884e+00 -7.477848e+00 -1.078741e+01 -3.549221e+00 -6.161062e+00 -2.629907e+00 -3.674484e+00 -5.170814e+00 6.947320e+01 -1.437018e-02 1.068515e-02 3.455311e-04 -1.451357e-02 1.493345e-02 -4.670419e-02 5.938372e-03 -9.390612e-03 -2.135505e-03 -2.075539e-02 -1.980057e-02 -4.502109e-03 6.433154e-02 7.154670e-05 5.547444e-04 -1.460614e-03 1.783526e-03 -1.570230e-03 4.218248e-03 9.950509e-04 -1.501470e-03 2.050325e-03 -2.084439e-04 9.261069e-04 -2.048210e-03 -1.568702e-02
<VARIANCE> 39
 1.407507e+02 1.000415e+02 1.093621e+02 1.081776e+02 1.328904e+02 1.197473e+02 1.208154e+02 1.195840e+02 1.450819e+02 8.984009e+01 1.223402e+02 1.155810e+02 2.874958e+02 5.611503e+00 4.822084e+00 4.288383e+00 5.300351e+00 6.158750e+00 5.904310e+00 6.476054e+00 6.945950e+00 5.784770e+00 5.628834e+00 5.864745e+00 5.358258e+00 4.337942e+00 7.921935e-01 7.473537e-01 6.920174e-01 9.157245e-01 1.039943e+00 1.078980e+00 1.183208e+00 1.248578e+00 1.051841e+00 1.052984e+00 1.074324e+00 9.795904e-01 6.354183e-01
<GCONST> 1.559992e+02
<STATE> 3
<MEAN> 39
 -1.059294e+01 -1.388911e+00 -2.202865e+00 -5.303445e+00 -8.640825e+00 -7.577387e+00 -1.075785e+01 -3.569811e+00 -6.161546e+00 -2.681174e+00 -3.732098e+00 -5.187871e+00 6.957801e+01 -8.751927e-03 8.593360e-03 -3.711523e-03 -9.903681e-03 1.308656e-02 -3.561317e-02 8.522615e-03 -1.195411e-02 1.017525e-03 -1.957214e-02 -1.930736e-02 -9.655287e-03 3.718545e-02 2.413036e-03 -6.783110e-04 -6.971672e-04 1.507456e-03 -5.251608e-04 4.478395e-03 8.904218e-04 -1.109562e-03 1.169222e-03 6.646963e-04 4.365426e-04 -1.558139e-03 -8.879490e-03
<VARIANCE> 39
 1.405061e+02 1.004808e+02 1.096880e+02 1.083175e+02 1.331228e+02 1.197189e+02 1.203867e+02 1.189982e+02 1.452251e+02 9.033837e+01 1.222719e+02 1.157824e+02 2.840797e+02 5.620536e+00 4.815860e+00 4.281106e+00 5.295716e+00 6.133870e+00 5.904216e+00 6.445113e+00 6.921511e+00 5.773339e+00 5.633519e+00 5.851648e+00 5.345294e+00 4.176216e+00 7.889982e-01 7.458238e-01 6.888561e-01 9.128277e-01 1.035255e+00 1.078329e+00 1.178276e+00 1.245819e+00 1.048830e+00 1.052584e+00 1.069794e+00 9.771382e-01 6.121868e-01
<GCONST> 1.558639e+02
<STATE> 4
<MEAN> 39
 -1.097782e+01 -1.363597e+00 -2.334783e+00 -5.174026e+00 -8.470729e+00 -7.280202e+00 -1.069519e+01 -3.558033e+00 -6.101731e+00 -2.888778e+00 -3.797282e+00 -5.066443e+00 6.853630e+01 -9.669717e-04 4.958744e-03 -4.216183e-03 -5.611553e-03 1.075215e-02 -1.998066e-02 1.257271e-02 -1.382468e-02 5.440693e-05 -1.423351e-02 -2.090337e-02 -1.322778e-02 1.308827e-02 3.209186e-03 -1.210206e-03 6.606358e-04 8.176866e-04 -6.641069e-04 3.704944e-03 -9.704591e-05 -1.071215e-03 1.928541e-04 1.178227e-03 5.903556e-04 -8.353054e-04 -4.069326e-03
<VARIANCE> 39
 1.453673e+02 1.010394e+02 1.103225e+02 1.081669e+02 1.321483e+02 1.195396e+02 1.185042e+02 1.156249e+02 1.409283e+02 8.890181e+01 1.188750e+02 1.134763e+02 2.991750e+02 5.576337e+00 4.723022e+00 4.204344e+00 5.153636e+00 5.970610e+00 5.778756e+00 6.214083e+00 6.703468e+00 5.655447e+00 5.503328e+00 5.715964e+00 5.157125e+00 4.068577e+00 7.720511e-01 7.313206e-01 6.727512e-01 8.862656e-01 1.005853e+00 1.052851e+00 1.135669e+00 1.207383e+00 1.027659e+00 1.026986e+00 1.042034e+00 9.448134e-01 5.815931e-01
<GCONST> 1.551212e+02
<TRANSP> 5
 0.000000e+00 1.000000e+00 0.000000e+00 0.000000e+00 0.000000e+00
 0.000000e+00 6.261119e-01 3.738881e-01 0.000000e+00 0.000000e+00
 0.000000e+00 0.000000e+00 6.261115e-01 3.738884e-01 0.000000e+00
 0.000000e+00 0.000000e+00 0.000000e+00 7.471765e-01 2.528235e-01
 0.000000e+00 0.000000e+00 0.000000e+00 0.000000e+00 0.000000e+00
<ENDHMM>
~h "t"
<BEGINHMM>
<NUMSTATES> 5
<STATE> 2
<MEAN> 39
 -8.866963e+00 -1.785254e+00 -1.687840e+00 -5.353195e+00 -9.724547e+00 -6.993670e+00 -1.143222e+01 -4.752655e+00 -6.265266e+00 -2.153754e+00 -3.347264e+00 -5.428323e+00 6.770698e+01 1.736341e-02 1.549866e-03 -1.056198e-02 -2.254946e-02 1.079013e-02 6.037407e-03 -3.685242e-03 -8.466966e-03 -1.164612e-02 1.518084e-04 -1.430307e-02 -9.774333e-03 3.715987e-02 -2.986672e-03 7.976204e-04 -6.634238e-04 6.906823e-04 -1.364175e-03 2.696245e-03 8.203852e-04 2.132620e-03 1.204926e-03 -3.206774e-04 9.480823e-05 -1.731889e-04 -8.193539e-03
<VARIANCE> 39
 1.106869e+02 8.801950e+01 1.081040e+02 1.102617e+02 1.268789e+02 1.187416e+02 1.283705e+02 1.199312e+02 1.421583e+02 9.271987e+01 1.258580e+02 1.038150e+02 2.971030e+02 3.790060e+00 4.123198e+00 4.164034e+00 5.466106e+00 6.093131e+00 6.157887e+00 6.361199e+00 6.641667e+00 6.057306e+00 5.623937e+00 6.023028e+00 5.272913e+00 5.249053e+00 6.045684e-01 6.781008e-01 6.645387e-01 9.362028e-01 1.041588e+00 1.137735e+00 1.162453e+00 1.212781e+00 1.088803e+00 1.056476e+00 1.099259e+00 9.907523e-01 7.778352e-01
<GCONST> 1.551759e+02
<STATE> 3
<MEAN> 39
 -8.824194e+00 -1.770080e+00 -1.717679e+00 -5.410816e+00 -9.705166e+00 -6.966367e+00 -1.145036e+01 -4.782248e+00 -6.309520e+00 -2.151182e+00 -3.385059e+00 -5.448945e+00 6.777934e+01 1.201697e-02 2.238061e-03 -1.233690e-02 -2.032568e-02 1.064271e-02 1.199675e-02 -1.260045e-03 -3.033920e-03 -9.604631e-03 5.538175e-04 -1.346167e-02 -7.114435e-03 2.369399e-02 -2.135226e-03 9.564627e-05 4.074913e-04 1.424107e-03 -3.765490e-04 1.068588e-03 9.249922e-04 1.405761e-03 7.782571e-04 -1.165862e-04 2.014840e-04 1.317981e-03 -4.270521e-03
<VARIANCE> 39
 1.102350e+02 8.825340e+01 1.084149e+02 1.104704e+02 1.268568e+02 1.188325e+02 1.286507e+02 1.197106e+02 1.426399e+02 9.297090e+01 1.257901e+02 1.042840e+02 2.941244e+02 3.766695e+00 4.123740e+00 4.167386e+00 5.477690e+00 6.088224e+00 6.154067e+00 6.356885e+00 6.645159e+00 6.065501e+00 5.616425e+00 6.021819e+00 5.284108e+00 5.172717e+00 6.012890e-01 6.768821e-01 6.657347e-01 9.375210e-01 1.040030e+00 1.136501e+00 1.159914e+00 1.212615e+00 1.090261e+00 1.054264e+00 1.098343e+00 9.934362e-01 7.663693e-01
<GCONST> 1.551401e+02
<STATE> 4
<MEAN> 39
 -8.909149e+00 -1.640717e+00 -1.789535e+00 -5.287619e+00 -9.831251e+00 -6.555013e+00 -1.144572e+01 -4.874901e+00 -6.518377e+00 -2.325715e+00 -3.489200e+00 -5.339237e+00 6.681972e+01 7.699368e-03 3.723969e-03 -1.145063e-02 -1.505287e-02 1.023033e-02 1.223161e-02 8.775368e-04 -1.949093e-03 -1.307764e-02 8.859728e-04 -1.138050e-02 2.696619e-03 1.525415e-02 -1.681077e-03 4.315593e-05 1.272172e-03 2.005193e-03 -1.819897e-04 -7.736296e-04 1.349422e-03 -5.474326e-05 -1.512652e-04 -3.520938e-04 -7.211202e-06 1.937074e-03 -2.197316e-03
<VARIANCE> 39
 1.140376e+02 9.119209e+01 1.119351e+02 1.110292e+02 1.270700e+02 1.187214e+02 1.281590e+02 1.168094e+02 1.405649e+02 9.201038e+01 1.221008e+02 1.026413e+02 3.030960e+02 3.721036e+00 4.173314e+00 4.169035e+00 5.411303e+00 5.957461e+00 6.039655e+00 6.209089e+00 6.511044e+00 6.001465e+00 5.555747e+00 5.910050e+00 5.171543e+00 5.141027e+00 5.909318e-01 6.827608e-01 6.606943e-01 9.256099e-01 1.013239e+00 1.112764e+00 1.128427e+00 1.186453e+00 1.077263e+00 1.040271e+00 1.077384e+00 9.748690e-01 7.506132e-01
<GCONST> 1.548012e+02
<TRANSP> 5
 0.000000e+00 1.000000e+00 0.000000e+00 0.000000e+00 0.000000e+00
 0.000000e+00 6.349527e-01 3.650474e-01 0.000000e+00 0.000000e+00
 0.000000e+00 0.000000e+00 6.349542e-01 3.650458e-01 0.000000e+00
 0.000000e+00 0.000000e+00 0.000000e+00 7.572349e-01 2.427651e-01
 0.000000e+00 0.000000e+00 0.000000e+00 0.000000e+00 0.000000e+00
<ENDHMM>
~h "u"
<BEGINHMM>
<NUMSTATES> 5
<STATE> 2
<MEAN> 39
 -7.554475e+00 -1.422094e+00 -2.392964e+00 -5.945970e+00 -9.707822e+00 -5.439661e+00 -1.238416e+01 -5.303299e+00 -7.393628e+00 -2.105707e+00 -3.237085e+00 -5.314800e+00 6.789355e+01 1.263103e-02 3.566875e-03 -5.247672e-03 -3.994268e-03 4.051169e-04 1.279557e-03 -7.205162e-03 -1.270572e-02 -1.812263e-02 -8.367416e-03 7.220005e-03 5.770320e-03 1.721095e-02 -3.736337e-03 -7.701737e-04 8.119942e-04 2.565018e-03 -1.749534e-04 -1.622843e-03 2.392115e-03 2.271598e-03 1.632666e-03 -4.008682e-04 -1.555577e-04 -4.703873e-04 -1.783486e-03
<VARIANCE> 39
 1.130476e+02 8.893423e+01 9.922881e+01 1.190062e+02 1.209825e+02 1.142234e+02 1.366596e+02 1.255216e+02 1.477497e+02 9.835604e+01 1.246437e+02 1.035328e+02 2.832715e+02 3.478738e+00 4.016446e+00 4.040296e+00 5.874135e+00 5.991657e+00 5.941113e+00 6.482143e+00 6.984046e+00 6.125747e+00 5.803663e+00 6.102838e+00 5.168746e+00 4.469848e+00 5.328267e-01 6.548129e-01 6.659619e-01 9.990958e-01 1.033613e+00 1.076941e+00 1.178321e+00 1.260588e+00 1.113414e+00 1.078073e+00 1.111644e+00 9.609966e-01 6.332273e-01
<GCONST> 1.547920e+02
<STATE> 3
<MEAN> 39
 -7.531497e+00 -1.409758e+00 -2.410553e+00 -5.947516e+00 -9.704419e+00 -5.437995e+00 -1.239773e+01 -5.330822e+00 -7.443037e+00 -2.132983e+00 -3.216585e+00 -5.298591e+00 6.793076e+01 2.200102e-03 1.593148e-03 -3.436969e-03 2.706001e-03 1.579415e-03 -2.789645e-03 5.571358e-05 -6.706156e-03 -1.258710e-02 -9.559593e-03 5.753695e-03 3.900329e-03 1.212659e-02 -3.515455e-03 -6.086531e-04 5.445265e-04 2.189483e-03 -2.924335e-05 -9.090545e-04 2.176925e-03 1.963117e-03 2.206535e-03 -5.826703e-04 -1.117872e-03 -1.072910e-03 -1.100795e-03
<VARIANCE> 39
 1.123718e+02 8.858825e+01 9.953510e+01 1.187994e+02 1.216997e+02 1.142228e+02 1.370803e+02 1.257601e+02 1.482841e+02 9.848005e+01 1.248675e+02 1.035064e+02 2.796060e+02 3.493558e+00 4.033432e+00 4.055311e+00 5.894943e+00 6.012616e+00 5.947536e+00 6.515100e+00 7.014454e+00 6.136593e+00 5.832953e+00 6.135880e+00 5.178702e+00 4.461269e+00 5.347473e-01 6.578509e-01 6.683435e-01 1.003420e+00 1.036366e+00 1.079458e+00 1.185584e+00 1.266455e+00 1.116496e+00 1.083448e+00 1.117928e+00 9.633943e-01 6.323636e-01
<GCONST> 1.548760e+02
<STATE> 4
<MEAN> 39
 -7.722407e+00 -1.261561e+00 -2.564242e+00 -5.657736e+00 -9.795480e+00 -5.048495e+00 -1.236345e+01 -5.321056e+00 -7.586538e+00 -2.432521e+00 -3.210394e+00 -5.162215e+00 6.684517e+01 -1.339602e-02 3.348133e-04 -4.092279e-03 1.078069e-02 7.046931e-03 -3.189003e-03 1.182336e-02 8.177012e-05 -3.250137e-03 -1.173154e-02 1.060068e-03 1.816809e-03 1.421645e-03 -2.754593e-03 -3.691479e-04 4.693817e-04 1.771082e-03 1.648671e-04 2.144820e-04 2.325055e-03 1.627146e-03 2.396984e-03 -3.956386e-04 -1.554357e-03 -8.195585e-04 -8.050511e-04
<VARIANCE> 39
 1.196101e+02 8.999540e+01 1.018630e+02 1.180328e+02 1.233630e+02 1.136993e+02 1.379280e+02 1.246749e+02 1.469849e+02 9.714113e+01 1.219940e+02 1.007663e+02 2.889445e+02 3.465517e+00 4.052068e+00 4.050919e+00 5.751120e+00 5.885093e+00 5.828681e+00 6.411201e+00 6.870586e+00 6.040020e+00 5.730170e+00 6.043581e+00 5.055967e+00 4.391286e+00 5.235379e-01 6.589487e-01 6.627917e-01 9.786336e-01 1.009336e+00 1.056477e+00 1.164603e+00 1.240749e+00 1.096241e+00 1.063715e+00 1.100124e+00 9.424388e-01 6.159442e-01
<GCONST> 1.545011e+02
<TRANSP> 5
 0.000000e+00 1.000000e+00 0.000000e+00 0.000000e+00 0.000000e+00
 0.000000e+00 6.338860e-01 3.661140e-01 0.000000e+00 0.000000e+00
 0.000000e+00 0.000000e+00 6.338822e-01 3.661178e-01 0.000000e+00
 0.000000e+00 0.000000e+00 0.000000e+00 7.573199e-01 2.426801e-01
 0.000000e+00 0.000000e+00 0.000000e+00 0.000000e+00 0.000000e+00
<ENDHMM>
~h "v"
<BEGINHMM>
<NUMSTATES> 5
<STATE> 2
<MEAN> 39
 -1.098373e+01 -2.302299e+00 -2.025483e+00 -5.354050e+00 -9.240763e+00 -8.651070e+00 -1.092636e+01 -2.717363e+00 -6.866992e+00 -6.317239e-01 -4.074704e+00 -5.227848e+00 7.068665e+01 -1.772638e-03 -1.911612e-02 -9.052043e-03 -2.450215e-02 5.827094e-02 -7.310191e-02 -1.003637e-02 2.329312e-02 3.292048e-02 -1.355593e-02 -6.551637e-02 -4.899974e-02 4.110699e-02 2.020669e-03 -2.109946e-04 5.764894e-03 3.986651e-03 -7.960171e-03 -8.923613e-03 -3.334963e-03 -2.888157e-03 -1.829684e-03 -5.120625e-03 -6.502594e-04 5.222729e-04 7.513307e-03
<VARIANCE> 39
 1.172499e+02 8.941611e+01 1.138651e+02 1.147259e+02 1.321208e+02 1.164836e+02 1.311725e+02 1.136785e+02 1.386891e+02 1.135438e+02 1.693029e+02 1.350551e+02 2.292485e+02 6.116021e+00 5.065623e+00 5.010081e+00 5.418144e+00 7.485461e+00 6.859687e+00 6.546860e+00 6.814917e+00 6.691949e+00 6.592088e+00 6.096723e+00 6.296813e+00 4.886556e+00 9.333044e-01 8.028342e-01 7.571548e-01 8.871636e-01 1.268324e+00 1.221270e+00 1.220438e+00 1.247621e+00 1.224191e+00 1.235715e+00 1.098715e+00 1.147119e+00 6.447526e-01
<GCONST> 1.586707e+02
<STATE> 3
<MEAN> 39
 -1.100721e+01 -2.350023e+00 -2.037456e+00 -5.413396e+00 -9.104423e+00 -8.883305e+00 -1.098696e+01 -2.647124e+00 -6.784942e+00 -6.403416e-01 -4.226875e+00 -5.348045e+00 7.086903e+01 5.513669e-03 -1.862194e-02 5.595506e-03 -1.642860e-02 3.726261e-02 -9.372398e-02 -1.698645e-02 1.415540e-02 2.730314e-02 -2.354899e-02 -6.644703e-02 -4.691747e-02 6.480445e-02 3.351152e-03 6.843256e-04 5.457289e-03 3.069965e-03 -8.845189e-03 -6.756300e-03 -2.992663e-03 -4.466000e-03 -2.674918e-03 -5.034333e-03 1.281938e-04 9.012676e-04 7.353151e-03
<VARIANCE> 39
 1.177013e+02 9.008592e+01 1.133073e+02 1.146285e+02 1.283635e+02 1.171890e+02 1.273947e+02 1.127906e+02 1.402160e+02 1.127894e+02 1.706895e+02 1.351127e+02 2.282655e+02 6.210583e+00 5.171317e+00 5.076274e+00 5.533200e+00 7.566350e+00 6.900518e+00 6.558642e+00 6.801970e+00 6.842493e+00 6.624905e+00 6.098455e+00 6.326710e+00 5.031501e+00 9.535303e-01 8.187715e-01 7.716247e-01 9.044870e-01 1.293146e+00 1.230309e+00 1.222665e+00 1.244913e+00 1.249431e+00 1.234560e+00 1.097468e+00 1.152571e+00 6.623995e-01
<GCONST> 1.589289e+02
<STATE> 4
<MEAN> 39
 -1.117271e+01 -2.452498e+00 -1.983577e+00 -5.182918e+00 -9.301394e+00 -9.133181e+00 -1.084262e+01 -2.687894e+00 -6.828204e+00 -7.647756e-01 -4.509071e+00 -5.192858e+00 7.051270e+01 1.726009e-02 -1.492125e-02 1.897764e-02 -1.632790e-02 1.323644e-02 -1.055421e-01 -2.876024e-02 -8.478221e-04 1.642720e-02 -1.900819e-02 -5.694310e-02 -4.225488e-02 1.092321e-01 4.742139e-03 1.502151e-03 4.257739e-03 1.186908e-03 -8.171405e-03 -2.856601e-03 -1.791986e-03 -5.656073e-03 -3.322340e-03 -3.361464e-03 8.099682e-04 1.174534e-03 5.806014e-03
<VARIANCE> 39
 1.209677e+02 9.390733e+01 1.130811e+02 1.120346e+02 1.224793e+02 1.204081e+02 1.228838e+02 1.111345e+02 1.386045e+02 1.083650e+02 1.663100e+02 1.311369e+02 2.369313e+02 6.511173e+00 5.320268e+00 5.243936e+00 5.645353e+00 7.677521e+00 7.007849e+00 6.629855e+00 6.841348e+00 7.096918e+00 6.674332e+00 5.974135e+00 6.131852e+00 5.227398e+00 9.928300e-01 8.324726e-01 7.980647e-01 9.213139e-01 1.325374e+00 1.245179e+00 1.243707e+00 1.256351e+00 1.290045e+00 1.232525e+00 1.074002e+00 1.118353e+00 6.796165e-01
<GCONST> 1.592134e+02
<TRANSP> 5
 0.000000e+00 1.000000e+00 0.000000e+00 0.000000e+00 0.000000e+00
 0.000000e+00 6.250283e-01 3.749717e-01 0.000000e+00 0.000000e+00
 0.000000e+00 0.000000e+00 6.250278e-01 3.749722e-01 0.000000e+00
 0.000000e+00 0.000000e+00 0.000000e+00 7.412127e-01 2.587873e-01
 0.000000e+00 0.000000e+00 0.000000e+00 0.000000e+00 0.000000e+00
<ENDHMM>
~h "w"
<BEGINHMM>
<NUMSTATES> 5
<STATE> 2
<MEAN> 39
 -9.056561e+00 -7.562798e-01 -1.715141e+00 -7.548396e+00 -1.112712e+01 -6.215539e+00 -1.167921e+01 -4.364397e+00 -7.432361e+00 -6.070318e-01 -2.832815e+00 -4.036939e+00 6.864606e+01 -1.851522e-02 4.255688e-02 -4.117058e-02 -4.236695e-02 7.670914e-02 -6.588243e-03 -1.138830e-02 -9.525994e-03 -4.839486e-02 4.405870e-02 -3.587737e-02 3.371382e-02 6.176954e-02 1.775985e-03 -2.254914e-03 -1.934452e-03 -1.074725e-03 6.731136e-04 4.021585e-03 3.613241e-03 2.341768e-03 1.969273e-03 7.173095e-03 -1.327870e-03 -7.638308e-03 -6.789255e-03
<VARIANCE> 39
 1.465321e+02 9.393913e+01 1.254548e+02 1.415282e+02 1.345325e+02 1.292086e+02 1.258397e+02 1.215184e+02 1.507060e+02 9.230840e+01 1.382002e+02 9.627133e+01 2.897964e+02 4.192453e+00 3.799403e+00 4.274826e+00 5.887042e+00 6.666495e+00 5.160510e+00 6.797738e+00 7.117826e+00 6.365566e+00 5.606570e+00 5.396427e+00 5.091259e+00 4.105162e+00 5.692451e-01 6.170498e-01 6.782290e-01 1.026570e+00 1.125319e+00 8.938351e-01 1.211589e+00 1.286875e+00 1.186472e+00 1.054565e+00 9.934307e-01 9.405138e-01 5.819957e-01
<GCONST> 1.554633e+02
<STATE> 3
<MEAN> 39
 -9.127910e+00 -6.707168e-01 -1.852398e+00 -7.624021e+00 -1.089881e+01 -6.218663e+00 -1.167258e+01 -4.357156e+00 -7.528469e+00 -4.999044e-01 -2.925883e+00 -3.998646e+00 6.876868e+01 -1.070870e-02 3.180571e-02 -4.752757e-02 -4.867001e-02 8.416110e-02 7.173549e-04 -5.506466e-03 -1.399536e-03 -4.052716e-02 6.074148e-02 -4.332971e-02 8.149178e-03 5.655158e-02 3.865888e-03 -5.060002e-03 -8.335212e-04 -2.949360e-03 1.369391e-03 1.695019e-03 2.380254e-03 1.068777e-03 4.218278e-03 5.906519e-03 -2.630478e-03 -9.656696e-03 5.545842e-04
<VARIANCE> 39
 1.466426e+02 9.487834e+01 1.229702e+02 1.415314e+02 1.321485e+02 1.266995e+02 1.258859e+02 1.217724e+02 1.468127e+02 9.515216e+01 1.387451e+02 9.636720e+01 2.843621e+02 4.284093e+00 3.817946e+00 4.302619e+00 5.888861e+00 6.628051e+00 5.189103e+00 6.852522e+00 7.187061e+00 6.321487e+00 5.663864e+00 5.423416e+00 5.124750e+00 4.010472e+00 5.784443e-01 6.195469e-01 6.871703e-01 1.022323e+00 1.108724e+00 9.033372e-01 1.219293e+00 1.298706e+00 1.176006e+00 1.058615e+00 1.000615e+00 9.445774e-01 5.594038e-01
<GCONST> 1.554584e+02
<STATE> 4
<MEAN> 39
 -9.668619e+00 -4.852626e-01 -2.248940e+00 -7.362324e+00 -1.048416e+01 -5.885737e+00 -1.142421e+01 -4.242180e+00 -7.469031e+00 -4.872928e-01 -3.080651e+00 -3.893941e+00 6.753122e+01 -3.158048e-03 8.283909e-03 -5.486842e-02 -5.062495e-02 9.346017e-02 -3.589053e-03 -1.655625e-03 2.651026e-03 -2.267112e-02 6.582549e-02 -5.848069e-02 -1.641525e-02 5.700501e-02 3.560536e-03 -6.105138e-03 9.236700e-04 2.169916e-04 9.485635e-04 -7.515328e-04 1.742355e-03 -2.000803e-03 5.408025e-03 2.426778e-03 -2.204451e-03 -7.670498e-03 2.477190e-04
<VARIANCE> 39
 1.490510e+02 9.326895e+01 1.183949e+02 1.437818e+02 1.271087e+02 1.217544e+02 1.234476e+02 1.182936e+02 1.396819e+02 9.618896e+01 1.349920e+02 9.461978e+01 3.074130e+02 4.226132e+00 3.739807e+00 4.194189e+00 5.738508e+00 6.393370e+00 5.059389e+00 6.720995e+00 7.092476e+00 6.106864e+00 5.578174e+00 5.403787e+00 5.134663e+00 3.874994e+00 5.672991e-01 6.012378e-01 6.704928e-01 9.936979e-01 1.062303e+00 8.860029e-01 1.198668e+00 1.281018e+00 1.133035e+00 1.033114e+00 1.000464e+00 9.447027e-01 5.287563e-01
<GCONST> 1.547226e+02
<TRANSP> 5
 0.000000e+00 1.000000e+00 0.000000e+00 0.000000e+00 0.000000e+00
 0.000000e+00 5.967096e-01 4.032904e-01 0.000000e+00 0.000000e+00
 0.000000e+00 0.000000e+00 5.967096e-01 4.032904e-01 0.000000e+00
 0.000000e+00 0.000000e+00 0.000000e+00 7.049926e-01 2.950074e-01
 0.000000e+00 0.000000e+00 0.000000e+00 0.000000e+00 0.000000e+00
<ENDHMM>
~h "y"
<BEGINHMM>
<NUMSTATES> 5
<STATE> 2
<MEAN> 39
 -9.554117e+00 -3.004108e+00 -1.645503e+00 -4.528690e+00 -9.791733e+00 -6.234679e+00 -9.386028e+00 -2.254251e+00 -6.070923e+00 -2.704428e+00 -3.697899e+00 -4.717721e+00 6.638082e+01 5.246001e-03 -4.096860e-02 -1.514187e-02 -1.326235e-03 5.792536e-02 -1.089962e-02 2.214598e-02 1.653682e-02 3.196273e-02 -4.667370e-03 -3.854916e-02 2.559826e-03 3.091603e-02 -4.794588e-03 4.119261e-03 -4.281532e-03 2.241053e-03 1.363638e-03 6.234529e-03 -5.673717e-04 -4.807812e-03 1.449430e-03 4.540154e-04 8.558019e-04 -2.862994e-03 -1.489649e-02
<VARIANCE> 39
 1.107527e+02 8.699176e+01 1.020730e+02 1.036405e+02 1.366998e+02 1.277848e+02 1.175013e+02 1.255144e+02 1.251763e+02 8.513407e+01 1.278578e+02 1.145981e+02 3.633105e+02 2.793966e+00 3.496154e+00 3.550127e+00 4.420105e+00 5.367080e+00 4.884365e+00 4.996033e+00 5.858427e+00 5.019409e+00 4.814449e+00 5.335131e+00 4.481714e+00 3.584265e+00 4.249618e-01 5.427748e-01 5.250285e-01 7.514133e-01 8.482326e-01 8.601415e-01 8.897550e-01 1.034192e+00 8.927830e-01 8.862854e-01 9.282671e-01 8.158164e-01 4.823801e-01
<GCONST> 1.495199e+02
<STATE> 3
<MEAN> 39
 -9.555298e+00 -3.124364e+00 -1.717095e+00 -4.547326e+00 -9.588066e+00 -6.262684e+00 -9.308032e+00 -2.208416e+00 -5.972463e+00 -2.728328e+00 -3.829933e+00 -4.694676e+00 6.646209e+01 -2.939267e-03 -3.093792e-02 -2.491131e-02 6.163961e-03 6.642915e-02 4.251637e-03 2.007989e-02 1.802348e-03 3.745674e-02 -6.107663e-03 -3.758038e-02 -4.303307e-03 3.890395e-04 -2.132453e-03 2.629681e-03 -2.551465e-03 1.859807e-03 5.126054e-04 4.259734e-03 -1.749523e-03 -4.982995e-03 -1.362308e-04 -8.349100e-04 8.499448e-04 -2.997781e-03 -7.690609e-03
<VARIANCE> 39
 1.081715e+02 8.645592e+01 1.011086e+02 1.026509e+02 1.379777e+02 1.270433e+02 1.173861e+02 1.247607e+02 1.254090e+02 8.637820e+01 1.288808e+02 1.165530e+02 3.572138e+02 2.725128e+00 3.466678e+00 3.542130e+00 4.382053e+00 5.364038e+00 4.820144e+00 4.977096e+00 5.807332e+00 5.019671e+00 4.817298e+00 5.335716e+00 4.483998e+00 3.481972e+00 4.123994e-01 5.359926e-01 5.242501e-01 7.435158e-01 8.505146e-01 8.474033e-01 8.898892e-01 1.025406e+00 8.935971e-01 8.865867e-01 9.302253e-01 8.144712e-01 4.641957e-01
<GCONST> 1.492816e+02
<STATE> 4
<MEAN> 39
 -9.869684e+00 -3.270455e+00 -1.930992e+00 -4.319514e+00 -9.504476e+00 -5.505237e+00 -9.459349e+00 -2.236241e+00 -5.953733e+00 -3.011882e+00 -3.897114e+00 -4.265152e+00 6.498286e+01 -9.277668e-03 -1.132525e-02 -2.326968e-02 4.567191e-03 6.811378e-02 1.076311e-02 2.228488e-02 -1.108794e-02 3.406488e-02 -1.225852e-02 -3.199404e-02 3.145060e-03 -1.001247e-02 -1.365107e-03 2.596216e-03 -4.583230e-04 1.758084e-03 -8.371323e-04 2.578454e-03 -1.069593e-03 -3.537470e-03 -8.101542e-04 -1.498287e-03 1.901295e-03 -1.422192e-03 -4.433417e-03
<VARIANCE> 39
 1.100382e+02 8.973187e+01 1.062228e+02 1.030508e+02 1.401656e+02 1.258092e+02 1.227366e+02 1.129562e+02 1.222926e+02 8.358995e+01 1.278609e+02 1.144839e+02 3.616946e+02 2.495309e+00 3.284963e+00 3.681478e+00 4.074593e+00 5.140491e+00 4.571136e+00 4.808569e+00 5.374699e+00 4.855622e+00 4.643873e+00 5.075352e+00 4.238950e+00 3.361743e+00 3.647273e-01 4.945706e-01 5.210302e-01 6.854721e-01 8.056493e-01 7.918439e-01 8.572441e-01 9.536714e-01 8.649726e-01 8.556209e-01 8.879966e-01 7.719401e-01 4.150878e-01
<GCONST> 1.478714e+02
<TRANSP> 5
 0.000000e+00 1.000000e+00 0.000000e+00 0.000000e+00 0.000000e+00
 0.000000e+00 6.685789e-01 3.314212e-01 0.000000e+00 0.000000e+00
 0.000000e+00 0.000000e+00 6.685798e-01 3.314203e-01 0.000000e+00
 0.000000e+00 0.000000e+00 0.000000e+00 8.218099e-01 1.781900e-01
 0.000000e+00 0.000000e+00 0.000000e+00 0.000000e+00 0.000000e+00
<ENDHMM>
~h "ex"
<BEGINHMM>
<NUMSTATES> 5
<STATE> 2
<MEAN> 39
 -9.878425e+00 -3.013437e+00 -1.611558e-01 -3.861800e+00 -1.165990e+01 -7.415977e+00 -8.814165e+00 -1.901252e+00 -6.511650e+00 -1.889040e+00 -2.042501e+00 -5.026514e+00 6.620510e+01 2.893083e-02 -2.838764e-02 1.712818e-02 -2.793721e-02 -3.097382e-02 -5.615530e-02 -8.743059e-03 -1.061317e-02 -3.928980e-02 -5.883389e-03 -6.723567e-02 -3.188802e-02 7.552654e-02 9.107239e-04 2.623013e-04 -3.361255e-03 8.764260e-04 2.559204e-03 2.237666e-04 -1.099304e-03 -2.278897e-03 4.816670e-04 -1.686164e-03 -4.696096e-03 2.071157e-04 -2.923664e-03
<VARIANCE> 39
 1.089883e+02 8.731371e+01 1.125638e+02 9.908101e+01 1.357051e+02 1.300196e+02 1.164623e+02 1.195239e+02 1.319061e+02 8.805607e+01 1.054501e+02 9.930972e+01 3.630407e+02 2.784292e+00 3.988971e+00 3.405282e+00 4.772863e+00 5.465222e+00 5.117540e+00 5.175057e+00 6.008691e+00 5.470076e+00 5.040365e+00 5.272933e+00 4.765183e+00 4.125937e+00 4.256960e-01 6.532536e-01 5.339874e-01 8.225360e-01 9.096032e-01 9.083080e-01 9.273090e-01 1.063660e+00 9.717444e-01 9.335487e-01 9.469167e-01 8.955793e-01 5.818222e-01
<GCONST> 1.507986e+02
<STATE> 3
<MEAN> 39
 -9.779427e+00 -3.104671e+00 -7.515955e-02 -3.959514e+00 -1.178891e+01 -7.615027e+00 -8.856335e+00 -1.956250e+00 -6.679839e+00 -1.911590e+00 -2.251174e+00 -5.104765e+00 6.648645e+01 3.270614e-02 -2.749312e-02 1.130510e-02 -2.328506e-02 -2.355651e-02 -5.472961e-02 -1.128784e-02 -1.789926e-02 -3.949538e-02 -8.552157e-03 -7.645721e-02 -2.637800e-02 6.859600e-02 1.179892e-03 1.137115e-04 -1.648448e-03 1.174293e-03 2.284941e-03 2.583095e-04 -9.354043e-04 -1.957653e-03 -9.396268e-05 6.867514e-05 -2.328046e-03 2.136956e-03 -1.772299e-03
<VARIANCE> 39
 1.072239e+02 8.768462e+01 1.133486e+02 9.873515e+01 1.357501e+02 1.291025e+02 1.166259e+02 1.209220e+02 1.333087e+02 8.852000e+01 1.063651e+02 1.003863e+02 3.546610e+02 2.789383e+00 4.031181e+00 3.447772e+00 4.829275e+00 5.480485e+00 5.128141e+00 5.228578e+00 6.037627e+00 5.506680e+00 5.059966e+00 5.307713e+00 4.765877e+00 4.152091e+00 4.255771e-01 6.597375e-01 5.391173e-01 8.313465e-01 9.106198e-01 9.053385e-01 9.341716e-01 1.064090e+00 9.781985e-01 9.339083e-01 9.507570e-01 8.938502e-01 5.785968e-01
<GCONST> 1.509272e+02
<STATE> 4
<MEAN> 39
 -1.041049e+01 -3.026592e+00 -1.224338e-01 -3.623653e+00 -1.228837e+01 -7.252182e+00 -8.501985e+00 -2.151084e+00 -7.123709e+00 -2.032586e+00 -2.510859e+00 -4.585496e+00 6.459248e+01 3.079274e-02 -2.284724e-02 2.368448e-02 -1.464739e-02 -2.872406e-02 -5.347836e-02 -9.826476e-03 -2.821689e-02 -4.813937e-02 -5.491435e-03 -7.023289e-02 -3.073459e-04 6.959705e-02 2.576667e-04 2.259177e-04 -1.209634e-03 1.600535e-03 2.185632e-03 1.567033e-03 -4.161953e-04 -5.534606e-04 1.172819e-03 1.248687e-03 6.085392e-04 3.053319e-03 -2.923953e-03
<VARIANCE> 39
 1.079720e+02 8.609695e+01 1.186007e+02 9.736990e+01 1.366646e+02 1.250765e+02 1.093256e+02 1.195121e+02 1.342526e+02 8.765693e+01 1.025666e+02 1.015083e+02 3.701543e+02 2.690288e+00 3.801246e+00 3.391224e+00 4.538049e+00 5.187427e+00 4.803195e+00 4.944299e+00 5.591273e+00 5.326587e+00 4.874237e+00 5.141961e+00 4.456569e+00 4.080447e+00 4.041552e-01 6.206470e-01 5.246424e-01 7.762231e-01 8.580139e-01 8.420419e-01 8.821489e-01 9.815351e-01 9.505197e-01 8.941931e-01 9.315668e-01 8.362753e-01 5.459580e-01
<GCONST> 1.495512e+02
<TRANSP> 5
 0.000000e+00 1.000000e+00 0.000000e+00 0.000000e+00 0.000000e+00
 0.000000e+00 6.581575e-01 3.418425e-01 0.000000e+00 0.000000e+00
 0.000000e+00 0.000000e+00 6.581600e-01 3.418400e-01 0.000000e+00
 0.000000e+00 0.000000e+00 0.000000e+00 8.015187e-01 1.984814e-01
 0.000000e+00 0.000000e+00 0.000000e+00 0.000000e+00 0.000000e+00
<ENDHMM>
~h "ng"
<BEGINHMM>
<NUMSTATES> 5
<STATE> 2
<MEAN> 39
 -7.592341e+00 -2.480649e+00 -2.060325e+00 -5.283647e+00 -9.394994e+00 -6.014173e+00 -1.116442e+01 -4.740389e+00 -6.994541e+00 -2.933689e+00 -5.270152e+00 -5.982126e+00 6.863147e+01 1.193831e-02 -1.179818e-02 -1.494983e-03 9.242514e-03 5.267677e-03 -6.389838e-03 4.059108e-03 -5.370652e-03 -6.697614e-03 -1.974011e-02 -4.030626e-02 -5.300960e-03 2.638324e-02 -9.282289e-04 3.270266e-04 1.116942e-03 8.160598e-04 -1.309484e-03 -1.080452e-03 3.277734e-04 6.862421e-04 1.981319e-03 1.077346e-03 4.348985e-03 9.826575e-04 -3.042791e-03
<VARIANCE> 39
 1.114536e+02 9.511848e+01 9.996191e+01 1.041773e+02 1.262467e+02 1.116442e+02 1.150640e+02 1.246920e+02 1.434433e+02 9.590534e+01 1.383597e+02 1.136207e+02 2.926901e+02 3.295312e+00 4.088365e+00 4.040746e+00 5.397494e+00 6.026874e+00 5.630858e+00 5.830511e+00 7.326548e+00 5.759012e+00 5.532361e+00 6.198825e+00 5.186555e+00 4.100981e+00 4.966772e-01 6.486100e-01 6.486887e-01 9.219677e-01 1.032425e+00 1.005674e+00 1.070826e+00 1.313836e+00 1.048734e+00 1.029009e+00 1.108731e+00 9.588574e-01 5.796096e-01
<GCONST> 1.538221e+02
<STATE> 3
<MEAN> 39
 -7.549502e+00 -2.504333e+00 -2.051369e+00 -5.258786e+00 -9.394413e+00 -6.043864e+00 -1.116282e+01 -4.762559e+00 -7.022206e+00 -2.982537e+00 -5.372456e+00 -5.999337e+00 6.871177e+01 1.071671e-02 -1.046211e-02 1.428433e-03 9.997722e-03 1.100039e-03 -8.295736e-03 3.954211e-03 -4.407007e-03 -2.810334e-03 -1.634122e-02 -2.970273e-02 -3.909299e-03 1.907310e-02 -3.070989e-04 -3.735175e-04 1.090774e-03 -5.656219e-04 -6.709205e-04 -2.122110e-04 3.801401e-04 1.154028e-03 1.273167e-03 6.766534e-04 3.849634e-03 4.359759e-04 -2.746823e-03
<VARIANCE> 39
 1.105115e+02 9.510085e+01 9.995320e+01 1.039835e+02 1.262610e+02 1.115076e+02 1.154491e+02 1.251448e+02 1.436707e+02 9.629141e+01 1.393900e+02 1.143316e+02 2.880281e+02 3.294083e+00 4.090253e+00 4.042194e+00 5.394906e+00 6.028085e+00 5.645792e+00 5.846749e+00 7.338303e+00 5.816628e+00 5.563075e+00 6.220281e+00 5.222409e+00 4.108825e+00 4.961799e-01 6.480664e-01 6.497055e-01 9.222304e-01 1.033244e+00 1.007703e+00 1.074602e+00 1.315020e+00 1.060196e+00 1.033406e+00 1.111504e+00 9.643800e-01 5.788608e-01
<GCONST> 1.538848e+02
<STATE> 4
<MEAN> 39
 -7.666709e+00 -2.505561e+00 -2.205823e+00 -5.073699e+00 -9.447997e+00 -5.819438e+00 -1.110139e+01 -4.788014e+00 -7.086602e+00 -3.164024e+00 -5.406674e+00 -5.929040e+00 6.781166e+01 1.327677e-02 -5.913708e-03 4.648161e-03 5.667792e-03 -4.779942e-03 -7.560585e-03 1.441212e-03 -4.234154e-03 -5.264073e-03 -1.290249e-02 -2.152345e-02 -4.986651e-03 1.528984e-02 1.158623e-06 -4.173986e-04 4.629855e-04 -1.476648e-03 4.619052e-04 5.836887e-04 4.282367e-04 1.160752e-03 7.676660e-04 2.727990e-04 2.300523e-03 3.109117e-04 -2.246702e-03
<VARIANCE> 39
 1.151102e+02 9.624181e+01 1.005667e+02 1.044620e+02 1.255792e+02 1.116076e+02 1.163987e+02 1.222152e+02 1.411733e+02 9.418977e+01 1.370318e+02 1.127644e+02 2.973223e+02 3.261369e+00 4.090977e+00 4.007564e+00 5.326118e+00 5.916989e+00 5.599955e+00 5.797257e+00 7.133547e+00 5.808259e+00 5.470624e+00 6.141346e+00 5.128417e+00 4.086079e+00 4.894786e-01 6.496536e-01 6.433548e-01 9.108922e-01 1.014914e+00 9.990337e-01 1.065860e+00 1.281939e+00 1.060319e+00 1.017135e+00 1.099223e+00 9.507963e-01 5.717815e-01
<GCONST> 1.535932e+02
<TRANSP> 5
 0.000000e+00 1.000000e+00 0.000000e+00 0.000000e+00 0.000000e+00
 0.000000e+00 6.242292e-01 3.757708e-01 0.000000e+00 0.000000e+00
 0.000000e+00 0.000000e+00 6.242306e-01 3.757694e-01 0.000000e+00
 0.000000e+00 0.000000e+00 0.000000e+00 7.404140e-01 2.595861e-01
 0.000000e+00 0.000000e+00 0.000000e+00 0.000000e+00 0.000000e+00
<ENDHMM>
~h "ny"
<BEGINHMM>
<NUMSTATES> 5
<STATE> 2
<MEAN> 39
 -7.241093e+00 -3.557174e+00 -1.161032e+00 -5.788655e+00 -1.007418e+01 -6.977256e+00 -1.025844e+01 -3.445645e+00 -7.316670e+00 -4.168552e+00 -5.090202e+00 -5.766356e+00 7.053633e+01 -2.774905e-03 -2.593745e-02 7.961845e-03 -1.926078e-04 1.669030e-02 2.452339e-02 4.143630e-02 2.167052e-02 2.491731e-02 -4.324884e-02 -6.557193e-03 4.416336e-03 8.834153e-04 -6.221356e-04 1.721206e-03 -2.877627e-03 1.656049e-03 1.629961e-03 2.140706e-03 -2.945931e-03 2.399591e-04 4.054845e-04 2.884749e-03 -8.977151e-04 -8.584963e-04 -4.981303e-03
<VARIANCE> 39
 9.368710e+01 9.642707e+01 9.892916e+01 1.037255e+02 1.272646e+02 1.133816e+02 1.264338e+02 1.317184e+02 1.460168e+02 1.017388e+02 1.430869e+02 1.259002e+02 2.539829e+02 3.221828e+00 4.486127e+00 4.084968e+00 5.489743e+00 6.060408e+00 5.378970e+00 6.037804e+00 6.927168e+00 5.932375e+00 5.709856e+00 5.912524e+00 5.370444e+00 4.702226e+00 5.111293e-01 7.115021e-01 6.665849e-01 9.699922e-01 1.057196e+00 9.750001e-01 1.103907e+00 1.257113e+00 1.069029e+00 1.065137e+00 1.077469e+00 9.893983e-01 6.698662e-01
<GCONST> 1.544929e+02
<STATE> 3
<MEAN> 39
 -7.231475e+00 -3.634150e+00 -1.130731e+00 -5.789799e+00 -1.002394e+01 -6.919769e+00 -1.015440e+01 -3.388529e+00 -7.267772e+00 -4.298606e+00 -5.140531e+00 -5.753133e+00 7.056142e+01 -4.857032e-03 -1.982654e-02 1.690256e-04 5.911334e-03 2.291955e-02 2.876497e-02 3.265771e-02 2.291993e-02 2.546141e-02 -3.565545e-02 -7.752494e-03 1.781888e-03 -1.428993e-02 -7.133494e-04 2.843813e-03 -3.589660e-03 2.230884e-03 2.855356e-03 9.892588e-04 -4.094404e-03 -5.577262e-04 -1.034657e-03 4.150823e-03 4.097577e-04 -1.261205e-03 -4.754667e-03
<VARIANCE> 39
 9.290800e+01 9.621770e+01 9.845187e+01 1.040336e+02 1.277794e+02 1.131393e+02 1.265780e+02 1.310877e+02 1.473057e+02 1.030770e+02 1.435456e+02 1.264969e+02 2.521855e+02 3.221909e+00 4.493559e+00 4.076657e+00 5.458514e+00 6.062353e+00 5.404078e+00 6.053821e+00 6.888482e+00 5.942059e+00 5.726460e+00 5.940501e+00 5.320484e+00 4.680607e+00 5.137049e-01 7.146571e-01 6.634172e-01 9.647658e-01 1.059161e+00 9.819534e-01 1.111445e+00 1.251905e+00 1.070364e+00 1.067579e+00 1.083977e+00 9.832081e-01 6.673082e-01
<GCONST> 1.545031e+02
<STATE> 4
<MEAN> 39
 -7.022749e+00 -4.013295e+00 -1.316301e+00 -5.763081e+00 -9.751456e+00 -6.416570e+00 -1.012870e+01 -3.247476e+00 -7.202010e+00 -4.752229e+00 -5.460896e+00 -5.643699e+00 7.000800e+01 -1.209855e-02 -4.878915e-03 -9.233234e-03 1.929730e-02 3.499040e-02 2.503888e-02 2.111658e-02 2.214092e-02 2.082985e-02 -2.747538e-02 -1.011356e-02 4.951190e-05 -3.948058e-02 -1.856606e-03 4.709005e-03 -3.511231e-03 2.554211e-03 2.855352e-03 -8.923955e-04 -4.265802e-03 -1.345229e-03 -1.618910e-03 5.157680e-03 2.569052e-03 -9.688619e-04 -5.285086e-03
<VARIANCE> 39
 9.721678e+01 1.004059e+02 1.005003e+02 1.059482e+02 1.314420e+02 1.151064e+02 1.249891e+02 1.288138e+02 1.478299e+02 1.052359e+02 1.425927e+02 1.301590e+02 2.549650e+02 3.192824e+00 4.525188e+00 4.096810e+00 5.393404e+00 5.911346e+00 5.314770e+00 5.927791e+00 6.680344e+00 5.867243e+00 5.564198e+00 5.843527e+00 5.177663e+00 4.613901e+00 5.055643e-01 7.140995e-01 6.576152e-01 9.500237e-01 1.026468e+00 9.647436e-01 1.090008e+00 1.216165e+00 1.055509e+00 1.033239e+00 1.066505e+00 9.597766e-01 6.474521e-01
<GCONST> 1.542445e+02
<TRANSP> 5
 0.000000e+00 1.000000e+00 0.000000e+00 0.000000e+00 0.000000e+00
 0.000000e+00 6.364048e-01 3.635952e-01 0.000000e+00 0.000000e+00
 0.000000e+00 0.000000e+00 6.364037e-01 3.635964e-01 0.000000e+00
 0.000000e+00 0.000000e+00 0.000000e+00 7.625860e-01 2.374140e-01
 0.000000e+00 0.000000e+00 0.000000e+00 0.000000e+00 0.000000e+00
<ENDHMM>
~h "sy"
<BEGINHMM>
<NUMSTATES> 5
<STATE> 2
<MEAN> 39
 -1.528584e+01 3.021058e+00 1.830264e+00 -2.215385e-02 -7.840414e+00 -5.613287e+00 -6.882379e+00 -3.580042e+00 -5.772804e+00 -3.708632e+00 -9.447837e-02 -4.679005e+00 5.796937e+01 5.626871e-02 -9.918554e-02 -3.288174e-01 1.208447e-01 2.789699e-01 -7.691295e-02 2.232740e-01 8.486451e-02 3.441826e-01 -6.167004e-02 -1.994091e-01 8.401880e-02 -1.014348e-01 -1.134427e-02 -2.345209e-03 -6.315550e-03 -8.681470e-03 3.711224e-03 4.692288e-03 -3.835047e-04 2.401986e-02 -1.354472e-03 1.575371e-02 -1.307689e-02 1.046263e-02 4.703255e-03
<VARIANCE> 39
 6.483131e+01 6.255853e+01 1.341003e+02 7.486994e+01 1.067594e+02 7.941585e+01 1.004218e+02 9.387029e+01 1.014521e+02 7.421467e+01 6.864898e+01 6.045959e+01 3.079268e+02 2.936611e+00 1.646168e+00 2.035856e+00 2.389493e+00 3.954059e+00 3.883643e+00 5.080796e+00 3.753438e+00 4.053793e+00 4.281152e+00 3.103152e+00 2.798564e+00 2.198215e+00 3.960708e-01 2.343736e-01 3.142321e-01 3.600698e-01 5.324702e-01 7.386200e-01 8.527104e-01 6.836821e-01 7.415442e-01 7.320319e-01 4.837019e-01 4.695582e-01 2.245668e-01
<GCONST> 1.354081e+02
<STATE> 3
<MEAN> 39
 -1.520086e+01 2.703571e+00 8.337922e-01 4.068646e-01 -6.944345e+00 -5.673962e+00 -6.133428e+00 -3.253326e+00 -4.739165e+00 -3.840880e+00 -6.474054e-01 -4.389778e+00 5.746519e+01 1.282863e-02 -1.055376e-01 -3.407176e-01 9.577993e-02 2.778802e-01 -5.141348e-02 2.094476e-01 1.497720e-01 3.200050e-01 -1.037191e-02 -2.190413e-01 1.237809e-01 -9.058974e-02 -1.014275e-02 -1.432733e-03 3.329151e-03 -1.346876e-02 -9.491433e-03 1.154396e-02 -1.046422e-02 1.426790e-02 -1.801478e-02 1.783030e-02 -6.292854e-04 1.097865e-02 6.367696e-03
<VARIANCE> 39
 6.610471e+01 6.276323e+01 1.144988e+02 7.216281e+01 9.137168e+01 7.859410e+01 1.000493e+02 9.266808e+01 9.284158e+01 6.696889e+01 6.014391e+01 5.962045e+01 2.904860e+02 3.124919e+00 1.784549e+00 1.820928e+00 2.391730e+00 3.688028e+00 3.613958e+00 5.447246e+00 3.722505e+00 3.882088e+00 4.031745e+00 3.168679e+00 2.806733e+00 2.317295e+00 4.197077e-01 2.559274e-01 2.893175e-01 3.696432e-01 5.148945e-01 6.774844e-01 9.197603e-01 6.762304e-01 7.215415e-01 7.063065e-01 5.108012e-01 4.534255e-01 2.321386e-01
<GCONST> 1.346066e+02
<STATE> 4
<MEAN> 39
 -1.542602e+01 2.471271e+00 -1.427305e-01 8.704591e-01 -6.184295e+00 -5.424962e+00 -5.575945e+00 -3.024453e+00 -4.122305e+00 -4.057227e+00 -1.510212e+00 -4.053910e+00 5.590364e+01 -3.495187e-02 -1.192950e-01 -3.377217e-01 7.799684e-02 2.378515e-01 1.549685e-02 1.765817e-01 1.833089e-01 2.594721e-01 5.299200e-02 -1.871739e-01 1.724665e-01 -1.149520e-01 -6.736434e-03 1.659413e-03 1.127100e-02 -1.665056e-02 -2.065954e-02 1.285571e-02 -2.048514e-02 -2.746076e-03 -2.828099e-02 1.448108e-02 1.265920e-02 1.094253e-02 1.006544e-02
<VARIANCE> 39
 6.789943e+01 6.066831e+01 9.674607e+01 6.770661e+01 7.306746e+01 7.594469e+01 9.473312e+01 8.725474e+01 8.203246e+01 6.112936e+01 5.131036e+01 5.786333e+01 2.829815e+02 2.986680e+00 1.801381e+00 1.623752e+00 2.274052e+00 3.319511e+00 3.117810e+00 5.449016e+00 3.741977e+00 3.648203e+00 3.816437e+00 3.131819e+00 2.770794e+00 2.158557e+00 3.996271e-01 2.613649e-01 2.623096e-01 3.697105e-01 4.942293e-01 5.849064e-01 9.367344e-01 6.755765e-01 6.906201e-01 6.740441e-01 5.214263e-01 4.428943e-01 2.117324e-01
<GCONST> 1.324218e+02
<TRANSP> 5
 0.000000e+00 1.000000e+00 0.000000e+00 0.000000e+00 0.000000e+00
 0.000000e+00 6.378242e-01 3.621759e-01 0.000000e+00 0.000000e+00
 0.000000e+00 0.000000e+00 6.378240e-01 3.621760e-01 0.000000e+00
 0.000000e+00 0.000000e+00 0.000000e+00 7.522879e-01 2.477121e-01
 0.000000e+00 0.000000e+00 0.000000e+00 0.000000e+00 0.000000e+00
<ENDHMM>
~h "sil"
<BEGINHMM>
<NUMSTATES> 5
<STATE> 2
<MEAN> 39
 -1.805567e+01 2.592252e+00 -4.815096e+00 2.678902e+00 -5.283500e+00 1.022780e+00 -4.422646e+00 -1.452186e+00 -1.624858e+00 -2.615340e+00 -1.714771e+00 -1.602556e+00 4.408636e+01 1.618907e-01 -9.477820e-02 -1.909851e-01 2.100042e-02 1.164206e-01 -1.817741e-01 -2.274341e-01 -8.919354e-02 -6.029637e-02 4.833522e-02 2.975519e-02 4.702894e-02 5.738337e-01 5.427808e-02 -2.528461e-02 5.249652e-02 -8.222846e-03 -1.184682e-03 -4.665543e-02 1.806904e-03 1.909183e-02 -3.447535e-02 -1.530319e-02 -4.689217e-02 -7.444326e-03 2.086304e-01
<VARIANCE> 39
