~o
<STREAMINFO> 1 39
<VECSIZE> 39<NULLD><MFCC_D_A_0><DIAGC>
~h "a"
<BEGINHMM>
<NUMSTATES> 5
<STATE> 2
<MEAN> 39
 -8.850367e+00 -3.067783e+00 -2.213415e+00 -5.380448e+00 -8.589272e+00 -6.758378e+00 -1.027387e+01 -3.186498e+00 -5.808199e+00 -2.645549e+00 -4.907039e+00 -5.555373e+00 6.827302e+01 1.726781e-02 -1.121641e-02 1.868446e-03 -1.381169e-02 1.262803e-02 -7.484199e-03 -3.043835e-03 -1.073542e-02 -2.367293e-03 -1.100894e-02 -2.447302e-02 -1.232571e-02 3.866754e-02 -2.104485e-03 3.457428e-03 7.874785e-04 2.649029e-03 -1.639200e-03 1.835386e-03 -1.733645e-04 -2.101433e-03 -1.448219e-03 7.734399e-04 2.748032e-03 6.153551e-04 -6.594054e-03
<VARIANCE> 39
 1.067722e+02 9.160609e+01 9.942653e+01 1.104260e+02 1.283940e+02 1.184151e+02 1.176216e+02 1.221917e+02 1.407951e+02 9.315257e+01 1.312091e+02 1.169392e+02 3.208549e+02 3.294042e+00 3.955980e+00 3.768589e+00 5.063479e+00 5.672115e+00 5.359673e+00 5.624047e+00 6.460799e+00 5.480582e+00 5.428236e+00 5.739962e+00 5.096394e+00 4.364878e+00 5.101100e-01 6.214964e-01 6.085798e-01 8.660616e-01 9.709190e-01 9.662259e-01 1.032964e+00 1.157435e+00 9.974321e-01 1.009874e+00 1.036838e+00 9.338295e-01 6.063758e-01
<GCONST> 1.528286e+02
<STATE> 3
<MEAN> 39
 -8.805948e+00 -3.090905e+00 -2.211372e+00 -5.417042e+00 -8.551483e+00 -6.776394e+00 -1.028113e+01 -3.229117e+00 -5.820432e+00 -2.680530e+00 -4.979473e+00 -5.584313e+00 6.836674e+01 1.202785e-02 -2.323790e-03 3.400960e-03 -6.983309e-03 8.196570e-03 -3.714995e-03 -3.721369e-03 -1.570698e-02 -6.145271e-03 -8.479164e-03 -1.736566e-02 -1.022979e-02 2.385491e-02 -1.760171e-03 3.175859e-03 6.580171e-04 2.374100e-03 -1.619045e-03 1.099592e-03 -1.544066e-04 -1.791183e-03 -1.506850e-03 8.168205e-04 2.263190e-03 9.750323e-04 -4.338996e-03
<VARIANCE> 39
 1.060196e+02 9.181371e+01 9.954043e+01 1.105028e+02 1.289384e+02 1.181621e+02 1.175166e+02 1.220626e+02 1.408456e+02 9.357973e+01 1.317696e+02 1.169808e+02 3.167364e+02 3.289216e+00 3.970365e+00 3.769184e+00 5.071587e+00 5.671867e+00 5.361713e+00 5.631817e+00 6.463708e+00 5.489785e+00 5.437962e+00 5.753347e+00 5.097967e+00 4.332467e+00 5.088094e-01 6.234774e-01 6.085861e-01 8.669857e-01 9.713193e-01 9.670721e-01 1.035083e+00 1.158508e+00 9.997757e-01 1.011715e+00 1.038160e+00 9.340993e-01 6.010035e-01
<GCONST> 1.528300e+02
<STATE> 4
<MEAN> 39
 -8.610845e+00 -3.293472e+00 -2.368222e+00 -5.184306e+00 -8.781809e+00 -6.207246e+00 -1.051041e+01 -3.362610e+00 -6.003229e+00 -3.013797e+00 -4.885746e+00 -5.712534e+00 6.714028e+01 5.870565e-03 6.867690e-03 2.274963e-03 -4.570000e-04 5.055378e-03 -1.761148e-03 -3.301136e-03 -2.084289e-02 -9.246543e-03 -6.477714e-03 -1.064875e-02 -4.924794e-03 1.077776e-02 -1.385342e-03 2.419977e-03 2.878266e-04 1.972114e-03 -1.607147e-03 7.714111e-04 -2.827867e-04 -1.380596e-03 -1.121459e-03 6.754566e-04 2.031798e-03 1.179582e-03 -2.769082e-03
<VARIANCE> 39
 1.156997e+02 9.777396e+01 1.052735e+02 1.122139e+02 1.320634e+02 1.183306e+02 1.183960e+02 1.170303e+02 1.360017e+02 9.114436e+01 1.277699e+02 1.142551e+02 3.212607e+02 3.396130e+00 4.246995e+00 3.888543e+00 5.145717e+00 5.643960e+00 5.291134e+00 5.552163e+00 6.309615e+00 5.523793e+00 5.310459e+00 5.640486e+00 4.917404e+00 4.400387e+00 5.153422e-01 6.709541e-01 6.182982e-01 8.814550e-01 9.646691e-01 9.503843e-01 1.016650e+00 1.134115e+00 1.001313e+00 9.861913e-01 1.019904e+00 9.026259e-01 6.026297e-01
<GCONST> 1.529530e+02
<TRANSP> 5
 0.000000e+00 1.000000e+00 0.000000e+00 0.000000e+00 0.000000e+00
 0.000000e+00 6.353717e-01 3.646283e-01 0.000000e+00 0.000000e+00
 0.000000e+00 0.000000e+00 6.353821e-01 3.646179e-01 0.000000e+00
 0.000000e+00 0.000000e+00 0.000000e+00 7.769603e-01 2.230397e-01
 0.000000e+00 0.000000e+00 0.000000e+00 0.000000e+00 0.000000e+00
<ENDHMM>
~h "b"
<BEGINHMM>
<NUMSTATES> 5
<STATE> 2
<MEAN> 39
 -8.763865e+00 -1.678697e+00 -1.732604e+00 -4.973199e+00 -9.790215e+00 -6.517498e+00 -1.124863e+01 -4.423469e+00 -6.505885e+00 -2.181243e+00 -3.823895e+00 -5.115475e+00 6.718854e+01 2.335338e-02 8.426135e-03 5.418534e-03 -8.011895e-03 -2.372216e-03 -2.599983e-02 -2.484655e-02 -2.737325e-02 -2.361692e-02 -9.110194e-03 -2.133229e-02 4.902529e-05 7.586443e-02 -5.220763e-03 2.538210e-03 -6.202909e-04 2.570211e-03 9.831998e-04 5.055218e-03 3.502821e-03 1.669271e-03 2.126825e-03 -1.497108e-05 5.064876e-04 1.105574e-03 -1.132303e-02
<VARIANCE> 39
 1.149878e+02 8.853040e+01 9.817088e+01 1.112802e+02 1.147011e+02 1.166017e+02 1.229917e+02 1.177818e+02 1.386686e+02 9.059589e+01 1.257682e+02 1.022172e+02 3.266891e+02 3.497355e+00 3.905064e+00 3.897321e+00 5.508576e+00 5.851786e+00 5.619956e+00 6.191166e+00 6.820866e+00 5.765400e+00 5.558115e+00 5.955361e+00 5.128509e+00 4.447050e+00 5.347874e-01 6.243563e-01 6.444498e-01 9.510152e-01 1.023272e+00 1.009559e+00 1.148127e+00 1.238006e+00 1.048985e+00 1.043329e+00 1.100609e+00 9.642113e-01 6.469710e-01
<GCONST> 1.537826e+02
<STATE> 3
<MEAN> 39
 -8.698816e+00 -1.667170e+00 -1.719757e+00 -5.006812e+00 -9.805415e+00 -6.577538e+00 -1.131243e+01 -4.486019e+00 -6.564199e+00 -2.199160e+00 -3.890196e+00 -5.139553e+00 6.741698e+01 1.662355e-02 1.125657e-02 4.076618e-03 -4.561012e-03 -2.647484e-03 -1.633761e-02 -2.318138e-02 -2.241701e-02 -2.221711e-02 -7.752364e-03 -1.930574e-02 -1.407161e-04 6.174052e-02 -2.287887e-03 4.250466e-04 -3.877084e-05 3.451938e-04 -2.055472e-04 2.814055e-03 -5.077221e-05 2.780103e-03 1.074784e-03 5.258510e-04 8.292450e-04 8.533231e-05 -3.252584e-03
<VARIANCE> 39
 1.149147e+02 8.886134e+01 9.854233e+01 1.107168e+02 1.154691e+02 1.150953e+02 1.239702e+02 1.174419e+02 1.394814e+02 9.091348e+01 1.264579e+02 1.021269e+02 3.192280e+02 3.515618e+00 3.940697e+00 3.937234e+00 5.561484e+00 5.891696e+00 5.618878e+00 6.223335e+00 6.829087e+00 5.801249e+00 5.592674e+00 6.015260e+00 5.166358e+00 4.375445e+00 5.355805e-01 6.303741e-01 6.514289e-01 9.609819e-01 1.030498e+00 1.012149e+00 1.153827e+00 1.239769e+00 1.057280e+00 1.049449e+00 1.110395e+00 9.710754e-01 6.349879e-01
<GCONST> 1.538937e+02
<STATE> 4
<MEAN> 39
 -9.146166e+00 -1.707055e+00 -2.078499e+00 -4.378710e+00 -9.949577e+00 -5.808389e+00 -1.120994e+01 -4.361422e+00 -6.456850e+00 -2.441290e+00 -3.762373e+00 -5.271808e+00 6.525471e+01 3.246524e-02 -1.258762e-03 8.880773e-03 -1.310682e-02 -1.452103e-02 -1.705297e-02 -3.472477e-02 -1.725729e-02 -2.392986e-02 -3.909544e-03 -1.637639e-02 -8.747477e-03 7.997556e-02 3.750444e-04 -1.417406e-03 1.108281e-04 -1.208772e-03 -1.308167e-03 7.344856e-04 -1.810933e-03 1.911345e-03 5.975295e-04 7.797470e-04 9.678941e-04 -8.831816e-04 3.803666e-04
<VARIANCE> 39
 1.266554e+02 9.246402e+01 1.027431e+02 1.084064e+02 1.168663e+02 1.125430e+02 1.211294e+02 1.103571e+02 1.320145e+02 8.614918e+01 1.180019e+02 9.664400e+01 3.447104e+02 3.545014e+00 4.101346e+00 3.980190e+00 5.384777e+00 5.752686e+00 5.423084e+00 5.955075e+00 6.457109e+00 5.694991e+00 5.376805e+00 5.780112e+00 4.917295e+00 4.339234e+00 5.316378e-01 6.597143e-01 6.533858e-01 9.352743e-01 1.007220e+00 9.760771e-01 1.096287e+00 1.173340e+00 1.040451e+00 1.009247e+00 1.069757e+00 9.232770e-01 6.211301e-01
<GCONST> 1.531949e+02
<TRANSP> 5
 0.000000e+00 1.000000e+00 0.000000e+00 0.000000e+00 0.000000e+00
 0.000000e+00 6.222204e-01 3.777796e-01 0.000000e+00 0.000000e+00
 0.000000e+00 0.000000e+00 6.222228e-01 3.777772e-01 0.000000e+00
 0.000000e+00 0.000000e+00 0.000000e+00 7.631687e-01 2.368313e-01
 0.000000e+00 0.000000e+00 0.000000e+00 0.000000e+00 0.000000e+00
<ENDHMM>
~h "c"
<BEGINHMM>
<NUMSTATES> 5
<STATE> 2
<MEAN> 39
 -1.009466e+01 -1.390531e+00 -1.640814e+00 -4.739400e+00 -9.023625e+00 -7.216938e+00 -9.652039e+00 -3.757526e+00 -5.598295e+00 -3.278854e+00 -4.652996e+00 -4.096092e+00 6.710327e+01 -1.236443e-02 -8.623806e-03 2.667386e-02 -1.570624e-04 1.906886e-02 -1.430403e-02 -6.791824e-03 3.329499e-03 2.099987e-02 -4.972229e-04 3.790730e-03 2.834781e-02 3.544685e-02 -1.209120e-03 -1.619904e-03 -5.343837e-03 1.934396e-03 -5.728952e-03 3.033185e-03 -2.190695e-03 -1.214832e-03 2.033820e-04 1.649053e-03 5.142864e-03 -8.465688e-03 -1.288645e-02
<VARIANCE> 39
 1.143867e+02 8.410759e+01 9.706068e+01 9.913573e+01 1.167987e+02 1.303705e+02 1.246561e+02 1.173136e+02 1.398196e+02 8.823798e+01 1.201493e+02 1.036710e+02 3.373182e+02 4.654437e+00 4.011281e+00 3.823067e+00 4.798957e+00 5.825276e+00 5.458612e+00 5.337617e+00 6.426713e+00 5.479467e+00 5.136094e+00 5.640790e+00 4.899870e+00 4.376073e+00 8.001586e-01 6.331654e-01 6.392860e-01 8.462576e-01 1.019586e+00 9.829009e-01 9.705711e-01 1.186996e+00 1.016036e+00 9.813262e-01 1.031970e+00 9.166915e-01 6.491419e-01
<GCONST> 1.532359e+02
<STATE> 3
<MEAN> 39
 -1.015142e+01 -1.441129e+00 -1.584197e+00 -4.761786e+00 -8.993766e+00 -7.257218e+00 -9.672129e+00 -3.735054e+00 -5.536048e+00 -3.276673e+00 -4.651938e+00 -4.066283e+00 6.719627e+01 -1.008176e-02 -1.800417e-02 1.110257e-02 5.101690e-03 9.250902e-03 -6.980929e-03 -1.229411e-02 2.660043e-03 1.758176e-02 5.829150e-03 1.396070e-02 8.003836e-03 1.789929e-02 1.408650e-04 -2.877712e-03 -5.657391e-03 2.755185e-03 -2.887024e-03 4.258696e-03 -1.219919e-03 -1.401448e-04 -3.679301e-03 9.642248e-04 3.329088e-03 -9.709322e-03 -6.444024e-03
<VARIANCE> 39
 1.131781e+02 8.417358e+01 9.817260e+01 9.856480e+01 1.172541e+02 1.304127e+02 1.236657e+02 1.152708e+02 1.417912e+02 8.839024e+01 1.214896e+02 1.047778e+02 3.333423e+02 4.634086e+00 4.005368e+00 3.790902e+00 4.808301e+00 5.787456e+00 5.545719e+00 5.291265e+00 6.452086e+00 5.546109e+00 5.121408e+00 5.669773e+00 4.934474e+00 4.269543e+00 7.991635e-01 6.363023e-01 6.328697e-01 8.478743e-01 1.015443e+00 1.002969e+00 9.675974e-01 1.192102e+00 1.024878e+00 9.815147e-01 1.035311e+00 9.241072e-01 6.324461e-01
<GCONST> 1.532318e+02
<STATE> 4
<MEAN> 39
 -1.009312e+01 -1.653766e+00 -1.592624e+00 -4.609212e+00 -9.483168e+00 -6.761541e+00 -1.007853e+01 -3.839188e+00 -5.802684e+00 -3.308620e+00 -4.619746e+00 -4.230696e+00 6.618091e+01 -4.558176e-03 -3.392903e-02 1.375707e-03 1.884839e-03 2.761759e-03 -6.424602e-03 -1.571515e-02 1.264886e-02 4.501026e-03 6.437959e-03 8.951324e-03 -1.226041e-02 2.231549e-02 2.788266e-04 -1.485081e-03 -3.033309e-03 1.926785e-03 -8.334951e-04 2.650654e-03 -1.188667e-04 1.552454e-03 -6.176260e-03 -1.440629e-03 -2.792748e-04 -6.517126e-03 -2.257162e-03
<VARIANCE> 39
 1.212876e+02 9.001166e+01 1.067691e+02 9.710818e+01 1.192561e+02 1.310962e+02 1.217143e+02 1.098035e+02 1.414837e+02 8.721864e+01 1.181432e+02 1.048838e+02 3.412163e+02 4.723095e+00 4.184674e+00 3.845123e+00 4.815798e+00 5.661359e+00 5.608551e+00 5.175275e+00 6.384741e+00 5.585055e+00 5.026507e+00 5.602682e+00 4.941009e+00 4.296043e+00 8.038024e-01 6.701848e-01 6.337285e-01 8.507130e-01 9.897875e-01 1.020549e+00 9.524951e-01 1.179033e+00 1.019434e+00 9.647942e-01 1.022468e+00 9.248169e-01 6.278493e-01
<GCONST> 1.533806e+02
<TRANSP> 5
 0.000000e+00 1.000000e+00 0.000000e+00 0.000000e+00 0.000000e+00
 0.000000e+00 6.289227e-01 3.710773e-01 0.000000e+00 0.000000e+00
 0.000000e+00 0.000000e+00 6.289228e-01 3.710772e-01 0.000000e+00
 0.000000e+00 0.000000e+00 0.000000e+00 7.565687e-01 2.434313e-01
 0.000000e+00 0.000000e+00 0.000000e+00 0.000000e+00 0.000000e+00
<ENDHMM>
~h "d"
<BEGINHMM>
<NUMSTATES> 5
<STATE> 2
<MEAN> 39
 -8.596548e+00 -2.265049e+00 -4.954983e-01 -4.848547e+00 -1.081860e+01 -7.684235e+00 -1.140684e+01 -3.357667e+00 -6.839296e+00 -2.675946e+00 -3.734019e+00 -4.879237e+00 6.876345e+01 2.530966e-02 -1.815179e-02 4.494503e-02 -2.496504e-02 -4.465220e-02 -7.936917e-02 -2.716445e-02 -3.650934e-03 -3.476341e-02 -1.159810e-02 -2.911303e-02 7.290437e-04 1.252211e-01 -4.124617e-03 -9.560030e-04 -4.259200e-03 -3.573294e-04 1.327692e-03 3.533980e-03 2.596670e-03 2.437641e-03 3.068093e-03 1.080451e-03 1.460887e-03 -1.896936e-03 -9.969449e-03
<VARIANCE> 39
 1.066960e+02 8.960878e+01 1.151199e+02 1.040505e+02 1.341563e+02 1.241781e+02 1.250421e+02 1.257352e+02 1.508376e+02 9.234174e+01 1.333642e+02 1.108120e+02 3.064402e+02 3.394984e+00 4.095195e+00 4.165160e+00 5.194390e+00 6.720498e+00 5.851858e+00 6.073073e+00 6.958199e+00 5.981408e+00 5.714592e+00 6.160024e+00 5.248136e+00 4.758951e+00 5.311239e-01 6.674265e-01 6.651899e-01 9.008163e-01 1.171535e+00 1.060563e+00 1.118712e+00 1.249958e+00 1.086597e+00 1.079403e+00 1.123450e+00 9.772405e-01 6.974072e-01
<GCONST> 1.550702e+02
<STATE> 3
<MEAN> 39
 -8.526906e+00 -2.321594e+00 -3.873732e-01 -4.934660e+00 -1.093746e+01 -7.881629e+00 -1.147586e+01 -3.361447e+00 -6.923601e+00 -2.709007e+00 -3.793628e+00 -4.887264e+00 6.909328e+01 1.937407e-02 -2.139456e-02 3.470107e-02 -2.553132e-02 -4.063819e-02 -7.049701e-02 -2.211502e-02 2.071296e-03 -2.655421e-02 -9.415476e-03 -2.606285e-02 -2.800369e-03 1.079858e-01 -1.800511e-03 -1.035728e-03 -3.996727e-03 2.313104e-04 2.420317e-03 4.066804e-03 2.295181e-03 1.682781e-03 3.164819e-03 6.902250e-04 1.165506e-03 -1.352606e-03 -6.214983e-03
<VARIANCE> 39
 1.058293e+02 9.000223e+01 1.157810e+02 1.041086e+02 1.356088e+02 1.253044e+02 1.257398e+02 1.274214e+02 1.524943e+02 9.290835e+01 1.342304e+02 1.120036e+02 3.009185e+02 3.391888e+00 4.112389e+00 4.177823e+00 5.224729e+00 6.782205e+00 5.904917e+00 6.100895e+00 7.001345e+00 6.002607e+00 5.723779e+00 6.190569e+00 5.286328e+00 4.677940e+00 5.290481e-01 6.696281e-01 6.651211e-01 9.061886e-01 1.182163e+00 1.067361e+00 1.124254e+00 1.256386e+00 1.088945e+00 1.081619e+00 1.129557e+00 9.830520e-01 6.862242e-01
<GCONST> 1.551987e+02
<STATE> 4
<MEAN> 39
 -8.237505e+00 -2.725183e+00 -5.006641e-01 -5.062984e+00 -1.096966e+01 -7.577662e+00 -1.164399e+01 -3.327694e+00 -7.008469e+00 -3.005347e+00 -3.772572e+00 -5.066962e+00 6.888544e+01 1.513733e-02 -2.019200e-02 2.926020e-02 -2.750351e-02 -2.911066e-02 -5.232736e-02 -1.869894e-02 4.240384e-03 -1.572740e-02 -7.497786e-03 -1.723527e-02 -5.438597e-03 9.143797e-02 -1.272970e-03 -2.709730e-05 -2.463010e-03 6.930068e-04 3.543250e-03 4.771698e-03 1.865974e-03 -1.054408e-04 2.739777e-03 8.210082e-04 8.399773e-04 -4.439834e-04 -5.029315e-03
<VARIANCE> 39
 1.115192e+02 9.483378e+01 1.187258e+02 1.057045e+02 1.403788e+02 1.284193e+02 1.286098e+02 1.272452e+02 1.506130e+02 9.195684e+01 1.328517e+02 1.142926e+02 2.952531e+02 3.483458e+00 4.297459e+00 4.251994e+00 5.346864e+00 6.722265e+00 5.873248e+00 6.073441e+00 6.890369e+00 6.026713e+00 5.633698e+00 6.140327e+00 5.197012e+00 4.732010e+00 5.327159e-01 6.974955e-01 6.712489e-01 9.307373e-01 1.164984e+00 1.054617e+00 1.116524e+00 1.237994e+00 1.081352e+00 1.060783e+00 1.118670e+00 9.633399e-01 6.811381e-01
<GCONST> 1.554147e+02
<TRANSP> 5
 0.000000e+00 1.000000e+00 0.000000e+00 0.000000e+00 0.000000e+00
 0.000000e+00 6.188579e-01 3.811421e-01 0.000000e+00 0.000000e+00
 0.000000e+00 0.000000e+00 6.188588e-01 3.811412e-01 0.000000e+00
 0.000000e+00 0.000000e+00 0.000000e+00 7.502945e-01 2.497055e-01
 0.000000e+00 0.000000e+00 0.000000e+00 0.000000e+00 0.000000e+00
<ENDHMM>
~h "e"
<BEGINHMM>
<NUMSTATES> 5
<STATE> 2
<MEAN> 39
 -8.645768e+00 -1.933882e+00 -1.968556e+00 -5.099084e+00 -9.457613e+00 -6.907085e+00 -1.146704e+01 -4.403201e+00 -6.206893e+00 -2.195773e+00 -4.170225e+00 -5.507475e+00 6.850317e+01 3.470216e-02 -1.483585e-02 -1.838494e-03 -3.042723e-02 -8.880539e-03 -2.029377e-02 -3.970236e-02 -2.323106e-02 -1.213285e-02 -4.525330e-03 -3.083537e-02 -2.040536e-02 8.694009e-02 -4.274061e-04 9.130041e-05 -7.272998e-04 -4.085206e-04 1.407911e-03 2.877269e-03 2.797535e-03 1.618812e-03 -1.135946e-04 1.021356e-03 1.746186e-05 -2.135623e-04 -2.152983e-03
<VARIANCE> 39
 1.166432e+02 8.904755e+01 9.868939e+01 1.102762e+02 1.221409e+02 1.171372e+02 1.175147e+02 1.212759e+02 1.493865e+02 9.771395e+01 1.281812e+02 1.068584e+02 2.995675e+02 3.893859e+00 4.194930e+00 4.091940e+00 5.817607e+00 6.082521e+00 5.918211e+00 6.228072e+00 7.261945e+00 5.951952e+00 5.815342e+00 6.149727e+00 5.358068e+00 4.653894e+00 5.934103e-01 6.843522e-01 6.750493e-01 1.016204e+00 1.059090e+00 1.078920e+00 1.155168e+00 1.322717e+00 1.087766e+00 1.084124e+00 1.125336e+00 1.005727e+00 6.996824e-01
<GCONST> 1.553156e+02
<STATE> 3
<MEAN> 39
 -8.526535e+00 -1.988248e+00 -1.967440e+00 -5.192915e+00 -9.485006e+00 -6.957628e+00 -1.157975e+01 -4.464314e+00 -6.246251e+00 -2.204347e+00 -4.259877e+00 -5.571847e+00 6.877135e+01 3.219095e-02 -1.314317e-02 -3.496322e-03 -3.089217e-02 -4.939753e-03 -1.629573e-02 -3.258802e-02 -1.972691e-02 -1.282343e-02 -2.667709e-03 -3.040679e-02 -1.916292e-02 8.070814e-02 -9.940066e-04 2.537571e-04 -3.918349e-04 -2.325008e-04 1.414758e-03 1.594708e-03 3.087740e-03 1.784939e-03 -4.709179e-04 1.090482e-03 6.530811e-04 5.154790e-04 -2.160588e-03
<VARIANCE> 39
 1.158296e+02 8.969344e+01 9.896135e+01 1.105333e+02 1.224121e+02 1.166778e+02 1.180749e+02 1.218387e+02 1.499967e+02 9.851359e+01 1.289960e+02 1.069650e+02 2.929298e+02 3.912141e+00 4.221712e+00 4.112981e+00 5.862349e+00 6.086264e+00 5.942252e+00 6.233660e+00 7.279969e+00 5.975539e+00 5.848654e+00 6.179903e+00 5.371223e+00 4.674092e+00 5.959070e-01 6.884874e-01 6.786340e-01 1.022098e+00 1.059304e+00 1.082632e+00 1.155921e+00 1.325456e+00 1.092309e+00 1.088907e+00 1.130222e+00 1.007825e+00 7.022254e-01
<GCONST> 1.554252e+02
<STATE> 4
<MEAN> 39
 -8.175697e+00 -2.395646e+00 -2.078546e+00 -4.989576e+00 -9.896671e+00 -6.378591e+00 -1.175136e+01 -4.488797e+00 -6.291566e+00 -2.491933e+00 -4.161689e+00 -5.782955e+00 6.774213e+01 3.636240e-02 -1.205050e-02 7.631426e-05 -3.144701e-02 -1.470053e-03 -1.707760e-02 -2.650052e-02 -1.670549e-02 -1.532649e-02 -1.537113e-03 -2.677242e-02 -1.457421e-02 8.039827e-02 -1.251138e-03 4.843206e-04 1.246744e-04 2.818035e-04 1.149275e-03 4.726793e-04 2.905492e-03 1.368921e-03 -6.672181e-04 6.618355e-04 1.147395e-03 1.474020e-03 -2.510254e-03
<VARIANCE> 39
 1.243854e+02 9.709219e+01 1.048173e+02 1.122772e+02 1.276162e+02 1.168289e+02 1.190041e+02 1.173675e+02 1.439604e+02 9.673435e+01 1.245063e+02 1.034356e+02 2.968775e+02 3.941288e+00 4.529606e+00 4.153965e+00 5.855226e+00 6.022811e+00 5.862058e+00 6.079322e+00 7.031858e+00 5.940698e+00 5.687113e+00 6.037523e+00 5.129509e+00 4.769610e+00 5.930117e-01 7.383675e-01 6.753560e-01 1.020006e+00 1.046395e+00 1.063518e+00 1.121757e+00 1.278561e+00 1.083645e+00 1.055822e+00 1.103818e+00 9.600514e-01 7.059836e-01
<GCONST> 1.553235e+02
<TRANSP> 5
 0.000000e+00 1.000000e+00 0.000000e+00 0.000000e+00 0.000000e+00
 0.000000e+00 6.181675e-01 3.818325e-01 0.000000e+00 0.000000e+00
 0.000000e+00 0.000000e+00 6.181684e-01 3.818317e-01 0.000000e+00
 0.000000e+00 0.000000e+00 0.000000e+00 7.556685e-01 2.443314e-01
 0.000000e+00 0.000000e+00 0.000000e+00 0.000000e+00 0.000000e+00
<ENDHMM>
~h "f"
<BEGINHMM>
<NUMSTATES> 5
<STATE> 2
<MEAN> 39
 -1.257698e+01 -1.704990e+00 -1.922445e+00 -2.659530e+00 -8.441535e+00 -6.011784e+00 -8.898480e+00 -2.159754e+00 -5.915335e+00 -1.532634e+00 -3.768133e+00 -3.713203e+00 6.396004e+01 -2.094015e-02 -7.750952e-03 3.492482e-02 -8.552901e-03 1.287807e-03 -9.998889e-02 -1.394592e-02 1.980762e-02 -4.868491e-02 -2.583822e-02 1.593908e-02 3.180914e-02 1.960837e-01 7.085744e-04 4.197587e-06 -1.339001e-03 -4.211932e-03 -1.906356e-03 3.509513e-03 -5.860483e-03 -1.150117e-03 6.554180e-04 3.014662e-03 1.485415e-03 1.149527e-04 -9.585792e-03
<VARIANCE> 39
 1.128099e+02 8.335899e+01 8.681171e+01 8.706060e+01 1.349995e+02 1.154540e+02 1.190646e+02 1.001940e+02 1.181768e+02 7.171600e+01 1.038162e+02 8.788096e+01 3.697022e+02 3.868472e+00 3.598922e+00 3.239855e+00 4.221464e+00 5.489327e+00 5.116829e+00 5.437764e+00 5.127940e+00 4.935307e+00 5.046792e+00 5.033156e+00 4.551801e+00 4.362428e+00 6.229668e-01 5.682417e-01 5.307541e-01 7.374647e-01 9.062331e-01 9.331224e-01 1.004064e+00 9.190568e-01 9.485407e-01 9.781908e-01 9.294567e-01 8.251611e-01 5.966838e-01
<GCONST> 1.495249e+02
<STATE> 3
<MEAN> 39
 -1.266131e+01 -1.719237e+00 -1.836518e+00 -2.662744e+00 -8.433267e+00 -6.265803e+00 -8.938909e+00 -2.090970e+00 -6.022971e+00 -1.574545e+00 -3.708955e+00 -3.598693e+00 6.445126e+01 -1.200312e-02 -6.986809e-03 2.940551e-02 -1.862638e-02 -1.186660e-02 -9.467908e-02 -3.480145e-02 1.608653e-02 -5.125491e-02 -1.789750e-02 2.258017e-02 2.723799e-02 1.746365e-01 7.320603e-03 -2.048109e-03 -1.901253e-03 -7.241299e-03 -5.121676e-03 3.759994e-03 -8.768041e-03 -2.004963e-03 -3.199839e-03 2.019336e-03 -7.640041e-04 -3.639591e-03 -4.204095e-03
<VARIANCE> 39
 1.123375e+02 8.362715e+01 8.726012e+01 8.730769e+01 1.363654e+02 1.150903e+02 1.191566e+02 9.885139e+01 1.183809e+02 7.441197e+01 1.026377e+02 8.831490e+01 3.593075e+02 4.036261e+00 3.727214e+00 3.328764e+00 4.302174e+00 5.577831e+00 5.216186e+00 5.603275e+00 5.204369e+00 4.997713e+00 5.140717e+00 5.052973e+00 4.613893e+00 4.317386e+00 6.491268e-01 5.907054e-01 5.422616e-01 7.489256e-01 9.221156e-01 9.472702e-01 1.039190e+00 9.374858e-01 9.590125e-01 9.898939e-01 9.318237e-01 8.369830e-01 5.887089e-01
<GCONST> 1.500009e+02
<STATE> 4
<MEAN> 39
 -1.258053e+01 -2.393935e+00 -1.999759e+00 -2.758996e+00 -8.580230e+00 -5.664377e+00 -9.136484e+00 -2.758754e+00 -6.688142e+00 -2.323729e+00 -4.398639e+00 -3.623131e+00 6.354794e+01 -8.793626e-03 9.829015e-03 1.490566e-02 -3.865044e-03 -2.662684e-02 -6.669082e-02 -5.272096e-02 9.004144e-03 -4.892981e-02 -1.412531e-02 3.119649e-02 2.245026e-02 8.900876e-02 1.067650e-02 -9.111902e-04 -7.190129e-04 -5.928881e-03 -5.119463e-03 3.961353e-03 -6.190773e-03 -4.475278e-03 -4.170201e-03 3.866080e-05 -1.975216e-03 -4.781825e-03 -3.458754e-03
<VARIANCE> 39
 1.182157e+02 9.022083e+01 1.016341e+02 9.061217e+01 1.533401e+02 1.031290e+02 1.111662e+02 9.357849e+01 1.153409e+02 7.788816e+01 9.839001e+01 8.492834e+01 3.703957e+02 3.993161e+00 3.887901e+00 3.574345e+00 4.390105e+00 5.354330e+00 4.799942e+00 5.447990e+00 5.167731e+00 4.950815e+00 5.152081e+00 4.808802e+00 4.360532e+00 4.393449e+00 6.140007e-01 6.351110e-01 5.568110e-01 7.510586e-01 8.926424e-01 8.709025e-01 1.017256e+00 9.365118e-01 9.493276e-01 9.835492e-01 8.877982e-01 7.913129e-01 5.659572e-01
<GCONST> 1.497841e+02
<TRANSP> 5
 0.000000e+00 1.000000e+00 0.000000e+00 0.000000e+00 0.000000e+00
 0.000000e+00 6.428918e-01 3.571082e-01 0.000000e+00 0.000000e+00
 0.000000e+00 0.000000e+00 6.428933e-01 3.571067e-01 0.000000e+00
 0.000000e+00 0.000000e+00 0.000000e+00 7.981397e-01 2.018603e-01
 0.000000e+00 0.000000e+00 0.000000e+00 0.000000e+00 0.000000e+00
<ENDHMM>
~h "g"
<BEGINHMM>
<NUMSTATES> 5
<STATE> 2
<MEAN> 39
 -8.894618e+00 -1.476841e+00 -1.097803e+00 -4.694480e+00 -1.016637e+01 -6.145878e+00 -1.161871e+01 -4.495464e+00 -7.030154e+00 -2.053936e+00 -3.069472e+00 -5.360704e+00 6.624220e+01 1.309717e-02 -8.743509e-03 3.196525e-02 -5.553198e-03 -2.185509e-02 -2.363208e-02 -1.982363e-03 1.033334e-02 -5.509108e-03 -1.637680e-02 1.447795e-03 -8.934712e-03 6.225518e-02 -3.309864e-03 -6.668668e-04 -3.144232e-03 1.287264e-03 2.924000e-03 3.533167e-03 3.421455e-03 3.146481e-03 5.748584e-03 2.049832e-03 1.077058e-03 -1.342337e-05 -7.621277e-03
<VARIANCE> 39
 1.086760e+02 8.230592e+01 1.118176e+02 1.093367e+02 1.184007e+02 1.158981e+02 1.268098e+02 1.290591e+02 1.484254e+02 8.928306e+01 1.187543e+02 9.851813e+01 3.246783e+02 3.033909e+00 3.548101e+00 3.859979e+00 4.934289e+00 5.969400e+00 5.422277e+00 5.891675e+00 6.329683e+00 5.803298e+00 5.417794e+00 5.874218e+00 4.753236e+00 4.144176e+00 4.872113e-01 5.772741e-01 6.145507e-01 8.373557e-01 1.033238e+00 9.590074e-01 1.078237e+00 1.125127e+00 1.048540e+00 1.013703e+00 1.054881e+00 8.808535e-01 5.783699e-01
<GCONST> 1.523686e+02
<STATE> 3
<MEAN> 39
 -8.844853e+00 -1.508290e+00 -1.001862e+00 -4.708713e+00 -1.023894e+01 -6.206652e+00 -1.162310e+01 -4.472606e+00 -7.051454e+00 -2.097680e+00 -3.076105e+00 -5.414582e+00 6.644982e+01 7.014236e-03 -1.157204e-02 2.243874e-02 -9.594536e-04 -1.136804e-02 -1.391233e-02 6.775577e-03 1.597080e-02 7.165398e-03 -1.143257e-02 1.514647e-04 -8.273499e-03 4.566200e-02 -2.413208e-03 -1.273897e-03 -3.246100e-03 1.248202e-03 4.169798e-03 2.258824e-03 3.539995e-03 2.632970e-03 4.295130e-03 2.201509e-03 -1.041602e-03 3.552258e-04 -4.347361e-03
<VARIANCE> 39
 1.078027e+02 8.277760e+01 1.128682e+02 1.081291e+02 1.193070e+02 1.162812e+02 1.277776e+02 1.310565e+02 1.497032e+02 8.991290e+01 1.187349e+02 9.946238e+01 3.201591e+02 3.024343e+00 3.558953e+00 3.861252e+00 4.922853e+00 5.992549e+00 5.439924e+00 5.918619e+00 6.360496e+00 5.827997e+00 5.442965e+00 5.884502e+00 4.780604e+00 4.106800e+00 4.843118e-01 5.793937e-01 6.134259e-01 8.365489e-01 1.037243e+00 9.625307e-01 1.082337e+00 1.129320e+00 1.051979e+00 1.019286e+00 1.056781e+00 8.850283e-01 5.702339e-01
<GCONST> 1.524422e+02
<STATE> 4
<MEAN> 39
 -8.779249e+00 -1.771968e+00 -1.554204e+00 -4.333516e+00 -1.054817e+01 -5.209361e+00 -1.157243e+01 -4.271608e+00 -7.008192e+00 -2.461299e+00 -2.901903e+00 -5.659016e+00 6.448888e+01 8.111958e-03 -1.512354e-02 1.711928e-02 4.438590e-05 -4.012957e-03 -1.116302e-02 5.920142e-03 1.188182e-02 4.443483e-03 -7.946692e-03 -1.072046e-02 -1.177652e-02 4.212793e-02 -1.834333e-03 -7.293689e-04 -2.759337e-03 4.150530e-04 3.482182e-03 1.898098e-04 1.810833e-03 1.419679e-03 1.657515e-03 1.019831e-03 -2.209026e-03 4.191747e-04 -2.624734e-03
<VARIANCE> 39
 1.262538e+02 9.089871e+01 1.199278e+02 1.102346e+02 1.211340e+02 1.154223e+02 1.272383e+02 1.246670e+02 1.429263e+02 8.652075e+01 1.097777e+02 9.439492e+01 3.334689e+02 3.172975e+00 3.920011e+00 3.942794e+00 4.897730e+00 5.835198e+00 5.221550e+00 5.753146e+00 6.109554e+00 5.704426e+00 5.219561e+00 5.608881e+00 4.551812e+00 4.234541e+00 4.941097e-01 6.450780e-01 6.202549e-01 8.372543e-01 1.012621e+00 9.184825e-01 1.045614e+00 1.084333e+00 1.018827e+00 9.774497e-01 1.015980e+00 8.424774e-01 5.847729e-01
<GCONST> 1.523029e+02
<TRANSP> 5
 0.000000e+00 1.000000e+00 0.000000e+00 0.000000e+00 0.000000e+00
 0.000000e+00 6.591386e-01 3.408614e-01 0.000000e+00 0.000000e+00
 0.000000e+00 0.000000e+00 6.591356e-01 3.408644e-01 0.000000e+00
 0.000000e+00 0.000000e+00 0.000000e+00 8.117089e-01 1.882911e-01
 0.000000e+00 0.000000e+00 0.000000e+00 0.000000e+00 0.000000e+00
<ENDHMM>
~h "h"
<BEGINHMM>
<NUMSTATES> 5
<STATE> 2
<MEAN> 39
 -9.584396e+00 -2.777428e+00 -2.397486e+00 -5.265372e+00 -8.467561e+00 -5.671310e+00 -1.005270e+01 -3.039657e+00 -6.039120e+00 -2.390208e+00 -3.560085e+00 -4.786328e+00 6.654702e+01 2.800655e-02 -1.669775e-02 1.500751e-02 -1.008430e-02 9.129534e-03 -1.732405e-02 1.359193e-03 -2.225333e-02 -5.693408e-03 -2.358151e-02 -3.059200e-02 1.032591e-02 6.450489e-02 -3.219289e-03 2.900348e-03 4.525842e-04 2.014817e-03 -1.321527e-03 2.571417e-03 4.859798e-04 -8.055195e-04 3.789386e-03 2.056331e-03 1.063991e-03 8.768935e-04 -1.027442e-02
<VARIANCE> 39
 1.069244e+02 8.397805e+01 9.807579e+01 1.263591e+02 1.308511e+02 1.083506e+02 1.212186e+02 1.222220e+02 1.399151e+02 9.106931e+01 1.168099e+02 1.104758e+02 3.529669e+02 2.770390e+00 3.360850e+00 3.489311e+00 4.804516e+00 5.346445e+00 5.002744e+00 5.575563e+00 5.900544e+00 5.280466e+00 5.155291e+00 5.487074e+00 4.658761e+00 3.938728e+00 4.283102e-01 5.327653e-01 5.541134e-01 8.156501e-01 8.950201e-01 9.096733e-01 1.022886e+00 1.048638e+00 9.521855e-01 9.505181e-01 1.008530e+00 8.535300e-01 5.443651e-01
<GCONST> 1.506334e+02
<STATE> 3
<MEAN> 39
 -9.499755e+00 -2.833562e+00 -2.353394e+00 -5.304431e+00 -8.447027e+00 -5.721506e+00 -1.003838e+01 -3.122801e+00 -6.053539e+00 -2.472219e+00 -3.645855e+00 -4.753345e+00 6.673226e+01 2.140509e-02 -1.184736e-02 1.462771e-02 -3.350772e-03 8.738115e-03 -1.077991e-02 1.537474e-03 -2.311047e-02 2.760628e-03 -1.873644e-02 -2.908137e-02 1.420567e-02 4.422869e-02 -2.368204e-03 2.219274e-03 1.040106e-04 1.957711e-03 -1.477682e-04 1.605716e-03 -3.039286e-04 -1.664861e-04 1.643520e-03 5.612700e-04 1.011555e-03 7.352313e-04 -5.414468e-03
<VARIANCE> 39
 1.059328e+02 8.438380e+01 9.751151e+01 1.257652e+02 1.321245e+02 1.082024e+02 1.208624e+02 1.230410e+02 1.403624e+02 9.124870e+01 1.184202e+02 1.110505e+02 3.454615e+02 2.754192e+00 3.386134e+00 3.504235e+00 4.818283e+00 5.375942e+00 5.059995e+00 5.598113e+00 5.950818e+00 5.305264e+00 5.172413e+00 5.532934e+00 4.650375e+00 3.884551e+00 4.249229e-01 5.361803e-01 5.569410e-01 8.174042e-01 9.002942e-01 9.214123e-01 1.027846e+00 1.056633e+00 9.555911e-01 9.550846e-01 1.017378e+00 8.518934e-01 5.343702e-01
<GCONST> 1.507053e+02
<STATE> 4
<MEAN> 39
 -9.810730e+00 -2.895584e+00 -2.647161e+00 -4.627832e+00 -8.878844e+00 -5.100774e+00 -9.850216e+00 -3.275733e+00 -6.090241e+00 -3.019255e+00 -3.630583e+00 -4.616002e+00 6.434628e+01 2.241258e-02 -7.285016e-03 1.201519e-02 3.544651e-04 3.610092e-03 -6.655626e-03 -3.023311e-03 -2.292943e-02 1.283163e-03 -2.206774e-02 -2.259538e-02 7.450974e-03 3.602545e-02 -1.187941e-03 2.121605e-03 -1.641342e-04 1.677171e-03 -3.842226e-04 5.226283e-04 -1.063603e-03 2.744861e-04 -9.292149e-04 -2.628166e-04 1.000910e-03 -9.537446e-04 -2.170611e-03
<VARIANCE> 39
 1.178931e+02 8.994248e+01 1.001639e+02 1.236898e+02 1.338317e+02 1.054135e+02 1.171206e+02 1.120651e+02 1.323731e+02 8.549754e+01 1.101909e+02 1.056146e+02 3.577079e+02 2.834884e+00 3.634168e+00 3.467534e+00 4.711654e+00 5.164096e+00 4.836823e+00 5.323771e+00 5.608516e+00 5.143409e+00 4.832685e+00 5.289937e+00 4.284454e+00 3.880496e+00 4.239621e-01 5.773227e-01 5.460479e-01 7.994881e-01 8.693185e-01 8.784324e-01 9.757258e-01 1.005231e+00 9.268585e-01 8.951393e-01 9.785077e-01 7.850460e-01 5.195444e-01
<GCONST> 1.497829e+02
<TRANSP> 5
 0.000000e+00 1.000000e+00 0.000000e+00 0.000000e+00 0.000000e+00
 0.000000e+00 6.612993e-01 3.387007e-01 0.000000e+00 0.000000e+00
 0.000000e+00 0.000000e+00 6.612980e-01 3.387020e-01 0.000000e+00
 0.000000e+00 0.000000e+00 0.000000e+00 8.166502e-01 1.833498e-01
 0.000000e+00 0.000000e+00 0.000000e+00 0.000000e+00 0.000000e+00
<ENDHMM>
~h "i"
<BEGINHMM>
<NUMSTATES> 5
<STATE> 2
<MEAN> 39
 -9.349607e+00 -1.602859e+00 3.911374e-01 -4.670429e+00 -1.137966e+01 -7.444627e+00 -1.118872e+01 -4.397129e+00 -7.795839e+00 -2.068592e+00 -3.370620e+00 -5.025934e+00 6.823766e+01 8.226167e-03 -7.158576e-03 1.649041e-02 -6.081438e-03 -2.269921e-02 -3.342294e-02 -9.694166e-03 -1.352729e-03 -2.083044e-02 -1.062100e-02 -7.631313e-03 -3.673859e-03 5.273470e-02 -3.553246e-04 7.510921e-05 -4.638294e-03 4.909554e-06 4.247338e-03 2.872118e-03 4.268095e-04 1.314043e-03 3.154178e-03 3.125204e-05 -1.652102e-03 -1.014167e-03 -3.265254e-03
<VARIANCE> 39
 1.055749e+02 8.942027e+01 1.270820e+02 1.025980e+02 1.351747e+02 1.212668e+02 1.245692e+02 1.210500e+02 1.506287e+02 9.435793e+01 1.293768e+02 1.035962e+02 2.951700e+02 3.551676e+00 3.893664e+00 4.408702e+00 5.208508e+00 6.829635e+00 5.867505e+00 6.293571e+00 6.723083e+00 6.122105e+00 5.669000e+00 5.955715e+00 5.065576e+00 4.477442e+00 5.538088e-01 6.287676e-01 6.833705e-01 9.002150e-01 1.150211e+00 1.062917e+00 1.148592e+00 1.217684e+00 1.100669e+00 1.066173e+00 1.081315e+00 9.407273e-01 6.392672e-01
<GCONST> 1.547585e+02
<STATE> 3
<MEAN> 39
 -9.325346e+00 -1.623756e+00 4.313076e-01 -4.686222e+00 -1.143329e+01 -7.532355e+00 -1.121973e+01 -4.400311e+00 -7.843012e+00 -2.098170e+00 -3.398963e+00 -5.040876e+00 6.837413e+01 7.454008e-03 -7.178767e-03 5.194291e-03 -4.829190e-03 -1.016593e-02 -2.635281e-02 -8.531050e-03 1.332980e-03 -1.341225e-02 -9.277386e-03 -1.170555e-02 -5.536113e-03 4.658891e-02 -4.220693e-04 9.292191e-05 -4.344393e-03 5.314881e-04 5.359209e-03 2.918240e-03 7.288129e-04 6.167280e-04 2.950517e-03 4.976789e-04 -1.357640e-03 -4.935679e-04 -2.183679e-03
<VARIANCE> 39
 1.051093e+02 8.964297e+01 1.268889e+02 1.019529e+02 1.358405e+02 1.207631e+02 1.247446e+02 1.214958e+02 1.513734e+02 9.457278e+01 1.293858e+02 1.041781e+02 2.916110e+02 3.572896e+00 3.911809e+00 4.422853e+00 5.199354e+00 6.837511e+00 5.897098e+00 6.301185e+00 6.761552e+00 6.156831e+00 5.674868e+00 5.953201e+00 5.092799e+00 4.453521e+00 5.567609e-01 6.313865e-01 6.850680e-01 8.987651e-01 1.152560e+00 1.068535e+00 1.150311e+00 1.225661e+00 1.105914e+00 1.067483e+00 1.081219e+00 9.444138e-01 6.349863e-01
<GCONST> 1.548155e+02
<STATE> 4
<MEAN> 39
 -9.141683e+00 -1.858724e+00 1.653278e-01 -4.603242e+00 -1.151257e+01 -7.089264e+00 -1.139009e+01 -4.466947e+00 -7.859196e+00 -2.340787e+00 -3.347554e+00 -5.212443e+00 6.742254e+01 6.284800e-03 -5.239152e-03 -3.000147e-03 -2.095102e-03 3.265599e-03 -1.973107e-02 -7.643717e-03 7.332200e-04 -7.071264e-03 -7.162454e-03 -1.367722e-02 -5.580286e-03 4.023641e-02 -1.369424e-04 1.564103e-04 -3.206684e-03 6.018397e-04 4.424570e-03 2.599769e-03 6.056620e-04 -2.368086e-05 2.026954e-03 -4.166428e-04 -9.521332e-04 3.298166e-04 -1.968416e-03
<VARIANCE> 39
 1.134573e+02 9.433735e+01 1.300401e+02 1.029770e+02 1.365930e+02 1.207548e+02 1.240752e+02 1.202885e+02 1.474174e+02 9.340219e+01 1.245856e+02 1.033978e+02 2.972230e+02 3.679797e+00 4.137887e+00 4.472397e+00 5.197645e+00 6.705270e+00 5.825250e+00 6.181447e+00 6.685655e+00 6.135016e+00 5.558475e+00 5.830460e+00 4.994697e+00 4.530840e+00 5.677503e-01 6.696385e-01 6.884526e-01 8.950500e-01 1.129328e+00 1.052343e+00 1.126599e+00 1.210219e+00 1.098863e+00 1.043328e+00 1.058971e+00 9.245290e-01 6.408447e-01
<GCONST> 1.548371e+02
<TRANSP> 5
 0.000000e+00 1.000000e+00 0.000000e+00 0.000000e+00 0.000000e+00
 0.000000e+00 6.238974e-01 3.761025e-01 0.000000e+00 0.000000e+00
 0.000000e+00 0.000000e+00 6.239002e-01 3.760998e-01 0.000000e+00
 0.000000e+00 0.000000e+00 0.000000e+00 7.564463e-01 2.435537e-01
 0.000000e+00 0.000000e+00 0.000000e+00 0.000000e+00 0.000000e+00
<ENDHMM>
~h "j"
<BEGINHMM>
<NUMSTATES> 5
<STATE> 2
<MEAN> 39
 -9.293077e+00 -1.624751e+00 -6.100556e-01 -4.016652e+00 -9.663754e+00 -7.041059e+00 -1.103001e+01 -3.491323e+00 -6.788528e+00 -2.178991e+00 -3.362858e+00 -4.321452e+00 6.663048e+01 7.095259e-03 -1.150520e-02 1.647719e-02 -1.891831e-03 -5.715063e-03 -4.305284e-02 -2.526334e-02 -1.072219e-02 2.215337e-05 -2.271100e-02 -1.645568e-02 -1.690352e-03 8.444091e-02 -3.498509e-03 3.410862e-03 -4.956464e-03 3.161143e-03 -3.703879e-03 7.643523e-03 1.899627e-03 2.181411e-03 2.989430e-03 -3.164737e-03 -1.170145e-03 -4.525391e-03 -1.986962e-02
<VARIANCE> 39
 1.072705e+02 8.401785e+01 1.039056e+02 1.022253e+02 1.212277e+02 1.265898e+02 1.309468e+02 1.174813e+02 1.449817e+02 8.389899e+01 1.240122e+02 1.021367e+02 3.276598e+02 3.474421e+00 4.147487e+00 3.746880e+00 5.061751e+00 6.346960e+00 5.621809e+00 5.953928e+00 6.523242e+00 5.680546e+00 5.296067e+00 5.716401e+00 4.764580e+00 4.290525e+00 5.835382e-01 6.628076e-01 6.266595e-01 8.838702e-01 1.109452e+00 1.023680e+00 1.102036e+00 1.174082e+00 1.043236e+00 9.927765e-01 1.045681e+00 8.917859e-01 6.032272e-01
<GCONST> 1.532924e+02
<STATE> 3
<MEAN> 39
 -9.268823e+00 -1.651905e+00 -5.760249e-01 -4.028131e+00 -9.685999e+00 -7.125884e+00 -1.108650e+01 -3.515932e+00 -6.777068e+00 -2.241157e+00 -3.428707e+00 -4.352623e+00 6.683118e+01 2.265772e-03 -6.718604e-03 3.952706e-03 5.769607e-03 -9.282275e-03 -2.481698e-02 -2.039781e-02 -1.499359e-03 5.219800e-03 -2.835343e-02 -1.918674e-02 -1.222187e-02 5.142592e-02 3.610557e-05 1.415104e-03 -3.842385e-03 2.115904e-03 -1.443446e-03 6.279328e-03 2.036333e-03 2.411854e-03 1.990519e-04 -1.269524e-03 -1.290046e-04 -3.729119e-03 -9.942404e-03
<VARIANCE> 39
 1.065670e+02 8.359403e+01 1.038616e+02 1.013129e+02 1.216984e+02 1.257079e+02 1.321216e+02 1.182084e+02 1.450057e+02 8.375349e+01 1.239127e+02 1.025831e+02 3.224362e+02 3.465347e+00 4.161753e+00 3.744604e+00 5.076995e+00 6.398907e+00 5.651752e+00 5.927974e+00 6.571139e+00 5.650045e+00 5.297010e+00 5.752111e+00 4.786418e+00 4.162443e+00 5.798915e-01 6.657693e-01 6.281990e-01 8.845302e-01 1.119463e+00 1.027381e+00 1.094753e+00 1.179324e+00 1.038855e+00 9.908273e-01 1.047952e+00 8.943732e-01 5.797062e-01
<GCONST> 1.532351e+02
<STATE> 4
<MEAN> 39
 -8.791467e+00 -2.028192e+00 -1.175283e+00 -4.265777e+00 -9.918035e+00 -6.395642e+00 -1.146557e+01 -3.806008e+00 -6.923168e+00 -2.520537e+00 -3.322949e+00 -4.887530e+00 6.601468e+01 4.479494e-04 -3.089281e-03 -2.224306e-03 6.525702e-03 -8.476839e-03 -1.013787e-02 -9.156519e-03 3.604436e-03 5.179266e-03 -2.317292e-02 -1.753929e-02 -1.712602e-02 2.845151e-02 -2.145885e-04 7.420165e-04 -1.852766e-03 1.481453e-04 -5.358467e-04 3.008643e-03 1.581857e-03 6.048109e-04 -8.905978e-04 1.215615e-03 2.170702e-03 -1.665958e-03 -5.031337e-03
<VARIANCE> 39
 1.177520e+02 8.917295e+01 1.085115e+02 1.068342e+02 1.221771e+02 1.260933e+02 1.346344e+02 1.173389e+02 1.385582e+02 8.191413e+01 1.180456e+02 1.042272e+02 3.213696e+02 3.629659e+00 4.383734e+00 3.849748e+00 5.241850e+00 6.300006e+00 5.559865e+00 5.832054e+00 6.593445e+00 5.678800e+00 5.242718e+00 5.704322e+00 4.746554e+00 4.217714e+00 5.948155e-01 7.075361e-01 6.330642e-01 9.080478e-01 1.099041e+00 9.999115e-01 1.068476e+00 1.176470e+00 1.035731e+00 9.797974e-01 1.036796e+00 8.839089e-01 5.813726e-01
<GCONST> 1.535297e+02
<TRANSP> 5
 0.000000e+00 1.000000e+00 0.000000e+00 0.000000e+00 0.000000e+00
 0.000000e+00 6.390094e-01 3.609906e-01 0.000000e+00 0.000000e+00
 0.000000e+00 0.000000e+00 6.390106e-01 3.609894e-01 0.000000e+00
 0.000000e+00 0.000000e+00 0.000000e+00 7.760158e-01 2.239842e-01
 0.000000e+00 0.000000e+00 0.000000e+00 0.000000e+00 0.000000e+00
<ENDHMM>
~h "k"
<BEGINHMM>
<NUMSTATES> 5
<STATE> 2
<MEAN> 39
 -9.134542e+00 -2.528204e+00 -2.137461e+00 -5.103795e+00 -8.991589e+00 -6.314864e+00 -1.036085e+01 -3.459798e+00 -6.116040e+00 -1.829223e+00 -3.915339e+00 -5.417628e+00 6.686472e+01 4.055867e-02 -3.002857e-02 1.167829e-02 -4.589492e-02 -1.571355e-02 -3.746055e-02 -1.474264e-02 -7.723180e-03 -2.410600e-02 -6.437350e-03 -2.749721e-02 -2.040729e-02 1.065412e-01 -2.685311e-03 2.391746e-03 -1.500658e-03 2.430305e-03 -1.951217e-03 3.593930e-03 8.494161e-04 9.128929e-04 2.234409e-03 1.658242e-04 1.190477e-03 -1.102783e-03 -1.435746e-02
<VARIANCE> 39
 1.076525e+02 8.716085e+01 1.033062e+02 1.117239e+02 1.228201e+02 1.196073e+02 1.153610e+02 1.183556e+02 1.373147e+02 9.214025e+01 1.250964e+02 1.104857e+02 3.377154e+02 3.213701e+00 3.782375e+00 3.979155e+00 5.353037e+00 6.006364e+00 5.575949e+00 5.922939e+00 6.556802e+00 5.709984e+00 5.588964e+00 5.825280e+00 5.227379e+00 4.727479e+00 5.041160e-01 6.103955e-01 6.524637e-01 9.224997e-01 1.039135e+00 1.007472e+00 1.091658e+00 1.181133e+00 1.047049e+00 1.049048e+00 1.070209e+00 9.608308e-01 6.721519e-01
<GCONST> 1.535939e+02
<STATE> 3
<MEAN> 39
 -9.015367e+00 -2.617204e+00 -2.114943e+00 -5.226357e+00 -9.036036e+00 -6.402843e+00 -1.039967e+01 -3.483116e+00 -6.172167e+00 -1.848059e+00 -3.998691e+00 -5.488264e+00 6.713926e+01 3.752070e-02 -2.460806e-02 7.903830e-03 -4.011119e-02 -1.662525e-02 -2.886105e-02 -1.396731e-02 -5.168774e-03 -2.035619e-02 -6.764217e-03 -2.757786e-02 -2.411488e-02 8.532728e-02 -2.808954e-04 2.065210e-03 -6.590872e-04 2.721328e-03 1.196804e-04 3.171257e-03 1.261216e-04 -1.714607e-04 6.220693e-04 -3.258856e-04 -3.830777e-04 -1.137799e-03 -6.250916e-03
<VARIANCE> 39
 1.066937e+02 8.738932e+01 1.039921e+02 1.118601e+02 1.238433e+02 1.193599e+02 1.160792e+02 1.186785e+02 1.382346e+02 9.294903e+01 1.260196e+02 1.110378e+02 3.314461e+02 3.197629e+00 3.798769e+00 4.004208e+00 5.376696e+00 6.026811e+00 5.604378e+00 5.953973e+00 6.573029e+00 5.738568e+00 5.613489e+00 5.854619e+00 5.253108e+00 4.602201e+00 5.008253e-01 6.139321e-01 6.555480e-01 9.267118e-01 1.043648e+00 1.013294e+00 1.096436e+00 1.184256e+00 1.051914e+00 1.052424e+00 1.074485e+00 9.658371e-01 6.551398e-01
<GCONST> 1.536552e+02
<STATE> 4
<MEAN> 39
 -8.792060e+00 -2.881046e+00 -2.193518e+00 -5.055639e+00 -9.416268e+00 -5.948230e+00 -1.061030e+01 -3.582422e+00 -6.319472e+00 -2.200706e+00 -3.955776e+00 -5.681552e+00 6.618485e+01 3.804694e-02 -1.935599e-02 8.226111e-03 -3.255716e-02 -1.463847e-02 -2.013124e-02 -1.540747e-02 -1.007459e-02 -2.053579e-02 -1.139285e-02 -2.886132e-02 -2.316268e-02 7.814486e-02 -2.199239e-04 2.062563e-03 2.314794e-04 2.491515e-03 8.304208e-04 2.529007e-03 -2.453249e-04 -1.478255e-03 -3.856401e-04 -9.538563e-04 -2.246242e-04 1.699966e-04 -2.913624e-03
<VARIANCE> 39
 1.155849e+02 9.337521e+01 1.078105e+02 1.140837e+02 1.267784e+02 1.193221e+02 1.170801e+02 1.147135e+02 1.341690e+02 9.122955e+01 1.227346e+02 1.074896e+02 3.348050e+02 3.269101e+00 4.070822e+00 4.087724e+00 5.394905e+00 5.966286e+00 5.542124e+00 5.888642e+00 6.445467e+00 5.738535e+00 5.496501e+00 5.778671e+00 5.094563e+00 4.640571e+00 5.044709e-01 6.594889e-01 6.612885e-01 9.271142e-01 1.029035e+00 9.988729e-01 1.081492e+00 1.162899e+00 1.047163e+00 1.029607e+00 1.060267e+00 9.364694e-01 6.490257e-01
<GCONST> 1.537122e+02
<TRANSP> 5
 0.000000e+00 1.000000e+00 0.000000e+00 0.000000e+00 0.000000e+00
 0.000000e+00 6.309338e-01 3.690662e-01 0.000000e+00 0.000000e+00
 0.000000e+00 0.000000e+00 6.309340e-01 3.690660e-01 0.000000e+00
 0.000000e+00 0.000000e+00 0.000000e+00 7.674087e-01 2.325912e-01
 0.000000e+00 0.000000e+00 0.000000e+00 0.000000e+00 0.000000e+00
<ENDHMM>
~h "l"
<BEGINHMM>
<NUMSTATES> 5
<STATE> 2
<MEAN> 39
 -8.403452e+00 -2.483097e+00 -2.172648e+00 -6.583068e+00 -8.853982e+00 -6.636441e+00 -1.180644e+01 -4.352014e+00 -6.072488e+00 -1.577600e+00 -4.120055e+00 -6.014637e+00 6.949347e+01 2.366893e-02 -2.042925e-02 -6.136802e-03 -4.113934e-02 3.723347e-03 -7.574883e-03 -1.115445e-02 -1.173127e-02 -9.423075e-03 -5.166894e-03 -1.471603e-02 -1.741103e-02 7.230544e-02 -3.409748e-03 1.920599e-03 -1.523297e-03 2.515772e-03 -1.281602e-03 1.070182e-03 3.568533e-03 1.416774e-04 1.266905e-03 -4.045363e-04 2.268454e-03 2.686817e-03 -6.395734e-03
<VARIANCE> 39
 1.124503e+02 8.988172e+01 1.062888e+02 1.248003e+02 1.310036e+02 1.136504e+02 1.244062e+02 1.283679e+02 1.499506e+02 1.012360e+02 1.299522e+02 1.200989e+02 3.010552e+02 3.675668e+00 4.092304e+00 4.113912e+00 5.744491e+00 6.105083e+00 5.606002e+00 6.184099e+00 6.866751e+00 5.899046e+00 5.875212e+00 5.973896e+00 5.289389e+00 4.362266e+00 5.469044e-01 6.506251e-01 6.604468e-01 9.567543e-01 1.031834e+00 9.967968e-01 1.123728e+00 1.229920e+00 1.061703e+00 1.082259e+00 1.089270e+00 9.595709e-01 6.101878e-01
<GCONST> 1.548437e+02
<STATE> 3
<MEAN> 39
 -8.330991e+00 -2.538013e+00 -2.178705e+00 -6.694013e+00 -8.855597e+00 -6.661175e+00 -1.183484e+01 -4.389552e+00 -6.105755e+00 -1.594322e+00 -4.153765e+00 -6.055810e+00 6.970665e+01 1.529147e-02 -1.676563e-02 -8.146723e-03 -3.434531e-02 1.319954e-04 -5.058430e-03 -2.576814e-03 -1.171265e-02 -8.463303e-03 -5.984416e-03 -9.658842e-03 -1.008321e-02 5.960388e-02 -3.316664e-03 1.692264e-03 -9.213083e-04 2.325878e-03 -1.774098e-03 1.559823e-04 2.600249e-03 -8.563732e-04 3.191404e-04 1.480352e-04 2.112970e-03 2.250475e-03 -4.522430e-03
<VARIANCE> 39
 1.115276e+02 9.081341e+01 1.062214e+02 1.247209e+02 1.315108e+02 1.137059e+02 1.247793e+02 1.289648e+02 1.495264e+02 1.016004e+02 1.302769e+02 1.204918e+02 2.955481e+02 3.688984e+00 4.097737e+00 4.108398e+00 5.770229e+00 6.089417e+00 5.621473e+00 6.206203e+00 6.874576e+00 5.911102e+00 5.914522e+00 6.004563e+00 5.308106e+00 4.315893e+00 5.479496e-01 6.486279e-01 6.592715e-01 9.612709e-01 1.027554e+00 9.996508e-01 1.129002e+00 1.232934e+00 1.064136e+00 1.090980e+00 1.094877e+00 9.630900e-01 6.030459e-01
<GCONST> 1.548791e+02
<STATE> 4
<MEAN> 39
 -8.104886e+00 -2.731758e+00 -2.217324e+00 -6.628340e+00 -9.197150e+00 -6.370228e+00 -1.191081e+01 -4.488899e+00 -6.370879e+00 -1.942215e+00 -4.041630e+00 -6.076166e+00 6.900006e+01 1.282341e-02 -1.471063e-02 -1.256618e-03 -2.950872e-02 -7.316402e-03 -7.425270e-03 -7.660119e-04 -1.375602e-02 -1.157644e-02 -6.877983e-03 -4.999925e-03 -3.418894e-03 5.813015e-02 -2.448169e-03 1.817601e-03 6.428378e-04 2.213954e-03 -1.891046e-03 -6.991173e-04 9.387979e-04 -1.640282e-03 -5.434465e-04 2.007284e-04 1.190383e-03 1.773958e-03 -3.046507e-03
<VARIANCE> 39
 1.179180e+02 9.725862e+01 1.120312e+02 1.272744e+02 1.353427e+02 1.152654e+02 1.251960e+02 1.264346e+02 1.449361e+02 1.002710e+02 1.273143e+02 1.179151e+02 2.985092e+02 3.789128e+00 4.331582e+00 4.191192e+00 5.851930e+00 6.097029e+00 5.618139e+00 6.231200e+00 6.802447e+00 5.940075e+00 5.842638e+00 5.961987e+00 5.193162e+00 4.413263e+00 5.605687e-01 6.789348e-01 6.644968e-01 9.795394e-01 1.028818e+00 9.943963e-01 1.131918e+00 1.223596e+00 1.066832e+00 1.078884e+00 1.090008e+00 9.468201e-01 6.125997e-01
<GCONST> 1.551919e+02
<TRANSP> 5
 0.000000e+00 1.000000e+00 0.000000e+00 0.000000e+00 0.000000e+00
 0.000000e+00 6.162151e-01 3.837849e-01 0.000000e+00 0.000000e+00
 0.000000e+00 0.000000e+00 6.162149e-01 3.837852e-01 0.000000e+00
 0.000000e+00 0.000000e+00 0.000000e+00 7.468812e-01 2.531188e-01
 0.000000e+00 0.000000e+00 0.000000e+00 0.000000e+00 0.000000e+00
<ENDHMM>
~h "m"
<BEGINHMM>
<NUMSTATES> 5
<STATE> 2
<MEAN> 39
 -7.975717e+00 -2.090767e+00 -1.608734e+00 -5.094524e+00 -9.326278e+00 -5.879679e+00 -1.117365e+01 -4.798499e+00 -6.946376e+00 -2.306108e+00 -4.870997e+00 -5.791147e+00 6.841314e+01 3.238809e-02 -7.274061e-03 1.233822e-02 -2.081652e-02 1.241502e-02 -1.661107e-04 -1.552550e-02 -4.290373e-02 -3.327055e-02 -1.746177e-02 -3.526164e-02 -6.385338e-03 6.444895e-02 -4.539776e-03 9.760627e-04 -8.821045e-04 1.499990e-03 -1.157420e-03 3.345924e-03 1.954416e-03 3.592508e-03 1.509707e-03 1.122686e-03 2.158056e-03 -3.639062e-04 -1.259416e-02
<VARIANCE> 39
 1.096411e+02 8.842700e+01 1.018450e+02 1.118545e+02 1.233974e+02 1.127576e+02 1.195223e+02 1.203567e+02 1.442771e+02 1.024886e+02 1.295112e+02 1.055835e+02 3.010974e+02 3.380198e+00 3.888865e+00 4.043379e+00 5.678336e+00 5.898276e+00 5.523278e+00 5.823889e+00 7.260591e+00 5.759236e+00 5.596404e+00 5.882601e+00 5.008793e+00 4.309920e+00 5.084659e-01 6.135101e-01 6.580155e-01 9.728064e-01 1.010061e+00 9.949448e-01 1.070785e+00 1.303373e+00 1.047087e+00 1.025874e+00 1.061311e+00 9.255133e-01 6.053546e-01
<GCONST> 1.536779e+02
<STATE> 3
<MEAN> 39
 -7.889992e+00 -2.119088e+00 -1.579977e+00 -5.147375e+00 -9.288008e+00 -5.877461e+00 -1.120683e+01 -4.888503e+00 -7.025795e+00 -2.356588e+00 -4.969213e+00 -5.819481e+00 6.856830e+01 2.347255e-02 -7.481166e-03 7.897548e-03 -1.569888e-02 1.173286e-02 6.310206e-03 -1.006506e-02 -3.214242e-02 -2.979278e-02 -1.625103e-02 -3.106657e-02 -6.945340e-03 4.295832e-02 -3.119494e-03 1.853377e-05 -9.746160e-04 2.019042e-03 -8.219577e-04 1.595263e-03 2.631677e-03 4.465216e-03 1.194640e-03 1.039620e-03 1.843675e-03 8.218968e-04 -6.686845e-03
<VARIANCE> 39
 1.088149e+02 8.849412e+01 1.021366e+02 1.113953e+02 1.234955e+02 1.126928e+02 1.194837e+02 1.206924e+02 1.445599e+02 1.032036e+02 1.303072e+02 1.055809e+02 2.955785e+02 3.361186e+00 3.893330e+00 4.050978e+00 5.690039e+00 5.902378e+00 5.515019e+00 5.800959e+00 7.271580e+00 5.775593e+00 5.599927e+00 5.890346e+00 5.017414e+00 4.182923e+00 5.048580e-01 6.157659e-01 6.609121e-01 9.743711e-01 1.013745e+00 9.938312e-01 1.066706e+00 1.305238e+00 1.050082e+00 1.026531e+00 1.059727e+00 9.264156e-01 5.889463e-01
<GCONST> 1.536201e+02
<STATE> 4
<MEAN> 39
 -7.923551e+00 -2.293621e+00 -1.807377e+00 -5.042073e+00 -9.276937e+00 -5.483130e+00 -1.123011e+01 -4.854250e+00 -7.084477e+00 -2.600486e+00 -4.995554e+00 -5.878268e+00 6.758092e+01 1.924162e-02 -1.070918e-02 3.137661e-03 -9.457180e-03 9.449327e-03 6.512521e-03 -2.951959e-03 -2.030607e-02 -2.504235e-02 -1.740441e-02 -2.465289e-02 -4.750989e-03 3.702364e-02 -2.797463e-03 2.343283e-04 -1.082005e-03 2.501131e-03 -7.779933e-04 2.690741e-04 2.601323e-03 3.599377e-03 1.255846e-03 1.186603e-03 2.442099e-03 1.593295e-03 -3.982154e-03
<VARIANCE> 39
 1.150721e+02 9.180402e+01 1.040589e+02 1.126557e+02 1.239994e+02 1.133994e+02 1.181596e+02 1.170741e+02 1.401712e+02 1.001354e+02 1.282569e+02 1.035504e+02 3.058481e+02 3.395178e+00 4.011832e+00 4.085926e+00 5.685376e+00 5.845342e+00 5.466584e+00 5.695593e+00 7.027118e+00 5.748314e+00 5.463743e+00 5.763575e+00 4.905725e+00 4.186356e+00 5.057025e-01 6.377283e-01 6.646122e-01 9.727897e-01 1.001524e+00 9.815384e-01 1.044227e+00 1.263036e+00 1.044102e+00 1.003123e+00 1.037212e+00 9.063031e-01 5.809156e-01
<GCONST> 1.534291e+02
<TRANSP> 5
 0.000000e+00 1.000000e+00 0.000000e+00 0.000000e+00 0.000000e+00
 0.000000e+00 6.121068e-01 3.878932e-01 0.000000e+00 0.000000e+00
 0.000000e+00 0.000000e+00 6.121053e-01 3.878947e-01 0.000000e+00
 0.000000e+00 0.000000e+00 0.000000e+00 7.372105e-01 2.627895e-01
 0.000000e+00 0.000000e+00 0.000000e+00 0.000000e+00 0.000000e+00
<ENDHMM>
~h "n"
<BEGINHMM>
<NUMSTATES> 5
<STATE> 2
<MEAN> 39
 -7.827695e+00 -2.900083e+00 -8.956491e-01 -4.877599e+00 -9.756122e+00 -7.242898e+00 -1.129497e+01 -4.091983e+00 -6.639374e+00 -2.944148e+00 -5.968069e+00 -5.845476e+00 6.924751e+01 -7.294938e-04 7.103400e-03 1.630738e-02 2.335152e-02 1.039584e-02 -4.120173e-03 3.622320e-03 -9.338580e-03 -4.475522e-03 -1.161814e-02 -1.267237e-02 8.024197e-03 -3.595538e-03 -3.891730e-03 1.274401e-03 -4.604896e-03 -1.603112e-05 2.700352e-03 2.067925e-03 2.918806e-03 6.388690e-04 2.064264e-03 1.405479e-03 3.576978e-03 1.941300e-03 -2.503135e-03
<VARIANCE> 39
 9.959329e+01 9.438033e+01 1.065064e+02 1.025460e+02 1.256830e+02 1.145838e+02 1.211771e+02 1.222918e+02 1.471228e+02 9.882375e+01 1.450881e+02 1.127566e+02 2.810476e+02 3.276714e+00 4.126672e+00 4.026412e+00 5.436796e+00 5.911695e+00 5.555892e+00 5.842000e+00 7.202391e+00 5.773334e+00 5.784551e+00 6.231369e+00 5.106850e+00 4.485141e+00 5.143723e-01 6.637762e-01 6.509970e-01 9.381674e-01 1.028396e+00 1.009551e+00 1.078104e+00 1.299785e+00 1.062462e+00 1.075578e+00 1.102857e+00 9.498723e-01 6.375287e-01
<GCONST> 1.541566e+02
<STATE> 3
<MEAN> 39
 -7.831578e+00 -2.882117e+00 -8.646940e-01 -4.818657e+00 -9.714981e+00 -7.247028e+00 -1.128671e+01 -4.111077e+00 -6.648135e+00 -2.976143e+00 -6.007253e+00 -5.815910e+00 6.923592e+01 -1.119771e-02 1.011205e-02 4.815387e-03 2.312398e-02 1.759715e-02 1.638031e-03 1.083972e-02 -7.463714e-03 5.309330e-04 -7.352271e-03 -1.711103e-03 1.265398e-02 -7.518455e-03 -3.879691e-03 1.098738e-03 -4.627220e-03 -4.969452e-04 2.339446e-03 2.396160e-03 1.655954e-03 8.616102e-04 1.836664e-03 1.069466e-03 3.793317e-03 1.818733e-03 -6.299859e-04
<VARIANCE> 39
 9.927832e+01 9.443233e+01 1.063014e+02 1.024612e+02 1.263114e+02 1.141494e+02 1.219670e+02 1.218678e+02 1.474966e+02 9.915574e+01 1.452289e+02 1.126721e+02 2.783114e+02 3.285611e+00 4.151533e+00 4.029744e+00 5.435483e+00 5.917084e+00 5.543144e+00 5.837620e+00 7.187680e+00 5.763061e+00 5.780998e+00 6.246034e+00 5.084089e+00 4.472884e+00 5.163194e-01 6.689444e-01 6.521370e-01 9.382402e-01 1.029035e+00 1.008162e+00 1.078232e+00 1.299001e+00 1.061687e+00 1.074738e+00 1.102359e+00 9.459386e-01 6.379036e-01
<GCONST> 1.541563e+02
<STATE> 4
<MEAN> 39
 -7.679186e+00 -3.174189e+00 -1.164984e+00 -4.626321e+00 -9.793221e+00 -6.561733e+00 -1.144616e+01 -4.067330e+00 -6.695169e+00 -3.216779e+00 -5.812385e+00 -5.849136e+00 6.806296e+01 -1.771164e-02 1.201842e-02 -6.113840e-03 1.678139e-02 2.390015e-02 6.175878e-03 1.156730e-02 -5.161794e-03 1.987313e-03 -4.731060e-03 6.275750e-03 1.599207e-02 -2.894729e-03 -2.655648e-03 9.964721e-04 -3.019945e-03 -1.086561e-03 7.455703e-04 1.339440e-03 -7.483212e-05 2.484109e-04 4.776864e-04 4.648144e-04 2.579860e-03 1.592958e-03 5.114591e-05
<VARIANCE> 39
 1.103988e+02 1.008530e+02 1.105016e+02 1.040373e+02 1.297128e+02 1.167078e+02 1.238911e+02 1.187628e+02 1.422997e+02 9.660295e+01 1.422560e+02 1.115823e+02 2.843988e+02 3.423445e+00 4.496494e+00 4.086987e+00 5.509591e+00 5.863946e+00 5.499290e+00 5.795196e+00 6.965690e+00 5.749063e+00 5.639638e+00 6.137269e+00 4.910040e+00 4.573223e+00 5.278235e-01 7.275316e-01 6.522639e-01 9.508891e-01 1.014617e+00 9.927473e-01 1.065259e+00 1.262782e+00 1.056087e+00 1.045626e+00 1.083108e+00 9.135256e-01 6.485239e-01
<GCONST> 1.543666e+02
<TRANSP> 5
 0.000000e+00 1.000000e+00 0.000000e+00 0.000000e+00 0.000000e+00
 0.000000e+00 6.317674e-01 3.682325e-01 0.000000e+00 0.000000e+00
 0.000000e+00 0.000000e+00 6.317691e-01 3.682309e-01 0.000000e+00
 0.000000e+00 0.000000e+00 0.000000e+00 7.715392e-01 2.284609e-01
 0.000000e+00 0.000000e+00 0.000000e+00 0.000000e+00 0.000000e+00
<ENDHMM>
~h "o"
<BEGINHMM>
<NUMSTATES> 5
<STATE> 2
<MEAN> 39
 -9.597762e+00 -1.713605e+00 -3.278729e+00 -5.740596e+00 -8.489594e+00 -4.499467e+00 -1.096046e+01 -3.898721e+00 -5.575334e+00 -1.104630e+00 -1.923325e+00 -5.062114e+00 6.439468e+01 3.838210e-02 -4.528559e-02 2.209822e-02 -5.166067e-02 -3.700573e-02 -3.355502e-02 -2.822477e-02 -5.472347e-02 -3.372603e-02 -1.692211e-02 -3.937723e-03 -2.052947e-02 1.414426e-01 -4.649486e-03 3.638070e-03 1.885160e-03 7.549296e-03 -5.752508e-04 5.877954e-03 6.292264e-03 1.892154e-03 3.772882e-03 -1.443972e-03 -7.884614e-04 2.686075e-03 -1.779060e-02
<VARIANCE> 39
 1.216387e+02 7.565008e+01 9.767419e+01 1.311905e+02 1.068517e+02 1.090779e+02 1.116201e+02 1.100975e+02 1.311296e+02 8.557215e+01 1.042718e+02 1.021086e+02 3.727898e+02 3.018788e+00 3.300340e+00 3.377913e+00 5.284310e+00 5.101238e+00 4.999019e+00 5.286063e+00 5.588509e+00 5.252764e+00 4.858286e+00 5.220509e+00 4.506857e+00 4.222656e+00 4.631169e-01 5.371367e-01 5.421985e-01 8.703222e-01 8.450905e-01 8.857738e-01 9.548926e-01 1.025318e+00 9.436624e-01 8.964704e-01 9.612673e-01 8.388776e-01 5.915560e-01
<GCONST> 1.498452e+02
<STATE> 3
<MEAN> 39
 -9.468683e+00 -1.827964e+00 -3.219071e+00 -5.906041e+00 -8.589299e+00 -4.587216e+00 -1.100740e+01 -4.079827e+00 -5.701105e+00 -1.164543e+00 -1.944502e+00 -5.123070e+00 6.478654e+01 2.945728e-02 -3.776678e-02 2.561800e-02 -3.410860e-02 -3.421629e-02 -1.984908e-02 -1.347722e-02 -4.903093e-02 -2.774391e-02 -1.990689e-02 -7.345204e-03 -1.728709e-02 1.084589e-01 -3.276664e-03 2.883897e-03 1.615950e-03 5.492802e-03 1.379200e-03 4.387814e-03 4.854449e-03 3.003676e-03 2.398029e-03 2.796296e-07 -6.331354e-04 1.399481e-03 -1.064580e-02
<VARIANCE> 39
 1.193612e+02 7.594106e+01 9.924005e+01 1.319729e+02 1.087778e+02 1.079197e+02 1.120747e+02 1.106001e+02 1.325569e+02 8.568542e+01 1.048921e+02 1.022552e+02 3.633676e+02 3.027591e+00 3.288456e+00 3.387707e+00 5.307168e+00 5.147656e+00 4.988294e+00 5.273630e+00 5.604530e+00 5.321856e+00 4.887661e+00 5.258934e+00 4.538575e+00 4.092459e+00 4.649449e-01 5.368527e-01 5.440603e-01 8.745712e-01 8.511371e-01 8.860394e-01 9.545270e-01 1.028189e+00 9.540864e-01 9.043500e-01 9.674484e-01 8.475934e-01 5.747260e-01
<GCONST> 1.499070e+02
<STATE> 4
<MEAN> 39
 -9.185709e+00 -2.082315e+00 -3.679046e+00 -5.595559e+00 -9.349478e+00 -4.137726e+00 -1.114403e+01 -4.111237e+00 -6.299729e+00 -1.942687e+00 -1.773041e+00 -5.216809e+00 6.292429e+01 2.512648e-02 -1.765487e-02 1.948256e-02 -2.564102e-02 -1.705808e-02 -1.060982e-02 -9.630267e-04 -4.217481e-02 -2.579787e-02 -1.874824e-02 -1.006332e-02 -1.318863e-02 7.355775e-02 -2.171349e-03 1.872691e-03 9.705641e-04 2.667094e-03 1.564101e-03 1.320358e-03 1.973987e-03 1.689165e-03 7.771985e-04 4.576202e-04 1.824743e-04 6.835652e-04 -4.466997e-03
<VARIANCE> 39
 1.314487e+02 8.443571e+01 1.009314e+02 1.342689e+02 1.072751e+02 1.030554e+02 1.092982e+02 1.034779e+02 1.302120e+02 8.372641e+01 9.390313e+01 9.549923e+01 3.514816e+02 3.280558e+00 3.821583e+00 3.486312e+00 5.357076e+00 5.035310e+00 4.852604e+00 5.057745e+00 5.417017e+00 5.273004e+00 4.671058e+00 4.989803e+00 4.301532e+00 4.330432e+00 4.900710e-01 6.292481e-01 5.575050e-01 8.912908e-01 8.488789e-01 8.544844e-01 9.157786e-01 9.895990e-01 9.407930e-01 8.644857e-01 9.215797e-01 8.028418e-01 5.969372e-01
<GCONST> 1.497897e+02
<TRANSP> 5
 0.000000e+00 1.000000e+00 0.000000e+00 0.000000e+00 0.000000e+00
 0.000000e+00 6.719003e-01 3.280998e-01 0.000000e+00 0.000000e+00
 0.000000e+00 0.000000e+00 6.719006e-01 3.280995e-01 0.000000e+00
 0.000000e+00 0.000000e+00 0.000000e+00 8.444083e-01 1.555917e-01
 0.000000e+00 0.000000e+00 0.000000e+00 0.000000e+00 0.000000e+00
<ENDHMM>
~h "p"
<BEGINHMM>
<NUMSTATES> 5
<STATE> 2
<MEAN> 39
 -8.348976e+00 -2.677022e+00 -2.194871e+00 -5.724574e+00 -9.141931e+00 -7.209709e+00 -1.107274e+01 -4.256392e+00 -6.207072e+00 -2.309626e+00 -3.735649e+00 -5.809758e+00 6.903121e+01 2.638596e-02 8.515764e-03 -1.512836e-02 -3.622259e-03 2.217381e-02 -5.684681e-04 -1.567808e-02 -4.401952e-02 1.896916e-02 5.455132e-03 -1.219186e-02 -7.668640e-03 2.005304e-02 -3.156411e-03 3.425546e-03 7.855471e-04 2.117890e-03 -1.250098e-03 1.721888e-03 1.527835e-06 1.453342e-03 -1.092364e-03 -2.170454e-03 9.676354e-05 1.282081e-03 -6.161626e-03
<VARIANCE> 39
 1.120172e+02 9.119025e+01 1.056154e+02 1.117084e+02 1.276533e+02 1.216693e+02 1.117240e+02 1.185826e+02 1.432785e+02 9.341417e+01 1.226464e+02 1.127533e+02 2.905777e+02 3.831588e+00 4.354021e+00 4.178341e+00 6.146726e+00 6.422557e+00 6.154708e+00 6.262670e+00 7.014654e+00 6.310098e+00 6.089765e+00 6.173386e+00 5.679656e+00 5.255482e+00 6.130158e-01 7.083449e-01 6.881874e-01 1.074376e+00 1.123026e+00 1.133400e+00 1.166080e+00 1.295814e+00 1.155744e+00 1.152728e+00 1.140156e+00 1.073385e+00 7.761114e-01
<GCONST> 1.562733e+02
<STATE> 3
<MEAN> 39
 -8.295832e+00 -2.639103e+00 -2.234434e+00 -5.726163e+00 -9.084189e+00 -7.204930e+00 -1.111268e+01 -4.375167e+00 -6.163547e+00 -2.309367e+00 -3.760485e+00 -5.822609e+00 6.906126e+01 1.957559e-02 1.720128e-02 -1.055554e-02 3.711236e-03 1.923672e-02 2.308764e-03 -1.550312e-02 -4.164558e-02 1.492003e-02 -9.254483e-04 -1.151664e-02 -2.574564e-03 4.814789e-03 -2.407853e-03 2.867406e-03 1.774038e-03 1.459237e-03 -1.657651e-03 1.256944e-03 6.777908e-04 5.720980e-04 -2.263934e-03 -1.644566e-03 3.148481e-05 1.603431e-03 -4.133999e-03
<VARIANCE> 39
 1.110584e+02 9.075990e+01 1.059174e+02 1.115188e+02 1.277351e+02 1.204853e+02 1.113093e+02 1.192536e+02 1.434532e+02 9.361184e+01 1.227937e+02 1.126374e+02 2.858736e+02 3.824176e+00 4.353769e+00 4.197701e+00 6.182930e+00 6.429985e+00 6.188009e+00 6.262271e+00 7.028541e+00 6.338915e+00 6.116920e+00 6.213232e+00 5.715206e+00 5.231548e+00 6.114348e-01 7.088935e-01 6.909094e-01 1.079866e+00 1.124782e+00 1.141422e+00 1.166829e+00 1.298918e+00 1.160042e+00 1.158325e+00 1.146051e+00 1.079683e+00 7.718384e-01
<GCONST> 1.563081e+02
<STATE> 4
<MEAN> 39
 -7.971411e+00 -2.909656e+00 -2.505336e+00 -5.721625e+00 -9.166886e+00 -6.759584e+00 -1.140879e+01 -4.539305e+00 -6.235915e+00 -2.717901e+00 -3.709303e+00 -6.068471e+00 6.829917e+01 7.325879e-03 2.573640e-02 -2.079092e-03 1.252146e-02 1.514140e-02 7.568462e-03 -9.790197e-03 -3.804762e-02 8.223971e-03 -7.798152e-03 -9.952380e-03 3.874999e-03 -1.344530e-02 -2.593541e-03 1.928694e-03 2.210828e-03 8.698661e-04 -1.725683e-03 8.762197e-04 1.386485e-03 3.543462e-04 -2.715448e-03 -1.162450e-03 -6.638241e-04 8.387722e-04 -2.567105e-03
<VARIANCE> 39
 1.173903e+02 9.519392e+01 1.095070e+02 1.127740e+02 1.302478e+02 1.189067e+02 1.143095e+02 1.194967e+02 1.390202e+02 9.278504e+01 1.195762e+02 1.117070e+02 2.859094e+02 3.933216e+00 4.626059e+00 4.289948e+00 6.264591e+00 6.350049e+00 6.121992e+00 6.221213e+00 6.999888e+00 6.367647e+00 5.984913e+00 6.161167e+00 5.591010e+00 5.312839e+00 6.186181e-01 7.544556e-01 6.978260e-01 1.089968e+00 1.107889e+00 1.124014e+00 1.151756e+00 1.285177e+00 1.157089e+00 1.126605e+00 1.132652e+00 1.054691e+00 7.748063e-01
<GCONST> 1.564506e+02
<TRANSP> 5
 0.000000e+00 1.000000e+00 0.000000e+00 0.000000e+00 0.000000e+00
 0.000000e+00 6.205121e-01 3.794879e-01 0.000000e+00 0.000000e+00
 0.000000e+00 0.000000e+00 6.205131e-01 3.794868e-01 0.000000e+00
 0.000000e+00 0.000000e+00 0.000000e+00 7.503581e-01 2.496418e-01
 0.000000e+00 0.000000e+00 0.000000e+00 0.000000e+00 0.000000e+00
<ENDHMM>
~h "r"
<BEGINHMM>
<NUMSTATES> 5
<STATE> 2
<MEAN> 39
 -7.944314e+00 -3.145273e+00 -1.553782e+00 -5.660108e+00 -9.989582e+00 -7.822284e+00 -1.175992e+01 -4.170967e+00 -6.398591e+00 -2.255970e+00 -4.081679e+00 -5.549531e+00 6.989104e+01 7.223086e-03 3.379423e-03 2.003970e-02 -4.581654e-03 -1.316189e-02 3.428997e-03 6.927518e-03 -1.663631e-02 -2.388397e-02 -2.938824e-03 -1.177646e-02 5.016456e-03 1.247745e-02 -2.536294e-03 3.640544e-03 -2.637447e-04 2.183954e-03 1.348345e-03 3.531413e-03 2.363231e-03 4.974543e-04 -7.943696e-04 -5.681755e-04 9.005774e-04 1.990809e-03 -7.276612e-03
<VARIANCE> 39
 1.063891e+02 9.182906e+01 1.074201e+02 1.089162e+02 1.261324e+02 1.214264e+02 1.191005e+02 1.264133e+02 1.541149e+02 9.467509e+01 1.315004e+02 1.149174e+02 2.853080e+02 3.517259e+00 4.200375e+00 4.144851e+00 5.595230e+00 6.107841e+00 5.989252e+00 6.059420e+00 6.965741e+00 6.204983e+00 5.808375e+00 6.165404e+00 5.516154e+00 4.707191e+00 5.631921e-01 6.850604e-01 6.728639e-01 9.703953e-01 1.045319e+00 1.092882e+00 1.120787e+00 1.251726e+00 1.127595e+00 1.087222e+00 1.119759e+00 1.039022e+00 6.858209e-01
<GCONST> 1.552629e+02
<STATE> 3
<MEAN> 39
 -7.937142e+00 -3.120296e+00 -1.505882e+00 -5.683019e+00 -1.002715e+01 -7.811787e+00 -1.174498e+01 -4.236942e+00 -6.476319e+00 -2.260947e+00 -4.114505e+00 -5.539729e+00 6.991737e+01 2.927184e-04 1.223508e-02 1.866864e-02 7.746127e-04 -1.036811e-02 1.107812e-02 1.095989e-02 -1.667989e-02 -2.437427e-02 -5.125146e-03 -9.537078e-03 1.047578e-02 -5.398184e-03 -2.404196e-03 2.907487e-03 -1.259856e-03 1.507737e-03 1.652893e-03 1.920184e-03 1.180891e-03 2.786212e-04 -7.954646e-05 -3.168725e-04 8.228135e-04 2.173077e-03 -5.280057e-03
<VARIANCE> 39
 1.057257e+02 9.179127e+01 1.080828e+02 1.089378e+02 1.258538e+02 1.212401e+02 1.191681e+02 1.273561e+02 1.538820e+02 9.461138e+01 1.317755e+02 1.136724e+02 2.824224e+02 3.496967e+00 4.175158e+00 4.143439e+00 5.591315e+00 6.103712e+00 5.990722e+00 6.045879e+00 6.976812e+00 6.211526e+00 5.795568e+00 6.180393e+00 5.508230e+00 4.666558e+00 5.594147e-01 6.808726e-01 6.712932e-01 9.655363e-01 1.041812e+00 1.095318e+00 1.118183e+00 1.251011e+00 1.127855e+00 1.085787e+00 1.120658e+00 1.038535e+00 6.771274e-01
<GCONST> 1.551851e+02
<STATE> 4
<MEAN> 39
 -7.639161e+00 -3.263166e+00 -1.619869e+00 -5.570305e+00 -1.029753e+01 -7.211202e+00 -1.203563e+01 -4.419785e+00 -6.780258e+00 -2.556077e+00 -4.031658e+00 -5.754736e+00 6.884236e+01 -1.152377e-02 2.058094e-02 1.287015e-02 2.901248e-03 -5.588770e-03 1.382479e-02 1.108820e-02 -2.059957e-02 -2.280229e-02 -3.711793e-03 -6.316773e-03 1.503911e-02 -1.988321e-02 -2.086416e-03 1.833732e-03 -1.571412e-03 1.028779e-03 2.119366e-03 8.000756e-04 2.524818e-04 6.195911e-04 3.375796e-04 -6.355243e-05 5.472324e-04 2.247023e-03 -3.080321e-03
<VARIANCE> 39
 1.147213e+02 9.757780e+01 1.157274e+02 1.109507e+02 1.283475e+02 1.226991e+02 1.203544e+02 1.258992e+02 1.491370e+02 9.313665e+01 1.292973e+02 1.117554e+02 2.881393e+02 3.586709e+00 4.474355e+00 4.238531e+00 5.655438e+00 6.124859e+00 5.905951e+00 5.940390e+00 6.945430e+00 6.205987e+00 5.671882e+00 6.086675e+00 5.330888e+00 4.661853e+00 5.661177e-01 7.261691e-01 6.737345e-01 9.732792e-01 1.042804e+00 1.075636e+00 1.092312e+00 1.239366e+00 1.119353e+00 1.061615e+00 1.108854e+00 1.003523e+00 6.679999e-01
<GCONST> 1.553553e+02
<TRANSP> 5
 0.000000e+00 1.000000e+00 0.000000e+00 0.000000e+00 0.000000e+00
 0.000000e+00 6.259370e-01 3.740630e-01 0.000000e+00 0.000000e+00
 0.000000e+00 0.000000e+00 6.259368e-01 3.740632e-01 0.000000e+00
 0.000000e+00 0.000000e+00 0.000000e+00 7.606069e-01 2.393931e-01
 0.000000e+00 0.000000e+00 0.000000e+00 0.000000e+00 0.000000e+00
<ENDHMM>
~h "s"
<BEGINHMM>
<NUMSTATES> 5
<STATE> 2
<MEAN> 39
 -1.039296e+01 -1.189072e+00 -2.167054e+00 -5.201297e+00 -8.812720e+00 -7.481851e+00 -1.063435e+01 -3.641228e+00 -6.257328e+00 -2.523680e+00 -3.821739e+00 -5.060615e+00 6.942997e+01 -2.067396e-02 7.110247e-03 -1.397332e-03 -1.908583e-02 1.930625e-02 -4.385419e-02 4.570335e-03 -6.334101e-03 -6.505512e-04 -2.145553e-02 -2.027709e-02 -7.714659e-03 6.236243e-02 6.843271e-04 4.278147e-04 -1.397473e-03 2.336104e-03 -1.333531e-03 4.056588e-03 8.647936e-04 -1.253563e-03 2.628120e-03 -5.287703e-04 -4.114639e-04 -2.170454e-03 -1.494784e-02
<VARIANCE> 39
 1.367185e+02 1.014761e+02 1.080333e+02 1.091791e+02 1.351431e+02 1.210903e+02 1.209383e+02 1.212707e+02 1.466057e+02 9.100196e+01 1.245072e+02 1.172956e+02 2.930537e+02 5.083321e+00 4.748845e+00 4.220368e+00 5.302936e+00 6.080402e+00 5.892174e+00 6.464330e+00 6.939305e+00 5.773620e+00 5.697546e+00 5.945836e+00 5.396029e+00 4.254447e+00 7.260345e-01 7.305700e-01 6.817434e-01 9.102628e-01 1.024172e+00 1.073810e+00 1.184397e+00 1.249790e+00 1.057751e+00 1.066170e+00 1.086381e+00 9.901460e-01 6.274657e-01
<GCONST> 1.558417e+02
<STATE> 3
<MEAN> 39
 -1.045770e+01 -1.167899e+00 -2.173686e+00 -5.254211e+00 -8.760501e+00 -7.577687e+00 -1.061663e+01 -3.655146e+00 -6.248220e+00 -2.579322e+00 -3.884587e+00 -5.083382e+00 6.953701e+01 -1.323511e-02 4.822439e-03 -5.345352e-03 -1.339711e-02 1.846140e-02 -3.366093e-02 6.175790e-03 -7.893189e-03 3.806645e-03 -2.040318e-02 -2.239077e-02 -1.269200e-02 3.751383e-02 3.158379e-03 -4.312901e-04 -5.237921e-04 2.154275e-03 -4.195584e-04 3.849404e-03 2.759014e-04 -1.010007e-03 1.469085e-03 7.733841e-04 -4.057708e-04 -1.402977e-03 -8.084056e-03
<VARIANCE> 39
 1.364281e+02 1.020123e+02 1.083466e+02 1.091497e+02 1.353995e+02 1.210455e+02 1.206625e+02 1.208019e+02 1.468410e+02 9.148047e+01 1.243458e+02 1.176441e+02 2.896379e+02 5.097569e+00 4.742209e+00 4.220503e+00 5.296682e+00 6.060266e+00 5.897127e+00 6.443998e+00 6.917771e+00 5.766339e+00 5.707147e+00 5.931563e+00 5.388283e+00 4.089016e+00 7.238689e-01 7.289150e-01 6.804659e-01 9.072497e-01 1.021567e+00 1.074105e+00 1.180700e+00 1.247515e+00 1.055491e+00 1.066891e+00 1.081870e+00 9.887480e-01 6.039008e-01
<GCONST> 1.557251e+02
<STATE> 4
<MEAN> 39
 -1.024343e+01 -1.459703e+00 -2.271686e+00 -5.229135e+00 -8.938076e+00 -7.106820e+00 -1.081282e+01 -3.747851e+00 -6.364281e+00 -2.912197e+00 -3.816178e+00 -5.258473e+00 6.852603e+01 -6.299671e-03 1.460390e-03 -6.095549e-03 -8.963937e-03 1.862277e-02 -1.962897e-02 7.211519e-03 -8.135682e-03 6.561460e-03 -1.368750e-02 -2.464910e-02 -1.331932e-02 1.441366e-02 3.412679e-03 -8.344993e-04 6.009383e-04 1.284910e-03 -4.508164e-04 2.865972e-03 -5.543791e-04 -9.180196e-04 4.606773e-04 1.620003e-03 3.032969e-04 -7.047714e-04 -3.524686e-03
<VARIANCE> 39
 1.452620e+02 1.069827e+02 1.136948e+02 1.094602e+02 1.388482e+02 1.219537e+02 1.204052e+02 1.189562e+02 1.414284e+02 9.016993e+01 1.202869e+02 1.152908e+02 2.939345e+02 5.087020e+00 4.910294e+00 4.278213e+00 5.314055e+00 6.047754e+00 5.847145e+00 6.310374e+00 6.776611e+00 5.766244e+00 5.606005e+00 5.836550e+00 5.179886e+00 4.167939e+00 7.174391e-01 7.601157e-01 6.782751e-01 9.075989e-01 1.017845e+00 1.058427e+00 1.154659e+00 1.218068e+00 1.053484e+00 1.045256e+00 1.061590e+00 9.506507e-01 6.015475e-01
<GCONST> 1.556351e+02
<TRANSP> 5
 0.000000e+00 1.000000e+00 0.000000e+00 0.000000e+00 0.000000e+00
 0.000000e+00 6.198043e-01 3.801958e-01 0.000000e+00 0.000000e+00
 0.000000e+00 0.000000e+00 6.198031e-01 3.801969e-01 0.000000e+00
 0.000000e+00 0.000000e+00 0.000000e+00 7.539986e-01 2.460015e-01
 0.000000e+00 0.000000e+00 0.000000e+00 0.000000e+00 0.000000e+00
<ENDHMM>
~h "t"
<BEGINHMM>
<NUMSTATES> 5
<STATE> 2
<MEAN> 39
 -8.989939e+00 -1.722411e+00 -1.784798e+00 -5.317235e+00 -9.595345e+00 -7.069054e+00 -1.120718e+01 -4.627785e+00 -6.175653e+00 -2.056711e+00 -3.478313e+00 -5.223104e+00 6.782233e+01 1.864424e-02 -6.642891e-04 -4.336390e-03 -2.051158e-02 8.750106e-03 -1.812456e-03 -3.521958e-03 -6.911013e-03 -1.101657e-02 -5.286681e-04 -1.380139e-02 -7.279201e-03 4.312731e-02 -3.076190e-03 2.466314e-04 -6.506753e-04 4.596242e-04 -1.725715e-03 3.071878e-03 5.873244e-04 1.760611e-03 1.417042e-03 -5.764887e-04 -1.953587e-04 -1.037288e-04 -8.422634e-03
<VARIANCE> 39
 1.093036e+02 8.626102e+01 1.048077e+02 1.089941e+02 1.252817e+02 1.207441e+02 1.259249e+02 1.216783e+02 1.440699e+02 9.372472e+01 1.270717e+02 1.039003e+02 3.000371e+02 3.711531e+00 3.947001e+00 4.073311e+00 5.411298e+00 6.052402e+00 6.215086e+00 6.341081e+00 6.667789e+00 6.037576e+00 5.660104e+00 6.085972e+00 5.308271e+00 5.094379e+00 5.966313e-01 6.423548e-01 6.531345e-01 9.251960e-01 1.034738e+00 1.148402e+00 1.160269e+00 1.212887e+00 1.085960e+00 1.064930e+00 1.110304e+00 9.980679e-01 7.515463e-01
<GCONST> 1.549340e+02
<STATE> 3
<MEAN> 39
 -8.943201e+00 -1.712873e+00 -1.805191e+00 -5.369350e+00 -9.580560e+00 -7.064938e+00 -1.122585e+01 -4.653988e+00 -6.218297e+00 -2.055769e+00 -3.520837e+00 -5.240792e+00 6.790657e+01 1.334475e-02 -5.557025e-04 -7.414790e-03 -1.879826e-02 8.619817e-03 5.259367e-03 -1.793169e-03 -2.320025e-03 -8.733763e-03 -5.594622e-04 -1.426667e-02 -5.013134e-03 2.870325e-02 -2.188997e-03 -1.098566e-04 4.854216e-05 1.233992e-03 -2.751452e-04 1.898221e-03 6.410490e-04 1.052113e-03 7.063175e-04 -8.845251e-06 -2.996112e-04 1.348060e-03 -4.697590e-03
<VARIANCE> 39
 1.088956e+02 8.637267e+01 1.054168e+02 1.091952e+02 1.257034e+02 1.206184e+02 1.262685e+02 1.215239e+02 1.445373e+02 9.403940e+01 1.270488e+02 1.042587e+02 2.966503e+02 3.684170e+00 3.940118e+00 4.079676e+00 5.423206e+00 6.060703e+00 6.213481e+00 6.329555e+00 6.677904e+00 6.044118e+00 5.655430e+00 6.083072e+00 5.314732e+00 5.011381e+00 5.928318e-01 6.410404e-01 6.543128e-01 9.267706e-01 1.034980e+00 1.147453e+00 1.156613e+00 1.214236e+00 1.087269e+00 1.063736e+00 1.109392e+00 9.995725e-01 7.397774e-01
<GCONST> 1.548989e+02
<STATE> 4
<MEAN> 39
 -8.656127e+00 -1.852556e+00 -1.956430e+00 -5.293058e+00 -9.919357e+00 -6.571362e+00 -1.135722e+01 -4.745734e+00 -6.507542e+00 -2.284317e+00 -3.525350e+00 -5.371166e+00 6.701174e+01 9.937257e-03 2.333819e-03 -1.012047e-02 -1.414450e-02 9.388303e-03 7.471895e-03 6.223824e-04 -2.216681e-03 -1.389270e-02 6.958535e-04 -1.328316e-02 3.160492e-03 1.799482e-02 -1.785924e-03 2.411512e-04 7.318784e-04 1.675371e-03 8.803437e-05 5.717220e-05 1.203514e-03 -1.184174e-04 -3.788440e-04 -1.390449e-04 -2.020614e-04 2.054368e-03 -2.761949e-03
<VARIANCE> 39
 1.185221e+02 9.324943e+01 1.113228e+02 1.106843e+02 1.281015e+02 1.208399e+02 1.255181e+02 1.194124e+02 1.418618e+02 9.200342e+01 1.218610e+02 1.032269e+02 2.991031e+02 3.774083e+00 4.187138e+00 4.156652e+00 5.454838e+00 6.041655e+00 6.142366e+00 6.191323e+00 6.625934e+00 6.036898e+00 5.578018e+00 5.965804e+00 5.189260e+00 5.024191e+00 6.016425e-01 6.791295e-01 6.604155e-01 9.316770e-01 1.029541e+00 1.128944e+00 1.128014e+00 1.199819e+00 1.084196e+00 1.046746e+00 1.089857e+00 9.779807e-01 7.336515e-01
<GCONST> 1.550123e+02
<TRANSP> 5
 0.000000e+00 1.000000e+00 0.000000e+00 0.000000e+00 0.000000e+00
 0.000000e+00 6.280961e-01 3.719039e-01 0.000000e+00 0.000000e+00
 0.000000e+00 0.000000e+00 6.280980e-01 3.719020e-01 0.000000e+00
 0.000000e+00 0.000000e+00 0.000000e+00 7.613054e-01 2.386946e-01
 0.000000e+00 0.000000e+00 0.000000e+00 0.000000e+00 0.000000e+00
<ENDHMM>
~h "u"
<BEGINHMM>
<NUMSTATES> 5
<STATE> 2
<MEAN> 39
 -7.724336e+00 -1.461126e+00 -2.318163e+00 -5.930909e+00 -9.634047e+00 -5.704050e+00 -1.218276e+01 -5.117925e+00 -7.295260e+00 -1.976222e+00 -3.359347e+00 -5.264845e+00 6.819859e+01 8.490525e-03 5.480276e-03 -8.241965e-03 -1.764455e-03 5.556856e-03 1.304790e-03 -7.142398e-03 -1.434515e-02 -1.930988e-02 -9.417711e-03 4.763874e-03 9.127943e-03 1.250088e-02 -4.072911e-03 -1.308997e-03 6.355538e-04 2.851081e-03 3.507605e-05 -2.238445e-03 2.100778e-03 2.856540e-03 2.040705e-03 -1.078385e-04 -2.674141e-04 -9.071210e-04 -1.956746e-03
<VARIANCE> 39
 1.084496e+02 8.606818e+01 9.879020e+01 1.178997e+02 1.209449e+02 1.135108e+02 1.353611e+02 1.241258e+02 1.500124e+02 9.914369e+01 1.268864e+02 1.047974e+02 2.837156e+02 3.405538e+00 3.886047e+00 3.989496e+00 5.775193e+00 5.972681e+00 5.922945e+00 6.466167e+00 6.956000e+00 6.103335e+00 5.831566e+00 6.123552e+00 5.197999e+00 4.411877e+00 5.272983e-01 6.312907e-01 6.571764e-01 9.815115e-01 1.029656e+00 1.077666e+00 1.178008e+00 1.259463e+00 1.106962e+00 1.085336e+00 1.113581e+00 9.671049e-01 6.229950e-01
<GCONST> 1.545421e+02
<STATE> 3
<MEAN> 39
 -7.709441e+00 -1.445766e+00 -2.339676e+00 -5.928934e+00 -9.620584e+00 -5.705677e+00 -1.219692e+01 -5.148873e+00 -7.349872e+00 -2.007232e+00 -3.345746e+00 -5.240094e+00 6.822784e+01 -2.561139e-03 2.390160e-03 -6.639589e-03 5.206777e-03 6.826998e-03 -3.666192e-03 -7.172544e-04 -7.288107e-03 -1.253690e-02 -1.001566e-02 3.387383e-03 6.447942e-03 7.148713e-03 -3.715953e-03 -1.120168e-03 4.555653e-04 2.313512e-03 -5.841098e-05 -1.489512e-03 2.062073e-03 2.696794e-03 2.655328e-03 -4.993484e-04 -1.144169e-03 -1.667120e-03 -1.156358e-03
<VARIANCE> 39
 1.076785e+02 8.587290e+01 9.912945e+01 1.176138e+02 1.215244e+02 1.134127e+02 1.358891e+02 1.244657e+02 1.506636e+02 9.934433e+01 1.270466e+02 1.047597e+02 2.800071e+02 3.417996e+00 3.897044e+00 4.002653e+00 5.795071e+00 5.993056e+00 5.933280e+00 6.496418e+00 6.984978e+00 6.120394e+00 5.866780e+00 6.157961e+00 5.212560e+00 4.400071e+00 5.285496e-01 6.330871e-01 6.589915e-01 9.852998e-01 1.032763e+00 1.080468e+00 1.185092e+00 1.264611e+00 1.111107e+00 1.092034e+00 1.120653e+00 9.703164e-01 6.213400e-01
<GCONST> 1.546245e+02
<STATE> 4
<MEAN> 39
 -7.542849e+00 -1.582751e+00 -2.481688e+00 -5.638180e+00 -9.904597e+00 -5.271484e+00 -1.227394e+01 -5.156538e+00 -7.631904e+00 -2.378200e+00 -3.200278e+00 -5.394619e+00 6.718332e+01 -1.759448e-02 1.537486e-03 -5.321627e-03 1.325051e-02 1.080025e-02 -4.555307e-03 1.000862e-02 -1.681102e-04 -1.856379e-03 -1.175563e-02 -7.575117e-04 4.457249e-03 -4.398696e-03 -2.840934e-03 -5.860193e-04 4.178509e-04 1.862428e-03 9.998883e-05 1.489798e-04 2.338052e-03 1.909583e-03 2.616779e-03 -3.178241e-04 -1.344183e-03 -1.186672e-03 -9.764404e-04
<VARIANCE> 39
 1.179537e+02 9.150505e+01 1.054592e+02 1.187088e+02 1.254586e+02 1.135510e+02 1.363579e+02 1.239684e+02 1.482510e+02 9.690901e+01 1.227073e+02 1.029525e+02 2.828674e+02 3.549314e+00 4.167220e+00 4.140396e+00 5.798182e+00 5.983270e+00 5.868275e+00 6.419909e+00 6.924051e+00 6.113395e+00 5.772097e+00 6.086368e+00 5.097864e+00 4.437922e+00 5.414472e-01 6.791418e-01 6.697922e-01 9.841826e-01 1.027442e+00 1.063329e+00 1.168438e+00 1.249985e+00 1.102687e+00 1.074712e+00 1.111673e+00 9.501392e-01 6.237860e-01
<GCONST> 1.548766e+02
<TRANSP> 5
 0.000000e+00 1.000000e+00 0.000000e+00 0.000000e+00 0.000000e+00
 0.000000e+00 6.275119e-01 3.724881e-01 0.000000e+00 0.000000e+00
 0.000000e+00 0.000000e+00 6.275116e-01 3.724884e-01 0.000000e+00
 0.000000e+00 0.000000e+00 0.000000e+00 7.635435e-01 2.364565e-01
 0.000000e+00 0.000000e+00 0.000000e+00 0.000000e+00 0.000000e+00
<ENDHMM>
~h "v"
<BEGINHMM>
<NUMSTATES> 5
<STATE> 2
<MEAN> 39
 -9.305953e+00 -1.218926e+00 -2.200799e+00 -5.851331e+00 -9.298665e+00 -8.379812e+00 -1.146088e+01 -3.579316e+00 -7.255614e+00 -1.224320e-01 -4.344532e+00 -5.111027e+00 7.105604e+01 3.332750e-02 -4.183264e-02 -1.865089e-02 -5.433208e-02 4.250012e-02 -5.626564e-02 -2.903597e-02 2.770786e-02 4.977242e-02 -1.269280e-02 -5.306114e-02 -5.370142e-02 8.077868e-02 -1.476472e-03 2.443423e-04 9.715371e-03 5.398222e-03 -8.628573e-03 -9.045063e-03 -3.249137e-03 -1.251198e-03 -2.985904e-03 -6.437873e-03 -1.293438e-03 -1.456528e-03 6.348268e-03
<VARIANCE> 39
 1.236463e+02 8.909711e+01 1.154662e+02 1.242639e+02 1.336447e+02 1.265967e+02 1.338208e+02 1.371942e+02 1.409665e+02 1.148483e+02 1.726941e+02 1.375616e+02 2.088179e+02 5.612685e+00 5.650725e+00 5.296029e+00 6.086170e+00 7.435868e+00 7.247524e+00 6.574095e+00 7.495094e+00 6.758291e+00 7.006691e+00 6.601631e+00 6.460892e+00 5.212519e+00 8.736728e-01 9.073387e-01 8.131804e-01 1.013553e+00 1.262214e+00 1.281737e+00 1.201199e+00 1.356430e+00 1.231515e+00 1.318465e+00 1.201055e+00 1.174154e+00 7.284396e-01
<GCONST> 1.603502e+02
<STATE> 3
<MEAN> 39
 -9.258204e+00 -1.306476e+00 -2.197236e+00 -5.962351e+00 -9.218131e+00 -8.595831e+00 -1.157453e+01 -3.499251e+00 -7.164814e+00 -1.525500e-01 -4.460786e+00 -5.240438e+00 7.132071e+01 2.889081e-02 -3.959451e-02 4.234446e-03 -4.270905e-02 2.173504e-02 -7.759324e-02 -3.567871e-02 2.373458e-02 4.169895e-02 -2.630435e-02 -5.517707e-02 -5.706179e-02 9.887744e-02 -9.060776e-04 1.775097e-03 9.585977e-03 4.098126e-03 -9.142249e-03 -7.594155e-03 -3.224188e-03 -3.112151e-03 -4.684435e-03 -6.057327e-03 -1.113446e-03 -2.165699e-03 5.593512e-03
<VARIANCE> 39
 1.241366e+02 9.029475e+01 1.161227e+02 1.245103e+02 1.313021e+02 1.266173e+02 1.308762e+02 1.370885e+02 1.430527e+02 1.145719e+02 1.749553e+02 1.384172e+02 2.053360e+02 5.648758e+00 5.741496e+00 5.288952e+00 6.243093e+00 7.466925e+00 7.257721e+00 6.582825e+00 7.484806e+00 6.894072e+00 7.062169e+00 6.610666e+00 6.509811e+00 5.395515e+00 8.824508e-01 9.196481e-01 8.169776e-01 1.036924e+00 1.277699e+00 1.282918e+00 1.199312e+00 1.352184e+00 1.252109e+00 1.322008e+00 1.202242e+00 1.182708e+00 7.520903e-01
<GCONST> 1.605912e+02
<STATE> 4
<MEAN> 39
 -8.513908e+00 -1.249472e+00 -2.017321e+00 -6.322185e+00 -9.529121e+00 -8.766398e+00 -1.196202e+01 -3.727085e+00 -7.582019e+00 -4.535184e-01 -4.881583e+00 -5.365529e+00 7.153555e+01 1.421056e-02 -2.365625e-02 3.391759e-02 -2.487560e-02 -9.138281e-04 -1.000459e-01 -4.271154e-02 1.398165e-02 1.935755e-02 -3.245061e-02 -4.357821e-02 -5.349471e-02 1.194714e-01 -2.945545e-04 2.674716e-03 7.196158e-03 1.999528e-03 -7.420358e-03 -4.112507e-03 -2.052311e-03 -3.991907e-03 -5.009106e-03 -4.365288e-03 1.088731e-04 -1.322478e-03 3.441516e-03
<VARIANCE> 39
 1.290872e+02 9.590911e+01 1.165673e+02 1.259509e+02 1.285437e+02 1.288054e+02 1.297820e+02 1.360354e+02 1.434952e+02 1.127998e+02 1.716848e+02 1.373400e+02 1.895280e+02 5.656577e+00 6.083345e+00 5.174829e+00 6.773052e+00 7.521956e+00 7.471299e+00 6.759306e+00 7.897185e+00 7.206831e+00 7.290337e+00 6.699553e+00 6.500101e+00 5.688540e+00 8.936673e-01 9.680044e-01 8.066594e-01 1.123854e+00 1.302715e+00 1.305389e+00 1.225352e+00 1.439010e+00 1.300353e+00 1.351785e+00 1.218048e+00 1.190119e+00 7.962179e-01
<GCONST> 1.613313e+02
<TRANSP> 5
 0.000000e+00 1.000000e+00 0.000000e+00 0.000000e+00 0.000000e+00
 0.000000e+00 6.101840e-01 3.898160e-01 0.000000e+00 0.000000e+00
 0.000000e+00 0.000000e+00 6.101835e-01 3.898165e-01 0.000000e+00
 0.000000e+00 0.000000e+00 0.000000e+00 7.343531e-01 2.656468e-01
 0.000000e+00 0.000000e+00 0.000000e+00 0.000000e+00 0.000000e+00
<ENDHMM>
~h "w"
<BEGINHMM>
<NUMSTATES> 5
<STATE> 2
<MEAN> 39
 -1.069441e+01 -3.007218e-01 -2.299455e+00 -7.070496e+00 -1.015026e+01 -6.363314e+00 -1.130814e+01 -4.576149e+00 -6.671683e+00 -9.530783e-03 -3.246781e+00 -3.778218e+00 6.769991e+01 2.815170e-02 4.368028e-02 -3.645442e-02 -6.994434e-02 4.545812e-02 3.279153e-02 -2.261889e-02 -1.472881e-02 -5.305715e-02 5.339901e-02 -4.787774e-02 3.325265e-02 8.309016e-02 8.004985e-05 2.677198e-03 -7.793382e-04 -2.818149e-03 6.771692e-03 2.522097e-04 3.339870e-03 4.782545e-03 -6.378377e-03 -3.219989e-03 6.986972e-04 -6.134087e-03 -7.117143e-03
<VARIANCE> 39
 1.298664e+02 8.567906e+01 1.018664e+02 1.337216e+02 1.162819e+02 1.233536e+02 1.176814e+02 1.146768e+02 1.484896e+02 9.023261e+01 1.385858e+02 9.274781e+01 3.354380e+02 3.969209e+00 3.244024e+00 3.713567e+00 5.229152e+00 6.215600e+00 4.842422e+00 6.190432e+00 6.565740e+00 6.210134e+00 5.615862e+00 5.247406e+00 4.942315e+00 3.582315e+00 5.784065e-01 5.197948e-01 6.262869e-01 9.260600e-01 1.062738e+00 8.571121e-01 1.106012e+00 1.198340e+00 1.163440e+00 1.058694e+00 9.824857e-01 9.351872e-01 5.284429e-01
<GCONST> 1.530167e+02
<STATE> 3
<MEAN> 39
 -1.061004e+01 -2.250707e-01 -2.418547e+00 -7.228729e+00 -1.001179e+01 -6.277450e+00 -1.133638e+01 -4.584501e+00 -6.803935e+00 1.234651e-01 -3.347029e+00 -3.752400e+00 6.790462e+01 3.504478e-02 4.143383e-02 -4.062526e-02 -7.710679e-02 6.533493e-02 3.629698e-02 -1.321992e-02 -1.432735e-03 -6.503599e-02 5.396708e-02 -5.310601e-02 9.255156e-03 7.855531e-02 1.164671e-03 2.886791e-04 3.936857e-04 -2.193540e-03 7.934084e-03 -3.032479e-03 2.985754e-03 1.732354e-03 -4.883056e-03 -5.480170e-04 3.559497e-04 -8.670535e-03 -4.503856e-04
<VARIANCE> 39
 1.303333e+02 8.655897e+01 1.016360e+02 1.336677e+02 1.144736e+02 1.203010e+02 1.181543e+02 1.152636e+02 1.453453e+02 9.256683e+01 1.396855e+02 9.322844e+01 3.289846e+02 4.056737e+00 3.277804e+00 3.736656e+00 5.242684e+00 6.185478e+00 4.883145e+00 6.252709e+00 6.640319e+00 6.153911e+00 5.697579e+00 5.265517e+00 4.958278e+00 3.477175e+00 5.894343e-01 5.234307e-01 6.317386e-01 9.188339e-01 1.043049e+00 8.734297e-01 1.114259e+00 1.207316e+00 1.149741e+00 1.058201e+00 9.880666e-01 9.332594e-01 5.032868e-01
<GCONST> 1.530262e+02
<STATE> 4
<MEAN> 39
 -1.093696e+01 -7.974005e-02 -2.843396e+00 -6.944793e+00 -9.662539e+00 -5.836769e+00 -1.115497e+01 -4.419998e+00 -6.894717e+00 -5.023646e-02 -3.548823e+00 -3.754211e+00 6.655721e+01 4.587937e-02 1.656065e-02 -4.176237e-02 -7.208233e-02 7.874172e-02 2.319853e-02 -7.335518e-03 1.981208e-03 -6.542289e-02 4.897482e-02 -6.440894e-02 -1.874684e-02 8.474538e-02 1.159885e-03 -3.351549e-03 1.963372e-03 2.837621e-03 4.691085e-03 -5.882337e-03 2.433057e-03 -1.835159e-03 9.923762e-04 7.050654e-04 -9.154921e-05 -7.527243e-03 -4.287505e-04
<VARIANCE> 39
 1.334686e+02 8.507536e+01 9.788269e+01 1.356165e+02 1.093625e+02 1.139381e+02 1.146913e+02 1.118421e+02 1.371758e+02 9.339523e+01 1.346463e+02 9.154726e+01 3.520383e+02 4.166801e+00 3.399680e+00 3.655812e+00 5.063787e+00 6.010067e+00 4.763777e+00 6.072137e+00 6.631315e+00 5.995968e+00 5.611518e+00 5.218378e+00 4.900003e+00 3.377056e+00 6.163329e-01 5.459920e-01 6.205387e-01 8.822861e-01 1.011010e+00 8.639176e-01 1.083033e+00 1.201546e+00 1.114679e+00 1.030748e+00 9.837157e-01 9.179078e-01 4.800142e-01
<GCONST> 1.524722e+02
<TRANSP> 5
 0.000000e+00 1.000000e+00 0.000000e+00 0.000000e+00 0.000000e+00
 0.000000e+00 5.833589e-01 4.166411e-01 0.000000e+00 0.000000e+00
 0.000000e+00 0.000000e+00 5.833586e-01 4.166413e-01 0.000000e+00
 0.000000e+00 0.000000e+00 0.000000e+00 7.007616e-01 2.992384e-01
 0.000000e+00 0.000000e+00 0.000000e+00 0.000000e+00 0.000000e+00
<ENDHMM>
~h "y"
<BEGINHMM>
<NUMSTATES> 5
<STATE> 2
<MEAN> 39
 -9.533225e+00 -2.890318e+00 -1.236022e+00 -4.523260e+00 -9.723950e+00 -6.472484e+00 -9.509586e+00 -2.162037e+00 -6.064855e+00 -2.638727e+00 -3.635196e+00 -4.798784e+00 6.683955e+01 1.825505e-02 -4.870852e-02 -1.817690e-02 -4.923587e-03 5.277929e-02 -1.082975e-02 1.948034e-02 1.854510e-02 2.776244e-02 -3.604076e-03 -3.888556e-02 -2.018877e-03 3.673035e-02 -2.495171e-03 4.746422e-03 -3.970578e-03 1.421187e-03 1.627474e-03 6.652217e-03 -3.450077e-04 -5.896588e-03 1.268983e-03 1.131285e-03 5.032806e-04 -4.208880e-03 -1.393077e-02
<VARIANCE> 39
 1.091411e+02 8.735767e+01 1.005492e+02 1.060927e+02 1.335680e+02 1.269063e+02 1.183687e+02 1.237136e+02 1.299491e+02 8.709900e+01 1.293949e+02 1.181729e+02 3.564737e+02 2.850059e+00 3.555138e+00 3.576869e+00 4.530744e+00 5.450660e+00 4.923762e+00 5.031416e+00 5.910331e+00 5.036526e+00 4.871487e+00 5.341240e+00 4.569245e+00 3.703828e+00 4.400235e-01 5.585793e-01 5.373204e-01 7.659017e-01 8.720840e-01 8.653640e-01 9.025955e-01 1.052402e+00 8.944649e-01 8.927049e-01 9.355363e-01 8.347465e-01 5.138336e-01
<GCONST> 1.500156e+02
<STATE> 3
<MEAN> 39
 -9.489797e+00 -3.032453e+00 -1.311226e+00 -4.545618e+00 -9.541575e+00 -6.493526e+00 -9.438677e+00 -2.125633e+00 -5.978427e+00 -2.653595e+00 -3.772429e+00 -4.794361e+00 6.693788e+01 1.467528e-02 -3.643744e-02 -2.635086e-02 2.065266e-03 6.094061e-02 5.538536e-03 1.670129e-02 -1.681598e-03 3.229047e-02 -3.929618e-03 -3.735166e-02 -9.945676e-03 8.173302e-03 -2.505094e-04 3.415727e-03 -1.430188e-03 1.865776e-03 3.221560e-04 4.934165e-03 -1.435257e-03 -6.715643e-03 -1.069168e-03 -6.764008e-04 8.058816e-04 -3.725403e-03 -6.650391e-03
<VARIANCE> 39
 1.066936e+02 8.680704e+01 1.000216e+02 1.049336e+02 1.352559e+02 1.260726e+02 1.184129e+02 1.230734e+02 1.306658e+02 8.834347e+01 1.307255e+02 1.202946e+02 3.484883e+02 2.780053e+00 3.542197e+00 3.571586e+00 4.504578e+00 5.437843e+00 4.862523e+00 5.010142e+00 5.874910e+00 5.043927e+00 4.877208e+00 5.347168e+00 4.575181e+00 3.626168e+00 4.257059e-01 5.540633e-01 5.360479e-01 7.593963e-01 8.704419e-01 8.520365e-01 9.015073e-01 1.044791e+00 8.943844e-01 8.933682e-01 9.382083e-01 8.333792e-01 4.963397e-01
<GCONST> 1.498087e+02
<STATE> 4
<MEAN> 39
 -9.029880e+00 -3.175242e+00 -1.545313e+00 -4.204333e+00 -9.828138e+00 -5.655079e+00 -9.896324e+00 -2.317398e+00 -6.213672e+00 -2.991111e+00 -3.665703e+00 -4.924841e+00 6.539082e+01 9.035790e-03 -1.463698e-02 -2.042190e-02 2.194380e-03 5.503754e-02 1.030823e-02 1.703090e-02 -1.897656e-02 2.575175e-02 -9.494919e-03 -3.125665e-02 -1.034484e-03 7.132888e-04 -1.369256e-03 2.874898e-03 -2.147671e-04 2.184938e-03 -8.580299e-04 3.014017e-03 -3.195704e-04 -3.820790e-03 -9.608486e-04 -1.460434e-03 1.440354e-03 -1.180578e-03 -4.484037e-03
<VARIANCE> 39
 1.187567e+02 9.367453e+01 1.088599e+02 1.071301e+02 1.359990e+02 1.223400e+02 1.225119e+02 1.131858e+02 1.282933e+02 8.540535e+01 1.249678e+02 1.179899e+02 3.353996e+02 3.063509e+00 4.086334e+00 4.025726e+00 4.694829e+00 5.554958e+00 4.877772e+00 4.949617e+00 5.740266e+00 5.155890e+00 4.797780e+00 5.225564e+00 4.407301e+00 3.958399e+00 4.514915e-01 6.496319e-01 6.006668e-01 7.870688e-01 8.987433e-01 8.466462e-01 8.931318e-01 1.022572e+00 9.101484e-01 8.785120e-01 9.294568e-01 8.055886e-01 5.286755e-01
<GCONST> 1.506741e+02
<TRANSP> 5
 0.000000e+00 1.000000e+00 0.000000e+00 0.000000e+00 0.000000e+00
 0.000000e+00 6.652470e-01 3.347531e-01 0.000000e+00 0.000000e+00
 0.000000e+00 0.000000e+00 6.652467e-01 3.347532e-01 0.000000e+00
 0.000000e+00 0.000000e+00 0.000000e+00 8.345219e-01 1.654781e-01
 0.000000e+00 0.000000e+00 0.000000e+00 0.000000e+00 0.000000e+00
<ENDHMM>
~h "ex"
<BEGINHMM>
<NUMSTATES> 5
<STATE> 2
<MEAN> 39
 -1.013806e+01 -2.840580e+00 -5.421896e-01 -4.050607e+00 -1.110947e+01 -7.379403e+00 -8.810800e+00 -2.037071e+00 -6.326956e+00 -1.722457e+00 -2.108377e+00 -4.975886e+00 6.620172e+01 3.046304e-02 -2.735743e-02 7.918596e-03 -2.385399e-02 -1.798886e-02 -4.585592e-02 -3.733181e-03 -8.840515e-03 -4.386807e-02 -5.431930e-03 -6.684591e-02 -2.461268e-02 6.811806e-02 1.368654e-03 3.740463e-04 -3.607896e-03 2.772200e-04 2.480932e-03 2.739329e-04 -1.040347e-03 -1.897699e-03 6.512624e-04 -1.822373e-03 -4.772232e-03 2.458229e-04 -2.464591e-03
<VARIANCE> 39
 1.025642e+02 8.280888e+01 1.087325e+02 1.001490e+02 1.275863e+02 1.300849e+02 1.172456e+02 1.162294e+02 1.301290e+02 8.762527e+01 1.057292e+02 1.022445e+02 3.675493e+02 2.633811e+00 3.524209e+00 3.279085e+00 4.667661e+00 5.276802e+00 5.048035e+00 5.149080e+00 5.851014e+00 5.406749e+00 5.057586e+00 5.206917e+00 4.764948e+00 3.984988e+00 4.084291e-01 5.753794e-01 5.191353e-01 8.027074e-01 8.815280e-01 8.993076e-01 9.189209e-01 1.042603e+00 9.656186e-01 9.309602e-01 9.368542e-01 8.882176e-01 5.566683e-01
<GCONST> 1.498651e+02
<STATE> 3
<MEAN> 39
 -1.002993e+01 -2.934370e+00 -4.867895e-01 -4.139524e+00 -1.119825e+01 -7.552474e+00 -8.837860e+00 -2.082885e+00 -6.511660e+00 -1.747253e+00 -2.320636e+00 -5.032917e+00 6.646935e+01 3.515893e-02 -2.692264e-02 1.209053e-03 -2.108256e-02 -1.114715e-02 -4.492114e-02 -6.314030e-03 -1.546754e-02 -4.399570e-02 -8.836258e-03 -7.771136e-02 -1.923473e-02 6.271890e-02 1.614761e-03 1.067335e-04 -1.469439e-03 6.044661e-04 1.657607e-03 -1.058518e-05 -1.260580e-03 -1.665669e-03 -2.532440e-04 -3.522107e-04 -2.466281e-03 1.890294e-03 -1.170905e-03
<VARIANCE> 39
 1.009508e+02 8.311782e+01 1.095422e+02 9.988290e+01 1.272606e+02 1.294073e+02 1.170959e+02 1.175955e+02 1.316495e+02 8.813206e+01 1.063280e+02 1.032071e+02 3.589840e+02 2.646327e+00 3.549550e+00 3.322290e+00 4.732440e+00 5.270520e+00 5.051625e+00 5.217765e+00 5.875494e+00 5.450144e+00 5.074475e+00 5.237266e+00 4.768776e+00 4.004453e+00 4.101428e-01 5.782493e-01 5.253887e-01 8.130904e-01 8.792055e-01 8.956585e-01 9.291033e-01 1.042651e+00 9.732305e-01 9.306264e-01 9.410554e-01 8.868407e-01 5.521203e-01
<GCONST> 1.499882e+02
<STATE> 4
<MEAN> 39
 -1.038807e+01 -2.915833e+00 -6.626756e-01 -3.956699e+00 -1.154596e+01 -7.092062e+00 -8.872698e+00 -2.354820e+00 -6.934332e+00 -2.193097e+00 -2.679529e+00 -4.789538e+00 6.466533e+01 3.682822e-02 -2.748457e-02 1.460561e-02 -1.587138e-02 -1.811261e-02 -4.432995e-02 -6.531717e-03 -2.313504e-02 -5.118383e-02 -5.795386e-03 -7.291259e-02 2.594179e-04 7.209083e-02 6.547073e-04 6.936927e-06 -5.657240e-04 1.113122e-03 1.081488e-03 1.156140e-03 -6.100775e-04 -4.388497e-04 7.902944e-04 8.996737e-04 4.847987e-04 2.292488e-03 -2.019226e-03
<VARIANCE> 39
 1.078593e+02 8.526019e+01 1.137492e+02 9.956820e+01 1.228392e+02 1.260453e+02 1.113486e+02 1.141737e+02 1.321783e+02 8.808567e+01 9.914229e+01 1.043868e+02 3.679064e+02 2.786833e+00 3.687139e+00 3.310798e+00 4.598350e+00 5.076139e+00 4.801649e+00 5.031119e+00 5.519129e+00 5.378472e+00 4.881933e+00 5.069590e+00 4.420954e+00 4.045258e+00 4.215584e-01 6.011568e-01 5.190480e-01 7.911482e-01 8.501760e-01 8.469430e-01 8.980904e-01 9.837227e-01 9.642589e-01 8.942065e-01 9.191657e-01 8.146012e-01 5.429881e-01
<GCONST> 1.493333e+02
<TRANSP> 5
 0.000000e+00 1.000000e+00 0.000000e+00 0.000000e+00 0.000000e+00
 0.000000e+00 6.538734e-01 3.461266e-01 0.000000e+00 0.000000e+00
 0.000000e+00 0.000000e+00 6.538755e-01 3.461245e-01 0.000000e+00
 0.000000e+00 0.000000e+00 0.000000e+00 8.088148e-01 1.911852e-01
 0.000000e+00 0.000000e+00 0.000000e+00 0.000000e+00 0.000000e+00
<ENDHMM>
~h "ng"
<BEGINHMM>
<NUMSTATES> 5
<STATE> 2
<MEAN> 39
 -7.790924e+00 -2.463579e+00 -1.913236e+00 -5.150790e+00 -9.270338e+00 -6.125094e+00 -1.114238e+01 -4.795077e+00 -6.843194e+00 -2.672055e+00 -5.437144e+00 -5.843958e+00 6.878378e+01 1.570249e-02 2.153336e-03 2.314510e-03 9.875857e-03 4.543589e-03 -1.414449e-02 2.830308e-03 -9.497711e-03 -1.407224e-02 -1.820524e-02 -3.708133e-02 -3.397191e-04 2.559374e-02 -1.099637e-03 -3.800563e-04 3.157601e-04 6.079287e-05 -1.630511e-03 -9.778460e-04 -2.564887e-04 1.441505e-03 2.260604e-03 1.577700e-04 4.186231e-03 1.709510e-03 -2.644162e-03
<VARIANCE> 39
 1.080603e+02 9.353628e+01 1.013183e+02 1.041509e+02 1.236213e+02 1.122100e+02 1.124508e+02 1.235059e+02 1.435953e+02 9.544623e+01 1.413946e+02 1.140253e+02 2.935841e+02 3.374672e+00 3.912848e+00 4.020491e+00 5.277269e+00 5.896404e+00 5.564437e+00 5.639766e+00 7.231828e+00 5.714048e+00 5.544698e+00 6.201413e+00 5.182777e+00 4.087964e+00 5.125344e-01 6.148377e-01 6.497742e-01 8.922423e-01 1.014974e+00 9.838675e-01 1.034039e+00 1.293009e+00 1.036811e+00 1.029448e+00 1.099598e+00 9.521479e-01 5.709289e-01
<GCONST> 1.534426e+02
<STATE> 3
<MEAN> 39
 -7.734627e+00 -2.462534e+00 -1.894196e+00 -5.137337e+00 -9.271593e+00 -6.167335e+00 -1.115039e+01 -4.824906e+00 -6.887887e+00 -2.720745e+00 -5.529006e+00 -5.847126e+00 6.887615e+01 1.543012e-02 1.026009e-03 3.746660e-03 8.588611e-03 -6.810990e-04 -1.534813e-02 1.696117e-03 -6.659636e-03 -9.458753e-03 -1.754014e-02 -2.750704e-02 2.176754e-03 2.041997e-02 -5.289925e-04 -1.593454e-03 7.275152e-04 -1.529128e-03 -9.775776e-04 2.648804e-04 -2.730179e-04 2.039269e-03 1.785314e-03 -4.776925e-04 4.006839e-03 1.200993e-03 -2.138829e-03
<VARIANCE> 39
 1.068136e+02 9.348540e+01 1.015601e+02 1.038506e+02 1.236275e+02 1.118307e+02 1.127150e+02 1.241777e+02 1.439642e+02 9.606243e+01 1.426195e+02 1.145446e+02 2.881078e+02 3.392784e+00 3.941039e+00 4.027914e+00 5.294535e+00 5.916492e+00 5.581834e+00 5.655883e+00 7.247801e+00 5.777148e+00 5.585658e+00 6.236133e+00 5.222039e+00 4.108652e+00 5.147677e-01 6.186972e-01 6.530954e-01 8.953732e-01 1.018928e+00 9.863240e-01 1.037142e+00 1.294888e+00 1.049879e+00 1.035440e+00 1.104570e+00 9.580751e-01 5.721405e-01
<GCONST> 1.535646e+02
<STATE> 4
<MEAN> 39
 -7.404523e+00 -2.592746e+00 -2.005980e+00 -5.089917e+00 -9.554162e+00 -5.846469e+00 -1.133886e+01 -4.905212e+00 -7.111417e+00 -3.032388e+00 -5.297658e+00 -5.906864e+00 6.806474e+01 2.006237e-02 -1.313376e-03 6.514458e-03 -1.030727e-03 -7.394975e-03 -1.089621e-02 -3.115942e-03 -4.415018e-03 -9.564966e-03 -1.630873e-02 -1.870068e-02 1.425374e-03 2.264204e-02 2.074277e-05 -1.675540e-03 4.766292e-04 -2.170886e-03 5.596194e-04 1.221538e-03 -1.962933e-04 1.740065e-03 1.266777e-03 -5.875869e-04 2.546685e-03 6.570895e-04 -1.386754e-03
<VARIANCE> 39
 1.155821e+02 9.763870e+01 1.064113e+02 1.062551e+02 1.234168e+02 1.132821e+02 1.142291e+02 1.230522e+02 1.415004e+02 9.368104e+01 1.391991e+02 1.110746e+02 2.850326e+02 3.612283e+00 4.192983e+00 4.139050e+00 5.413581e+00 5.897326e+00 5.606285e+00 5.664436e+00 7.164693e+00 5.915946e+00 5.558347e+00 6.178728e+00 5.107550e+00 4.200004e+00 5.431415e-01 6.613119e-01 6.683151e-01 9.126883e-01 1.016808e+00 9.841940e-01 1.036430e+00 1.277846e+00 1.068045e+00 1.032053e+00 1.098345e+00 9.419360e-01 5.803815e-01
<GCONST> 1.539883e+02
<TRANSP> 5
 0.000000e+00 1.000000e+00 0.000000e+00 0.000000e+00 0.000000e+00
 0.000000e+00 6.195908e-01 3.804092e-01 0.000000e+00 0.000000e+00
 0.000000e+00 0.000000e+00 6.195934e-01 3.804066e-01 0.000000e+00
 0.000000e+00 0.000000e+00 0.000000e+00 7.494501e-01 2.505499e-01
 0.000000e+00 0.000000e+00 0.000000e+00 0.000000e+00 0.000000e+00
<ENDHMM>
~h "ny"
<BEGINHMM>
<NUMSTATES> 5
<STATE> 2
<MEAN> 39
 -7.532573e+00 -3.080894e+00 -1.268388e+00 -5.567719e+00 -9.763855e+00 -7.153094e+00 -1.020114e+01 -3.788594e+00 -7.458716e+00 -3.835986e+00 -5.132469e+00 -5.742581e+00 7.038829e+01 -2.558119e-02 -1.148495e-02 -4.936935e-04 -8.193092e-03 3.125221e-02 2.903283e-02 4.433869e-02 1.829545e-02 2.900312e-02 -4.050693e-02 -3.961511e-03 1.077721e-02 -1.970916e-02 -2.266358e-03 2.054297e-03 -2.776884e-03 1.312463e-03 2.349963e-03 1.020656e-03 -1.043847e-03 -9.617952e-04 -4.907606e-04 3.182876e-03 -7.520152e-04 -1.046798e-04 -5.773409e-03
<VARIANCE> 39
 8.782314e+01 9.386616e+01 9.793478e+01 1.070049e+02 1.253135e+02 1.124860e+02 1.280161e+02 1.306628e+02 1.475500e+02 1.020148e+02 1.451773e+02 1.276405e+02 2.641609e+02 3.139602e+00 4.317106e+00 3.884894e+00 5.347757e+00 6.064408e+00 5.357879e+00 5.992443e+00 6.648336e+00 5.858030e+00 5.747329e+00 5.897353e+00 5.409251e+00 4.492293e+00 4.968798e-01 6.706221e-01 6.253853e-01 9.395047e-01 1.057935e+00 9.725100e-01 1.092420e+00 1.205722e+00 1.059418e+00 1.077806e+00 1.082218e+00 9.940836e-01 6.227503e-01
<GCONST> 1.539462e+02
<STATE> 3
<MEAN> 39
 -7.601769e+00 -3.113252e+00 -1.251521e+00 -5.587147e+00 -9.682528e+00 -7.095159e+00 -1.008315e+01 -3.752267e+00 -7.399286e+00 -3.950554e+00 -5.169857e+00 -5.703429e+00 7.035113e+01 -2.971584e-02 -5.531280e-03 -8.671752e-03 -2.093724e-03 3.749587e-02 3.104918e-02 3.865764e-02 1.700427e-02 2.816350e-02 -3.258996e-02 -4.728843e-03 1.016306e-02 -3.644311e-02 -1.627399e-03 2.923771e-03 -3.392750e-03 2.065978e-03 2.553534e-03 -4.028204e-04 -3.078829e-03 -1.393095e-03 -1.932349e-03 4.098930e-03 2.699667e-04 -1.245071e-03 -5.168212e-03
<VARIANCE> 39
 8.747488e+01 9.277101e+01 9.704639e+01 1.068837e+02 1.252966e+02 1.122348e+02 1.282541e+02 1.300471e+02 1.486467e+02 1.031693e+02 1.456745e+02 1.283205e+02 2.638102e+02 3.161501e+00 4.296756e+00 3.863078e+00 5.311592e+00 6.055344e+00 5.359019e+00 6.010868e+00 6.603749e+00 5.851534e+00 5.753787e+00 5.928926e+00 5.362190e+00 4.453763e+00 5.019902e-01 6.696333e-01 6.196091e-01 9.337698e-01 1.056911e+00 9.748274e-01 1.099579e+00 1.198733e+00 1.056598e+00 1.078052e+00 1.089726e+00 9.882548e-01 6.186754e-01
<GCONST> 1.539014e+02
<STATE> 4
<MEAN> 39
 -7.280944e+00 -3.489542e+00 -1.695222e+00 -5.581493e+00 -9.687723e+00 -6.537453e+00 -1.024866e+01 -3.829273e+00 -7.570880e+00 -4.273172e+00 -5.086699e+00 -5.961570e+00 6.924463e+01 -3.379496e-02 4.640796e-03 -1.337535e-02 1.325557e-02 4.240686e-02 2.112845e-02 2.551291e-02 1.203296e-02 2.210584e-02 -2.322515e-02 -5.549407e-03 8.045245e-03 -5.257840e-02 -1.126784e-03 3.850357e-03 -2.970128e-03 2.475293e-03 2.063238e-03 -1.537523e-03 -3.743316e-03 -1.347777e-03 -1.944308e-03 4.350495e-03 1.822074e-03 -1.620984e-03 -4.295384e-03
<VARIANCE> 39
 9.854813e+01 9.950665e+01 1.062845e+02 1.108854e+02 1.309500e+02 1.134253e+02 1.268993e+02 1.267779e+02 1.469484e+02 1.016210e+02 1.410538e+02 1.300130e+02 2.674042e+02 3.501105e+00 4.735827e+00 4.067715e+00 5.477265e+00 6.097566e+00 5.308724e+00 5.890582e+00 6.491950e+00 5.922371e+00 5.616920e+00 5.811963e+00 5.222086e+00 4.564960e+00 5.392585e-01 7.447806e-01 6.333328e-01 9.656845e-01 1.054751e+00 9.629732e-01 1.075355e+00 1.181325e+00 1.058391e+00 1.055267e+00 1.074489e+00 9.637449e-01 6.319181e-01
<GCONST> 1.545575e+02
<TRANSP> 5
 0.000000e+00 1.000000e+00 0.000000e+00 0.000000e+00 0.000000e+00
 0.000000e+00 6.332488e-01 3.667512e-01 0.000000e+00 0.000000e+00
 0.000000e+00 0.000000e+00 6.332459e-01 3.667541e-01 0.000000e+00
 0.000000e+00 0.000000e+00 0.000000e+00 7.782514e-01 2.217486e-01
 0.000000e+00 0.000000e+00 0.000000e+00 0.000000e+00 0.000000e+00
<ENDHMM>
~h "sy"
<BEGINHMM>
<NUMSTATES> 5
<STATE> 2
<MEAN> 39
 -1.533422e+01 1.529341e+00 5.163083e-01 -1.215829e+00 -8.524384e+00 -5.605012e+00 -7.249771e+00 -4.062404e+00 -5.392304e+00 -3.714100e+00 -4.913836e-01 -4.829271e+00 5.847299e+01 -8.592675e-03 -7.650462e-02 -3.193787e-01 1.332698e-01 2.725898e-01 -1.173935e-01 2.529964e-01 8.446625e-02 2.930479e-01 -7.960187e-02 -1.614310e-01 1.132960e-01 -1.534984e-01 -7.394024e-03 -4.549101e-03 -9.056240e-03 -1.025555e-02 3.759362e-03 9.289585e-03 2.958487e-04 3.014876e-02 6.551393e-03 1.953040e-02 -1.429649e-02 3.532300e-03 7.713348e-03
<VARIANCE> 39
 7.561789e+01 5.913946e+01 1.578638e+02 6.056126e+01 1.049431e+02 8.068436e+01 1.089000e+02 9.390005e+01 1.083139e+02 7.577032e+01 7.374697e+01 6.373978e+01 3.121853e+02 2.986559e+00 1.834626e+00 1.997364e+00 2.486977e+00 4.288435e+00 3.863094e+00 5.171823e+00 4.073138e+00 4.179581e+00 4.286119e+00 3.172512e+00 2.934160e+00 2.309276e+00 3.875873e-01 2.609321e-01 2.985130e-01 3.607820e-01 6.089830e-01 7.234082e-01 8.550528e-01 7.640422e-01 7.658542e-01 7.284133e-01 5.067160e-01 4.948353e-01 2.284145e-01
<GCONST> 1.366402e+02
<STATE> 3
<MEAN> 39
 -1.548474e+01 1.319723e+00 -4.160411e-01 -7.351513e-01 -7.654754e+00 -5.828065e+00 -6.395033e+00 -3.727025e+00 -4.548544e+00 -3.872444e+00 -8.972235e-01 -4.460312e+00 5.777036e+01 -3.493339e-02 -9.085412e-02 -3.400467e-01 1.009741e-01 2.676036e-01 -8.320431e-02 2.367023e-01 1.647223e-01 2.918387e-01 -1.871997e-02 -1.861569e-01 1.371718e-01 -1.296908e-01 -5.587440e-03 -2.687010e-03 1.440498e-03 -1.451728e-02 -1.017056e-02 1.319993e-02 -1.049151e-02 1.839246e-02 -1.276066e-02 2.216342e-02 -1.669266e-03 4.705503e-03 9.801526e-03
<VARIANCE> 39
 7.461479e+01 5.467596e+01 1.334549e+02 5.741336e+01 9.081430e+01 7.791040e+01 1.061998e+02 9.254372e+01 9.799402e+01 6.858537e+01 6.362055e+01 6.229102e+01 2.977543e+02 3.162876e+00 1.926615e+00 1.805404e+00 2.440827e+00 3.997911e+00 3.609699e+00 5.463470e+00 3.924641e+00 4.018599e+00 4.101244e+00 3.238848e+00 2.933289e+00 2.401751e+00 4.131809e-01 2.777577e-01 2.793438e-01 3.654649e-01 5.833625e-01 6.660190e-01 9.094686e-01 7.310830e-01 7.509625e-01 7.204999e-01 5.347142e-01 4.736125e-01 2.341090e-01
<GCONST> 1.355015e+02
<STATE> 4
<MEAN> 39
 -1.580511e+01 1.180316e+00 -1.508948e+00 -2.251220e-01 -7.001949e+00 -5.641967e+00 -5.837734e+00 -3.465177e+00 -4.000706e+00 -4.061729e+00 -1.654157e+00 -4.106423e+00 5.590969e+01 -7.144947e-02 -1.030913e-01 -3.376719e-01 7.124294e-02 2.065963e-01 -3.253881e-02 1.951158e-01 2.060086e-01 2.362061e-01 5.483021e-02 -1.467260e-01 1.787400e-01 -1.465737e-01 -1.258451e-03 2.632576e-04 9.008280e-03 -1.819909e-02 -2.330261e-02 1.126311e-02 -2.288841e-02 -8.762421e-04 -2.446055e-02 1.753074e-02 1.140596e-02 6.335224e-03 1.403197e-02
<VARIANCE> 39
 7.371931e+01 4.995219e+01 1.125397e+02 5.289677e+01 7.393752e+01 7.390198e+01 9.865427e+01 8.625690e+01 8.624226e+01 6.204664e+01 5.353041e+01 5.943176e+01 2.910358e+02 2.988180e+00 1.917811e+00 1.605006e+00 2.263350e+00 3.615102e+00 3.143426e+00 5.309245e+00 3.824354e+00 3.820473e+00 3.905807e+00 3.185210e+00 2.810211e+00 2.198192e+00 3.894774e-01 2.815711e-01 2.511099e-01 3.563713e-01 5.574340e-01 5.837933e-01 8.954991e-01 7.065121e-01 7.297102e-01 6.970154e-01 5.426291e-01 4.414784e-01 2.087994e-01
<GCONST> 1.328423e+02
<TRANSP> 5
 0.000000e+00 1.000000e+00 0.000000e+00 0.000000e+00 0.000000e+00
 0.000000e+00 6.324657e-01 3.675343e-01 0.000000e+00 0.000000e+00
 0.000000e+00 0.000000e+00 6.324657e-01 3.675343e-01 0.000000e+00
 0.000000e+00 0.000000e+00 0.000000e+00 7.516068e-01 2.483932e-01
 0.000000e+00 0.000000e+00 0.000000e+00 0.000000e+00 0.000000e+00
<ENDHMM>
~h "sil"
<BEGINHMM>
<NUMSTATES> 5
<STATE> 2
<MEAN> 39
 -1.783970e+01 2.510397e+00 -4.710904e+00 2.584504e+00 -5.334251e+00 9.261603e-01 -4.481753e+00 -1.487116e+00 -1.698402e+00 -2.609602e+00 -1.668193e+00 -1.679318e+00 4.445851e+01 1.562656e-01 -9.466050e-02 -1.908838e-01 3.099413e-02 1.217207e-01 -1.765288e-01 -2.211329e-01 -8.877436e-02 -5.718264e-02 5.135307e-02 2.980987e-02 5.359628e-02 5.662897e-01 5.447990e-02 -2.515778e-02 5.170332e-02 -1.009039e-02 -4.365126e-05 -4.550384e-02 7.676341e-04 1.952621e-02 -3.497724e-02 -1.672165e-02 -4.567030e-02 -8.087624e-03 2.091993e-01
<VARIANCE> 39
