~o
<STREAMINFO> 1 39
<VECSIZE> 39<NULLD><MFCC_D_A_0><DIAGC>
~h "a"
<BEGINHMM>
<NUMSTATES> 5
<STATE> 2
<MEAN> 39
 -6.614615e+00 -1.584664e+00 -7.565457e-01 -3.180224e+00 -5.579427e+00 -4.237360e+00 -6.968675e+00 -1.251480e+00 -3.522523e+00 -5.059411e-01 -3.155139e+00 -2.837292e+00 5.829771e+01 1.521663e-02 -7.232806e-03 3.855474e-03 -8.458236e-03 1.306258e-02 -3.276261e-03 9.250706e-04 -4.589413e-03 2.376991e-03 -4.477771e-03 -1.540040e-02 -6.269814e-03 3.327754e-02 -1.814599e-03 2.624341e-03 6.146866e-04 1.970449e-03 -1.482214e-03 1.466727e-03 -2.135176e-04 -1.750716e-03 -1.321611e-03 3.287031e-04 2.034319e-03 2.013231e-04 -5.757730e-03
<VARIANCE> 39
 7.410341e+01 5.833216e+01 7.010762e+01 6.866463e+01 7.918273e+01 7.427097e+01 6.914487e+01 7.220533e+01 8.042178e+01 5.539287e+01 6.962211e+01 6.350979e+01 2.211770e+02 2.306957e+00 2.600353e+00 2.663128e+00 3.451303e+00 3.685511e+00 3.489448e+00 3.651481e+00 4.110301e+00 3.467151e+00 3.343654e+00 3.274919e+00 2.856847e+00 3.102458e+00 3.591273e-01 4.134219e-01 4.308758e-01 5.946146e-01 6.398849e-01 6.289998e-01 6.735262e-01 7.426147e-01 6.321374e-01 6.237193e-01 5.979651e-01 5.261129e-01 4.320907e-01
<GCONST> 1.352111e+02
<STATE> 3
<MEAN> 39
 -6.575181e+00 -1.598112e+00 -7.479210e-01 -3.201802e+00 -5.540659e+00 -4.242826e+00 -6.963788e+00 -1.273244e+00 -3.518876e+00 -5.221267e-01 -3.200291e+00 -2.851098e+00 5.837743e+01 1.077962e-02 -5.302988e-04 4.915922e-03 -3.438123e-03 8.878764e-03 -3.942549e-04 -1.121368e-04 -8.866563e-03 -1.226207e-03 -3.502203e-03 -1.035492e-02 -5.497904e-03 2.021235e-02 -1.487210e-03 2.384073e-03 4.531564e-04 1.713381e-03 -1.525625e-03 8.794816e-04 -3.162042e-04 -1.561275e-03 -1.388872e-03 2.548734e-04 1.609654e-03 4.037698e-04 -3.803529e-03
<VARIANCE> 39
 7.353247e+01 5.851076e+01 7.011946e+01 6.884112e+01 7.957967e+01 7.419596e+01 6.915160e+01 7.209882e+01 8.050328e+01 5.559166e+01 6.993535e+01 6.359253e+01 2.182571e+02 2.301718e+00 2.609707e+00 2.664541e+00 3.458359e+00 3.686793e+00 3.490998e+00 3.658179e+00 4.112136e+00 3.473377e+00 3.348295e+00 3.282853e+00 2.858516e+00 3.073271e+00 3.579444e-01 4.147253e-01 4.310132e-01 5.956015e-01 6.403247e-01 6.297046e-01 6.753325e-01 7.434518e-01 6.339166e-01 6.246334e-01 5.988209e-01 5.263894e-01 4.281404e-01
<GCONST> 1.352171e+02
<STATE> 4
<MEAN> 39
 -6.404245e+00 -1.759912e+00 -8.316762e-01 -3.002640e+00 -5.660997e+00 -3.744036e+00 -7.079032e+00 -1.292738e+00 -3.601406e+00 -7.154067e-01 -3.028337e+00 -2.919252e+00 5.737400e+01 5.724824e-03 6.285273e-03 3.652602e-03 1.245782e-03 5.605888e-03 1.012004e-03 -6.357525e-04 -1.379240e-02 -4.775510e-03 -3.726326e-03 -6.151011e-03 -2.680446e-03 9.082239e-03 -1.182344e-03 1.838289e-03 1.557901e-04 1.429299e-03 -1.447867e-03 6.074618e-04 -4.469765e-04 -1.285610e-03 -1.205518e-03 1.096659e-04 1.279437e-03 5.668327e-04 -2.315390e-03
<VARIANCE> 39
 8.003481e+01 6.232108e+01 7.421749e+01 7.036520e+01 8.080935e+01 7.463605e+01 6.979282e+01 6.944160e+01 7.814110e+01 5.404232e+01 6.832125e+01 6.204404e+01 2.213895e+02 2.374458e+00 2.795389e+00 2.749753e+00 3.524147e+00 3.658872e+00 3.441470e+00 3.621339e+00 4.019484e+00 3.483326e+00 3.266244e+00 3.222276e+00 2.760907e+00 3.115681e+00 3.624107e-01 4.465266e-01 4.383366e-01 6.080938e-01 6.345064e-01 6.183954e-01 6.661358e-01 7.289352e-01 6.330763e-01 6.081417e-01 5.885068e-01 5.091986e-01 4.288023e-01
<GCONST> 1.353646e+02
<TRANSP> 5
 0.000000e+00 1.000000e+00 0.000000e+00 0.000000e+00 0.000000e+00
 0.000000e+00 6.357595e-01 3.642405e-01 0.000000e+00 0.000000e+00
 0.000000e+00 0.000000e+00 6.357608e-01 3.642392e-01 0.000000e+00
 0.000000e+00 0.000000e+00 0.000000e+00 7.773672e-01 2.226328e-01
 0.000000e+00 0.000000e+00 0.000000e+00 0.000000e+00 0.000000e+00
<ENDHMM>
~h "b"
<BEGINHMM>
<NUMSTATES> 5
<STATE> 2
<MEAN> 39
 -6.516238e+00 -4.715687e-01 -3.368372e-01 -2.855210e+00 -6.515378e+00 -4.004625e+00 -7.768770e+00 -2.262848e+00 -4.206808e+00 -2.587179e-01 -2.399106e+00 -2.560094e+00 5.740443e+01 2.107918e-02 8.795287e-03 8.438589e-03 -2.776748e-03 2.006023e-03 -1.661480e-02 -1.579841e-02 -1.739610e-02 -1.346339e-02 -1.727375e-03 -1.348825e-02 4.193714e-03 6.633981e-02 -4.971859e-03 1.432481e-03 -1.002124e-03 1.680811e-03 3.614553e-04 3.889026e-03 2.919475e-03 1.366546e-03 2.084269e-03 6.735377e-05 5.652239e-04 1.099977e-03 -1.045792e-02
<VARIANCE> 39
 8.007560e+01 5.659803e+01 6.969106e+01 6.922137e+01 7.011456e+01 7.276716e+01 7.212641e+01 7.029620e+01 7.886710e+01 5.465600e+01 6.709948e+01 5.565555e+01 2.249474e+02 2.456244e+00 2.568080e+00 2.751298e+00 3.768639e+00 3.809307e+00 3.648818e+00 4.021394e+00 4.326420e+00 3.652126e+00 3.477292e+00 3.388924e+00 2.894984e+00 3.178437e+00 3.772070e-01 4.146610e-01 4.568295e-01 6.538668e-01 6.752242e-01 6.539546e-01 7.474806e-01 7.899137e-01 6.654339e-01 6.521291e-01 6.328714e-01 5.472230e-01 4.628207e-01
<GCONST> 1.362328e+02
<STATE> 3
<MEAN> 39
 -6.460209e+00 -4.571552e-01 -3.164048e-01 -2.871413e+00 -6.513820e+00 -4.038071e+00 -7.801761e+00 -2.294469e+00 -4.230413e+00 -2.511949e-01 -2.436206e+00 -2.559369e+00 5.759651e+01 1.428183e-02 1.030755e-02 6.341469e-03 -4.514847e-04 1.533524e-03 -8.397167e-03 -1.334503e-02 -1.253597e-02 -1.118373e-02 -4.139207e-04 -1.173065e-02 4.628022e-03 5.189915e-02 -2.275020e-03 1.871587e-04 -4.062249e-04 1.702443e-04 -1.666871e-04 2.140969e-03 1.838960e-04 2.378314e-03 1.105648e-03 4.238828e-04 5.116899e-04 1.522472e-04 -3.420974e-03
<VARIANCE> 39
 7.999184e+01 5.688587e+01 6.989380e+01 6.901904e+01 7.055343e+01 7.193758e+01 7.263975e+01 7.004431e+01 7.951151e+01 5.476057e+01 6.742834e+01 5.569681e+01 2.196280e+02 2.462638e+00 2.591034e+00 2.776770e+00 3.804717e+00 3.832629e+00 3.644681e+00 4.035513e+00 4.330236e+00 3.673445e+00 3.492797e+00 3.421879e+00 2.914141e+00 3.106606e+00 3.771951e-01 4.186064e-01 4.612434e-01 6.607698e-01 6.797543e-01 6.553187e-01 7.504176e-01 7.911918e-01 6.708491e-01 6.549762e-01 6.383041e-01 5.507949e-01 4.530886e-01
<GCONST> 1.363203e+02
<STATE> 4
<MEAN> 39
 -6.833637e+00 -5.248631e-01 -6.070182e-01 -2.396936e+00 -6.615977e+00 -3.421422e+00 -7.705224e+00 -2.142342e+00 -4.116507e+00 -4.080009e-01 -2.269042e+00 -2.655704e+00 5.581184e+01 2.704429e-02 1.163722e-03 1.108703e-02 -6.485621e-03 -6.040386e-03 -8.224873e-03 -2.118725e-02 -7.112905e-03 -1.238771e-02 4.107914e-03 -9.425980e-03 -8.970287e-04 6.614789e-02 2.201243e-04 -1.023896e-03 6.347866e-05 -9.375903e-04 -8.931048e-04 4.067665e-04 -1.437462e-03 1.552639e-03 2.661591e-04 6.309364e-04 5.294285e-04 -7.156776e-04 1.668081e-04
<VARIANCE> 39
 8.785190e+01 5.913535e+01 7.306320e+01 6.772058e+01 7.046687e+01 7.041267e+01 7.051897e+01 6.579512e+01 7.564402e+01 5.201481e+01 6.346258e+01 5.261057e+01 2.370338e+02 2.477534e+00 2.696242e+00 2.800846e+00 3.694754e+00 3.729784e+00 3.504965e+00 3.858070e+00 4.099884e+00 3.602098e+00 3.355086e+00 3.296262e+00 2.771463e+00 3.068870e+00 3.735987e-01 4.373997e-01 4.608105e-01 6.449602e-01 6.628167e-01 6.304660e-01 7.137175e-01 7.496868e-01 6.598318e-01 6.289550e-01 6.152050e-01 5.229189e-01 4.415246e-01
<GCONST> 1.355897e+02
<TRANSP> 5
 0.000000e+00 1.000000e+00 0.000000e+00 0.000000e+00 0.000000e+00
 0.000000e+00 6.226120e-01 3.773880e-01 0.000000e+00 0.000000e+00
 0.000000e+00 0.000000e+00 6.226127e-01 3.773873e-01 0.000000e+00
 0.000000e+00 0.000000e+00 0.000000e+00 7.635751e-01 2.364249e-01
 0.000000e+00 0.000000e+00 0.000000e+00 0.000000e+00 0.000000e+00
<ENDHMM>
~h "c"
<BEGINHMM>
<NUMSTATES> 5
<STATE> 2
<MEAN> 39
 -7.618750e+00 -2.747350e-01 -2.872523e-01 -2.601322e+00 -5.982594e+00 -4.547582e+00 -6.526724e+00 -1.695568e+00 -3.407052e+00 -1.068999e+00 -2.999386e+00 -1.795985e+00 5.731439e+01 -7.388646e-03 -6.163868e-03 2.248815e-02 1.465866e-03 1.890683e-02 -9.739553e-03 -1.026335e-02 2.208780e-04 1.296914e-02 -2.310740e-03 -2.851654e-03 2.390871e-02 3.401794e-02 -1.962418e-03 -1.412570e-03 -4.987096e-03 8.033114e-04 -4.512294e-03 2.355047e-03 -1.393644e-03 -7.259992e-04 2.426738e-04 2.089647e-03 4.219381e-03 -5.620990e-03 -1.199611e-02
<VARIANCE> 39
 7.976728e+01 5.337288e+01 6.777445e+01 5.959311e+01 7.087148e+01 8.126574e+01 7.350243e+01 6.991545e+01 8.194992e+01 5.256165e+01 6.296931e+01 5.486530e+01 2.322702e+02 3.275303e+00 2.614729e+00 2.683800e+00 3.235773e+00 3.739575e+00 3.565414e+00 3.464325e+00 4.115442e+00 3.501853e+00 3.192393e+00 3.162486e+00 2.740015e+00 3.133581e+00 5.648845e-01 4.169199e-01 4.500678e-01 5.745353e-01 6.611673e-01 6.434554e-01 6.323686e-01 7.633143e-01 6.472086e-01 6.081752e-01 5.906869e-01 5.177855e-01 4.640591e-01
<GCONST> 1.355099e+02
<STATE> 3
<MEAN> 39
 -7.661981e+00 -3.132323e-01 -2.414858e-01 -2.617580e+00 -5.950072e+00 -4.576777e+00 -6.550167e+00 -1.680750e+00 -3.359675e+00 -1.063081e+00 -3.005378e+00 -1.762115e+00 5.739654e+01 -7.239753e-03 -1.387638e-02 8.307034e-03 3.976725e-03 1.063828e-02 -3.997041e-03 -1.279940e-02 7.788669e-04 1.172031e-02 4.817008e-03 6.553192e-03 9.863026e-03 1.611128e-02 -3.472086e-04 -2.603119e-03 -5.016539e-03 1.631482e-03 -2.691960e-03 3.083140e-03 -1.982068e-04 4.867354e-04 -2.289577e-03 1.541784e-03 3.132460e-03 -7.188146e-03 -6.211465e-03
<VARIANCE> 39
 7.886885e+01 5.340179e+01 6.846026e+01 5.935459e+01 7.118593e+01 8.127464e+01 7.268793e+01 6.870532e+01 8.302663e+01 5.257033e+01 6.360875e+01 5.567820e+01 2.292736e+02 3.253063e+00 2.610042e+00 2.655821e+00 3.245681e+00 3.713906e+00 3.616733e+00 3.428120e+00 4.125995e+00 3.533269e+00 3.190811e+00 3.183804e+00 2.755667e+00 3.037710e+00 5.634044e-01 4.183966e-01 4.443244e-01 5.764262e-01 6.583355e-01 6.561131e-01 6.291386e-01 7.659654e-01 6.507335e-01 6.102859e-01 5.947866e-01 5.211561e-01 4.507807e-01
<GCONST> 1.354775e+02
<STATE> 4
<MEAN> 39
 -7.598981e+00 -4.747269e-01 -2.092015e-01 -2.488081e+00 -6.267258e+00 -4.153135e+00 -6.803554e+00 -1.698747e+00 -3.502173e+00 -1.018049e+00 -2.893022e+00 -1.820010e+00 5.657010e+01 -3.083631e-03 -2.704637e-02 6.281448e-04 6.289277e-04 4.368855e-03 -4.335924e-03 -1.242425e-02 1.013249e-02 4.201040e-03 6.893325e-03 5.095482e-03 -6.458491e-03 1.823250e-02 2.298879e-04 -1.560868e-03 -2.435731e-03 1.264594e-03 -1.106756e-03 1.714864e-03 5.688615e-04 1.785047e-03 -4.149491e-03 -7.504466e-04 2.869155e-04 -5.257290e-03 -2.191889e-03
<VARIANCE> 39
 8.443410e+01 5.712955e+01 7.469720e+01 5.892427e+01 7.169872e+01 8.220965e+01 7.075158e+01 6.573660e+01 8.228352e+01 5.149950e+01 6.273816e+01 5.640778e+01 2.347150e+02 3.315350e+00 2.723883e+00 2.679840e+00 3.276866e+00 3.628654e+00 3.659687e+00 3.348044e+00 4.066317e+00 3.542377e+00 3.149976e+00 3.151625e+00 2.755237e+00 3.049888e+00 5.666792e-01 4.390054e-01 4.420166e-01 5.837775e-01 6.410422e-01 6.677699e-01 6.173779e-01 7.552626e-01 6.452808e-01 6.031455e-01 5.876052e-01 5.195503e-01 4.466304e-01
<GCONST> 1.356224e+02
<TRANSP> 5
 0.000000e+00 1.000000e+00 0.000000e+00 0.000000e+00 0.000000e+00
 0.000000e+00 6.293088e-01 3.706912e-01 0.000000e+00 0.000000e+00
 0.000000e+00 0.000000e+00 6.293097e-01 3.706903e-01 0.000000e+00
 0.000000e+00 0.000000e+00 0.000000e+00 7.570164e-01 2.429836e-01
 0.000000e+00 0.000000e+00 0.000000e+00 0.000000e+00 0.000000e+00
<ENDHMM>
~h "d"
<BEGINHMM>
<NUMSTATES> 5
<STATE> 2
<MEAN> 39
 -6.390948e+00 -9.180116e-01 6.792953e-01 -2.696405e+00 -7.279871e+00 -4.950369e+00 -7.852870e+00 -1.351093e+00 -4.392179e+00 -5.365115e-01 -2.347143e+00 -2.309184e+00 5.869432e+01 2.407216e-02 -1.046360e-02 4.218818e-02 -1.355944e-02 -2.913554e-02 -6.013729e-02 -1.698043e-02 3.372589e-04 -2.208321e-02 -5.498409e-03 -2.212588e-02 3.408506e-03 1.069726e-01 -3.859830e-03 -1.083127e-03 -3.650548e-03 -7.473181e-04 8.582481e-04 2.843948e-03 2.143621e-03 1.894613e-03 2.092773e-03 7.124684e-04 1.382038e-03 -1.251983e-03 -9.026336e-03
<VARIANCE> 39
 7.430191e+01 5.724320e+01 8.122006e+01 6.481423e+01 8.132238e+01 7.872677e+01 7.288069e+01 7.451024e+01 8.663824e+01 5.494105e+01 7.041369e+01 6.090295e+01 2.116071e+02 2.390814e+00 2.717007e+00 2.954062e+00 3.550594e+00 4.344897e+00 3.828319e+00 3.927587e+00 4.395493e+00 3.772472e+00 3.528752e+00 3.457619e+00 2.946958e+00 3.407864e+00 3.750475e-01 4.482348e-01 4.735028e-01 6.197695e-01 7.700238e-01 6.948366e-01 7.288172e-01 7.970408e-01 6.852157e-01 6.669626e-01 6.375958e-01 5.488304e-01 5.002075e-01
<GCONST> 1.374660e+02
<STATE> 3
<MEAN> 39
 -6.326798e+00 -9.524968e-01 7.818767e-01 -2.748817e+00 -7.357363e+00 -5.097296e+00 -7.892582e+00 -1.342047e+00 -4.443217e+00 -5.499843e-01 -2.388487e+00 -2.304284e+00 5.897200e+01 1.824161e-02 -1.376228e-02 3.284183e-02 -1.527468e-02 -2.659992e-02 -5.307033e-02 -1.287846e-02 4.910500e-03 -1.562907e-02 -3.729230e-03 -1.896308e-02 1.167255e-03 9.045620e-02 -1.782660e-03 -1.069430e-03 -3.601350e-03 -2.580427e-04 1.700839e-03 3.216956e-03 1.858299e-03 1.378418e-03 2.471235e-03 6.076162e-04 1.117668e-03 -9.150542e-04 -5.793521e-03
<VARIANCE> 39
 7.361282e+01 5.758562e+01 8.163815e+01 6.501335e+01 8.221423e+01 7.963350e+01 7.335324e+01 7.543300e+01 8.768723e+01 5.527090e+01 7.095767e+01 6.165322e+01 2.075719e+02 2.380750e+00 2.729201e+00 2.963083e+00 3.573196e+00 4.381534e+00 3.865600e+00 3.940285e+00 4.414641e+00 3.784624e+00 3.528322e+00 3.479380e+00 2.967361e+00 3.333962e+00 3.730532e-01 4.500341e-01 4.734405e-01 6.236860e-01 7.765496e-01 7.000738e-01 7.315156e-01 7.999678e-01 6.867346e-01 6.674757e-01 6.423671e-01 5.521416e-01 4.917535e-01
<GCONST> 1.375879e+02
<STATE> 4
<MEAN> 39
 -6.076464e+00 -1.262137e+00 7.362680e-01 -2.820932e+00 -7.315368e+00 -4.803945e+00 -7.952061e+00 -1.226434e+00 -4.438937e+00 -6.880004e-01 -2.274691e+00 -2.388714e+00 5.881140e+01 1.422400e-02 -1.347879e-02 2.711469e-02 -1.811577e-02 -1.843432e-02 -3.915718e-02 -1.056318e-02 6.711123e-03 -7.584225e-03 -2.038416e-03 -1.125274e-02 -8.250257e-04 7.601680e-02 -1.200885e-03 -2.516960e-04 -2.351432e-03 2.110971e-04 2.483977e-03 3.616588e-03 1.365019e-03 -1.835130e-04 2.001113e-03 5.485828e-04 6.882391e-04 -4.626669e-04 -4.286910e-03
<VARIANCE> 39
 7.743196e+01 6.070766e+01 8.384389e+01 6.638848e+01 8.467222e+01 8.206862e+01 7.523052e+01 7.542723e+01 8.715265e+01 5.432893e+01 7.072190e+01 6.278087e+01 2.037287e+02 2.445184e+00 2.848413e+00 3.015591e+00 3.665371e+00 4.335614e+00 3.842626e+00 3.926258e+00 4.350956e+00 3.787883e+00 3.453202e+00 3.453542e+00 2.918996e+00 3.362297e+00 3.758413e-01 4.681690e-01 4.777061e-01 6.421124e-01 7.645574e-01 6.907839e-01 7.268426e-01 7.897125e-01 6.790115e-01 6.514220e-01 6.364210e-01 5.416809e-01 4.866905e-01
<GCONST> 1.378006e+02
<TRANSP> 5
 0.000000e+00 1.000000e+00 0.000000e+00 0.000000e+00 0.000000e+00
 0.000000e+00 6.192374e-01 3.807626e-01 0.000000e+00 0.000000e+00
 0.000000e+00 0.000000e+00 6.192381e-01 3.807619e-01 0.000000e+00
 0.000000e+00 0.000000e+00 0.000000e+00 7.507387e-01 2.492613e-01
 0.000000e+00 0.000000e+00 0.000000e+00 0.000000e+00 0.000000e+00
<ENDHMM>
~h "e"
<BEGINHMM>
<NUMSTATES> 5
<STATE> 2
<MEAN> 39
 -6.423011e+00 -6.751642e-01 -5.128122e-01 -2.929943e+00 -6.236651e+00 -4.301626e+00 -7.938669e+00 -2.228651e+00 -3.959849e+00 -2.258356e-01 -2.688567e+00 -2.821528e+00 5.848124e+01 2.939123e-02 -8.990143e-03 2.205275e-03 -2.115053e-02 -2.593399e-03 -1.229522e-02 -2.662725e-02 -1.360791e-02 -4.376133e-03 1.807282e-03 -2.082985e-02 -1.105147e-02 7.256364e-02 -3.389320e-04 8.084050e-05 -6.077528e-04 -3.717753e-04 1.083449e-03 2.295247e-03 2.443637e-03 1.569888e-03 2.228232e-04 1.108568e-03 3.715684e-04 8.609640e-05 -1.911707e-03
<VARIANCE> 39
 8.108381e+01 5.711302e+01 7.011958e+01 6.888158e+01 7.494157e+01 7.325019e+01 6.842392e+01 7.268475e+01 8.371080e+01 5.862870e+01 6.878638e+01 5.879527e+01 2.062101e+02 2.722880e+00 2.761034e+00 2.898033e+00 3.945612e+00 3.948422e+00 3.818474e+00 4.018007e+00 4.597626e+00 3.727554e+00 3.623764e+00 3.507521e+00 3.014551e+00 3.296847e+00 4.168130e-01 4.550442e-01 4.784214e-01 6.920508e-01 6.980076e-01 6.951216e-01 7.483487e-01 8.438412e-01 6.838069e-01 6.774287e-01 6.482065e-01 5.674470e-01 4.974766e-01
<GCONST> 1.376747e+02
<STATE> 3
<MEAN> 39
 -6.321826e+00 -7.094777e-01 -4.991475e-01 -2.994635e+00 -6.243671e+00 -4.329167e+00 -8.011398e+00 -2.261473e+00 -3.974528e+00 -2.140788e-01 -2.746417e+00 -2.855480e+00 5.870506e+01 2.737380e-02 -7.624144e-03 7.230386e-04 -2.153866e-02 4.103426e-04 -9.142949e-03 -2.077490e-02 -1.058535e-02 -4.382838e-03 3.692805e-03 -1.994492e-02 -9.921420e-03 6.730682e-02 -7.817171e-04 2.155407e-04 -3.525718e-04 -1.669377e-04 1.111200e-03 1.253142e-03 2.530531e-03 1.547132e-03 -1.662091e-04 1.051270e-03 7.370014e-04 5.729664e-04 -1.816763e-03
<VARIANCE> 39
 8.045658e+01 5.762122e+01 7.021016e+01 6.919076e+01 7.525616e+01 7.305494e+01 6.879623e+01 7.304944e+01 8.406496e+01 5.899187e+01 6.926339e+01 5.907858e+01 2.016555e+02 2.735687e+00 2.776930e+00 2.912189e+00 3.974861e+00 3.951192e+00 3.834870e+00 4.020360e+00 4.608584e+00 3.740206e+00 3.642522e+00 3.524323e+00 3.020245e+00 3.309143e+00 4.186611e-01 4.574546e-01 4.808105e-01 6.958454e-01 6.982790e-01 6.977876e-01 7.486115e-01 8.454962e-01 6.862968e-01 6.801416e-01 6.510583e-01 5.680234e-01 4.989617e-01
<GCONST> 1.377856e+02
<STATE> 4
<MEAN> 39
 -6.029996e+00 -1.036314e+00 -5.438171e-01 -2.830830e+00 -6.509081e+00 -3.828955e+00 -8.093821e+00 -2.192301e+00 -3.954903e+00 -3.602961e-01 -2.574011e+00 -2.981699e+00 5.786519e+01 3.082852e-02 -6.484882e-03 3.748287e-03 -2.164815e-02 3.458343e-03 -9.613063e-03 -1.565357e-02 -8.408637e-03 -6.257903e-03 4.515831e-03 -1.683370e-02 -6.360276e-03 6.706224e-02 -1.035521e-03 3.746581e-04 2.441579e-06 2.092725e-04 8.683373e-04 3.504717e-04 2.246985e-03 1.045065e-03 -5.228542e-04 4.516234e-04 8.745245e-04 1.109126e-03 -2.087688e-03
<VARIANCE> 39
 8.610712e+01 6.248981e+01 7.436438e+01 7.083262e+01 7.765218e+01 7.349238e+01 6.939825e+01 7.078257e+01 8.112616e+01 5.766774e+01 6.761217e+01 5.734444e+01 2.044466e+02 2.755627e+00 2.978674e+00 2.940840e+00 3.992198e+00 3.904864e+00 3.780711e+00 3.926609e+00 4.462657e+00 3.703870e+00 3.537618e+00 3.451680e+00 2.890612e+00 3.374282e+00 4.170911e-01 4.897530e-01 4.784766e-01 6.984047e-01 6.896212e-01 6.857054e-01 7.279968e-01 8.172529e-01 6.781279e-01 6.589239e-01 6.371139e-01 5.416718e-01 5.013576e-01
<GCONST> 1.377205e+02
<TRANSP> 5
 0.000000e+00 1.000000e+00 0.000000e+00 0.000000e+00 0.000000e+00
 0.000000e+00 6.185697e-01 3.814304e-01 0.000000e+00 0.000000e+00
 0.000000e+00 0.000000e+00 6.185696e-01 3.814304e-01 0.000000e+00
 0.000000e+00 0.000000e+00 0.000000e+00 7.561048e-01 2.438951e-01
 0.000000e+00 0.000000e+00 0.000000e+00 0.000000e+00 0.000000e+00
<ENDHMM>
~h "f"
<BEGINHMM>
<NUMSTATES> 5
<STATE> 2
<MEAN> 39
 -9.719710e+00 -6.745764e-01 -7.228579e-01 -1.176126e+00 -5.661598e+00 -3.794375e+00 -6.102165e+00 -6.473659e-01 -3.799760e+00 1.330297e-01 -2.449353e+00 -1.604407e+00 5.465739e+01 -1.327856e-02 -3.340710e-04 3.656675e-02 1.778533e-03 1.174632e-02 -7.162076e-02 -2.542592e-03 1.702702e-02 -3.340509e-02 -2.146259e-02 1.543592e-02 2.628047e-02 1.632263e-01 2.596628e-04 -3.971701e-04 -7.852907e-04 -4.005235e-03 -1.275542e-03 2.245917e-03 -4.379811e-03 -1.163244e-03 8.334004e-04 2.638297e-03 1.926152e-03 4.875421e-04 -8.645499e-03
<VARIANCE> 39
 7.831312e+01 5.190501e+01 6.288317e+01 5.333176e+01 8.340413e+01 6.982071e+01 6.837772e+01 5.858984e+01 6.281612e+01 4.458276e+01 5.399902e+01 4.616253e+01 2.541355e+02 2.715308e+00 2.339892e+00 2.360913e+00 2.857792e+00 3.595967e+00 3.296666e+00 3.457042e+00 3.211362e+00 3.082026e+00 3.268576e+00 2.870226e+00 2.583850e+00 3.102051e+00 4.388111e-01 3.734968e-01 3.873037e-01 5.064595e-01 6.051266e-01 6.004190e-01 6.429536e-01 5.755267e-01 5.947871e-01 6.317688e-01 5.350759e-01 4.705073e-01 4.249907e-01
<GCONST> 1.317929e+02
<STATE> 3
<MEAN> 39
 -9.779399e+00 -6.731913e-01 -6.282982e-01 -1.157527e+00 -5.624778e+00 -3.975347e+00 -6.104091e+00 -5.889349e-01 -3.861166e+00 9.965840e-02 -2.382546e+00 -1.506857e+00 5.506083e+01 -7.152518e-03 -3.832961e-04 3.214227e-02 -7.349622e-03 2.095549e-03 -6.838275e-02 -1.752874e-02 1.455737e-02 -3.422926e-02 -1.407394e-02 2.114871e-02 2.338901e-02 1.437107e-01 5.583808e-03 -1.633366e-03 -1.358935e-03 -6.167027e-03 -3.595457e-03 2.662142e-03 -6.101565e-03 -9.811558e-04 -1.730940e-03 2.320627e-03 -3.140944e-04 -2.507660e-03 -3.741848e-03
<VARIANCE> 39
 7.788322e+01 5.211656e+01 6.311496e+01 5.360291e+01 8.423296e+01 6.969248e+01 6.846398e+01 5.765040e+01 6.301205e+01 4.563582e+01 5.318480e+01 4.669963e+01 2.467603e+02 2.822142e+00 2.419023e+00 2.421114e+00 2.911705e+00 3.640727e+00 3.362734e+00 3.560916e+00 3.255711e+00 3.118961e+00 3.332507e+00 2.876603e+00 2.623203e+00 3.055400e+00 4.559735e-01 3.872990e-01 3.951298e-01 5.142992e-01 6.131834e-01 6.105304e-01 6.654742e-01 5.867543e-01 6.014685e-01 6.414724e-01 5.364993e-01 4.770029e-01 4.187086e-01
<GCONST> 1.322330e+02
<STATE> 4
<MEAN> 39
 -9.676971e+00 -1.163258e+00 -6.495832e-01 -1.154160e+00 -5.580729e+00 -3.359693e+00 -6.039893e+00 -9.277799e-01 -4.122302e+00 -3.900905e-01 -2.638264e+00 -1.451089e+00 5.434302e+01 -6.282473e-03 1.090549e-02 1.777906e-02 1.197099e-03 -1.297723e-02 -4.915276e-02 -3.430331e-02 8.808655e-03 -3.541198e-02 -1.150027e-02 2.372823e-02 1.722089e-02 7.324915e-02 8.420506e-03 -4.942324e-04 -5.039803e-04 -4.868698e-03 -3.841112e-03 3.148352e-03 -4.423872e-03 -2.633773e-03 -3.118601e-03 5.684512e-04 -1.808238e-03 -3.682971e-03 -2.528504e-03
<VARIANCE> 39
 8.187105e+01 5.552219e+01 7.369427e+01 5.579348e+01 9.547199e+01 6.357140e+01 6.443226e+01 5.486877e+01 6.143334e+01 4.600784e+01 5.018869e+01 4.459786e+01 2.543078e+02 2.797902e+00 2.538964e+00 2.608369e+00 2.984150e+00 3.505504e+00 3.152794e+00 3.508661e+00 3.317792e+00 3.073126e+00 3.253672e+00 2.749525e+00 2.467762e+00 3.110152e+00 4.336612e-01 4.200683e-01 4.079415e-01 5.186706e-01 5.957626e-01 5.730367e-01 6.614103e-01 6.055545e-01 5.900019e-01 6.210681e-01 5.142363e-01 4.488710e-01 4.039069e-01
<GCONST> 1.321004e+02
<TRANSP> 5
 0.000000e+00 1.000000e+00 0.000000e+00 0.000000e+00 0.000000e+00
 0.000000e+00 6.432831e-01 3.567169e-01 0.000000e+00 0.000000e+00
 0.000000e+00 0.000000e+00 6.432839e-01 3.567161e-01 0.000000e+00
 0.000000e+00 0.000000e+00 0.000000e+00 7.985466e-01 2.014535e-01
 0.000000e+00 0.000000e+00 0.000000e+00 0.000000e+00 0.000000e+00
<ENDHMM>
~h "g"
<BEGINHMM>
<NUMSTATES> 5
<STATE> 2
<MEAN> 39
 -6.642806e+00 -3.288766e-01 1.670090e-01 -2.659161e+00 -6.803792e+00 -3.708283e+00 -8.054164e+00 -2.289491e+00 -4.623002e+00 -1.165076e-01 -1.838124e+00 -2.759966e+00 5.662450e+01 1.185131e-02 -4.658157e-03 2.953824e-02 -1.649777e-03 -1.353051e-02 -1.606777e-02 2.204679e-03 1.347493e-02 8.307919e-04 -6.623405e-03 4.772887e-03 -1.566765e-03 5.373203e-02 -2.959199e-03 -6.650147e-04 -2.964291e-03 6.031988e-04 1.803620e-03 2.565027e-03 2.447047e-03 2.598146e-03 4.372549e-03 1.713615e-03 1.137699e-03 3.210203e-04 -6.934360e-03
<VARIANCE> 39
 7.578778e+01 5.334619e+01 7.894605e+01 6.859258e+01 7.231216e+01 7.294122e+01 7.468581e+01 7.507947e+01 8.654192e+01 5.478160e+01 6.411403e+01 5.319517e+01 2.238544e+02 2.130521e+00 2.359856e+00 2.756637e+00 3.396835e+00 3.876906e+00 3.555967e+00 3.855716e+00 4.008304e+00 3.727997e+00 3.387723e+00 3.355359e+00 2.684086e+00 2.946083e+00 3.439491e-01 3.868931e-01 4.421428e-01 5.812309e-01 6.781214e-01 6.280412e-01 7.103891e-01 7.183964e-01 6.739092e-01 6.324710e-01 6.104149e-01 4.984297e-01 4.117548e-01
<GCONST> 1.349870e+02
<STATE> 3
<MEAN> 39
 -6.598497e+00 -3.454157e-01 2.560865e-01 -2.661085e+00 -6.848464e+00 -3.744678e+00 -8.042609e+00 -2.250251e+00 -4.621033e+00 -1.258651e-01 -1.828763e+00 -2.779947e+00 5.680050e+01 6.476957e-03 -7.314262e-03 2.074025e-02 1.148206e-03 -6.336614e-03 -8.775581e-03 8.604877e-03 1.799888e-02 1.031126e-02 -3.017143e-03 4.311898e-03 -6.784862e-04 3.863375e-02 -2.029368e-03 -1.205884e-03 -2.987453e-03 7.250592e-04 2.846592e-03 1.600720e-03 2.643581e-03 1.959386e-03 3.168578e-03 1.605856e-03 -5.437560e-04 3.743806e-04 -3.943706e-03
<VARIANCE> 39
 7.515566e+01 5.373804e+01 7.965287e+01 6.798009e+01 7.277319e+01 7.330222e+01 7.516841e+01 7.608077e+01 8.726776e+01 5.511698e+01 6.413058e+01 5.378499e+01 2.206735e+02 2.122562e+00 2.367100e+00 2.759582e+00 3.391553e+00 3.889403e+00 3.570822e+00 3.871343e+00 4.027085e+00 3.737599e+00 3.405438e+00 3.361107e+00 2.699531e+00 2.910986e+00 3.418257e-01 3.882664e-01 4.412953e-01 5.811054e-01 6.799369e-01 6.314315e-01 7.130303e-01 7.210472e-01 6.754279e-01 6.369411e-01 6.122147e-01 5.007554e-01 4.053611e-01
<GCONST> 1.350583e+02
<STATE> 4
<MEAN> 39
 -6.539810e+00 -5.791882e-01 -1.596445e-01 -2.386692e+00 -7.049574e+00 -2.927620e+00 -7.962668e+00 -2.010520e+00 -4.538085e+00 -3.268958e-01 -1.583260e+00 -2.931324e+00 5.518810e+01 7.669802e-03 -1.020282e-02 1.628393e-02 2.166271e-03 -5.008564e-04 -6.394541e-03 8.407863e-03 1.404282e-02 7.607806e-03 -1.215758e-03 -4.499699e-03 -3.958775e-03 3.524551e-02 -1.467720e-03 -7.621598e-04 -2.432153e-03 2.298911e-04 2.464649e-03 -1.923261e-05 1.357049e-03 7.277234e-04 1.187590e-03 4.806122e-04 -1.760125e-03 4.511701e-06 -2.296268e-03
<VARIANCE> 39
 8.759306e+01 5.884391e+01 8.470817e+01 6.995084e+01 7.273860e+01 7.284620e+01 7.434550e+01 7.266446e+01 8.360606e+01 5.290430e+01 5.980280e+01 5.114014e+01 2.297553e+02 2.223612e+00 2.599314e+00 2.818048e+00 3.393512e+00 3.765199e+00 3.422206e+00 3.758540e+00 3.888471e+00 3.629214e+00 3.264877e+00 3.205652e+00 2.565393e+00 2.992075e+00 3.485850e-01 4.300149e-01 4.457154e-01 5.851979e-01 6.605842e-01 6.025240e-01 6.879442e-01 6.969526e-01 6.501973e-01 6.106771e-01 5.888578e-01 4.754418e-01 4.144534e-01
<GCONST> 1.348889e+02
<TRANSP> 5
 0.000000e+00 1.000000e+00 0.000000e+00 0.000000e+00 0.000000e+00
 0.000000e+00 6.594972e-01 3.405029e-01 0.000000e+00 0.000000e+00
 0.000000e+00 0.000000e+00 6.594946e-01 3.405053e-01 0.000000e+00
 0.000000e+00 0.000000e+00 0.000000e+00 8.120570e-01 1.879430e-01
 0.000000e+00 0.000000e+00 0.000000e+00 0.000000e+00 0.000000e+00
<ENDHMM>
~h "h"
<BEGINHMM>
<NUMSTATES> 5
<STATE> 2
<MEAN> 39
 -7.234780e+00 -1.388275e+00 -9.740353e-01 -3.180622e+00 -5.553782e+00 -3.464520e+00 -6.869000e+00 -1.208278e+00 -3.819332e+00 -4.004453e-01 -2.203760e+00 -2.313710e+00 5.687222e+01 2.548239e-02 -1.054397e-02 1.642490e-02 -3.636594e-03 1.309877e-02 -8.772030e-03 7.692741e-03 -1.170149e-02 2.986878e-03 -1.427549e-02 -1.708399e-02 1.124861e-02 5.722381e-02 -2.974427e-03 2.030606e-03 1.913236e-04 1.162912e-03 -1.527047e-03 2.244368e-03 4.907900e-04 -6.148124e-04 3.095033e-03 1.461057e-03 1.084761e-03 3.466348e-04 -9.225063e-03
<VARIANCE> 39
 7.439778e+01 5.351104e+01 6.946787e+01 7.818539e+01 7.984228e+01 6.718221e+01 7.157761e+01 7.287092e+01 8.002459e+01 5.491526e+01 6.158987e+01 5.912552e+01 2.432809e+02 1.956311e+00 2.233447e+00 2.466805e+00 3.284849e+00 3.478900e+00 3.259402e+00 3.644763e+00 3.756002e+00 3.337603e+00 3.170161e+00 3.125636e+00 2.613559e+00 2.806180e+00 3.040787e-01 3.588452e-01 3.933293e-01 5.628775e-01 5.936456e-01 5.927415e-01 6.703188e-01 6.725289e-01 6.015586e-01 5.860242e-01 5.785515e-01 4.799956e-01 3.882964e-01
<GCONST> 1.330647e+02
<STATE> 3
<MEAN> 39
 -7.159242e+00 -1.423597e+00 -9.248095e-01 -3.197535e+00 -5.519396e+00 -3.485702e+00 -6.833563e+00 -1.252155e+00 -3.803523e+00 -4.486686e-01 -2.245187e+00 -2.276647e+00 5.703246e+01 1.945014e-02 -7.534866e-03 1.535059e-02 7.481277e-04 1.149828e-02 -3.101368e-03 7.935645e-03 -1.257012e-02 1.019913e-02 -1.088485e-02 -1.562819e-02 1.291447e-02 3.859185e-02 -2.184668e-03 1.453685e-03 -2.401207e-04 1.247534e-03 -5.663723e-04 1.361222e-03 -3.339892e-04 -2.243372e-04 1.342234e-03 3.048132e-04 6.225730e-04 5.022946e-05 -4.970245e-03
<VARIANCE> 39
 7.364779e+01 5.385911e+01 6.896746e+01 7.798078e+01 8.071705e+01 6.724895e+01 7.148439e+01 7.328619e+01 8.020856e+01 5.486618e+01 6.234622e+01 5.952535e+01 2.380349e+02 1.942720e+00 2.252415e+00 2.479522e+00 3.299392e+00 3.496460e+00 3.292544e+00 3.655462e+00 3.780649e+00 3.348631e+00 3.176415e+00 3.156232e+00 2.609760e+00 2.754021e+00 3.015454e-01 3.617072e-01 3.956422e-01 5.651116e-01 5.969657e-01 5.998805e-01 6.731041e-01 6.763539e-01 6.030287e-01 5.884407e-01 5.847269e-01 4.790178e-01 3.803417e-01
<GCONST> 1.331277e+02
<STATE> 4
<MEAN> 39
 -7.408647e+00 -1.500070e+00 -1.143756e+00 -2.657712e+00 -5.836892e+00 -2.949328e+00 -6.650311e+00 -1.301625e+00 -3.779132e+00 -8.614241e-01 -2.135919e+00 -2.181880e+00 5.507037e+01 1.996017e-02 -4.378401e-03 1.289471e-02 3.514900e-03 6.678856e-03 4.693866e-05 3.068944e-03 -1.305852e-02 7.510403e-03 -1.387012e-02 -1.254000e-02 6.149665e-03 3.082478e-02 -1.100538e-03 1.521781e-03 -3.658734e-04 1.215723e-03 -5.319382e-04 2.230942e-04 -1.157762e-03 -4.998466e-05 -1.103026e-03 -4.198801e-04 3.310516e-04 -1.107256e-03 -1.906884e-03
<VARIANCE> 39
 8.154878e+01 5.749182e+01 7.083487e+01 7.710146e+01 8.120216e+01 6.597761e+01 6.952205e+01 6.685354e+01 7.556367e+01 5.159304e+01 5.827057e+01 5.652416e+01 2.463967e+02 1.994574e+00 2.426854e+00 2.456763e+00 3.245377e+00 3.361961e+00 3.149207e+00 3.490206e+00 3.566750e+00 3.242545e+00 2.969694e+00 3.038056e+00 2.411322e+00 2.740253e+00 3.003781e-01 3.909257e-01 3.886230e-01 5.563150e-01 5.783139e-01 5.722179e-01 6.421322e-01 6.444695e-01 5.849791e-01 5.516028e-01 5.658484e-01 4.424033e-01 3.682419e-01
<GCONST> 1.322629e+02
<TRANSP> 5
 0.000000e+00 1.000000e+00 0.000000e+00 0.000000e+00 0.000000e+00
 0.000000e+00 6.616672e-01 3.383329e-01 0.000000e+00 0.000000e+00
 0.000000e+00 0.000000e+00 6.616673e-01 3.383327e-01 0.000000e+00
 0.000000e+00 0.000000e+00 0.000000e+00 8.170792e-01 1.829207e-01
 0.000000e+00 0.000000e+00 0.000000e+00 0.000000e+00 0.000000e+00
<ENDHMM>
~h "i"
<BEGINHMM>
<NUMSTATES> 5
<STATE> 2
<MEAN> 39
 -6.996038e+00 -3.918229e-01 1.416163e+00 -2.561059e+00 -7.726691e+00 -4.747386e+00 -7.667362e+00 -2.174377e+00 -5.176338e+00 -1.358736e-01 -2.103171e+00 -2.427600e+00 5.827088e+01 8.262123e-03 -4.016180e-03 1.619662e-02 -1.724317e-03 -1.497086e-02 -2.383281e-02 -4.628057e-03 1.420203e-03 -1.326017e-02 -5.160395e-03 -5.624817e-03 -1.444772e-04 4.462871e-02 -4.562418e-04 -1.295328e-04 -3.941356e-03 -1.389268e-04 3.207172e-03 2.285664e-03 3.419861e-04 1.006281e-03 2.596520e-03 2.615128e-04 -1.162511e-03 -6.693735e-04 -2.965604e-03
<VARIANCE> 39
 7.335410e+01 5.781593e+01 8.927808e+01 6.414076e+01 8.200100e+01 7.664793e+01 7.248386e+01 7.104049e+01 8.643141e+01 5.694136e+01 6.911967e+01 5.658775e+01 2.034127e+02 2.492218e+00 2.577606e+00 3.139606e+00 3.547311e+00 4.391132e+00 3.816715e+00 4.060392e+00 4.252856e+00 3.866317e+00 3.530930e+00 3.385534e+00 2.845812e+00 3.183312e+00 3.902937e-01 4.200945e-01 4.891023e-01 6.177408e-01 7.521222e-01 6.921492e-01 7.474443e-01 7.771755e-01 6.973758e-01 6.632058e-01 6.219574e-01 5.301036e-01 4.555522e-01
<GCONST> 1.371708e+02
<STATE> 3
<MEAN> 39
 -6.972537e+00 -4.039341e-01 1.456050e+00 -2.565537e+00 -7.760808e+00 -4.809186e+00 -7.683115e+00 -2.168638e+00 -5.203612e+00 -1.486339e-01 -2.122451e+00 -2.430898e+00 5.838512e+01 7.309543e-03 -4.448498e-03 6.373228e-03 -1.230493e-03 -5.397721e-03 -1.826022e-02 -3.762851e-03 3.644571e-03 -6.883100e-03 -3.600874e-03 -8.495064e-03 -1.272795e-03 3.885017e-02 -4.965518e-04 -5.039156e-05 -3.751109e-03 3.030809e-04 4.121201e-03 2.328226e-03 6.184347e-04 5.353384e-04 2.441275e-03 4.619421e-04 -7.941811e-04 -2.180266e-04 -1.966299e-03
<VARIANCE> 39
 7.296523e+01 5.798305e+01 8.911393e+01 6.382333e+01 8.241553e+01 7.644331e+01 7.265216e+01 7.132722e+01 8.687268e+01 5.709349e+01 6.910131e+01 5.694674e+01 2.009109e+02 2.504800e+00 2.588952e+00 3.149277e+00 3.541723e+00 4.397211e+00 3.836639e+00 4.065745e+00 4.277623e+00 3.885293e+00 3.535937e+00 3.384414e+00 2.859401e+00 3.160529e+00 3.921535e-01 4.216683e-01 4.901718e-01 6.168470e-01 7.539687e-01 6.961008e-01 7.482923e-01 7.822052e-01 7.004224e-01 6.644111e-01 6.222495e-01 5.316944e-01 4.522182e-01
<GCONST> 1.372272e+02
<STATE> 4
<MEAN> 39
 -6.817083e+00 -5.942773e-01 1.270455e+00 -2.494844e+00 -7.780381e+00 -4.422156e+00 -7.775529e+00 -2.160888e+00 -5.170855e+00 -2.836282e-01 -2.006394e+00 -2.534399e+00 5.760510e+01 5.913551e-03 -3.200321e-03 -8.986038e-04 6.316793e-04 5.194932e-03 -1.296457e-02 -2.938939e-03 3.120676e-03 -1.901085e-03 -2.180439e-03 -9.496600e-03 -1.273222e-03 3.335563e-02 -2.629220e-04 1.190865e-04 -2.716620e-03 4.720900e-04 3.465814e-03 2.034613e-03 5.711531e-04 7.989386e-05 1.564368e-03 -4.358242e-04 -4.316030e-04 2.754186e-04 -1.607791e-03
<VARIANCE> 39
 7.856116e+01 6.108922e+01 9.148029e+01 6.485371e+01 8.238479e+01 7.666086e+01 7.236671e+01 7.080881e+01 8.482395e+01 5.626302e+01 6.700670e+01 5.639589e+01 2.048042e+02 2.577136e+00 2.738888e+00 3.182899e+00 3.551233e+00 4.308273e+00 3.790537e+00 4.000091e+00 4.237123e+00 3.858458e+00 3.464621e+00 3.322714e+00 2.804657e+00 3.208533e+00 3.996111e-01 4.467415e-01 4.924369e-01 6.163043e-01 7.386285e-01 6.863627e-01 7.348427e-01 7.742044e-01 6.936529e-01 6.495907e-01 6.105699e-01 5.206020e-01 4.554016e-01
<GCONST> 1.372687e+02
<TRANSP> 5
 0.000000e+00 1.000000e+00 0.000000e+00 0.000000e+00 0.000000e+00
 0.000000e+00 6.242959e-01 3.757040e-01 0.000000e+00 0.000000e+00
 0.000000e+00 0.000000e+00 6.242926e-01 3.757074e-01 0.000000e+00
 0.000000e+00 0.000000e+00 0.000000e+00 7.568803e-01 2.431196e-01
 0.000000e+00 0.000000e+00 0.000000e+00 0.000000e+00 0.000000e+00
<ENDHMM>
~h "j"
<BEGINHMM>
<NUMSTATES> 5
<STATE> 2
<MEAN> 39
 -6.974504e+00 -4.818831e-01 5.364037e-01 -2.115260e+00 -6.452536e+00 -4.495474e+00 -7.602999e+00 -1.551049e+00 -4.423515e+00 -3.114320e-01 -2.105706e+00 -1.984105e+00 5.691835e+01 9.297668e-03 -6.703031e-03 1.673611e-02 1.955388e-03 8.538873e-04 -3.135697e-02 -2.036373e-02 -6.687250e-03 1.541339e-05 -1.620150e-02 -1.162035e-02 2.818753e-04 7.578899e-02 -4.063053e-03 2.202070e-03 -4.360661e-03 2.052779e-03 -3.216286e-03 6.249303e-03 1.691423e-03 1.905269e-03 2.950586e-03 -1.452266e-03 -3.790215e-05 -2.568012e-03 -1.835136e-02
<VARIANCE> 39
 7.481415e+01 5.386822e+01 7.380900e+01 6.277980e+01 7.393562e+01 7.897414e+01 7.681904e+01 6.878555e+01 8.346422e+01 5.136993e+01 6.598618e+01 5.507082e+01 2.260554e+02 2.441220e+00 2.729134e+00 2.656780e+00 3.469917e+00 4.107522e+00 3.667837e+00 3.864985e+00 4.106277e+00 3.598536e+00 3.331752e+00 3.254010e+00 2.652746e+00 3.093241e+00 4.122952e-01 4.405595e-01 4.466984e-01 6.089736e-01 7.250088e-01 6.633692e-01 7.173491e-01 7.429466e-01 6.611516e-01 6.236061e-01 6.004741e-01 4.950390e-01 4.349994e-01
<GCONST> 1.357098e+02
<STATE> 3
<MEAN> 39
 -6.949338e+00 -4.978692e-01 5.722576e-01 -2.115108e+00 -6.455518e+00 -4.550116e+00 -7.641664e+00 -1.559043e+00 -4.403694e+00 -3.462607e-01 -2.143871e+00 -1.995615e+00 5.709062e+01 3.139500e-03 -3.914637e-03 5.163034e-03 7.045871e-03 -3.183401e-03 -1.641090e-02 -1.577855e-02 2.231071e-03 6.846245e-03 -1.708246e-02 -1.135148e-02 -5.024902e-03 4.398252e-02 -5.895392e-04 8.250728e-04 -3.497108e-03 1.521169e-03 -1.622848e-03 5.156937e-03 1.923815e-03 2.525729e-03 1.052526e-03 1.094168e-04 5.723716e-04 -1.981649e-03 -9.483600e-03
<VARIANCE> 39
 7.428344e+01 5.373003e+01 7.363628e+01 6.232106e+01 7.435938e+01 7.865979e+01 7.754693e+01 6.920756e+01 8.357003e+01 5.112542e+01 6.588583e+01 5.553291e+01 2.220940e+02 2.423601e+00 2.742541e+00 2.655201e+00 3.484514e+00 4.147080e+00 3.679663e+00 3.842999e+00 4.127562e+00 3.581990e+00 3.330900e+00 3.271258e+00 2.670109e+00 2.966243e+00 4.087412e-01 4.431547e-01 4.477357e-01 6.104583e-01 7.325257e-01 6.641396e-01 7.113313e-01 7.444992e-01 6.579337e-01 6.228752e-01 6.019779e-01 4.976788e-01 4.163821e-01
<GCONST> 1.356371e+02
<STATE> 4
<MEAN> 39
 -6.543488e+00 -7.882155e-01 1.382430e-01 -2.286828e+00 -6.567394e+00 -3.902216e+00 -7.876282e+00 -1.681040e+00 -4.454028e+00 -4.454142e-01 -1.959122e+00 -2.349590e+00 5.642867e+01 9.816401e-04 -1.600080e-03 -5.831507e-04 7.114491e-03 -4.137842e-03 -4.484933e-03 -6.368499e-03 7.352752e-03 8.181013e-03 -1.166725e-02 -9.426089e-03 -8.206739e-03 2.369235e-02 -2.793115e-04 4.651442e-04 -1.633228e-03 4.358252e-05 -8.456901e-04 2.413071e-03 1.276552e-03 7.341284e-04 -6.058682e-04 1.153824e-03 1.734658e-03 -1.217638e-03 -4.395154e-03
<VARIANCE> 39
 8.197704e+01 5.739507e+01 7.662379e+01 6.647917e+01 7.447861e+01 7.950018e+01 7.911485e+01 6.893528e+01 8.034703e+01 4.960719e+01 6.335838e+01 5.660614e+01 2.214182e+02 2.541982e+00 2.898692e+00 2.718681e+00 3.607091e+00 4.098092e+00 3.617586e+00 3.798754e+00 4.148967e+00 3.590014e+00 3.285517e+00 3.249085e+00 2.660725e+00 2.994398e+00 4.196556e-01 4.719599e-01 4.492083e-01 6.284886e-01 7.224155e-01 6.463288e-01 6.968647e-01 7.436641e-01 6.535009e-01 6.153886e-01 5.959632e-01 4.945783e-01 4.157636e-01
<GCONST> 1.359777e+02
<TRANSP> 5
 0.000000e+00 1.000000e+00 0.000000e+00 0.000000e+00 0.000000e+00
 0.000000e+00 6.393870e-01 3.606130e-01 0.000000e+00 0.000000e+00
 0.000000e+00 0.000000e+00 6.393865e-01 3.606135e-01 0.000000e+00
 0.000000e+00 0.000000e+00 0.000000e+00 7.763956e-01 2.236045e-01
 0.000000e+00 0.000000e+00 0.000000e+00 0.000000e+00 0.000000e+00
<ENDHMM>
~h "k"
<BEGINHMM>
<NUMSTATES> 5
<STATE> 2
<MEAN> 39
 -6.870812e+00 -1.193103e+00 -7.459490e-01 -3.030369e+00 -5.967412e+00 -3.950802e+00 -7.140581e+00 -1.587447e+00 -3.922292e+00 -1.027042e-02 -2.530492e+00 -2.811157e+00 5.711361e+01 3.531155e-02 -2.046880e-02 1.406102e-02 -3.255180e-02 -7.114924e-03 -2.836790e-02 -8.151619e-03 -4.127048e-03 -1.555807e-02 -1.495484e-03 -1.915770e-02 -1.198052e-02 9.384650e-02 -2.785196e-03 1.424961e-03 -1.300709e-03 1.592380e-03 -1.734371e-03 3.461824e-03 1.325605e-03 1.096122e-03 2.101474e-03 6.604273e-04 1.983281e-03 -6.620974e-05 -1.318907e-02
<VARIANCE> 39
 7.499570e+01 5.528061e+01 7.307943e+01 6.940670e+01 7.513104e+01 7.478655e+01 6.715660e+01 6.997247e+01 7.836745e+01 5.560835e+01 6.692373e+01 5.907382e+01 2.327440e+02 2.267863e+00 2.495160e+00 2.826904e+00 3.628777e+00 3.892430e+00 3.641502e+00 3.846649e+00 4.158195e+00 3.610536e+00 3.468559e+00 3.325327e+00 2.921703e+00 3.385869e+00 3.569517e-01 4.065902e-01 4.647494e-01 6.289322e-01 6.824552e-01 6.584963e-01 7.121276e-01 7.546239e-01 6.638209e-01 6.526497e-01 6.175764e-01 5.393485e-01 4.800034e-01
<GCONST> 1.359948e+02
<STATE> 3
<MEAN> 39
 -6.769598e+00 -1.255634e+00 -7.151251e-01 -3.116507e+00 -5.986375e+00 -4.011392e+00 -7.155537e+00 -1.594396e+00 -3.949989e+00 -7.946849e-03 -2.580415e+00 -2.848142e+00 5.734828e+01 3.202650e-02 -1.696737e-02 1.020576e-02 -2.830953e-02 -7.998223e-03 -1.998733e-02 -5.555491e-03 -5.392265e-05 -1.049180e-02 6.359303e-04 -1.655612e-02 -1.266698e-02 7.262259e-02 -4.243426e-04 1.401394e-03 -7.938751e-04 2.118254e-03 3.946002e-05 3.160098e-03 7.927754e-04 7.493424e-04 1.317701e-03 6.025898e-04 6.196374e-04 -8.452545e-05 -6.297181e-03
<VARIANCE> 39
 7.427703e+01 5.546883e+01 7.349999e+01 6.964107e+01 7.578579e+01 7.481310e+01 6.768118e+01 7.020177e+01 7.891845e+01 5.605850e+01 6.739592e+01 5.945367e+01 2.281040e+02 2.248105e+00 2.505821e+00 2.845084e+00 3.646492e+00 3.900755e+00 3.656081e+00 3.863894e+00 4.165277e+00 3.625475e+00 3.481702e+00 3.339711e+00 2.935759e+00 3.269066e+00 3.538133e-01 4.089809e-01 4.669112e-01 6.320571e-01 6.846955e-01 6.619521e-01 7.153201e-01 7.562261e-01 6.666766e-01 6.549324e-01 6.198266e-01 5.423735e-01 4.667991e-01
<GCONST> 1.360380e+02
<STATE> 4
<MEAN> 39
 -6.577532e+00 -1.465253e+00 -7.363122e-01 -2.967610e+00 -6.224276e+00 -3.604416e+00 -7.255241e+00 -1.581782e+00 -4.003201e+00 -2.061260e-01 -2.446309e+00 -2.955285e+00 5.656903e+01 3.256476e-02 -1.282739e-02 1.030792e-02 -2.195640e-02 -5.992014e-03 -1.145315e-02 -5.276933e-03 -1.605742e-03 -8.982823e-03 -1.229044e-03 -1.638025e-02 -1.108660e-02 6.514922e-02 -1.250293e-04 1.629005e-03 1.269099e-04 2.071130e-03 7.042428e-04 2.392496e-03 7.220323e-05 -6.600899e-04 8.761571e-05 -3.654626e-04 1.258129e-06 3.530450e-04 -2.689655e-03
<VARIANCE> 39
 8.020163e+01 5.937468e+01 7.631158e+01 7.149760e+01 7.695252e+01 7.528738e+01 6.844531e+01 6.811893e+01 7.686780e+01 5.478549e+01 6.608138e+01 5.764609e+01 2.304005e+02 2.295563e+00 2.686539e+00 2.906709e+00 3.673393e+00 3.844313e+00 3.615752e+00 3.830947e+00 4.085392e+00 3.612612e+00 3.409514e+00 3.299016e+00 2.849946e+00 3.283398e+00 3.560064e-01 4.393059e-01 4.718727e-01 6.352547e-01 6.725102e-01 6.530352e-01 7.080892e-01 7.424700e-01 6.615152e-01 6.407092e-01 6.118883e-01 5.267403e-01 4.609057e-01
<GCONST> 1.361118e+02
<TRANSP> 5
 0.000000e+00 1.000000e+00 0.000000e+00 0.000000e+00 0.000000e+00
 0.000000e+00 6.313247e-01 3.686753e-01 0.000000e+00 0.000000e+00
 0.000000e+00 0.000000e+00 6.313258e-01 3.686742e-01 0.000000e+00
 0.000000e+00 0.000000e+00 0.000000e+00 7.678265e-01 2.321735e-01
 0.000000e+00 0.000000e+00 0.000000e+00 0.000000e+00 0.000000e+00
<ENDHMM>
~h "l"
<BEGINHMM>
<NUMSTATES> 5
<STATE> 2
<MEAN> 39
 -6.234635e+00 -1.074389e+00 -6.848536e-01 -4.121556e+00 -5.727045e+00 -4.118378e+00 -8.162835e+00 -2.166620e+00 -3.803904e+00 3.702703e-01 -2.592003e+00 -3.106808e+00 5.930943e+01 2.052613e-02 -1.394151e-02 -1.552212e-03 -2.926849e-02 6.930850e-03 -2.153913e-03 -5.110804e-03 -4.881713e-03 -3.561723e-03 2.554272e-03 -8.748809e-03 -8.415832e-03 6.141699e-02 -2.747428e-03 1.521790e-03 -1.232107e-03 1.774241e-03 -1.433981e-03 8.338979e-04 2.603684e-03 1.189644e-04 5.830087e-04 -9.101817e-04 1.731025e-03 1.744301e-03 -5.414666e-03
<VARIANCE> 39
 7.801290e+01 5.761754e+01 7.519395e+01 7.883135e+01 8.080125e+01 7.138482e+01 7.400497e+01 7.617609e+01 8.567688e+01 6.095634e+01 6.861371e+01 6.550323e+01 2.076966e+02 2.574893e+00 2.683889e+00 2.917699e+00 3.890136e+00 3.977011e+00 3.630628e+00 3.994004e+00 4.340603e+00 3.700153e+00 3.635743e+00 3.387890e+00 2.945544e+00 3.096841e+00 3.848494e-01 4.325237e-01 4.696593e-01 6.515852e-01 6.841345e-01 6.458884e-01 7.266448e-01 7.831511e-01 6.660775e-01 6.720837e-01 6.249537e-01 5.369745e-01 4.333085e-01
<GCONST> 1.372056e+02
<STATE> 3
<MEAN> 39
 -6.171549e+00 -1.110174e+00 -6.794165e-01 -4.199312e+00 -5.717064e+00 -4.126120e+00 -8.174346e+00 -2.183586e+00 -3.818685e+00 3.746918e-01 -2.609298e+00 -3.123877e+00 5.948878e+01 1.376854e-02 -1.113396e-02 -3.351643e-03 -2.439331e-02 3.068235e-03 -2.398835e-04 1.310687e-03 -5.086083e-03 -3.425918e-03 3.542900e-04 -5.126877e-03 -3.804300e-03 5.043252e-02 -2.732834e-03 1.308181e-03 -8.420142e-04 1.577003e-03 -1.766733e-03 1.726670e-04 1.935377e-03 -7.585615e-04 -9.138096e-05 -5.040917e-04 1.502619e-03 1.318376e-03 -3.876686e-03
<VARIANCE> 39
 7.733340e+01 5.825639e+01 7.501514e+01 7.893591e+01 8.115211e+01 7.152313e+01 7.440343e+01 7.657217e+01 8.548311e+01 6.115533e+01 6.878188e+01 6.558143e+01 2.038462e+02 2.583414e+00 2.688426e+00 2.913293e+00 3.907662e+00 3.971780e+00 3.641940e+00 4.008468e+00 4.343210e+00 3.708513e+00 3.658690e+00 3.402831e+00 2.955233e+00 3.058856e+00 3.856458e-01 4.316051e-01 4.687386e-01 6.550463e-01 6.821650e-01 6.481382e-01 7.300734e-01 7.845663e-01 6.680242e-01 6.772210e-01 6.277733e-01 5.389998e-01 4.281100e-01
<GCONST> 1.372446e+02
<STATE> 4
<MEAN> 39
 -5.975723e+00 -1.257182e+00 -6.682987e-01 -4.124709e+00 -5.934018e+00 -3.848334e+00 -8.178332e+00 -2.187788e+00 -3.967258e+00 1.609490e-01 -2.451255e+00 -3.114476e+00 5.891425e+01 1.163067e-02 -9.480683e-03 1.947698e-03 -2.077846e-02 -3.253127e-03 -2.182517e-03 3.024222e-03 -7.157655e-03 -6.343978e-03 -1.893839e-03 -1.713218e-03 3.448464e-04 4.897997e-02 -2.158287e-03 1.324123e-03 3.330225e-04 1.528584e-03 -1.750053e-03 -6.459284e-04 6.091579e-04 -1.564047e-03 -7.635981e-04 -4.400062e-04 7.629333e-04 1.007426e-03 -2.514882e-03
<VARIANCE> 39
 8.164663e+01 6.241706e+01 7.904209e+01 8.077982e+01 8.290398e+01 7.272541e+01 7.482430e+01 7.551820e+01 8.327614e+01 6.020088e+01 6.766428e+01 6.392361e+01 2.059291e+02 2.654920e+00 2.846681e+00 2.967407e+00 3.977077e+00 3.964383e+00 3.641460e+00 4.037810e+00 4.303663e+00 3.717221e+00 3.617509e+00 3.381721e+00 2.894370e+00 3.123598e+00 3.950267e-01 4.525833e-01 4.718961e-01 6.699982e-01 6.810635e-01 6.458079e-01 7.351609e-01 7.799660e-01 6.683271e-01 6.702428e-01 6.256159e-01 5.305133e-01 4.345271e-01
<GCONST> 1.375832e+02
<TRANSP> 5
 0.000000e+00 1.000000e+00 0.000000e+00 0.000000e+00 0.000000e+00
 0.000000e+00 6.165842e-01 3.834158e-01 0.000000e+00 0.000000e+00
 0.000000e+00 0.000000e+00 6.165832e-01 3.834168e-01 0.000000e+00
 0.000000e+00 0.000000e+00 0.000000e+00 7.472909e-01 2.527090e-01
 0.000000e+00 0.000000e+00 0.000000e+00 0.000000e+00 0.000000e+00
<ENDHMM>
~h "m"
<BEGINHMM>
<NUMSTATES> 5
<STATE> 2
<MEAN> 39
 -5.867827e+00 -7.729027e-01 -1.953075e-01 -2.934984e+00 -6.089896e+00 -3.455950e+00 -7.606258e+00 -2.461469e+00 -4.438084e+00 -2.628663e-01 -3.142534e+00 -3.006949e+00 5.843053e+01 2.876270e-02 -2.098839e-03 1.423925e-02 -1.368927e-02 1.392728e-02 2.050770e-03 -7.687859e-03 -3.025719e-02 -2.238584e-02 -1.262227e-02 -2.440371e-02 -2.966182e-03 5.854217e-02 -4.123911e-03 3.216530e-04 -9.663684e-04 9.034241e-04 -1.328436e-03 2.711566e-03 1.861681e-03 2.772140e-03 1.282747e-03 9.821415e-04 1.958435e-03 -1.005953e-04 -1.143235e-02
<VARIANCE> 39
 7.634698e+01 5.679488e+01 7.207732e+01 7.036311e+01 7.623520e+01 7.063763e+01 6.882246e+01 7.177184e+01 8.148489e+01 6.112976e+01 6.980495e+01 5.864052e+01 2.079363e+02 2.374590e+00 2.561808e+00 2.868133e+00 3.880965e+00 3.844842e+00 3.588509e+00 3.770125e+00 4.612274e+00 3.612705e+00 3.495438e+00 3.401999e+00 2.811497e+00 3.084186e+00 3.588265e-01 4.082075e-01 4.680952e-01 6.687597e-01 6.684683e-01 6.447706e-01 6.968498e-01 8.342165e-01 6.567965e-01 6.402875e-01 6.198168e-01 5.225142e-01 4.330916e-01
<GCONST> 1.361666e+02
<STATE> 3
<MEAN> 39
 -5.792972e+00 -7.867978e-01 -1.608775e-01 -2.969009e+00 -6.047808e+00 -3.445125e+00 -7.615085e+00 -2.519129e+00 -4.485511e+00 -2.921724e-01 -3.205897e+00 -3.019468e+00 5.856660e+01 2.074430e-02 -3.425861e-03 9.586966e-03 -1.032081e-02 1.264842e-02 7.699956e-03 -2.714206e-03 -2.111644e-02 -1.848631e-02 -1.053644e-02 -2.040452e-02 -3.213539e-03 3.768218e-02 -2.776521e-03 -4.753150e-04 -1.211332e-03 1.364560e-03 -9.137140e-04 1.404567e-03 2.218987e-03 3.572440e-03 1.315673e-03 9.994317e-04 1.411006e-03 5.464557e-04 -6.508111e-03
<VARIANCE> 39
 7.569318e+01 5.689232e+01 7.218892e+01 7.026350e+01 7.638847e+01 7.068597e+01 6.889901e+01 7.195983e+01 8.163647e+01 6.150414e+01 7.027376e+01 5.874955e+01 2.038078e+02 2.354202e+00 2.564481e+00 2.873228e+00 3.888918e+00 3.848577e+00 3.578865e+00 3.756167e+00 4.615505e+00 3.613856e+00 3.491331e+00 3.402264e+00 2.819939e+00 2.970227e+00 3.556073e-01 4.096234e-01 4.699253e-01 6.700925e-01 6.712519e-01 6.435773e-01 6.943429e-01 8.350094e-01 6.574343e-01 6.397799e-01 6.182454e-01 5.236410e-01 4.204553e-01
<GCONST> 1.360889e+02
<STATE> 4
<MEAN> 39
 -5.815431e+00 -9.297651e-01 -3.261147e-01 -2.879553e+00 -6.001187e+00 -3.106759e+00 -7.585191e+00 -2.435318e+00 -4.480786e+00 -4.334480e-01 -3.155084e+00 -3.037661e+00 5.775726e+01 1.708798e-02 -6.974536e-03 4.925088e-03 -5.685715e-03 1.062305e-02 8.302155e-03 2.765396e-03 -1.077264e-02 -1.375362e-02 -1.016344e-02 -1.553768e-02 -1.422423e-03 3.122034e-02 -2.367588e-03 -1.714680e-04 -1.188419e-03 1.834404e-03 -7.760978e-04 1.599995e-04 1.838907e-03 2.694994e-03 1.000074e-03 8.232546e-04 1.534266e-03 1.046837e-03 -3.637207e-03
<VARIANCE> 39
 7.990768e+01 5.891183e+01 7.353136e+01 7.136123e+01 7.648843e+01 7.144454e+01 6.827044e+01 6.985730e+01 7.932092e+01 5.969294e+01 6.958082e+01 5.758662e+01 2.108674e+02 2.374736e+00 2.645153e+00 2.895364e+00 3.887851e+00 3.804306e+00 3.547672e+00 3.702352e+00 4.462375e+00 3.583581e+00 3.405393e+00 3.328147e+00 2.760560e+00 2.962753e+00 3.557043e-01 4.245593e-01 4.719279e-01 6.691352e-01 6.625285e-01 6.361103e-01 6.827309e-01 8.083892e-01 6.518706e-01 6.249447e-01 6.046754e-01 5.124679e-01 4.135480e-01
<GCONST> 1.359026e+02
<TRANSP> 5
 0.000000e+00 1.000000e+00 0.000000e+00 0.000000e+00 0.000000e+00
 0.000000e+00 6.124839e-01 3.875161e-01 0.000000e+00 0.000000e+00
 0.000000e+00 0.000000e+00 6.124820e-01 3.875180e-01 0.000000e+00
 0.000000e+00 0.000000e+00 0.000000e+00 7.376237e-01 2.623763e-01
 0.000000e+00 0.000000e+00 0.000000e+00 0.000000e+00 0.000000e+00
<ENDHMM>
~h "n"
<BEGINHMM>
<NUMSTATES> 5
<STATE> 2
<MEAN> 39
 -5.734101e+00 -1.383586e+00 4.359534e-01 -2.666855e+00 -6.340778e+00 -4.490911e+00 -7.644957e+00 -1.844606e+00 -4.066303e+00 -6.458365e-01 -3.910341e+00 -2.961442e+00 5.912188e+01 -9.631738e-05 5.553195e-03 1.423822e-02 1.991859e-02 1.028740e-02 -1.006910e-03 4.913909e-03 -4.949478e-03 -7.818555e-04 -7.492175e-03 -7.756929e-03 6.867216e-03 -2.497241e-03 -3.305981e-03 6.487216e-04 -4.022513e-03 -4.705046e-04 1.615176e-03 1.365480e-03 1.847795e-03 1.912978e-04 1.489877e-03 8.240241e-04 2.637049e-03 1.339261e-03 -2.215934e-03
<VARIANCE> 39
 6.915668e+01 6.079824e+01 7.491347e+01 6.495129e+01 7.806770e+01 7.240263e+01 7.102562e+01 7.301036e+01 8.427367e+01 5.838373e+01 7.742472e+01 6.280923e+01 1.936344e+02 2.304408e+00 2.720822e+00 2.864942e+00 3.715095e+00 3.841219e+00 3.622569e+00 3.802542e+00 4.625401e+00 3.648042e+00 3.565610e+00 3.546610e+00 2.880994e+00 3.183417e+00 3.630581e-01 4.414312e-01 4.640838e-01 6.438822e-01 6.773281e-01 6.598879e-01 7.066464e-01 8.431381e-01 6.718417e-01 6.650691e-01 6.359878e-01 5.363038e-01 4.544621e-01
<GCONST> 1.366777e+02
<STATE> 3
<MEAN> 39
 -5.736354e+00 -1.369624e+00 4.636468e-01 -2.616329e+00 -6.301988e+00 -4.487396e+00 -7.631263e+00 -1.852341e+00 -4.063902e+00 -6.658043e-01 -3.934181e+00 -2.935921e+00 5.911252e+01 -8.975597e-03 6.961702e-03 3.976629e-03 1.858292e-02 1.460060e-02 2.918788e-03 9.579007e-03 -4.327992e-03 2.740306e-03 -4.941672e-03 1.498275e-04 9.901077e-03 -6.293759e-03 -3.277837e-03 6.623806e-04 -4.084635e-03 -7.530525e-04 1.443089e-03 1.638044e-03 8.994618e-04 5.200672e-04 1.145693e-03 5.322798e-04 2.779586e-03 1.256518e-03 -7.152525e-04
<VARIANCE> 39
 6.890671e+01 6.085052e+01 7.470220e+01 6.496082e+01 7.847843e+01 7.216526e+01 7.151349e+01 7.276387e+01 8.453814e+01 5.859512e+01 7.752078e+01 6.284913e+01 1.917196e+02 2.309872e+00 2.735015e+00 2.868242e+00 3.714918e+00 3.845886e+00 3.612519e+00 3.799031e+00 4.614906e+00 3.641965e+00 3.566050e+00 3.553246e+00 2.871625e+00 3.170413e+00 3.642851e-01 4.445591e-01 4.651878e-01 6.441157e-01 6.779636e-01 6.584159e-01 7.067006e-01 8.426209e-01 6.717600e-01 6.654165e-01 6.353563e-01 5.346493e-01 4.542765e-01
<GCONST> 1.366805e+02
<STATE> 4
<MEAN> 39
 -5.607123e+00 -1.615762e+00 2.537668e-01 -2.470910e+00 -6.309908e+00 -3.912242e+00 -7.702736e+00 -1.746621e+00 -4.053566e+00 -7.905178e-01 -3.689387e+00 -2.937168e+00 5.814933e+01 -1.439890e-02 8.256414e-03 -5.519357e-03 1.314480e-02 1.908701e-02 6.191279e-03 9.992175e-03 -2.778918e-03 3.286050e-03 -3.483243e-03 5.951630e-03 1.205393e-02 -2.880201e-03 -2.326568e-03 8.564786e-04 -2.741965e-03 -1.089827e-03 3.672693e-04 8.502663e-04 -3.219672e-04 1.189183e-04 -1.906235e-04 5.309208e-06 1.869533e-03 9.380174e-04 -2.216524e-05
<VARIANCE> 39
 7.640941e+01 6.488422e+01 7.781301e+01 6.630937e+01 7.994878e+01 7.396192e+01 7.269549e+01 7.121086e+01 8.186794e+01 5.704367e+01 7.653957e+01 6.233803e+01 1.959909e+02 2.402718e+00 2.959564e+00 2.909813e+00 3.784832e+00 3.800076e+00 3.570337e+00 3.780997e+00 4.470520e+00 3.614077e+00 3.475984e+00 3.495317e+00 2.778570e+00 3.235409e+00 3.723261e-01 4.828165e-01 4.656532e-01 6.565213e-01 6.671910e-01 6.459097e-01 6.998824e-01 8.185156e-01 6.647906e-01 6.469765e-01 6.237317e-01 5.170268e-01 4.608552e-01
<GCONST> 1.368927e+02
<TRANSP> 5
 0.000000e+00 1.000000e+00 0.000000e+00 0.000000e+00 0.000000e+00
 0.000000e+00 6.321604e-01 3.678396e-01 0.000000e+00 0.000000e+00
 0.000000e+00 0.000000e+00 6.321655e-01 3.678345e-01 0.000000e+00
 0.000000e+00 0.000000e+00 0.000000e+00 7.719652e-01 2.280348e-01
 0.000000e+00 0.000000e+00 0.000000e+00 0.000000e+00 0.000000e+00
<ENDHMM>
~h "o"
<BEGINHMM>
<NUMSTATES> 5
<STATE> 2
<MEAN> 39
 -7.273371e+00 -6.088580e-01 -1.755375e+00 -3.664691e+00 -5.661717e+00 -2.583337e+00 -7.738893e+00 -2.013853e+00 -3.673891e+00 5.077515e-01 -1.032716e+00 -2.567307e+00 5.506861e+01 3.470929e-02 -3.140043e-02 2.406637e-02 -3.565913e-02 -2.287388e-02 -2.241666e-02 -1.812361e-02 -3.781488e-02 -2.204968e-02 -8.130632e-03 -2.755951e-04 -1.096393e-02 1.231005e-01 -4.375743e-03 2.345247e-03 1.351449e-03 5.845511e-03 -7.472354e-04 4.824238e-03 5.329959e-03 1.771579e-03 3.500904e-03 -1.103836e-03 5.849128e-05 2.421669e-03 -1.568966e-02
<VARIANCE> 39
 8.499872e+01 4.792244e+01 6.912836e+01 8.078886e+01 6.555626e+01 6.756744e+01 6.555285e+01 6.460159e+01 7.430579e+01 5.245426e+01 5.478424e+01 5.434656e+01 2.571233e+02 2.135293e+00 2.181345e+00 2.405457e+00 3.577076e+00 3.334887e+00 3.293831e+00 3.427966e+00 3.614640e+00 3.308593e+00 3.035947e+00 2.967037e+00 2.516748e+00 3.024058e+00 3.293290e-01 3.579176e-01 3.870891e-01 5.939221e-01 5.621199e-01 5.875316e-01 6.200895e-01 6.701927e-01 5.958838e-01 5.595731e-01 5.514421e-01 4.690786e-01 4.218927e-01
<GCONST> 1.323016e+02
<STATE> 3
<MEAN> 39
 -7.159015e+00 -6.837915e-01 -1.686359e+00 -3.776173e+00 -5.717272e+00 -2.632339e+00 -7.754280e+00 -2.131397e+00 -3.747520e+00 4.827212e-01 -1.033290e+00 -2.592287e+00 5.540308e+01 2.646531e-02 -2.616557e-02 2.636530e-02 -2.190058e-02 -2.135699e-02 -1.086442e-02 -5.645771e-03 -3.186071e-02 -1.560364e-02 -9.485846e-03 -1.450304e-03 -7.588122e-03 9.273517e-02 -2.956896e-03 2.034153e-03 1.061052e-03 4.255873e-03 8.336287e-04 3.712181e-03 4.000414e-03 2.885464e-03 2.512715e-03 5.004099e-04 2.970445e-05 1.452462e-03 -9.696490e-03
<VARIANCE> 39
 8.336000e+01 4.825567e+01 7.002274e+01 8.154694e+01 6.690775e+01 6.707549e+01 6.591847e+01 6.470329e+01 7.499957e+01 5.245152e+01 5.512722e+01 5.453037e+01 2.503640e+02 2.137505e+00 2.175033e+00 2.416332e+00 3.595658e+00 3.370703e+00 3.281486e+00 3.414655e+00 3.613405e+00 3.345672e+00 3.053348e+00 2.981726e+00 2.533456e+00 2.906329e+00 3.300815e-01 3.578210e-01 3.892758e-01 5.973349e-01 5.673686e-01 5.873779e-01 6.192713e-01 6.702466e-01 6.016430e-01 5.651777e-01 5.535548e-01 4.733354e-01 4.088380e-01
<GCONST> 1.323451e+02
<STATE> 4
<MEAN> 39
 -6.906937e+00 -8.788953e-01 -1.983455e+00 -3.489584e+00 -6.236393e+00 -2.203321e+00 -7.771262e+00 -2.037401e+00 -4.107092e+00 -3.882423e-02 -7.773887e-01 -2.623270e+00 5.388123e+01 2.231167e-02 -1.070037e-02 2.038172e-02 -1.545242e-02 -8.288015e-03 -2.713990e-03 4.498750e-03 -2.643778e-02 -1.408639e-02 -9.161858e-03 -3.824656e-03 -4.919358e-03 6.191880e-02 -1.871285e-03 1.374034e-03 6.081844e-04 2.043052e-03 1.150282e-03 1.162977e-03 1.537716e-03 1.403913e-03 6.420499e-04 3.754339e-04 1.522042e-04 4.820913e-04 -3.958045e-03
<VARIANCE> 39
 9.135907e+01 5.411615e+01 7.091106e+01 8.400514e+01 6.495152e+01 6.485691e+01 6.418271e+01 6.119216e+01 7.343195e+01 5.031090e+01 5.028219e+01 5.066216e+01 2.422377e+02 2.311328e+00 2.533883e+00 2.479718e+00 3.662593e+00 3.275715e+00 3.189535e+00 3.310208e+00 3.492033e+00 3.293405e+00 2.914636e+00 2.839444e+00 2.397063e+00 3.058427e+00 3.473058e-01 4.200806e-01 3.975365e-01 6.141105e-01 5.619723e-01 5.655255e-01 6.009970e-01 6.450084e-01 5.886824e-01 5.405246e-01 5.294258e-01 4.470890e-01 4.227393e-01
<GCONST> 1.322337e+02
<TRANSP> 5
 0.000000e+00 1.000000e+00 0.000000e+00 0.000000e+00 0.000000e+00
 0.000000e+00 6.722369e-01 3.277631e-01 0.000000e+00 0.000000e+00
 0.000000e+00 0.000000e+00 6.722361e-01 3.277638e-01 0.000000e+00
 0.000000e+00 0.000000e+00 0.000000e+00 8.447531e-01 1.552469e-01
 0.000000e+00 0.000000e+00 0.000000e+00 0.000000e+00 0.000000e+00
<ENDHMM>
~h "p"
<BEGINHMM>
<NUMSTATES> 5
<STATE> 2
<MEAN> 39
 -6.189203e+00 -1.252202e+00 -7.022424e-01 -3.418443e+00 -5.993818e+00 -4.538668e+00 -7.611644e+00 -2.073567e+00 -3.929281e+00 -2.832469e-01 -2.355584e+00 -3.049177e+00 5.891005e+01 2.282840e-02 7.927412e-03 -1.068036e-02 -2.053878e-04 1.951413e-02 4.216255e-03 -1.017128e-02 -2.938761e-02 1.803808e-02 8.808769e-03 -4.130579e-03 -2.830769e-03 1.726415e-02 -2.961394e-03 2.379311e-03 4.077713e-04 1.467561e-03 -1.107658e-03 1.329969e-03 4.672655e-05 1.234584e-03 -8.606776e-04 -1.709325e-03 4.127479e-05 7.035368e-04 -5.370767e-03
<VARIANCE> 39
 7.768039e+01 5.811390e+01 7.380030e+01 6.988384e+01 7.839402e+01 7.546073e+01 6.567104e+01 7.064944e+01 8.216534e+01 5.612018e+01 6.576228e+01 6.118550e+01 1.999928e+02 2.686961e+00 2.860075e+00 2.946176e+00 4.177032e+00 4.140049e+00 3.970425e+00 4.049506e+00 4.452877e+00 3.975232e+00 3.774456e+00 3.545118e+00 3.183682e+00 3.730847e+00 4.316757e-01 4.703509e-01 4.868460e-01 7.360141e-01 7.342970e-01 7.314321e-01 7.569031e-01 8.292331e-01 7.316826e-01 7.147409e-01 6.602900e-01 6.043212e-01 5.530534e-01
<GCONST> 1.386250e+02
<STATE> 3
<MEAN> 39
 -6.143407e+00 -1.219530e+00 -7.312400e-01 -3.413233e+00 -5.943960e+00 -4.520953e+00 -7.636159e+00 -2.151834e+00 -3.887136e+00 -2.715524e-01 -2.361766e+00 -3.051635e+00 5.893579e+01 1.655751e-02 1.424211e-02 -7.533011e-03 5.169922e-03 1.674618e-02 6.329454e-03 -9.932744e-03 -2.788005e-02 1.421021e-02 3.059318e-03 -4.250543e-03 -8.750589e-05 4.139874e-03 -2.194302e-03 2.068637e-03 1.230240e-03 9.104068e-04 -1.547238e-03 7.260636e-04 5.337108e-04 1.585238e-04 -2.020350e-03 -1.702225e-03 -2.640401e-04 8.065033e-04 -3.501495e-03
<VARIANCE> 39
 7.700130e+01 5.795033e+01 7.395762e+01 6.990083e+01 7.848647e+01 7.483166e+01 6.545956e+01 7.098603e+01 8.237782e+01 5.604805e+01 6.583232e+01 6.110536e+01 1.967307e+02 2.679048e+00 2.864063e+00 2.960833e+00 4.204274e+00 4.148372e+00 3.990624e+00 4.049356e+00 4.462310e+00 3.991694e+00 3.796474e+00 3.567215e+00 3.198066e+00 3.710127e+00 4.302068e-01 4.713550e-01 4.889616e-01 7.405026e-01 7.359854e-01 7.365608e-01 7.572887e-01 8.311970e-01 7.336296e-01 7.196714e-01 6.642246e-01 6.065200e-01 5.496822e-01
<GCONST> 1.386631e+02
<STATE> 4
<MEAN> 39
 -5.864770e+00 -1.424916e+00 -9.101372e-01 -3.389467e+00 -5.949519e+00 -4.114701e+00 -7.806105e+00 -2.187937e+00 -3.889797e+00 -5.022348e-01 -2.225581e+00 -3.205755e+00 5.831767e+01 6.213684e-03 2.071669e-02 -1.047849e-03 1.137823e-02 1.255683e-02 9.349116e-03 -6.013841e-03 -2.685269e-02 7.708892e-03 -4.383527e-03 -4.297095e-03 3.439425e-03 -1.108808e-02 -2.190418e-03 1.478736e-03 1.719783e-03 4.932178e-04 -1.622267e-03 2.650792e-04 9.483849e-04 -2.782942e-04 -2.434371e-03 -1.509658e-03 -8.381465e-04 3.135880e-04 -2.121873e-03
<VARIANCE> 39
 8.134436e+01 6.090764e+01 7.653577e+01 7.118469e+01 7.957008e+01 7.458217e+01 6.744982e+01 7.128957e+01 8.021892e+01 5.517686e+01 6.458917e+01 6.043660e+01 1.967720e+02 2.754770e+00 3.050086e+00 3.031676e+00 4.279241e+00 4.100995e+00 3.952170e+00 4.033170e+00 4.446342e+00 3.993164e+00 3.712537e+00 3.542791e+00 3.132327e+00 3.764628e+00 4.352939e-01 5.022210e-01 4.948884e-01 7.510850e-01 7.263865e-01 7.266340e-01 7.489550e-01 8.237048e-01 7.287235e-01 7.012855e-01 6.579408e-01 5.929908e-01 5.513335e-01
<GCONST> 1.388540e+02
<TRANSP> 5
 0.000000e+00 1.000000e+00 0.000000e+00 0.000000e+00 0.000000e+00
 0.000000e+00 6.208984e-01 3.791016e-01 0.000000e+00 0.000000e+00
 0.000000e+00 0.000000e+00 6.208993e-01 3.791007e-01 0.000000e+00
 0.000000e+00 0.000000e+00 0.000000e+00 7.507825e-01 2.492175e-01
 0.000000e+00 0.000000e+00 0.000000e+00 0.000000e+00 0.000000e+00
<ENDHMM>
~h "r"
<BEGINHMM>
<NUMSTATES> 5
<STATE> 2
<MEAN> 39
 -5.839993e+00 -1.597070e+00 -1.341683e-01 -3.319909e+00 -6.593081e+00 -5.011912e+00 -8.090023e+00 -1.997600e+00 -4.017605e+00 -1.728220e-01 -2.568729e+00 -2.777373e+00 5.964169e+01 6.213592e-03 3.778683e-03 1.743470e-02 -9.833029e-04 -9.042174e-03 4.851141e-03 7.525796e-03 -1.015082e-02 -1.488199e-02 -1.133021e-03 -6.954108e-03 5.938819e-03 1.053081e-02 -1.989561e-03 2.733801e-03 -2.823822e-04 1.619584e-03 1.002621e-03 2.953397e-03 1.763727e-03 1.650535e-04 -7.955211e-04 -5.126199e-04 6.558967e-04 1.307334e-03 -6.128972e-03
<VARIANCE> 39
 7.392123e+01 5.913055e+01 7.520329e+01 6.827358e+01 7.863371e+01 7.681861e+01 6.994351e+01 7.564072e+01 8.769775e+01 5.627445e+01 6.997346e+01 6.332772e+01 1.966953e+02 2.472747e+00 2.779363e+00 2.924040e+00 3.810059e+00 3.976021e+00 3.874261e+00 3.915404e+00 4.425851e+00 3.869276e+00 3.583129e+00 3.512733e+00 3.096480e+00 3.347403e+00 3.979739e-01 4.575767e-01 4.757956e-01 6.656014e-01 6.900001e-01 7.065492e-01 7.252164e-01 8.032150e-01 7.048511e-01 6.717246e-01 6.462900e-01 5.839398e-01 4.898716e-01
<GCONST> 1.376676e+02
<STATE> 3
<MEAN> 39
 -5.832402e+00 -1.573434e+00 -9.115171e-02 -3.330807e+00 -6.618529e+00 -4.996442e+00 -8.071465e+00 -2.041780e+00 -4.069367e+00 -1.737564e-01 -2.589697e+00 -2.764295e+00 5.966444e+01 8.599199e-04 1.043685e-02 1.610292e-02 2.855144e-03 -7.111883e-03 1.117636e-02 1.012152e-02 -1.090407e-02 -1.604454e-02 -3.115252e-03 -5.670625e-03 9.278479e-03 -4.449762e-03 -1.872283e-03 2.235119e-03 -1.137331e-03 9.585801e-04 1.211267e-03 1.646734e-03 8.400459e-04 -2.032495e-05 -2.814568e-04 -4.094457e-04 4.263959e-04 1.372196e-03 -4.422736e-03
<VARIANCE> 39
 7.344717e+01 5.918401e+01 7.559915e+01 6.837767e+01 7.850972e+01 7.679123e+01 6.996998e+01 7.613555e+01 8.770155e+01 5.614800e+01 7.014050e+01 6.274077e+01 1.947048e+02 2.459018e+00 2.762943e+00 2.925963e+00 3.806509e+00 3.976834e+00 3.878865e+00 3.902081e+00 4.433765e+00 3.872736e+00 3.572941e+00 3.519280e+00 3.092323e+00 3.319293e+00 3.952973e-01 4.548370e-01 4.752364e-01 6.624878e-01 6.888474e-01 7.087808e-01 7.226340e-01 8.028654e-01 7.047880e-01 6.704492e-01 6.460721e-01 5.837762e-01 4.837336e-01
<GCONST> 1.375962e+02
<STATE> 4
<MEAN> 39
 -5.573740e+00 -1.680351e+00 -1.339801e-01 -3.228052e+00 -6.764202e+00 -4.474522e+00 -8.226372e+00 -2.097498e+00 -4.247620e+00 -3.324921e-01 -2.437005e+00 -2.893040e+00 5.878909e+01 -8.567639e-03 1.676423e-02 1.074770e-02 3.497933e-03 -4.243308e-03 1.305704e-02 9.298103e-03 -1.536120e-02 -1.656912e-02 -3.465329e-03 -4.861822e-03 1.132233e-02 -1.646660e-02 -1.701466e-03 1.429331e-03 -1.500410e-03 4.934315e-04 1.438764e-03 5.458594e-04 1.021623e-04 1.823250e-04 -3.637388e-05 -4.781733e-04 2.989464e-05 1.270179e-03 -2.545758e-03
<VARIANCE> 39
 7.958997e+01 6.299803e+01 8.096798e+01 7.025739e+01 7.937807e+01 7.806217e+01 7.057036e+01 7.568010e+01 8.557622e+01 5.511258e+01 6.951569e+01 6.171146e+01 1.986799e+02 2.522098e+00 2.961848e+00 2.994508e+00 3.872531e+00 3.983857e+00 3.829875e+00 3.837432e+00 4.413607e+00 3.856200e+00 3.488715e+00 3.472027e+00 2.999148e+00 3.313570e+00 4.001240e-01 4.840357e-01 4.771694e-01 6.722296e-01 6.892267e-01 6.977843e-01 7.065586e-01 7.945367e-01 6.972445e-01 6.540942e-01 6.392332e-01 5.652497e-01 4.767701e-01
<GCONST> 1.377974e+02
<TRANSP> 5
 0.000000e+00 1.000000e+00 0.000000e+00 0.000000e+00 0.000000e+00
 0.000000e+00 6.263294e-01 3.736705e-01 0.000000e+00 0.000000e+00
 0.000000e+00 0.000000e+00 6.263295e-01 3.736705e-01 0.000000e+00
 0.000000e+00 0.000000e+00 0.000000e+00 7.610397e-01 2.389603e-01
 0.000000e+00 0.000000e+00 0.000000e+00 0.000000e+00 0.000000e+00
<ENDHMM>
~h "s"
<BEGINHMM>
<NUMSTATES> 5
<STATE> 2
<MEAN> 39
 -7.855517e+00 -8.744037e-02 -7.047536e-01 -2.999357e+00 -5.773569e+00 -4.788580e+00 -7.285860e+00 -1.619236e+00 -3.973677e+00 -4.650908e-01 -2.430438e+00 -2.480343e+00 5.923353e+01 -1.485843e-02 7.113789e-03 1.301401e-03 -1.235589e-02 1.701841e-02 -3.379321e-02 3.343222e-03 -4.895338e-03 -1.182063e-04 -1.620742e-02 -1.612136e-02 -5.877313e-03 5.621020e-02 -8.783859e-05 2.090693e-04 -1.088730e-03 1.614769e-03 -1.127819e-03 3.779849e-03 1.159993e-03 -7.555960e-04 2.449456e-03 2.978555e-04 5.269871e-04 -1.515445e-03 -1.330986e-02
<VARIANCE> 39
 9.454078e+01 6.467597e+01 7.652780e+01 6.781638e+01 8.212536e+01 7.557003e+01 7.058861e+01 7.208322e+01 8.345689e+01 5.470094e+01 6.672910e+01 6.375719e+01 2.019790e+02 3.549096e+00 3.093375e+00 2.983796e+00 3.620157e+00 3.918474e+00 3.812023e+00 4.154325e+00 4.378955e+00 3.667071e+00 3.540534e+00 3.381106e+00 3.024209e+00 3.063354e+00 5.104538e-01 4.825409e-01 4.832245e-01 6.265554e-01 6.729865e-01 6.942361e-01 7.648747e-01 7.945235e-01 6.723587e-01 6.626376e-01 6.266652e-01 5.590399e-01 4.510787e-01
<GCONST> 1.381883e+02
<STATE> 3
<MEAN> 39
 -7.906167e+00 -6.733567e-02 -7.060943e-01 -3.036693e+00 -5.729373e+00 -4.860469e+00 -7.270669e+00 -1.628506e+00 -3.963158e+00 -5.058064e-01 -2.476899e+00 -2.497122e+00 5.932742e+01 -9.804847e-03 5.172508e-03 -2.716655e-03 -8.545650e-03 1.596560e-02 -2.436719e-02 5.835980e-03 -5.094166e-03 4.816585e-03 -1.387480e-02 -1.583260e-02 -9.135409e-03 3.255198e-02 2.319333e-03 -3.823795e-04 -6.744952e-04 1.555856e-03 -3.600229e-04 3.604745e-03 7.536185e-04 -3.197010e-04 1.765275e-03 1.099549e-03 3.707320e-04 -7.780740e-04 -7.659094e-03
<VARIANCE> 39
 9.424298e+01 6.507651e+01 7.668864e+01 6.789737e+01 8.232568e+01 7.556454e+01 7.054559e+01 7.188333e+01 8.360493e+01 5.498243e+01 6.666794e+01 6.402543e+01 1.992224e+02 3.549568e+00 3.089479e+00 2.982664e+00 3.616315e+00 3.903002e+00 3.804500e+00 4.136470e+00 4.363554e+00 3.663103e+00 3.539836e+00 3.373958e+00 3.024534e+00 2.922668e+00 5.081845e-01 4.817446e-01 4.817162e-01 6.244532e-01 6.711220e-01 6.927831e-01 7.617957e-01 7.931697e-01 6.719528e-01 6.622594e-01 6.244540e-01 5.592842e-01 4.341736e-01
<GCONST> 1.380577e+02
<STATE> 4
<MEAN> 39
 -7.724523e+00 -3.002675e-01 -7.505779e-01 -3.014400e+00 -5.820120e+00 -4.447634e+00 -7.379590e+00 -1.630754e+00 -4.003424e+00 -7.053047e-01 -2.344675e+00 -2.611296e+00 5.849990e+01 -4.568771e-03 2.098451e-03 -4.367873e-03 -5.796093e-03 1.549898e-02 -1.290319e-02 7.059485e-03 -4.631561e-03 7.904299e-03 -8.737426e-03 -1.677913e-02 -9.277625e-03 1.187522e-02 2.698676e-03 -6.703276e-04 3.755656e-04 1.004468e-03 -3.256950e-04 2.481960e-03 -1.837882e-04 -4.130406e-04 6.638812e-04 1.301634e-03 5.092206e-04 -3.380437e-04 -3.206094e-03
<VARIANCE> 39
 1.001366e+02 6.847509e+01 8.052283e+01 6.867429e+01 8.375438e+01 7.649177e+01 7.069067e+01 7.113290e+01 8.097019e+01 5.403138e+01 6.508514e+01 6.269729e+01 2.021331e+02 3.538339e+00 3.207020e+00 3.021380e+00 3.646400e+00 3.889767e+00 3.768299e+00 4.062168e+00 4.282595e+00 3.655389e+00 3.465483e+00 3.330013e+00 2.917673e+00 2.964484e+00 5.029173e-01 5.029961e-01 4.797327e-01 6.276163e-01 6.688132e-01 6.829160e-01 7.471736e-01 7.756497e-01 6.695415e-01 6.465517e-01 6.144005e-01 5.401218e-01 4.308222e-01
<GCONST> 1.380055e+02
<TRANSP> 5
 0.000000e+00 1.000000e+00 0.000000e+00 0.000000e+00 0.000000e+00
 0.000000e+00 6.201959e-01 3.798041e-01 0.000000e+00 0.000000e+00
 0.000000e+00 0.000000e+00 6.201959e-01 3.798042e-01 0.000000e+00
 0.000000e+00 0.000000e+00 0.000000e+00 7.544188e-01 2.455812e-01
 0.000000e+00 0.000000e+00 0.000000e+00 0.000000e+00 0.000000e+00
<ENDHMM>
~h "t"
<BEGINHMM>
<NUMSTATES> 5
<STATE> 2
<MEAN> 39
 -6.712488e+00 -5.002807e-01 -3.956330e-01 -3.105783e+00 -6.377176e+00 -4.422022e+00 -7.763225e+00 -2.393073e+00 -3.965640e+00 -1.248077e-01 -2.162872e+00 -2.614103e+00 5.791017e+01 1.698333e-02 9.771828e-04 -8.180791e-04 -1.417567e-02 9.696722e-03 7.151654e-04 4.414357e-04 -2.221569e-03 -5.858651e-03 3.639017e-03 -8.801921e-03 -1.712289e-03 3.868547e-02 -3.132449e-03 -1.252592e-04 -5.874010e-04 1.942817e-04 -1.555476e-03 2.271515e-03 6.471476e-04 1.514989e-03 1.289498e-03 -4.000390e-04 3.346727e-04 3.194914e-04 -7.566948e-03
<VARIANCE> 39
 7.598029e+01 5.564351e+01 7.380005e+01 6.775297e+01 7.634141e+01 7.558511e+01 7.369313e+01 7.208128e+01 8.329499e+01 5.671310e+01 6.819954e+01 5.641738e+01 2.067418e+02 2.608226e+00 2.600817e+00 2.882259e+00 3.661360e+00 3.902841e+00 4.030873e+00 4.104017e+00 4.240931e+00 3.820478e+00 3.568337e+00 3.461451e+00 2.965366e+00 3.625152e+00 4.206704e-01 4.266278e-01 4.636522e-01 6.322833e-01 6.776364e-01 7.460099e-01 7.566890e-01 7.798768e-01 6.894863e-01 6.711406e-01 6.384864e-01 5.577566e-01 5.336014e-01
<GCONST> 1.373560e+02
<STATE> 3
<MEAN> 39
 -6.671841e+00 -4.894731e-01 -4.048991e-01 -3.142097e+00 -6.358878e+00 -4.411104e+00 -7.766696e+00 -2.404569e+00 -3.989471e+00 -1.127408e-01 -2.189116e+00 -2.616572e+00 5.798383e+01 1.147586e-02 3.978093e-04 -4.008286e-03 -1.347601e-02 8.864847e-03 6.004904e-03 1.995453e-03 1.518341e-03 -3.309460e-03 3.493658e-03 -8.255810e-03 7.326754e-04 2.496067e-02 -2.180264e-03 -3.339420e-04 -2.609077e-04 8.259044e-04 -5.000699e-04 1.269107e-03 4.970165e-04 7.472193e-04 7.507490e-04 -1.387379e-04 1.757668e-06 1.184697e-03 -4.382258e-03
<VARIANCE> 39
 7.563564e+01 5.581502e+01 7.415742e+01 6.796792e+01 7.662536e+01 7.560413e+01 7.398593e+01 7.200897e+01 8.361958e+01 5.694588e+01 6.820555e+01 5.668914e+01 2.042035e+02 2.582964e+00 2.597287e+00 2.886261e+00 3.667838e+00 3.908761e+00 4.029533e+00 4.094052e+00 4.244881e+00 3.822058e+00 3.566356e+00 3.461782e+00 2.973239e+00 3.550829e+00 4.172614e-01 4.260420e-01 4.641722e-01 6.331612e-01 6.780350e-01 7.453398e-01 7.542288e-01 7.806726e-01 6.902623e-01 6.707598e-01 6.383187e-01 5.590992e-01 5.246124e-01
<GCONST> 1.373198e+02
<STATE> 4
<MEAN> 39
 -6.427961e+00 -5.993990e-01 -4.845359e-01 -3.069795e+00 -6.574097e+00 -3.980095e+00 -7.808077e+00 -2.405057e+00 -4.147576e+00 -2.274498e-01 -2.105727e+00 -2.678473e+00 5.725375e+01 8.305672e-03 2.320219e-03 -6.996718e-03 -1.004501e-02 8.860743e-03 7.492927e-03 3.560903e-03 9.012483e-04 -7.020229e-03 3.774771e-03 -7.809753e-03 6.565308e-03 1.529770e-02 -1.555469e-03 9.208838e-05 3.203377e-04 1.317036e-03 -1.278708e-04 -9.929056e-05 8.765626e-04 -3.731924e-04 -3.336508e-04 -3.666725e-04 -2.711490e-04 1.312225e-03 -2.425498e-03
<VARIANCE> 39
 8.215217e+01 6.035662e+01 7.825069e+01 6.933324e+01 7.757419e+01 7.604383e+01 7.364001e+01 7.117743e+01 8.237940e+01 5.570579e+01 6.589464e+01 5.609003e+01 2.058678e+02 2.645731e+00 2.764525e+00 2.943889e+00 3.703456e+00 3.891354e+00 3.981617e+00 4.013802e+00 4.217068e+00 3.806386e+00 3.520318e+00 3.400364e+00 2.903612e+00 3.549722e+00 4.234333e-01 4.516194e-01 4.691375e-01 6.388551e-01 6.740440e-01 7.331403e-01 7.374720e-01 7.727942e-01 6.869757e-01 6.604609e-01 6.272427e-01 5.466028e-01 5.190268e-01
<GCONST> 1.374626e+02
<TRANSP> 5
 0.000000e+00 1.000000e+00 0.000000e+00 0.000000e+00 0.000000e+00
 0.000000e+00 6.284959e-01 3.715041e-01 0.000000e+00 0.000000e+00
 0.000000e+00 0.000000e+00 6.285005e-01 3.714995e-01 0.000000e+00
 0.000000e+00 0.000000e+00 0.000000e+00 7.617397e-01 2.382603e-01
 0.000000e+00 0.000000e+00 0.000000e+00 0.000000e+00 0.000000e+00
<ENDHMM>
~h "u"
<BEGINHMM>
<NUMSTATES> 5
<STATE> 2
<MEAN> 39
 -5.649066e+00 -2.478155e-01 -7.645298e-01 -3.601162e+00 -6.314971e+00 -3.282160e+00 -8.416685e+00 -2.689047e+00 -4.783793e+00 2.018765e-02 -2.037389e+00 -2.579905e+00 5.825530e+01 8.106695e-03 5.410359e-03 -5.301618e-03 4.430586e-04 6.518257e-03 4.254990e-03 -3.260639e-03 -7.875962e-03 -1.369832e-02 -5.424598e-03 4.652287e-03 8.455473e-03 1.066196e-02 -3.406033e-03 -1.181891e-03 2.765829e-04 2.184317e-03 -1.773196e-04 -2.053447e-03 1.199257e-03 1.600970e-03 1.110761e-03 -4.510686e-04 -7.725315e-04 -1.299108e-03 -1.718379e-03
<VARIANCE> 39
 7.557988e+01 5.573359e+01 6.961977e+01 7.472607e+01 7.399664e+01 7.194624e+01 7.953449e+01 7.358711e+01 8.671168e+01 6.002934e+01 6.838364e+01 5.703757e+01 1.957138e+02 2.396809e+00 2.573012e+00 2.819404e+00 3.938281e+00 3.885044e+00 3.842315e+00 4.193669e+00 4.395199e+00 3.872117e+00 3.664781e+00 3.495353e+00 2.890784e+00 3.123805e+00 3.727875e-01 4.218768e-01 4.660113e-01 6.744020e-01 6.794549e-01 7.001843e-01 7.688806e-01 8.023911e-01 7.040442e-01 6.808082e-01 6.432947e-01 5.387141e-01 4.421979e-01
<GCONST> 1.370415e+02
<STATE> 3
<MEAN> 39
 -5.633592e+00 -2.326524e-01 -7.785425e-01 -3.594321e+00 -6.298954e+00 -3.274975e+00 -8.421933e+00 -2.704975e+00 -4.823060e+00 1.211077e-03 -2.025929e+00 -2.557110e+00 5.828061e+01 -1.141537e-03 2.448620e-03 -4.630279e-03 5.566205e-03 6.706324e-03 -6.720861e-04 6.173914e-04 -3.905606e-03 -9.770135e-03 -7.135987e-03 2.105122e-03 4.726459e-03 6.046120e-03 -3.141927e-03 -1.015988e-03 2.198885e-04 1.706901e-03 -2.474721e-04 -1.554551e-03 1.177736e-03 1.565543e-03 1.653172e-03 -7.796347e-04 -1.325292e-03 -1.799433e-03 -1.004086e-03
<VARIANCE> 39
 7.499110e+01 5.566178e+01 6.974473e+01 7.467386e+01 7.438976e+01 7.203505e+01 7.989345e+01 7.382300e+01 8.719317e+01 6.013200e+01 6.851537e+01 5.705334e+01 1.931403e+02 2.404678e+00 2.582506e+00 2.827813e+00 3.956474e+00 3.901168e+00 3.852357e+00 4.215028e+00 4.414434e+00 3.885217e+00 3.688829e+00 3.515704e+00 2.900634e+00 3.116059e+00 3.734895e-01 4.234781e-01 4.671560e-01 6.777400e-01 6.821831e-01 7.026811e-01 7.737506e-01 8.060099e-01 7.071789e-01 6.854666e-01 6.476169e-01 5.407053e-01 4.411368e-01
<GCONST> 1.371420e+02
<STATE> 4
<MEAN> 39
 -5.484920e+00 -3.400543e-01 -8.494617e-01 -3.345229e+00 -6.465029e+00 -2.879007e+00 -8.419809e+00 -2.629643e+00 -4.984698e+00 -2.095498e-01 -1.833177e+00 -2.640160e+00 5.742768e+01 -1.398295e-02 9.312346e-04 -4.373791e-03 1.111875e-02 8.407848e-03 -2.753406e-03 7.588767e-03 1.629414e-04 -2.405677e-03 -1.015945e-02 -2.084563e-03 1.685526e-03 -3.740057e-03 -2.510425e-03 -5.896223e-04 2.392333e-04 1.370774e-03 -1.516258e-04 -2.729921e-04 1.456863e-03 1.110086e-03 1.915250e-03 -4.765211e-04 -1.048637e-03 -1.113980e-03 -8.280472e-04
<VARIANCE> 39
 8.197360e+01 5.937337e+01 7.413837e+01 7.582345e+01 7.626943e+01 7.254273e+01 8.022327e+01 7.400036e+01 8.633035e+01 5.861420e+01 6.661814e+01 5.601458e+01 1.950931e+02 2.496005e+00 2.765233e+00 2.922294e+00 3.980940e+00 3.889942e+00 3.814296e+00 4.178283e+00 4.384005e+00 3.876338e+00 3.627823e+00 3.480195e+00 2.839885e+00 3.142262e+00 3.826451e-01 4.542857e-01 4.744967e-01 6.808771e-01 6.784966e-01 6.924845e-01 7.660908e-01 7.986376e-01 7.017268e-01 6.746697e-01 6.427079e-01 5.297338e-01 4.428517e-01
<GCONST> 1.374405e+02
<TRANSP> 5
 0.000000e+00 1.000000e+00 0.000000e+00 0.000000e+00 0.000000e+00
 0.000000e+00 6.279039e-01 3.720961e-01 0.000000e+00 0.000000e+00
 0.000000e+00 0.000000e+00 6.279038e-01 3.720962e-01 0.000000e+00
 0.000000e+00 0.000000e+00 0.000000e+00 7.639588e-01 2.360413e-01
 0.000000e+00 0.000000e+00 0.000000e+00 0.000000e+00 0.000000e+00
<ENDHMM>
~h "v"
<BEGINHMM>
<NUMSTATES> 5
<STATE> 2
<MEAN> 39
 -6.958113e+00 -1.943249e-02 -6.780672e-01 -3.452805e+00 -5.963751e+00 -5.495392e+00 -7.764625e+00 -1.590821e+00 -4.666282e+00 1.490368e+00 -2.770868e+00 -2.278380e+00 6.059433e+01 2.787677e-02 -3.281509e-02 -1.533021e-02 -3.978685e-02 3.683303e-02 -4.408214e-02 -1.837541e-02 2.376119e-02 4.796277e-02 -2.264058e-03 -2.763166e-02 -3.046759e-02 6.559787e-02 -8.784131e-04 4.510364e-04 8.484242e-03 4.896970e-03 -6.211127e-03 -6.121306e-03 -2.481721e-03 1.476042e-04 -1.566249e-03 -4.054411e-03 -5.616156e-04 -1.162452e-03 5.258707e-03
<VARIANCE> 39
 8.453094e+01 5.814912e+01 7.915256e+01 7.920953e+01 8.085979e+01 7.707626e+01 7.772345e+01 7.813592e+01 7.623383e+01 6.737760e+01 9.364642e+01 7.792784e+01 1.436766e+02 3.887669e+00 3.683823e+00 3.739739e+00 4.046549e+00 4.733019e+00 4.558731e+00 4.244818e+00 4.603767e+00 4.261168e+00 4.442077e+00 3.806409e+00 3.630069e+00 3.727485e+00 6.088490e-01 5.949647e-01 5.722014e-01 6.760020e-01 8.188481e-01 8.203628e-01 7.784170e-01 8.485668e-01 7.901238e-01 8.437286e-01 7.113301e-01 6.556066e-01 5.252755e-01
<GCONST> 1.424921e+02
<STATE> 3
<MEAN> 39
 -6.917016e+00 -8.635920e-02 -6.732215e-01 -3.528788e+00 -5.888483e+00 -5.662474e+00 -7.840198e+00 -1.519396e+00 -4.569754e+00 1.489464e+00 -2.828987e+00 -2.349438e+00 6.081011e+01 2.520786e-02 -3.017888e-02 4.992486e-03 -2.886152e-02 2.201283e-02 -5.832620e-02 -2.300333e-02 2.352386e-02 4.391937e-02 -1.018337e-02 -2.794281e-02 -3.227751e-02 8.080978e-02 -3.117349e-04 1.929561e-03 8.612145e-03 3.985493e-03 -6.412636e-03 -4.748026e-03 -2.165154e-03 -1.236933e-03 -2.850920e-03 -3.571898e-03 -4.336836e-04 -1.547070e-03 4.744908e-03
<VARIANCE> 39
 8.481609e+01 5.888503e+01 7.971016e+01 7.955685e+01 7.949078e+01 7.707537e+01 7.616537e+01 7.799719e+01 7.723045e+01 6.697301e+01 9.509470e+01 7.873778e+01 1.413430e+02 3.911567e+00 3.737397e+00 3.737692e+00 4.139656e+00 4.744384e+00 4.562660e+00 4.237605e+00 4.600986e+00 4.343507e+00 4.440161e+00 3.817816e+00 3.665571e+00 3.857751e+00 6.149672e-01 6.022501e-01 5.748667e-01 6.891539e-01 8.267192e-01 8.217257e-01 7.754158e-01 8.470016e-01 8.035144e-01 8.386132e-01 7.137907e-01 6.621215e-01 5.422618e-01
<GCONST> 1.427136e+02
<STATE> 4
<MEAN> 39
 -6.291748e+00 -9.436369e-03 -4.664978e-01 -3.764837e+00 -6.060709e+00 -5.745601e+00 -8.071806e+00 -1.621101e+00 -4.811759e+00 1.327322e+00 -3.078433e+00 -2.395007e+00 6.099243e+01 1.413769e-02 -1.604543e-02 3.145851e-02 -1.244658e-02 6.015583e-03 -7.310607e-02 -2.740023e-02 1.868564e-02 2.798362e-02 -1.272230e-02 -1.923431e-02 -2.880556e-02 9.843080e-02 1.414434e-04 2.709056e-03 6.665714e-03 2.204299e-03 -5.112400e-03 -2.168771e-03 -1.237589e-03 -2.293412e-03 -3.358052e-03 -2.501756e-03 3.236309e-04 -7.682753e-04 3.022182e-03
<VARIANCE> 39
 8.819662e+01 6.269982e+01 8.018716e+01 8.121057e+01 7.837049e+01 7.898135e+01 7.630167e+01 7.791552e+01 7.756564e+01 6.611465e+01 9.347607e+01 7.838400e+01 1.306549e+02 3.925128e+00 3.964110e+00 3.667959e+00 4.482227e+00 4.790327e+00 4.700100e+00 4.358049e+00 4.916790e+00 4.522838e+00 4.542583e+00 3.886692e+00 3.679997e+00 4.072371e+00 6.244099e-01 6.344448e-01 5.695897e-01 7.449159e-01 8.448900e-01 8.376207e-01 7.929387e-01 9.148682e-01 8.330596e-01 8.472589e-01 7.266253e-01 6.700118e-01 5.755088e-01
<GCONST> 1.435519e+02
<TRANSP> 5
 0.000000e+00 1.000000e+00 0.000000e+00 0.000000e+00 0.000000e+00
 0.000000e+00 6.105414e-01 3.894587e-01 0.000000e+00 0.000000e+00
 0.000000e+00 0.000000e+00 6.105410e-01 3.894590e-01 0.000000e+00
 0.000000e+00 0.000000e+00 0.000000e+00 7.348008e-01 2.651993e-01
 0.000000e+00 0.000000e+00 0.000000e+00 0.000000e+00 0.000000e+00
<ENDHMM>
~h "w"
<BEGINHMM>
<NUMSTATES> 5
<STATE> 2
<MEAN> 39
 -8.141974e+00 5.265490e-01 -9.175971e-01 -4.683820e+00 -7.017733e+00 -4.144154e+00 -8.046327e+00 -2.664692e+00 -4.636519e+00 1.098046e+00 -2.228065e+00 -1.723920e+00 5.781449e+01 2.258059e-02 3.635175e-02 -2.331308e-02 -5.517587e-02 3.811402e-02 2.620816e-02 -1.175723e-02 -1.570620e-02 -3.322358e-02 4.729636e-02 -3.724901e-02 3.542237e-02 7.055252e-02 -5.348339e-04 1.446185e-03 -8.180888e-04 -1.967381e-03 4.540349e-03 9.437993e-04 4.320480e-03 4.668044e-03 -2.810384e-03 -5.500249e-04 3.002056e-03 -1.926015e-03 -6.964182e-03
<VARIANCE> 39
 8.913151e+01 5.438171e+01 7.180544e+01 8.347605e+01 7.097410e+01 7.704417e+01 6.663920e+01 6.800882e+01 8.676672e+01 5.810780e+01 7.260876e+01 5.057993e+01 2.313063e+02 2.768981e+00 2.131125e+00 2.675051e+00 3.463665e+00 3.995982e+00 3.258201e+00 3.905200e+00 4.143707e+00 3.934788e+00 3.500886e+00 3.021783e+00 2.846464e+00 2.578784e+00 4.078730e-01 3.430929e-01 4.542350e-01 6.105214e-01 6.917912e-01 5.762599e-01 7.051252e-01 7.545078e-01 7.453098e-01 6.512043e-01 5.719247e-01 5.520059e-01 3.818954e-01
<GCONST> 1.355010e+02
<STATE> 3
<MEAN> 39
 -8.076062e+00 5.896967e-01 -1.000529e+00 -4.809469e+00 -6.905461e+00 -4.075165e+00 -8.049453e+00 -2.672263e+00 -4.709308e+00 1.224889e+00 -2.288992e+00 -1.666581e+00 5.798320e+01 2.713633e-02 3.468845e-02 -2.709561e-02 -5.872375e-02 5.404157e-02 3.243027e-02 1.430077e-03 -2.366956e-04 -3.560505e-02 5.336760e-02 -3.246675e-02 2.430647e-02 6.389319e-02 6.212341e-04 7.163732e-04 2.965054e-04 -7.904571e-04 6.940384e-03 -9.566713e-04 4.970962e-03 3.252952e-03 -1.765936e-03 8.776579e-04 3.070956e-03 -4.849055e-03 -8.260604e-04
<VARIANCE> 39
 8.938142e+01 5.492075e+01 7.137578e+01 8.333591e+01 7.023058e+01 7.502783e+01 6.699374e+01 6.842977e+01 8.512154e+01 5.973013e+01 7.342582e+01 5.090385e+01 2.266080e+02 2.828796e+00 2.155675e+00 2.685072e+00 3.479737e+00 3.994825e+00 3.284587e+00 3.940850e+00 4.186219e+00 3.893473e+00 3.558293e+00 3.038226e+00 2.866271e+00 2.486859e+00 4.153551e-01 3.468336e-01 4.572541e-01 6.073275e-01 6.838778e-01 5.872126e-01 7.091734e-01 7.602084e-01 7.355428e-01 6.546416e-01 5.770270e-01 5.530347e-01 3.631569e-01
<GCONST> 1.355394e+02
<STATE> 4
<MEAN> 39
 -8.351074e+00 6.911849e-01 -1.344254e+00 -4.584509e+00 -6.627750e+00 -3.700557e+00 -7.860677e+00 -2.505173e+00 -4.702221e+00 1.128348e+00 -2.375870e+00 -1.630572e+00 5.686641e+01 3.625330e-02 1.752551e-02 -2.717555e-02 -5.148568e-02 6.890496e-02 2.683297e-02 1.178350e-02 9.562192e-03 -3.010628e-02 5.356319e-02 -3.415071e-02 6.084631e-03 6.906957e-02 9.476643e-04 -1.789816e-03 1.724754e-03 2.905596e-03 4.908659e-03 -3.694308e-03 3.632048e-03 8.630927e-05 2.090064e-03 9.822679e-04 1.400074e-03 -5.093317e-03 -1.492141e-04
<VARIANCE> 39
 9.152326e+01 5.385445e+01 6.854523e+01 8.417825e+01 6.742733e+01 7.093694e+01 6.510064e+01 6.666132e+01 8.046087e+01 6.005649e+01 7.129897e+01 4.992437e+01 2.421365e+02 2.911662e+00 2.241180e+00 2.611179e+00 3.372100e+00 3.904910e+00 3.203227e+00 3.831671e+00 4.181438e+00 3.798915e+00 3.520746e+00 3.009045e+00 2.835637e+00 2.414017e+00 4.350024e-01 3.644810e-01 4.466689e-01 5.856888e-01 6.680809e-01 5.813292e-01 6.883214e-01 7.568034e-01 7.131094e-01 6.413019e-01 5.736056e-01 5.434255e-01 3.461380e-01
<GCONST> 1.350193e+02
<TRANSP> 5
 0.000000e+00 1.000000e+00 0.000000e+00 0.000000e+00 0.000000e+00
 0.000000e+00 5.837322e-01 4.162679e-01 0.000000e+00 0.000000e+00
 0.000000e+00 0.000000e+00 5.837307e-01 4.162693e-01 0.000000e+00
 0.000000e+00 0.000000e+00 0.000000e+00 7.011926e-01 2.988075e-01
 0.000000e+00 0.000000e+00 0.000000e+00 0.000000e+00 0.000000e+00
<ENDHMM>
~h "y"
<BEGINHMM>
<NUMSTATES> 5
<STATE> 2
<MEAN> 39
 -7.211441e+00 -1.506005e+00 -3.837842e-02 -2.584397e+00 -6.574356e+00 -4.131183e+00 -6.454757e+00 -5.221099e-01 -3.772418e+00 -5.818469e-01 -2.261615e+00 -2.302670e+00 5.711726e+01 1.586667e-02 -3.855396e-02 -1.426864e-02 -1.575434e-03 4.355580e-02 -9.266498e-03 1.559236e-02 1.257387e-02 2.493940e-02 -3.090926e-03 -2.931803e-02 -1.717165e-03 3.289995e-02 -2.654443e-03 3.665277e-03 -3.316145e-03 9.759831e-04 1.154600e-03 5.755674e-03 3.091492e-04 -4.357030e-03 8.210205e-04 8.599251e-04 9.313411e-04 -2.711802e-03 -1.261318e-02
<VARIANCE> 39
 7.626894e+01 5.560690e+01 7.145580e+01 6.457279e+01 8.244767e+01 7.925434e+01 6.950791e+01 7.180006e+01 7.319413e+01 5.204221e+01 6.767584e+01 6.399493e+01 2.464388e+02 1.999238e+00 2.352884e+00 2.515378e+00 3.087434e+00 3.546121e+00 3.222740e+00 3.251479e+00 3.757900e+00 3.197481e+00 3.027434e+00 3.070703e+00 2.560495e+00 2.642626e+00 3.096336e-01 3.739583e-01 3.796166e-01 5.243924e-01 5.749435e-01 5.619329e-01 5.854115e-01 6.748391e-01 5.702787e-01 5.553341e-01 5.426309e-01 4.708561e-01 3.652974e-01
<GCONST> 1.323838e+02
<STATE> 3
<MEAN> 39
 -7.175588e+00 -1.618030e+00 -9.804511e-02 -2.594243e+00 -6.424170e+00 -4.144874e+00 -6.388996e+00 -4.951457e-01 -3.690015e+00 -5.919230e-01 -2.360149e+00 -2.295492e+00 5.720078e+01 1.156719e-02 -2.912828e-02 -2.177629e-02 3.431774e-03 4.910720e-02 5.357060e-03 1.398683e-02 -2.040884e-03 2.850962e-02 -3.224527e-03 -2.632563e-02 -7.040707e-03 6.232351e-03 -3.560528e-04 2.794089e-03 -1.117695e-03 1.349309e-03 5.598649e-04 4.588851e-03 -6.532740e-04 -4.462360e-03 -7.222960e-04 3.633968e-05 1.429661e-03 -2.445558e-03 -6.071434e-03
<VARIANCE> 39
 7.450201e+01 5.525597e+01 7.091073e+01 6.396886e+01 8.335211e+01 7.897747e+01 6.949969e+01 7.132356e+01 7.387389e+01 5.266583e+01 6.834552e+01 6.503050e+01 2.407357e+02 1.942520e+00 2.341594e+00 2.509598e+00 3.068466e+00 3.539412e+00 3.179922e+00 3.227223e+00 3.729804e+00 3.200426e+00 3.014392e+00 3.069294e+00 2.560103e+00 2.565376e+00 2.993361e-01 3.708315e-01 3.786543e-01 5.201317e-01 5.746903e-01 5.527970e-01 5.831167e-01 6.700361e-01 5.707851e-01 5.533556e-01 5.438445e-01 4.701299e-01 3.527589e-01
<GCONST> 1.321375e+02
<STATE> 4
<MEAN> 39
 -6.788477e+00 -1.727104e+00 -2.240138e-01 -2.292484e+00 -6.566118e+00 -3.413447e+00 -6.659359e+00 -5.484995e-01 -3.802640e+00 -7.719135e-01 -2.141986e+00 -2.350661e+00 5.592938e+01 7.458401e-03 -1.118515e-02 -1.657726e-02 3.650570e-03 4.445641e-02 1.048012e-02 1.538199e-02 -1.394932e-02 2.354661e-02 -7.181534e-03 -1.960561e-02 -3.092114e-04 1.952536e-04 -9.875110e-04 2.260566e-03 1.820311e-05 1.570368e-03 -5.802973e-04 2.749952e-03 -3.056165e-04 -2.591176e-03 -1.048100e-03 -9.967671e-04 1.441670e-03 -9.794236e-04 -3.597037e-03
<VARIANCE> 39
 8.248342e+01 5.998656e+01 7.683592e+01 6.634041e+01 8.187157e+01 7.719106e+01 7.140425e+01 6.622308e+01 7.306903e+01 5.063173e+01 6.607523e+01 6.341455e+01 2.317901e+02 2.139802e+00 2.708757e+00 2.836703e+00 3.222378e+00 3.576620e+00 3.164034e+00 3.205242e+00 3.667028e+00 3.256387e+00 2.949638e+00 3.007872e+00 2.480968e+00 2.793023e+00 3.170631e-01 4.349473e-01 4.258183e-01 5.438510e-01 5.878186e-01 5.450466e-01 5.804242e-01 6.609340e-01 5.796021e-01 5.426037e-01 5.403261e-01 4.569708e-01 3.743600e-01
<GCONST> 1.330168e+02
<TRANSP> 5
 0.000000e+00 1.000000e+00 0.000000e+00 0.000000e+00 0.000000e+00
 0.000000e+00 6.655927e-01 3.344073e-01 0.000000e+00 0.000000e+00
 0.000000e+00 0.000000e+00 6.655917e-01 3.344083e-01 0.000000e+00
 0.000000e+00 0.000000e+00 0.000000e+00 8.348724e-01 1.651276e-01
 0.000000e+00 0.000000e+00 0.000000e+00 0.000000e+00 0.000000e+00
<ENDHMM>
~h "ex"
<BEGINHMM>
<NUMSTATES> 5
<STATE> 2
<MEAN> 39
 -7.714698e+00 -1.490165e+00 5.008458e-01 -2.210162e+00 -7.760675e+00 -4.895088e+00 -5.997499e+00 -5.023028e-01 -4.136699e+00 8.060589e-02 -1.249660e+00 -2.419564e+00 5.657438e+01 2.588641e-02 -1.880059e-02 1.008535e-02 -1.463445e-02 -8.424861e-03 -3.000446e-02 5.457984e-03 -2.996126e-03 -2.389269e-02 3.274346e-03 -4.445617e-02 -9.440559e-03 5.659582e-02 1.175893e-03 4.255572e-04 -2.857015e-03 4.119200e-04 2.383390e-03 5.898150e-04 -3.096715e-04 -1.199906e-03 1.159527e-03 -1.284206e-03 -2.784572e-03 3.704161e-04 -2.408383e-03
<VARIANCE> 39
 7.165784e+01 5.247452e+01 7.674118e+01 6.114197e+01 7.852113e+01 8.002862e+01 6.816502e+01 6.885544e+01 7.349478e+01 5.193393e+01 5.470445e+01 5.496142e+01 2.531908e+02 1.849203e+00 2.322006e+00 2.336483e+00 3.189062e+00 3.487164e+00 3.294811e+00 3.302041e+00 3.758974e+00 3.385453e+00 3.056281e+00 2.924464e+00 2.643691e+00 2.824730e+00 2.879111e-01 3.820335e-01 3.719859e-01 5.533844e-01 5.897982e-01 5.875402e-01 5.935933e-01 6.750447e-01 6.032102e-01 5.641891e-01 5.319608e-01 4.911287e-01 3.953351e-01
<GCONST> 1.320883e+02
<STATE> 3
<MEAN> 39
 -7.622099e+00 -1.552603e+00 5.601238e-01 -2.262954e+00 -7.807976e+00 -5.010227e+00 -5.988590e+00 -5.217758e-01 -4.243670e+00 8.633497e-02 -1.389534e+00 -2.431933e+00 5.679647e+01 3.001220e-02 -1.809330e-02 4.849099e-03 -1.166893e-02 -2.020416e-03 -2.873338e-02 4.309237e-03 -7.968975e-03 -2.294968e-02 -6.055459e-06 -5.141878e-02 -5.665982e-03 5.171359e-02 1.422094e-03 2.023588e-04 -1.100025e-03 6.903116e-04 1.643888e-03 1.699158e-05 -7.654165e-04 -1.348473e-03 -3.606820e-05 -5.197068e-04 -1.557748e-03 1.280274e-03 -1.035401e-03
<VARIANCE> 39
 7.041305e+01 5.279019e+01 7.699843e+01 6.128683e+01 7.858203e+01 7.982122e+01 6.805380e+01 6.954033e+01 7.436356e+01 5.212635e+01 5.510288e+01 5.577979e+01 2.472845e+02 1.857797e+00 2.337706e+00 2.368950e+00 3.227190e+00 3.484944e+00 3.293535e+00 3.336201e+00 3.774637e+00 3.408317e+00 3.069673e+00 2.940088e+00 2.649949e+00 2.833718e+00 2.890448e-01 3.837057e-01 3.768360e-01 5.594545e-01 5.889834e-01 5.852307e-01 5.982432e-01 6.754653e-01 6.075279e-01 5.653244e-01 5.340455e-01 4.910406e-01 3.916616e-01
<GCONST> 1.322141e+02
<STATE> 4
<MEAN> 39
 -7.904611e+00 -1.541870e+00 4.366701e-01 -2.106793e+00 -8.037245e+00 -4.611403e+00 -5.960010e+00 -6.723620e-01 -4.507234e+00 -2.632921e-01 -1.566701e+00 -2.250775e+00 5.531285e+01 3.197105e-02 -1.779391e-02 1.664805e-02 -6.270668e-03 -6.628765e-03 -2.883154e-02 4.246871e-03 -1.406888e-02 -2.861352e-02 1.658783e-04 -4.777744e-02 7.953735e-03 6.024753e-02 6.078035e-04 -2.802253e-05 -4.232010e-04 8.679375e-04 9.339005e-04 6.919041e-04 -5.967206e-04 -6.502933e-04 3.220832e-04 2.007743e-04 1.945219e-04 1.281419e-03 -1.595465e-03
<VARIANCE> 39
 7.472610e+01 5.437615e+01 7.957773e+01 6.177573e+01 7.535834e+01 7.851027e+01 6.498784e+01 6.762655e+01 7.384400e+01 5.182686e+01 5.167412e+01 5.691187e+01 2.531612e+02 1.955526e+00 2.435811e+00 2.363226e+00 3.142920e+00 3.345819e+00 3.136164e+00 3.244393e+00 3.549479e+00 3.322367e+00 2.961663e+00 2.853357e+00 2.474587e+00 2.855130e+00 2.973729e-01 4.006741e-01 3.732297e-01 5.453966e-01 5.698433e-01 5.556151e-01 5.830401e-01 6.373622e-01 5.948632e-01 5.444763e-01 5.214075e-01 4.544514e-01 3.844545e-01
<GCONST> 1.315996e+02
<TRANSP> 5
 0.000000e+00 1.000000e+00 0.000000e+00 0.000000e+00 0.000000e+00
 0.000000e+00 6.542495e-01 3.457505e-01 0.000000e+00 0.000000e+00
 0.000000e+00 0.000000e+00 6.542521e-01 3.457479e-01 0.000000e+00
 0.000000e+00 0.000000e+00 0.000000e+00 8.092317e-01 1.907683e-01
 0.000000e+00 0.000000e+00 0.000000e+00 0.000000e+00 0.000000e+00
<ENDHMM>
~h "ng"
<BEGINHMM>
<NUMSTATES> 5
<STATE> 2
<MEAN> 39
 -5.689487e+00 -1.053261e+00 -4.158527e-01 -2.946927e+00 -6.002819e+00 -3.571218e+00 -7.546067e+00 -2.393200e+00 -4.234436e+00 -5.003873e-01 -3.461116e+00 -3.005946e+00 5.874645e+01 1.319367e-02 2.752674e-03 4.479355e-03 1.165172e-02 8.997066e-03 -6.215964e-03 8.089194e-03 -2.010592e-03 -3.998817e-03 -1.072655e-02 -2.529450e-02 2.042606e-03 2.134114e-02 -1.102630e-03 -3.012636e-04 -3.347424e-05 -8.624475e-05 -1.382364e-03 -1.124040e-03 -5.637145e-04 5.934684e-04 9.569071e-04 -2.536874e-04 2.706507e-03 9.003110e-04 -2.292979e-03
<VARIANCE> 39
 7.537024e+01 6.025634e+01 7.082034e+01 6.532381e+01 7.759274e+01 7.039469e+01 6.635056e+01 7.280013e+01 8.280978e+01 5.619614e+01 7.503336e+01 6.365765e+01 2.025659e+02 2.368290e+00 2.583055e+00 2.842098e+00 3.589566e+00 3.857538e+00 3.645240e+00 3.676420e+00 4.562056e+00 3.595919e+00 3.407034e+00 3.526052e+00 2.917802e+00 2.892723e+00 3.611325e-01 4.109552e-01 4.618235e-01 6.111566e-01 6.731395e-01 6.452872e-01 6.790860e-01 8.203143e-01 6.521129e-01 6.321688e-01 6.327390e-01 5.380201e-01 4.055688e-01
<GCONST> 1.358918e+02
<STATE> 3
<MEAN> 39
 -5.642489e+00 -1.048606e+00 -3.930891e-01 -2.925785e+00 -5.988873e+00 -3.592825e+00 -7.537830e+00 -2.403663e+00 -4.253792e+00 -5.307423e-01 -3.526013e+00 -3.003765e+00 5.882327e+01 1.247242e-02 2.039507e-03 5.085189e-03 1.040628e-02 4.650528e-03 -8.074028e-03 6.369846e-03 -1.086917e-03 -2.373685e-03 -1.111332e-02 -1.939957e-02 3.171974e-03 1.676422e-02 -5.688809e-04 -1.102775e-03 3.128006e-04 -1.419588e-03 -1.092039e-03 -3.024718e-04 -5.370135e-04 1.082692e-03 5.475734e-04 -6.660285e-04 2.626591e-03 7.035346e-04 -1.898290e-03
<VARIANCE> 39
 7.443642e+01 6.030037e+01 7.087508e+01 6.522751e+01 7.766234e+01 7.034305e+01 6.651380e+01 7.311456e+01 8.310236e+01 5.644843e+01 7.582758e+01 6.389162e+01 1.987888e+02 2.380638e+00 2.602053e+00 2.847290e+00 3.602537e+00 3.873907e+00 3.661390e+00 3.693007e+00 4.569204e+00 3.637218e+00 3.427253e+00 3.543150e+00 2.936910e+00 2.907418e+00 3.626861e-01 4.135013e-01 4.641897e-01 6.134779e-01 6.762863e-01 6.480868e-01 6.821572e-01 8.215265e-01 6.608955e-01 6.350642e-01 6.351308e-01 5.411115e-01 4.065770e-01
<GCONST> 1.360204e+02
<STATE> 4
<MEAN> 39
 -5.369178e+00 -1.153271e+00 -4.476889e-01 -2.872182e+00 -6.161160e+00 -3.299275e+00 -7.640265e+00 -2.404701e+00 -4.397483e+00 -7.221653e-01 -3.303473e+00 -3.038299e+00 5.815563e+01 1.615384e-02 7.634317e-04 7.192016e-03 2.134583e-03 -1.667923e-03 -6.244534e-03 1.491434e-03 -4.566899e-04 -4.778933e-03 -1.080306e-02 -1.397238e-02 2.061939e-03 1.843355e-02 -1.214651e-05 -1.205748e-03 2.785203e-04 -2.110011e-03 -8.817582e-05 3.688527e-04 -4.972982e-04 1.069621e-03 3.902318e-04 -5.984812e-04 1.764399e-03 4.575354e-04 -1.176986e-03
<VARIANCE> 39
 8.028801e+01 6.312390e+01 7.415500e+01 6.718809e+01 7.700568e+01 7.172661e+01 6.764521e+01 7.261220e+01 8.200107e+01 5.515092e+01 7.469075e+01 6.173306e+01 1.966844e+02 2.533950e+00 2.772415e+00 2.918084e+00 3.702382e+00 3.859472e+00 3.675752e+00 3.710367e+00 4.520447e+00 3.715223e+00 3.410553e+00 3.513708e+00 2.867405e+00 2.969592e+00 3.829717e-01 4.421031e-01 4.739141e-01 6.286151e-01 6.748120e-01 6.464257e-01 6.834241e-01 8.116400e-01 6.726959e-01 6.334275e-01 6.311268e-01 5.301931e-01 4.123145e-01
<GCONST> 1.364718e+02
<TRANSP> 5
 0.000000e+00 1.000000e+00 0.000000e+00 0.000000e+00 0.000000e+00
 0.000000e+00 6.199968e-01 3.800032e-01 0.000000e+00 0.000000e+00
 0.000000e+00 0.000000e+00 6.199963e-01 3.800037e-01 0.000000e+00
 0.000000e+00 0.000000e+00 0.000000e+00 7.498771e-01 2.501229e-01
 0.000000e+00 0.000000e+00 0.000000e+00 0.000000e+00 0.000000e+00
<ENDHMM>
~h "ny"
<BEGINHMM>
<NUMSTATES> 5
<STATE> 2
<MEAN> 39
 -5.481561e+00 -1.474317e+00 1.393448e-01 -3.183077e+00 -6.348056e+00 -4.394054e+00 -6.695839e+00 -1.472545e+00 -4.574152e+00 -1.302796e+00 -3.179454e+00 -2.871545e+00 6.008988e+01 -1.954086e-02 -9.164731e-03 -1.884547e-03 -6.493142e-03 2.415273e-02 2.091476e-02 3.486736e-02 1.518621e-02 2.477421e-02 -3.151081e-02 -2.279656e-03 4.220746e-03 -1.579560e-02 -1.988745e-03 1.506897e-03 -1.971151e-03 9.150495e-04 2.021971e-03 8.459873e-04 -8.739941e-04 -1.144159e-03 -7.505198e-04 2.244230e-03 -1.134858e-03 1.037573e-04 -4.937683e-03
<VARIANCE> 39
 6.112998e+01 6.070560e+01 6.840248e+01 6.784562e+01 7.833643e+01 7.017741e+01 7.667477e+01 7.859192e+01 8.351019e+01 5.948934e+01 7.649569e+01 7.022260e+01 1.824713e+02 2.209403e+00 2.861460e+00 2.737479e+00 3.655392e+00 3.952937e+00 3.436745e+00 3.867432e+00 4.286047e+00 3.688877e+00 3.563956e+00 3.364840e+00 3.022630e+00 3.189647e+00 3.512871e-01 4.479906e-01 4.411759e-01 6.444118e-01 6.973637e-01 6.263632e-01 7.115449e-01 7.838256e-01 6.764159e-01 6.710337e-01 6.199540e-01 5.605079e-01 4.439890e-01
<GCONST> 1.364030e+02
<STATE> 3
<MEAN> 39
 -5.533903e+00 -1.498657e+00 1.508297e-01 -3.196732e+00 -6.283551e+00 -4.350974e+00 -6.599891e+00 -1.441342e+00 -4.517152e+00 -1.391745e+00 -3.202798e+00 -2.849975e+00 6.006115e+01 -2.321947e-02 -4.957030e-03 -7.945430e-03 -2.214460e-03 2.935708e-02 2.245006e-02 2.977704e-02 1.325339e-02 2.307553e-02 -2.545447e-02 -4.100759e-03 4.471201e-03 -3.005283e-02 -1.494707e-03 1.999284e-03 -2.607573e-03 1.370631e-03 2.009576e-03 -2.782566e-04 -2.581727e-03 -1.330270e-03 -1.699138e-03 3.386778e-03 -6.443262e-05 -3.905621e-04 -4.494373e-03
<VARIANCE> 39
 6.087029e+01 5.997247e+01 6.780695e+01 6.777290e+01 7.834814e+01 7.010407e+01 7.670950e+01 7.804796e+01 8.397137e+01 6.008835e+01 7.654411e+01 7.044694e+01 1.822019e+02 2.221565e+00 2.849558e+00 2.724580e+00 3.627392e+00 3.945726e+00 3.436258e+00 3.873689e+00 4.253437e+00 3.679836e+00 3.566401e+00 3.380445e+00 2.987556e+00 3.160822e+00 3.541816e-01 4.478252e-01 4.376643e-01 6.395899e-01 6.965458e-01 6.276240e-01 7.150661e-01 7.785357e-01 6.741309e-01 6.715341e-01 6.239772e-01 5.554050e-01 4.405742e-01
<GCONST> 1.363286e+02
<STATE> 4
<MEAN> 39
 -5.249391e+00 -1.780465e+00 -1.512920e-01 -3.162942e+00 -6.205872e+00 -3.855596e+00 -6.630455e+00 -1.423930e+00 -4.555046e+00 -1.541024e+00 -3.010527e+00 -2.991951e+00 5.916411e+01 -2.692532e-02 1.954576e-03 -1.179743e-02 9.375671e-03 3.266981e-02 1.481636e-02 1.839735e-02 8.703555e-03 1.740828e-02 -1.799668e-02 -5.353930e-03 3.958837e-03 -4.365231e-02 -1.027337e-03 2.666745e-03 -2.468785e-03 1.634217e-03 1.417549e-03 -1.236990e-03 -3.133128e-03 -1.250398e-03 -1.731751e-03 3.650437e-03 1.311991e-03 -7.972516e-04 -3.714777e-03
<VARIANCE> 39
 6.850707e+01 6.401583e+01 7.452267e+01 7.090878e+01 8.122585e+01 7.124424e+01 7.608710e+01 7.678894e+01 8.301041e+01 5.867735e+01 7.394347e+01 7.100888e+01 1.848608e+02 2.449167e+00 3.138518e+00 2.868328e+00 3.753339e+00 3.964910e+00 3.404044e+00 3.816346e+00 4.173193e+00 3.695248e+00 3.466771e+00 3.330414e+00 2.911633e+00 3.235754e+00 3.785512e-01 4.973085e-01 4.473492e-01 6.633728e-01 6.946939e-01 6.194476e-01 7.018031e-01 7.664898e-01 6.705730e-01 6.551501e-01 6.195815e-01 5.426981e-01 4.491422e-01
<GCONST> 1.369705e+02
<TRANSP> 5
 0.000000e+00 1.000000e+00 0.000000e+00 0.000000e+00 0.000000e+00
 0.000000e+00 6.336560e-01 3.663440e-01 0.000000e+00 0.000000e+00
 0.000000e+00 0.000000e+00 6.336550e-01 3.663450e-01 0.000000e+00
 0.000000e+00 0.000000e+00 0.000000e+00 7.786474e-01 2.213526e-01
 0.000000e+00 0.000000e+00 0.000000e+00 0.000000e+00 0.000000e+00
<ENDHMM>
~h "sy"
<BEGINHMM>
<NUMSTATES> 5
<STATE> 2
<MEAN> 39
 -1.196700e+01 1.914553e+00 1.142820e+00 -7.389688e-02 -5.985262e+00 -3.633708e+00 -5.223325e+00 -2.244192e+00 -3.858979e+00 -1.787072e+00 -1.476893e-01 -2.774749e+00 5.014804e+01 -5.809020e-03 -6.337014e-02 -2.721278e-01 1.139310e-01 2.080157e-01 -8.242729e-02 1.822905e-01 4.226110e-02 2.365113e-01 -8.483864e-02 -1.241419e-01 5.854860e-02 -1.376116e-01 -6.178585e-03 -4.636553e-03 -7.084609e-03 -8.898414e-03 5.304569e-05 6.606214e-03 1.929269e-03 2.201146e-02 6.120040e-03 1.584062e-02 -1.050386e-02 3.054679e-03 6.991954e-03
<VARIANCE> 39
 5.207719e+01 4.126242e+01 1.141142e+02 3.444344e+01 5.742491e+01 4.928514e+01 5.741537e+01 5.564617e+01 6.529457e+01 5.075755e+01 3.930959e+01 3.659114e+01 2.132706e+02 2.084455e+00 1.205883e+00 1.444877e+00 1.661996e+00 2.698442e+00 2.372643e+00 3.126722e+00 2.612933e+00 2.889469e+00 2.724627e+00 1.763598e+00 1.723419e+00 1.601817e+00 2.700966e-01 1.746505e-01 2.097643e-01 2.554796e-01 3.985856e-01 4.383744e-01 5.281453e-01 4.916095e-01 5.418119e-01 4.540221e-01 2.805309e-01 2.972255e-01 1.565193e-01
<GCONST> 1.189701e+02
<STATE> 3
<MEAN> 39
 -1.209465e+01 1.724239e+00 3.332865e-01 3.149488e-01 -5.345028e+00 -3.795346e+00 -4.604816e+00 -2.067892e+00 -3.191450e+00 -1.994881e+00 -4.762503e-01 -2.585941e+00 4.953399e+01 -2.833175e-02 -7.844290e-02 -2.880473e-01 8.444016e-02 1.959608e-01 -5.911636e-02 1.742799e-01 1.016006e-01 2.371870e-01 -3.629227e-02 -1.437103e-01 7.766248e-02 -1.160006e-01 -4.941911e-03 -3.410852e-03 2.207871e-03 -1.292008e-02 -1.076531e-02 8.381561e-03 -6.613769e-03 1.386619e-02 -1.005939e-02 1.861078e-02 -2.116610e-03 4.526596e-03 9.338813e-03
<VARIANCE> 39
 5.099071e+01 3.820793e+01 9.590261e+01 3.282727e+01 4.971098e+01 4.694463e+01 5.728049e+01 5.468543e+01 5.955207e+01 4.629185e+01 3.412959e+01 3.587073e+01 2.028942e+02 2.206342e+00 1.279681e+00 1.313832e+00 1.646985e+00 2.532640e+00 2.215013e+00 3.291692e+00 2.522773e+00 2.803260e+00 2.603067e+00 1.758389e+00 1.711843e+00 1.662406e+00 2.887447e-01 1.868906e-01 1.972647e-01 2.621761e-01 3.840346e-01 4.027165e-01 5.556146e-01 4.688514e-01 5.356846e-01 4.472204e-01 2.861422e-01 2.843933e-01 1.604005e-01
<GCONST> 1.178439e+02
<STATE> 4
<MEAN> 39
 -1.235764e+01 1.581288e+00 -5.819092e-01 7.207460e-01 -4.871068e+00 -3.622370e+00 -4.170219e+00 -1.916623e+00 -2.711661e+00 -2.203692e+00 -1.035320e+00 -2.391843e+00 4.799645e+01 -6.164457e-02 -9.500077e-02 -2.855231e-01 5.242843e-02 1.380767e-01 -2.975948e-02 1.423866e-01 1.306406e-01 1.879485e-01 1.972390e-02 -1.201728e-01 1.098436e-01 -1.272828e-01 -1.701387e-03 -1.035121e-03 8.740244e-03 -1.603212e-02 -1.977162e-02 5.919210e-03 -1.726702e-02 -7.951516e-06 -2.040619e-02 1.558110e-02 7.711132e-03 6.502129e-03 1.285546e-02
<VARIANCE> 39
 4.993613e+01 3.517429e+01 7.992257e+01 3.052377e+01 4.119871e+01 4.424641e+01 5.430368e+01 5.116054e+01 5.299969e+01 4.233686e+01 2.860796e+01 3.449528e+01 1.977626e+02 2.093263e+00 1.293918e+00 1.173409e+00 1.563803e+00 2.330974e+00 1.947071e+00 3.223223e+00 2.450096e+00 2.681511e+00 2.493970e+00 1.696013e+00 1.629109e+00 1.521643e+00 2.748608e-01 1.909644e-01 1.791187e-01 2.605832e-01 3.716779e-01 3.564140e-01 5.491852e-01 4.497703e-01 5.225482e-01 4.351667e-01 2.814115e-01 2.613767e-01 1.440018e-01
<GCONST> 1.153418e+02
<TRANSP> 5
 0.000000e+00 1.000000e+00 0.000000e+00 0.000000e+00 0.000000e+00
 0.000000e+00 6.328870e-01 3.671130e-01 0.000000e+00 0.000000e+00
 0.000000e+00 0.000000e+00 6.328869e-01 3.671131e-01 0.000000e+00
 0.000000e+00 0.000000e+00 0.000000e+00 7.519979e-01 2.480021e-01
 0.000000e+00 0.000000e+00 0.000000e+00 0.000000e+00 0.000000e+00
<ENDHMM>
~h "sil"
<BEGINHMM>
<NUMSTATES> 5
<STATE> 2
<MEAN> 39
 -1.436876e+01 2.136729e+00 -3.518992e+00 2.440685e+00 -3.902249e+00 1.375431e+00 -3.128287e+00 -4.870527e-01 -1.004319e+00 -1.399459e+00 -9.683437e-01 -6.947771e-01 3.820173e+01 1.276205e-01 -4.707403e-02 -1.311969e-01 1.618192e-02 8.742017e-02 -1.123106e-01 -1.599624e-01 -8.797348e-02 -7.424571e-02 7.481900e-03 1.699623e-03 1.255868e-02 4.252446e-01 6.043365e-02 -1.870130e-02 2.046993e-02 -4.525316e-03 -3.501593e-03 -5.540539e-02 -2.415512e-02 1.371105e-02 -1.671635e-02 -9.562950e-03 -4.210550e-02 -5.026446e-03 1.787676e-01
<VARIANCE> 39
