~o
<STREAMINFO> 1 39
<VECSIZE> 39<NULLD><MFCC_D_A_0><DIAGC>
~h "a"
<BEGINHMM>
<NUMSTATES> 5
<STATE> 2
<MEAN> 39
 -6.761312e+00 -1.751573e+00 -8.356022e-01 -3.425708e+00 -5.620777e+00 -4.414563e+00 -7.150766e+00 -1.355321e+00 -3.672056e+00 -5.487080e-01 -3.364570e+00 -2.771866e+00 5.902069e+01 1.440083e-02 -7.193314e-03 3.742481e-03 -7.930766e-03 1.250296e-02 -2.862721e-03 8.151764e-04 -4.505260e-03 2.512212e-03 -4.348781e-03 -1.537158e-02 -6.711280e-03 3.221766e-02 -1.786338e-03 2.583866e-03 4.777380e-04 1.919960e-03 -1.362590e-03 1.453255e-03 -2.739441e-04 -1.737095e-03 -1.370668e-03 3.373831e-04 1.934898e-03 2.142643e-04 -5.447153e-03
<VARIANCE> 39
 7.221446e+01 5.827389e+01 6.984988e+01 6.884479e+01 7.938895e+01 7.410442e+01 6.856465e+01 7.160590e+01 8.037464e+01 5.547210e+01 7.140023e+01 6.422388e+01 2.175514e+02 2.256981e+00 2.576127e+00 2.623880e+00 3.386892e+00 3.607806e+00 3.424000e+00 3.554343e+00 3.993990e+00 3.374838e+00 3.290439e+00 3.216396e+00 2.800341e+00 3.018608e+00 3.509421e-01 4.075867e-01 4.222476e-01 5.826948e-01 6.232356e-01 6.163421e-01 6.543504e-01 7.203170e-01 6.139813e-01 6.129146e-01 5.860712e-01 5.151607e-01 4.197044e-01
<GCONST> 1.346176e+02
<STATE> 3
<MEAN> 39
 -6.723831e+00 -1.764904e+00 -8.276002e-01 -3.446114e+00 -5.583381e+00 -4.419243e+00 -7.146524e+00 -1.377234e+00 -3.668549e+00 -5.646742e-01 -3.409847e+00 -2.786879e+00 5.909887e+01 1.006002e-02 -4.816283e-04 4.652469e-03 -3.005071e-03 8.740146e-03 -3.132317e-05 -2.597775e-04 -8.874449e-03 -1.283796e-03 -3.336798e-03 -1.061985e-02 -5.849282e-03 2.010515e-02 -1.454358e-03 2.416744e-03 3.982814e-04 1.726271e-03 -1.337888e-03 8.161776e-04 -2.899005e-04 -1.595944e-03 -1.448501e-03 2.512162e-04 1.468142e-03 4.375368e-04 -3.544236e-03
<VARIANCE> 39
 7.165644e+01 5.845237e+01 6.986823e+01 6.900629e+01 7.977543e+01 7.405068e+01 6.857186e+01 7.151302e+01 8.044912e+01 5.568447e+01 7.169401e+01 6.429202e+01 2.147222e+02 2.254129e+00 2.586320e+00 2.625215e+00 3.393018e+00 3.609554e+00 3.426377e+00 3.561043e+00 3.995475e+00 3.381075e+00 3.296554e+00 3.223505e+00 2.801469e+00 2.995589e+00 3.500582e-01 4.090559e-01 4.223894e-01 5.834855e-01 6.236690e-01 6.171226e-01 6.560957e-01 7.209255e-01 6.156320e-01 6.141219e-01 5.868558e-01 5.152902e-01 4.158486e-01
<GCONST> 1.346277e+02
<STATE> 4
<MEAN> 39
 -6.546397e+00 -1.925130e+00 -9.169329e-01 -3.230263e+00 -5.721832e+00 -3.911874e+00 -7.254491e+00 -1.396392e+00 -3.743854e+00 -7.722524e-01 -3.215305e+00 -2.892085e+00 5.810185e+01 5.216441e-03 6.565232e-03 3.390326e-03 1.645335e-03 5.805149e-03 1.184446e-03 -6.728424e-04 -1.397111e-02 -4.971392e-03 -3.587828e-03 -6.679721e-03 -3.011374e-03 9.391714e-03 -1.115360e-03 1.868476e-03 1.371665e-04 1.465743e-03 -1.350208e-03 5.384441e-04 -4.317791e-04 -1.324119e-03 -1.201747e-03 8.319263e-05 1.219940e-03 5.549011e-04 -2.278296e-03
<VARIANCE> 39
 7.811411e+01 6.218829e+01 7.385577e+01 7.037672e+01 8.090477e+01 7.454965e+01 6.917528e+01 6.881982e+01 7.796110e+01 5.394913e+01 6.959337e+01 6.249995e+01 2.181413e+02 2.322049e+00 2.761082e+00 2.703736e+00 3.448851e+00 3.580923e+00 3.375026e+00 3.519831e+00 3.901102e+00 3.384930e+00 3.204255e+00 3.155172e+00 2.697261e+00 3.035169e+00 3.537479e-01 4.391719e-01 4.285393e-01 5.940648e-01 6.177804e-01 6.054178e-01 6.461609e-01 7.057432e-01 6.138135e-01 5.959578e-01 5.754331e-01 4.969559e-01 4.160005e-01
<GCONST> 1.347059e+02
<TRANSP> 5
 0.000000e+00 1.000000e+00 0.000000e+00 0.000000e+00 0.000000e+00
 0.000000e+00 6.340882e-01 3.659118e-01 0.000000e+00 0.000000e+00
 0.000000e+00 0.000000e+00 6.340986e-01 3.659014e-01 0.000000e+00
 0.000000e+00 0.000000e+00 0.000000e+00 7.754163e-01 2.245838e-01
 0.000000e+00 0.000000e+00 0.000000e+00 0.000000e+00 0.000000e+00
<ENDHMM>
~h "b"
<BEGINHMM>
<NUMSTATES> 5
<STATE> 2
<MEAN> 39
 -6.647477e+00 -6.443173e-01 -4.397381e-01 -3.116743e+00 -6.560397e+00 -4.148926e+00 -7.982831e+00 -2.356946e+00 -4.344051e+00 -2.709422e-01 -2.592645e+00 -2.505121e+00 5.815902e+01 2.028607e-02 9.269334e-03 6.518845e-03 -2.539714e-03 2.028008e-03 -1.456538e-02 -1.460874e-02 -1.724912e-02 -1.363425e-02 -3.814462e-03 -1.386459e-02 4.732678e-03 6.228457e-02 -4.512131e-03 1.466775e-03 -9.465137e-04 1.553801e-03 3.632352e-04 3.671894e-03 2.631959e-03 1.303166e-03 1.755146e-03 1.611003e-04 5.818533e-04 1.044080e-03 -9.619114e-03
<VARIANCE> 39
 7.819105e+01 5.641335e+01 6.936922e+01 6.983322e+01 7.051611e+01 7.252094e+01 7.196223e+01 6.955437e+01 7.890516e+01 5.472167e+01 6.925262e+01 5.654078e+01 2.214421e+02 2.397046e+00 2.535389e+00 2.705808e+00 3.697930e+00 3.719164e+00 3.595685e+00 3.917602e+00 4.207206e+00 3.558686e+00 3.404930e+00 3.343096e+00 2.835147e+00 3.076964e+00 3.678198e-01 4.074416e-01 4.465214e-01 6.398424e-01 6.555095e-01 6.434933e-01 7.276986e-01 7.683770e-01 6.469937e-01 6.370646e-01 6.216481e-01 5.352129e-01 4.487427e-01
<GCONST> 1.356434e+02
<STATE> 3
<MEAN> 39
 -6.591982e+00 -6.290017e-01 -4.230256e-01 -3.133009e+00 -6.559973e+00 -4.179215e+00 -8.016209e+00 -2.389879e+00 -4.370991e+00 -2.683093e-01 -2.630868e+00 -2.504219e+00 5.834538e+01 1.447340e-02 1.073048e-02 5.025050e-03 -5.443853e-04 1.418095e-03 -7.362196e-03 -1.323446e-02 -1.299339e-02 -1.220639e-02 -1.792189e-03 -1.194256e-02 5.249593e-03 5.037956e-02 -1.961499e-03 7.981929e-05 -1.653213e-04 -3.287219e-06 -3.074755e-04 1.928238e-03 -1.290898e-04 2.200435e-03 8.227081e-04 7.399992e-04 6.666207e-04 1.698443e-04 -2.768408e-03
<VARIANCE> 39
 7.809347e+01 5.669505e+01 6.954829e+01 6.964285e+01 7.093915e+01 7.169524e+01 7.247668e+01 6.932900e+01 7.954694e+01 5.484595e+01 6.959781e+01 5.658628e+01 2.163434e+02 2.409338e+00 2.558736e+00 2.732978e+00 3.734963e+00 3.742624e+00 3.593227e+00 3.931953e+00 4.212021e+00 3.582060e+00 3.425211e+00 3.377973e+00 2.855129e+00 3.023911e+00 3.681835e-01 4.112629e-01 4.512977e-01 6.467422e-01 6.598958e-01 6.450210e-01 7.304652e-01 7.696912e-01 6.525242e-01 6.408147e-01 6.274704e-01 5.389466e-01 4.396351e-01
<GCONST> 1.357517e+02
<STATE> 4
<MEAN> 39
 -6.949020e+00 -6.903298e-01 -7.094485e-01 -2.639574e+00 -6.681200e+00 -3.559735e+00 -7.909116e+00 -2.242823e+00 -4.255337e+00 -4.417245e-01 -2.439255e+00 -2.629026e+00 5.656868e+01 2.752901e-02 1.219254e-03 1.032911e-02 -6.858938e-03 -6.495425e-03 -7.917129e-03 -2.180402e-02 -8.105498e-03 -1.355036e-02 3.138211e-03 -9.541097e-03 -5.162935e-04 6.556603e-02 3.087758e-04 -1.159962e-03 1.861324e-04 -1.045675e-03 -9.934925e-04 3.373334e-04 -1.547067e-03 1.414306e-03 2.642919e-04 7.845978e-04 6.248964e-04 -7.578916e-04 3.131663e-04
<VARIANCE> 39
 8.586939e+01 5.895451e+01 7.265639e+01 6.824323e+01 7.073134e+01 7.020183e+01 7.036513e+01 6.511799e+01 7.560071e+01 5.189310e+01 6.513260e+01 5.323875e+01 2.340262e+02 2.425946e+00 2.661662e+00 2.758405e+00 3.622190e+00 3.639843e+00 3.452117e+00 3.752791e+00 3.987067e+00 3.502980e+00 3.280541e+00 3.244878e+00 2.709912e+00 2.995257e+00 3.650301e-01 4.299470e-01 4.514167e-01 6.303094e-01 6.435028e-01 6.197706e-01 6.931524e-01 7.294575e-01 6.400638e-01 6.141658e-01 6.036670e-01 5.110919e-01 4.293228e-01
<GCONST> 1.349880e+02
<TRANSP> 5
 0.000000e+00 1.000000e+00 0.000000e+00 0.000000e+00 0.000000e+00
 0.000000e+00 6.213456e-01 3.786545e-01 0.000000e+00 0.000000e+00
 0.000000e+00 0.000000e+00 6.213489e-01 3.786510e-01 0.000000e+00
 0.000000e+00 0.000000e+00 0.000000e+00 7.620164e-01 2.379836e-01
 0.000000e+00 0.000000e+00 0.000000e+00 0.000000e+00 0.000000e+00
<ENDHMM>
~h "c"
<BEGINHMM>
<NUMSTATES> 5
<STATE> 2
<MEAN> 39
 -7.757199e+00 -4.434118e-01 -3.336433e-01 -2.992326e+00 -5.950441e+00 -4.859659e+00 -6.752742e+00 -1.850363e+00 -3.633849e+00 -1.177714e+00 -3.344179e+00 -1.585487e+00 5.821488e+01 -6.920991e-03 -7.710260e-03 2.151525e-02 1.796645e-03 1.950009e-02 -1.355011e-02 -6.907002e-03 1.271658e-03 1.819171e-02 -1.649806e-03 -4.629793e-03 2.527258e-02 2.793835e-02 -1.483688e-03 -7.581390e-04 -4.652339e-03 1.603626e-03 -4.448762e-03 2.770370e-03 -1.908520e-03 -8.014104e-04 5.556840e-04 1.666893e-03 4.355993e-03 -5.821288e-03 -1.128385e-02
<VARIANCE> 39
 7.757152e+01 5.452713e+01 6.813876e+01 6.136345e+01 7.205094e+01 8.252668e+01 7.329511e+01 6.916785e+01 8.203137e+01 5.324781e+01 6.680815e+01 5.727980e+01 2.266202e+02 3.202805e+00 2.651927e+00 2.662834e+00 3.265485e+00 3.705439e+00 3.504612e+00 3.386820e+00 4.026151e+00 3.477037e+00 3.157084e+00 3.144620e+00 2.705208e+00 3.061200e+00 5.521870e-01 4.187873e-01 4.429026e-01 5.778719e-01 6.518047e-01 6.292315e-01 6.182981e-01 7.467161e-01 6.422406e-01 6.030470e-01 5.852028e-01 5.096457e-01 4.529047e-01
<GCONST> 1.353347e+02
<STATE> 3
<MEAN> 39
 -7.797426e+00 -4.848640e-01 -2.890521e-01 -3.005752e+00 -5.916072e+00 -4.896068e+00 -6.771401e+00 -1.833828e+00 -3.577503e+00 -1.172577e+00 -3.355241e+00 -1.549220e+00 5.828696e+01 -6.142594e-03 -1.405596e-02 8.264136e-03 5.951158e-03 1.204908e-02 -6.833268e-03 -1.092473e-02 1.434298e-03 1.728291e-02 4.212112e-03 4.648339e-03 1.128551e-02 1.230519e-02 -3.364907e-04 -1.962828e-03 -4.944165e-03 2.399109e-03 -2.273972e-03 3.672386e-03 -5.516758e-04 1.845634e-04 -2.377319e-03 8.780000e-04 3.138755e-03 -7.019621e-03 -5.731256e-03
<VARIANCE> 39
 7.664909e+01 5.446910e+01 6.883649e+01 6.108484e+01 7.235927e+01 8.253417e+01 7.263404e+01 6.803620e+01 8.308031e+01 5.316766e+01 6.770757e+01 5.813556e+01 2.238851e+02 3.182693e+00 2.644145e+00 2.639089e+00 3.273701e+00 3.682803e+00 3.552337e+00 3.363625e+00 4.035521e+00 3.511691e+00 3.154372e+00 3.167163e+00 2.718073e+00 2.983381e+00 5.501149e-01 4.202294e-01 4.383117e-01 5.796193e-01 6.496689e-01 6.412213e-01 6.174715e-01 7.489088e-01 6.464169e-01 6.046394e-01 5.892687e-01 5.123724e-01 4.402351e-01
<GCONST> 1.353182e+02
<STATE> 4
<MEAN> 39
 -7.733446e+00 -6.400426e-01 -2.714906e-01 -2.836330e+00 -6.256199e+00 -4.453856e+00 -7.011588e+00 -1.846666e+00 -3.695617e+00 -1.138236e+00 -3.210234e+00 -1.660318e+00 5.744165e+01 -2.922347e-03 -2.622911e-02 2.430321e-04 3.454656e-03 6.681061e-03 -6.096961e-03 -1.189424e-02 9.814685e-03 7.913304e-03 4.937133e-03 3.110412e-03 -4.713879e-03 1.554103e-02 -4.390313e-05 -1.197225e-03 -2.579113e-03 1.947453e-03 -6.434118e-04 2.205043e-03 7.080658e-04 1.447215e-03 -4.719896e-03 -1.499733e-03 2.612155e-04 -5.022878e-03 -2.137880e-03
<VARIANCE> 39
 8.206207e+01 5.780946e+01 7.474501e+01 6.027165e+01 7.263590e+01 8.335511e+01 7.075175e+01 6.531526e+01 8.236923e+01 5.175835e+01 6.634071e+01 5.837609e+01 2.299791e+02 3.234194e+00 2.744472e+00 2.656722e+00 3.278983e+00 3.593434e+00 3.582583e+00 3.288769e+00 3.984990e+00 3.508750e+00 3.094361e+00 3.127017e+00 2.703579e+00 2.989656e+00 5.519037e-01 4.401486e-01 4.355308e-01 5.822644e-01 6.322353e-01 6.508328e-01 6.073040e-01 7.398571e-01 6.385109e-01 5.934375e-01 5.809180e-01 5.085343e-01 4.354313e-01
<GCONST> 1.353538e+02
<TRANSP> 5
 0.000000e+00 1.000000e+00 0.000000e+00 0.000000e+00 0.000000e+00
 0.000000e+00 6.265683e-01 3.734318e-01 0.000000e+00 0.000000e+00
 0.000000e+00 0.000000e+00 6.265684e-01 3.734317e-01 0.000000e+00
 0.000000e+00 0.000000e+00 0.000000e+00 7.537607e-01 2.462393e-01
 0.000000e+00 0.000000e+00 0.000000e+00 0.000000e+00 0.000000e+00
<ENDHMM>
~h "d"
<BEGINHMM>
<NUMSTATES> 5
<STATE> 2
<MEAN> 39
 -6.539464e+00 -1.085423e+00 6.037770e-01 -2.942835e+00 -7.330063e+00 -5.130780e+00 -8.055532e+00 -1.439791e+00 -4.546051e+00 -5.819610e-01 -2.541145e+00 -2.231818e+00 5.941631e+01 2.222134e-02 -9.628285e-03 4.262640e-02 -1.257489e-02 -3.025395e-02 -5.914970e-02 -1.660043e-02 6.372742e-04 -2.271064e-02 -5.442834e-03 -2.160692e-02 3.202644e-03 1.028901e-01 -3.625520e-03 -1.274585e-03 -3.888337e-03 -6.779348e-04 6.488871e-04 2.484294e-03 1.995983e-03 1.884570e-03 2.502014e-03 1.088338e-03 1.284687e-03 -1.171930e-03 -8.486033e-03
<VARIANCE> 39
 7.220916e+01 5.691817e+01 8.125523e+01 6.503023e+01 8.210127e+01 7.843235e+01 7.240469e+01 7.381060e+01 8.698763e+01 5.498546e+01 7.221047e+01 6.178545e+01 2.077845e+02 2.322318e+00 2.665537e+00 2.918353e+00 3.477892e+00 4.261779e+00 3.742558e+00 3.828048e+00 4.295164e+00 3.690140e+00 3.468458e+00 3.380552e+00 2.914236e+00 3.289694e+00 3.643896e-01 4.373095e-01 4.641830e-01 6.059659e-01 7.480822e-01 6.781095e-01 7.093052e-01 7.777731e-01 6.683434e-01 6.554779e-01 6.234813e-01 5.438007e-01 4.826392e-01
<GCONST> 1.368609e+02
<STATE> 3
<MEAN> 39
 -6.479693e+00 -1.118652e+00 7.064386e-01 -2.992983e+00 -7.410505e+00 -5.277100e+00 -8.096026e+00 -1.431343e+00 -4.598107e+00 -5.946729e-01 -2.582106e+00 -2.227337e+00 5.968637e+01 1.688111e-02 -1.323885e-02 3.334485e-02 -1.391180e-02 -2.794502e-02 -5.278080e-02 -1.293879e-02 5.075972e-03 -1.598958e-02 -3.020445e-03 -1.865027e-02 1.216429e-03 8.829442e-02 -1.653723e-03 -1.227617e-03 -3.644549e-03 -1.684104e-04 1.555084e-03 2.997692e-03 1.636976e-03 1.333874e-03 2.528974e-03 8.081201e-04 1.052832e-03 -7.851719e-04 -5.250772e-03
<VARIANCE> 39
 7.154472e+01 5.722672e+01 8.164371e+01 6.519650e+01 8.300753e+01 7.938522e+01 7.292165e+01 7.471660e+01 8.802010e+01 5.534404e+01 7.275474e+01 6.255871e+01 2.040127e+02 2.318100e+00 2.676234e+00 2.925112e+00 3.497947e+00 4.297256e+00 3.784130e+00 3.844402e+00 4.317636e+00 3.701929e+00 3.467336e+00 3.399142e+00 2.934715e+00 3.230239e+00 3.624929e-01 4.387228e-01 4.637310e-01 6.094335e-01 7.542627e-01 6.839356e-01 7.124406e-01 7.811941e-01 6.697568e-01 6.558330e-01 6.273882e-01 5.471245e-01 4.743454e-01
<GCONST> 1.369889e+02
<STATE> 4
<MEAN> 39
 -6.230947e+00 -1.424266e+00 6.577173e-01 -3.054158e+00 -7.388838e+00 -4.980340e+00 -8.150332e+00 -1.318619e+00 -4.589894e+00 -7.434397e-01 -2.451248e+00 -2.339599e+00 5.952235e+01 1.302332e-02 -1.334164e-02 2.755404e-02 -1.682081e-02 -1.961949e-02 -3.928654e-02 -1.121540e-02 6.480906e-03 -8.204395e-03 -1.626782e-03 -1.149809e-02 -7.386245e-04 7.477020e-02 -1.141296e-03 -3.157308e-04 -2.373239e-03 2.006773e-04 2.484955e-03 3.563555e-03 1.108037e-03 -2.374640e-04 1.896445e-03 5.366063e-04 5.823460e-04 -4.000862e-04 -4.146896e-03
<VARIANCE> 39
 7.535939e+01 6.028559e+01 8.370301e+01 6.643137e+01 8.520627e+01 8.193436e+01 7.479242e+01 7.468095e+01 8.732752e+01 5.432552e+01 7.214796e+01 6.355160e+01 2.004362e+02 2.377395e+00 2.791624e+00 2.970032e+00 3.584875e+00 4.249179e+00 3.762584e+00 3.832835e+00 4.251249e+00 3.701286e+00 3.387576e+00 3.372836e+00 2.877439e+00 3.261226e+00 3.646996e-01 4.563308e-01 4.666668e-01 6.267996e-01 7.428989e-01 6.750199e-01 7.083927e-01 7.704270e-01 6.619536e-01 6.389032e-01 6.210530e-01 5.346549e-01 4.698663e-01
<GCONST> 1.371642e+02
<TRANSP> 5
 0.000000e+00 1.000000e+00 0.000000e+00 0.000000e+00 0.000000e+00
 0.000000e+00 6.178110e-01 3.821891e-01 0.000000e+00 0.000000e+00
 0.000000e+00 0.000000e+00 6.178112e-01 3.821888e-01 0.000000e+00
 0.000000e+00 0.000000e+00 0.000000e+00 7.489645e-01 2.510355e-01
 0.000000e+00 0.000000e+00 0.000000e+00 0.000000e+00 0.000000e+00
<ENDHMM>
~h "e"
<BEGINHMM>
<NUMSTATES> 5
<STATE> 2
<MEAN> 39
 -6.557533e+00 -8.507715e-01 -5.697801e-01 -3.215891e+00 -6.251486e+00 -4.461515e+00 -8.170034e+00 -2.340803e+00 -4.145256e+00 -2.216657e-01 -2.953147e+00 -2.725579e+00 5.921959e+01 2.854812e-02 -8.615460e-03 1.966507e-03 -2.127265e-02 -3.220300e-03 -1.178760e-02 -2.591785e-02 -1.350510e-02 -6.022913e-03 2.236798e-03 -2.121080e-02 -1.098892e-02 7.145183e-02 -4.246671e-04 3.012829e-05 -8.192327e-04 -5.309497e-04 1.177221e-03 2.226986e-03 2.469318e-03 1.497360e-03 2.322304e-04 1.001854e-03 3.961940e-04 1.516234e-04 -1.668718e-03
<VARIANCE> 39
 7.902496e+01 5.700559e+01 7.010058e+01 6.970189e+01 7.584290e+01 7.323663e+01 6.814913e+01 7.220624e+01 8.398905e+01 5.930860e+01 7.193592e+01 5.971817e+01 2.023084e+02 2.660090e+00 2.730916e+00 2.856783e+00 3.914121e+00 3.880675e+00 3.787313e+00 3.930719e+00 4.491356e+00 3.661842e+00 3.580339e+00 3.468009e+00 2.975107e+00 3.214398e+00 4.063268e-01 4.476157e-01 4.692555e-01 6.846602e-01 6.824498e-01 6.876289e-01 7.314176e-01 8.240665e-01 6.708422e-01 6.685728e-01 6.389017e-01 5.604498e-01 4.833321e-01
<GCONST> 1.372688e+02
<STATE> 3
<MEAN> 39
 -6.459355e+00 -8.844073e-01 -5.578722e-01 -3.281217e+00 -6.259515e+00 -4.488232e+00 -8.241484e+00 -2.373770e+00 -4.163484e+00 -2.099617e-01 -3.011950e+00 -2.759094e+00 5.943985e+01 2.642319e-02 -7.298991e-03 1.533357e-04 -2.199954e-02 -7.618172e-05 -8.844286e-03 -2.000394e-02 -1.067263e-02 -6.063125e-03 3.705601e-03 -2.037572e-02 -9.743918e-03 6.666565e-02 -8.565981e-04 1.637300e-04 -5.014605e-04 -3.249599e-04 1.170423e-03 1.145924e-03 2.570131e-03 1.470676e-03 -1.183536e-04 8.741282e-04 6.976078e-04 5.704513e-04 -1.632156e-03
<VARIANCE> 39
 7.840714e+01 5.750604e+01 7.020904e+01 7.002406e+01 7.612083e+01 7.307590e+01 6.850153e+01 7.258638e+01 8.439862e+01 5.966909e+01 7.248909e+01 6.000959e+01 1.977950e+02 2.672010e+00 2.747149e+00 2.871691e+00 3.944245e+00 3.883221e+00 3.802408e+00 3.930588e+00 4.504081e+00 3.675715e+00 3.599151e+00 3.486848e+00 2.980001e+00 3.227727e+00 4.079360e-01 4.500519e-01 4.717843e-01 6.886389e-01 6.825188e-01 6.898170e-01 7.310511e-01 8.260186e-01 6.735711e-01 6.712984e-01 6.417684e-01 5.609698e-01 4.849335e-01
<GCONST> 1.373820e+02
<STATE> 4
<MEAN> 39
 -6.165855e+00 -1.205749e+00 -6.132705e-01 -3.097628e+00 -6.547446e+00 -3.986180e+00 -8.311804e+00 -2.303372e+00 -4.132164e+00 -3.765390e-01 -2.807625e+00 -2.919830e+00 5.860718e+01 2.985956e-02 -6.461535e-03 2.964773e-03 -2.232048e-02 3.037936e-03 -9.573998e-03 -1.500783e-02 -8.640192e-03 -7.465298e-03 4.189986e-03 -1.732371e-02 -6.217268e-03 6.676628e-02 -1.061175e-03 3.283355e-04 -5.454919e-05 1.428106e-04 8.781054e-04 2.371026e-04 2.298802e-03 1.009096e-03 -4.169706e-04 3.662068e-04 8.593651e-04 1.117311e-03 -1.949626e-03
<VARIANCE> 39
 8.403320e+01 6.231184e+01 7.420316e+01 7.145308e+01 7.832208e+01 7.352731e+01 6.908828e+01 7.034666e+01 8.133407e+01 5.805455e+01 7.027348e+01 5.809779e+01 2.008564e+02 2.688530e+00 2.940095e+00 2.895391e+00 3.945941e+00 3.830070e+00 3.734889e+00 3.832141e+00 4.361433e+00 3.631669e+00 3.483619e+00 3.407223e+00 2.841394e+00 3.288080e+00 4.056168e-01 4.811781e-01 4.686733e-01 6.883802e-01 6.724474e-01 6.749033e-01 7.093431e-01 7.982776e-01 6.642854e-01 6.484678e-01 6.264769e-01 5.328240e-01 4.868657e-01
<GCONST> 1.372361e+02
<TRANSP> 5
 0.000000e+00 1.000000e+00 0.000000e+00 0.000000e+00 0.000000e+00
 0.000000e+00 6.168326e-01 3.831674e-01 0.000000e+00 0.000000e+00
 0.000000e+00 0.000000e+00 6.168342e-01 3.831658e-01 0.000000e+00
 0.000000e+00 0.000000e+00 0.000000e+00 7.538799e-01 2.461201e-01
 0.000000e+00 0.000000e+00 0.000000e+00 0.000000e+00 0.000000e+00
<ENDHMM>
~h "f"
<BEGINHMM>
<NUMSTATES> 5
<STATE> 2
<MEAN> 39
 -9.826279e+00 -7.862238e-01 -8.003197e-01 -1.317097e+00 -5.763032e+00 -3.925142e+00 -6.193237e+00 -7.132053e-01 -3.916289e+00 5.869150e-02 -2.520080e+00 -1.655219e+00 5.540153e+01 -1.380942e-02 -6.744512e-04 3.508409e-02 1.292355e-03 9.116362e-03 -7.220972e-02 -2.644671e-03 1.966448e-02 -3.145861e-02 -1.853328e-02 1.618196e-02 2.641834e-02 1.623038e-01 2.869536e-04 -4.470652e-04 -1.338787e-03 -3.892909e-03 -1.488926e-03 2.430507e-03 -4.625814e-03 -1.079538e-03 6.772141e-04 2.343633e-03 1.573402e-03 4.680108e-04 -8.240662e-03
<VARIANCE> 39
 7.670519e+01 5.184329e+01 6.203757e+01 5.282141e+01 8.269112e+01 6.923859e+01 6.731454e+01 5.804408e+01 6.234859e+01 4.294596e+01 5.380044e+01 4.579446e+01 2.520764e+02 2.628014e+00 2.306127e+00 2.263576e+00 2.785828e+00 3.443414e+00 3.243633e+00 3.332475e+00 3.129617e+00 2.936863e+00 3.096704e+00 2.769312e+00 2.497285e+00 3.004525e+00 4.244638e-01 3.664543e-01 3.668873e-01 4.912347e-01 5.710834e-01 5.925986e-01 6.167887e-01 5.616030e-01 5.639544e-01 6.003521e-01 5.173548e-01 4.551854e-01 4.104303e-01
<GCONST> 1.307202e+02
<STATE> 3
<MEAN> 39
 -9.886189e+00 -7.855461e-01 -7.119663e-01 -1.298982e+00 -5.733722e+00 -4.107664e+00 -6.197644e+00 -6.488271e-01 -3.974070e+00 3.257763e-02 -2.452142e+00 -1.555600e+00 5.580699e+01 -7.050669e-03 -9.070202e-04 3.033409e-02 -7.885341e-03 -1.432186e-03 -6.883200e-02 -1.927508e-02 1.653802e-02 -3.370975e-02 -1.198174e-02 2.131432e-02 2.411076e-02 1.442861e-01 5.864693e-03 -1.731951e-03 -1.447862e-03 -6.121796e-03 -3.912918e-03 2.720699e-03 -6.721641e-03 -1.494428e-03 -2.436467e-03 1.868318e-03 -5.675310e-04 -2.318970e-03 -3.504290e-03
<VARIANCE> 39
 7.626757e+01 5.206976e+01 6.227589e+01 5.306071e+01 8.359958e+01 6.911481e+01 6.740706e+01 5.711075e+01 6.254818e+01 4.409085e+01 5.301197e+01 4.630424e+01 2.448766e+02 2.737137e+00 2.388744e+00 2.325876e+00 2.836192e+00 3.492447e+00 3.308336e+00 3.437401e+00 3.173865e+00 2.971499e+00 3.166250e+00 2.774887e+00 2.531422e+00 2.968701e+00 4.413070e-01 3.808648e-01 3.751770e-01 4.984654e-01 5.795915e-01 6.018910e-01 6.391273e-01 5.718510e-01 5.700769e-01 6.106557e-01 5.178663e-01 4.603704e-01 4.040340e-01
<GCONST> 1.311786e+02
<STATE> 4
<MEAN> 39
 -9.772505e+00 -1.276664e+00 -7.338149e-01 -1.294951e+00 -5.708155e+00 -3.493130e+00 -6.139909e+00 -1.017971e+00 -4.249231e+00 -4.700871e-01 -2.736878e+00 -1.509375e+00 5.508382e+01 -5.326753e-03 1.005810e-02 1.657331e-02 9.695524e-04 -1.634195e-02 -4.952794e-02 -3.708918e-02 8.644911e-03 -3.678903e-02 -1.085951e-02 2.374777e-02 1.861336e-02 7.353181e-02 8.632379e-03 -6.163816e-04 -4.310614e-04 -4.869079e-03 -3.952779e-03 3.072719e-03 -4.807583e-03 -3.324063e-03 -3.512361e-03 1.876113e-04 -1.931450e-03 -3.613736e-03 -2.783874e-03
<VARIANCE> 39
 8.014854e+01 5.557740e+01 7.288567e+01 5.522142e+01 9.472361e+01 6.288404e+01 6.321143e+01 5.419195e+01 6.105024e+01 4.499722e+01 4.991256e+01 4.412392e+01 2.524724e+02 2.705493e+00 2.495450e+00 2.497609e+00 2.896286e+00 3.357718e+00 3.074163e+00 3.365565e+00 3.217625e+00 2.931724e+00 3.125433e+00 2.649427e+00 2.375980e+00 3.018277e+00 4.173023e-01 4.099478e-01 3.854591e-01 5.003269e-01 5.632347e-01 5.593234e-01 6.298980e-01 5.854781e-01 5.605100e-01 5.982014e-01 4.951589e-01 4.322641e-01 3.881945e-01
<GCONST> 1.309772e+02
<TRANSP> 5
 0.000000e+00 1.000000e+00 0.000000e+00 0.000000e+00 0.000000e+00
 0.000000e+00 6.428918e-01 3.571082e-01 0.000000e+00 0.000000e+00
 0.000000e+00 0.000000e+00 6.428933e-01 3.571067e-01 0.000000e+00
 0.000000e+00 0.000000e+00 0.000000e+00 7.981397e-01 2.018603e-01
 0.000000e+00 0.000000e+00 0.000000e+00 0.000000e+00 0.000000e+00
<ENDHMM>
~h "g"
<BEGINHMM>
<NUMSTATES> 5
<STATE> 2
<MEAN> 39
 -6.797106e+00 -4.934993e-01 4.877514e-02 -2.817892e+00 -6.896450e+00 -3.853029e+00 -8.216585e+00 -2.385786e+00 -4.740366e+00 -2.048755e-01 -1.931338e+00 -2.778911e+00 5.730904e+01 1.198706e-02 -5.162761e-03 2.848567e-02 -1.961736e-03 -1.355786e-02 -1.652245e-02 1.537631e-03 1.309795e-02 1.865764e-03 -6.897338e-03 3.812463e-03 -2.212358e-03 5.195307e-02 -2.815621e-03 -8.728976e-04 -2.837529e-03 5.379802e-04 1.990214e-03 2.482044e-03 2.483803e-03 2.381627e-03 4.505532e-03 1.974457e-03 8.889689e-04 2.699407e-04 -6.316359e-03
<VARIANCE> 39
 7.394348e+01 5.272526e+01 7.817474e+01 6.813338e+01 7.179491e+01 7.229136e+01 7.384346e+01 7.456592e+01 8.635986e+01 5.424876e+01 6.420931e+01 5.294702e+01 2.211795e+02 2.077449e+00 2.310835e+00 2.685162e+00 3.315547e+00 3.788190e+00 3.479077e+00 3.735613e+00 3.868902e+00 3.610704e+00 3.301341e+00 3.266497e+00 2.600801e+00 2.854263e+00 3.349567e-01 3.780003e-01 4.265031e-01 5.649318e-01 6.613181e-01 6.147683e-01 6.855334e-01 6.919004e-01 6.526065e-01 6.157514e-01 5.930119e-01 4.816793e-01 3.982348e-01
<GCONST> 1.341268e+02
<STATE> 3
<MEAN> 39
 -6.752970e+00 -5.122323e-01 1.356829e-01 -2.820353e+00 -6.941621e+00 -3.891679e+00 -8.207629e+00 -2.348684e+00 -4.736201e+00 -2.151203e-01 -1.925703e+00 -2.800108e+00 5.748191e+01 6.893381e-03 -8.084660e-03 2.016628e-02 7.019071e-04 -6.030162e-03 -9.407731e-03 8.005453e-03 1.707374e-02 1.160093e-02 -2.783095e-03 2.814236e-03 -1.438860e-03 3.836304e-02 -2.008139e-03 -1.205305e-03 -2.809837e-03 6.807257e-04 3.025406e-03 1.569007e-03 2.754994e-03 1.765730e-03 3.291969e-03 1.818461e-03 -7.679041e-04 3.501264e-04 -3.549604e-03
<VARIANCE> 39
 7.330178e+01 5.310416e+01 7.881857e+01 6.759386e+01 7.224371e+01 7.266761e+01 7.438565e+01 7.556655e+01 8.701979e+01 5.456373e+01 6.425186e+01 5.352154e+01 2.181109e+02 2.070323e+00 2.317017e+00 2.687213e+00 3.312193e+00 3.798800e+00 3.493919e+00 3.752180e+00 3.884913e+00 3.619023e+00 3.316233e+00 3.270838e+00 2.615655e+00 2.827367e+00 3.327057e-01 3.792474e-01 4.256795e-01 5.649049e-01 6.628916e-01 6.178671e-01 6.881874e-01 6.940185e-01 6.540130e-01 6.195261e-01 5.944156e-01 4.840136e-01 3.922459e-01
<GCONST> 1.341966e+02
<STATE> 4
<MEAN> 39
 -6.674335e+00 -7.438761e-01 -2.704395e-01 -2.539914e+00 -7.151843e+00 -3.068609e+00 -8.124321e+00 -2.109626e+00 -4.650522e+00 -4.230444e-01 -1.681016e+00 -2.968125e+00 5.588138e+01 7.786195e-03 -1.072410e-02 1.607520e-02 1.655702e-03 -1.625982e-04 -6.972112e-03 8.045929e-03 1.314224e-02 8.552474e-03 -8.412495e-04 -5.802451e-03 -4.702544e-03 3.549970e-02 -1.513400e-03 -6.659225e-04 -2.343780e-03 1.814890e-04 2.566589e-03 -2.855132e-05 1.453668e-03 6.925454e-04 1.147074e-03 5.519702e-04 -1.817971e-03 5.096011e-05 -2.148301e-03
<VARIANCE> 39
 8.564432e+01 5.829271e+01 8.387831e+01 6.954233e+01 7.233170e+01 7.233753e+01 7.371915e+01 7.212868e+01 8.315251e+01 5.223234e+01 5.966144e+01 5.077158e+01 2.272968e+02 2.166669e+00 2.545610e+00 2.745148e+00 3.308926e+00 3.677974e+00 3.346096e+00 3.644090e+00 3.747517e+00 3.510343e+00 3.170670e+00 3.111393e+00 2.482757e+00 2.909523e+00 3.383729e-01 4.207388e-01 4.303185e-01 5.678925e-01 6.440789e-01 5.886337e-01 6.648617e-01 6.695606e-01 6.290412e-01 5.930567e-01 5.704513e-01 4.595104e-01 4.014244e-01
<GCONST> 1.340094e+02
<TRANSP> 5
 0.000000e+00 1.000000e+00 0.000000e+00 0.000000e+00 0.000000e+00
 0.000000e+00 6.586259e-01 3.413740e-01 0.000000e+00 0.000000e+00
 0.000000e+00 0.000000e+00 6.586230e-01 3.413770e-01 0.000000e+00
 0.000000e+00 0.000000e+00 0.000000e+00 8.111572e-01 1.888428e-01
 0.000000e+00 0.000000e+00 0.000000e+00 0.000000e+00 0.000000e+00
<ENDHMM>
~h "h"
<BEGINHMM>
<NUMSTATES> 5
<STATE> 2
<MEAN> 39
 -7.342878e+00 -1.554507e+00 -1.022099e+00 -3.454710e+00 -5.563231e+00 -3.633299e+00 -7.093571e+00 -1.303555e+00 -4.004300e+00 -3.935914e-01 -2.431509e+00 -2.198836e+00 5.768005e+01 2.416000e-02 -9.788674e-03 1.777095e-02 -3.278689e-03 1.006916e-02 -8.606903e-03 6.314147e-03 -1.200223e-02 1.464515e-03 -1.237948e-02 -1.822626e-02 1.207435e-02 5.405993e-02 -2.912481e-03 1.982063e-03 1.913504e-04 1.293411e-03 -1.636583e-03 1.968770e-03 2.094953e-04 -7.004417e-04 2.854308e-03 1.402120e-03 1.162637e-03 5.056849e-04 -8.582705e-03
<VARIANCE> 39
 7.244285e+01 5.379354e+01 6.967149e+01 7.893560e+01 8.063805e+01 6.778261e+01 7.141383e+01 7.231033e+01 8.015894e+01 5.543976e+01 6.402402e+01 6.053959e+01 2.387345e+02 1.918916e+00 2.216336e+00 2.447337e+00 3.248559e+00 3.423097e+00 3.249689e+00 3.572169e+00 3.671984e+00 3.271886e+00 3.170610e+00 3.096661e+00 2.584006e+00 2.732399e+00 2.980020e-01 3.530760e-01 3.871213e-01 5.541350e-01 5.792855e-01 5.909557e-01 6.561723e-01 6.562358e-01 5.881956e-01 5.862215e-01 5.747101e-01 4.748009e-01 3.783333e-01
<GCONST> 1.327374e+02
<STATE> 3
<MEAN> 39
 -7.270577e+00 -1.588237e+00 -9.704446e-01 -3.470354e+00 -5.536918e+00 -3.655819e+00 -7.063385e+00 -1.349304e+00 -3.993735e+00 -4.389076e-01 -2.476459e+00 -2.160274e+00 5.783450e+01 1.830066e-02 -6.604960e-03 1.708891e-02 1.267773e-03 8.275161e-03 -3.678414e-03 6.098568e-03 -1.307854e-02 7.875814e-03 -9.456329e-03 -1.645056e-02 1.407408e-02 3.727962e-02 -2.119373e-03 1.584920e-03 -8.770812e-05 1.345679e-03 -6.198839e-04 1.227705e-03 -3.902408e-04 -2.319632e-04 1.080246e-03 1.131473e-04 8.274267e-04 1.148819e-04 -4.542856e-03
<VARIANCE> 39
 7.172870e+01 5.414240e+01 6.926025e+01 7.872364e+01 8.149068e+01 6.791960e+01 7.131470e+01 7.276604e+01 8.041683e+01 5.548662e+01 6.477751e+01 6.089237e+01 2.335925e+02 1.909345e+00 2.234760e+00 2.460149e+00 3.259961e+00 3.440980e+00 3.288172e+00 3.581766e+00 3.698929e+00 3.287426e+00 3.179862e+00 3.126345e+00 2.578318e+00 2.691913e+00 2.959132e-01 3.556635e-01 3.894108e-01 5.557184e-01 5.826759e-01 5.988708e-01 6.584138e-01 6.602961e-01 5.903724e-01 5.890599e-01 5.807619e-01 4.736066e-01 3.709337e-01
<GCONST> 1.328161e+02
<STATE> 4
<MEAN> 39
 -7.509336e+00 -1.653347e+00 -1.196968e+00 -2.893635e+00 -5.884526e+00 -3.108893e+00 -6.855259e+00 -1.399393e+00 -3.951092e+00 -8.816886e-01 -2.324415e+00 -2.127429e+00 5.586393e+01 1.904119e-02 -3.353981e-03 1.436144e-02 3.949336e-03 4.222175e-03 -6.529093e-04 1.775160e-03 -1.337290e-02 5.544337e-03 -1.345172e-02 -1.281983e-02 6.896255e-03 3.038340e-02 -1.061500e-03 1.624078e-03 -2.629862e-04 1.275284e-03 -5.286468e-04 3.293291e-04 -1.057901e-03 9.843748e-05 -1.123333e-03 -5.828263e-04 4.053625e-04 -1.233164e-03 -1.871066e-03
<VARIANCE> 39
 7.961672e+01 5.761137e+01 7.090282e+01 7.761667e+01 8.168491e+01 6.638934e+01 6.911755e+01 6.633890e+01 7.560207e+01 5.193377e+01 5.985745e+01 5.727617e+01 2.428291e+02 1.956383e+00 2.390334e+00 2.426398e+00 3.186096e+00 3.292107e+00 3.124755e+00 3.392900e+00 3.477429e+00 3.163786e+00 2.942912e+00 2.991436e+00 2.370259e+00 2.679677e+00 2.940932e-01 3.818740e-01 3.806066e-01 5.431325e-01 5.613888e-01 5.676563e-01 6.226240e-01 6.267285e-01 5.693085e-01 5.461938e-01 5.585799e-01 4.358952e-01 3.593606e-01
<GCONST> 1.317683e+02
<TRANSP> 5
 0.000000e+00 1.000000e+00 0.000000e+00 0.000000e+00 0.000000e+00
 0.000000e+00 6.593536e-01 3.406464e-01 0.000000e+00 0.000000e+00
 0.000000e+00 0.000000e+00 6.593522e-01 3.406478e-01 0.000000e+00
 0.000000e+00 0.000000e+00 0.000000e+00 8.145869e-01 1.854131e-01
 0.000000e+00 0.000000e+00 0.000000e+00 0.000000e+00 0.000000e+00
<ENDHMM>
~h "i"
<BEGINHMM>
<NUMSTATES> 5
<STATE> 2
<MEAN> 39
 -7.162019e+00 -5.436985e-01 1.352659e+00 -2.776178e+00 -7.819148e+00 -4.923348e+00 -7.871205e+00 -2.271585e+00 -5.374658e+00 -1.563711e-01 -2.290763e+00 -2.376673e+00 5.899473e+01 7.596363e-03 -3.407856e-03 1.471077e-02 -1.524682e-03 -1.389455e-02 -2.440495e-02 -5.140678e-03 9.909580e-04 -1.329561e-02 -6.008658e-03 -5.352668e-03 2.229846e-04 4.346986e-02 -2.609543e-04 -4.603898e-05 -3.903967e-03 -2.535305e-04 3.237946e-03 2.305660e-03 1.944262e-04 1.124012e-03 2.371809e-03 2.782505e-04 -1.119934e-03 -5.307625e-04 -2.645482e-03
<VARIANCE> 39
 7.158778e+01 5.767161e+01 8.919993e+01 6.410191e+01 8.188432e+01 7.659135e+01 7.190544e+01 7.044184e+01 8.690308e+01 5.685600e+01 7.080446e+01 5.719249e+01 2.000366e+02 2.434642e+00 2.549434e+00 3.084471e+00 3.485616e+00 4.294947e+00 3.752540e+00 3.947504e+00 4.142219e+00 3.779630e+00 3.472604e+00 3.313048e+00 2.785815e+00 3.092185e+00 3.811476e-01 4.133013e-01 4.764795e-01 6.058726e-01 7.305115e-01 6.791629e-01 7.238276e-01 7.560585e-01 6.787415e-01 6.519668e-01 6.076218e-01 5.182203e-01 4.419220e-01
<GCONST> 1.365573e+02
<STATE> 3
<MEAN> 39
 -7.139806e+00 -5.544459e-01 1.389297e+00 -2.780186e+00 -7.850450e+00 -4.986589e+00 -7.888571e+00 -2.267358e+00 -5.403175e+00 -1.718862e-01 -2.310042e+00 -2.379267e+00 5.910730e+01 7.075955e-03 -3.617956e-03 5.269310e-03 -1.136696e-03 -4.300131e-03 -1.868441e-02 -4.500261e-03 3.345633e-03 -7.661760e-03 -4.392899e-03 -8.012408e-03 -5.909177e-04 3.859435e-02 -2.803505e-04 2.908480e-05 -3.626882e-03 2.225434e-04 4.096987e-03 2.426115e-03 4.956470e-04 6.225319e-04 2.200374e-03 5.580111e-04 -7.934913e-04 -1.130552e-04 -1.736393e-03
<VARIANCE> 39
 7.123281e+01 5.785641e+01 8.897070e+01 6.380249e+01 8.227332e+01 7.641191e+01 7.212627e+01 7.072653e+01 8.735513e+01 5.700583e+01 7.077271e+01 5.757368e+01 1.975909e+02 2.449172e+00 2.561504e+00 3.093694e+00 3.479918e+00 4.299878e+00 3.774338e+00 3.953831e+00 4.166630e+00 3.800275e+00 3.479009e+00 3.312299e+00 2.801236e+00 3.075445e+00 3.831287e-01 4.150381e-01 4.776873e-01 6.049413e-01 7.322372e-01 6.832543e-01 7.249826e-01 7.612396e-01 6.821313e-01 6.535063e-01 6.078573e-01 5.202910e-01 4.388931e-01
<GCONST> 1.366250e+02
<STATE> 4
<MEAN> 39
 -6.976201e+00 -7.440587e-01 1.197607e+00 -2.699517e+00 -7.875482e+00 -4.594654e+00 -7.972885e+00 -2.263071e+00 -5.361763e+00 -3.239149e-01 -2.176274e+00 -2.507012e+00 5.833264e+01 6.194689e-03 -2.291521e-03 -1.451495e-03 5.875416e-04 5.802792e-03 -1.324935e-02 -3.906264e-03 3.053970e-03 -3.054110e-03 -2.776669e-03 -9.147570e-03 -5.886186e-04 3.354222e-02 -5.427195e-05 1.295446e-04 -2.663098e-03 3.761770e-04 3.383231e-03 2.178516e-03 4.819243e-04 7.039902e-05 1.481365e-03 -3.246190e-04 -5.118191e-04 3.398243e-04 -1.589431e-03
<VARIANCE> 39
 7.678001e+01 6.092057e+01 9.113802e+01 6.475828e+01 8.221723e+01 7.666447e+01 7.182835e+01 7.023520e+01 8.518476e+01 5.605765e+01 6.828275e+01 5.691279e+01 2.016297e+02 2.517173e+00 2.704946e+00 3.122379e+00 3.482498e+00 4.213840e+00 3.724863e+00 3.884756e+00 4.124340e+00 3.771264e+00 3.399512e+00 3.246538e+00 2.744311e+00 3.123517e+00 3.897652e-01 4.392568e-01 4.791720e-01 6.029220e-01 7.176807e-01 6.725471e-01 7.110158e-01 7.525753e-01 6.754561e-01 6.371328e-01 5.956433e-01 5.091199e-01 4.420996e-01
<GCONST> 1.366247e+02
<TRANSP> 5
 0.000000e+00 1.000000e+00 0.000000e+00 0.000000e+00 0.000000e+00
 0.000000e+00 6.229359e-01 3.770641e-01 0.000000e+00 0.000000e+00
 0.000000e+00 0.000000e+00 6.229395e-01 3.770605e-01 0.000000e+00
 0.000000e+00 0.000000e+00 0.000000e+00 7.552510e-01 2.447490e-01
 0.000000e+00 0.000000e+00 0.000000e+00 0.000000e+00 0.000000e+00
<ENDHMM>
~h "j"
<BEGINHMM>
<NUMSTATES> 5
<STATE> 2
<MEAN> 39
 -7.130894e+00 -6.616142e-01 4.804794e-01 -2.347846e+00 -6.515163e+00 -4.730115e+00 -7.766369e+00 -1.643333e+00 -4.596552e+00 -3.341753e-01 -2.306941e+00 -1.907967e+00 5.768156e+01 7.934030e-03 -8.202029e-03 1.436357e-02 4.141901e-03 7.128278e-04 -2.826968e-02 -1.937047e-02 -6.641499e-03 1.838075e-03 -1.842922e-02 -1.025558e-02 -2.542692e-03 6.811079e-02 -3.176686e-03 2.353835e-03 -4.634669e-03 2.335877e-03 -3.212036e-03 6.634916e-03 1.349833e-03 2.354393e-03 2.767878e-03 -1.212458e-03 2.277065e-04 -2.827884e-03 -1.725673e-02
<VARIANCE> 39
 7.279391e+01 5.364069e+01 7.388644e+01 6.271413e+01 7.364162e+01 7.951959e+01 7.591930e+01 6.770758e+01 8.362142e+01 5.138224e+01 6.822264e+01 5.597238e+01 2.224919e+02 2.370054e+00 2.690963e+00 2.611902e+00 3.387329e+00 4.019672e+00 3.576395e+00 3.756473e+00 3.980915e+00 3.505622e+00 3.258058e+00 3.196191e+00 2.603005e+00 2.964206e+00 4.000278e-01 4.314459e-01 4.368616e-01 5.932876e-01 7.072653e-01 6.456993e-01 6.956908e-01 7.204009e-01 6.416286e-01 6.085185e-01 5.884695e-01 4.857069e-01 4.170410e-01
<GCONST> 1.350217e+02
<STATE> 3
<MEAN> 39
 -7.106729e+00 -6.808318e-01 5.109283e-01 -2.342338e+00 -6.518167e+00 -4.778497e+00 -7.804454e+00 -1.650955e+00 -4.573808e+00 -3.729758e-01 -2.340662e+00 -1.925422e+00 5.784164e+01 3.510802e-03 -4.827103e-03 3.048560e-03 1.001985e-02 -2.594801e-03 -1.215632e-02 -1.534786e-02 2.990171e-03 7.748920e-03 -1.872122e-02 -9.020682e-03 -8.142816e-03 3.941901e-02 -1.044634e-04 1.217964e-03 -3.416589e-03 1.654738e-03 -1.326660e-03 5.714246e-03 1.799230e-03 2.757014e-03 6.447621e-04 4.624543e-04 1.127886e-03 -2.071893e-03 -8.732566e-03
<VARIANCE> 39
 7.226746e+01 5.345635e+01 7.370226e+01 6.223654e+01 7.408516e+01 7.906532e+01 7.669043e+01 6.818830e+01 8.386456e+01 5.120514e+01 6.814166e+01 5.630576e+01 2.188873e+02 2.361534e+00 2.701341e+00 2.611276e+00 3.401153e+00 4.058193e+00 3.594525e+00 3.738997e+00 4.007108e+00 3.494191e+00 3.257853e+00 3.216208e+00 2.619311e+00 2.871411e+00 3.966064e-01 4.338394e-01 4.380268e-01 5.940821e-01 7.140702e-01 6.471227e-01 6.907496e-01 7.227188e-01 6.398062e-01 6.078393e-01 5.901894e-01 4.881179e-01 3.996148e-01
<GCONST> 1.349741e+02
<STATE> 4
<MEAN> 39
 -6.694950e+00 -9.658552e-01 6.615764e-02 -2.492394e+00 -6.638126e+00 -4.102697e+00 -8.031373e+00 -1.774505e+00 -4.608767e+00 -4.925756e-01 -2.123166e+00 -2.309881e+00 5.716751e+01 1.759907e-03 -1.469713e-03 -1.997691e-03 9.718092e-03 -3.171198e-03 -4.462460e-04 -6.215370e-03 7.770848e-03 8.393676e-03 -1.281277e-02 -6.828969e-03 -1.090538e-02 2.051855e-02 -1.798916e-04 8.429867e-04 -1.547481e-03 -1.995135e-05 -6.442677e-04 2.616852e-03 1.252995e-03 6.399720e-04 -8.483202e-04 1.302223e-03 1.967394e-03 -1.269202e-03 -4.331647e-03
<VARIANCE> 39
 7.983706e+01 5.698526e+01 7.650182e+01 6.617043e+01 7.410233e+01 7.961164e+01 7.825027e+01 6.800951e+01 8.044782e+01 4.955064e+01 6.497683e+01 5.700102e+01 2.184929e+02 2.470532e+00 2.844427e+00 2.671330e+00 3.514130e+00 4.004550e+00 3.530787e+00 3.691099e+00 4.029636e+00 3.496246e+00 3.198824e+00 3.188142e+00 2.600997e+00 2.903376e+00 4.061829e-01 4.611909e-01 4.386878e-01 6.101487e-01 7.032906e-01 6.291280e-01 6.761084e-01 7.216650e-01 6.354213e-01 5.977328e-01 5.836211e-01 4.831553e-01 3.996263e-01
<GCONST> 1.352424e+02
<TRANSP> 5
 0.000000e+00 1.000000e+00 0.000000e+00 0.000000e+00 0.000000e+00
 0.000000e+00 6.378193e-01 3.621807e-01 0.000000e+00 0.000000e+00
 0.000000e+00 0.000000e+00 6.378201e-01 3.621800e-01 0.000000e+00
 0.000000e+00 0.000000e+00 0.000000e+00 7.746539e-01 2.253461e-01
 0.000000e+00 0.000000e+00 0.000000e+00 0.000000e+00 0.000000e+00
<ENDHMM>
~h "k"
<BEGINHMM>
<NUMSTATES> 5
<STATE> 2
<MEAN> 39
 -7.001159e+00 -1.364046e+00 -8.456981e-01 -3.273845e+00 -6.000330e+00 -4.120246e+00 -7.336708e+00 -1.682209e+00 -4.073793e+00 -3.182074e-02 -2.735426e+00 -2.737860e+00 5.783722e+01 3.525158e-02 -2.069123e-02 1.282049e-02 -3.263296e-02 -7.259137e-03 -2.710645e-02 -8.148977e-03 -3.585588e-03 -1.585277e-02 -1.026042e-03 -2.008926e-02 -1.176756e-02 9.009083e-02 -2.296350e-03 1.479036e-03 -1.342096e-03 1.757630e-03 -1.617851e-03 2.982832e-03 9.589058e-04 1.274619e-03 2.301831e-03 9.384293e-04 1.823739e-03 -8.233027e-05 -1.291493e-02
<VARIANCE> 39
 7.316521e+01 5.506833e+01 7.256322e+01 6.964312e+01 7.544399e+01 7.477747e+01 6.671565e+01 6.935490e+01 7.810943e+01 5.569516e+01 6.847955e+01 5.972865e+01 2.292123e+02 2.205319e+00 2.462912e+00 2.780262e+00 3.568320e+00 3.806328e+00 3.587513e+00 3.747912e+00 4.045464e+00 3.520730e+00 3.412965e+00 3.261226e+00 2.852770e+00 3.287401e+00 3.472712e-01 4.005238e-01 4.547354e-01 6.178432e-01 6.648527e-01 6.475381e-01 6.931901e-01 7.333254e-01 6.463651e-01 6.414554e-01 6.044266e-01 5.261146e-01 4.689577e-01
<GCONST> 1.353945e+02
<STATE> 3
<MEAN> 39
 -6.899422e+00 -1.426646e+00 -8.177779e-01 -3.360134e+00 -6.020087e+00 -4.179503e+00 -7.353041e+00 -1.687729e+00 -4.102235e+00 -2.805600e-02 -2.787918e+00 -2.774998e+00 5.806503e+01 3.248057e-02 -1.696333e-02 9.704022e-03 -2.823702e-02 -7.877730e-03 -1.943211e-02 -6.128065e-03 4.174905e-04 -1.091296e-02 1.342912e-03 -1.764841e-02 -1.245970e-02 7.118154e-02 -3.264237e-04 1.492515e-03 -5.062887e-04 2.191016e-03 1.994020e-04 2.973571e-03 7.205418e-04 6.773164e-04 1.291375e-03 6.744481e-04 5.916571e-04 -1.261789e-04 -5.648742e-03
<VARIANCE> 39
 7.245918e+01 5.524788e+01 7.297289e+01 6.987631e+01 7.611980e+01 7.479303e+01 6.722433e+01 6.958791e+01 7.869704e+01 5.616597e+01 6.899508e+01 6.012790e+01 2.248568e+02 2.194061e+00 2.473427e+00 2.799057e+00 3.584199e+00 3.817672e+00 3.603562e+00 3.766935e+00 4.054820e+00 3.537722e+00 3.425911e+00 3.277385e+00 2.867253e+00 3.185063e+00 3.445585e-01 4.027950e-01 4.572156e-01 6.206127e-01 6.673627e-01 6.509315e-01 6.965209e-01 7.351309e-01 6.494543e-01 6.435257e-01 6.069719e-01 5.289218e-01 4.549797e-01
<GCONST> 1.354514e+02
<STATE> 4
<MEAN> 39
 -6.701322e+00 -1.633169e+00 -8.373278e-01 -3.195616e+00 -6.274845e+00 -3.764085e+00 -7.443057e+00 -1.675260e+00 -4.148818e+00 -2.392709e-01 -2.634354e+00 -2.914829e+00 5.729549e+01 3.265492e-02 -1.285078e-02 1.029485e-02 -2.199581e-02 -5.959822e-03 -1.120076e-02 -5.871204e-03 -1.650202e-03 -9.764155e-03 -1.101051e-03 -1.731456e-02 -1.127311e-02 6.497560e-02 -2.081601e-04 1.651032e-03 2.735297e-04 2.098786e-03 7.527017e-04 2.381617e-03 1.469604e-04 -7.093434e-04 -1.187595e-05 -4.518436e-04 3.975347e-05 2.910347e-04 -2.484119e-03
<VARIANCE> 39
 7.829359e+01 5.909223e+01 7.573589e+01 7.159350e+01 7.724503e+01 7.522727e+01 6.792297e+01 6.754284e+01 7.662357e+01 5.475468e+01 6.731774e+01 5.815649e+01 2.273632e+02 2.238499e+00 2.645391e+00 2.854317e+00 3.601992e+00 3.766245e+00 3.554734e+00 3.731223e+00 3.977023e+00 3.520061e+00 3.347087e+00 3.231026e+00 2.778262e+00 3.203172e+00 3.464209e-01 4.315455e-01 4.606729e-01 6.219772e-01 6.560326e-01 6.401622e-01 6.884894e-01 7.215096e-01 6.436176e-01 6.280820e-01 5.980870e-01 5.126370e-01 4.486498e-01
<GCONST> 1.354734e+02
<TRANSP> 5
 0.000000e+00 1.000000e+00 0.000000e+00 0.000000e+00 0.000000e+00
 0.000000e+00 6.296906e-01 3.703094e-01 0.000000e+00 0.000000e+00
 0.000000e+00 0.000000e+00 6.296928e-01 3.703072e-01 0.000000e+00
 0.000000e+00 0.000000e+00 0.000000e+00 7.658734e-01 2.341266e-01
 0.000000e+00 0.000000e+00 0.000000e+00 0.000000e+00 0.000000e+00
<ENDHMM>
~h "l"
<BEGINHMM>
<NUMSTATES> 5
<STATE> 2
<MEAN> 39
 -6.408816e+00 -1.224878e+00 -7.652634e-01 -4.365316e+00 -5.778348e+00 -4.264202e+00 -8.355500e+00 -2.249710e+00 -3.969813e+00 3.479315e-01 -2.766246e+00 -3.036407e+00 6.000898e+01 1.913521e-02 -1.297682e-02 -2.438479e-03 -2.991174e-02 7.029092e-03 -2.394166e-03 -4.514257e-03 -4.156963e-03 -2.408836e-03 1.111741e-03 -7.373491e-03 -8.172600e-03 6.007023e-02 -2.759365e-03 1.261481e-03 -1.424565e-03 1.896123e-03 -1.362827e-03 7.630779e-04 2.534837e-03 -2.119070e-04 7.183703e-04 -8.172893e-04 1.654748e-03 1.617414e-03 -5.291327e-03
<VARIANCE> 39
 7.633215e+01 5.748124e+01 7.483002e+01 7.894121e+01 8.083888e+01 7.134260e+01 7.342545e+01 7.577840e+01 8.558276e+01 6.096183e+01 7.046361e+01 6.624719e+01 2.040321e+02 2.524489e+00 2.656323e+00 2.875273e+00 3.814834e+00 3.891138e+00 3.577171e+00 3.886692e+00 4.262517e+00 3.613146e+00 3.551376e+00 3.332248e+00 2.887399e+00 3.003661e+00 3.757694e-01 4.254440e-01 4.598323e-01 6.378568e-01 6.646559e-01 6.340192e-01 7.062622e-01 7.671530e-01 6.492099e-01 6.547829e-01 6.128931e-01 5.254365e-01 4.201126e-01
<GCONST> 1.366200e+02
<STATE> 3
<MEAN> 39
 -6.349487e+00 -1.259435e+00 -7.622551e-01 -4.444500e+00 -5.767857e+00 -4.272751e+00 -8.365600e+00 -2.265501e+00 -3.982142e+00 3.491251e-01 -2.781115e+00 -3.053582e+00 6.018525e+01 1.243163e-02 -1.066313e-02 -4.470777e-03 -2.478334e-02 3.338922e-03 -7.318100e-04 1.632669e-03 -5.090903e-03 -2.325798e-03 -9.449574e-04 -3.822389e-03 -3.652054e-03 4.957204e-02 -2.624041e-03 1.083497e-03 -8.793845e-04 1.775269e-03 -1.696811e-03 -5.612499e-06 1.794275e-03 -1.097111e-03 -1.159902e-04 -5.088957e-04 1.372412e-03 1.291295e-03 -3.715975e-03
<VARIANCE> 39
 7.567262e+01 5.812087e+01 7.467004e+01 7.902596e+01 8.117118e+01 7.148347e+01 7.383248e+01 7.618430e+01 8.540649e+01 6.112610e+01 7.058136e+01 6.634215e+01 2.002252e+02 2.534451e+00 2.661638e+00 2.870783e+00 3.833230e+00 3.885337e+00 3.584723e+00 3.901168e+00 4.263645e+00 3.617384e+00 3.574404e+00 3.347538e+00 2.898611e+00 2.972076e+00 3.766280e-01 4.246841e-01 4.590726e-01 6.412838e-01 6.624596e-01 6.353695e-01 7.097706e-01 7.682927e-01 6.500152e-01 6.599014e-01 6.159042e-01 5.277034e-01 4.151941e-01
<GCONST> 1.366583e+02
<STATE> 4
<MEAN> 39
 -6.148745e+00 -1.408516e+00 -7.590637e-01 -4.359906e+00 -5.996416e+00 -3.994444e+00 -8.361949e+00 -2.274668e+00 -4.122629e+00 1.185713e-01 -2.604923e+00 -3.067772e+00 5.961784e+01 1.078930e-02 -9.429432e-03 1.130467e-03 -2.084355e-02 -2.869845e-03 -2.925637e-03 2.938101e-03 -7.745594e-03 -5.712974e-03 -3.084004e-03 -1.004989e-03 4.171653e-04 4.835644e-02 -1.896374e-03 1.213668e-03 4.474180e-04 1.705398e-03 -1.662490e-03 -7.004944e-04 5.573645e-04 -1.697455e-03 -8.208827e-04 -4.528454e-04 5.378971e-04 9.239799e-04 -2.483833e-03
<VARIANCE> 39
 7.989388e+01 6.222288e+01 7.863498e+01 8.075993e+01 8.293141e+01 7.266312e+01 7.419442e+01 7.512665e+01 8.311174e+01 6.005186e+01 6.903916e+01 6.453883e+01 2.024138e+02 2.598603e+00 2.811348e+00 2.920664e+00 3.899861e+00 3.879005e+00 3.574337e+00 3.925042e+00 4.213462e+00 3.616118e+00 3.527673e+00 3.318969e+00 2.834465e+00 3.035404e+00 3.848775e-01 4.442477e-01 4.615538e-01 6.555992e-01 6.612070e-01 6.306973e-01 7.133564e-01 7.610563e-01 6.484435e-01 6.517510e-01 6.127028e-01 5.188111e-01 4.211828e-01
<GCONST> 1.369375e+02
<TRANSP> 5
 0.000000e+00 1.000000e+00 0.000000e+00 0.000000e+00 0.000000e+00
 0.000000e+00 6.152126e-01 3.847875e-01 0.000000e+00 0.000000e+00
 0.000000e+00 0.000000e+00 6.152126e-01 3.847874e-01 0.000000e+00
 0.000000e+00 0.000000e+00 0.000000e+00 7.455862e-01 2.544138e-01
 0.000000e+00 0.000000e+00 0.000000e+00 0.000000e+00 0.000000e+00
<ENDHMM>
~h "m"
<BEGINHMM>
<NUMSTATES> 5
<STATE> 2
<MEAN> 39
 -6.007818e+00 -9.741140e-01 -2.225816e-01 -3.237933e+00 -6.072348e+00 -3.636402e+00 -7.843138e+00 -2.564750e+00 -4.642429e+00 -2.589346e-01 -3.462152e+00 -2.870387e+00 5.918486e+01 2.694915e-02 -2.019605e-03 1.512148e-02 -1.256434e-02 1.209801e-02 4.075051e-03 -8.299315e-03 -3.024620e-02 -2.297815e-02 -1.307219e-02 -2.443281e-02 -4.607365e-03 5.523875e-02 -3.918972e-03 1.915581e-04 -1.158741e-03 6.067132e-04 -9.649083e-04 2.395213e-03 1.652955e-03 2.973621e-03 1.541549e-03 1.317100e-03 1.918296e-03 1.121296e-04 -1.145774e-02
<VARIANCE> 39
 7.406507e+01 5.683075e+01 7.228294e+01 7.096384e+01 7.741828e+01 7.058169e+01 6.845958e+01 7.103820e+01 8.193052e+01 6.186829e+01 7.340826e+01 5.977663e+01 2.033514e+02 2.321342e+00 2.543169e+00 2.822322e+00 3.830494e+00 3.783310e+00 3.539810e+00 3.689354e+00 4.488753e+00 3.545685e+00 3.453127e+00 3.348830e+00 2.765722e+00 3.005244e+00 3.512039e-01 4.027880e-01 4.576279e-01 6.587666e-01 6.540102e-01 6.355253e-01 6.816016e-01 8.122974e-01 6.449925e-01 6.311685e-01 6.081913e-01 5.138161e-01 4.240951e-01
<GCONST> 1.357383e+02
<STATE> 3
<MEAN> 39
 -5.937061e+00 -9.879951e-01 -1.871373e-01 -3.270281e+00 -6.033437e+00 -3.622121e+00 -7.854906e+00 -2.622164e+00 -4.690724e+00 -2.896285e-01 -3.525156e+00 -2.885804e+00 5.931361e+01 1.924090e-02 -3.309524e-03 1.061574e-02 -9.750980e-03 1.148797e-02 8.786566e-03 -3.524653e-03 -2.099849e-02 -1.910601e-02 -1.052500e-02 -2.031245e-02 -3.895420e-03 3.613787e-02 -2.711401e-03 -4.159699e-04 -1.173140e-03 1.149622e-03 -7.140068e-04 1.054713e-03 2.201324e-03 3.672110e-03 1.263025e-03 1.262396e-03 1.581521e-03 9.852604e-04 -5.975004e-03
<VARIANCE> 39
 7.345913e+01 5.690736e+01 7.246642e+01 7.082141e+01 7.752993e+01 7.065746e+01 6.854655e+01 7.126329e+01 8.207851e+01 6.226267e+01 7.383688e+01 5.990799e+01 1.994651e+02 2.308778e+00 2.547589e+00 2.829134e+00 3.837892e+00 3.787948e+00 3.534652e+00 3.675458e+00 4.496815e+00 3.547204e+00 3.449828e+00 3.351829e+00 2.772668e+00 2.899545e+00 3.485248e-01 4.044564e-01 4.599468e-01 6.601066e-01 6.568750e-01 6.348683e-01 6.791177e-01 8.137967e-01 6.457433e-01 6.308289e-01 6.071147e-01 5.146952e-01 4.106997e-01
<GCONST> 1.356750e+02
<STATE> 4
<MEAN> 39
 -5.956346e+00 -1.121150e+00 -3.580226e-01 -3.161940e+00 -6.012125e+00 -3.278816e+00 -7.814848e+00 -2.541331e+00 -4.676812e+00 -4.465992e-01 -3.441503e+00 -2.938917e+00 5.851178e+01 1.576436e-02 -6.616822e-03 5.894130e-03 -5.586544e-03 9.834915e-03 8.763687e-03 2.163158e-03 -1.092567e-02 -1.481519e-02 -9.855426e-03 -1.515412e-02 -1.296911e-03 3.101948e-02 -2.339313e-03 -7.862839e-05 -1.193130e-03 1.692119e-03 -7.892181e-04 -3.969058e-05 1.905144e-03 2.741932e-03 8.487119e-04 1.013990e-03 1.644334e-03 1.275580e-03 -3.324504e-03
<VARIANCE> 39
 7.763363e+01 5.884502e+01 7.370921e+01 7.170452e+01 7.737044e+01 7.145306e+01 6.789471e+01 6.918970e+01 7.965083e+01 6.021198e+01 7.257346e+01 5.859392e+01 2.067156e+02 2.329226e+00 2.620393e+00 2.849723e+00 3.830392e+00 3.740380e+00 3.500507e+00 3.614321e+00 4.348965e+00 3.512843e+00 3.354345e+00 3.274506e+00 2.709292e+00 2.894224e+00 3.485970e-01 4.181900e-01 4.617164e-01 6.584153e-01 6.477172e-01 6.265237e-01 6.657096e-01 7.881848e-01 6.393392e-01 6.143180e-01 5.933158e-01 5.028506e-01 4.032741e-01
<GCONST> 1.354342e+02
<TRANSP> 5
 0.000000e+00 1.000000e+00 0.000000e+00 0.000000e+00 0.000000e+00
 0.000000e+00 6.105254e-01 3.894746e-01 0.000000e+00 0.000000e+00
 0.000000e+00 0.000000e+00 6.105232e-01 3.894768e-01 0.000000e+00
 0.000000e+00 0.000000e+00 0.000000e+00 7.351775e-01 2.648225e-01
 0.000000e+00 0.000000e+00 0.000000e+00 0.000000e+00 0.000000e+00
<ENDHMM>
~h "n"
<BEGINHMM>
<NUMSTATES> 5
<STATE> 2
<MEAN> 39
 -5.891744e+00 -1.571192e+00 3.476527e-01 -2.891187e+00 -6.410650e+00 -4.646956e+00 -7.833170e+00 -1.916415e+00 -4.216272e+00 -6.874324e-01 -4.135158e+00 -2.920535e+00 5.983230e+01 -4.483610e-04 6.928323e-03 1.452906e-02 2.075517e-02 9.625041e-03 -7.858099e-04 4.824290e-03 -4.658605e-03 -4.663747e-04 -8.141857e-03 -7.550963e-03 6.409510e-03 -2.365179e-03 -3.328375e-03 1.052161e-03 -4.052449e-03 -3.425651e-04 1.856945e-03 1.354671e-03 1.987480e-03 6.063108e-05 1.247919e-03 6.507990e-04 2.962601e-03 1.235263e-03 -2.126462e-03
<VARIANCE> 39
 6.725115e+01 6.034534e+01 7.452102e+01 6.466724e+01 7.805815e+01 7.218124e+01 7.022702e+01 7.234240e+01 8.427684e+01 5.804912e+01 7.962277e+01 6.346135e+01 1.905292e+02 2.246143e+00 2.684129e+00 2.808661e+00 3.638207e+00 3.751159e+00 3.538623e+00 3.684550e+00 4.485249e+00 3.544353e+00 3.498110e+00 3.488407e+00 2.814376e+00 3.099164e+00 3.537167e-01 4.339613e-01 4.526138e-01 6.294439e-01 6.577345e-01 6.426759e-01 6.835339e-01 8.154194e-01 6.518370e-01 6.526027e-01 6.228974e-01 5.228566e-01 4.407035e-01
<GCONST> 1.359819e+02
<STATE> 3
<MEAN> 39
 -5.894406e+00 -1.553432e+00 3.763247e-01 -2.838764e+00 -6.373310e+00 -4.643107e+00 -7.819733e+00 -1.923736e+00 -4.213844e+00 -7.088166e-01 -4.157097e+00 -2.895879e+00 5.982406e+01 -9.396812e-03 9.388732e-03 4.370468e-03 1.970001e-02 1.444384e-02 3.002078e-03 9.671545e-03 -4.431400e-03 2.350538e-03 -6.074278e-03 1.223362e-03 9.260527e-03 -5.771898e-03 -3.288473e-03 9.279071e-04 -3.983801e-03 -7.884678e-04 1.552460e-03 1.643766e-03 9.552384e-04 2.518886e-04 9.278412e-04 4.301925e-04 3.082810e-03 1.148365e-03 -5.830622e-04
<VARIANCE> 39
 6.704000e+01 6.043582e+01 7.435117e+01 6.470745e+01 7.846748e+01 7.195927e+01 7.071979e+01 7.209483e+01 8.456007e+01 5.827613e+01 7.972587e+01 6.350911e+01 1.886391e+02 2.254214e+00 2.702118e+00 2.812801e+00 3.640150e+00 3.756267e+00 3.531962e+00 3.681295e+00 4.476887e+00 3.538468e+00 3.500224e+00 3.500211e+00 2.806132e+00 3.090254e+00 3.553737e-01 4.375088e-01 4.538711e-01 6.300524e-01 6.582705e-01 6.418405e-01 6.835635e-01 8.150529e-01 6.516749e-01 6.532320e-01 6.229096e-01 5.213863e-01 4.407936e-01
<GCONST> 1.360030e+02
<STATE> 4
<MEAN> 39
 -5.757401e+00 -1.791927e+00 1.643313e-01 -2.681338e+00 -6.398238e+00 -4.063102e+00 -7.886518e+00 -1.823773e+00 -4.195539e+00 -8.508847e-01 -3.882972e+00 -2.928682e+00 5.886704e+01 -1.487526e-02 1.086092e-02 -4.952617e-03 1.397404e-02 1.893745e-02 6.068151e-03 9.905327e-03 -3.550086e-03 2.455963e-03 -4.502824e-03 7.321436e-03 1.155698e-02 -2.189934e-03 -2.178711e-03 7.569073e-04 -2.547740e-03 -1.170950e-03 3.109183e-04 8.383305e-04 -4.142903e-04 -1.236368e-04 -1.927882e-04 1.125523e-04 1.754223e-03 9.440883e-04 5.056616e-06
<VARIANCE> 39
 7.455338e+01 6.455186e+01 7.736616e+01 6.602310e+01 7.990121e+01 7.381077e+01 7.193311e+01 7.050584e+01 8.178912e+01 5.661810e+01 7.814678e+01 6.280973e+01 1.930420e+02 2.344288e+00 2.920380e+00 2.850475e+00 3.702401e+00 3.709830e+00 3.492676e+00 3.662918e+00 4.337445e+00 3.509085e+00 3.404064e+00 3.436388e+00 2.710281e+00 3.151157e+00 3.627481e-01 4.745425e-01 4.535842e-01 6.410440e-01 6.475443e-01 6.299535e-01 6.767380e-01 7.918458e-01 6.444673e-01 6.334811e-01 6.106222e-01 5.034648e-01 4.469829e-01
<GCONST> 1.361816e+02
<TRANSP> 5
 0.000000e+00 1.000000e+00 0.000000e+00 0.000000e+00 0.000000e+00
 0.000000e+00 6.307233e-01 3.692767e-01 0.000000e+00 0.000000e+00
 0.000000e+00 0.000000e+00 6.307253e-01 3.692746e-01 0.000000e+00
 0.000000e+00 0.000000e+00 0.000000e+00 7.702698e-01 2.297301e-01
 0.000000e+00 0.000000e+00 0.000000e+00 0.000000e+00 0.000000e+00
<ENDHMM>
~h "o"
<BEGINHMM>
<NUMSTATES> 5
<STATE> 2
<MEAN> 39
 -7.396182e+00 -7.478043e-01 -1.872462e+00 -3.852372e+00 -5.727112e+00 -2.727991e+00 -7.872371e+00 -2.120096e+00 -3.803250e+00 4.431982e-01 -1.121052e+00 -2.571652e+00 5.574766e+01 3.277832e-02 -3.102050e-02 2.395499e-02 -3.469837e-02 -2.284326e-02 -2.222283e-02 -1.858824e-02 -3.872501e-02 -2.342953e-02 -1.009063e-02 -9.003906e-04 -1.136426e-02 1.230550e-01 -3.603133e-03 2.465067e-03 1.278628e-03 5.812340e-03 -4.877242e-04 5.308357e-03 5.621611e-03 2.755121e-03 3.981656e-03 -4.892722e-04 2.945803e-04 2.114120e-03 -1.776173e-02
<VARIANCE> 39
 8.321288e+01 4.753679e+01 6.823142e+01 8.054669e+01 6.518232e+01 6.698859e+01 6.423722e+01 6.400562e+01 7.379039e+01 5.192374e+01 5.473297e+01 5.404861e+01 2.546844e+02 2.081173e+00 2.140001e+00 2.343717e+00 3.492745e+00 3.227843e+00 3.219179e+00 3.308717e+00 3.483216e+00 3.211660e+00 2.950844e+00 2.894552e+00 2.429701e+00 2.953153e+00 3.197479e-01 3.501992e-01 3.760357e-01 5.778395e-01 5.391503e-01 5.727707e-01 5.985494e-01 6.431146e-01 5.785225e-01 5.434666e-01 5.384482e-01 4.537164e-01 4.147930e-01
<GCONST> 1.314304e+02
<STATE> 3
<MEAN> 39
 -7.284783e+00 -8.227195e-01 -1.804707e+00 -3.961589e+00 -5.781765e+00 -2.775196e+00 -7.888036e+00 -2.238672e+00 -3.879178e+00 4.143887e-01 -1.123058e+00 -2.599540e+00 5.607627e+01 2.531340e-02 -2.615292e-02 2.613880e-02 -2.149497e-02 -2.068634e-02 -1.012931e-02 -5.719406e-03 -3.150360e-02 -1.626753e-02 -1.071219e-02 -1.862273e-03 -8.690903e-03 9.145396e-02 -2.760611e-03 1.853540e-03 1.023162e-03 4.014143e-03 1.036486e-03 3.912230e-03 4.235989e-03 3.318801e-03 2.792294e-03 7.723263e-04 1.331933e-04 1.258774e-03 -1.024711e-02
<VARIANCE> 39
 8.156251e+01 4.785708e+01 6.908533e+01 8.129238e+01 6.653271e+01 6.654733e+01 6.465292e+01 6.419569e+01 7.450227e+01 5.192101e+01 5.509379e+01 5.422299e+01 2.480220e+02 2.087696e+00 2.132827e+00 2.353700e+00 3.508487e+00 3.259317e+00 3.207761e+00 3.295382e+00 3.483534e+00 3.246973e+00 2.964789e+00 2.910960e+00 2.448563e+00 2.818829e+00 3.206333e-01 3.500416e-01 3.779796e-01 5.808110e-01 5.431735e-01 5.723864e-01 5.975085e-01 6.439901e-01 5.839848e-01 5.483993e-01 5.409632e-01 4.584667e-01 3.979945e-01
<GCONST> 1.314592e+02
<STATE> 4
<MEAN> 39
 -7.014686e+00 -1.019675e+00 -2.092019e+00 -3.664575e+00 -6.310061e+00 -2.321985e+00 -7.901305e+00 -2.140567e+00 -4.227709e+00 -1.152087e-01 -8.563774e-01 -2.660638e+00 5.457634e+01 2.159618e-02 -1.114861e-02 2.010043e-02 -1.581842e-02 -7.839756e-03 -2.463827e-03 4.682988e-03 -2.631611e-02 -1.423292e-02 -9.672567e-03 -4.022346e-03 -5.805189e-03 6.172335e-02 -1.876728e-03 1.254487e-03 6.041899e-04 1.893627e-03 1.149005e-03 1.124189e-03 1.660773e-03 1.482457e-03 7.680529e-04 5.253820e-04 1.886695e-04 5.810743e-04 -3.841070e-03
<VARIANCE> 39
 8.939513e+01 5.369833e+01 7.005062e+01 8.374782e+01 6.457820e+01 6.430223e+01 6.314638e+01 6.061361e+01 7.278050e+01 4.962495e+01 5.001493e+01 5.025229e+01 2.399071e+02 2.249079e+00 2.476653e+00 2.418070e+00 3.571321e+00 3.170711e+00 3.104338e+00 3.200056e+00 3.361573e+00 3.178690e+00 2.816153e+00 2.768121e+00 2.311489e+00 2.969395e+00 3.363878e-01 4.092976e-01 3.861834e-01 5.970445e-01 5.385641e-01 5.484436e-01 5.818050e-01 6.175022e-01 5.685865e-01 5.216561e-01 5.163875e-01 4.319828e-01 4.094602e-01
<GCONST> 1.312839e+02
<TRANSP> 5
 0.000000e+00 1.000000e+00 0.000000e+00 0.000000e+00 0.000000e+00
 0.000000e+00 6.710273e-01 3.289727e-01 0.000000e+00 0.000000e+00
 0.000000e+00 0.000000e+00 6.710274e-01 3.289727e-01 0.000000e+00
 0.000000e+00 0.000000e+00 0.000000e+00 8.435456e-01 1.564544e-01
 0.000000e+00 0.000000e+00 0.000000e+00 0.000000e+00 0.000000e+00
<ENDHMM>
~h "p"
<BEGINHMM>
<NUMSTATES> 5
<STATE> 2
<MEAN> 39
 -6.342470e+00 -1.413946e+00 -7.796508e-01 -3.668628e+00 -6.064869e+00 -4.739269e+00 -7.773188e+00 -2.180284e+00 -4.074765e+00 -3.340848e-01 -2.492408e+00 -2.986165e+00 5.962978e+01 2.215191e-02 5.680921e-03 -1.167865e-02 -2.296084e-03 2.216904e-02 2.175567e-03 -8.531732e-03 -3.052369e-02 1.972477e-02 8.026128e-03 -6.690771e-03 -1.712778e-03 1.878536e-02 -2.720779e-03 2.565410e-03 4.249982e-04 1.575481e-03 -1.218584e-03 1.112508e-03 -1.885151e-04 1.001127e-03 -1.147398e-03 -1.793388e-03 -4.126041e-04 9.598552e-04 -5.165464e-03
<VARIANCE> 39
 7.592094e+01 5.816496e+01 7.351875e+01 7.035336e+01 7.841830e+01 7.540915e+01 6.480345e+01 6.996358e+01 8.211681e+01 5.593140e+01 6.663625e+01 6.182156e+01 1.972436e+02 2.612153e+00 2.819425e+00 2.877354e+00 4.104267e+00 4.047252e+00 3.903682e+00 3.930912e+00 4.337488e+00 3.872437e+00 3.722252e+00 3.484180e+00 3.116110e+00 3.630591e+00 4.184512e-01 4.604604e-01 4.720762e-01 7.192175e-01 7.123392e-01 7.196243e-01 7.344280e-01 8.067477e-01 7.093893e-01 7.055504e-01 6.469947e-01 5.910645e-01 5.361605e-01
<GCONST> 1.379747e+02
<STATE> 3
<MEAN> 39
 -6.297457e+00 -1.385737e+00 -8.102246e-01 -3.667138e+00 -6.008712e+00 -4.727155e+00 -7.795412e+00 -2.261803e+00 -4.029775e+00 -3.243054e-01 -2.504806e+00 -2.985761e+00 5.965982e+01 1.650540e-02 1.242825e-02 -8.321317e-03 3.433052e-03 1.928037e-02 3.908525e-03 -8.858723e-03 -2.914410e-02 1.560479e-02 2.226654e-03 -7.544745e-03 1.547316e-03 6.044202e-03 -1.988339e-03 2.325188e-03 1.330956e-03 1.195791e-03 -1.592841e-03 7.631071e-04 3.371389e-04 1.665638e-04 -2.190680e-03 -1.666417e-03 -5.538307e-04 9.935766e-04 -3.542677e-03
<VARIANCE> 39
 7.525282e+01 5.796877e+01 7.359565e+01 7.039485e+01 7.854095e+01 7.486504e+01 6.460839e+01 7.028970e+01 8.224772e+01 5.582183e+01 6.683533e+01 6.182227e+01 1.940235e+02 2.606848e+00 2.820519e+00 2.889170e+00 4.127942e+00 4.053525e+00 3.924083e+00 3.931310e+00 4.342452e+00 3.888389e+00 3.739862e+00 3.507841e+00 3.135435e+00 3.614609e+00 4.171846e-01 4.609911e-01 4.737754e-01 7.230002e-01 7.136834e-01 7.245492e-01 7.348100e-01 8.077502e-01 7.114697e-01 7.095159e-01 6.509250e-01 5.943986e-01 5.331707e-01
<GCONST> 1.380119e+02
<STATE> 4
<MEAN> 39
 -6.015397e+00 -1.596435e+00 -9.957256e-01 -3.633076e+00 -6.021058e+00 -4.315310e+00 -7.965178e+00 -2.301225e+00 -4.027393e+00 -5.653133e-01 -2.368069e+00 -3.163857e+00 5.904710e+01 6.708168e-03 1.971819e-02 -1.682370e-03 1.067974e-02 1.475149e-02 7.760239e-03 -5.364381e-03 -2.745987e-02 8.666783e-03 -4.993862e-03 -7.595635e-03 4.821174e-03 -9.575203e-03 -2.073366e-03 1.680208e-03 1.734039e-03 8.069035e-04 -1.644765e-03 5.112891e-04 9.097379e-04 -8.595246e-05 -2.490641e-03 -1.376139e-03 -9.352417e-04 2.911830e-04 -2.285772e-03
<VARIANCE> 39
 7.951643e+01 6.077319e+01 7.600731e+01 7.145625e+01 7.953685e+01 7.459058e+01 6.667205e+01 7.057307e+01 7.995713e+01 5.484538e+01 6.547050e+01 6.104952e+01 1.941758e+02 2.677468e+00 2.995759e+00 2.953092e+00 4.189625e+00 4.001257e+00 3.878683e+00 3.919462e+00 4.322112e+00 3.886287e+00 3.643838e+00 3.473915e+00 3.067306e+00 3.664838e+00 4.215455e-01 4.906819e-01 4.786349e-01 7.312804e-01 7.032598e-01 7.128848e-01 7.274944e-01 7.985014e-01 7.065653e-01 6.886157e-01 6.428095e-01 5.805316e-01 5.344121e-01
<GCONST> 1.381458e+02
<TRANSP> 5
 0.000000e+00 1.000000e+00 0.000000e+00 0.000000e+00 0.000000e+00
 0.000000e+00 6.196001e-01 3.803998e-01 0.000000e+00 0.000000e+00
 0.000000e+00 0.000000e+00 6.196011e-01 3.803989e-01 0.000000e+00
 0.000000e+00 0.000000e+00 0.000000e+00 7.492210e-01 2.507790e-01
 0.000000e+00 0.000000e+00 0.000000e+00 0.000000e+00 0.000000e+00
<ENDHMM>
~h "r"
<BEGINHMM>
<NUMSTATES> 5
<STATE> 2
<MEAN> 39
 -6.021603e+00 -1.761178e+00 -2.320270e-01 -3.577485e+00 -6.636416e+00 -5.192125e+00 -8.288315e+00 -2.124559e+00 -4.202706e+00 -2.310543e-01 -2.758551e+00 -2.681225e+00 6.033398e+01 6.819413e-03 4.688259e-03 1.576446e-02 -1.124435e-03 -1.020665e-02 7.618283e-03 6.655721e-03 -1.120330e-02 -1.815281e-02 -2.008959e-03 -6.258321e-03 3.482677e-03 9.571999e-03 -2.140782e-03 2.763371e-03 -5.934164e-04 1.380816e-03 1.106981e-03 2.897061e-03 1.990546e-03 8.383161e-04 -5.161633e-04 -6.043765e-04 7.552042e-04 9.597470e-04 -5.842097e-03
<VARIANCE> 39
 7.206393e+01 5.885918e+01 7.511327e+01 6.879094e+01 7.892653e+01 7.675946e+01 6.914234e+01 7.524264e+01 8.827212e+01 5.642250e+01 7.175291e+01 6.431796e+01 1.933973e+02 2.413189e+00 2.738238e+00 2.886390e+00 3.765499e+00 3.872720e+00 3.820382e+00 3.822533e+00 4.304411e+00 3.800992e+00 3.529178e+00 3.454587e+00 3.051630e+00 3.252666e+00 3.871922e-01 4.483028e-01 4.675778e-01 6.551819e-01 6.670442e-01 6.946622e-01 7.084472e-01 7.782382e-01 6.900901e-01 6.610726e-01 6.321158e-01 5.751415e-01 4.723983e-01
<GCONST> 1.371160e+02
<STATE> 3
<MEAN> 39
 -6.012837e+00 -1.735356e+00 -1.932880e-01 -3.588675e+00 -6.664449e+00 -5.171130e+00 -8.271291e+00 -2.170466e+00 -4.261183e+00 -2.349500e-01 -2.778232e+00 -2.674603e+00 6.035495e+01 9.457450e-04 1.147357e-02 1.374772e-02 2.268910e-03 -7.965237e-03 1.369806e-02 9.854071e-03 -1.036884e-02 -1.849034e-02 -4.303739e-03 -4.769654e-03 6.231485e-03 -4.701734e-03 -2.072281e-03 2.198888e-03 -1.403860e-03 7.872698e-04 1.345552e-03 1.403695e-03 1.003929e-03 4.621756e-04 1.162277e-04 -3.862357e-04 3.780839e-04 1.343070e-03 -4.084099e-03
<VARIANCE> 39
 7.160802e+01 5.891314e+01 7.547186e+01 6.890115e+01 7.872357e+01 7.667715e+01 6.919920e+01 7.574067e+01 8.828165e+01 5.629011e+01 7.180196e+01 6.363069e+01 1.914108e+02 2.402600e+00 2.722787e+00 2.889906e+00 3.761397e+00 3.872409e+00 3.823356e+00 3.811694e+00 4.315635e+00 3.806656e+00 3.521192e+00 3.463184e+00 3.047141e+00 3.226591e+00 3.850705e-01 4.456855e-01 4.672324e-01 6.517324e-01 6.654952e-01 6.967459e-01 7.063271e-01 7.786183e-01 6.906683e-01 6.602640e-01 6.321693e-01 5.747013e-01 4.666784e-01
<GCONST> 1.370484e+02
<STATE> 4
<MEAN> 39
 -5.748335e+00 -1.844259e+00 -2.440423e-01 -3.471040e+00 -6.830300e+00 -4.641579e+00 -8.422774e+00 -2.225531e+00 -4.432160e+00 -4.078968e-01 -2.609886e+00 -2.844886e+00 5.948964e+01 -8.899629e-03 1.762877e-02 8.642484e-03 3.043470e-03 -4.623990e-03 1.451833e-02 9.345563e-03 -1.419673e-02 -1.771489e-02 -4.326960e-03 -4.394432e-03 9.002178e-03 -1.604035e-02 -1.676075e-03 1.263818e-03 -1.461561e-03 5.447533e-04 1.565068e-03 3.094619e-04 1.149913e-04 3.244170e-04 2.633327e-04 -2.311880e-04 -1.111671e-04 1.596450e-03 -2.344093e-03
<VARIANCE> 39
 7.766790e+01 6.265908e+01 8.066951e+01 7.055817e+01 7.936512e+01 7.792264e+01 6.983321e+01 7.527335e+01 8.585571e+01 5.502002e+01 7.070352e+01 6.226511e+01 1.954715e+02 2.460065e+00 2.914157e+00 2.953209e+00 3.809150e+00 3.880047e+00 3.765879e+00 3.749704e+00 4.299268e+00 3.780396e+00 3.423597e+00 3.410612e+00 2.940760e+00 3.218125e+00 3.893515e-01 4.746138e-01 4.682469e-01 6.581762e-01 6.660365e-01 6.840281e-01 6.908556e-01 7.715734e-01 6.816239e-01 6.415154e-01 6.252302e-01 5.535917e-01 4.600843e-01
<GCONST> 1.371784e+02
<TRANSP> 5
 0.000000e+00 1.000000e+00 0.000000e+00 0.000000e+00 0.000000e+00
 0.000000e+00 6.246588e-01 3.753412e-01 0.000000e+00 0.000000e+00
 0.000000e+00 0.000000e+00 6.246580e-01 3.753420e-01 0.000000e+00
 0.000000e+00 0.000000e+00 0.000000e+00 7.590247e-01 2.409753e-01
 0.000000e+00 0.000000e+00 0.000000e+00 0.000000e+00 0.000000e+00
<ENDHMM>
~h "s"
<BEGINHMM>
<NUMSTATES> 5
<STATE> 2
<MEAN> 39
 -8.000168e+00 -2.440059e-01 -8.080403e-01 -3.264290e+00 -5.805967e+00 -4.943893e+00 -7.491972e+00 -1.726429e+00 -4.157752e+00 -5.124160e-01 -2.619775e+00 -2.416996e+00 5.995985e+01 -1.706741e-02 8.796722e-03 7.054064e-04 -1.262157e-02 1.656964e-02 -3.466460e-02 3.417847e-03 -5.782294e-03 1.929849e-04 -1.754824e-02 -1.667417e-02 -7.094537e-03 5.336422e-02 3.446752e-04 3.031440e-05 -1.280134e-03 1.543035e-03 -1.168873e-03 3.346808e-03 9.162218e-04 -4.576340e-04 2.560667e-03 1.717575e-04 4.976678e-04 -1.331403e-03 -1.306054e-02
<VARIANCE> 39
 9.264322e+01 6.502224e+01 7.607451e+01 6.801326e+01 8.274436e+01 7.533794e+01 6.988617e+01 7.145171e+01 8.362407e+01 5.519519e+01 6.824694e+01 6.442857e+01 1.984734e+02 3.468435e+00 3.085737e+00 2.934118e+00 3.538534e+00 3.819416e+00 3.753980e+00 4.052755e+00 4.265917e+00 3.562656e+00 3.492419e+00 3.318628e+00 2.965687e+00 2.950030e+00 4.977529e-01 4.776555e-01 4.720766e-01 6.104552e-01 6.512249e-01 6.830294e-01 7.448058e-01 7.724190e-01 6.515250e-01 6.518111e-01 6.125320e-01 5.479265e-01 4.351789e-01
<GCONST> 1.375916e+02
<STATE> 3
<MEAN> 39
 -8.054096e+00 -2.210689e-01 -8.102908e-01 -3.301610e+00 -5.762256e+00 -5.019273e+00 -7.477584e+00 -1.736949e+00 -4.146460e+00 -5.554166e-01 -2.667504e+00 -2.435676e+00 6.005010e+01 -1.155051e-02 6.463929e-03 -2.685096e-03 -8.742415e-03 1.582540e-02 -2.583579e-02 5.730148e-03 -5.377973e-03 5.345567e-03 -1.509921e-02 -1.608749e-02 -9.596786e-03 3.201012e-02 2.403226e-03 -5.431396e-04 -4.703873e-04 1.498531e-03 -3.125140e-04 3.442012e-03 7.096124e-04 -1.498327e-04 1.815160e-03 1.197426e-03 5.396071e-04 -5.375867e-04 -6.950685e-03
<VARIANCE> 39
 9.238598e+01 6.545832e+01 7.629581e+01 6.809653e+01 8.296937e+01 7.535623e+01 6.986691e+01 7.123602e+01 8.377395e+01 5.547616e+01 6.813711e+01 6.466704e+01 1.960470e+02 3.478978e+00 3.083210e+00 2.935533e+00 3.533999e+00 3.807158e+00 3.750609e+00 4.038512e+00 4.251594e+00 3.558148e+00 3.492024e+00 3.310675e+00 2.965289e+00 2.823529e+00 4.960716e-01 4.768048e-01 4.713849e-01 6.083431e-01 6.497577e-01 6.822239e-01 7.424524e-01 7.710657e-01 6.509021e-01 6.515428e-01 6.103807e-01 5.479153e-01 4.171983e-01
<GCONST> 1.374731e+02
<STATE> 4
<MEAN> 39
 -7.871240e+00 -4.523735e-01 -8.546450e-01 -3.261564e+00 -5.870855e+00 -4.608812e+00 -7.578194e+00 -1.741529e+00 -4.177516e+00 -7.688118e-01 -2.517315e+00 -2.576490e+00 5.923024e+01 -5.992802e-03 3.022015e-03 -3.793520e-03 -6.003353e-03 1.570749e-02 -1.417151e-02 7.221933e-03 -4.847388e-03 8.273493e-03 -9.572273e-03 -1.671935e-02 -9.374433e-03 1.283377e-02 2.743265e-03 -7.599580e-04 5.037577e-04 9.161757e-04 -2.779864e-04 2.578989e-03 -1.031572e-04 -4.355338e-04 6.915808e-04 1.452575e-03 6.459978e-04 -2.524877e-04 -2.904632e-03
<VARIANCE> 39
 9.825867e+01 6.875569e+01 8.008730e+01 6.869564e+01 8.426794e+01 7.629486e+01 7.002930e+01 7.052402e+01 8.099685e+01 5.426656e+01 6.618677e+01 6.321465e+01 1.991784e+02 3.467638e+00 3.189982e+00 2.972531e+00 3.554269e+00 3.798347e+00 3.707348e+00 3.964734e+00 4.173347e+00 3.545178e+00 3.406644e+00 3.259807e+00 2.852476e+00 2.870163e+00 4.909295e-01 4.966654e-01 4.691105e-01 6.097894e-01 6.478226e-01 6.707131e-01 7.278222e-01 7.539439e-01 6.475898e-01 6.341975e-01 5.993650e-01 5.274592e-01 4.138682e-01
<GCONST> 1.373706e+02
<TRANSP> 5
 0.000000e+00 1.000000e+00 0.000000e+00 0.000000e+00 0.000000e+00
 0.000000e+00 6.187048e-01 3.812952e-01 0.000000e+00 0.000000e+00
 0.000000e+00 0.000000e+00 6.187043e-01 3.812957e-01 0.000000e+00
 0.000000e+00 0.000000e+00 0.000000e+00 7.525960e-01 2.474040e-01
 0.000000e+00 0.000000e+00 0.000000e+00 0.000000e+00 0.000000e+00
<ENDHMM>
~h "t"
<BEGINHMM>
<NUMSTATES> 5
<STATE> 2
<MEAN> 39
 -6.856496e+00 -6.634400e-01 -4.878522e-01 -3.348197e+00 -6.433642e+00 -4.602843e+00 -7.966623e+00 -2.496901e+00 -4.133879e+00 -1.470951e-01 -2.378733e+00 -2.557903e+00 5.865514e+01 1.615789e-02 2.851556e-03 -2.292806e-03 -1.417536e-02 9.127613e-03 1.843945e-03 1.081677e-03 -2.278574e-03 -7.079669e-03 2.833961e-03 -8.411558e-03 -1.379666e-03 3.573170e-02 -2.799883e-03 -1.871001e-05 -5.900110e-04 3.693387e-04 -1.465604e-03 2.182497e-03 6.805964e-04 1.336785e-03 1.335660e-03 -3.360057e-04 4.328924e-04 1.082154e-04 -7.306486e-03
<VARIANCE> 39
 7.408704e+01 5.553805e+01 7.358589e+01 6.813759e+01 7.644746e+01 7.542039e+01 7.323210e+01 7.154842e+01 8.369321e+01 5.664473e+01 7.027287e+01 5.704423e+01 2.033461e+02 2.540081e+00 2.577149e+00 2.828423e+00 3.606751e+00 3.808441e+00 3.972339e+00 3.989622e+00 4.115220e+00 3.732713e+00 3.495141e+00 3.394179e+00 2.900744e+00 3.525455e+00 4.101499e-01 4.218466e-01 4.516622e-01 6.209990e-01 6.576774e-01 7.342717e-01 7.325643e-01 7.542689e-01 6.710020e-01 6.575868e-01 6.238418e-01 5.453638e-01 5.199683e-01
<GCONST> 1.367531e+02
<STATE> 3
<MEAN> 39
 -6.816362e+00 -6.480522e-01 -5.005224e-01 -3.384037e+00 -6.415994e+00 -4.591046e+00 -7.969928e+00 -2.508733e+00 -4.160876e+00 -1.363468e-01 -2.404146e+00 -2.559327e+00 5.872432e+01 1.128362e-02 2.607092e-03 -4.877045e-03 -1.274608e-02 8.764821e-03 6.864787e-03 3.074802e-03 1.051467e-03 -4.488295e-03 3.045087e-03 -7.329978e-03 7.207694e-04 2.322044e-02 -2.062607e-03 -2.835404e-04 -1.051358e-05 1.110128e-03 -3.033594e-04 1.221133e-03 6.771096e-04 5.606721e-04 8.562731e-04 -7.757483e-05 2.200434e-04 1.001443e-03 -4.100846e-03
<VARIANCE> 39
 7.376956e+01 5.572715e+01 7.397488e+01 6.830187e+01 7.671962e+01 7.542873e+01 7.346209e+01 7.147911e+01 8.410465e+01 5.682362e+01 7.020361e+01 5.734295e+01 2.009946e+02 2.522580e+00 2.574027e+00 2.832360e+00 3.612750e+00 3.814543e+00 3.967293e+00 3.982388e+00 4.123063e+00 3.735370e+00 3.491709e+00 3.393147e+00 2.907775e+00 3.463979e+00 4.074956e-01 4.211147e-01 4.522992e-01 6.218660e-01 6.578251e-01 7.328534e-01 7.305654e-01 7.556204e-01 6.717031e-01 6.568209e-01 6.234585e-01 5.466813e-01 5.111836e-01
<GCONST> 1.367226e+02
<STATE> 4
<MEAN> 39
 -6.568044e+00 -7.531841e-01 -5.831224e-01 -3.296120e+00 -6.642414e+00 -4.153744e+00 -8.000293e+00 -2.512172e+00 -4.313971e+00 -2.683373e-01 -2.296924e+00 -2.646927e+00 5.799409e+01 8.159975e-03 4.311843e-03 -6.998707e-03 -8.781819e-03 9.221734e-03 8.005233e-03 4.906459e-03 6.490201e-05 -7.898864e-03 3.240475e-03 -6.602774e-03 6.231559e-03 1.425590e-02 -1.642213e-03 -2.102435e-05 5.670101e-04 1.517924e-03 -4.129592e-05 -2.157130e-04 8.667356e-04 -5.222339e-04 -1.817638e-04 -5.202243e-04 -1.330326e-04 1.203552e-03 -2.348445e-03
<VARIANCE> 39
 8.023134e+01 6.025433e+01 7.791596e+01 6.943992e+01 7.761633e+01 7.589502e+01 7.300922e+01 7.062946e+01 8.269686e+01 5.533265e+01 6.733391e+01 5.661742e+01 2.029103e+02 2.581705e+00 2.731549e+00 2.882799e+00 3.639508e+00 3.796711e+00 3.914346e+00 3.900429e+00 4.095703e+00 3.711525e+00 3.430769e+00 3.326642e+00 2.834458e+00 3.464518e+00 4.130342e-01 4.450349e-01 4.560274e-01 6.259258e-01 6.537039e-01 7.198275e-01 7.139845e-01 7.475957e-01 6.669031e-01 6.434764e-01 6.120979e-01 5.337048e-01 5.057124e-01
<GCONST> 1.368019e+02
<TRANSP> 5
 0.000000e+00 1.000000e+00 0.000000e+00 0.000000e+00 0.000000e+00
 0.000000e+00 6.270752e-01 3.729248e-01 0.000000e+00 0.000000e+00
 0.000000e+00 0.000000e+00 6.270771e-01 3.729229e-01 0.000000e+00
 0.000000e+00 0.000000e+00 0.000000e+00 7.600345e-01 2.399655e-01
 0.000000e+00 0.000000e+00 0.000000e+00 0.000000e+00 0.000000e+00
<ENDHMM>
~h "u"
<BEGINHMM>
<NUMSTATES> 5
<STATE> 2
<MEAN> 39
 -5.803198e+00 -4.147164e-01 -8.810915e-01 -3.844105e+00 -6.358130e+00 -3.438108e+00 -8.623755e+00 -2.783049e+00 -4.958653e+00 -2.649486e-02 -2.209553e+00 -2.512140e+00 5.896734e+01 8.322234e-03 6.346785e-03 -4.838550e-03 1.296264e-03 7.416129e-03 4.931602e-03 -2.385564e-03 -8.861205e-03 -1.414867e-02 -6.566029e-03 5.303429e-03 8.800008e-03 1.027947e-02 -3.522517e-03 -1.377970e-03 4.349013e-04 2.262182e-03 -3.918116e-04 -2.256975e-03 1.156441e-03 1.648794e-03 1.340377e-03 -4.631288e-04 -6.591299e-04 -1.273874e-03 -1.706209e-03
<VARIANCE> 39
 7.355219e+01 5.558114e+01 6.921314e+01 7.486557e+01 7.415971e+01 7.181576e+01 7.895728e+01 7.298631e+01 8.684502e+01 5.993909e+01 6.979010e+01 5.784226e+01 1.925278e+02 2.338225e+00 2.536551e+00 2.772607e+00 3.864258e+00 3.798222e+00 3.774044e+00 4.090575e+00 4.278790e+00 3.768749e+00 3.591451e+00 3.432198e+00 2.832392e+00 3.049502e+00 3.628160e-01 4.140062e-01 4.557941e-01 6.602510e-01 6.609792e-01 6.862720e-01 7.482616e-01 7.789953e-01 6.837503e-01 6.662911e-01 6.295137e-01 5.276802e-01 4.304380e-01
<GCONST> 1.364196e+02
<STATE> 3
<MEAN> 39
 -5.787591e+00 -3.973165e-01 -8.934454e-01 -3.834971e+00 -6.340210e+00 -3.429649e+00 -8.626822e+00 -2.801509e+00 -4.998528e+00 -4.838270e-02 -2.196355e+00 -2.488997e+00 5.899154e+01 -1.210243e-03 2.950266e-03 -3.873886e-03 6.633083e-03 7.229957e-03 -3.709029e-04 1.238006e-03 -4.841452e-03 -9.567186e-03 -8.174311e-03 2.967259e-03 5.045414e-03 5.719949e-03 -3.196657e-03 -1.277010e-03 3.054794e-04 1.706472e-03 -5.051176e-04 -1.697793e-03 1.062025e-03 1.725646e-03 1.952307e-03 -6.926373e-04 -1.350286e-03 -1.933867e-03 -9.823501e-04
<VARIANCE> 39
 7.296992e+01 5.550381e+01 6.933523e+01 7.477743e+01 7.454102e+01 7.187281e+01 7.928191e+01 7.325117e+01 8.728487e+01 6.003254e+01 6.991322e+01 5.786480e+01 1.899603e+02 2.346851e+00 2.545907e+00 2.781710e+00 3.880491e+00 3.813860e+00 3.782438e+00 4.112310e+00 4.297923e+00 3.781600e+00 3.613924e+00 3.452050e+00 2.843481e+00 3.043180e+00 3.637006e-01 4.155497e-01 4.571297e-01 6.632285e-01 6.635311e-01 6.883819e-01 7.534023e-01 7.826350e-01 6.868548e-01 6.706119e-01 6.338155e-01 5.298473e-01 4.295875e-01
<GCONST> 1.365200e+02
<STATE> 4
<MEAN> 39
 -5.633554e+00 -5.048890e-01 -9.620578e-01 -3.569703e+00 -6.521987e+00 -3.031646e+00 -8.616575e+00 -2.731376e+00 -5.150559e+00 -2.743599e-01 -1.985980e+00 -2.601032e+00 5.814250e+01 -1.400320e-02 1.101017e-03 -3.658653e-03 1.209665e-02 8.652421e-03 -2.798323e-03 7.942684e-03 -4.069153e-04 -1.554878e-03 -1.065561e-02 -1.391110e-03 1.627613e-03 -3.770545e-03 -2.401775e-03 -7.632024e-04 2.289861e-04 1.247215e-03 -2.917740e-04 -2.625357e-04 1.460015e-03 1.373432e-03 2.116650e-03 -3.468073e-04 -1.215297e-03 -1.372258e-03 -8.354721e-04
<VARIANCE> 39
 7.985107e+01 5.912985e+01 7.365616e+01 7.577007e+01 7.630479e+01 7.228733e+01 7.956900e+01 7.344693e+01 8.625278e+01 5.837023e+01 6.760603e+01 5.662635e+01 1.921154e+02 2.430695e+00 2.721285e+00 2.871167e+00 3.893074e+00 3.800873e+00 3.739757e+00 4.069337e+00 4.269312e+00 3.769579e+00 3.541958e+00 3.408116e+00 2.778272e+00 3.064252e+00 3.716703e-01 4.454075e-01 4.636001e-01 6.641994e-01 6.596932e-01 6.775619e-01 7.441539e-01 7.754242e-01 6.808395e-01 6.576799e-01 6.275550e-01 5.180237e-01 4.306191e-01
<GCONST> 1.367558e+02
<TRANSP> 5
 0.000000e+00 1.000000e+00 0.000000e+00 0.000000e+00 0.000000e+00
 0.000000e+00 6.264424e-01 3.735575e-01 0.000000e+00 0.000000e+00
 0.000000e+00 0.000000e+00 6.264423e-01 3.735577e-01 0.000000e+00
 0.000000e+00 0.000000e+00 0.000000e+00 7.622197e-01 2.377803e-01
 0.000000e+00 0.000000e+00 0.000000e+00 0.000000e+00 0.000000e+00
<ENDHMM>
~h "v"
<BEGINHMM>
<NUMSTATES> 5
<STATE> 2
<MEAN> 39
 -7.101969e+00 -1.782237e-01 -7.875042e-01 -3.599985e+00 -6.124986e+00 -5.617685e+00 -7.926225e+00 -1.716979e+00 -4.790912e+00 1.402330e+00 -2.845013e+00 -2.346320e+00 6.129063e+01 2.741814e-02 -3.192926e-02 -1.471042e-02 -4.012757e-02 3.837398e-02 -4.500083e-02 -1.826342e-02 2.327042e-02 4.824214e-02 -2.164554e-03 -2.979777e-02 -3.334998e-02 6.711385e-02 -1.108056e-03 4.396571e-04 8.382643e-03 4.908612e-03 -6.274408e-03 -6.354340e-03 -2.291104e-03 1.721198e-04 -1.870103e-03 -4.115989e-03 -6.513147e-04 -7.805998e-04 5.224344e-03
<VARIANCE> 39
 8.303165e+01 5.727099e+01 7.869183e+01 7.888467e+01 8.133530e+01 7.801842e+01 7.578343e+01 7.784926e+01 7.572376e+01 6.559378e+01 9.459608e+01 7.718304e+01 1.418838e+02 3.771875e+00 3.615929e+00 3.659936e+00 3.990423e+00 4.639736e+00 4.493920e+00 4.047182e+00 4.459766e+00 4.081188e+00 4.229909e+00 3.699961e+00 3.480611e+00 3.586684e+00 5.888666e-01 5.830286e-01 5.553536e-01 6.648009e-01 7.954365e-01 8.027286e-01 7.402508e-01 8.178254e-01 7.479180e-01 8.006538e-01 6.909865e-01 6.247281e-01 5.021508e-01
<GCONST> 1.415257e+02
<STATE> 3
<MEAN> 39
 -7.062344e+00 -2.429311e-01 -7.818501e-01 -3.676975e+00 -6.046165e+00 -5.787984e+00 -8.002563e+00 -1.648181e+00 -4.695452e+00 1.401479e+00 -2.907528e+00 -2.422896e+00 6.150985e+01 2.417254e-02 -2.931187e-02 5.302062e-03 -2.916969e-02 2.346681e-02 -5.965417e-02 -2.247990e-02 2.313973e-02 4.360476e-02 -1.018210e-02 -3.004873e-02 -3.441327e-02 8.205768e-02 -5.878136e-04 1.792475e-03 8.429497e-03 3.995653e-03 -6.538301e-03 -4.950041e-03 -2.041009e-03 -1.167365e-03 -3.050790e-03 -3.730037e-03 -3.589001e-04 -1.204527e-03 4.614053e-03
<VARIANCE> 39
 8.330045e+01 5.803002e+01 7.921954e+01 7.924246e+01 8.002232e+01 7.806187e+01 7.423061e+01 7.770116e+01 7.683159e+01 6.516869e+01 9.604572e+01 7.803070e+01 1.395062e+02 3.795743e+00 3.669941e+00 3.653407e+00 4.085618e+00 4.662885e+00 4.500593e+00 4.045887e+00 4.455842e+00 4.167205e+00 4.231092e+00 3.707869e+00 3.521977e+00 3.711032e+00 5.948851e-01 5.903655e-01 5.572507e-01 6.786976e-01 8.060619e-01 8.044040e-01 7.377718e-01 8.159851e-01 7.612006e-01 7.956585e-01 6.923888e-01 6.325430e-01 5.182033e-01
<GCONST> 1.417634e+02
<STATE> 4
<MEAN> 39
 -6.440253e+00 -1.702105e-01 -5.871863e-01 -3.918450e+00 -6.206285e+00 -5.872870e+00 -8.238561e+00 -1.759055e+00 -4.946129e+00 1.232812e+00 -3.178149e+00 -2.470491e+00 6.169211e+01 1.264900e-02 -1.540035e-02 3.104776e-02 -1.283176e-02 7.081393e-03 -7.457621e-02 -2.672295e-02 1.844979e-02 2.732845e-02 -1.292083e-02 -2.057960e-02 -3.011888e-02 9.902853e-02 -7.663533e-05 2.527402e-03 6.434071e-03 2.193287e-03 -5.302495e-03 -2.293421e-03 -1.128721e-03 -2.114894e-03 -3.392393e-03 -2.643102e-03 5.378640e-04 -5.719016e-04 2.855101e-03
<VARIANCE> 39
 8.666942e+01 6.182212e+01 7.964078e+01 8.095898e+01 7.871645e+01 7.973254e+01 7.415910e+01 7.745580e+01 7.715791e+01 6.434859e+01 9.434826e+01 7.782621e+01 1.287763e+02 3.799170e+00 3.891771e+00 3.574436e+00 4.434107e+00 4.716919e+00 4.623593e+00 4.159991e+00 4.739466e+00 4.345014e+00 4.347499e+00 3.770127e+00 3.549222e+00 3.911396e+00 6.022398e-01 6.218257e-01 5.501066e-01 7.354647e-01 8.263677e-01 8.171276e-01 7.537386e-01 8.755671e-01 7.896203e-01 8.063646e-01 7.035804e-01 6.435261e-01 5.483741e-01
<GCONST> 1.425821e+02
<TRANSP> 5
 0.000000e+00 1.000000e+00 0.000000e+00 0.000000e+00 0.000000e+00
 0.000000e+00 6.101840e-01 3.898160e-01 0.000000e+00 0.000000e+00
 0.000000e+00 0.000000e+00 6.101835e-01 3.898165e-01 0.000000e+00
 0.000000e+00 0.000000e+00 0.000000e+00 7.343531e-01 2.656468e-01
 0.000000e+00 0.000000e+00 0.000000e+00 0.000000e+00 0.000000e+00
<ENDHMM>
~h "w"
<BEGINHMM>
<NUMSTATES> 5
<STATE> 2
<MEAN> 39
 -8.400390e+00 5.247867e-01 -6.479373e-01 -4.979149e+00 -7.226036e+00 -4.401449e+00 -8.332018e+00 -2.786098e+00 -4.866632e+00 1.383437e+00 -2.644038e+00 -1.537992e+00 5.871962e+01 2.590546e-02 3.366619e-02 -2.901934e-02 -6.063974e-02 4.148269e-02 3.869093e-02 -1.554553e-02 -8.815074e-03 -3.871976e-02 5.000670e-02 -3.356682e-02 3.008818e-02 6.927305e-02 3.420766e-04 1.071585e-03 -1.551922e-03 -2.518920e-03 6.085834e-03 7.609745e-04 3.457756e-03 4.416140e-03 -2.315983e-03 2.462683e-04 2.468135e-03 -1.947207e-03 -6.213587e-03
<VARIANCE> 39
 8.771349e+01 5.611409e+01 7.615092e+01 8.460580e+01 7.153300e+01 7.735561e+01 6.742842e+01 6.773732e+01 8.811058e+01 6.082095e+01 7.856050e+01 5.067675e+01 2.248129e+02 2.719334e+00 2.146869e+00 2.673193e+00 3.586375e+00 4.004515e+00 3.188951e+00 3.835341e+00 4.180894e+00 3.892386e+00 3.609289e+00 2.965199e+00 2.826492e+00 2.518000e+00 3.957401e-01 3.466077e-01 4.465930e-01 6.405070e-01 6.943102e-01 5.609392e-01 6.875554e-01 7.736844e-01 7.386255e-01 6.653714e-01 5.660295e-01 5.503036e-01 3.749080e-01
<GCONST> 1.356543e+02
<STATE> 3
<MEAN> 39
 -8.324632e+00 5.793253e-01 -7.448967e-01 -5.117023e+00 -7.102910e+00 -4.303355e+00 -8.345479e+00 -2.779875e+00 -4.953444e+00 1.517136e+00 -2.701812e+00 -1.492994e+00 5.888844e+01 3.240553e-02 3.011746e-02 -3.430126e-02 -6.685989e-02 5.897161e-02 4.307286e-02 -5.443447e-03 4.652338e-03 -4.123531e-02 5.737872e-02 -3.247395e-02 1.920447e-02 6.499125e-02 1.550035e-03 -3.164796e-04 -4.346593e-04 -1.699375e-03 7.129144e-03 -1.578143e-03 3.484361e-03 2.482192e-03 -1.301584e-03 1.968203e-03 2.077722e-03 -4.286435e-03 -6.036201e-04
<VARIANCE> 39
 8.806802e+01 5.667011e+01 7.565090e+01 8.501976e+01 7.087196e+01 7.511122e+01 6.804778e+01 6.820368e+01 8.620031e+01 6.266902e+01 7.946207e+01 5.091927e+01 2.204314e+02 2.778281e+00 2.166122e+00 2.677744e+00 3.592811e+00 3.984016e+00 3.206157e+00 3.867999e+00 4.213010e+00 3.832694e+00 3.655221e+00 2.967317e+00 2.831262e+00 2.431132e+00 4.027774e-01 3.494527e-01 4.489571e-01 6.351850e-01 6.819910e-01 5.697067e-01 6.911244e-01 7.767403e-01 7.259789e-01 6.655019e-01 5.670565e-01 5.486842e-01 3.551871e-01
<GCONST> 1.356202e+02
<STATE> 4
<MEAN> 39
 -8.556711e+00 6.564690e-01 -1.133230e+00 -4.907683e+00 -6.811365e+00 -3.909715e+00 -8.170724e+00 -2.615353e+00 -4.956316e+00 1.404567e+00 -2.761405e+00 -1.489736e+00 5.779308e+01 4.280514e-02 1.039246e-02 -3.605825e-02 -6.150392e-02 7.259441e-02 3.443861e-02 2.663266e-03 1.154934e-02 -3.572771e-02 5.840971e-02 -3.727291e-02 2.320993e-03 6.972837e-02 1.659731e-03 -2.874363e-03 9.366813e-04 2.479669e-03 4.591446e-03 -3.915174e-03 2.719790e-03 -6.565278e-04 2.224732e-03 1.582223e-03 1.000230e-03 -4.703478e-03 -5.395712e-04
<VARIANCE> 39
 9.006321e+01 5.545138e+01 7.246700e+01 8.638721e+01 6.814989e+01 7.072599e+01 6.639713e+01 6.631060e+01 8.114677e+01 6.301072e+01 7.677324e+01 4.988533e+01 2.365231e+02 2.850482e+00 2.236280e+00 2.594140e+00 3.462792e+00 3.866330e+00 3.114392e+00 3.757622e+00 4.176846e+00 3.714897e+00 3.580974e+00 2.922513e+00 2.784340e+00 2.350073e+00 4.204948e-01 3.636014e-01 4.370804e-01 6.081822e-01 6.597278e-01 5.608994e-01 6.706510e-01 7.657827e-01 7.003908e-01 6.467806e-01 5.585533e-01 5.359463e-01 3.368766e-01
<GCONST> 1.349407e+02
<TRANSP> 5
 0.000000e+00 1.000000e+00 0.000000e+00 0.000000e+00 0.000000e+00
 0.000000e+00 5.823510e-01 4.176490e-01 0.000000e+00 0.000000e+00
 0.000000e+00 0.000000e+00 5.823506e-01 4.176494e-01 0.000000e+00
 0.000000e+00 0.000000e+00 0.000000e+00 6.991240e-01 3.008760e-01
 0.000000e+00 0.000000e+00 0.000000e+00 0.000000e+00 0.000000e+00
<ENDHMM>
~h "y"
<BEGINHMM>
<NUMSTATES> 5
<STATE> 2
<MEAN> 39
 -7.339844e+00 -1.666442e+00 -1.532035e-01 -2.809031e+00 -6.651413e+00 -4.274368e+00 -6.615830e+00 -6.189530e-01 -3.929334e+00 -6.250855e-01 -2.392092e+00 -2.276851e+00 5.782212e+01 1.606184e-02 -3.874216e-02 -1.350534e-02 -2.309094e-03 4.283528e-02 -7.353632e-03 1.814066e-02 1.412147e-02 2.483501e-02 -1.571611e-03 -2.818219e-02 -2.952246e-03 3.133674e-02 -2.332337e-03 3.362826e-03 -3.490572e-03 9.228245e-04 1.020484e-03 5.359460e-03 -2.285849e-04 -4.266055e-03 9.703101e-04 9.602334e-04 7.754761e-04 -2.869083e-03 -1.171296e-02
<VARIANCE> 39
 7.440472e+01 5.514865e+01 7.092575e+01 6.452773e+01 8.202571e+01 7.867427e+01 6.865718e+01 7.140140e+01 7.290080e+01 5.176921e+01 6.819280e+01 6.438163e+01 2.429552e+02 1.952167e+00 2.307211e+00 2.459267e+00 3.001699e+00 3.450389e+00 3.134438e+00 3.147251e+00 3.635843e+00 3.088390e+00 2.938853e+00 3.004055e+00 2.486971e+00 2.556094e+00 3.032639e-01 3.648511e-01 3.674603e-01 5.096040e-01 5.564017e-01 5.458875e-01 5.652030e-01 6.519195e-01 5.483864e-01 5.365806e-01 5.294468e-01 4.569471e-01 3.542905e-01
<GCONST> 1.315420e+02
<STATE> 3
<MEAN> 39
 -7.302087e+00 -1.778484e+00 -2.111837e-01 -2.819947e+00 -6.503042e+00 -4.286260e+00 -6.548595e+00 -5.893900e-01 -3.846271e+00 -6.313707e-01 -2.486775e+00 -2.273935e+00 5.790534e+01 1.270786e-02 -2.970860e-02 -2.059392e-02 2.932799e-03 4.866367e-02 6.433523e-03 1.585770e-02 -5.551623e-04 2.814053e-02 -1.846539e-03 -2.589651e-02 -8.632678e-03 7.528745e-03 -3.190452e-04 2.601165e-03 -1.148992e-03 1.523808e-03 2.957878e-04 4.372892e-03 -9.623864e-04 -4.593407e-03 -6.729186e-04 -1.753846e-04 1.160362e-03 -2.363416e-03 -5.572511e-03
<VARIANCE> 39
 7.264331e+01 5.483943e+01 7.038323e+01 6.394679e+01 8.303816e+01 7.838091e+01 6.869016e+01 7.090909e+01 7.360966e+01 5.240198e+01 6.885887e+01 6.539291e+01 2.374465e+02 1.904218e+00 2.299439e+00 2.455777e+00 2.982101e+00 3.446790e+00 3.093407e+00 3.129061e+00 3.611747e+00 3.092568e+00 2.932566e+00 3.004678e+00 2.488972e+00 2.500055e+00 2.931006e-01 3.622525e-01 3.668264e-01 5.053017e-01 5.560863e-01 5.370377e-01 5.635166e-01 6.473600e-01 5.489075e-01 5.357836e-01 5.310678e-01 4.566349e-01 3.417886e-01
<GCONST> 1.313246e+02
<STATE> 4
<MEAN> 39
 -6.904300e+00 -1.892328e+00 -3.289642e-01 -2.494875e+00 -6.653596e+00 -3.548337e+00 -6.808523e+00 -6.441861e-01 -3.945632e+00 -8.358425e-01 -2.255441e+00 -2.367924e+00 5.664119e+01 8.052314e-03 -1.164716e-02 -1.598898e-02 3.700020e-03 4.422128e-02 1.113874e-02 1.637698e-02 -1.329818e-02 2.371712e-02 -6.743304e-03 -1.966019e-02 -1.211804e-03 1.169056e-03 -1.108449e-03 2.284642e-03 -1.239151e-04 1.732615e-03 -6.498042e-04 2.745453e-03 -2.976025e-04 -2.661863e-03 -7.905629e-04 -1.070317e-03 1.370407e-03 -8.451537e-04 -3.713499e-03
<VARIANCE> 39
 8.055381e+01 5.954939e+01 7.629704e+01 6.619788e+01 8.169160e+01 7.681124e+01 7.065971e+01 6.558443e+01 7.271435e+01 5.014797e+01 6.619018e+01 6.338094e+01 2.288309e+02 2.089724e+00 2.651300e+00 2.775513e+00 3.129242e+00 3.490939e+00 3.087974e+00 3.104663e+00 3.533983e+00 3.137577e+00 2.863197e+00 2.928370e+00 2.394067e+00 2.720883e+00 3.091092e-01 4.239165e-01 4.125731e-01 5.277634e-01 5.698995e-01 5.316252e-01 5.608436e-01 6.346123e-01 5.558470e-01 5.247960e-01 5.251591e-01 4.400049e-01 3.629683e-01
<GCONST> 1.321380e+02
<TRANSP> 5
 0.000000e+00 1.000000e+00 0.000000e+00 0.000000e+00 0.000000e+00
 0.000000e+00 6.642827e-01 3.357173e-01 0.000000e+00 0.000000e+00
 0.000000e+00 0.000000e+00 6.642829e-01 3.357171e-01 0.000000e+00
 0.000000e+00 0.000000e+00 0.000000e+00 8.335069e-01 1.664931e-01
 0.000000e+00 0.000000e+00 0.000000e+00 0.000000e+00 0.000000e+00
<ENDHMM>
~h "ex"
<BEGINHMM>
<NUMSTATES> 5
<STATE> 2
<MEAN> 39
 -7.834232e+00 -1.649766e+00 3.649362e-01 -2.429072e+00 -7.823888e+00 -5.016321e+00 -6.150784e+00 -5.934045e-01 -4.286674e+00 4.360950e-02 -1.352544e+00 -2.384997e+00 5.721477e+01 2.624082e-02 -1.801138e-02 7.816711e-03 -1.515162e-02 -8.895801e-03 -2.814618e-02 7.992089e-03 1.109679e-03 -2.403510e-02 2.601656e-03 -4.456014e-02 -1.088565e-02 5.801518e-02 1.086922e-03 4.929890e-04 -2.462638e-03 7.910914e-04 2.110687e-03 2.672566e-04 -4.358604e-04 -1.343108e-03 9.160086e-04 -1.428299e-03 -2.801979e-03 6.359693e-05 -2.158768e-03
<VARIANCE> 39
 6.978390e+01 5.181206e+01 7.595633e+01 6.144071e+01 7.783615e+01 7.925674e+01 6.683200e+01 6.777068e+01 7.356059e+01 5.144424e+01 5.468976e+01 5.494601e+01 2.505634e+02 1.790575e+00 2.271422e+00 2.262779e+00 3.121000e+00 3.371672e+00 3.224612e+00 3.183601e+00 3.617504e+00 3.326650e+00 2.992449e+00 2.817930e+00 2.568228e+00 2.750303e+00 2.777706e-01 3.722291e-01 3.561811e-01 5.391709e-01 5.661648e-01 5.740756e-01 5.719930e-01 6.501268e-01 5.904995e-01 5.538474e-01 5.131568e-01 4.771746e-01 3.837872e-01
<GCONST> 1.311964e+02
<STATE> 3
<MEAN> 39
 -7.741194e+00 -1.709642e+00 4.206662e-01 -2.481058e+00 -7.872972e+00 -5.127859e+00 -6.136457e+00 -6.049516e-01 -4.396903e+00 4.629809e-02 -1.493564e+00 -2.402290e+00 5.743917e+01 3.014660e-02 -1.702763e-02 3.812418e-03 -1.139153e-02 -3.193646e-03 -2.762435e-02 6.277811e-03 -4.635560e-03 -2.389054e-02 -9.508200e-04 -5.160930e-02 -7.583833e-03 5.322783e-02 1.300370e-03 3.006916e-04 -5.769571e-04 1.069317e-03 1.280913e-03 -3.832353e-04 -1.042692e-03 -1.682671e-03 -3.219513e-04 -6.527877e-04 -1.562699e-03 1.163692e-03 -1.138539e-03
<VARIANCE> 39
 6.859125e+01 5.218259e+01 7.625447e+01 6.158043e+01 7.791080e+01 7.911964e+01 6.676100e+01 6.849028e+01 7.455165e+01 5.158496e+01 5.506118e+01 5.572846e+01 2.445435e+02 1.800933e+00 2.289865e+00 2.294963e+00 3.161575e+00 3.370894e+00 3.224113e+00 3.223094e+00 3.633608e+00 3.353302e+00 3.003975e+00 2.833423e+00 2.569795e+00 2.763687e+00 2.792289e-01 3.743742e-01 3.608357e-01 5.454592e-01 5.654287e-01 5.717635e-01 5.776525e-01 6.505062e-01 5.953062e-01 5.539882e-01 5.152478e-01 4.759758e-01 3.806664e-01
<GCONST> 1.313364e+02
<STATE> 4
<MEAN> 39
 -8.014101e+00 -1.690868e+00 3.183302e-01 -2.298084e+00 -8.117643e+00 -4.724732e+00 -6.092976e+00 -7.571290e-01 -4.650949e+00 -3.082231e-01 -1.661726e+00 -2.250434e+00 5.599153e+01 3.162298e-02 -1.701408e-02 1.674315e-02 -5.456139e-03 -8.088877e-03 -2.905199e-02 4.967004e-03 -1.280079e-02 -3.015439e-02 -9.146663e-04 -4.869805e-02 6.137610e-03 6.053360e-02 4.685640e-04 -7.467825e-07 -5.939871e-05 1.114671e-03 6.677032e-04 3.276650e-04 -8.191303e-04 -9.133264e-04 2.068904e-04 1.856099e-04 2.512093e-04 1.359401e-03 -1.764752e-03
<VARIANCE> 39
 7.288953e+01 5.389593e+01 7.881352e+01 6.184640e+01 7.481146e+01 7.803577e+01 6.376608e+01 6.675694e+01 7.397105e+01 5.113490e+01 5.141850e+01 5.662992e+01 2.503610e+02 1.898656e+00 2.386316e+00 2.286828e+00 3.072878e+00 3.234204e+00 3.068201e+00 3.131105e+00 3.415486e+00 3.255827e+00 2.884878e+00 2.752342e+00 2.397819e+00 2.786000e+00 2.877619e-01 3.906890e-01 3.564956e-01 5.306550e-01 5.463873e-01 5.428348e-01 5.624618e-01 6.133091e-01 5.819961e-01 5.306011e-01 5.044960e-01 4.405349e-01 3.738360e-01
<GCONST> 1.306946e+02
<TRANSP> 5
 0.000000e+00 1.000000e+00 0.000000e+00 0.000000e+00 0.000000e+00
 0.000000e+00 6.527922e-01 3.472079e-01 0.000000e+00 0.000000e+00
 0.000000e+00 0.000000e+00 6.527940e-01 3.472060e-01 0.000000e+00
 0.000000e+00 0.000000e+00 0.000000e+00 8.075845e-01 1.924155e-01
 0.000000e+00 0.000000e+00 0.000000e+00 0.000000e+00 0.000000e+00
<ENDHMM>
~h "ng"
<BEGINHMM>
<NUMSTATES> 5
<STATE> 2
<MEAN> 39
 -5.856618e+00 -1.233744e+00 -5.081086e-01 -3.246529e+00 -6.014224e+00 -3.738595e+00 -7.752332e+00 -2.486472e+00 -4.422441e+00 -5.086789e-01 -3.727095e+00 -2.900782e+00 5.947688e+01 1.401454e-02 1.092013e-03 4.054925e-03 9.853456e-03 9.182450e-03 -5.221048e-03 8.282583e-03 -3.159522e-03 -4.000328e-03 -9.919833e-03 -2.677297e-02 2.857724e-03 2.309354e-02 -9.410298e-04 -3.304383e-04 7.638673e-05 -1.270142e-04 -1.433469e-03 -1.171463e-03 -6.530888e-04 6.385393e-04 1.046060e-03 -3.604845e-04 2.581029e-03 8.583685e-04 -2.231144e-03
<VARIANCE> 39
 7.355226e+01 6.010165e+01 7.045149e+01 6.613042e+01 7.814936e+01 7.031790e+01 6.604998e+01 7.268172e+01 8.280257e+01 5.665006e+01 7.712940e+01 6.496432e+01 1.984036e+02 2.326495e+00 2.563895e+00 2.801538e+00 3.533455e+00 3.786485e+00 3.576733e+00 3.580621e+00 4.475972e+00 3.512046e+00 3.384907e+00 3.472381e+00 2.887955e+00 2.835091e+00 3.538321e-01 4.045778e-01 4.522341e-01 6.006112e-01 6.559306e-01 6.303771e-01 6.567960e-01 8.055993e-01 6.346322e-01 6.255303e-01 6.226062e-01 5.320045e-01 3.966801e-01
<GCONST> 1.354300e+02
<STATE> 3
<MEAN> 39
 -5.807656e+00 -1.232656e+00 -4.860665e-01 -3.229539e+00 -6.000006e+00 -3.757797e+00 -7.743990e+00 -2.499481e+00 -4.441827e+00 -5.373119e-01 -3.795225e+00 -2.896898e+00 5.955711e+01 1.371005e-02 2.721632e-04 4.929797e-03 8.542325e-03 4.677386e-03 -7.168964e-03 6.300813e-03 -2.101220e-03 -2.179035e-03 -1.058297e-02 -2.096254e-02 3.725066e-03 1.864343e-02 -4.553091e-04 -1.167038e-03 4.520632e-04 -1.354525e-03 -9.643967e-04 -2.573549e-04 -6.238892e-04 1.233104e-03 7.404044e-04 -7.754277e-04 2.612686e-03 4.573787e-04 -1.864753e-03
<VARIANCE> 39
 7.263602e+01 6.012361e+01 7.046098e+01 6.608828e+01 7.827722e+01 7.026904e+01 6.618064e+01 7.303384e+01 8.308661e+01 5.694337e+01 7.802139e+01 6.515840e+01 1.946430e+02 2.338251e+00 2.582125e+00 2.804364e+00 3.545480e+00 3.801633e+00 3.591250e+00 3.594223e+00 4.484563e+00 3.550972e+00 3.401983e+00 3.490809e+00 2.905524e+00 2.846963e+00 3.552843e-01 4.068125e-01 4.541425e-01 6.026738e-01 6.588014e-01 6.327757e-01 6.594614e-01 8.066732e-01 6.429819e-01 6.277215e-01 6.253002e-01 5.342910e-01 3.971823e-01
<GCONST> 1.355482e+02
<STATE> 4
<MEAN> 39
 -5.527727e+00 -1.335561e+00 -5.429448e-01 -3.157596e+00 -6.190135e+00 -3.461168e+00 -7.836452e+00 -2.505593e+00 -4.572916e+00 -7.450255e-01 -3.547610e+00 -2.960644e+00 5.889684e+01 1.737672e-02 -8.178097e-04 7.120821e-03 7.873937e-04 -1.370905e-03 -5.210562e-03 1.340140e-03 -1.136370e-03 -4.145300e-03 -1.064910e-02 -1.517086e-02 2.229874e-03 1.993721e-02 -4.579080e-06 -1.192959e-03 2.629828e-04 -1.844143e-03 2.260871e-04 5.757107e-04 -4.032956e-04 1.212892e-03 6.620946e-04 -6.489237e-04 1.862965e-03 2.213573e-04 -1.263174e-03
<VARIANCE> 39
 7.836899e+01 6.281897e+01 7.371856e+01 6.780862e+01 7.750620e+01 7.157874e+01 6.720528e+01 7.248713e+01 8.188931e+01 5.548593e+01 7.661204e+01 6.271935e+01 1.929362e+02 2.480929e+00 2.739885e+00 2.872138e+00 3.630182e+00 3.778684e+00 3.601465e+00 3.605136e+00 4.432749e+00 3.621562e+00 3.371343e+00 3.455573e+00 2.828005e+00 2.900462e+00 3.737766e-01 4.334544e-01 4.632808e-01 6.146815e-01 6.560372e-01 6.307878e-01 6.602271e-01 7.956110e-01 6.535801e-01 6.236957e-01 6.203568e-01 5.218186e-01 4.014804e-01
<GCONST> 1.359189e+02
<TRANSP> 5
 0.000000e+00 1.000000e+00 0.000000e+00 0.000000e+00 0.000000e+00
 0.000000e+00 6.182468e-01 3.817532e-01 0.000000e+00 0.000000e+00
 0.000000e+00 0.000000e+00 6.182503e-01 3.817496e-01 0.000000e+00
 0.000000e+00 0.000000e+00 0.000000e+00 7.477551e-01 2.522449e-01
 0.000000e+00 0.000000e+00 0.000000e+00 0.000000e+00 0.000000e+00
<ENDHMM>
~h "ny"
<BEGINHMM>
<NUMSTATES> 5
<STATE> 2
<MEAN> 39
 -5.643554e+00 -1.640644e+00 1.046015e-01 -3.417955e+00 -6.402531e+00 -4.564719e+00 -6.858938e+00 -1.604490e+00 -4.750533e+00 -1.367960e+00 -3.411179e+00 -2.821735e+00 6.078826e+01 -2.081092e-02 -1.140632e-02 -2.532021e-03 -5.507242e-03 2.337037e-02 2.143259e-02 3.647185e-02 1.651136e-02 2.866493e-02 -3.366783e-02 2.470638e-03 5.050267e-03 -1.696292e-02 -1.948243e-03 1.532405e-03 -2.504918e-03 9.635267e-04 1.621464e-03 5.115416e-04 -1.561561e-03 -1.200510e-03 -6.230155e-04 2.276162e-03 -1.023419e-03 1.070738e-04 -5.126048e-03
<VARIANCE> 39
 5.921329e+01 6.017391e+01 6.860084e+01 6.760809e+01 7.785062e+01 6.984566e+01 7.675707e+01 7.834865e+01 8.338280e+01 5.981420e+01 7.818823e+01 7.084128e+01 1.787302e+02 2.156725e+00 2.827939e+00 2.690294e+00 3.582554e+00 3.880533e+00 3.380776e+00 3.794801e+00 4.180562e+00 3.593102e+00 3.550253e+00 3.304959e+00 2.961070e+00 3.108803e+00 3.437904e-01 4.430440e-01 4.321858e-01 6.328354e-01 6.848778e-01 6.163420e-01 6.960812e-01 7.644538e-01 6.561373e-01 6.687769e-01 6.099752e-01 5.480853e-01 4.327624e-01
<GCONST> 1.358654e+02
<STATE> 3
<MEAN> 39
 -5.699093e+00 -1.669757e+00 1.136803e-01 -3.428951e+00 -6.340506e+00 -4.522108e+00 -6.760767e+00 -1.570804e+00 -4.685511e+00 -1.461942e+00 -3.424343e+00 -2.798901e+00 6.075594e+01 -2.436098e-02 -6.991463e-03 -9.678351e-03 -9.706232e-04 2.788524e-02 2.261230e-02 2.989710e-02 1.456079e-02 2.705779e-02 -2.749060e-02 7.195733e-04 4.922931e-03 -3.161010e-02 -1.497441e-03 2.356435e-03 -3.180662e-03 1.365930e-03 1.912799e-03 -3.489839e-04 -3.444216e-03 -1.559849e-03 -1.995988e-03 3.437492e-03 -2.331133e-04 -8.851860e-04 -4.598717e-03
<VARIANCE> 39
 5.899121e+01 5.942945e+01 6.795879e+01 6.754837e+01 7.785005e+01 6.975854e+01 7.699082e+01 7.775764e+01 8.378370e+01 6.058197e+01 7.812992e+01 7.111460e+01 1.785205e+02 2.171445e+00 2.816423e+00 2.677866e+00 3.560279e+00 3.870254e+00 3.380062e+00 3.807702e+00 4.146259e+00 3.578419e+00 3.552925e+00 3.319399e+00 2.929480e+00 3.083664e+00 3.473013e-01 4.430266e-01 4.286283e-01 6.288939e-01 6.836395e-01 6.172850e-01 7.005547e-01 7.585389e-01 6.526542e-01 6.696100e-01 6.137959e-01 5.436674e-01 4.298515e-01
<GCONST> 1.358002e+02
<STATE> 4
<MEAN> 39
 -5.415558e+00 -1.961126e+00 -2.173198e-01 -3.384938e+00 -6.286524e+00 -4.028539e+00 -6.804624e+00 -1.552861e+00 -4.714525e+00 -1.636313e+00 -3.204261e+00 -2.981221e+00 5.985458e+01 -2.784590e-02 1.398601e-03 -1.405373e-02 1.034006e-02 3.173835e-02 1.535286e-02 1.715135e-02 9.435926e-03 1.993794e-02 -1.936113e-02 -1.964548e-03 3.283106e-03 -4.509045e-02 -1.154314e-03 3.188047e-03 -2.935036e-03 1.456649e-03 1.673608e-03 -1.097940e-03 -3.774732e-03 -1.544109e-03 -2.152529e-03 3.753081e-03 1.051284e-03 -1.296300e-03 -3.646684e-03
<VARIANCE> 39
 6.662717e+01 6.350518e+01 7.444054e+01 7.052726e+01 8.077332e+01 7.105878e+01 7.619351e+01 7.639930e+01 8.269097e+01 5.904393e+01 7.502600e+01 7.148108e+01 1.815001e+02 2.395521e+00 3.101354e+00 2.820061e+00 3.674813e+00 3.884461e+00 3.345025e+00 3.739092e+00 4.053703e+00 3.579800e+00 3.429794e+00 3.253525e+00 2.843208e+00 3.151795e+00 3.713842e-01 4.919769e-01 4.374688e-01 6.501092e-01 6.802466e-01 6.083926e-01 6.856611e-01 7.427408e-01 6.466603e-01 6.486241e-01 6.059141e-01 5.284765e-01 4.373273e-01
<GCONST> 1.363579e+02
<TRANSP> 5
 0.000000e+00 1.000000e+00 0.000000e+00 0.000000e+00 0.000000e+00
 0.000000e+00 6.322009e-01 3.677990e-01 0.000000e+00 0.000000e+00
 0.000000e+00 0.000000e+00 6.321984e-01 3.678016e-01 0.000000e+00
 0.000000e+00 0.000000e+00 0.000000e+00 7.769592e-01 2.230408e-01
 0.000000e+00 0.000000e+00 0.000000e+00 0.000000e+00 0.000000e+00
<ENDHMM>
~h "sy"
<BEGINHMM>
<NUMSTATES> 5
<STATE> 2
<MEAN> 39
 -1.208247e+01 1.799061e+00 1.039670e+00 -1.869950e-01 -6.082652e+00 -3.714881e+00 -5.244167e+00 -2.352178e+00 -4.001538e+00 -1.861907e+00 -1.545579e-01 -2.867023e+00 5.088005e+01 -2.392195e-03 -6.243245e-02 -2.671500e-01 1.116091e-01 2.071152e-01 -8.538287e-02 1.838076e-01 4.990073e-02 2.408004e-01 -8.090678e-02 -1.254811e-01 6.189959e-02 -1.273580e-01 -6.407730e-03 -4.613655e-03 -7.301083e-03 -9.372996e-03 1.734814e-03 5.632290e-03 3.221147e-04 2.230725e-02 5.761934e-03 1.518319e-02 -1.125950e-02 4.269756e-03 6.169016e-03
<VARIANCE> 39
 5.168770e+01 4.037634e+01 1.111380e+02 3.440088e+01 5.898556e+01 4.898746e+01 5.730684e+01 5.550477e+01 6.445428e+01 4.912895e+01 3.800279e+01 3.682961e+01 2.122238e+02 2.115276e+00 1.180541e+00 1.399188e+00 1.566153e+00 2.646082e+00 2.334002e+00 3.003591e+00 2.457033e+00 2.766116e+00 2.578372e+00 1.717915e+00 1.665192e+00 1.595966e+00 2.760112e-01 1.700329e-01 2.049799e-01 2.371801e-01 3.869809e-01 4.362791e-01 5.003674e-01 4.604683e-01 5.104668e-01 4.258262e-01 2.763933e-01 2.855189e-01 1.576146e-01
<GCONST> 1.180247e+02
<STATE> 3
<MEAN> 39
 -1.219963e+01 1.612484e+00 2.448822e-01 1.947706e-01 -5.438285e+00 -3.882892e+00 -4.623810e+00 -2.151358e+00 -3.321411e+00 -2.055117e+00 -4.841392e-01 -2.662022e+00 5.029478e+01 -2.548755e-02 -7.743750e-02 -2.839869e-01 8.118974e-02 1.996560e-01 -6.450409e-02 1.718154e-01 1.093563e-01 2.400494e-01 -3.397435e-02 -1.464399e-01 8.548791e-02 -1.084048e-01 -5.337931e-03 -3.286829e-03 1.195109e-03 -1.325830e-02 -9.208172e-03 8.386152e-03 -7.615322e-03 1.347949e-02 -1.070722e-02 1.764305e-02 -2.568406e-03 5.821845e-03 7.905165e-03
<VARIANCE> 39
 5.081088e+01 3.719168e+01 9.306934e+01 3.283582e+01 5.101356e+01 4.697576e+01 5.704887e+01 5.459463e+01 5.883192e+01 4.476756e+01 3.295123e+01 3.600409e+01 2.019464e+02 2.242516e+00 1.248685e+00 1.263313e+00 1.549069e+00 2.471284e+00 2.179006e+00 3.166984e+00 2.361097e+00 2.678517e+00 2.464097e+00 1.740322e+00 1.652839e+00 1.655534e+00 2.949573e-01 1.821718e-01 1.914674e-01 2.435397e-01 3.707246e-01 4.004962e-01 5.302314e-01 4.377906e-01 5.039248e-01 4.196542e-01 2.877158e-01 2.717303e-01 1.609042e-01
<GCONST> 1.168926e+02
<STATE> 4
<MEAN> 39
 -1.244910e+01 1.476501e+00 -6.605780e-01 5.989146e-01 -4.941758e+00 -3.710191e+00 -4.191268e+00 -1.983656e+00 -2.841960e+00 -2.260854e+00 -1.053776e+00 -2.442746e+00 4.876131e+01 -5.874703e-02 -9.318420e-02 -2.842655e-01 4.897635e-02 1.454406e-01 -3.354983e-02 1.391366e-01 1.374396e-01 1.894553e-01 2.054098e-02 -1.231961e-01 1.222372e-01 -1.234642e-01 -1.875652e-03 -6.235912e-04 7.463964e-03 -1.596052e-02 -1.894282e-02 7.408941e-03 -1.701346e-02 -8.617203e-04 -2.077519e-02 1.412050e-02 7.109857e-03 6.840670e-03 1.143224e-02
<VARIANCE> 39
 4.978980e+01 3.405091e+01 7.732949e+01 3.051585e+01 4.174363e+01 4.465857e+01 5.383528e+01 5.103005e+01 5.219335e+01 4.085435e+01 2.757076e+01 3.438327e+01 1.970358e+02 2.117029e+00 1.264112e+00 1.120357e+00 1.465054e+00 2.264349e+00 1.911463e+00 3.085634e+00 2.300916e+00 2.556425e+00 2.357224e+00 1.697969e+00 1.570065e+00 1.510761e+00 2.783339e-01 1.876989e-01 1.725423e-01 2.417801e-01 3.576186e-01 3.523706e-01 5.233600e-01 4.214702e-01 4.914610e-01 4.060091e-01 2.878277e-01 2.491921e-01 1.429533e-01
<GCONST> 1.143218e+02
<TRANSP> 5
 0.000000e+00 1.000000e+00 0.000000e+00 0.000000e+00 0.000000e+00
 0.000000e+00 6.324657e-01 3.675343e-01 0.000000e+00 0.000000e+00
 0.000000e+00 0.000000e+00 6.324657e-01 3.675343e-01 0.000000e+00
 0.000000e+00 0.000000e+00 0.000000e+00 7.516068e-01 2.483932e-01
 0.000000e+00 0.000000e+00 0.000000e+00 0.000000e+00 0.000000e+00
<ENDHMM>
~h "sil"
<BEGINHMM>
<NUMSTATES> 5
<STATE> 2
<MEAN> 39
 -1.433055e+01 2.027755e+00 -3.649852e+00 2.297609e+00 -3.953369e+00 1.193884e+00 -3.262124e+00 -5.620639e-01 -1.074515e+00 -1.451580e+00 -1.030788e+00 -7.076848e-01 3.905024e+01 1.530714e-01 -4.191642e-02 -1.350247e-01 2.639325e-02 8.071293e-02 -1.537668e-01 -1.986290e-01 -9.243073e-02 -6.532694e-02 2.190846e-02 1.372308e-03 2.192166e-02 5.030642e-01 4.467618e-02 -1.725955e-02 4.711071e-02 9.058444e-04 8.273290e-03 -2.963206e-02 4.727972e-03 1.727422e-02 -2.703688e-02 -1.406476e-02 -3.878442e-02 -8.126309e-03 1.812810e-01
<VARIANCE> 39
