~o
<STREAMINFO> 1 39
<VECSIZE> 39<NULLD><MFCC_D_A_0><DIAGC>
~s "silst"
<MEAN> 39
 -6.921371e+00 -1.763433e+00 -1.871598e+00 -3.051106e-01 -7.088573e+00 -7.579010e-01 -7.047893e+00 -1.558014e+00 -3.358028e+00 -2.261588e+00 -7.178045e-01 -2.788109e+00 4.833646e+01 3.459933e-01 -1.322961e-01 7.450982e-02 -1.149845e-01 -1.319756e-02 -2.845832e-01 -1.790045e-01 -7.947936e-02 -1.484978e-01 -1.811195e-02 -9.108834e-02 -3.182008e-02 9.577572e-01 -1.786897e-02 -6.250259e-03 1.569704e-02 1.731346e-02 -2.518126e-03 2.129698e-02 1.785581e-02 2.100013e-02 1.829225e-02 3.758461e-03 3.927870e-03 1.554791e-02 -6.734526e-02
<VARIANCE> 39
 1.284063e+02 8.669263e+01 8.540456e+01 5.800906e+01 7.405651e+01 6.990144e+01 6.234975e+01 5.980650e+01 6.238548e+01 4.240918e+01 4.054240e+01 3.515611e+01 2.185076e+02 5.409980e+00 4.701059e+00 3.798276e+00 4.155062e+00 4.261462e+00 4.489419e+00 4.420152e+00 4.547976e+00 4.436593e+00 3.310218e+00 3.114652e+00 2.242069e+00 8.036471e+00 7.374904e-01 7.617734e-01 6.070333e-01 7.421208e-01 7.478049e-01 7.867702e-01 7.865928e-01 8.144634e-01 7.993309e-01 6.104206e-01 5.843149e-01 4.250320e-01 1.162746e+00
<GCONST> 1.411603e+02
~h "a"
<BEGINHMM>
<NUMSTATES> 5
<STATE> 2
<MEAN> 39
 -2.950347e+00 -7.621305e+00 -2.838003e+00 -9.345129e+00 -6.557199e+00 -7.358991e+00 -8.224561e+00 1.348443e+00 -1.585700e+00 7.562898e-01 -4.583525e+00 -6.150302e+00 7.005943e+01 2.798790e-01 -9.305749e-01 -4.558887e-01 -5.926380e-01 2.940024e-01 1.889521e-02 4.549885e-01 5.637795e-01 5.385298e-01 -3.828137e-01 -6.141831e-01 -8.467033e-01 9.122480e-01 -1.728736e-01 4.956439e-01 2.057239e-01 5.277089e-01 2.238135e-01 1.292250e-01 6.256942e-02 -3.358133e-01 -2.199216e-01 -6.619166e-02 1.642017e-02 2.933215e-01 -6.295812e-01
<VARIANCE> 39
 3.309218e+01 4.347551e+01 5.040748e+01 5.379253e+01 9.758349e+01 8.130833e+01 7.618674e+01 1.071860e+02 9.492413e+01 6.055701e+01 8.120277e+01 1.152599e+02 1.125185e+02 1.448497e+00 2.015321e+00 2.381497e+00 2.693758e+00 3.710989e+00 3.993841e+00 3.684255e+00 4.699856e+00 3.176933e+00 3.511727e+00 3.354903e+00 3.419326e+00 2.274556e+00 2.824739e-01 3.601256e-01 4.312471e-01 5.057980e-01 7.542629e-01 6.676291e-01 7.269180e-01 8.674129e-01 6.390612e-01 6.850566e-01 6.595862e-01 7.442270e-01 3.742500e-01
<GCONST> 1.340401e+02
<STATE> 3
<MEAN> 39
 -2.591463e+00 -8.609898e+00 -3.220714e+00 -1.016324e+01 -4.128443e+00 -7.556105e+00 -6.559560e+00 1.858505e+00 -1.194831e+00 -4.217860e-01 -6.554975e+00 -6.077558e+00 7.191724e+01 1.559075e-01 4.328131e-01 1.685310e-01 3.632547e-01 3.493224e-01 1.368220e-01 8.093813e-02 -3.813920e-01 -6.564435e-02 -2.532126e-02 -1.984698e-01 2.097474e-01 -6.497125e-01 2.890842e-02 3.407477e-01 1.518603e-01 2.703370e-01 -2.564499e-03 6.252264e-02 -1.288876e-01 -2.294493e-01 -1.126915e-01 9.425490e-02 4.495915e-02 1.874194e-01 -3.946623e-01
<VARIANCE> 39
 2.252909e+01 4.468085e+01 3.738119e+01 4.985408e+01 9.512648e+01 8.251574e+01 8.049216e+01 1.033077e+02 9.198901e+01 5.770638e+01 7.786692e+01 1.188697e+02 6.505340e+01 5.307212e-01 1.078021e+00 1.293162e+00 1.463282e+00 2.072884e+00 2.069011e+00 2.176116e+00 2.560119e+00 2.008882e+00 2.273976e+00 2.021624e+00 2.187218e+00 1.019252e+00 1.078885e-01 1.678347e-01 2.150069e-01 2.727005e-01 3.596397e-01 3.983963e-01 4.536135e-01 5.266174e-01 3.993420e-01 4.206712e-01 3.989079e-01 4.065130e-01 1.348508e-01
<GCONST> 1.164496e+02
<STATE> 4
<MEAN> 39
 -5.278151e+00 -2.722032e+00 -3.058615e+00 -2.448430e+00 -3.128645e+00 -2.945061e+00 -5.037181e+00 -1.031993e+00 -1.461493e+00 -1.502911e+00 -5.290579e+00 -3.750844e+00 5.747841e+01 -1.647041e-01 7.931846e-01 1.965556e-01 8.804814e-01 2.604212e-01 4.009734e-01 4.142522e-02 -4.094638e-01 -9.030803e-02 2.998497e-02 -5.296283e-02 3.155595e-01 -1.423939e+00 -9.451526e-02 -1.289172e-02 1.765249e-02 -9.670001e-03 -7.297122e-02 -2.246869e-02 5.200093e-03 7.130462e-02 -3.884384e-02 -1.008531e-02 4.429342e-02 -2.110380e-02 5.098172e-02
<VARIANCE> 39
 5.280295e+01 4.068079e+01 4.170797e+01 6.104343e+01 6.985461e+01 7.222334e+01 5.549026e+01 6.408527e+01 6.795358e+01 5.009830e+01 5.785325e+01 5.091083e+01 1.820581e+02 9.427945e-01 1.564910e+00 1.613822e+00 2.478240e+00 2.601434e+00 2.826637e+00 3.360001e+00 3.780602e+00 3.033295e+00 2.806561e+00 2.801875e+00 2.840806e+00 1.485399e+00 1.378817e-01 1.917827e-01 2.471404e-01 3.587409e-01 3.838626e-01 4.654376e-01 4.859801e-01 5.419990e-01 5.006595e-01 4.797022e-01 4.737379e-01 4.272393e-01 1.375323e-01
<GCONST> 1.220234e+02
<TRANSP> 5
 0.000000e+00 1.000000e+00 0.000000e+00 0.000000e+00 0.000000e+00
 0.000000e+00 4.791737e-01 5.208263e-01 0.000000e+00 0.000000e+00
 0.000000e+00 0.000000e+00 7.140842e-01 2.859158e-01 0.000000e+00
 0.000000e+00 0.000000e+00 0.000000e+00 6.524411e-01 3.475589e-01
 0.000000e+00 0.000000e+00 0.000000e+00 0.000000e+00 0.000000e+00
<ENDHMM>
~h "b"
<BEGINHMM>
<NUMSTATES> 5
<STATE> 2
<MEAN> 39
 -1.286548e+00 4.111778e+00 5.038050e-01 4.605030e-01 -4.660380e+00 -2.331382e+00 -7.215209e+00 -6.418187e+00 -5.050151e+00 -1.599836e+00 -3.228046e+00 -4.351051e+00 5.594580e+01 -1.086227e-01 6.454666e-01 1.418750e-01 5.379129e-01 4.464890e-01 1.288770e-01 3.934550e-01 8.608578e-02 -2.569590e-01 -4.926035e-01 -2.338791e-02 -1.308898e-03 -5.104834e-01 -6.904478e-02 -3.106703e-01 -1.262912e-01 -4.865732e-01 -4.137856e-01 -2.786728e-01 -3.342849e-01 8.936532e-02 -1.983279e-02 1.867925e-01 3.387650e-01 1.156293e-01 6.349711e-01
<VARIANCE> 39
 5.657518e+01 3.264584e+01 3.750845e+01 3.572839e+01 3.405284e+01 3.605762e+01 3.330368e+01 4.065779e+01 4.160802e+01 3.290352e+01 3.830911e+01 2.711618e+01 9.697322e+01 1.257686e+00 1.249557e+00 1.675405e+00 2.535818e+00 2.577251e+00 2.870368e+00 2.743202e+00 3.024415e+00 2.507414e+00 2.793289e+00 3.104028e+00 2.068033e+00 1.469746e+00 2.483082e-01 2.925260e-01 3.950647e-01 4.813786e-01 5.229785e-01 5.988415e-01 7.482960e-01 6.862186e-01 6.679050e-01 5.744061e-01 5.695976e-01 5.914763e-01 2.517085e-01
<GCONST> 1.201365e+02
<STATE> 3
<MEAN> 39
 -1.866754e+00 5.120103e+00 1.311407e+00 1.557781e+00 -4.499517e+00 -2.212295e+00 -7.494411e+00 -6.770484e+00 -7.339343e+00 -2.686869e+00 -3.057588e+00 -3.097055e+00 5.411378e+01 1.118074e-01 -5.102399e-01 -8.402475e-01 -1.096023e+00 -6.554798e-01 -6.258765e-01 -9.821333e-01 1.369372e-01 -2.028326e-01 4.758201e-01 1.248716e+00 6.356950e-01 1.685133e+00 1.768981e-02 -6.344547e-01 -1.546236e-01 -9.109377e-01 -4.921731e-01 -1.073720e-01 -6.043090e-01 3.426152e-01 1.055403e-01 6.616815e-01 1.296836e-01 9.506532e-02 8.778377e-01
<VARIANCE> 39
 4.916653e+01 3.622624e+01 4.517599e+01 4.715224e+01 3.660796e+01 4.238451e+01 3.936457e+01 4.681897e+01 5.054992e+01 4.344140e+01 3.998367e+01 3.308669e+01 9.153910e+01 3.225343e+00 4.067666e+00 6.056209e+00 7.026446e+00 5.259744e+00 5.870359e+00 6.083949e+00 5.887195e+00 5.813815e+00 7.040060e+00 5.720207e+00 4.627220e+00 3.382684e+00 4.844660e-01 6.946611e-01 7.964257e-01 9.299743e-01 9.133191e-01 1.013717e+00 1.005495e+00 1.185393e+00 1.161105e+00 1.288307e+00 9.887267e-01 9.333775e-01 4.530926e-01
<GCONST> 1.408709e+02
<STATE> 4
<MEAN> 39
 -1.206905e+00 3.221736e-01 -2.651271e+00 -5.175353e+00 -6.960204e+00 -3.639475e+00 -1.197587e+01 -6.249335e+00 -6.976393e+00 2.406359e+00 1.231666e+00 -1.675793e+00 6.139273e+01 1.255806e-01 -1.736315e+00 -4.816527e-01 -2.523766e+00 -1.467540e+00 -5.325875e-01 -1.645325e+00 1.152264e+00 4.607042e-01 1.673863e+00 5.521128e-01 -1.059626e-01 2.750355e+00 -7.660445e-02 1.828141e-02 4.570257e-01 1.712425e-01 -1.124234e-01 3.156978e-02 2.032919e-01 3.192589e-01 1.703887e-01 -1.968166e-01 -5.771640e-01 -2.471959e-01 -1.085482e-01
<VARIANCE> 39
 5.236588e+01 3.949663e+01 4.234414e+01 8.793312e+01 5.000367e+01 6.544869e+01 6.253013e+01 5.528996e+01 6.765565e+01 7.450545e+01 5.323453e+01 5.239363e+01 1.057484e+02 3.429738e+00 4.545286e+00 6.047523e+00 6.540934e+00 5.993180e+00 7.013726e+00 7.053233e+00 8.434974e+00 8.379579e+00 8.400157e+00 6.823261e+00 5.602853e+00 3.182667e+00 4.456335e-01 5.146171e-01 6.402514e-01 1.111911e+00 8.170161e-01 9.468898e-01 9.751309e-01 1.001213e+00 8.370846e-01 1.336495e+00 1.080689e+00 7.136482e-01 4.534525e-01
<GCONST> 1.451681e+02
<TRANSP> 5
 0.000000e+00 1.000000e+00 0.000000e+00 0.000000e+00 0.000000e+00
 0.000000e+00 5.906369e-01 4.093630e-01 0.000000e+00 0.000000e+00
 0.000000e+00 0.000000e+00 4.001427e-01 5.998574e-01 0.000000e+00
 0.000000e+00 0.000000e+00 0.000000e+00 3.272110e-01 6.727890e-01
 0.000000e+00 0.000000e+00 0.000000e+00 0.000000e+00 0.000000e+00
<ENDHMM>
~h "c"
<BEGINHMM>
<NUMSTATES> 5
<STATE> 2
<MEAN> 39
 -8.506412e+00 3.097230e+00 4.302998e-01 -5.102912e-01 -3.321745e+00 -6.498505e+00 -5.335344e+00 -1.066598e+00 -1.995637e+00 -1.018109e+00 -3.428995e+00 -1.073036e+00 5.586865e+01 -1.986963e+00 6.219285e-01 -5.614081e-01 -3.176676e-01 6.533380e-01 4.999235e-01 4.979292e-01 8.837891e-02 -2.795278e-02 8.835891e-02 7.101443e-01 -5.339221e-02 2.470301e-02 -5.537055e-01 -3.598280e-02 4.214408e-02 -4.644435e-01 -1.671243e-01 -1.532558e-01 -7.917452e-02 2.781008e-02 -1.686910e-01 1.706725e-02 1.664794e-01 1.573237e-01 8.284450e-01
<VARIANCE> 39
 3.902248e+01 3.599768e+01 4.158685e+01 3.318515e+01 3.532273e+01 6.716605e+01 4.488913e+01 4.460770e+01 5.689220e+01 3.484006e+01 5.165132e+01 3.698388e+01 9.303130e+01 5.874863e+00 3.425513e+00 2.522685e+00 4.155759e+00 3.090102e+00 4.744491e+00 4.226156e+00 4.028355e+00 4.636752e+00 4.492198e+00 3.564038e+00 3.076553e+00 5.753238e+00 8.325781e-01 5.921285e-01 5.031805e-01 6.018034e-01 5.517219e-01 8.067777e-01 7.168326e-01 7.626078e-01 8.287132e-01 8.442920e-01 7.208657e-01 6.457224e-01 6.243969e-01
<GCONST> 1.343527e+02
<STATE> 3
<MEAN> 39
 -2.299426e+01 6.048774e+00 3.788128e-01 -6.552901e+00 -1.662646e+00 -5.958938e+00 -3.718849e+00 -6.631819e-01 -5.077241e+00 -6.689924e-01 3.632354e-01 6.675052e-01 6.460416e+01 -9.567908e-01 -1.604277e-01 8.485467e-01 -6.640376e-01 -1.047640e+00 -7.544206e-01 -6.521243e-02 2.534302e-01 -4.519633e-01 -2.518833e-01 2.971752e-01 6.241282e-01 1.668410e+00 1.923939e+00 -6.277494e-01 3.070812e-01 4.516049e-01 -7.507107e-01 -5.383036e-01 -4.059774e-01 -9.299197e-02 1.015905e-01 -1.808887e-01 -3.817626e-01 -1.471828e-01 -2.669405e-01
<VARIANCE> 39
 4.932225e+01 4.896145e+01 3.914145e+01 4.094419e+01 3.756489e+01 4.368384e+01 7.130475e+01 5.688192e+01 8.112502e+01 6.838911e+01 5.016098e+01 4.132404e+01 6.502203e+01 1.220195e+01 3.598840e+00 3.452834e+00 3.681614e+00 4.275684e+00 4.536891e+00 4.609920e+00 5.105009e+00 3.570292e+00 4.305236e+00 3.242357e+00 3.389911e+00 3.586108e+00 1.040578e+00 7.796302e-01 5.986204e-01 7.225530e-01 8.138227e-01 9.666830e-01 1.174262e+00 1.158746e+00 9.330406e-01 1.165394e+00 7.418506e-01 7.421591e-01 4.382411e-01
<GCONST> 1.395274e+02
<STATE> 4
<MEAN> 39
 -1.197461e+01 1.375869e+00 2.730713e+00 -4.905441e+00 -8.992705e+00 -1.276806e+01 -7.046685e+00 -1.124655e-02 -3.703792e+00 -3.735148e+00 -1.632919e+00 1.099877e+00 6.722108e+01 4.251671e+00 -2.014227e+00 5.610897e-02 -1.331581e-01 -1.931512e+00 -1.657385e+00 -9.728144e-01 -2.024327e-01 3.045387e-01 -1.690907e-01 -7.931572e-01 -6.074075e-01 1.492782e+00 -8.902699e-02 -5.240700e-02 -4.071907e-01 -1.506964e-01 5.498363e-01 5.841962e-01 1.913326e-01 -1.069074e-01 -1.723502e-02 3.231153e-01 1.787802e-02 -3.000446e-01 -1.451001e-01
<VARIANCE> 39
 6.311970e+01 4.144746e+01 4.012624e+01 2.788370e+01 4.641946e+01 5.589080e+01 6.338036e+01 6.474493e+01 5.584766e+01 4.263265e+01 3.621344e+01 6.672170e+01 8.026012e+01 3.623828e+00 3.884331e+00 3.358410e+00 2.949101e+00 6.187582e+00 5.573184e+00 7.425677e+00 6.868107e+00 4.271321e+00 5.359694e+00 3.202278e+00 4.309219e+00 1.926785e+00 1.353168e+00 5.019151e-01 3.815433e-01 3.847435e-01 7.902747e-01 7.656035e-01 8.688818e-01 8.218728e-01 5.035986e-01 6.024576e-01 5.481479e-01 5.829927e-01 3.104407e-01
<GCONST> 1.348710e+02
<TRANSP> 5
 0.000000e+00 1.000000e+00 0.000000e+00 0.000000e+00 0.000000e+00
 0.000000e+00 7.424764e-01 2.575236e-01 0.000000e+00 0.000000e+00
 0.000000e+00 0.000000e+00 6.693627e-01 3.306372e-01 0.000000e+00
 0.000000e+00 0.000000e+00 0.000000e+00 5.513020e-01 4.486981e-01
 0.000000e+00 0.000000e+00 0.000000e+00 0.000000e+00 0.000000e+00
<ENDHMM>
~h "d"
<BEGINHMM>
<NUMSTATES> 5
<STATE> 2
<MEAN> 39
 -1.333416e+00 3.318754e+00 3.889866e+00 1.922991e+00 -5.323523e+00 -6.000246e+00 -8.004511e+00 -2.924300e+00 -3.463233e+00 -3.371454e+00 -6.307389e+00 -3.340522e+00 5.669371e+01 -4.588236e-01 6.861642e-02 9.068252e-01 -7.112565e-02 5.382365e-02 -3.840683e-02 1.832456e-02 2.363861e-01 -4.965834e-01 -4.611369e-01 4.055354e-01 1.455662e-01 3.327617e-01 -3.556553e-01 -6.875041e-01 1.832191e-01 -7.809483e-01 -8.518650e-01 -4.729940e-01 -3.702683e-01 2.788576e-01 -1.801286e-01 2.943413e-01 5.998731e-01 2.610010e-01 1.125401e+00
<VARIANCE> 39
 4.252143e+01 4.064177e+01 4.586792e+01 3.710499e+01 3.651037e+01 4.662339e+01 3.873171e+01 5.121124e+01 4.607444e+01 3.483189e+01 5.223331e+01 3.413526e+01 8.933162e+01 2.376296e+00 3.850564e+00 3.243479e+00 4.974923e+00 4.291735e+00 5.204045e+00 4.402224e+00 5.198313e+00 3.833696e+00 3.376525e+00 4.543743e+00 3.384607e+00 4.320347e+00 3.643557e-01 5.452327e-01 5.944402e-01 6.553974e-01 8.747874e-01 9.174352e-01 9.632630e-01 1.163596e+00 1.057842e+00 7.205048e-01 8.289561e-01 8.422142e-01 3.850113e-01
<GCONST> 1.347014e+02
<STATE> 3
<MEAN> 39
 -5.068949e+00 -4.985268e-01 6.755129e+00 -1.497713e+00 -6.496076e+00 -6.609355e+00 -9.952615e+00 -8.880438e-01 -5.535748e+00 -3.821898e+00 -4.093850e+00 -5.919562e-01 5.989966e+01 -1.026061e+00 -1.640120e+00 1.041679e+00 -1.908867e+00 -2.256383e+00 -1.598526e+00 -1.171939e+00 1.237641e+00 -9.950235e-01 6.295044e-01 1.650636e+00 1.035295e+00 2.962443e+00 1.391762e-01 -8.937487e-02 -2.320333e-01 -1.829349e-01 -6.848765e-01 -2.160003e-01 -1.615003e-01 1.328478e-01 -3.966181e-02 4.881223e-01 6.313312e-02 -1.383504e-01 4.519007e-01
<VARIANCE> 39
 3.658840e+01 3.627318e+01 7.157674e+01 4.934082e+01 4.638115e+01 6.847164e+01 7.264313e+01 5.166594e+01 6.140151e+01 4.292304e+01 5.885110e+01 5.614182e+01 1.227162e+02 2.329053e+00 4.500866e+00 6.349914e+00 5.267350e+00 5.740203e+00 5.643388e+00 6.109837e+00 1.029955e+01 7.748105e+00 5.630755e+00 6.225293e+00 6.019837e+00 4.114985e+00 2.732442e-01 4.694811e-01 6.602926e-01 8.154221e-01 1.085631e+00 1.370597e+00 1.102036e+00 1.012050e+00 9.566621e-01 1.118683e+00 1.085405e+00 8.727779e-01 4.051335e-01
<GCONST> 1.433586e+02
<STATE> 4
<MEAN> 39
 -4.460228e+00 -4.535845e+00 8.437399e+00 -4.711848e+00 -1.427737e+01 -1.045953e+01 -1.367865e+01 1.721551e+00 -6.743790e+00 -1.393365e+00 5.575711e-01 -8.131865e-01 6.641505e+01 -2.488237e-01 -8.519651e-01 8.499560e-02 -1.151167e+00 -2.248193e+00 -1.054462e+00 -5.716890e-01 9.208224e-01 -2.240487e-01 8.429440e-01 1.012326e+00 -1.095961e-02 2.148184e+00 2.670709e-01 4.720892e-01 -4.042279e-01 4.547859e-01 3.959404e-01 4.342818e-01 3.525057e-01 -3.058987e-01 2.004868e-01 -2.012987e-02 -4.395917e-01 -3.947162e-01 -5.617147e-01
<VARIANCE> 39
 3.777444e+01 4.467917e+01 1.174206e+02 5.471495e+01 7.592726e+01 7.864333e+01 8.940064e+01 8.537602e+01 1.004254e+02 4.557800e+01 7.780693e+01 6.735448e+01 1.195810e+02 2.234730e+00 3.448216e+00 6.483697e+00 4.052015e+00 7.626882e+00 6.815890e+00 5.888155e+00 7.339612e+00 7.748474e+00 4.695143e+00 5.158329e+00 3.916713e+00 3.538202e+00 2.998901e-01 5.769050e-01 7.800459e-01 8.081032e-01 1.101916e+00 1.068042e+00 1.108928e+00 1.053688e+00 8.486245e-01 7.965810e-01 7.844188e-01 7.382004e-01 4.473074e-01
<GCONST> 1.445396e+02
<TRANSP> 5
 0.000000e+00 1.000000e+00 0.000000e+00 0.000000e+00 0.000000e+00
 0.000000e+00 5.574580e-01 4.425420e-01 0.000000e+00 0.000000e+00
 0.000000e+00 0.000000e+00 1.661729e-01 8.338271e-01 0.000000e+00
 0.000000e+00 0.000000e+00 0.000000e+00 3.690287e-01 6.309713e-01
 0.000000e+00 0.000000e+00 0.000000e+00 0.000000e+00 0.000000e+00
<ENDHMM>
~h "e"
<BEGINHMM>
<NUMSTATES> 5
<STATE> 2
<MEAN> 39
 -5.091659e+00 -1.878849e+00 -2.199992e+00 -5.107080e+00 -6.011797e+00 -7.114569e+00 -1.073493e+01 -3.053895e+00 -3.369564e+00 9.451228e-01 -2.026588e+00 -2.974657e+00 6.267276e+01 1.745944e+00 -1.119998e+00 3.267773e-01 -1.472504e+00 -1.131829e+00 -4.460894e-01 -1.170637e+00 -1.591979e-01 2.676605e-01 8.358029e-01 -1.246262e-01 -6.382849e-01 1.929178e+00 -7.768866e-02 2.230471e-01 2.735766e-01 4.325163e-01 1.295445e-01 2.953235e-01 2.091630e-01 -2.557423e-03 -6.711642e-02 -1.071989e-01 -1.882409e-01 2.972884e-02 -4.648896e-01
<VARIANCE> 39
 7.570815e+01 5.073625e+01 4.959610e+01 6.376940e+01 7.034381e+01 7.720687e+01 6.812734e+01 7.989972e+01 8.636657e+01 6.252887e+01 5.744224e+01 6.059935e+01 1.409792e+02 5.196012e+00 4.249428e+00 4.416137e+00 5.170447e+00 6.571466e+00 6.369679e+00 6.680719e+00 8.434902e+00 5.615629e+00 6.314259e+00 4.904821e+00 4.381608e+00 4.615771e+00 7.346890e-01 5.823673e-01 6.670522e-01 9.113631e-01 9.531552e-01 1.017206e+00 9.820755e-01 1.163879e+00 8.366324e-01 8.887919e-01 8.030170e-01 6.772125e-01 7.815678e-01
<GCONST> 1.466484e+02
<STATE> 3
<MEAN> 39
 -2.276345e+00 -3.642202e+00 -1.092846e+00 -8.115420e+00 -6.664647e+00 -7.788622e+00 -1.334269e+01 -2.518099e+00 -2.367839e+00 3.625381e+00 -3.621583e+00 -3.062286e+00 6.718835e+01 8.349395e-01 -3.169543e-01 5.671319e-01 -1.348363e-01 -5.368882e-01 2.340533e-01 -4.265749e-01 -8.104266e-02 1.733792e-01 2.568731e-01 -4.669990e-01 -4.763750e-01 1.922482e-01 -4.564399e-01 5.787895e-01 1.427102e-01 9.052897e-01 4.132150e-01 2.886318e-01 4.974127e-01 -1.121956e-01 -2.107851e-01 -4.229431e-01 -1.388489e-01 2.230929e-01 -9.109855e-01
<VARIANCE> 39
 4.468116e+01 5.133472e+01 4.506634e+01 6.372054e+01 8.755857e+01 9.003026e+01 7.917280e+01 1.021680e+02 1.075581e+02 7.675902e+01 9.249196e+01 9.753183e+01 1.097262e+02 2.295433e+00 2.849669e+00 2.479726e+00 3.898134e+00 3.843552e+00 4.509115e+00 3.854136e+00 5.998647e+00 3.961054e+00 4.688514e+00 4.436615e+00 3.933860e+00 2.862571e+00 4.836518e-01 5.461409e-01 6.279886e-01 8.012919e-01 1.096292e+00 1.099653e+00 1.267425e+00 1.638432e+00 1.071843e+00 1.162372e+00 9.521220e-01 1.068264e+00 4.986922e-01
<GCONST> 1.435860e+02
<STATE> 4
<MEAN> 39
 8.761013e-01 -5.789763e+00 1.085751e+00 -5.347167e+00 -1.038824e+01 -3.743007e+00 -1.312885e+01 -1.985628e+00 -2.661588e+00 6.082478e-01 -1.338739e+00 -5.801599e+00 6.500999e+01 5.355334e-02 7.671469e-01 2.817967e-01 1.019038e+00 4.723029e-01 2.371051e-01 4.013735e-01 -3.707144e-01 -2.221930e-01 -2.139098e-01 -4.401017e-01 2.401999e-01 -9.955418e-01 -2.826366e-01 3.143305e-01 -4.525855e-02 3.318476e-01 2.702712e-01 1.208431e-02 2.830099e-01 -9.625774e-02 -1.294762e-01 -8.694517e-02 -4.615632e-02 1.855135e-01 -3.651834e-01
<VARIANCE> 39
 5.346825e+01 9.299121e+01 7.820486e+01 7.006583e+01 7.605965e+01 1.052017e+02 6.953024e+01 1.029544e+02 8.595461e+01 5.662411e+01 6.906097e+01 5.629891e+01 8.922427e+01 1.511370e+00 3.650141e+00 3.010546e+00 4.574951e+00 3.508881e+00 4.319402e+00 4.056842e+00 5.643277e+00 4.003750e+00 3.615681e+00 3.709976e+00 2.787783e+00 2.725427e+00 3.443906e-01 6.773953e-01 5.179499e-01 7.848079e-01 7.802647e-01 8.049898e-01 8.560991e-01 1.202251e+00 8.111085e-01 6.771606e-01 6.555679e-01 5.785034e-01 4.320379e-01
<GCONST> 1.388994e+02
<TRANSP> 5
 0.000000e+00 1.000000e+00 0.000000e+00 0.000000e+00 0.000000e+00
 0.000000e+00 2.321640e-01 7.678360e-01 0.000000e+00 0.000000e+00
 0.000000e+00 0.000000e+00 2.432529e-01 7.567471e-01 0.000000e+00
 0.000000e+00 0.000000e+00 0.000000e+00 4.952265e-01 5.047735e-01
 0.000000e+00 0.000000e+00 0.000000e+00 0.000000e+00 0.000000e+00
<ENDHMM>
~h "f"
<BEGINHMM>
<NUMSTATES> 5
<STATE> 2
<MEAN> 39
 -1.246325e+01 -1.225211e+00 -1.830295e+00 6.373386e-01 -1.735111e+00 -2.395265e+00 -2.121230e+00 2.148497e+00 -1.987565e+00 2.529710e-01 -2.535829e+00 -2.581739e+00 6.115668e+01 -1.104351e+00 -1.132354e-01 -3.112094e-01 3.034447e-01 7.029612e-02 1.886948e-01 3.744029e-01 4.396449e-01 2.831577e-01 2.608435e-01 5.504797e-01 4.402043e-01 -5.809808e-01 1.834258e-01 -2.230080e-01 1.128174e-01 -1.068954e-01 -1.465254e-01 -1.324126e-01 -1.451956e-01 -1.449588e-02 -6.725699e-02 4.802755e-02 3.150158e-02 -3.102325e-03 9.726003e-02
<VARIANCE> 39
 4.198869e+01 2.570383e+01 2.789042e+01 3.060947e+01 3.689764e+01 2.594304e+01 4.345562e+01 3.590585e+01 5.046801e+01 3.021385e+01 3.112230e+01 2.901184e+01 1.002598e+02 2.862806e+00 1.637186e+00 1.595289e+00 2.042141e+00 1.844422e+00 2.010752e+00 2.776568e+00 2.433991e+00 2.694167e+00 2.788515e+00 1.913585e+00 2.537494e+00 9.404539e-01 3.783281e-01 3.006814e-01 2.707286e-01 3.295565e-01 3.340059e-01 3.519126e-01 5.539727e-01 3.973024e-01 5.218374e-01 4.220126e-01 4.013404e-01 3.897642e-01 1.786082e-01
<GCONST> 1.145174e+02
<STATE> 3
<MEAN> 39
 -1.583834e+01 -2.688395e+00 -2.675684e+00 2.020142e+00 -2.238575e+00 -3.289573e+00 -2.617827e+00 2.602950e+00 -2.569952e+00 -1.235313e-01 -6.615576e-01 -1.359228e+00 5.618613e+01 7.174297e-02 -1.950078e-02 2.038812e-01 3.847999e-01 -1.489083e-01 -3.106008e-02 -9.383380e-02 -2.961247e-01 1.589106e-01 -2.337971e-01 -3.389590e-01 5.958533e-02 -8.265194e-01 5.499715e-01 1.470665e-01 1.802349e-01 -1.717678e-01 -2.418679e-01 -3.026622e-01 -1.870695e-01 -2.709320e-01 -2.734631e-01 -1.474431e-01 -1.075600e-01 -1.138782e-01 1.747386e-01
<VARIANCE> 39
 4.145370e+01 2.737135e+01 3.980575e+01 3.573027e+01 3.945822e+01 4.159165e+01 3.982707e+01 3.177601e+01 7.666414e+01 5.977229e+01 4.999292e+01 3.076908e+01 1.113985e+02 2.936909e+00 2.487259e+00 2.145077e+00 2.504260e+00 2.046013e+00 2.954970e+00 2.961564e+00 3.192266e+00 3.846563e+00 3.470663e+00 3.257173e+00 2.142551e+00 1.713644e+00 5.005474e-01 5.055587e-01 4.378088e-01 5.144420e-01 5.121318e-01 5.948923e-01 7.706084e-01 7.022833e-01 7.407419e-01 8.461212e-01 5.788669e-01 5.068727e-01 2.782539e-01
<GCONST> 1.261478e+02
<STATE> 4
<MEAN> 39
 -1.565650e+01 2.405012e-01 -5.067395e+00 2.809889e+00 -5.227085e+00 -8.791101e-01 -5.043813e+00 -1.810375e+00 -4.192698e+00 -2.723623e+00 -3.026183e+00 -1.436739e+00 3.871619e+01 2.693235e-01 -1.161264e-02 4.371209e-02 -1.400613e-01 -2.298303e-01 -2.651852e-01 -1.673021e-01 -2.215787e-01 -2.123355e-01 -1.255663e-01 4.629742e-02 -8.784662e-02 7.184786e-03 1.746150e-01 1.399758e-03 4.917806e-02 -1.077633e-01 -1.072747e-01 -1.153084e-01 -4.270966e-02 -2.505688e-02 -1.053748e-01 2.457006e-02 5.150645e-02 -1.351543e-02 1.814093e-01
<VARIANCE> 39
 1.732248e+01 1.503037e+01 1.877849e+01 1.685381e+01 2.196180e+01 2.092746e+01 2.077976e+01 2.575011e+01 3.183443e+01 2.033751e+01 1.861796e+01 1.244532e+01 1.157537e+02 1.615978e+00 9.255031e-01 1.045263e+00 1.147432e+00 1.528819e+00 1.787796e+00 2.261483e+00 2.246530e+00 1.949087e+00 1.773958e+00 1.316266e+00 1.479912e+00 6.109955e-01 2.843713e-01 1.498460e-01 1.611682e-01 3.554118e-01 3.791577e-01 3.855378e-01 4.137331e-01 3.473648e-01 3.823875e-01 4.133527e-01 3.122486e-01 2.933077e-01 1.533870e-01
<GCONST> 1.007209e+02
<TRANSP> 5
 0.000000e+00 1.000000e+00 0.000000e+00 0.000000e+00 0.000000e+00
 0.000000e+00 6.769081e-01 3.230918e-01 0.000000e+00 0.000000e+00
 0.000000e+00 0.000000e+00 6.022909e-01 3.977091e-01 0.000000e+00
 0.000000e+00 0.000000e+00 0.000000e+00 7.688152e-01 2.311848e-01
 0.000000e+00 0.000000e+00 0.000000e+00 0.000000e+00 0.000000e+00
<ENDHMM>
~h "g"
<BEGINHMM>
<NUMSTATES> 5
<STATE> 2
<MEAN> 39
 -1.704517e+00 3.843205e+00 3.083634e+00 1.074926e+00 -5.763655e+00 -4.557376e+00 -8.128738e+00 -5.944864e+00 -5.239530e+00 -4.361828e-01 -3.549868e+00 -4.718068e+00 5.691921e+01 -4.511541e-01 3.991655e-01 1.344963e-01 3.830709e-01 4.435076e-01 1.286140e-01 2.546209e-01 1.753456e-01 -1.423223e-01 -1.833404e-01 -4.488435e-02 8.342116e-02 -3.757150e-01 -2.822020e-01 -4.302624e-01 2.133586e-02 -5.238016e-01 -2.434232e-01 -2.360025e-01 -3.454333e-01 2.052661e-01 -1.177940e-01 1.843008e-01 2.405803e-01 -4.929348e-03 7.727565e-01
<VARIANCE> 39
 3.811907e+01 3.487661e+01 3.950209e+01 3.184100e+01 3.770641e+01 4.750223e+01 4.805088e+01 4.387426e+01 5.682045e+01 4.678660e+01 4.923553e+01 3.866537e+01 7.956250e+01 1.887908e+00 1.885213e+00 3.109744e+00 3.247993e+00 3.421928e+00 4.128950e+00 4.537767e+00 4.494120e+00 4.820081e+00 4.432703e+00 3.540210e+00 2.903361e+00 2.229259e+00 4.281748e-01 3.922329e-01 6.279249e-01 4.841858e-01 7.436034e-01 7.196323e-01 9.044093e-01 9.965004e-01 1.073908e+00 7.889844e-01 7.618767e-01 6.911070e-01 3.300502e-01
<GCONST> 1.307841e+02
<STATE> 3
<MEAN> 39
 -4.604047e+00 2.935622e+00 2.041747e+00 4.457258e-01 -3.405838e+00 -5.042727e+00 -1.181459e+01 -3.848021e+00 -8.092203e+00 2.243640e+00 -5.279685e+00 -2.174831e+00 5.773015e+01 -8.882017e-01 -9.278651e-01 -1.183608e-01 -1.232929e+00 -4.686759e-01 -8.363509e-01 -1.102388e+00 9.475937e-01 -4.064684e-01 7.083377e-01 8.009214e-01 2.188407e-01 2.150853e+00 1.267339e-01 -2.912111e-01 2.559932e-01 -5.457396e-01 -7.634265e-01 -8.945882e-02 -1.843213e-01 1.485814e-01 3.971303e-02 1.690778e-01 2.211812e-01 -9.965156e-02 5.640179e-01
<VARIANCE> 39
 4.209187e+01 4.424834e+01 6.693144e+01 4.176215e+01 6.752875e+01 6.446299e+01 9.228761e+01 5.718093e+01 9.538352e+01 8.598980e+01 8.200699e+01 5.749427e+01 1.028688e+02 4.557459e+00 4.218997e+00 9.268734e+00 5.367647e+00 1.069142e+01 7.295505e+00 7.211915e+00 7.786142e+00 7.508067e+00 8.702455e+00 7.739232e+00 5.661807e+00 3.247543e+00 5.567116e-01 5.977725e-01 1.058442e+00 7.770432e-01 1.581228e+00 9.983944e-01 1.293466e+00 1.074947e+00 1.397649e+00 1.597193e+00 1.268371e+00 9.537854e-01 5.518257e-01
<GCONST> 1.504715e+02
<STATE> 4
<MEAN> 39
 -7.913169e-01 -4.374035e+00 2.540593e+00 -3.318229e+00 -1.074633e+01 -2.861987e+00 -1.258079e+01 -2.120865e+00 -6.112112e+00 -6.161214e-01 1.079404e+00 -5.453861e+00 6.096302e+01 4.068999e-02 -3.246251e-01 3.763575e-01 -6.035184e-01 -7.472653e-01 -2.023539e-01 -3.367975e-01 1.666573e-01 -8.947378e-02 1.288338e-01 3.229299e-01 -1.625773e-01 9.383150e-01 1.213322e-01 8.667471e-02 2.599802e-03 9.056315e-02 -4.823020e-02 3.758663e-02 6.131447e-02 -3.743380e-02 2.252327e-02 -3.998094e-02 -7.802877e-02 -4.110388e-02 -1.335010e-01
<VARIANCE> 39
 9.254842e+01 9.597736e+01 1.305484e+02 7.316375e+01 8.058643e+01 8.576392e+01 8.325677e+01 8.463947e+01 8.451180e+01 4.974022e+01 4.878188e+01 4.177681e+01 8.892547e+01 4.866533e+00 7.475647e+00 6.169597e+00 6.619684e+00 6.605131e+00 4.866907e+00 5.520801e+00 6.416619e+00 5.581247e+00 3.828626e+00 4.059191e+00 2.962807e+00 6.272008e+00 7.706993e-01 1.360175e+00 9.791512e-01 1.135619e+00 1.164629e+00 8.585655e-01 1.113615e+00 1.097530e+00 9.368590e-01 7.350056e-01 7.826381e-01 5.495196e-01 8.789665e-01
<GCONST> 1.488205e+02
<TRANSP> 5
 0.000000e+00 1.000000e+00 0.000000e+00 0.000000e+00 0.000000e+00
 0.000000e+00 5.589747e-01 4.410254e-01 0.000000e+00 0.000000e+00
 0.000000e+00 0.000000e+00 4.456774e-01 5.543225e-01 0.000000e+00
 0.000000e+00 0.000000e+00 0.000000e+00 7.664652e-01 2.335347e-01
 0.000000e+00 0.000000e+00 0.000000e+00 0.000000e+00 0.000000e+00
<ENDHMM>
~h "h"
<BEGINHMM>
<NUMSTATES> 5
<STATE> 2
<MEAN> 39
 -7.100027e-01 -5.413610e+00 -1.444215e+00 -5.880650e+00 -8.957922e+00 1.416636e-01 -7.400091e+00 -9.266493e-01 -4.160354e+00 -1.092312e+00 -2.134378e+00 -3.704183e+00 6.310270e+01 -1.633823e-01 3.510855e-01 -2.922426e-01 3.672395e-01 7.005959e-01 1.306258e-01 3.900839e-01 -2.806551e-02 1.350393e-01 -1.668523e-01 -2.393820e-01 1.621024e-01 -7.574668e-01 -4.468483e-02 2.632750e-02 2.976150e-02 -1.099725e-02 -1.503855e-02 -5.604830e-02 -7.293696e-02 3.059170e-02 1.652599e-02 -1.484281e-03 2.635158e-02 -5.288026e-02 -2.722340e-02
<VARIANCE> 39
 8.447795e+01 8.257866e+01 7.318597e+01 7.247665e+01 1.279175e+02 1.123715e+02 1.282737e+02 7.914761e+01 7.722581e+01 5.387122e+01 6.635056e+01 6.499247e+01 1.130352e+02 8.060814e-01 1.624396e+00 1.836385e+00 2.199266e+00 2.692584e+00 2.354434e+00 3.066520e+00 2.759986e+00 2.356065e+00 2.412634e+00 2.253421e+00 2.127456e+00 1.219588e+00 8.881035e-02 1.994519e-01 1.974896e-01 3.312999e-01 3.601411e-01 3.418050e-01 5.314032e-01 4.598439e-01 4.115478e-01 3.647082e-01 4.023843e-01 3.495826e-01 1.096344e-01
<GCONST> 1.221517e+02
<STATE> 3
<MEAN> 39
 -6.326591e+00 -3.705906e+00 -1.985253e+00 -4.544115e+00 2.376061e+00 -3.125391e+00 -4.638103e+00 -1.455260e+00 -3.946225e+00 -1.447131e+00 -6.695277e+00 7.874888e-01 6.175760e+01 -1.336882e-01 2.053581e-01 -7.570118e-02 3.060431e-01 2.725778e-01 8.715329e-02 8.453022e-02 1.714614e-02 2.037778e-01 -1.338270e-01 1.285473e-01 3.124995e-02 -7.900591e-01 3.121007e-02 -9.212768e-03 3.535555e-02 -9.137496e-02 -2.801981e-01 -6.992584e-02 -1.280203e-01 2.438067e-02 -4.949804e-02 8.099533e-02 8.210674e-02 -1.112795e-01 5.688728e-02
<VARIANCE> 39
 3.541555e+01 4.164140e+01 5.283183e+01 8.700852e+01 1.079994e+02 6.511988e+01 6.042957e+01 8.347171e+01 8.668745e+01 8.356956e+01 8.234207e+01 9.203660e+01 1.206733e+02 8.868129e-01 1.683634e+00 1.813524e+00 2.679844e+00 3.222451e+00 2.964351e+00 3.265865e+00 3.522444e+00 3.610542e+00 3.226017e+00 3.174698e+00 2.920974e+00 1.422518e+00 1.189739e-01 1.966451e-01 2.660657e-01 4.274535e-01 4.971954e-01 5.171723e-01 5.342129e-01 6.053480e-01 6.072767e-01 5.870420e-01 5.710733e-01 5.185808e-01 1.256797e-01
<GCONST> 1.263826e+02
<STATE> 4
<MEAN> 39
 -1.143094e+01 -2.995110e-01 -3.904944e+00 1.101722e+00 -2.903327e+00 -6.626570e-01 -3.201211e+00 -2.776065e-01 -1.327398e+00 -1.346953e+00 -2.970654e+00 -1.443060e+00 4.712043e+01 -8.239345e-02 9.136543e-02 -1.422426e-02 8.824480e-02 -5.507905e-02 4.278714e-03 -2.787599e-02 6.590622e-03 1.157600e-02 1.703588e-02 3.951229e-02 -1.679777e-02 -2.905339e-01 2.697629e-02 -9.846464e-03 8.285103e-03 -5.014202e-02 -4.312180e-02 -4.260539e-02 -5.514802e-02 -1.800812e-02 -4.787417e-02 -7.529887e-04 1.480988e-03 -2.224937e-02 8.392452e-02
<VARIANCE> 39
 4.702588e+01 2.637681e+01 3.025043e+01 3.456819e+01 5.486114e+01 3.817104e+01 4.357482e+01 4.965765e+01 5.216482e+01 3.207259e+01 3.068005e+01 2.786836e+01 2.249697e+02 4.737208e-01 8.153597e-01 8.969145e-01 1.293552e+00 1.521044e+00 1.657141e+00 1.864157e+00 2.024975e+00 1.947437e+00 1.839722e+00 1.765281e+00 1.585639e+00 6.085060e-01 8.432429e-02 1.239740e-01 1.620938e-01 2.281907e-01 2.816600e-01 3.235895e-01 3.708119e-01 3.788043e-01 3.684909e-01 3.689259e-01 3.300462e-01 3.058693e-01 7.911558e-02
<GCONST> 1.048862e+02
<TRANSP> 5
 0.000000e+00 1.000000e+00 0.000000e+00 0.000000e+00 0.000000e+00
 0.000000e+00 5.083564e-01 4.916436e-01 0.000000e+00 0.000000e+00
 0.000000e+00 0.000000e+00 5.349772e-01 4.650228e-01 0.000000e+00
 0.000000e+00 0.000000e+00 0.000000e+00 8.011304e-01 1.988697e-01
 0.000000e+00 0.000000e+00 0.000000e+00 0.000000e+00 0.000000e+00
<ENDHMM>
~h "i"
<BEGINHMM>
<NUMSTATES> 5
<STATE> 2
<MEAN> 39
 -7.411424e+00 1.420824e+00 1.262646e+01 -3.122030e+00 -1.637563e+01 -9.392747e+00 -1.086477e+01 -3.379243e+00 -1.229273e+01 8.427074e-01 6.821995e-01 -2.020995e+00 6.490302e+01 2.570810e-01 1.153698e-01 2.064118e+00 -6.477699e-01 -2.537209e+00 -6.234841e-03 -7.740454e-01 -1.302363e-01 -1.552520e+00 3.575586e-01 9.376597e-01 -3.668458e-01 1.186678e+00 3.964425e-02 8.568638e-02 -5.473524e-01 1.123079e-01 5.818552e-01 3.328996e-01 1.241530e-01 1.507777e-02 4.274617e-01 -1.987869e-02 -2.445959e-01 -6.410304e-02 -3.877182e-01
<VARIANCE> 39
 4.024155e+01 5.730349e+01 8.475259e+01 4.765031e+01 6.015325e+01 7.515357e+01 8.133322e+01 7.037292e+01 8.750428e+01 7.669324e+01 7.822301e+01 6.196689e+01 9.042321e+01 3.813951e+00 3.454897e+00 4.476787e+00 4.823589e+00 5.556571e+00 6.516238e+00 6.514911e+00 5.611946e+00 4.859469e+00 5.482174e+00 4.767158e+00 3.689556e+00 2.434596e+00 4.930996e-01 5.828141e-01 7.926173e-01 7.892491e-01 1.151200e+00 9.523716e-01 9.699662e-01 1.027687e+00 8.978330e-01 8.993492e-01 8.372699e-01 6.460853e-01 4.520874e-01
<GCONST> 1.432243e+02
<STATE> 3
<MEAN> 39
 -7.386764e+00 2.251099e+00 1.588200e+01 -5.158704e+00 -2.057453e+01 -7.209679e+00 -1.206394e+01 -4.237643e+00 -1.445186e+01 1.798032e+00 2.093042e+00 -4.227997e+00 6.784894e+01 1.623854e-01 1.621634e-01 -1.993486e-01 2.714178e-01 2.966098e-01 2.396525e-02 2.629327e-01 -9.770535e-02 1.991511e-01 1.128505e-02 -2.864638e-01 -4.692640e-03 -4.230539e-01 6.365028e-02 2.152398e-02 -4.862329e-01 2.809367e-01 7.328570e-01 -5.358414e-02 2.357331e-01 -2.289157e-02 3.935075e-01 -9.997504e-02 -3.514513e-01 1.185176e-01 -3.871418e-01
<VARIANCE> 39
 1.934967e+01 5.499877e+01 6.105044e+01 3.975346e+01 4.553652e+01 7.677114e+01 8.488882e+01 7.911914e+01 8.757556e+01 7.799600e+01 9.243781e+01 7.422757e+01 5.370887e+01 8.539190e-01 1.596850e+00 2.042209e+00 2.086852e+00 3.094615e+00 2.960637e+00 3.064291e+00 3.305501e+00 2.833936e+00 2.546321e+00 2.677296e+00 2.654407e+00 1.256199e+00 1.911327e-01 2.519007e-01 3.919556e-01 4.060416e-01 6.685793e-01 6.707598e-01 7.014058e-01 6.579986e-01 5.789948e-01 5.554228e-01 5.777002e-01 5.451056e-01 1.944448e-01
<GCONST> 1.251412e+02
<STATE> 4
<MEAN> 39
 -5.829298e+00 2.854834e+00 1.015964e+01 3.121794e-01 -1.237466e+01 -7.622630e+00 -8.263560e+00 -5.627028e+00 -9.335303e+00 -6.245560e-01 -1.251071e+00 -2.794750e+00 5.988642e+01 5.859932e-02 1.642867e-01 -1.491178e+00 8.718587e-01 1.979989e+00 5.167786e-01 5.972670e-01 -4.001960e-02 1.096392e+00 -3.144525e-01 -7.952757e-01 2.316257e-01 -1.560577e+00 -1.726081e-01 -6.915413e-02 -1.183520e-01 -1.361271e-01 2.792354e-02 1.475049e-01 -3.536230e-02 1.268697e-01 9.657179e-03 1.068267e-02 7.401437e-02 5.296289e-03 1.068364e-01
<VARIANCE> 39
 3.049174e+01 4.745811e+01 6.319755e+01 4.055117e+01 5.832772e+01 7.218615e+01 6.473285e+01 6.547242e+01 6.957470e+01 6.150330e+01 6.273705e+01 4.296821e+01 9.593813e+01 1.715969e+00 2.252378e+00 2.605435e+00 2.715074e+00 3.867072e+00 4.003151e+00 4.748360e+00 4.908039e+00 4.032492e+00 3.867331e+00 3.942989e+00 3.220259e+00 1.600066e+00 2.241675e-01 3.303321e-01 4.543608e-01 4.630227e-01 6.561038e-01 7.141712e-01 7.125120e-01 7.736131e-01 7.161371e-01 6.794039e-01 6.008900e-01 5.712722e-01 2.697645e-01
<GCONST> 1.306648e+02
<TRANSP> 5
 0.000000e+00 1.000000e+00 0.000000e+00 0.000000e+00 0.000000e+00
 0.000000e+00 5.103199e-01 4.896801e-01 0.000000e+00 0.000000e+00
 0.000000e+00 0.000000e+00 7.260627e-01 2.739373e-01 0.000000e+00
 0.000000e+00 0.000000e+00 0.000000e+00 6.231421e-01 3.768578e-01
 0.000000e+00 0.000000e+00 0.000000e+00 0.000000e+00 0.000000e+00
<ENDHMM>
~h "j"
<BEGINHMM>
<NUMSTATES> 5
<STATE> 2
<MEAN> 39
 -7.292882e+00 4.651694e+00 3.003696e+00 9.602380e-01 -2.891145e+00 -6.344394e+00 -6.230516e+00 -2.081723e+00 -4.808602e+00 -4.044225e+00 -4.063051e+00 -1.883134e+00 5.529897e+01 -1.491224e+00 9.065176e-01 2.265828e-01 -5.187116e-01 4.870741e-01 -7.071889e-02 2.187701e-01 -1.529759e-01 -1.942108e-01 -2.187413e-01 4.304860e-01 1.006296e-01 8.577769e-01 -2.765340e-01 -2.644762e-01 1.901635e-01 -2.791996e-01 -5.002511e-01 -3.454000e-01 -2.049351e-01 1.942284e-02 -1.568698e-01 1.123787e-01 3.779240e-01 2.002320e-01 6.827196e-01
<VARIANCE> 39
 6.191629e+01 5.280159e+01 5.126851e+01 4.002568e+01 3.863242e+01 7.397931e+01 4.984085e+01 5.346052e+01 4.989408e+01 4.172319e+01 4.930047e+01 3.567427e+01 1.062372e+02 6.817280e+00 4.356503e+00 2.951768e+00 4.403682e+00 4.010654e+00 6.126343e+00 4.829814e+00 4.662585e+00 4.109288e+00 3.924562e+00 4.334037e+00 3.376677e+00 4.976863e+00 9.619330e-01 7.704611e-01 5.311590e-01 7.083128e-01 8.651947e-01 9.724005e-01 9.061795e-01 9.561477e-01 7.254623e-01 7.096498e-01 7.440469e-01 6.124185e-01 5.563309e-01
<GCONST> 1.387318e+02
<STATE> 3
<MEAN> 39
 -1.604388e+01 7.726080e+00 6.968219e+00 -3.514467e+00 -5.413855e+00 -9.330772e+00 -6.677942e+00 -3.278570e+00 -8.036761e+00 -3.167587e+00 -2.011354e-01 7.527388e-01 6.537572e+01 2.870916e-01 -1.409318e+00 1.117542e+00 -3.415058e-01 -2.892291e+00 -2.049170e+00 -8.277127e-01 3.024964e-01 -6.976119e-01 1.395442e-01 1.345143e+00 1.088364e+00 2.126046e+00 1.518592e+00 -9.316601e-01 -1.811732e-01 2.351898e-01 -6.409492e-01 -1.511891e-01 -4.105223e-01 3.228800e-01 1.489777e-01 2.107624e-01 -2.200560e-01 -1.828320e-01 -1.717042e-01
<VARIANCE> 39
 5.088846e+01 5.586205e+01 5.737859e+01 3.253218e+01 4.871423e+01 6.975936e+01 4.737603e+01 4.575679e+01 6.140435e+01 3.830940e+01 4.350812e+01 5.155616e+01 5.600260e+01 8.752697e+00 4.364054e+00 3.251027e+00 4.092213e+00 4.797608e+00 5.489680e+00 4.385328e+00 5.644170e+00 3.475392e+00 3.536778e+00 3.647179e+00 3.653069e+00 2.584713e+00 7.865464e-01 8.976694e-01 7.226616e-01 7.209461e-01 1.194774e+00 1.316989e+00 9.843961e-01 1.081254e+00 9.322957e-01 9.421834e-01 8.536778e-01 6.604811e-01 3.667518e-01
<GCONST> 1.390470e+02
<STATE> 4
<MEAN> 39
 -6.318368e+00 -1.387188e+00 8.764787e+00 -3.064968e+00 -1.678790e+01 -1.588889e+01 -1.173532e+01 9.760374e-01 -7.537382e+00 -1.788903e+00 2.469600e+00 2.296578e+00 7.067990e+01 2.088343e+00 -2.506253e+00 -1.069000e+00 -6.741986e-01 -1.130970e+00 -1.807624e-01 -9.822181e-01 1.283726e+00 9.456882e-01 1.049657e+00 -2.314897e-01 -6.628376e-01 1.084061e+00 -2.464672e-01 4.666644e-01 -6.012496e-01 -9.148605e-02 1.227220e+00 9.113039e-01 3.527722e-01 -2.437067e-01 2.755328e-01 1.533977e-01 -5.354705e-01 -5.511580e-01 -5.299509e-01
<VARIANCE> 39
 2.476748e+01 3.561251e+01 4.063398e+01 3.774646e+01 3.804999e+01 5.301942e+01 6.112455e+01 7.399078e+01 7.244560e+01 3.883254e+01 4.960446e+01 7.070589e+01 6.084702e+01 2.514885e+00 3.291568e+00 3.152823e+00 2.396982e+00 6.741493e+00 4.482209e+00 5.793722e+00 6.371557e+00 3.830495e+00 3.358623e+00 4.566127e+00 2.818580e+00 1.221436e+00 4.327470e-01 4.014200e-01 4.099800e-01 4.529291e-01 5.570772e-01 6.306334e-01 7.178012e-01 8.998464e-01 5.785784e-01 5.386173e-01 5.935180e-01 4.780128e-01 1.666848e-01
<GCONST> 1.293624e+02
<TRANSP> 5
 0.000000e+00 1.000000e+00 0.000000e+00 0.000000e+00 0.000000e+00
 0.000000e+00 7.300779e-01 2.699220e-01 0.000000e+00 0.000000e+00
 0.000000e+00 0.000000e+00 6.195384e-01 3.804616e-01 0.000000e+00
 0.000000e+00 0.000000e+00 0.000000e+00 6.295276e-01 3.704724e-01
 0.000000e+00 0.000000e+00 0.000000e+00 0.000000e+00 0.000000e+00
<ENDHMM>
~h "k"
<BEGINHMM>
<NUMSTATES> 5
<STATE> 2
<MEAN> 39
 -6.905905e+00 9.141089e-01 -1.091677e+00 4.323236e-02 -3.225299e+00 -2.378825e+00 -4.499585e+00 -1.795196e+00 -2.694837e+00 -6.729311e-02 -2.629961e+00 -2.566343e+00 5.335117e+01 -7.984758e-01 -2.775986e-01 -5.755888e-01 9.055953e-02 7.742612e-01 8.080140e-02 -1.745513e-02 6.181242e-01 1.852367e-01 3.439955e-01 2.915372e-02 2.078593e-01 -2.379712e-01 -5.411929e-03 -3.064179e-01 -1.594786e-01 -5.606378e-01 -1.704718e-01 -2.955847e-01 -3.600043e-01 5.494322e-03 -2.020649e-01 1.477966e-01 7.951023e-02 -1.101614e-01 8.314243e-01
<VARIANCE> 39
 4.156955e+01 3.323523e+01 4.272699e+01 4.303144e+01 5.176133e+01 5.205898e+01 4.083829e+01 4.716445e+01 5.373898e+01 4.105405e+01 4.414874e+01 3.258594e+01 1.042952e+02 2.094726e+00 2.553738e+00 2.793494e+00 3.441078e+00 3.644864e+00 4.398379e+00 3.709642e+00 4.324157e+00 4.046318e+00 3.717207e+00 3.488609e+00 2.888535e+00 3.134647e+00 4.052576e-01 4.543995e-01 5.314988e-01 6.895878e-01 7.507402e-01 8.166777e-01 8.255654e-01 8.512355e-01 8.638482e-01 7.712456e-01 7.481977e-01 6.377642e-01 5.180718e-01
<GCONST> 1.318169e+02
<STATE> 3
<MEAN> 39
 -8.603991e+00 -1.085797e+00 -4.150196e+00 -2.712792e+00 2.387620e-01 -5.291483e+00 -1.007364e+01 -1.874600e+00 -6.644514e+00 1.199226e+00 -5.590187e+00 -3.939515e-02 5.564389e+01 -1.479044e-01 -5.691944e-01 -6.601875e-01 -1.063089e+00 1.634057e-01 -5.577472e-01 -8.136677e-01 3.248097e-01 -4.554427e-01 6.031882e-01 1.097837e-01 1.655842e-01 1.769619e+00 3.553483e-01 -8.200619e-02 4.158539e-01 -4.268920e-01 -5.312297e-01 -4.509532e-02 1.151142e-01 -1.448685e-01 -2.485169e-03 -1.639001e-02 5.850112e-02 -1.561397e-01 4.725147e-01
<VARIANCE> 39
 4.888663e+01 5.109797e+01 9.236420e+01 8.222075e+01 9.689812e+01 1.006069e+02 1.012753e+02 9.884240e+01 1.131465e+02 1.029325e+02 9.073413e+01 6.006979e+01 9.692737e+01 4.590099e+00 4.896977e+00 8.151555e+00 9.114738e+00 8.691688e+00 8.891044e+00 9.547961e+00 8.596066e+00 8.898894e+00 9.256246e+00 7.561409e+00 6.116551e+00 7.394844e+00 6.821387e-01 7.523338e-01 1.401345e+00 1.385097e+00 1.647412e+00 1.520722e+00 1.976592e+00 1.680015e+00 1.628122e+00 1.847794e+00 1.405570e+00 1.152169e+00 7.929112e-01
<GCONST> 1.592599e+02
<STATE> 4
<MEAN> 39
 -6.819952e+00 -3.743545e+00 -3.272095e+00 -6.719756e+00 -4.336071e+00 -4.021610e+00 -8.355245e+00 -1.642290e+00 -4.197675e+00 1.900193e+00 -1.565012e+00 -4.375606e+00 6.243794e+01 9.833139e-01 -3.468936e-01 5.860934e-01 -1.100653e+00 -1.295094e+00 -3.190536e-01 -5.252370e-02 -4.455082e-01 -1.980388e-01 -1.090496e-01 2.872667e-01 -7.028399e-01 1.637064e+00 2.889807e-01 1.333678e-01 1.941942e-01 2.268345e-01 -2.431908e-01 3.888814e-02 2.153885e-02 -1.382333e-01 -2.334302e-02 -1.936370e-01 3.662694e-02 -1.092342e-01 -2.186314e-01
<VARIANCE> 39
 9.592953e+01 6.000099e+01 7.886851e+01 6.324108e+01 7.502735e+01 8.097666e+01 6.078183e+01 6.952863e+01 8.905634e+01 5.335038e+01 5.488664e+01 5.435592e+01 9.819185e+01 7.111922e+00 5.638128e+00 4.904960e+00 6.320692e+00 7.077475e+00 5.969656e+00 6.841731e+00 5.628435e+00 5.016163e+00 5.178275e+00 4.436091e+00 4.811708e+00 5.642707e+00 1.175302e+00 1.002581e+00 8.108853e-01 9.139845e-01 1.060703e+00 1.065981e+00 1.015292e+00 9.461462e-01 9.046328e-01 8.782922e-01 7.953855e-01 6.678699e-01 8.169453e-01
<GCONST> 1.484155e+02
<TRANSP> 5
 0.000000e+00 1.000000e+00 0.000000e+00 0.000000e+00 0.000000e+00
 0.000000e+00 5.712966e-01 4.287034e-01 0.000000e+00 0.000000e+00
 0.000000e+00 0.000000e+00 5.948008e-01 4.051992e-01 0.000000e+00
 0.000000e+00 0.000000e+00 0.000000e+00 5.874833e-01 4.125167e-01
 0.000000e+00 0.000000e+00 0.000000e+00 0.000000e+00 0.000000e+00
<ENDHMM>
~h "l"
<BEGINHMM>
<NUMSTATES> 5
<STATE> 2
<MEAN> 39
 -2.501163e-01 -3.635489e+00 -1.524392e+00 -9.151556e+00 -6.178070e+00 -5.187890e+00 -1.248327e+01 -7.512519e+00 -2.942039e+00 6.581538e+00 -3.031055e+00 -4.096722e+00 6.532510e+01 3.106993e-01 2.813705e-01 6.063494e-01 1.017157e-01 -1.859819e-02 -2.020454e-01 -6.613923e-01 -7.007343e-01 -2.175176e-01 5.358437e-01 -9.173946e-02 3.070497e-01 -4.692594e-01 -2.851215e-01 -1.849369e-02 -1.814056e-01 -6.505989e-02 3.761868e-02 1.159981e-01 2.246702e-01 4.571830e-01 3.087311e-02 -4.315648e-01 8.953656e-02 -9.318254e-02 1.553729e-01
<VARIANCE> 39
 4.552818e+01 3.943212e+01 4.329813e+01 9.545982e+01 6.901815e+01 6.820543e+01 7.510719e+01 1.039942e+02 9.726268e+01 6.997214e+01 8.431885e+01 7.548390e+01 1.283993e+02 7.932977e-01 1.511359e+00 1.831166e+00 3.133417e+00 2.482529e+00 3.196080e+00 3.706726e+00 4.082333e+00 3.361473e+00 3.326001e+00 2.876922e+00 2.877104e+00 1.167436e+00 1.579561e-01 2.894781e-01 3.078386e-01 6.203082e-01 5.507792e-01 5.642656e-01 7.158682e-01 7.652161e-01 6.682988e-01 6.273999e-01 6.059653e-01 5.052734e-01 1.485830e-01
<GCONST> 1.282845e+02
<STATE> 3
<MEAN> 39
 1.776633e-01 -3.335787e+00 -1.116437e+00 -1.080112e+01 -5.651680e+00 -5.155668e+00 -1.345981e+01 -9.013129e+00 -3.648409e+00 8.197811e+00 -2.941215e+00 -3.432841e+00 6.644084e+01 -3.249525e-01 3.878620e-02 -9.354541e-02 -2.661181e-01 6.346358e-02 1.547891e-01 -1.432352e-01 6.737364e-01 1.452248e-01 -4.637183e-01 8.974532e-02 -1.661500e-01 1.800874e-01 -2.731074e-01 -1.214651e-01 -2.931297e-01 -6.285875e-02 -1.427536e-02 1.251934e-01 3.397056e-01 5.716134e-01 1.434752e-01 -4.665300e-01 4.146165e-02 -2.280229e-01 2.739737e-01
<VARIANCE> 39
 3.453587e+01 3.270911e+01 4.063890e+01 9.642667e+01 6.691202e+01 6.551898e+01 8.267667e+01 1.017712e+02 1.014249e+02 7.170025e+01 8.964841e+01 8.938950e+01 9.555839e+01 5.511567e-01 1.163603e+00 1.708253e+00 2.616127e+00 2.330915e+00 2.794523e+00 2.976150e+00 3.888708e+00 3.008812e+00 2.556331e+00 2.631214e+00 2.493392e+00 9.179104e-01 1.255694e-01 2.582001e-01 3.436090e-01 5.930694e-01 5.975913e-01 5.594177e-01 7.453606e-01 7.783812e-01 6.789935e-01 6.505222e-01 6.957171e-01 5.030332e-01 1.522510e-01
<GCONST> 1.256464e+02
<STATE> 4
<MEAN> 39
 -8.207474e-01 -4.054626e+00 -1.158843e+00 -8.606505e+00 -6.360350e+00 -4.064947e+00 -1.311798e+01 -4.422306e+00 -2.667656e+00 3.966825e+00 -2.670641e+00 -4.873020e+00 6.450177e+01 -6.461421e-01 -1.554407e-01 -1.963900e-01 -1.922420e-01 -1.848259e-01 7.956155e-02 5.130854e-01 1.193434e+00 2.208655e-01 -9.303822e-01 2.331912e-01 -3.014097e-01 4.731561e-01 -5.224597e-02 1.035360e-02 -1.073992e-02 4.916882e-02 -9.686881e-02 1.380381e-02 2.853800e-01 -4.513599e-02 -1.498794e-01 -4.673746e-02 6.945484e-02 4.004744e-02 4.863838e-02
<VARIANCE> 39
 4.817775e+01 5.305508e+01 5.949150e+01 9.529141e+01 7.708688e+01 8.780121e+01 8.513163e+01 8.941020e+01 8.761480e+01 6.475352e+01 8.233956e+01 8.201759e+01 1.363113e+02 1.266952e+00 2.526942e+00 3.583910e+00 5.296618e+00 4.774671e+00 4.283969e+00 5.270586e+00 5.312747e+00 4.567104e+00 4.123328e+00 4.434803e+00 3.433866e+00 2.338766e+00 1.761070e-01 3.554257e-01 3.949196e-01 7.120814e-01 6.874957e-01 5.836421e-01 8.091019e-01 7.845392e-01 7.140991e-01 6.246355e-01 6.328639e-01 5.544786e-01 3.247228e-01
<GCONST> 1.368791e+02
<TRANSP> 5
 0.000000e+00 1.000000e+00 0.000000e+00 0.000000e+00 0.000000e+00
 0.000000e+00 1.700494e-01 8.299506e-01 0.000000e+00 0.000000e+00
 0.000000e+00 0.000000e+00 4.339367e-01 5.660633e-01 0.000000e+00
 0.000000e+00 0.000000e+00 0.000000e+00 2.767013e-01 7.232988e-01
 0.000000e+00 0.000000e+00 0.000000e+00 0.000000e+00 0.000000e+00
<ENDHMM>
~h "m"
<BEGINHMM>
<NUMSTATES> 5
<STATE> 2
<MEAN> 39
 3.053114e-01 6.915497e-01 -8.904748e-02 1.006547e-01 -5.086815e+00 -2.133217e+00 -7.605673e+00 -7.809201e+00 -5.382918e+00 -1.505255e+00 -4.724075e+00 -5.987404e+00 6.036805e+01 -2.835438e-03 7.200516e-01 8.495119e-01 1.447963e+00 3.305869e-01 -1.073446e-01 -9.777184e-03 -7.791747e-01 -7.046400e-01 -2.261299e-01 -6.214963e-01 1.550890e-01 -8.577600e-01 -1.195999e-01 -1.786808e-01 -7.959259e-02 -3.463565e-01 -1.622156e-01 -1.282957e-01 -4.202833e-02 2.684671e-01 1.300879e-01 2.638810e-02 1.243153e-01 1.545210e-02 3.136529e-01
<VARIANCE> 39
 3.698488e+01 3.930120e+01 3.006146e+01 3.579739e+01 3.255154e+01 4.546235e+01 3.329137e+01 4.502081e+01 4.992001e+01 5.053663e+01 4.950146e+01 3.219197e+01 8.278386e+01 5.891909e-01 1.154030e+00 1.636883e+00 2.669979e+00 1.938726e+00 2.708899e+00 2.499045e+00 4.743069e+00 2.499937e+00 2.501787e+00 2.945145e+00 2.091051e+00 9.346693e-01 1.082977e-01 1.496741e-01 2.249824e-01 3.859745e-01 3.291723e-01 3.925701e-01 4.417771e-01 6.796828e-01 4.384293e-01 3.857293e-01 4.211807e-01 3.861971e-01 1.063339e-01
<GCONST> 1.133295e+02
<STATE> 3
<MEAN> 39
 -7.343067e-02 8.254172e-02 3.274622e+00 1.658249e+00 -4.551418e+00 -2.691794e+00 -9.682769e+00 -8.448126e+00 -8.402097e+00 1.070698e-01 -8.467973e+00 -3.800845e+00 6.012137e+01 -3.230233e-02 1.472015e-01 -5.229316e-02 -1.675114e-01 -2.979162e-01 -7.426157e-02 9.620498e-02 2.485738e-01 4.731559e-02 -1.956184e-01 -3.158380e-02 1.186651e-01 4.158450e-02 -4.684061e-02 -2.458729e-01 -4.362894e-01 -8.146163e-01 -1.849194e-01 1.312943e-01 1.301211e-01 4.915616e-01 2.998532e-01 -8.212672e-02 4.034409e-01 -4.796211e-02 3.776507e-01
<VARIANCE> 39
 3.037715e+01 3.850059e+01 3.227703e+01 3.767686e+01 3.765858e+01 5.242575e+01 4.359053e+01 5.439861e+01 5.752126e+01 9.993368e+01 1.102040e+02 5.384827e+01 7.311918e+01 6.476041e-01 1.205805e+00 1.867159e+00 3.124676e+00 2.226252e+00 2.412452e+00 2.383134e+00 3.573826e+00 2.422437e+00 2.583275e+00 2.833613e+00 2.140394e+00 9.318238e-01 1.465574e-01 2.426493e-01 4.426617e-01 5.186650e-01 4.578316e-01 6.246995e-01 6.071720e-01 1.120838e+00 6.164846e-01 6.764879e-01 7.595653e-01 5.579994e-01 1.679312e-01
<GCONST> 1.217849e+02
<STATE> 4
<MEAN> 39
 -5.849942e-01 5.298156e-02 2.657402e-01 -1.184017e+00 -5.878591e+00 -2.084560e+00 -7.859772e+00 -6.392004e+00 -6.784163e+00 -1.754825e+00 -6.147401e+00 -3.898004e+00 5.919012e+01 1.417853e-01 -7.558049e-01 -9.332467e-01 -1.902525e+00 -3.575199e-01 5.519357e-01 2.354372e-01 7.212899e-01 5.090312e-01 -2.972312e-01 6.047059e-01 -1.869682e-01 1.437943e+00 -1.504681e-01 -2.417768e-01 -4.948006e-02 -2.513245e-01 4.819634e-02 5.525391e-02 -5.301462e-02 1.507321e-01 1.104637e-01 6.664957e-02 8.925803e-02 -8.376343e-02 2.571801e-01
<VARIANCE> 39
 4.551512e+01 4.646542e+01 5.302014e+01 6.157200e+01 4.822688e+01 4.599439e+01 4.395673e+01 5.494899e+01 6.504591e+01 8.196932e+01 7.524522e+01 4.418575e+01 1.064175e+02 2.520598e+00 2.904195e+00 5.672486e+00 5.407090e+00 5.127148e+00 5.024765e+00 4.732540e+00 8.602757e+00 5.642807e+00 4.596821e+00 5.044991e+00 3.534754e+00 3.274188e+00 3.020093e-01 3.887199e-01 7.681685e-01 8.392522e-01 7.365290e-01 7.450472e-01 6.569796e-01 1.034141e+00 7.577289e-01 7.142660e-01 8.141118e-01 5.657492e-01 3.547904e-01
<GCONST> 1.379759e+02
<TRANSP> 5
 0.000000e+00 1.000000e+00 0.000000e+00 0.000000e+00 0.000000e+00
 0.000000e+00 5.916115e-01 4.083886e-01 0.000000e+00 0.000000e+00
 0.000000e+00 0.000000e+00 5.205303e-01 4.794697e-01 0.000000e+00
 0.000000e+00 0.000000e+00 0.000000e+00 4.668549e-01 5.331451e-01
 0.000000e+00 0.000000e+00 0.000000e+00 0.000000e+00 0.000000e+00
<ENDHMM>
~h "n"
<BEGINHMM>
<NUMSTATES> 5
<STATE> 2
<MEAN> 39
 -1.664797e-01 -1.328510e-01 3.269714e+00 1.377764e+00 -5.879775e+00 -7.122200e+00 -8.066050e+00 -5.243553e+00 -3.570752e+00 -1.637784e+00 -9.739611e+00 -4.658922e+00 6.219677e+01 2.495384e-01 9.974709e-01 5.706499e-01 1.369704e+00 1.320031e-01 2.029227e-01 -1.594778e-01 -9.714199e-01 -1.752782e-01 2.091086e-01 -7.695114e-01 4.487210e-01 -1.271053e+00 -2.360507e-01 -1.557429e-01 -1.033104e-01 -3.306397e-01 -3.422884e-02 -2.563917e-02 5.493922e-02 2.922649e-01 -9.065561e-03 -5.875822e-02 3.057424e-01 -6.241640e-02 2.572635e-01
<VARIANCE> 39
 2.163137e+01 4.207117e+01 2.978971e+01 3.370567e+01 4.069499e+01 3.846692e+01 4.059183e+01 4.363121e+01 6.276010e+01 5.553508e+01 7.804670e+01 4.573141e+01 5.888544e+01 7.115356e-01 1.209219e+00 1.700057e+00 2.328228e+00 2.317564e+00 2.598415e+00 2.642853e+00 4.972781e+00 2.699229e+00 3.213852e+00 3.327857e+00 2.212103e+00 8.801266e-01 8.540095e-02 1.560616e-01 2.233743e-01 3.071741e-01 3.539335e-01 3.874187e-01 4.183858e-01 6.823148e-01 4.506611e-01 4.908663e-01 4.306443e-01 3.968518e-01 1.204709e-01
<GCONST> 1.146462e+02
<STATE> 3
<MEAN> 39
 -8.946459e-01 7.775821e-01 5.845866e+00 2.892307e+00 -5.920316e+00 -6.801482e+00 -1.094881e+01 -4.981316e+00 -4.638309e+00 2.396067e+00 -1.429931e+01 -2.462251e-01 5.919622e+01 -2.333449e-01 5.725499e-01 1.155584e-01 5.111918e-01 1.974466e-01 2.548806e-01 -1.558872e-01 -1.717104e-01 -1.672948e-01 -3.470439e-01 3.946583e-01 -9.596113e-03 -6.561621e-01 -3.561703e-01 -3.618622e-01 -2.148745e-01 -7.314882e-01 6.489664e-02 1.281985e-01 1.532902e-01 4.885940e-01 -8.535222e-02 -3.459454e-01 6.923057e-01 -1.739015e-01 4.785534e-01
<VARIANCE> 39
 2.929286e+01 4.172480e+01 4.736261e+01 3.975009e+01 5.974772e+01 5.646070e+01 6.809702e+01 5.841586e+01 6.771538e+01 9.983424e+01 1.802310e+02 9.436774e+01 7.692174e+01 7.307845e-01 1.892835e+00 1.835303e+00 2.994580e+00 2.810678e+00 3.018903e+00 3.215140e+00 4.059024e+00 3.577139e+00 4.040293e+00 4.916574e+00 2.860473e+00 1.331327e+00 2.286693e-01 3.997804e-01 5.732200e-01 6.422433e-01 7.348856e-01 7.162315e-01 7.773302e-01 1.284915e+00 8.231503e-01 9.731442e-01 1.093421e+00 7.172007e-01 3.003310e-01
<GCONST> 1.322752e+02
<STATE> 4
<MEAN> 39
 -2.838087e+00 1.187567e+00 3.589925e+00 1.577079e+00 -5.630956e+00 -4.418450e+00 -9.953293e+00 -4.617089e+00 -5.369695e+00 -1.941844e+00 -6.248085e+00 -3.113786e+00 5.658860e+01 -7.486796e-01 -4.504114e-01 -3.590966e-01 -1.017673e+00 2.155386e-01 3.035612e-01 1.651920e-01 6.926996e-01 -1.643475e-01 -4.294814e-01 8.319101e-01 -2.053515e-01 4.782109e-01 -1.541668e-01 -2.647052e-01 -9.556045e-02 -3.742702e-01 -1.205708e-01 -7.652496e-02 1.308081e-01 2.142128e-01 2.570435e-02 3.718292e-02 1.084871e-01 2.509344e-02 3.782835e-01
<VARIANCE> 39
 5.648956e+01 5.951986e+01 7.358970e+01 6.195580e+01 7.637810e+01 6.378220e+01 7.341541e+01 6.193027e+01 7.667775e+01 6.611392e+01 8.931063e+01 5.326435e+01 1.092977e+02 3.069380e+00 4.327138e+00 4.703150e+00 5.622633e+00 5.192683e+00 4.859038e+00 5.456775e+00 7.006703e+00 5.159070e+00 5.518208e+00 6.218679e+00 3.558144e+00 4.128697e+00 5.384527e-01 7.355745e-01 7.501795e-01 9.777883e-01 8.999634e-01 9.721837e-01 1.033073e+00 1.215508e+00 9.290529e-01 8.383564e-01 8.957591e-01 5.999079e-01 5.916362e-01
<GCONST> 1.448873e+02
<TRANSP> 5
 0.000000e+00 1.000000e+00 0.000000e+00 0.000000e+00 0.000000e+00
 0.000000e+00 6.356755e-01 3.643244e-01 0.000000e+00 0.000000e+00
 0.000000e+00 0.000000e+00 4.316046e-01 5.683954e-01 0.000000e+00
 0.000000e+00 0.000000e+00 0.000000e+00 5.248484e-01 4.751516e-01
 0.000000e+00 0.000000e+00 0.000000e+00 0.000000e+00 0.000000e+00
<ENDHMM>
~h "o"
<BEGINHMM>
<NUMSTATES> 5
<STATE> 2
<MEAN> 39
 -2.356843e+00 -2.387526e+00 -6.231796e+00 -1.311268e+01 -4.775389e+00 -4.795842e-01 -9.131743e+00 -4.263481e+00 -6.191055e+00 4.059498e+00 -8.723149e-01 -2.480771e+00 6.282881e+01 1.121504e+00 -4.050440e-01 -4.220032e-01 -1.859722e+00 -1.330959e-01 6.785964e-01 -3.130948e-01 -3.789802e-01 -3.154068e-01 8.647482e-01 2.522798e-01 -4.586654e-01 1.628337e+00 -1.772482e-01 2.937374e-02 1.911511e-01 4.266611e-01 6.693558e-02 -8.904206e-02 9.245936e-02 1.025479e-02 -1.646472e-03 -1.345749e-01 -1.917512e-02 3.150177e-02 -2.296917e-01
<VARIANCE> 39
 4.787782e+01 4.954595e+01 3.097758e+01 1.169094e+02 7.951122e+01 5.757520e+01 6.774822e+01 7.738848e+01 9.629900e+01 7.998856e+01 5.755296e+01 7.974055e+01 1.324791e+02 3.010566e+00 3.209569e+00 2.602888e+00 6.931176e+00 5.031432e+00 4.134118e+00 4.580963e+00 5.105679e+00 5.087359e+00 5.373742e+00 4.016088e+00 4.353496e+00 4.761249e+00 5.803297e-01 5.134451e-01 4.326393e-01 1.458024e+00 8.176290e-01 7.149081e-01 7.962424e-01 9.268821e-01 8.861113e-01 9.324882e-01 7.386118e-01 7.516208e-01 8.295462e-01
<GCONST> 1.425041e+02
<STATE> 3
<MEAN> 39
 8.669415e-01 -3.101483e+00 -6.171609e+00 -1.710456e+01 -6.174782e+00 5.444509e-01 -1.155025e+01 -4.577326e+00 -6.353728e+00 5.260450e+00 1.662112e+00 -4.649942e+00 6.995744e+01 8.243623e-02 7.151441e-02 1.366569e-01 3.189153e-01 2.091076e-01 -5.364179e-02 4.313542e-03 -1.963313e-01 5.284989e-02 1.835127e-02 -3.639048e-02 -4.291536e-02 -2.288217e-01 -7.476167e-02 1.075065e-01 1.502954e-01 3.956642e-01 -1.784847e-02 -1.580981e-01 4.738332e-02 -3.005558e-02 -1.050500e-02 -1.055731e-01 -1.261190e-01 1.488077e-01 -2.647114e-01
<VARIANCE> 39
 2.323858e+01 4.926853e+01 2.397360e+01 6.994217e+01 7.572945e+01 5.691565e+01 7.282024e+01 8.106050e+01 1.092375e+02 7.031635e+01 6.739519e+01 1.125099e+02 4.463733e+01 4.263438e-01 1.041405e+00 1.078912e+00 2.331277e+00 1.856363e+00 2.352678e+00 2.224113e+00 2.414775e+00 2.470060e+00 2.179463e+00 2.191783e+00 2.037657e+00 8.050746e-01 1.086251e-01 1.767353e-01 1.965272e-01 3.358088e-01 3.247039e-01 3.522726e-01 4.671959e-01 4.833684e-01 4.416018e-01 4.391457e-01 4.242069e-01 4.266535e-01 1.254329e-01
<GCONST> 1.153513e+02
<STATE> 4
<MEAN> 39
 2.534113e-01 -1.223768e+00 -5.162759e+00 -8.686551e+00 -5.545969e+00 1.508787e-01 -9.682046e+00 -6.010634e+00 -5.260455e+00 2.529493e+00 5.358770e-01 -3.330065e+00 6.073407e+01 -3.279945e-01 4.417171e-01 4.568555e-01 1.641768e+00 -1.879585e-02 -4.620247e-01 4.644709e-01 -1.346567e-01 8.427328e-02 -3.678946e-01 -4.001211e-01 2.725022e-01 -1.350615e+00 -1.470914e-01 -4.149721e-03 7.121460e-02 -7.043788e-04 -3.056671e-02 -2.105967e-02 1.148563e-01 1.063980e-01 -3.719487e-02 -4.718282e-02 -1.408847e-02 3.591415e-02 8.053485e-04
<VARIANCE> 39
 4.824489e+01 6.052421e+01 3.361539e+01 9.180954e+01 8.745312e+01 7.190694e+01 6.660756e+01 7.669072e+01 8.562102e+01 6.812916e+01 4.868169e+01 6.259548e+01 1.167263e+02 1.161245e+00 2.263636e+00 1.919629e+00 3.579590e+00 3.035311e+00 3.356263e+00 3.592944e+00 3.992573e+00 4.118295e+00 3.421972e+00 3.676727e+00 3.343244e+00 1.237702e+00 1.652210e-01 2.949947e-01 3.016360e-01 4.763607e-01 4.730492e-01 5.745174e-01 5.866146e-01 6.254906e-01 7.229103e-01 5.824885e-01 6.011648e-01 5.193467e-01 1.699113e-01
<GCONST> 1.286075e+02
<TRANSP> 5
 0.000000e+00 1.000000e+00 0.000000e+00 0.000000e+00 0.000000e+00
 0.000000e+00 6.345375e-01 3.654625e-01 0.000000e+00 0.000000e+00
 0.000000e+00 0.000000e+00 7.831621e-01 2.168379e-01 0.000000e+00
 0.000000e+00 0.000000e+00 0.000000e+00 5.971614e-01 4.028387e-01
 0.000000e+00 0.000000e+00 0.000000e+00 0.000000e+00 0.000000e+00
<ENDHMM>
~h "p"
<BEGINHMM>
<NUMSTATES> 5
<STATE> 2
<MEAN> 39
 -5.049290e+00 1.583028e+00 -1.371355e+00 4.680350e-01 -2.375158e+00 -1.583270e+00 -4.242187e+00 -2.569881e+00 -1.117154e+00 -5.169006e-02 -2.472623e+00 -3.255884e+00 5.473376e+01 -9.203584e-01 -3.492235e-02 -1.082736e-01 1.672922e-01 4.280824e-03 -1.395856e-01 2.302755e-01 5.827362e-01 1.322904e-01 4.191776e-02 5.031454e-01 3.688290e-01 -3.213382e-01 2.207928e-01 -3.509374e-01 -1.269699e-01 -5.526440e-01 -4.912637e-01 -4.049622e-01 -4.187670e-01 -1.773005e-01 -2.147490e-01 3.996078e-02 2.026518e-01 -8.757797e-02 9.093989e-01
<VARIANCE> 39
 3.424173e+01 2.936528e+01 3.568425e+01 3.161401e+01 3.409619e+01 3.998177e+01 3.369785e+01 4.150254e+01 4.663874e+01 3.126616e+01 3.700293e+01 2.936825e+01 6.232556e+01 1.451747e+00 1.824260e+00 2.199964e+00 3.053818e+00 2.774823e+00 3.360556e+00 2.983107e+00 3.444057e+00 3.059564e+00 3.031260e+00 3.065311e+00 2.338914e+00 2.800455e+00 3.991739e-01 3.809975e-01 4.780551e-01 5.958193e-01 5.682097e-01 6.353381e-01 7.597095e-01 7.600729e-01 7.285098e-01 6.308610e-01 6.018012e-01 7.598574e-01 3.655441e-01
<GCONST> 1.238823e+02
<STATE> 3
<MEAN> 39
 -7.217872e+00 3.777032e-01 -1.907428e+00 -4.210231e-02 -3.883139e+00 -5.070060e+00 -7.796701e+00 -3.379326e+00 -4.250161e+00 -3.277813e+00 -2.432431e+00 -4.615789e-01 5.354357e+01 3.931332e-01 -1.039916e+00 -7.560960e-01 -1.449738e+00 -9.988751e-01 -1.048491e+00 -1.076306e+00 -8.187233e-02 -6.698853e-01 2.422750e-01 8.570263e-01 4.408574e-01 2.371841e+00 6.438011e-01 -3.092018e-01 2.074453e-01 -8.466756e-01 -1.927778e-01 1.349092e-01 -2.500784e-01 -1.267942e-01 -1.491574e-01 5.730048e-01 -1.862943e-01 -2.246237e-01 8.697954e-01
<VARIANCE> 39
 3.598375e+01 3.650903e+01 4.906753e+01 5.643214e+01 4.766735e+01 6.370945e+01 6.988274e+01 6.283907e+01 6.542803e+01 6.157802e+01 5.340053e+01 4.918633e+01 8.252044e+01 4.117654e+00 4.543228e+00 7.208408e+00 1.148464e+01 7.456376e+00 7.248228e+00 6.654435e+00 7.218749e+00 7.144879e+00 8.618373e+00 6.455259e+00 7.089030e+00 5.709762e+00 4.826192e-01 8.468829e-01 1.112962e+00 1.420776e+00 1.266224e+00 1.369189e+00 1.357885e+00 1.355837e+00 1.295482e+00 1.589913e+00 1.142475e+00 1.198886e+00 6.159782e-01
<GCONST> 1.499474e+02
<STATE> 4
<MEAN> 39
 -3.300115e-01 -4.212796e+00 -1.033118e+00 -5.738528e+00 -9.335348e+00 -1.880571e+00 -1.017532e+01 -3.551200e+00 -5.884691e+00 -7.865271e-02 1.313251e+00 -4.385131e+00 6.088585e+01 8.383338e-01 -6.829222e-01 8.564684e-02 -1.276972e+00 -6.528327e-01 -3.369718e-02 -5.510634e-01 -1.055570e-01 -1.678566e-01 5.850291e-01 1.332318e-01 -4.991943e-01 1.608262e+00 -3.265341e-02 8.740432e-02 1.513658e-01 1.793434e-01 8.242228e-02 7.119596e-02 6.083031e-02 3.366642e-02 8.841155e-02 -5.573651e-02 -1.924534e-01 -8.189962e-02 -1.827963e-01
<VARIANCE> 39
 7.110641e+01 7.500942e+01 1.268996e+02 9.337659e+01 9.423016e+01 8.279695e+01 7.092516e+01 6.878637e+01 7.874289e+01 4.478949e+01 5.156219e+01 4.944154e+01 8.039524e+01 4.706918e+00 6.895289e+00 6.665018e+00 9.390107e+00 7.668272e+00 5.884173e+00 6.523259e+00 6.747243e+00 6.609893e+00 5.618334e+00 4.553796e+00 5.027664e+00 7.545105e+00 6.949033e-01 1.074998e+00 8.836194e-01 1.432070e+00 1.063356e+00 9.578472e-01 9.135477e-01 1.101520e+00 9.918451e-01 7.844039e-01 8.167053e-01 6.756282e-01 8.618583e-01
<GCONST> 1.504433e+02
<TRANSP> 5
 0.000000e+00 1.000000e+00 0.000000e+00 0.000000e+00 0.000000e+00
 0.000000e+00 6.075151e-01 3.924849e-01 0.000000e+00 0.000000e+00
 0.000000e+00 0.000000e+00 4.336815e-01 5.663185e-01 0.000000e+00
 0.000000e+00 0.000000e+00 0.000000e+00 6.468906e-01 3.531093e-01
 0.000000e+00 0.000000e+00 0.000000e+00 0.000000e+00 0.000000e+00
<ENDHMM>
~h "r"
<BEGINHMM>
<NUMSTATES> 5
<STATE> 2
<MEAN> 39
 -3.184816e+00 -4.099083e+00 -1.355136e+00 -5.518992e+00 -5.074779e+00 -1.043750e+01 -1.104541e+01 -8.048077e-01 -2.309604e+00 2.342551e+00 -5.343212e+00 -5.478600e-01 6.634106e+01 -2.244159e-01 5.616242e-01 5.310232e-01 7.296007e-01 2.874815e-01 -5.266877e-02 2.757601e-02 -2.848397e-01 -2.275099e-01 -1.369660e-01 -4.234548e-02 4.294684e-01 -9.519833e-01 -4.799780e-02 -4.801167e-03 2.133688e-02 -1.249985e-01 -1.605631e-01 1.776345e-01 9.562752e-02 1.527411e-02 -1.525621e-01 -7.846449e-02 1.593731e-01 -1.879520e-01 -6.381208e-03
<VARIANCE> 39
 3.344228e+01 3.311388e+01 3.845384e+01 6.673080e+01 7.602005e+01 7.092492e+01 5.886509e+01 6.501296e+01 9.667944e+01 5.600141e+01 7.976660e+01 9.044922e+01 9.689651e+01 1.361779e+00 2.189565e+00 2.311257e+00 2.649649e+00 3.672758e+00 4.939226e+00 3.986573e+00 4.166834e+00 3.846282e+00 3.155041e+00 3.085534e+00 3.311845e+00 1.415520e+00 2.835042e-01 3.389401e-01 3.454905e-01 4.882641e-01 5.994594e-01 6.777831e-01 6.599853e-01 7.055597e-01 6.847720e-01 5.429344e-01 5.861386e-01 5.961857e-01 2.700626e-01
<GCONST> 1.300777e+02
<STATE> 3
<MEAN> 39
 -4.233044e+00 -2.147450e+00 -2.249058e-01 -2.585299e+00 -5.259157e+00 -9.421632e+00 -9.821770e+00 -1.617774e+00 -3.802316e+00 9.192209e-01 -4.216558e+00 -1.338406e+00 6.236897e+01 -2.719623e-01 2.432235e-01 4.939673e-01 2.208930e-01 -4.326130e-01 3.221097e-01 1.065931e-01 -1.576180e-04 -5.120615e-01 -1.560095e-01 3.558206e-01 -1.683455e-01 -6.253546e-01 6.503060e-02 -2.125024e-01 -8.287014e-02 -3.553572e-01 -2.491108e-01 5.821717e-02 9.297923e-02 4.252591e-02 -2.977825e-02 4.359043e-02 1.144827e-01 -2.522222e-01 3.065868e-01
<VARIANCE> 39
 4.232330e+01 3.956282e+01 5.053077e+01 5.998318e+01 5.542730e+01 8.308506e+01 5.975145e+01 5.669048e+01 1.085954e+02 6.711831e+01 6.730145e+01 5.766055e+01 1.253322e+02 1.882373e+00 2.728621e+00 2.560188e+00 2.758878e+00 3.731601e+00 5.106617e+00 3.332707e+00 4.376247e+00 4.477713e+00 3.533329e+00 3.512982e+00 3.948253e+00 2.046834e+00 3.831304e-01 4.476430e-01 5.280415e-01 6.483806e-01 7.568665e-01 1.208428e+00 9.126094e-01 9.857327e-01 9.420378e-01 7.549131e-01 7.988555e-01 7.815660e-01 3.705073e-01
<GCONST> 1.361598e+02
<STATE> 4
<MEAN> 39
 3.877422e-01 -4.423774e+00 1.317951e+00 -3.064344e+00 -1.016982e+01 -2.913989e+00 -1.157596e+01 -1.989383e+00 -5.255329e+00 -6.331720e-01 7.589416e-01 -5.281299e+00 5.999665e+01 2.528027e-02 -7.468266e-02 9.612737e-02 -1.400090e-01 -1.853047e-01 1.970455e-02 -4.444839e-04 9.445621e-03 -7.323624e-02 -9.702221e-03 6.538413e-02 -9.158139e-02 1.155487e-01 9.781071e-03 -1.170786e-02 -6.887456e-03 -3.132865e-02 -1.063561e-02 -2.031941e-02 3.319957e-02 -8.390551e-03 2.554941e-03 1.140663e-03 -1.097636e-02 -7.270653e-03 4.361049e-02
<VARIANCE> 39
 9.339436e+01 8.805013e+01 1.146709e+02 8.333776e+01 8.681673e+01 9.044400e+01 7.376408e+01 8.148138e+01 8.082037e+01 4.423072e+01 5.446764e+01 4.421352e+01 8.944025e+01 5.226634e+00 7.113744e+00 4.958814e+00 6.110434e+00 5.894453e+00 4.575468e+00 5.176914e+00 5.899138e+00 5.102592e+00 3.540395e+00 3.864432e+00 2.968004e+00 5.135400e+00 7.987216e-01 1.240433e+00 7.712706e-01 1.075709e+00 1.054294e+00 8.899938e-01 9.442450e-01 1.037837e+00 8.786575e-01 6.729968e-01 7.278970e-01 5.697291e-01 8.032085e-01
<GCONST> 1.467944e+02
<TRANSP> 5
 0.000000e+00 1.000000e+00 0.000000e+00 0.000000e+00 0.000000e+00
 0.000000e+00 4.280762e-01 5.719239e-01 0.000000e+00 0.000000e+00
 0.000000e+00 0.000000e+00 2.817146e-01 7.182853e-01 0.000000e+00
 0.000000e+00 0.000000e+00 0.000000e+00 7.926716e-01 2.073284e-01
 0.000000e+00 0.000000e+00 0.000000e+00 0.000000e+00 0.000000e+00
<ENDHMM>
~h "s"
<BEGINHMM>
<NUMSTATES> 5
<STATE> 2
<MEAN> 39
 -1.248850e+01 5.976738e+00 2.167001e-01 -2.662648e+00 -1.463377e+00 -8.820371e+00 -7.185059e+00 -2.055586e+00 -4.043667e+00 -2.636172e+00 -4.621017e+00 -5.099377e-01 6.389019e+01 -3.644953e+00 2.366691e+00 -9.413273e-01 4.873800e-01 1.443759e+00 1.792843e-01 8.782556e-01 7.644690e-01 1.677919e-01 -6.361407e-01 6.649716e-01 4.723174e-01 -7.442760e-02 -2.337398e-01 -2.831321e-01 -1.246864e-01 -2.161943e-01 -2.363231e-01 1.922517e-01 -2.004722e-02 2.261745e-01 -6.031053e-02 1.741061e-01 2.505751e-01 -2.001102e-02 1.160514e-01
<VARIANCE> 39
 7.012523e+01 7.436687e+01 6.907364e+01 4.389520e+01 7.215958e+01 6.563074e+01 7.247125e+01 6.384510e+01 7.652900e+01 5.130930e+01 6.623509e+01 6.212319e+01 9.663497e+01 3.623223e+00 4.345474e+00 4.354795e+00 4.052949e+00 4.663565e+00 6.075966e+00 6.824998e+00 6.383924e+00 4.793408e+00 4.900065e+00 3.897759e+00 3.744684e+00 1.779603e+00 8.177468e-01 7.852783e-01 5.969337e-01 6.151909e-01 7.021128e-01 9.167932e-01 9.708878e-01 9.445971e-01 8.265603e-01 7.033085e-01 7.000195e-01 6.077325e-01 2.101281e-01
<GCONST> 1.405553e+02
<STATE> 3
<MEAN> 39
 -2.365365e+01 8.486499e+00 -3.298485e+00 -1.736951e+00 -1.898172e-01 -6.587911e+00 -2.494172e+00 2.840369e+00 -3.332748e+00 -1.365638e+00 2.029685e-01 -1.714181e-01 6.593988e+01 -6.340514e-01 -4.237297e-01 -1.883707e-01 1.844484e-02 -1.665705e-02 2.026607e-01 3.950450e-01 5.864252e-01 3.387298e-01 1.025570e-01 2.991762e-01 2.421206e-01 -3.812869e-01 1.025067e+00 -4.806135e-01 2.679926e-01 -6.373137e-02 -3.389173e-01 -2.175134e-01 -3.439773e-01 -3.182653e-01 -2.055730e-02 3.834934e-03 -1.974289e-01 -1.831230e-01 -6.794212e-02
<VARIANCE> 39
 3.730941e+01 3.356036e+01 4.493691e+01 6.319851e+01 3.731220e+01 4.674153e+01 5.231819e+01 4.535226e+01 8.994331e+01 4.230386e+01 4.140735e+01 3.725794e+01 5.748344e+01 4.245596e+00 2.474482e+00 2.618568e+00 2.185158e+00 2.228438e+00 2.901178e+00 2.789544e+00 3.028356e+00 2.865536e+00 2.614508e+00 2.499425e+00 2.096018e+00 9.576748e-01 4.614073e-01 4.504274e-01 4.879803e-01 4.760434e-01 5.101520e-01 6.517900e-01 6.755173e-01 7.120129e-01 6.171084e-01 5.741268e-01 5.070673e-01 4.932463e-01 1.862184e-01
<GCONST> 1.243891e+02
<STATE> 4
<MEAN> 39
 -1.780656e+01 5.132999e+00 -2.275610e+00 -2.713367e+00 -1.168190e+00 -8.774399e+00 -6.624401e+00 6.330627e-01 -2.879041e+00 -3.442649e+00 -2.182428e+00 6.118121e-01 6.173390e+01 3.334549e+00 -1.331082e+00 -4.531229e-02 -4.831146e-01 -1.214579e+00 -7.563376e-01 -1.201411e+00 -1.376561e+00 8.853074e-02 2.783619e-01 -6.489519e-01 -7.027678e-01 5.998083e-01 3.787203e-01 -1.069133e-01 3.550909e-02 -2.431896e-01 -1.643973e-01 9.871351e-02 -1.211759e-01 -2.047196e-01 -7.493087e-02 1.768503e-01 -3.914095e-02 -1.742477e-01 3.794022e-01
<VARIANCE> 39
 8.734543e+01 6.280841e+01 4.857961e+01 5.279089e+01 5.581927e+01 6.819014e+01 8.087586e+01 6.917691e+01 7.495535e+01 5.863379e+01 4.874706e+01 6.256360e+01 8.538256e+01 5.319968e+00 4.473299e+00 4.464877e+00 4.674929e+00 4.963364e+00 5.838053e+00 6.557217e+00 6.763953e+00 5.354207e+00 4.734566e+00 4.013872e+00 4.912190e+00 3.483523e+00 1.115736e+00 6.716097e-01 5.895182e-01 6.930595e-01 7.748796e-01 9.814094e-01 1.113364e+00 1.131247e+00 9.123779e-01 8.739022e-01 7.571052e-01 7.461080e-01 4.164088e-01
<GCONST> 1.437974e+02
<TRANSP> 5
 0.000000e+00 1.000000e+00 0.000000e+00 0.000000e+00 0.000000e+00
 0.000000e+00 6.285123e-01 3.714878e-01 0.000000e+00 0.000000e+00
 0.000000e+00 0.000000e+00 7.632135e-01 2.367865e-01 0.000000e+00
 0.000000e+00 0.000000e+00 0.000000e+00 6.429139e-01 3.570860e-01
 0.000000e+00 0.000000e+00 0.000000e+00 0.000000e+00 0.000000e+00
<ENDHMM>
~h "t"
<BEGINHMM>
<NUMSTATES> 5
<STATE> 2
<MEAN> 39
 -6.591364e+00 2.769160e+00 3.949383e-01 1.475505e+00 -3.611984e+00 -3.996274e+00 -5.441525e+00 -3.180063e+00 -1.849659e+00 -4.180955e-01 -2.406262e+00 -2.161165e+00 5.361217e+01 -1.165280e+00 -3.753528e-01 -5.452805e-01 -1.494551e-01 5.072700e-01 2.135570e-01 7.685440e-01 6.673821e-01 2.640548e-01 -1.602299e-01 4.836171e-01 4.025417e-01 -2.018848e-01 -1.540215e-01 -2.836163e-01 -1.264309e-01 -5.557207e-01 -3.905873e-01 -5.376012e-01 -2.685079e-01 2.856499e-02 -6.278824e-02 -1.981434e-02 1.079069e-01 -2.652038e-02 1.017611e+00
<VARIANCE> 39
 3.569306e+01 3.033339e+01 3.759230e+01 2.999089e+01 3.506585e+01 4.274921e+01 3.840503e+01 3.898683e+01 4.812668e+01 3.239984e+01 4.100914e+01 2.611474e+01 7.484673e+01 2.266800e+00 2.058393e+00 2.726026e+00 3.141692e+00 3.138198e+00 4.149530e+00 3.487053e+00 3.370092e+00 3.773695e+00 3.463808e+00 3.454448e+00 2.322038e+00 3.596231e+00 3.709562e-01 3.966731e-01 4.590487e-01 5.695878e-01 5.839394e-01 7.306321e-01 7.872074e-01 7.658773e-01 7.935421e-01 6.363664e-01 7.160441e-01 6.308686e-01 5.152241e-01
<GCONST> 1.268542e+02
<STATE> 3
<MEAN> 39
 -1.120760e+01 1.373705e+00 -1.652949e+00 -3.280821e-01 -3.013717e+00 -6.902272e+00 -6.009792e+00 -2.998224e+00 -3.123635e+00 -3.457549e+00 -2.305199e+00 7.893317e-02 5.416924e+01 -9.371178e-01 -7.439414e-01 -8.957904e-01 -1.452478e+00 -3.951126e-01 -1.630111e+00 -6.636738e-01 3.978325e-01 2.148667e-01 -3.828453e-01 5.759818e-01 6.356136e-01 2.827835e+00 7.295058e-01 -1.285501e-01 2.581516e-01 -5.590073e-01 -4.302889e-01 -1.264931e-01 -5.802889e-01 -1.399272e-01 -1.270171e-01 5.136482e-01 -2.064076e-01 -2.225340e-01 7.666562e-01
<VARIANCE> 39
 4.007312e+01 3.633436e+01 4.541356e+01 4.350959e+01 4.853560e+01 7.414204e+01 7.391853e+01 6.337408e+01 6.607546e+01 5.999145e+01 5.929468e+01 4.474689e+01 1.078416e+02 4.487518e+00 4.408242e+00 5.881010e+00 6.746236e+00 6.733382e+00 7.274891e+00 7.233938e+00 6.847914e+00 8.162478e+00 7.403944e+00 7.297648e+00 5.134059e+00 6.461989e+00 7.026427e-01 6.778247e-01 8.824472e-01 9.986619e-01 1.170022e+00 1.492776e+00 1.513041e+00 1.362124e+00 1.222729e+00 1.737745e+00 1.224607e+00 8.942387e-01 7.310666e-01
<GCONST> 1.490336e+02
<STATE> 4
<MEAN> 39
 -1.050437e+01 -1.192663e+00 -3.380657e+00 -5.629568e+00 -5.471961e+00 -1.024631e+01 -7.919111e+00 -1.521824e+00 -1.824193e+00 -9.555623e-01 -1.042243e+00 -1.271984e+00 6.438638e+01 1.764953e+00 -5.665854e-01 3.752711e-02 -1.852380e+00 -1.259857e+00 -6.594520e-01 -1.714999e+00 -3.983718e-01 -3.054583e-02 8.937541e-01 -1.001361e-02 -8.939295e-01 2.687434e+00 7.623836e-01 1.814231e-01 4.026652e-01 2.742154e-01 -1.109457e-01 6.728150e-01 -1.204207e-01 -3.097255e-01 -2.296402e-01 1.536175e-01 -1.287939e-01 -2.882218e-01 -6.257895e-01
<VARIANCE> 39
 5.425155e+01 4.099090e+01 4.540927e+01 5.297698e+01 4.696652e+01 6.301815e+01 6.954949e+01 5.174751e+01 8.131659e+01 3.898108e+01 5.068352e+01 4.875743e+01 1.069469e+02 5.080708e+00 4.289364e+00 5.506920e+00 5.459960e+00 6.131499e+00 7.391502e+00 7.523098e+00 7.465400e+00 6.139778e+00 6.391252e+00 5.312147e+00 4.726767e+00 5.116654e+00 9.238108e-01 6.379496e-01 6.991646e-01 9.275978e-01 8.125578e-01 1.309057e+00 1.146574e+00 9.993995e-01 1.069380e+00 8.654143e-01 8.493287e-01 6.717700e-01 6.684833e-01
<GCONST> 1.449446e+02
<TRANSP> 5
 0.000000e+00 1.000000e+00 0.000000e+00 0.000000e+00 0.000000e+00
 0.000000e+00 5.925171e-01 4.074829e-01 0.000000e+00 0.000000e+00
 0.000000e+00 0.000000e+00 3.960125e-01 6.039875e-01 0.000000e+00
 0.000000e+00 0.000000e+00 0.000000e+00 4.279667e-01 5.720333e-01
 0.000000e+00 0.000000e+00 0.000000e+00 0.000000e+00 0.000000e+00
<ENDHMM>
~h "u"
<BEGINHMM>
<NUMSTATES> 5
<STATE> 2
<MEAN> 39
 -1.765931e-02 1.553512e+00 -3.429398e+00 -9.779640e+00 -9.383228e+00 -1.447348e+00 -1.486410e+01 -7.370054e+00 -7.743254e+00 1.821765e+00 1.263582e+00 -2.369566e+00 6.462841e+01 1.178378e+00 3.924597e-01 -2.103741e-01 -1.332570e+00 -7.750089e-01 1.216094e+00 -9.126385e-01 -8.750542e-01 -1.003626e+00 4.521402e-01 8.018666e-01 -1.302271e-01 3.445644e-01 -4.206848e-01 -2.328352e-02 2.473772e-01 5.949211e-01 3.965173e-01 -7.600508e-02 5.350778e-01 2.851135e-01 1.493991e-01 -2.103772e-01 -3.198303e-01 3.609605e-03 -4.344215e-01
<VARIANCE> 39
 3.859874e+01 4.732303e+01 3.654596e+01 7.711462e+01 5.508315e+01 6.617816e+01 9.777738e+01 8.704929e+01 1.033335e+02 7.553458e+01 6.494539e+01 6.322759e+01 9.289267e+01 2.358423e+00 2.531634e+00 2.848911e+00 5.023444e+00 4.419984e+00 5.699135e+00 5.620367e+00 6.458520e+00 5.437434e+00 5.776909e+00 4.062918e+00 3.601969e+00 2.409219e+00 3.602590e-01 4.442391e-01 4.663917e-01 9.255225e-01 7.231150e-01 9.379246e-01 1.084167e+00 1.187961e+00 1.016703e+00 1.034887e+00 7.888846e-01 7.500373e-01 3.365581e-01
<GCONST> 1.401014e+02
<STATE> 3
<MEAN> 39
 1.516812e+00 3.012326e+00 -4.291812e+00 -1.301716e+01 -8.798994e+00 1.664985e+00 -1.409794e+01 -7.139410e+00 -1.153386e+01 1.755409e+00 2.138497e+00 -1.200248e+00 6.428725e+01 -7.990634e-02 -1.393235e-02 2.366768e-01 7.196561e-01 3.153379e-01 -7.320564e-02 3.788133e-01 3.454413e-02 2.811072e-01 -1.010914e-01 -3.372827e-01 -8.897005e-02 -5.399204e-01 -2.322529e-01 -8.672553e-02 1.738265e-01 5.492804e-01 1.981931e-01 -3.004088e-01 2.173325e-01 1.049237e-01 3.125850e-01 -1.120772e-01 -2.666978e-01 -3.657090e-02 -1.810913e-01
<VARIANCE> 39
 2.631470e+01 5.149365e+01 2.786956e+01 6.714819e+01 5.035728e+01 6.034655e+01 8.679352e+01 8.243748e+01 1.093876e+02 9.218985e+01 7.009476e+01 6.447459e+01 5.852363e+01 6.425977e-01 1.775905e+00 1.466971e+00 3.505633e+00 2.635348e+00 3.038811e+00 3.871442e+00 3.708535e+00 4.281918e+00 4.093607e+00 3.326428e+00 3.026606e+00 1.581052e+00 1.505646e-01 2.223746e-01 2.913675e-01 5.333140e-01 4.828968e-01 6.109844e-01 6.478572e-01 8.188729e-01 7.380819e-01 7.750018e-01 6.495985e-01 5.536303e-01 1.565753e-01
<GCONST> 1.266194e+02
<STATE> 4
<MEAN> 39
 -6.509373e-01 1.085219e+00 1.746239e-01 -3.353729e+00 -8.204833e+00 -2.029942e+00 -1.297660e+01 -6.030114e+00 -7.624822e+00 -3.533315e-01 -8.785195e-01 -2.444637e+00 5.878679e+01 -6.435300e-01 6.106722e-02 7.165502e-01 1.474873e+00 4.809878e-01 -6.473776e-01 6.761547e-01 2.120222e-01 6.544737e-01 -5.087320e-01 -6.947049e-01 -6.225545e-02 -9.390780e-01 -1.588024e-01 5.966207e-02 -4.309294e-02 -1.559330e-01 8.938015e-02 5.311090e-02 1.074582e-01 1.246642e-01 -1.167847e-01 -1.940462e-02 3.449098e-02 1.051281e-01 3.947034e-03
<VARIANCE> 39
 4.534175e+01 6.811603e+01 7.965914e+01 7.494032e+01 8.003557e+01 7.258834e+01 9.949177e+01 9.102336e+01 8.230407e+01 8.490967e+01 6.745393e+01 5.570131e+01 1.097336e+02 1.605574e+00 3.669523e+00 3.961148e+00 5.309597e+00 5.215485e+00 5.557250e+00 5.761721e+00 6.293921e+00 5.454991e+00 5.013519e+00 4.810418e+00 3.611809e+00 2.594167e+00 2.903951e-01 6.195418e-01 6.482794e-01 8.657025e-01 9.351866e-01 9.682603e-01 1.202499e+00 1.174122e+00 9.758022e-01 1.015112e+00 8.407215e-01 7.153471e-01 4.242399e-01
<GCONST> 1.434384e+02
<TRANSP> 5
 0.000000e+00 1.000000e+00 0.000000e+00 0.000000e+00 0.000000e+00
 0.000000e+00 4.047562e-01 5.952438e-01 0.000000e+00 0.000000e+00
 0.000000e+00 0.000000e+00 6.954765e-01 3.045235e-01 0.000000e+00
 0.000000e+00 0.000000e+00 0.000000e+00 5.692334e-01 4.307666e-01
 0.000000e+00 0.000000e+00 0.000000e+00 0.000000e+00 0.000000e+00
<ENDHMM>
~h "v"
<BEGINHMM>
<NUMSTATES> 5
<STATE> 2
<MEAN> 39
 -1.307503e+01 1.234741e+00 2.530672e+00 4.781965e+00 -4.358611e+00 -6.717175e+00 -8.299167e+00 -3.069332e-01 -2.805896e+00 1.573626e+00 -6.640091e-01 -4.119363e-01 6.092767e+01 -8.028808e-01 -4.046777e-01 -1.152405e+00 -4.533097e-01 1.051828e+00 1.332302e+00 5.020012e-01 6.053284e-01 7.106953e-01 4.838296e-01 1.361438e-01 1.604913e-02 -2.373585e-01 6.857198e-01 -2.919295e-01 -1.304621e-01 -6.548610e-01 -5.083878e-01 -1.555581e-01 -8.104604e-03 -2.926911e-01 -2.379145e-01 -3.777967e-03 2.095245e-01 -3.612086e-01 4.269864e-01
<VARIANCE> 39
 3.905338e+01 2.078252e+01 2.333861e+01 2.689526e+01 4.454651e+01 3.411376e+01 2.838482e+01 3.618119e+01 4.755225e+01 3.488847e+01 4.513112e+01 1.843749e+01 7.925092e+01 2.413504e+00 1.544608e+00 2.035000e+00 1.820066e+00 3.422017e+00 3.661768e+00 3.822831e+00 3.232390e+00 2.676085e+00 2.498230e+00 3.141731e+00 2.219950e+00 1.316042e+00 4.891326e-01 3.990662e-01 6.482720e-01 4.908381e-01 5.767972e-01 6.523066e-01 8.876094e-01 6.390783e-01 6.154132e-01 5.776529e-01 6.666134e-01 5.214378e-01 2.648014e-01
<GCONST> 1.216309e+02
<STATE> 3
<MEAN> 39
 -8.388570e+00 -1.464322e+00 -3.666057e+00 -1.053299e+00 -4.128297e+00 -2.593825e+00 -6.144006e+00 -2.253426e+00 -2.312778e+00 1.880784e+00 4.530280e-01 -3.660438e+00 6.034390e+01 3.417995e+00 -1.490965e+00 -2.718249e+00 -3.667241e+00 -5.009754e-01 8.508999e-01 -8.925849e-01 -1.496708e+00 8.788555e-02 4.234653e-01 5.780077e-01 -2.190726e+00 2.078025e+00 2.614014e-01 -1.798240e-01 1.530043e-01 -3.411734e-01 -2.488258e-01 -4.940897e-01 -4.950308e-01 -2.088793e-02 -4.595953e-02 2.609099e-01 -1.258352e-01 -3.526212e-01 6.795163e-01
<VARIANCE> 39
 6.413797e+01 2.855572e+01 4.820832e+01 6.277155e+01 4.101469e+01 2.493262e+01 2.705227e+01 6.495061e+01 5.472724e+01 3.907304e+01 4.116714e+01 3.729678e+01 9.900103e+01 3.664664e+00 3.330275e+00 4.798641e+00 6.037162e+00 4.542118e+00 4.049847e+00 4.511010e+00 4.444345e+00 3.186094e+00 4.273130e+00 3.856017e+00 4.792442e+00 3.162326e+00 8.302733e-01 5.456909e-01 7.738328e-01 1.059208e+00 5.200340e-01 4.109527e-01 5.969525e-01 8.904952e-01 7.346871e-01 7.121074e-01 7.821323e-01 5.094579e-01 3.468496e-01
<GCONST> 1.338711e+02
<STATE> 4
<MEAN> 39
 -6.319239e+00 -2.840415e-01 3.567771e+00 -6.234325e+00 -4.216656e+00 -6.809145e+00 -1.623295e+01 -1.637537e+00 -9.484200e+00 7.988248e+00 -1.240427e+01 6.023451e+00 6.290285e+01 1.571997e-01 -1.577219e-01 -8.691412e-02 -2.918920e-01 7.597709e-02 -2.783523e-02 -8.678202e-02 2.009930e-02 4.690130e-02 1.443172e-01 -7.253208e-02 -6.098502e-02 2.585047e-01 -6.516065e-02 1.575417e-02 5.976778e-02 5.383553e-02 8.721823e-03 -2.671122e-02 4.432518e-02 5.728141e-02 8.886985e-03 -5.591908e-03 -1.206090e-02 2.625139e-02 -1.998214e-02
<VARIANCE> 39
 7.092697e+01 1.055325e+02 9.603374e+01 1.094416e+02 9.100009e+01 1.124629e+02 8.909526e+01 8.306734e+01 9.637733e+01 1.188352e+02 8.404705e+01 8.971733e+01 7.151009e+01 4.613562e+00 5.645846e+00 5.008615e+00 9.666294e+00 5.860686e+00 6.751246e+00 7.245438e+00 7.893793e+00 7.406849e+00 1.252674e+01 5.885911e+00 6.811767e+00 5.463892e+00 7.962350e-01 8.433365e-01 8.739635e-01 1.611516e+00 1.018160e+00 1.290727e+00 1.415182e+00 1.567508e+00 1.332037e+00 2.327761e+00 1.076494e+00 1.167551e+00 7.128326e-01
<GCONST> 1.573644e+02
<TRANSP> 5
 0.000000e+00 1.000000e+00 0.000000e+00 0.000000e+00 0.000000e+00
 0.000000e+00 7.260662e-01 2.739339e-01 0.000000e+00 0.000000e+00
 0.000000e+00 0.000000e+00 5.517818e-01 4.482182e-01 0.000000e+00
 0.000000e+00 0.000000e+00 0.000000e+00 9.423671e-01 5.763286e-02
 0.000000e+00 0.000000e+00 0.000000e+00 0.000000e+00 0.000000e+00
<ENDHMM>
~h "w"
<BEGINHMM>
<NUMSTATES> 5
<STATE> 2
<MEAN> 39
 -2.005608e-02 3.522144e+00 -4.001984e+00 -5.256348e+00 -1.016488e+01 -4.182224e+00 -7.237373e+00 -6.123500e+00 -7.566585e+00 -9.758838e-01 -1.540110e+00 -3.177750e+00 5.719471e+01 1.831407e+00 6.762301e-01 -1.440949e-01 -1.050228e+00 -9.531598e-01 1.985880e-01 -2.436262e-01 -1.199006e+00 -7.863343e-01 2.438962e-01 4.485407e-01 2.185184e-01 6.978629e-01 -1.314404e-01 -1.184416e-01 7.027766e-02 -2.460068e-01 -1.802764e-01 1.143280e-01 1.113653e-01 3.380543e-01 2.933059e-02 -1.676268e-02 5.306927e-02 1.483518e-01 2.147568e-01
<VARIANCE> 39
 8.298229e+01 6.801985e+01 4.354240e+01 1.041226e+02 1.000401e+02 6.723484e+01 8.480683e+01 4.676907e+01 5.010950e+01 6.100441e+01 5.235243e+01 4.081251e+01 1.532414e+02 3.857323e+00 2.561269e+00 2.172024e+00 3.158747e+00 2.913934e+00 2.964555e+00 3.995463e+00 2.902016e+00 2.512800e+00 3.081893e+00 2.957880e+00 2.989942e+00 3.036406e+00 6.419416e-01 6.332840e-01 4.217631e-01 5.602905e-01 5.483013e-01 4.263124e-01 4.404818e-01 6.754088e-01 6.294240e-01 6.176087e-01 4.621010e-01 5.210462e-01 3.499120e-01
<GCONST> 1.322916e+02
<STATE> 3
<MEAN> 39
 2.332235e+00 1.878744e+00 -4.363973e+00 -1.653863e+01 -8.044507e+00 -1.053808e+00 -1.147437e+01 -8.058056e+00 -8.056291e+00 3.058625e+00 1.354234e+00 1.044311e+00 6.492840e+01 5.613092e-01 -3.179439e-01 -4.162864e-01 -1.272886e+00 -5.964584e-01 8.091354e-01 -2.928839e-02 -1.449725e-01 -4.120247e-01 5.290952e-01 1.041128e+00 2.691568e-01 5.945398e-01 -5.335208e-01 -4.248661e-01 1.705158e-01 4.816608e-01 2.686555e-01 -1.499090e-01 1.726357e-01 4.631351e-01 2.706076e-01 1.924791e-02 -2.927250e-01 -3.416530e-01 7.921094e-02
<VARIANCE> 39
 2.797732e+01 4.198291e+01 3.870112e+01 2.008381e+02 7.768686e+01 8.552727e+01 6.947598e+01 7.722173e+01 4.535638e+01 7.271206e+01 8.777468e+01 6.518974e+01 5.629079e+01 1.508240e+00 2.594860e+00 1.620174e+00 4.428332e+00 3.139733e+00 3.522039e+00 3.399965e+00 3.472533e+00 3.051115e+00 4.294555e+00 3.315240e+00 3.887013e+00 2.238522e+00 2.875757e-01 3.973902e-01 4.096701e-01 6.527891e-01 6.411574e-01 8.654613e-01 4.732358e-01 8.597823e-01 7.235084e-01 6.013896e-01 8.960513e-01 8.584374e-01 2.485908e-01
<GCONST> 1.325561e+02
<STATE> 4
<MEAN> 39
 9.171321e-01 -5.022381e+00 -7.556987e+00 -1.796386e+01 -8.126793e+00 1.827533e+00 -1.085015e+01 -6.232458e+00 -7.112114e+00 4.220962e+00 -8.164015e-02 -3.534262e+00 6.918107e+01 -2.403368e-01 -4.788862e-01 1.492295e-01 2.105050e-01 4.008854e-01 -3.170481e-01 2.133090e-02 1.994303e-01 1.016941e-01 1.721962e-01 -5.196685e-01 -4.691949e-01 2.606178e-01 -1.110563e-01 6.649361e-02 1.036977e-01 1.626653e-01 1.349275e-01 -1.555812e-01 8.678941e-02 8.781357e-02 4.730682e-02 -1.158311e-01 -1.505700e-01 -1.319846e-03 -1.076005e-01
<VARIANCE> 39
 1.737421e+01 5.157561e+01 3.137912e+01 7.702439e+01 6.223343e+01 8.022235e+01 5.666501e+01 6.477245e+01 6.064433e+01 6.270975e+01 1.128717e+02 9.357080e+01 3.327805e+01 4.949374e-01 1.425001e+00 8.265187e-01 1.529971e+00 2.561011e+00 2.161782e+00 1.771844e+00 2.420754e+00 2.433151e+00 2.304855e+00 2.564652e+00 3.177711e+00 7.071701e-01 1.086565e-01 1.820690e-01 1.722087e-01 1.959581e-01 2.977512e-01 3.517452e-01 3.346989e-01 3.532333e-01 2.672839e-01 3.322822e-01 4.447862e-01 4.447051e-01 9.933618e-02
<GCONST> 1.124771e+02
<TRANSP> 5
 0.000000e+00 1.000000e+00 0.000000e+00 0.000000e+00 0.000000e+00
 0.000000e+00 4.838130e-01 5.161870e-01 0.000000e+00 0.000000e+00
 0.000000e+00 0.000000e+00 5.084795e-01 4.915205e-01 0.000000e+00
 0.000000e+00 0.000000e+00 0.000000e+00 7.842681e-01 2.157319e-01
 0.000000e+00 0.000000e+00 0.000000e+00 0.000000e+00 0.000000e+00
<ENDHMM>
~h "y"
<BEGINHMM>
<NUMSTATES> 5
<STATE> 2
<MEAN> 39
 -6.525395e+00 -3.572925e-01 1.182859e+01 -6.192710e+00 -1.703600e+01 -1.036103e+01 -9.322774e+00 -1.099343e-01 -1.119333e+01 4.494948e-01 2.414378e+00 -7.827716e-01 6.868906e+01 -2.965010e-02 -2.574123e-01 3.265677e-01 -2.435710e-01 -1.007021e+00 -5.637754e-01 2.894090e-01 4.027268e-01 -2.012703e-01 1.945284e-01 4.841003e-01 3.244074e-01 5.039821e-01 1.160236e-01 -2.335403e-01 -4.499269e-01 3.540065e-02 3.437876e-01 1.770893e-02 1.764571e-01 1.879906e-01 3.031211e-01 -4.988192e-02 -3.204163e-01 -1.217209e-01 1.648880e-03
<VARIANCE> 39
 1.740722e+01 5.930539e+01 5.728535e+01 4.450836e+01 6.790916e+01 7.016044e+01 7.596952e+01 7.309506e+01 8.144581e+01 6.645077e+01 8.307679e+01 9.951054e+01 6.533916e+01 6.868890e-01 2.474353e+00 3.697708e+00 1.618239e+00 3.318621e+00 2.477515e+00 3.992290e+00 3.466373e+00 3.386941e+00 2.758566e+00 2.640810e+00 2.365194e+00 1.243957e+00 9.018089e-02 2.276016e-01 3.418351e-01 2.924686e-01 5.966572e-01 4.180807e-01 5.635710e-01 5.232689e-01 4.754468e-01 5.016184e-01 4.697582e-01 4.566676e-01 1.058379e-01
<GCONST> 1.226690e+02
<STATE> 3
<MEAN> 39
 -4.903473e+00 -6.175904e+00 5.417094e+00 -8.523641e+00 -1.357994e+01 -1.479498e+01 -3.498087e+00 5.679320e+00 -5.616392e+00 8.337630e-02 -2.637446e+00 1.425332e+00 7.160461e+01 2.796089e-01 -5.833389e-01 -1.049839e+00 -1.629762e-03 1.294534e+00 7.710117e-02 5.064889e-01 3.799657e-01 8.391820e-01 -4.976759e-01 -1.103146e+00 -4.511319e-01 -3.793447e-02 1.022812e-02 1.325642e-01 1.061665e-02 5.095685e-02 2.793134e-01 1.994522e-01 -1.701655e-01 -2.615069e-01 -2.112773e-02 -2.180907e-02 -9.693789e-02 -1.111538e-01 -1.456768e-01
<VARIANCE> 39
 1.481630e+01 3.805542e+01 3.421930e+01 5.062234e+01 1.080684e+02 6.070926e+01 7.695512e+01 7.963750e+01 7.328959e+01 4.366953e+01 1.092001e+02 1.212151e+02 5.377275e+01 3.344190e-01 1.048066e+00 1.655258e+00 9.040226e-01 2.099102e+00 1.551910e+00 1.938713e+00 2.473155e+00 2.264949e+00 2.025336e+00 2.434151e+00 1.844374e+00 3.606518e-01 5.543257e-02 1.249639e-01 1.691459e-01 1.834923e-01 3.572970e-01 2.781461e-01 3.252003e-01 4.016657e-01 2.953255e-01 3.312139e-01 3.637338e-01 2.902935e-01 5.399496e-02
<GCONST> 1.083528e+02
<STATE> 4
<MEAN> 39
 -4.740157e+00 -4.929019e+00 1.823894e+00 -4.471255e+00 -7.122729e+00 -9.233497e+00 -5.637187e+00 1.093577e+00 -3.181983e+00 -3.552515e+00 -4.870099e+00 -1.181111e+00 6.453075e+01 7.405035e-02 -5.264927e-03 -6.765025e-01 2.495534e-01 7.923541e-01 4.787542e-01 -1.141993e-01 -3.256524e-01 3.544704e-01 -7.875952e-02 -3.737495e-01 -5.613101e-01 -3.791792e-01 2.337927e-02 1.018950e-01 7.799092e-02 1.111462e-02 -6.421849e-02 1.484474e-01 -1.302231e-01 -1.608073e-01 -9.023318e-02 1.899071e-01 8.189183e-02 -1.953262e-02 -1.316187e-01
<VARIANCE> 39
 5.043862e+01 6.094147e+01 5.000035e+01 7.710487e+01 1.170284e+02 9.644946e+01 8.520047e+01 8.598141e+01 9.577468e+01 8.495508e+01 9.036837e+01 1.211345e+02 1.265321e+02 1.790396e+00 2.756670e+00 4.207772e+00 3.669951e+00 6.642839e+00 3.979481e+00 4.013103e+00 5.028421e+00 4.941460e+00 4.158707e+00 4.448328e+00 3.790316e+00 2.738895e+00 2.580968e-01 5.358230e-01 5.579888e-01 6.585577e-01 8.572292e-01 7.281494e-01 8.129824e-01 1.069325e+00 9.448638e-01 7.021406e-01 6.321837e-01 6.472494e-01 3.287487e-01
<GCONST> 1.408022e+02
<TRANSP> 5
 0.000000e+00 1.000000e+00 0.000000e+00 0.000000e+00 0.000000e+00
 0.000000e+00 7.660515e-01 2.339485e-01 0.000000e+00 0.000000e+00
 0.000000e+00 0.000000e+00 7.538068e-01 2.461932e-01 0.000000e+00
 0.000000e+00 0.000000e+00 0.000000e+00 5.766689e-01 4.233311e-01
 0.000000e+00 0.000000e+00 0.000000e+00 0.000000e+00 0.000000e+00
<ENDHMM>
~h "ex"
<BEGINHMM>
<NUMSTATES> 5
<STATE> 2
<MEAN> 39
 -5.202647e+00 -6.914477e+00 4.438595e+00 -4.999695e+00 -1.275113e+01 -1.184647e+01 -4.904356e+00 3.398615e+00 -6.058757e+00 -4.833600e-01 -1.062837e+00 -2.013455e+00 6.691715e+01 -6.014291e-02 -3.890170e-01 9.157153e-01 -5.590832e-01 -1.373904e+00 -8.604283e-01 6.283003e-01 7.181019e-01 -1.010719e+00 -6.669962e-02 5.908540e-01 8.842734e-02 1.360373e+00 -1.171854e-02 3.562252e-01 -8.368904e-02 2.958946e-01 2.112461e-01 3.153064e-01 -2.352418e-02 -4.099535e-01 -3.960337e-02 1.791121e-01 -5.075825e-02 -8.918812e-02 -3.751956e-01
<VARIANCE> 39
 3.797842e+01 4.985176e+01 6.055719e+01 5.017388e+01 8.319238e+01 9.278562e+01 9.181898e+01 8.661681e+01 8.943839e+01 5.744651e+01 6.398773e+01 8.782607e+01 1.266295e+02 1.876317e+00 3.080402e+00 2.763394e+00 3.023337e+00 4.859883e+00 5.261263e+00 5.601786e+00 5.307816e+00 4.410029e+00 4.148860e+00 3.816543e+00 3.676489e+00 3.918569e+00 2.938508e-01 5.447799e-01 4.289738e-01 6.106124e-01 8.291703e-01 9.025967e-01 8.443750e-01 9.990663e-01 7.798350e-01 7.280485e-01 6.849061e-01 6.464060e-01 6.951638e-01
<GCONST> 1.392433e+02
<STATE> 3
<MEAN> 39
 -5.913506e+00 -4.896678e+00 9.037679e+00 -5.613455e+00 -1.873083e+01 -1.416862e+01 -4.557689e+00 2.666205e+00 -1.193706e+01 2.549077e+00 9.803064e-01 -7.188031e-01 7.135793e+01 -4.268061e-02 5.190972e-01 1.562866e-01 5.475583e-01 3.674113e-01 2.362804e-01 3.454207e-01 -5.732978e-01 -7.547066e-02 -2.629107e-02 -1.200420e-01 -5.189210e-02 -8.004751e-01 2.365588e-02 8.534947e-02 -1.514315e-01 1.726625e-01 3.545569e-01 1.745242e-01 -3.204118e-02 -1.037778e-01 2.264755e-01 -4.346756e-02 -1.560447e-01 6.241415e-03 -3.158736e-01
<VARIANCE> 39
 1.283016e+01 4.171446e+01 5.269355e+01 3.348818e+01 6.648956e+01 6.240573e+01 7.942868e+01 1.025998e+02 7.460802e+01 6.672555e+01 8.010184e+01 1.094458e+02 5.488677e+01 5.167806e-01 9.995992e-01 1.570741e+00 1.440188e+00 2.700797e+00 1.845632e+00 2.445394e+00 2.369332e+00 3.074048e+00 2.162905e+00 2.173753e+00 2.340366e+00 1.491562e+00 1.025202e-01 1.547617e-01 2.642917e-01 2.341695e-01 4.063638e-01 3.690973e-01 4.743130e-01 4.754404e-01 5.325845e-01 3.858801e-01 4.034487e-01 4.398972e-01 1.456473e-01
<GCONST> 1.162585e+02
<STATE> 4
<MEAN> 39
 -1.053884e+01 2.899754e-02 6.706160e-01 1.957629e+00 -7.073344e+00 -3.981070e+00 -9.785142e-01 4.351424e-01 -3.757898e+00 -7.913915e-01 -7.802118e-01 -1.359371e+00 5.073406e+01 -1.065904e-01 2.262724e-01 -2.325763e-01 3.958524e-01 6.393484e-01 4.372454e-01 2.356455e-02 -9.029723e-02 3.833674e-01 -1.707527e-02 -1.621438e-01 1.497185e-01 -8.323137e-01 -1.860327e-02 -2.255281e-02 -1.086467e-02 -5.888275e-02 -5.352393e-02 -2.180504e-02 -8.608869e-02 4.140729e-02 -1.765875e-02 3.384598e-02 2.071989e-02 -2.900793e-03 7.206899e-02
<VARIANCE> 39
 4.294918e+01 2.927745e+01 6.287169e+01 2.435700e+01 4.081236e+01 6.321363e+01 5.731394e+01 4.715533e+01 4.571164e+01 4.569701e+01 3.219069e+01 2.797525e+01 2.297224e+02 6.026955e-01 8.597766e-01 1.111975e+00 1.527727e+00 2.124045e+00 2.337883e+00 2.554308e+00 2.488926e+00 2.621215e+00 2.198921e+00 2.318979e+00 2.196105e+00 1.141377e+00 1.135327e-01 1.478038e-01 1.922241e-01 2.372175e-01 2.994287e-01 3.944525e-01 4.045022e-01 4.427179e-01 4.752612e-01 4.450601e-01 3.897474e-01 3.593099e-01 9.089617e-02
<GCONST> 1.116773e+02
<TRANSP> 5
 0.000000e+00 1.000000e+00 0.000000e+00 0.000000e+00 0.000000e+00
 0.000000e+00 6.568900e-01 3.431100e-01 0.000000e+00 0.000000e+00
 0.000000e+00 0.000000e+00 8.098904e-01 1.901095e-01 0.000000e+00
 0.000000e+00 0.000000e+00 0.000000e+00 7.691716e-01 2.308283e-01
 0.000000e+00 0.000000e+00 0.000000e+00 0.000000e+00 0.000000e+00
<ENDHMM>
~h "ng"
<BEGINHMM>
<NUMSTATES> 5
<STATE> 2
<MEAN> 39
 9.234937e-01 -2.621894e-02 1.913271e+00 -9.354439e-01 -7.826696e+00 -2.445103e+00 -7.258695e+00 -6.688085e+00 -4.248754e+00 -2.427899e+00 -6.296555e+00 -6.102347e+00 6.287078e+01 1.253459e-01 5.092811e-01 4.359196e-01 8.059144e-01 2.922207e-02 -1.646977e-02 6.031792e-03 -6.548269e-01 -7.232569e-02 1.393369e-01 -4.366924e-01 3.263167e-01 -8.007621e-01 -1.533896e-01 -3.592335e-02 -6.544854e-02 -2.286148e-01 -1.894587e-02 -3.871493e-02 3.866940e-02 2.101641e-01 -8.309723e-02 1.454051e-02 1.471308e-01 -2.510084e-02 1.241933e-01
<VARIANCE> 39
 2.843076e+01 5.093309e+01 3.993432e+01 3.650166e+01 4.935659e+01 5.271571e+01 4.758361e+01 5.097721e+01 6.694482e+01 6.007923e+01 5.420818e+01 3.875641e+01 5.142894e+01 5.248542e-01 8.729173e-01 1.706227e+00 1.911250e+00 2.253019e+00 2.598702e+00 2.562854e+00 3.934883e+00 2.705518e+00 2.272980e+00 2.416581e+00 2.139484e+00 6.052074e-01 7.008680e-02 1.422727e-01 2.227294e-01 2.894352e-01 3.472839e-01 3.633519e-01 4.252613e-01 5.464144e-01 4.495859e-01 3.864469e-01 3.963066e-01 4.078551e-01 9.915857e-02
<GCONST> 1.124617e+02
<STATE> 3
<MEAN> 39
 -7.732694e-01 -7.003041e-01 5.743382e+00 -1.033575e+00 -6.513088e+00 -6.186324e-01 -1.087121e+01 -4.346898e+00 -5.708791e+00 3.284442e+00 -1.430838e+01 -3.080587e-01 6.119836e+01 -1.141526e-01 6.806666e-01 8.101297e-02 5.988103e-01 -1.131579e-01 1.532145e-01 2.607493e-02 -2.743156e-01 -2.125749e-01 7.790456e-02 -1.456611e-01 2.526213e-01 -6.687301e-01 -2.455441e-01 -5.134894e-02 -3.417783e-01 -3.466835e-01 2.012932e-01 -5.049348e-02 1.537664e-01 1.871504e-01 -8.152778e-02 -1.776083e-01 4.487177e-01 -1.268714e-01 2.067909e-01
<VARIANCE> 39
 2.666315e+01 4.996297e+01 5.326657e+01 5.269299e+01 9.407377e+01 5.975166e+01 9.583265e+01 7.923631e+01 7.188081e+01 9.685104e+01 1.491458e+02 9.006662e+01 7.007121e+01 6.130571e-01 1.376559e+00 1.841482e+00 2.402494e+00 3.348033e+00 2.545953e+00 3.216647e+00 3.710247e+00 2.907859e+00 2.740825e+00 3.362386e+00 2.856848e+00 8.879337e-01 1.656301e-01 3.167201e-01 4.582044e-01 5.231898e-01 6.759422e-01 6.384432e-01 6.653272e-01 1.045293e+00 7.543803e-01 6.538827e-01 8.003226e-01 6.219419e-01 1.991838e-01
<GCONST> 1.285455e+02
<STATE> 4
<MEAN> 39
 -2.017388e+00 8.647858e-01 1.945439e+00 -7.801601e-01 -5.287049e+00 -1.540617e+00 -8.024455e+00 -6.438571e+00 -5.430145e+00 2.269793e-02 -8.316742e+00 -3.534399e+00 5.941758e+01 -7.374553e-01 9.610597e-02 -7.829900e-01 -5.037922e-01 8.633440e-01 -4.291280e-02 3.800727e-01 2.945201e-01 -2.510996e-01 -3.273769e-01 7.776939e-01 -2.109085e-01 -7.964744e-02 -1.986278e-01 -3.497530e-01 -1.102046e-01 -3.549015e-01 5.493719e-02 -1.236661e-01 -5.262004e-02 3.886326e-01 -1.012162e-02 -7.706655e-02 1.915326e-01 2.002986e-02 3.739179e-01
<VARIANCE> 39
 3.969437e+01 5.498682e+01 5.995396e+01 5.657854e+01 8.340939e+01 6.106612e+01 7.077270e+01 6.003873e+01 7.219351e+01 8.214404e+01 1.036205e+02 6.561718e+01 1.029619e+02 1.636533e+00 3.234001e+00 3.600650e+00 4.315044e+00 5.608711e+00 4.196883e+00 4.329513e+00 6.270804e+00 4.843812e+00 4.472094e+00 5.608277e+00 3.548870e+00 2.928151e+00 3.604228e-01 4.863994e-01 7.255086e-01 6.487991e-01 1.021298e+00 7.988100e-01 7.726519e-01 1.151473e+00 8.612536e-01 8.021196e-01 9.529051e-01 5.837044e-01 3.423071e-01
<GCONST> 1.396983e+02
<TRANSP> 5
 0.000000e+00 1.000000e+00 0.000000e+00 0.000000e+00 0.000000e+00
 0.000000e+00 6.591618e-01 3.408381e-01 0.000000e+00 0.000000e+00
 0.000000e+00 0.000000e+00 4.249097e-01 5.750903e-01 0.000000e+00
 0.000000e+00 0.000000e+00 0.000000e+00 4.379185e-01 5.620815e-01
 0.000000e+00 0.000000e+00 0.000000e+00 0.000000e+00 0.000000e+00
<ENDHMM>
~h "ny"
<BEGINHMM>
<NUMSTATES> 5
<STATE> 2
<MEAN> 39
 -4.443233e+00 4.252366e+00 8.548690e+00 -5.149671e+00 -7.401417e+00 -8.167455e+00 -9.839762e+00 -2.287416e+00 -9.144446e+00 -1.002688e+00 -3.599397e+00 -1.828804e+00 6.461936e+01 -9.476063e-01 -9.385606e-01 7.863480e-01 -1.370208e+00 -1.266158e+00 3.727579e-01 9.126320e-01 7.801436e-01 -7.454158e-01 -1.070879e-01 1.038291e+00 -3.196390e-01 1.352937e+00 8.416114e-02 -6.091599e-01 -2.173048e-01 1.442771e-01 -3.650187e-01 1.880510e-02 3.217524e-01 2.109344e-01 1.404528e-01 -1.332003e-01 -1.032785e-01 -2.822913e-02 2.431647e-01
<VARIANCE> 39
 2.063194e+01 3.990722e+01 3.918280e+01 5.335048e+01 5.069222e+01 5.855702e+01 8.013448e+01 5.011346e+01 7.568385e+01 6.978294e+01 9.200862e+01 9.185705e+01 5.362298e+01 1.475390e+00 3.452796e+00 2.232220e+00 3.670353e+00 5.146559e+00 4.199398e+00 5.487199e+00 4.556742e+00 3.753657e+00 3.103524e+00 3.210382e+00 3.706867e+00 1.543171e+00 3.642220e-01 3.574336e-01 4.968981e-01 8.987353e-01 9.395160e-01 7.879790e-01 8.361324e-01 7.643321e-01 7.795592e-01 6.050520e-01 7.462890e-01 6.362132e-01 3.095660e-01
<GCONST> 1.330526e+02
<STATE> 3
<MEAN> 39
 -5.639141e+00 -4.483925e+00 7.997841e+00 -5.428999e+00 -1.291762e+01 -6.957642e+00 -3.614059e+00 3.022912e+00 -9.334954e+00 -4.921276e+00 -1.945466e+00 -3.199148e+00 7.022485e+01 1.642190e-01 -1.371511e+00 -9.517026e-01 3.025706e-01 1.243727e-01 -9.146243e-02 6.173869e-01 9.837084e-01 5.215977e-01 -9.074531e-01 -7.687746e-01 9.387302e-02 5.561717e-01 1.148661e-01 2.654852e-01 -2.288577e-01 1.165282e-01 5.335212e-01 -3.703775e-02 -3.027022e-01 -1.959039e-01 2.117029e-01 8.707655e-02 -2.789996e-01 2.309488e-02 -2.926997e-01
<VARIANCE> 39
 1.507441e+01 4.594346e+01 4.447338e+01 3.790979e+01 7.975169e+01 4.840720e+01 8.739783e+01 9.209978e+01 8.766962e+01 6.780116e+01 1.013500e+02 1.118308e+02 5.831342e+01 4.004862e-01 1.493214e+00 1.376951e+00 1.322450e+00 2.557181e+00 2.004239e+00 2.175858e+00 2.540576e+00 1.908491e+00 2.021196e+00 1.911934e+00 2.064056e+00 6.430169e-01 1.046662e-01 1.447338e-01 2.478559e-01 2.549754e-01 4.254589e-01 3.328518e-01 3.980219e-01 4.318016e-01 3.412927e-01 3.500954e-01 3.699915e-01 3.613140e-01 8.512571e-02
<GCONST> 1.134341e+02
<STATE> 4
<MEAN> 39
 -6.268504e+00 -6.265233e+00 4.543431e+00 -4.031230e+00 -5.172023e+00 -6.809305e+00 -3.657240e+00 3.945240e+00 -6.508001e+00 -8.806554e+00 -6.741271e+00 2.040738e+00 6.427576e+01 1.615477e-01 -2.369208e-01 -1.123921e+00 4.046358e-01 5.710927e-01 7.766585e-02 -3.012840e-01 -1.875989e-01 9.438148e-01 2.373603e-02 -2.549936e-01 -5.575561e-01 -7.016250e-01 4.622090e-02 4.058524e-01 -5.908761e-03 1.474407e-02 8.859583e-02 7.353507e-02 -1.552013e-01 -3.937587e-01 6.620996e-04 3.127234e-01 1.707358e-02 -1.618036e-01 -3.410164e-01
<VARIANCE> 39
 3.045625e+01 5.118986e+01 5.067577e+01 6.655369e+01 1.549952e+02 6.700694e+01 9.416538e+01 9.162019e+01 9.239863e+01 9.318052e+01 9.960333e+01 1.348506e+02 1.539776e+02 1.062934e+00 2.523006e+00 2.654285e+00 3.414358e+00 4.720667e+00 3.575058e+00 5.247859e+00 4.616808e+00 4.509051e+00 4.984585e+00 4.480787e+00 3.498757e+00 1.647815e+00 1.951203e-01 4.682960e-01 3.446439e-01 6.281645e-01 7.738605e-01 7.223483e-01 1.076009e+00 1.026629e+00 8.251253e-01 7.903648e-01 6.076459e-01 6.062840e-01 2.717194e-01
<GCONST> 1.375004e+02
<TRANSP> 5
 0.000000e+00 1.000000e+00 0.000000e+00 0.000000e+00 0.000000e+00
 0.000000e+00 7.149859e-01 2.850141e-01 0.000000e+00 0.000000e+00
 0.000000e+00 0.000000e+00 7.256704e-01 2.743296e-01 0.000000e+00
 0.000000e+00 0.000000e+00 0.000000e+00 4.283612e-01 5.716388e-01
 0.000000e+00 0.000000e+00 0.000000e+00 0.000000e+00 0.000000e+00
<ENDHMM>
~h "sp"
<BEGINHMM>
<NUMSTATES> 3
<STATE> 2
~s "silst"
<TRANSP> 3
 0.000000e+00 7.000000e-01 3.000000e-01
 0.000000e+00 9.000000e-01 9.999999e-02
 0.000000e+00 0.000000e+00 0.000000e+00
<ENDHMM>
~h "sy"
<BEGINHMM>
<NUMSTATES> 5
<STATE> 2
<MEAN> 39
 -1.651879e+01 9.703259e+00 7.335428e+00 -5.623218e+00 -4.394281e+00 -9.106934e+00 -6.305172e+00 -2.046005e+00 -7.405632e+00 -3.594648e+00 3.318188e+00 -1.690291e+00 6.727969e+01 -7.493057e-01 3.906979e-01 8.949880e-01 2.218889e-01 -3.279991e-01 1.044305e-01 4.683354e-01 2.617598e-02 -4.832219e-01 -1.563333e-01 2.187514e-01 -1.034634e-01 -1.727319e-01 2.349649e-01 -1.448854e-01 -2.714748e-02 -8.040446e-02 -8.352380e-02 7.628031e-03 -8.650291e-02 -2.128377e-01 6.763444e-02 1.541936e-01 -4.925994e-02 -2.421501e-02 -1.942845e-02
<VARIANCE> 39
 7.535919e+01 6.122657e+01 6.557003e+01 2.157600e+01 1.120554e+02 4.361382e+01 3.655734e+01 9.313973e+01 4.643729e+01 5.764485e+01 3.926198e+01 6.552110e+01 2.997241e+01 7.481960e+00 1.983101e+00 2.032296e+00 1.061797e+00 4.717619e+00 3.471486e+00 2.724504e+00 5.073332e+00 3.024162e+00 2.834973e+00 3.361242e+00 1.927367e+00 4.587629e-01 7.116554e-01 2.797216e-01 3.121423e-01 2.513697e-01 6.513886e-01 6.268246e-01 3.125620e-01 6.798017e-01 5.109191e-01 5.007719e-01 7.645333e-01 3.917145e-01 9.175669e-02
<GCONST> 1.237064e+02
<STATE> 3
<MEAN> 39
 -8.392496e+00 5.983519e+00 1.134899e+01 -2.440894e-02 -8.166364e+00 -7.060112e+00 -6.553458e+00 -3.197356e+00 -8.307133e+00 3.775119e-01 2.534347e-01 -6.404716e+00 6.156179e+01 1.926205e-01 -2.978094e-01 -5.385767e-01 5.898451e-01 8.082364e-01 3.015710e-01 2.406999e-01 5.816545e-02 5.187297e-01 -2.290384e-01 -7.669828e-01 5.736733e-01 -8.304863e-01 2.537443e-02 -1.201382e-01 -1.139727e-01 -1.077041e-02 -1.382514e-01 -9.447068e-02 -9.951431e-02 -6.033930e-02 -7.129604e-02 -7.160395e-02 1.302558e-01 6.842954e-02 1.705265e-02
<VARIANCE> 39
 5.116334e+01 3.921125e+01 5.430986e+01 1.486647e+01 8.022771e+01 2.833163e+01 4.314552e+01 4.145200e+01 3.910860e+01 5.045476e+01 1.704482e+01 2.577282e+01 6.483746e+01 4.901744e-01 4.063115e-01 7.235132e-01 1.001106e+00 3.281799e+00 1.671426e+00 2.661356e+00 8.799189e-01 1.806499e+00 2.433681e+00 1.546280e+00 1.261797e+00 4.280871e-01 2.357418e-01 1.152600e-01 4.961423e-02 1.503780e-01 5.552466e-01 2.717375e-01 4.522721e-01 3.572328e-01 3.240661e-01 4.694020e-01 2.260252e-01 2.406054e-01 2.336913e-02
<GCONST> 1.001861e+02
<STATE> 4
<MEAN> 39
 -1.384476e+01 1.275593e+00 -8.670719e-01 1.312137e+00 -6.251676e+00 -4.503191e+00 -5.292613e+00 -3.242475e+00 -3.338388e+00 -9.325546e-01 -2.894273e+00 8.628092e-01 4.767226e+01 -3.305502e-01 -2.997518e-01 -3.400973e-01 -4.670496e-02 -6.730757e-01 -6.653452e-02 2.080500e-04 -2.698858e-01 -1.438196e-01 1.666496e-01 4.231263e-01 2.949176e-02 -7.585836e-01 1.186955e-01 2.842171e-02 1.930675e-02 -1.656372e-01 -1.066789e-01 -1.179186e-01 1.793723e-02 -4.057922e-03 -1.934741e-01 5.578498e-02 -3.148628e-02 -7.893656e-02 1.423632e-01
<VARIANCE> 39
